{"learner":{"attributes":{"scikit_learn":"{\"_estimator_type\": \"classifier\"}"},"feature_names":["bias_week","bias_month","bias_quarter","bias_year","rsi","macd","macd_signal","vol_change","close_change","bb_width","return_5d","return_10d","k_upper","k_lower","k_body","buy_power","rs_5d","rs_10d","dist_to_20d_high","dist_to_20d_low","kd_k","kd_d","kd_cross","gap_ratio","obv","atr_ratio","trend_strength"],"feature_types":["float","float","float","float","float","float","float","float","float","float","float","float","float","float","float","float","float","float","float","float","float","float","float","float","float","float","float"],"gradient_booster":{"model":{"cats":{"enc":[],"feature_segments":[],"sorted_idx":[]},"gbtree_model_param":{"num_parallel_tree":"1","num_trees":"21"},"iteration_indptr":[0,1,2,3,4,5,6,7,8,9,10,11,12,13,14,15,16,17,18,19,20,21],"tree_info":[0,0,0,0,0,0,0,0,0,0,0,0,0,0,0,0,0,0,0,0,0],"trees":[{"base_weights":[-2.8583849E-2,2.800055E-1,-3.3424208E-1,-9.302164E-2,3.5204488E-1,-3.19878E-2,-7.0911574E-1,4.3548536E-2,-5.56138E-2,-3.1537652E-2,4.9674947E-2,-8.762176E-2,2.6197655E-2],"categories":[],"categories_nodes":[],"categories_segments":[],"categories_sizes":[],"default_left":[0,0,0,0,0,0,0,0,0,0,0,0,0],"id":0,"left_children":[1,3,5,-1,7,9,11,-1,-1,-1,-1,-1,-1],"loss_changes":[4.114215E1,1.7630201E1,2.3476854E1,0E0,1.6069296E1,1.9101402E1,1.783147E1,0E0,0E0,0E0,0E0,0E0,0E0],"parents":[2147483647,0,0,1,1,2,2,4,4,5,5,6,6],"right_children":[2,4,6,-1,8,10,12,-1,-1,-1,-1,-1,-1],"split_conditions":[1.8308619E-2,-5.7262134E-2,2.7654868E-2,-9.302164E-2,1.2460434E0,-1.0342594E-3,7.663921E1,4.3548536E-2,-5.56138E-2,-3.1537652E-2,4.9674947E-2,-8.762176E-2,2.6197655E-2],"split_indices":[18,3,19,0,7,16,21,0,0,0,0,0,0],"split_type":[0,0,0,0,0,0,0,0,0,0,0,0,0],"sum_hessian":[4.331696E2,2.1191696E2,2.2125264E2,9.509666E0,2.0240729E2,1.2633831E2,9.491432E1,1.8746484E2,1.4942443E1,8.519332E1,4.1144993E1,8.25391E1,1.2375219E1],"tree_param":{"num_deleted":"0","num_feature":"27","num_nodes":"13","size_leaf_vector":"1"}},{"base_weights":[-3.104171E-2,-7.8485656E-1,5.557828E-2,-1.2877891E0,-0E0,1.3696961E-1,-7.2977996E-1,-3.946819E-3,-1.4961866E-1,7.0945114E-2,-2.531542E-2,7.772271E-2,5.22961E-3,3.888729E-2,-1.2239327E-1],"categories":[],"categories_nodes":[],"categories_segments":[],"categories_sizes":[],"default_left":[0,0,0,0,0,0,0,0,0,0,0,0,0,0,0],"id":1,"left_children":[1,3,5,7,9,11,13,-1,-1,-1,-1,-1,-1,-1,-1],"loss_changes":[2.9869093E1,2.09774E1,2.3379866E1,4.765484E0,4.2580724E0,1.7278154E1,2.1379553E1,0E0,0E0,0E0,0E0,0E0,0E0,0E0,0E0],"parents":[2147483647,0,0,1,1,2,2,3,3,4,4,5,5,6,6],"right_children":[2,4,6,8,10,12,14,-1,-1,-1,-1,-1,-1,-1,-1],"split_conditions":[-1.14913685E-2,6.897011E-2,7.770436E-2,-9.661276E0,7.692007E-2,2.1313148E-2,-3.096035E-1,-3.946819E-3,-1.4961866E-1,7.0945114E-2,-2.531542E-2,7.772271E-2,5.22961E-3,3.888729E-2,-1.2239327E-1],"split_indices":[16,9,18,22,15,9,24,0,0,0,0,0,0,0,0],"split_type":[0,0,0,0,0,0,0,0,0,0,0,0,0,0,0],"sum_hessian":[4.3082635E2,4.636938E1,3.8445697E2,2.9330584E1,1.7038797E1,3.516012E2,3.2855778E1,6.0915856E0,2.3238998E1,5.9395695E0,1.1099228E1,3.6625973E1,3.1497522E2,8.858458E0,2.399732E1],"tree_param":{"num_deleted":"0","num_feature":"27","num_nodes":"15","size_leaf_vector":"1"}},{"base_weights":[2.4487982E-2,8.8372517E-1,-1.569708E-1,1.204984E0,1.2875234E-1,6.9616986E-3,-7.2556883E-1,-1.7107014E-2,1.4046054E-1,4.7514148E-2,-6.535519E-2,-1.82774E-2,6.431533E-2,6.2825225E-2,-9.450095E-2],"categories":[],"categories_nodes":[],"categories_segments":[],"categories_sizes":[],"default_left":[0,0,0,0,0,0,0,0,0,0,0,0,0,0,0],"id":2,"left_children":[1,3,5,7,9,11,13,-1,-1,-1,-1,-1,-1,-1,-1],"loss_changes":[6.742808E1,1.522839E1,3.3905E1,1.7812836E1,6.9465604E0,3.3843254E1,2.6105572E1,0E0,0E0,0E0,0E0,0E0,0E0,0E0,0E0],"parents":[2147483647,0,0,1,1,2,2,3,3,4,4,5,5,6,6],"right_children":[2,4,6,8,10,12,14,-1,-1,-1,-1,-1,-1,-1,-1],"split_conditions":[1.4432642E-3,4.695245E-3,2.6288298E-3,4.1886166E-4,2.3018008E-2,2.1114607E-1,-2.2998965E-1,-1.7107014E-2,1.4046054E-1,4.7514148E-2,-6.535519E-2,-1.82774E-2,6.431533E-2,6.2825225E-2,-9.450095E-2],"split_indices":[25,17,25,3,10,3,3,0,0,0,0,0,0,0,0],"split_type":[0,0,0,0,0,0,0,0,0,0,0,0,0,0,0],"sum_hessian":[4.2032526E2,7.487346E1,3.4545178E2,5.0068027E1,2.4805431E1,2.6572696E2,7.9724815E1,5.25094E0,4.4817085E1,1.9385555E1,5.419876E0,2.0246664E2,6.326033E1,9.771783E0,6.995303E1],"tree_param":{"num_deleted":"0","num_feature":"27","num_nodes":"15","size_leaf_vector":"1"}},{"base_weights":[-0E0,1.6628145E-1,-7.381759E-1,6.626478E-1,3.332322E-2,4.7597507E-1,-9.1528547E-1,-4.0450335E-2,7.984967E-2,-9.839086E-3,5.8520496E-2,1.1205991E-1,-0E0,-0E0,-1.04329616E-1],"categories":[],"categories_nodes":[],"categories_segments":[],"categories_sizes":[],"default_left":[0,0,0,0,0,0,0,0,0,0,0,0,0,0,0],"id":3,"left_children":[1,3,5,7,9,11,13,-1,-1,-1,-1,-1,-1,-1,-1],"loss_changes":[5.3782585E1,2.1889214E1,1.8708996E1,1.2072952E1,2.2181984E1,5.309389E0,7.1187706E0,0E0,0E0,0E0,0E0,0E0,0E0,0E0,0E0],"parents":[2147483647,0,0,1,1,2,2,3,3,4,4,5,5,6,6],"right_children":[2,4,6,8,10,12,14,-1,-1,-1,-1,-1,-1,-1,-1],"split_conditions":[2.6288298E-3,1.4353372E-3,-2.2998965E-1,1.0933894E-2,1.6446681E0,-5.2269087E-3,-1.7561005E-2,-4.0450335E-2,7.984967E-2,-9.839086E-3,5.8520496E-2,1.1205991E-1,-0E0,-0E0,-1.04329616E-1],"split_indices":[25,25,3,3,6,17,23,0,0,0,0,0,0,0,0],"split_type":[0,0,0,0,0,0,0,0,0,0,0,0,0,0,0],"sum_hessian":[4.3466382E2,3.5487613E2,7.9787674E1,7.0666794E1,2.8420935E2,8.3513365E0,7.143633E1,6.243573E0,6.442322E1,2.268601E2,5.7349247E1,4.934015E0,3.4173214E0,1.1104243E1,6.0332092E1],"tree_param":{"num_deleted":"0","num_feature":"27","num_nodes":"15","size_leaf_vector":"1"}},{"base_weights":[3.9300382E-2,8.0980115E-2,-1.1647634E-1,-3.866348E-1,1.5393189E-1,6.590439E-2,-5.5300318E-2,2.5394598E-2,-2.0492913E-2],"categories":[],"categories_nodes":[],"categories_segments":[],"categories_sizes":[],"default_left":[0,0,0,0,0,0,0,0,0],"id":4,"left_children":[1,3,-1,5,7,-1,-1,-1,-1],"loss_changes":[1.9494064E1,1.3881052E1,0E0,9.569161E0,1.3726366E1,0E0,0E0,0E0,0E0],"parents":[2147483647,0,0,1,1,3,3,4,4],"right_children":[2,4,-1,6,8,-1,-1,-1,-1],"split_conditions":[1.5562741E-1,-1.3949558E-2,-1.1647634E-1,-9.022815E-2,1.0722748E-2,6.590439E-2,-5.5300318E-2,2.5394598E-2,-2.0492913E-2],"split_indices":[19,0,0,1,8,0,0,0,0],"split_type":[0,0,0,0,0,0,0,0,0],"sum_hessian":[4.3168213E2,4.1992157E2,1.1760579E1,5.199908E1,3.679225E2,5.076628E0,4.692245E1,2.9181326E2,7.610921E1],"tree_param":{"num_deleted":"0","num_feature":"27","num_nodes":"9","size_leaf_vector":"1"}},{"base_weights":[-6.2452047E-3,1.1067764E-1,-8.010578E-1,-2.0503273E-2,5.8944476E-1,4.089115E-2,-1.000858E0,6.4401634E-2,-1.9233849E-2,-1.2146253E-1,7.259848E-2,-1.175794E-1,-0E0],"categories":[],"categories_nodes":[],"categories_segments":[],"categories_sizes":[],"default_left":[0,0,0,0,0,0,0,0,0,0,0,0,0],"id":5,"left_children":[1,3,5,7,9,-1,11,-1,-1,-1,-1,-1,-1],"loss_changes":[4.2028023E1,2.4984205E1,1.5820606E1,3.3131195E1,2.1578526E1,0E0,9.593224E0,0E0,0E0,0E0,0E0,0E0,0E0],"parents":[2147483647,0,0,1,1,2,2,3,3,4,4,6,6],"right_children":[2,4,6,8,10,-1,12,-1,-1,-1,-1,-1,-1],"split_conditions":[2.793937E-3,1.7421147E0,-2.2998965E-1,1.4432642E-3,6.280236E-2,4.089115E-2,1.8691588E-2,6.4401634E-2,-1.9233849E-2,-1.2146253E-1,7.259848E-2,-1.175794E-1,-0E0],"split_indices":[25,5,3,25,3,0,23,0,0,0,0,0,0],"split_type":[0,0,0,0,0,0,0,0,0,0,0,0,0],"sum_hessian":[4.3381232E2,3.7635376E2,5.7458557E1,2.9236353E2,8.3990234E1,6.3992186E0,5.1059338E1,5.6964725E1,2.353988E2,4.4840765E0,7.950616E1,4.298766E1,8.071678E0],"tree_param":{"num_deleted":"0","num_feature":"27","num_nodes":"13","size_leaf_vector":"1"}},{"base_weights":[-2.328181E-2,5.235584E-1,-2.084315E-1,6.677899E-1,-4.1732308E-1,1.0276725E0,-2.7261558E-1,-0E0,7.853272E-2,-1.1847829E-1,5.8610678E-2,1.3451485E-1,-0E0,-4.359295E-2,2.171347E-2],"categories":[],"categories_nodes":[],"categories_segments":[],"categories_sizes":[],"default_left":[0,0,0,0,0,0,0,0,0,0,0,0,0,0,0],"id":6,"left_children":[1,3,5,7,9,11,13,-1,-1,-1,-1,-1,-1,-1,-1],"loss_changes":[4.330184E1,1.530969E1,2.4542465E1,9.371128E0,1.1886437E1,4.658556E0,2.6326193E1,0E0,0E0,0E0,0E0,0E0,0E0,0E0,0E0],"parents":[2147483647,0,0,1,1,2,2,3,3,4,4,5,5,6,6],"right_children":[2,4,6,8,10,12,14,-1,-1,-1,-1,-1,-1,-1,-1],"split_conditions":[1.5500437E-3,8.777562E1,-4.6642202E-1,1.0928157E-2,6.1313596E-2,1.21342316E-1,1.6588689E0,-0E0,7.853272E-2,-1.1847829E-1,5.8610678E-2,1.3451485E-1,-0E0,-4.359295E-2,2.171347E-2],"split_indices":[25,21,24,26,9,3,6,0,0,0,0,0,0,0,0],"split_type":[0,0,0,0,0,0,0,0,0,0,0,0,0,0,0],"sum_hessian":[4.3290887E2,1.0602137E2,3.268875E2,9.422391E1,1.1797462E1,1.3762696E1,3.1312482E2,1.24757395E1,8.174816E1,7.8354445E0,3.9620185E0,1.00713625E1,3.6913338E0,2.3726776E2,7.5857056E1],"tree_param":{"num_deleted":"0","num_feature":"27","num_nodes":"15","size_leaf_vector":"1"}},{"base_weights":[4.707664E-4,5.058483E-1,-1.4847688E-1,-1.00359716E-1,5.877853E-1,-5.083766E-2,-7.106025E-1,7.9444945E-2,-4.2941673E-3,-5.712212E-2,2.9964033E-3,3.9383244E-2,-8.944933E-2],"categories":[],"categories_nodes":[],"categories_segments":[],"categories_sizes":[],"default_left":[0,0,0,0,0,0,0,0,0,0,0,0,0],"id":7,"left_children":[1,3,5,-1,7,9,11,-1,-1,-1,-1,-1,-1],"loss_changes":[3.3196888E1,1.2165327E1,1.6304546E1,0E0,1.493663E1,1.3353122E1,1.1012377E1,0E0,0E0,0E0,0E0,0E0,0E0],"parents":[2147483647,0,0,1,1,2,2,4,4,5,5,6,6],"right_children":[2,4,6,-1,8,10,12,-1,-1,-1,-1,-1,-1],"split_conditions":[1.5431903E-3,-1.0677402E-2,2.9732333E-3,-1.00359716E-1,1.5064702E0,-9.096388E-3,1.691166E1,7.9444945E-2,-4.2941673E-3,-5.712212E-2,2.9964033E-3,3.9383244E-2,-8.944933E-2],"split_indices":[25,16,25,0,5,16,21,0,0,0,0,0,0],"split_type":[0,0,0,0,0,0,0,0,0,0,0,0,0],"sum_hessian":[4.2858292E2,1.00535774E2,3.2804712E2,3.2393057E0,9.729647E1,2.8371756E2,4.432956E1,7.5235085E1,2.2061386E1,4.0956757E1,2.4276082E2,4.6503487E0,3.967921E1],"tree_param":{"num_deleted":"0","num_feature":"27","num_nodes":"13","size_leaf_vector":"1"}},{"base_weights":[4.9992412E-2,-7.118786E-1,1.4280014E-1,3.9570853E-1,-1.0648525E0,2.30974E-1,-5.5050856E-1,1.03191875E-1,-0E0,-1.3822286E-1,-0E0,7.275875E-2,1.3377429E-2,-8.619775E-2,-0E0],"categories":[],"categories_nodes":[],"categories_segments":[],"categories_sizes":[],"default_left":[0,0,0,0,0,0,0,0,0,0,0,0,0,0,0],"id":8,"left_children":[1,3,5,7,9,11,13,-1,-1,-1,-1,-1,-1,-1,-1],"loss_changes":[2.8566809E1,1.8766079E1,2.2531803E1,4.7117853E0,1.2370823E1,1.4347204E1,8.538935E0,0E0,0E0,0E0,0E0,0E0,0E0,0E0,0E0],"parents":[2147483647,0,0,1,1,2,2,3,3,4,4,5,5,6,6],"right_children":[2,4,6,8,10,12,14,-1,-1,-1,-1,-1,-1,-1,-1],"split_conditions":[-1.14913685E-2,-4.3249965E-1,2.8089716E-3,-2.1597474E0,9.6970625E0,-5.9585357E-1,9.387385E-2,1.03191875E-1,-0E0,-1.3822286E-1,-0E0,7.275875E-2,1.3377429E-2,-8.619775E-2,-0E0],"split_indices":[16,24,25,5,22,5,26,0,0,0,0,0,0,0,0],"split_type":[0,0,0,0,0,0,0,0,0,0,0,0,0,0,0],"sum_hessian":[4.200562E2,4.235043E1,3.7770578E2,8.666008E0,3.368442E1,3.384848E2,3.922098E1,4.870617E0,3.795391E0,2.5686079E1,7.9983406E0,4.9667824E1,2.88817E2,2.6535643E1,1.2685339E1],"tree_param":{"num_deleted":"0","num_feature":"27","num_nodes":"15","size_leaf_vector":"1"}},{"base_weights":[-0E0,1.459786E-1,-4.736603E-1,5.6902517E-2,1.1120272E0,4.71287E-1,-5.869026E-1,4.651036E-2,-7.6855486E-3,1.3145892E-1,-0E0,-0E0,1.0115245E-1,-1.0235641E-1,-2.3840634E-2],"categories":[],"categories_nodes":[],"categories_segments":[],"categories_sizes":[],"default_left":[0,0,0,0,0,0,0,0,0,0,0,0,0,0,0],"id":9,"left_children":[1,3,5,7,9,11,13,-1,-1,-1,-1,-1,-1,-1,-1],"loss_changes":[2.868615E1,2.4874279E1,1.0925669E1,1.7317385E1,4.340187E0,3.7911336E0,1.0722263E1,0E0,0E0,0E0,0E0,0E0,0E0,0E0,0E0],"parents":[2147483647,0,0,1,1,2,2,3,3,4,4,5,5,6,6],"right_children":[2,4,6,8,10,12,14,-1,-1,-1,-1,-1,-1,-1,-1],"split_conditions":[2.4431583E-3,7.385443E-2,-7.101367E-2,1.4610168E-3,1.4522418E-1,3.928717E-3,6.379296E-2,4.651036E-2,-7.6855486E-3,1.3145892E-1,-0E0,-0E0,1.0115245E-1,-1.0235641E-1,-2.3840634E-2],"split_indices":[25,9,10,25,19,25,3,0,0,0,0,0,0,0,0],"split_type":[0,0,0,0,0,0,0,0,0,0,0,0,0,0,0],"sum_hessian":[4.160321E2,3.194585E2,9.657362E1,2.9546198E2,2.3996515E1,7.912484E0,8.866114E1,7.627179E1,2.1919019E2,1.9113781E1,4.8827357E0,3.2542803E0,4.658204E0,3.522736E1,5.343378E1],"tree_param":{"num_deleted":"0","num_feature":"27","num_nodes":"15","size_leaf_vector":"1"}},{"base_weights":[-1.2864206E-2,7.979753E-2,-6.534016E-1,4.9836764E-1,-2.724603E-2,2.2464605E-1,-8.322766E-1,6.6501774E-2,-0E0,-1.3102972E-2,7.0647605E-2,1.0805953E-1,-2.853705E-2,-1.0032432E-1,2.8859967E-2],"categories":[],"categories_nodes":[],"categories_segments":[],"categories_sizes":[],"default_left":[0,0,0,0,0,0,0,0,0,0,0,0,0,0,0],"id":10,"left_children":[1,3,5,7,9,11,13,-1,-1,-1,-1,-1,-1,-1,-1],"loss_changes":[2.6339752E1,1.7458754E1,1.0390053E1,7.6391144E0,2.1079645E1,5.6621957E0,1.176783E1,0E0,0E0,0E0,0E0,0E0,0E0,0E0,0E0],"parents":[2147483647,0,0,1,1,2,2,3,3,4,4,5,5,6,6],"right_children":[2,4,6,8,10,12,14,-1,-1,-1,-1,-1,-1,-1,-1],"split_conditions":[2.793937E-3,1.4610168E-3,-2.2998965E-1,1.992759E-2,7.385443E-2,-6.4324015E-3,8.448438E1,6.6501774E-2,-0E0,-1.3102972E-2,7.0647605E-2,1.0805953E-1,-2.853705E-2,-1.0032432E-1,2.8859967E-2],"split_indices":[25,25,3,10,9,17,21,0,0,0,0,0,0,0,0],"split_type":[0,0,0,0,0,0,0,0,0,0,0,0,0,0,0],"sum_hessian":[4.2037085E2,3.6482913E2,5.5541737E1,7.7946205E1,2.868829E2,7.2295246E0,4.831221E1,5.968985E1,1.825635E1,2.5454857E2,3.2334347E1,3.9656732E0,3.2638512E0,4.3474728E1,4.837482E0],"tree_param":{"num_deleted":"0","num_feature":"27","num_nodes":"15","size_leaf_vector":"1"}},{"base_weights":[-0E0,2.1156444E-1,-1.7627467E-1,4.768553E-1,-2.2508927E-1,-2.554199E-1,8.658718E-1,-1.2014364E-2,6.477605E-2,1.3754372E-3,-8.408679E-2,-4.050702E-3,-6.62479E-2,1.321243E-1,-0E0],"categories":[],"categories_nodes":[],"categories_segments":[],"categories_sizes":[],"default_left":[0,0,0,0,0,0,0,0,0,0,0,0,0,0,0],"id":11,"left_children":[1,3,5,7,9,11,13,-1,-1,-1,-1,-1,-1,-1,-1],"loss_changes":[1.6044136E1,2.3723866E1,1.7747478E1,1.4678753E1,1.2693263E1,1.7495522E1,3.9272814E0,0E0,0E0,0E0,0E0,0E0,0E0,0E0,0E0],"parents":[2147483647,0,0,1,1,2,2,3,3,4,4,5,5,6,6],"right_children":[2,4,6,8,10,12,14,-1,-1,-1,-1,-1,-1,-1,-1],"split_conditions":[1.9104355E-3,4.4966997E-3,5.574236E-1,-3.1364611E-3,7.102168E-3,1.9323574E-2,2.847999E-1,-1.2014364E-2,6.477605E-2,1.3754372E-3,-8.408679E-2,-4.050702E-3,-6.62479E-2,1.321243E-1,-0E0],"split_indices":[25,17,4,17,0,11,3,0,0,0,0,0,0,0,0],"split_type":[0,0,0,0,0,0,0,0,0,0,0,0,0,0,0],"sum_hessian":[4.269179E2,1.9823654E2,2.2868138E2,1.26478E2,7.1758545E1,2.1515591E2,1.3525462E1,2.5926208E1,1.0055179E2,4.984767E1,2.1910872E1,1.4573819E2,6.941773E1,7.43221E0,6.0932517E0],"tree_param":{"num_deleted":"0","num_feature":"27","num_nodes":"15","size_leaf_vector":"1"}},{"base_weights":[3.5094306E-2,5.374027E-1,-4.985323E-3,-2.7657896E-1,8.7858206E-1,-8.4512424E-1,3.20354E-2,-8.98066E-2,1.5239505E-2,1.05708145E-1,-0E0,-1.1600449E-1,-0E0,4.45332E-2,-1.8707769E-3],"categories":[],"categories_nodes":[],"categories_segments":[],"categories_sizes":[],"default_left":[0,0,0,0,0,0,0,0,0,0,0,0,0,0,0],"id":12,"left_children":[1,3,5,7,9,11,13,-1,-1,-1,-1,-1,-1,-1,-1],"loss_changes":[9.736057E0,1.1421755E1,1.3962893E1,4.299049E0,5.9277573E0,3.7290525E0,8.850026E0,0E0,0E0,0E0,0E0,0E0,0E0,0E0,0E0],"parents":[2147483647,0,0,1,1,2,2,3,3,4,4,5,5,6,6],"right_children":[2,4,6,8,10,12,14,-1,-1,-1,-1,-1,-1,-1,-1],"split_conditions":[-3.096035E-1,2.8076567E-2,-2.6461938E-1,3.646944E1,4.888054E-3,-2.717864E-2,2.2823837E-2,-8.98066E-2,1.5239505E-2,1.05708145E-1,-0E0,-1.1600449E-1,-0E0,4.45332E-2,-1.8707769E-3],"split_indices":[24,26,4,20,10,10,9,0,0,0,0,0,0,0,0],"split_type":[0,0,0,0,0,0,0,0,0,0,0,0,0,0,0],"sum_hessian":[4.2300348E2,3.4623516E1,3.8837994E2,8.32269E0,2.6300829E1,1.8167294E1,3.7021265E2,5.123242E0,3.1994479E0,2.282302E1,3.4778068E0,1.1803561E1,6.3637323E0,4.436429E1,3.2584836E2],"tree_param":{"num_deleted":"0","num_feature":"27","num_nodes":"15","size_leaf_vector":"1"}},{"base_weights":[1.1221464E-2,7.230808E-2,-6.9970906E-1,7.166013E-1,2.4495246E-2,2.5546769E-2,-1.0316443E0,-0E0,1.0009481E-1,-5.1525235E-3,4.426831E-2,-3.3564597E-2,8.811827E-2,-0E0,-1.18000284E-1],"categories":[],"categories_nodes":[],"categories_segments":[],"categories_sizes":[],"default_left":[0,0,0,0,0,0,0,0,0,0,0,0,0,0,0],"id":13,"left_children":[1,3,5,7,9,11,13,-1,-1,-1,-1,-1,-1,-1,-1],"loss_changes":[1.6950794E1,1.0396034E1,9.64368E0,4.6386957E0,1.2812921E1,4.104467E0,3.7602768E0,0E0,0E0,0E0,0E0,0E0,0E0,0E0,0E0],"parents":[2147483647,0,0,1,1,2,2,3,3,4,4,5,5,6,6],"right_children":[2,4,6,8,10,12,14,-1,-1,-1,-1,-1,-1,-1,-1],"split_conditions":[3.2078398E-3,-3.096035E-1,-3.096035E-1,2.7298164E-2,1.0444372E1,9.115028E-2,-1.222579E1,-0E0,1.0009481E-1,-5.1525235E-3,4.426831E-2,-3.3564597E-2,8.811827E-2,-0E0,-1.18000284E-1],"split_indices":[25,24,24,26,22,9,22,0,0,0,0,0,0,0,0],"split_type":[0,0,0,0,0,0,0,0,0,0,0,0,0,0,0],"sum_hessian":[4.2101944E2,3.913396E2,2.9679834E1,2.2944061E1,3.6839554E2,7.4362555E0,2.2243578E1,7.242943E0,1.5701118E1,3.0798892E2,6.0406643E1,3.7609656E0,3.67529E0,3.0688076E0,1.917477E1],"tree_param":{"num_deleted":"0","num_feature":"27","num_nodes":"15","size_leaf_vector":"1"}},{"base_weights":[-3.0042073E-2,9.0424664E-2,-4.70092E-1,4.5159337E-1,-6.9556855E-2,6.457677E-4,-6.2261814E-1,-1.5743183E-2,6.7444324E-2,-2.0326938E-2,4.4634625E-2,7.856226E-2,-2.9079325E-2,-1.03288904E-1,-7.4236537E-3],"categories":[],"categories_nodes":[],"categories_segments":[],"categories_sizes":[],"default_left":[0,0,0,0,0,0,0,0,0,0,0,0,0,0,0],"id":14,"left_children":[1,3,5,7,9,11,13,-1,-1,-1,-1,-1,-1,-1,-1],"loss_changes":[2.2772385E1,1.9420414E1,8.070425E0,1.5604296E1,1.4904833E1,5.9675703E0,1.4329685E1,0E0,0E0,0E0,0E0,0E0,0E0,0E0,0E0],"parents":[2147483647,0,0,1,1,2,2,3,3,4,4,5,5,6,6],"right_children":[2,4,6,8,10,12,14,-1,-1,-1,-1,-1,-1,-1,-1],"split_conditions":[2.4511807E-3,-9.596713E-3,-2.5954309E0,-1.0677402E-2,5.8247123E-2,7.7598654E-2,3.2058724E-3,-1.5743183E-2,6.7444324E-2,-2.0326938E-2,4.4634625E-2,7.856226E-2,-2.9079325E-2,-1.03288904E-1,-7.4236537E-3],"split_indices":[25,24,5,16,26,9,17,0,0,0,0,0,0,0,0],"split_type":[0,0,0,0,0,0,0,0,0,0,0,0,0,0,0],"sum_hessian":[4.1187454E2,3.198699E2,9.200463E1,1.0203634E2,2.1783357E2,1.9108454E1,7.289618E1,2.516062E1,7.687572E1,1.7666667E2,4.11669E1,6.8552284E0,1.2253225E1,3.8547012E1,3.434917E1],"tree_param":{"num_deleted":"0","num_feature":"27","num_nodes":"15","size_leaf_vector":"1"}},{"base_weights":[9.820324E-3,4.293558E-1,-6.850086E-2,7.360901E-1,-1.3387711E-1,-1.9942823E-1,3.5066023E-1,-0E0,8.503847E-2,1.3815468E-2,-1.0550905E-1,-9.142326E-3,-8.982958E-2,5.489478E-2,-4.9405936E-2],"categories":[],"categories_nodes":[],"categories_segments":[],"categories_sizes":[],"default_left":[0,0,0,0,0,0,0,0,0,0,0,0,0,0,0],"id":15,"left_children":[1,3,5,7,9,11,13,-1,-1,-1,-1,-1,-1,-1,-1],"loss_changes":[1.4389482E1,1.34537E1,1.8583185E1,6.1876984E0,7.9638453E0,1.786929E1,1.3786424E1,0E0,0E0,0E0,0E0,0E0,0E0,0E0,0E0],"parents":[2147483647,0,0,1,1,2,2,3,3,4,4,5,5,6,6],"right_children":[2,4,6,8,10,12,14,-1,-1,-1,-1,-1,-1,-1,-1],"split_conditions":[1.4467235E-3,8.158121E-3,1.6588689E0,-7.374319E-1,4.964911E-3,1.316284E0,2.6210185E-2,-0E0,8.503847E-2,1.3815468E-2,-1.0550905E-1,-9.142326E-3,-8.982958E-2,5.489478E-2,-4.9405936E-2],"split_indices":[25,16,6,6,0,5,18,0,0,0,0,0,0,0,0],"split_type":[0,0,0,0,0,0,0,0,0,0,0,0,0,0,0],"sum_hessian":[4.115288E2,6.8660645E1,3.4286816E2,4.6872276E1,2.1788366E1,2.6570456E2,7.7163605E1,4.118908E0,4.275337E1,1.5533202E1,6.2551646E0,2.3428197E2,3.1422602E1,6.467289E1,1.2490711E1],"tree_param":{"num_deleted":"0","num_feature":"27","num_nodes":"15","size_leaf_vector":"1"}},{"base_weights":[2.554819E-3,5.919325E-2,-5.987563E-1,-5.0869787E-1,1.22771055E-1,2.670865E-2,-1.0169656E0,5.1669464E-2,-6.903793E-2,-1.4643099E-3,2.628827E-2,-0E0,-1.23030886E-1],"categories":[],"categories_nodes":[],"categories_segments":[],"categories_sizes":[],"default_left":[0,0,0,0,0,0,0,0,0,0,0,0,0],"id":16,"left_children":[1,3,5,7,9,-1,11,-1,-1,-1,-1,-1,-1],"loss_changes":[1.2658495E1,1.2749285E1,1.3408837E1,7.344138E0,7.260629E0,0E0,4.313843E0,0E0,0E0,0E0,0E0,0E0,0E0],"parents":[2147483647,0,0,1,1,2,2,3,3,4,4,6,6],"right_children":[2,4,6,8,10,-1,12,-1,-1,-1,-1,-1,-1],"split_conditions":[3.2078398E-3,-7.1256408E-3,-7.101367E-2,-8.222548E-2,6.666565E-2,2.670865E-2,-3.493202E0,5.1669464E-2,-6.903793E-2,-1.4643099E-3,2.628827E-2,-0E0,-1.23030886E-1],"split_indices":[25,17,10,2,12,0,6,0,0,0,0,0,0],"split_type":[0,0,0,0,0,0,0,0,0,0,0,0,0],"sum_hessian":[4.056396E2,3.7485803E2,3.0781559E1,3.356339E1,3.4129465E2,8.355676E0,2.2425882E1,3.0756454E0,3.0487743E1,1.658482E2,1.7544643E2,4.825472E0,1.760041E1],"tree_param":{"num_deleted":"0","num_feature":"27","num_nodes":"13","size_leaf_vector":"1"}},{"base_weights":[5.2740134E-2,2.5642452E-1,-1.9554274E-1,1.3793851E-1,7.458648E-1,8.8403225E-2,-2.740437E-1,-9.435723E-2,1.9541891E-2,-0E0,8.763459E-2,-6.634786E-2,-0E0],"categories":[],"categories_nodes":[],"categories_segments":[],"categories_sizes":[],"default_left":[0,0,0,0,0,0,0,0,0,0,0,0,0],"id":17,"left_children":[1,3,5,7,9,-1,11,-1,-1,-1,-1,-1,-1],"loss_changes":[2.0824356E1,1.1234116E1,1.4129187E1,1.0657791E1,4.6609173E0,0E0,1.9633736E1,0E0,0E0,0E0,0E0,0E0,0E0],"parents":[2147483647,0,0,1,1,2,2,3,3,4,4,6,6],"right_children":[2,4,6,8,10,-1,12,-1,-1,-1,-1,-1,-1],"split_conditions":[2.0681962E-3,3.244691E-2,-2.2998965E-1,-1.6204773E-2,-1.639344E-2,8.8403225E-2,7.358963E-2,-9.435723E-2,1.9541891E-2,-0E0,8.763459E-2,-6.634786E-2,-0E0],"split_indices":[25,18,3,2,0,0,3,0,0,0,0,0,0],"split_type":[0,0,0,0,0,0,0,0,0,0,0,0,0],"sum_hessian":[4.073499E2,2.2874551E2,1.786044E2,1.8876118E2,3.9984337E1,9.49635E0,1.6910805E2,7.075207E0,1.8168597E2,5.757224E0,3.422711E1,7.156352E1,9.7544525E1],"tree_param":{"num_deleted":"0","num_feature":"27","num_nodes":"13","size_leaf_vector":"1"}},{"base_weights":[2.9037265E-2,2.5201365E-1,-1.7599212E-1,3.1854293E-1,-1.07470304E-1,-6.913885E-1,3.2299213E-2,-3.069594E-2,4.114125E-2,-1.03203356E-1,2.0680344E-3,2.1146255E-2,-3.558112E-2],"categories":[],"categories_nodes":[],"categories_segments":[],"categories_sizes":[],"default_left":[0,0,0,0,0,0,0,0,0,0,0,0,0],"id":18,"left_children":[1,3,5,7,-1,9,11,-1,-1,-1,-1,-1,-1],"loss_changes":[1.947294E1,1.7005325E1,2.4559765E1,1.2422632E1,0E0,1.8463982E1,1.0391508E1,0E0,0E0,0E0,0E0,0E0,0E0],"parents":[2147483647,0,0,1,1,2,2,3,3,5,5,6,6],"right_children":[2,4,6,8,-1,10,12,-1,-1,-1,-1,-1,-1],"split_conditions":[1.9379095E-3,9.26389E1,3.0488715E-2,1.0385174E-2,-1.07470304E-1,2.2796354E-1,2.757034E-3,-3.069594E-2,4.114125E-2,-1.03203356E-1,2.0680344E-3,2.1146255E-2,-3.558112E-2],"split_indices":[25,20,26,26,0,3,25,0,0,0,0,0,0],"split_type":[0,0,0,0,0,0,0,0,0,0,0,0,0],"sum_hessian":[4.2049976E2,2.0660652E2,2.1389325E2,1.9903554E2,7.5709805E0,6.410214E1,1.497911E2,2.3069725E1,1.7596582E2,4.488048E1,1.9221663E1,1.0662468E2,4.316642E1],"tree_param":{"num_deleted":"0","num_feature":"27","num_nodes":"13","size_leaf_vector":"1"}},{"base_weights":[-4.838263E-3,4.0944982E-2,-6.891944E-1,-3.3262815E-2,3.567362E-1,-0E0,-8.9647785E-2,3.351104E-2,-1.4000555E-2,7.1042046E-2,-0E0],"categories":[],"categories_nodes":[],"categories_segments":[],"categories_sizes":[],"default_left":[0,0,0,0,0,0,0,0,0,0,0],"id":19,"left_children":[1,3,5,7,9,-1,-1,-1,-1,-1,-1],"loss_changes":[1.4165246E1,9.574898E0,6.061455E0,1.1618231E1,9.86413E0,0E0,0E0,0E0,0E0,0E0,0E0],"parents":[2147483647,0,0,1,1,2,2,3,3,4,4],"right_children":[2,4,6,8,10,-1,-1,-1,-1,-1,-1],"split_conditions":[3.2078398E-3,2.1114607E-1,1.7360844E1,1.4353372E-3,2.760696E-1,-0E0,-8.9647785E-2,3.351104E-2,-1.4000555E-2,7.1042046E-2,-0E0],"split_indices":[25,3,21,25,3,0,0,0,0,0,0],"split_type":[0,0,0,0,0,0,0,0,0,0,0],"sum_hessian":[4.0381674E2,3.761678E2,2.7648968E1,2.994358E2,7.6731995E1,4.507069E0,2.31419E1,6.2319683E1,2.371161E2,3.7624546E1,3.910745E1],"tree_param":{"num_deleted":"0","num_feature":"27","num_nodes":"11","size_leaf_vector":"1"}},{"base_weights":[4.5316998E-2,5.289177E-1,-0E0,7.151228E-1,-1.0914487E-2,-6.4527875E-1,4.0569443E-2,8.501748E-2,-0E0,-0E0,-1.16320364E-1,5.0288342E-2,-2.0457972E-3],"categories":[],"categories_nodes":[],"categories_segments":[],"categories_sizes":[],"default_left":[0,0,0,0,0,0,0,0,0,0,0,0,0],"id":20,"left_children":[1,3,5,7,-1,9,11,-1,-1,-1,-1,-1,-1],"loss_changes":[8.780566E0,5.531682E0,9.651681E0,3.7350664E0,0E0,8.087554E0,1.1490796E1,0E0,0E0,0E0,0E0,0E0,0E0],"parents":[2147483647,0,0,1,1,2,2,3,3,5,5,6,6],"right_children":[2,4,6,8,-1,10,12,-1,-1,-1,-1,-1,-1],"split_conditions":[-3.025791E-1,3.636288E-1,-1.8071876E0,7.97167E-3,-1.0914487E-2,6.246869E-2,-6.591517E-1,8.501748E-2,-0E0,-0E0,-1.16320364E-1,5.0288342E-2,-2.0457972E-3],"split_indices":[24,13,5,23,0,26,5,0,0,0,0,0,0],"split_type":[0,0,0,0,0,0,0,0,0,0,0,0,0],"sum_hessian":[4.1752246E2,3.3595554E1,3.839269E2,2.8666897E1,4.9286575E0,2.0878761E1,3.6304816E2,2.478265E1,3.8842468E0,9.275184E0,1.1603578E1,4.5654987E1,3.1739316E2],"tree_param":{"num_deleted":"0","num_feature":"27","num_nodes":"13","size_leaf_vector":"1"}}]},"name":"gbtree"},"learner_model_param":{"base_score":"[5E-1]","boost_from_average":"1","num_class":"0","num_feature":"27","num_target":"1"},"objective":{"name":"binary:logistic","reg_loss_param":{"scale_pos_weight":"2.34622145"}}},"version":[3,2,0]}