{"learner":{"attributes":{"scikit_learn":"{\"_estimator_type\": \"classifier\"}"},"feature_names":["bias_week","bias_month","bias_quarter","bias_year","rsi","macd","macd_signal","vol_change","close_change","bb_width","return_5d","k_upper","k_lower","k_body","buy_power","rs_5d"],"feature_types":["float","float","float","float","float","float","float","float","float","float","float","float","float","float","float","float"],"gradient_booster":{"model":{"gbtree_model_param":{"num_parallel_tree":"1","num_trees":"32"},"iteration_indptr":[0,1,2,3,4,5,6,7,8,9,10,11,12,13,14,15,16,17,18,19,20,21,22,23,24,25,26,27,28,29,30,31,32],"tree_info":[0,0,0,0,0,0,0,0,0,0,0,0,0,0,0,0,0,0,0,0,0,0,0,0,0,0,0,0,0,0,0,0],"trees":[{"base_weights":[7.5194603E-3,-1.6176756E-1,7.5550103E-1,2.4801643E-1,-3.1116167E-1,1.2768642E0,5.145752E-1,-5.1966935E-1,7.3361355E-1,-3.8730597E-1,4.238469E-1,1.4051614E0,-1.4511709E-3,-3.0974996E-1,7.1150506E-1,-3.8962644E-2,1.8153051E-3,2.137634E-2,5.6156542E-2,-5.3831553E-3,-4.0762775E-2,7.0351504E-2,5.434704E-4,3.7775327E-2,8.453901E-2,-3.7456643E-2,4.3998074E-2,5.1954377E-2,8.026223E-3],"categories":[],"categories_nodes":[],"categories_segments":[],"categories_sizes":[],"default_left":[0,0,0,0,0,0,0,0,0,0,0,0,0,0,0,0,0,0,0,0,0,0,0,0,0,0,0,0,0],"id":0,"left_children":[1,3,5,7,9,11,13,15,17,19,21,23,-1,25,27,-1,-1,-1,-1,-1,-1,-1,-1,-1,-1,-1,-1,-1,-1],"loss_changes":[3.749004E1,1.4859745E1,6.206337E0,2.4638086E1,1.0092651E1,2.8210373E0,6.5589046E0,3.7513714E0,4.321314E0,1.9211855E1,6.940171E0,1.5300598E0,0E0,4.9592566E0,5.576456E0,0E0,0E0,0E0,0E0,0E0,0E0,0E0,0E0,0E0,0E0,0E0,0E0,0E0,0E0],"parents":[2147483647,0,0,1,1,2,2,3,3,4,4,5,5,6,6,7,7,8,8,9,9,10,10,11,11,13,13,14,14],"right_children":[2,4,6,8,10,12,14,16,18,20,22,24,-1,26,28,-1,-1,-1,-1,-1,-1,-1,-1,-1,-1,-1,-1,-1,-1],"split_conditions":[9.185635E-2,-7.2618234E-3,-4.1591246E-3,2.480207E-2,3.487184E-1,5.555556E-1,3.8303204E-3,-1.8142536E-2,1.4427046E-1,1.885486E-1,1.2953338E-2,-2.4940698E0,-1.4511709E-3,1.1951865E-2,2.4183105E-1,-3.8962644E-2,1.8153051E-3,2.137634E-2,5.6156542E-2,-5.3831553E-3,-4.0762775E-2,7.0351504E-2,5.434704E-4,3.7775327E-2,8.453901E-2,-3.7456643E-2,4.3998074E-2,5.1954377E-2,8.026223E-3],"split_indices":[9,1,0,3,3,13,10,10,3,3,15,6,0,0,11,0,0,0,0,0,0,0,0,0,0,0,0,0,0],"split_type":[0,0,0,0,0,0,0,0,0,0,0,0,0,0,0,0,0,0,0,0,0,0,0,0,0,0,0,0,0],"sum_hessian":[2.9410953E2,2.4046907E2,5.3640465E1,6.406911E1,1.7639996E2,1.5594394E1,3.804607E1,2.4797035E1,3.9272068E1,1.6026965E2,1.6130316E1,1.4130155E1,1.4642397E0,7.2259984E0,3.082007E1,1.6630638E1,8.166398E0,2.3165754E1,1.6106314E1,9.76875E1,6.2582153E1,4.0592785E0,1.2071037E1,5.428318E0,8.701837E0,5.547519E0,1.6784793E0,1.8772873E1,1.2047197E1],"tree_param":{"num_deleted":"0","num_feature":"16","num_nodes":"29","size_leaf_vector":"1"}},{"base_weights":[-3.2973804E-2,-2.1131329E-1,7.3077613E-1,4.6384504E-1,-2.777349E-1,1.1889076E0,5.1819843E-1,7.708536E-1,-4.176258E-2,-3.3538026E-1,5.283681E-1,1.5167065E-1,1.3395962E0,6.077623E-1,-6.14365E-1,6.1226114E-5,6.394535E-2,5.7433844E-2,-2.0189658E-2,-8.96654E-3,-3.1711288E-2,6.281215E-2,3.60851E-3,-1.9774903E-2,3.0324254E-2,7.1839236E-2,3.013947E-3,-1.7630955E-2,3.7418943E-2,-5.5773955E-2,8.619545E-3],"categories":[],"categories_nodes":[],"categories_segments":[],"categories_sizes":[],"default_left":[0,0,0,0,0,0,0,0,0,0,0,0,0,0,0,0,0,0,0,0,0,0,0,0,0,0,0,0,0,0,0],"id":1,"left_children":[1,3,5,7,9,11,13,15,17,19,21,23,25,27,29,-1,-1,-1,-1,-1,-1,-1,-1,-1,-1,-1,-1,-1,-1,-1,-1],"loss_changes":[4.075625E1,1.1000908E1,4.901289E0,3.4609728E0,1.0462795E1,2.4825745E0,4.478527E0,5.3924932E0,4.469263E0,9.548346E0,4.943521E0,1.0629408E0,1.7629948E0,5.3965425E0,1.5576597E0,0E0,0E0,0E0,0E0,0E0,0E0,0E0,0E0,0E0,0E0,0E0,0E0,0E0,0E0,0E0,0E0],"parents":[2147483647,0,0,1,1,2,2,3,3,4,4,5,5,6,6,7,7,8,8,9,9,10,10,11,11,12,12,13,13,14,14],"right_children":[2,4,6,8,10,12,14,16,18,20,22,24,26,28,30,-1,-1,-1,-1,-1,-1,-1,-1,-1,-1,-1,-1,-1,-1,-1,-1],"split_conditions":[9.212722E-2,4.651427E-2,-4.2687366E-3,1.5913418E-1,3.7186623E-1,-4.2386606E-1,6.8423355E-1,-3.460481E-2,2.455116E-3,1.885486E-1,1.33755915E-2,-1.1997112E-1,5.555562E-1,4.6403005E-4,1.0353556E-1,6.1226114E-5,6.394535E-2,5.7433844E-2,-2.0189658E-2,-8.96654E-3,-3.1711288E-2,6.281215E-2,3.60851E-3,-1.9774903E-2,3.0324254E-2,7.1839236E-2,3.013947E-3,-1.7630955E-2,3.7418943E-2,-5.5773955E-2,8.619545E-3],"split_indices":[9,14,0,3,3,7,3,10,15,3,15,2,11,0,9,0,0,0,0,0,0,0,0,0,0,0,0,0,0,0,0],"split_type":[0,0,0,0,0,0,0,0,0,0,0,0,0,0,0,0,0,0,0,0,0,0,0,0,0,0,0,0,0,0,0],"sum_hessian":[2.9708963E2,2.4143634E2,5.5653294E1,2.1088982E1,2.2034737E2,1.6183348E1,3.9469948E1,1.2795099E1,8.293882E0,2.0618666E2,1.4160697E1,2.3073874E0,1.3875959E1,3.70068E1,2.4631472E0,5.4863963E0,7.308703E0,1.4273981E0,6.8664846E0,1.3650653E2,6.968014E1,4.780142E0,9.380555E0,1.106555E0,1.2008324E0,1.2781847E1,1.0941122E0,4.533859E0,3.2472942E1,1.2494833E0,1.2136637E0],"tree_param":{"num_deleted":"0","num_feature":"16","num_nodes":"31","size_leaf_vector":"1"}},{"base_weights":[-4.3379413E-3,-1.7750086E-1,7.674856E-1,1.5302493E-1,-3.2637474E-1,1.0003464E0,3.735893E-1,5.857721E-1,-1.5436948E-2,3.6727E-1,-3.9096108E-1,1.2980291E0,2.2313724E-1,3.497494E-3,7.797366E-2,-2.9407078E-2,3.5997447E-2,1.564546E-2,-2.6181428E-2,-3.40283E-2,3.1051451E-2,-2.1191454E-2,3.218205E-2,1.733751E-2,7.188478E-2,4.0809195E-2,-1.6398514E-2,5.084426E-2,-1.5896356E-2],"categories":[],"categories_nodes":[],"categories_segments":[],"categories_sizes":[],"default_left":[0,0,0,0,0,0,0,0,0,0,0,0,0,0,0,0,0,0,0,0,0,0,0,0,0,0,0,0,0],"id":2,"left_children":[1,3,5,7,9,11,13,15,17,19,21,23,25,27,-1,-1,-1,-1,-1,-1,-1,-1,-1,-1,-1,-1,-1,-1,-1],"loss_changes":[3.9471687E1,1.1918349E1,4.590248E0,5.519083E0,7.607851E0,7.4415436E0,9.519722E0,3.7633429E0,9.40436E0,4.333415E0,5.4723835E0,2.6840668E0,3.6869683E0,6.0376062E0,0E0,0E0,0E0,0E0,0E0,0E0,0E0,0E0,0E0,0E0,0E0,0E0,0E0,0E0,0E0],"parents":[2147483647,0,0,1,1,2,2,3,3,4,4,5,5,6,6,7,7,8,8,9,9,10,10,11,11,12,12,13,13],"right_children":[2,4,6,8,10,12,14,16,18,20,22,24,26,28,-1,-1,-1,-1,-1,-1,-1,-1,-1,-1,-1,-1,-1,-1,-1],"split_conditions":[9.212722E-2,-2.5244927E-4,1.2458149E-1,4.2724762E-2,-2.4682147E-2,1.5794653E-2,1.9121699E-1,-2.3174971E-2,3.4042433E-1,4.9639795E-2,8.3429925E-2,9.378431E-2,1.1111347E-1,-7.351098E-3,7.797366E-2,-2.9407078E-2,3.5997447E-2,1.564546E-2,-2.6181428E-2,-3.40283E-2,3.1051451E-2,-2.1191454E-2,3.218205E-2,1.733751E-2,7.188478E-2,4.0809195E-2,-1.6398514E-2,5.084426E-2,-1.5896356E-2],"split_indices":[9,15,9,9,10,8,9,8,13,5,10,9,11,0,0,0,0,0,0,0,0,0,0,0,0,0,0,0,0],"split_type":[0,0,0,0,0,0,0,0,0,0,0,0,0,0,0,0,0,0,0,0,0,0,0,0,0,0,0,0,0],"sum_hessian":[2.9331424E2,2.4019514E2,5.31191E1,7.45821E1,1.6561305E2,3.241601E1,2.0703085E1,2.020417E1,5.437793E1,1.3707768E1,1.5190527E2,2.2954128E1,9.461885E0,1.6543211E1,4.159873E0,1.7253897E0,1.847878E1,3.3267704E1,2.1110228E1,2.3445566E0,1.1363213E1,1.478002E2,4.105081E0,3.384533E0,1.9569595E1,4.32585E0,5.1360354E0,3.4626102E0,1.3080601E1],"tree_param":{"num_deleted":"0","num_feature":"16","num_nodes":"29","size_leaf_vector":"1"}},{"base_weights":[7.79964E-4,-1.8105555E-1,5.472483E-1,1.501042E-1,-3.2690263E-1,1.1386443E0,3.5783103E-1,-5.4199046E-1,5.415726E-1,-3.8569877E-1,1.048595E0,2.6320618E-1,7.41181E-2,7.749728E-1,1.4294049E-1,-4.4721983E-2,4.243865E-3,3.8507205E-2,-5.493324E-3,8.8694645E-3,-2.7747631E-2,6.9758914E-2,-1.2333063E-2,4.2030673E-2,-2.3334026E-2,4.6276964E-2,-4.3280173E-2,6.315304E-2,6.0966955E-5],"categories":[],"categories_nodes":[],"categories_segments":[],"categories_sizes":[],"default_left":[0,0,0,0,0,0,0,0,0,0,0,0,0,0,0,0,0,0,0,0,0,0,0,0,0,0,0,0,0],"id":3,"left_children":[1,3,5,7,9,11,13,15,17,19,21,23,-1,25,27,-1,-1,-1,-1,-1,-1,-1,-1,-1,-1,-1,-1,-1,-1],"loss_changes":[2.9007254E1,1.0628368E1,7.7569675E0,1.8624205E1,1.2728146E1,4.792118E0,4.96828E0,5.586812E0,6.5937214E0,1.4095486E1,3.2690392E0,2.9510489E0,0E0,5.5039434E0,6.1295414E0,0E0,0E0,0E0,0E0,0E0,0E0,0E0,0E0,0E0,0E0,0E0,0E0,0E0,0E0],"parents":[2147483647,0,0,1,1,2,2,3,3,4,4,5,5,6,6,7,7,8,8,9,9,10,10,11,11,13,13,14,14],"right_children":[2,4,6,8,10,12,14,16,18,20,22,24,-1,26,28,-1,-1,-1,-1,-1,-1,-1,-1,-1,-1,-1,-1,-1,-1],"split_conditions":[8.388209E-2,-1.0040415E-3,-4.6551657E-1,3.6322758E-2,4.4299242E-1,-2.6128216E0,1.4324331E-2,-1.7331425E-2,1.5534908E-2,9.087708E-2,7.2937414E-2,-3.2660222E0,7.41181E-2,3.8985868E0,-4.5195675E-1,-4.4721983E-2,4.243865E-3,3.8507205E-2,-5.493324E-3,8.8694645E-3,-2.7747631E-2,6.9758914E-2,-1.2333063E-2,4.2030673E-2,-2.3334026E-2,4.6276964E-2,-4.3280173E-2,6.315304E-2,6.0966955E-5],"split_indices":[9,15,13,3,3,6,3,10,8,3,9,6,0,6,7,0,0,0,0,0,0,0,0,0,0,0,0,0,0],"split_type":[0,0,0,0,0,0,0,0,0,0,0,0,0,0,0,0,0,0,0,0,0,0,0,0,0,0,0,0,0],"sum_hessian":[2.8992224E2,2.1803914E2,7.188311E1,6.665756E1,1.5138158E2,1.6222412E1,5.56607E1,2.3943052E1,4.271451E1,1.4586606E2,5.5155053E0,5.0714207E0,1.11509905E1,1.8038437E1,3.7622265E1,1.5052895E1,8.890157E0,3.1485073E1,1.1229439E1,3.3700462E1,1.121656E2,4.290353E0,1.2251529E0,2.7467701E0,2.3246508E0,1.6921303E1,1.1171336E0,3.3368144E0,3.428545E1],"tree_param":{"num_deleted":"0","num_feature":"16","num_nodes":"29","size_leaf_vector":"1"}},{"base_weights":[-4.915496E-2,-2.0249483E-1,6.062292E-1,-1.69131E-1,-6.8089075E-2,7.800759E-1,1.7272976E-1,-1.8773751E-1,6.738638E-2,1.8487817E-1,1.0574033E0,1.0132879E0,-1.0217809E-1,4.4547827E-3,-1.4735334E-2,4.4504788E-2,-9.302872E-3,6.8932675E-2,3.0332664E-2,6.5719865E-2,2.1832502E-3,-2.447641E-2,2.0622216E-2],"categories":[],"categories_nodes":[],"categories_segments":[],"categories_sizes":[],"default_left":[0,0,0,0,0,0,0,0,0,0,0,0,0,0,0,0,0,0,0,0,0,0,0],"id":4,"left_children":[1,3,5,7,-1,9,11,13,-1,15,17,19,21,-1,-1,-1,-1,-1,-1,-1,-1,-1,-1],"loss_changes":[3.0424822E1,9.249798E0,4.1926746E0,7.009354E0,0E0,6.5227585E0,4.198365E0,7.055231E0,0E0,3.8666902E0,3.1533031E0,1.2444348E0,3.0448399E0,0E0,0E0,0E0,0E0,0E0,0E0,0E0,0E0,0E0,0E0],"parents":[2147483647,0,0,1,1,2,2,3,3,5,5,6,6,7,7,9,9,10,10,11,11,12,12],"right_children":[2,4,6,8,-1,10,12,14,-1,16,18,20,22,-1,-1,-1,-1,-1,-1,-1,-1,-1,-1],"split_conditions":[9.212722E-2,5.485734E-1,1.5428714E-2,3.1026112E-2,-6.8089075E-2,-2.2337346E0,-3.4885573E0,-7.2618234E-3,6.738638E-2,-4.820514E0,3.2886446E-1,4.0342916E-2,8.769205E-1,4.4547827E-3,-1.4735334E-2,4.4504788E-2,-9.302872E-3,6.8932675E-2,3.0332664E-2,6.5719865E-2,2.1832502E-3,-2.447641E-2,2.0622216E-2],"split_indices":[9,4,8,15,0,6,6,1,0,6,4,8,14,0,0,0,0,0,0,0,0,0,0],"split_type":[0,0,0,0,0,0,0,0,0,0,0,0,0,0,0,0,0,0,0,0,0,0,0],"sum_hessian":[3.005235E2,2.4410208E2,5.6421402E1,2.3838728E2,5.7148046E0,3.9700703E1,1.6720701E1,2.3636417E2,2.0231225E0,1.3148386E1,2.6552315E1,3.4588883E0,1.3261814E1,6.592339E1,1.7044077E2,4.0496507E0,9.098735E0,1.4301234E1,1.2251081E1,2.3679597E0,1.0909286E0,7.5943785E0,5.667435E0],"tree_param":{"num_deleted":"0","num_feature":"16","num_nodes":"23","size_leaf_vector":"1"}},{"base_weights":[-2.0696647E-3,7.347625E-1,-5.0952554E-2,1.2868565E0,2.2216552E-1,4.8693985E-1,-1.1114049E-1,3.06485E-1,7.816516E-2,-6.294438E-1,1.2288133E0,-3.6497485E-2,5.693696E-1,-1.7979625E-1,3.6920995E-1,4.599245E-2,-2.1977145E-2,-4.8025798E-2,2.7026117E-2,7.456016E-2,1.2692911E-2,4.599623E-2,1.5585597E-2,8.2816025E-3,-1.5510738E-2,4.710009E-2,5.120942E-3],"categories":[],"categories_nodes":[],"categories_segments":[],"categories_sizes":[],"default_left":[0,0,0,0,0,0,0,0,0,0,0,0,0,0,0,0,0,0,0,0,0,0,0,0,0,0,0],"id":5,"left_children":[1,3,5,7,9,11,13,15,-1,17,19,-1,21,23,25,-1,-1,-1,-1,-1,-1,-1,-1,-1,-1,-1,-1],"loss_changes":[1.0712726E1,4.9508266E0,9.082735E0,1.8788052E0,1.0035422E1,3.2493997E0,8.364793E0,1.8491584E0,0E0,3.0423234E0,9.747324E-1,0E0,2.153821E0,9.99999E0,4.762266E0,0E0,0E0,0E0,0E0,0E0,0E0,0E0,0E0,0E0,0E0,0E0,0E0],"parents":[2147483647,0,0,1,1,2,2,3,3,4,4,5,5,6,6,7,7,9,9,10,10,12,12,13,13,14,14],"right_children":[2,4,6,8,10,12,14,16,-1,18,20,-1,22,24,26,-1,-1,-1,-1,-1,-1,-1,-1,-1,-1,-1,-1],"split_conditions":[-1.4690635E-1,-2.870366E0,6.250112E-2,-3.3595544E-1,-1.2979752E0,-3.5270438E0,3.451175E-1,-8.847897E-3,7.816516E-2,-1.6461048E-1,7.657644E-3,-3.6497485E-2,-5.6114485E-3,-7.2618234E-3,2.188348E0,4.599245E-2,-2.1977145E-2,-4.8025798E-2,2.7026117E-2,7.456016E-2,1.2692911E-2,4.599623E-2,1.5585597E-2,8.2816025E-3,-1.5510738E-2,4.710009E-2,5.120942E-3],"split_indices":[3,6,14,3,5,5,3,0,0,3,8,0,1,1,6,0,0,0,0,0,0,0,0,0,0,0,0],"split_type":[0,0,0,0,0,0,0,0,0,0,0,0,0,0,0,0,0,0,0,0,0,0,0,0,0,0,0],"sum_hessian":[2.9538354E2,1.7504211E1,2.7787933E2,7.700211E0,9.804001E0,2.7250906E1,2.5062843E2,2.1575344E0,5.542677E0,5.5139728E0,4.290028E0,1.2304635E0,2.6020443E1,2.1983365E2,3.0794792E1,1.056178E0,1.1013564E0,4.4373364E0,1.0766364E0,2.9630673E0,1.3269606E0,9.934188E0,1.6086254E1,6.017727E1,1.5965637E2,8.981324E0,2.1813469E1],"tree_param":{"num_deleted":"0","num_feature":"16","num_nodes":"27","size_leaf_vector":"1"}},{"base_weights":[2.7309982E-2,-1.2542808E-1,6.658692E-1,1.8174595E-1,-2.3986682E-1,7.4630916E-1,-8.525758E-2,-2.8634124E-2,9.58209E-1,-4.4096375E-1,5.3088907E-2,9.264234E-1,4.1484612E-1,4.003402E-2,-5.6009275E-1,1.2810582E-2,-1.2258639E-2,6.211075E-2,-9.062678E-3,-1.5586013E-3,-3.2728422E-2,2.4680238E-2,-1.2213469E-2,3.4383792E-2,6.1431177E-2,2.1724524E-3,7.2052546E-2,1.4396551E-2,-5.054332E-2],"categories":[],"categories_nodes":[],"categories_segments":[],"categories_sizes":[],"default_left":[0,0,0,0,0,0,0,0,0,0,0,0,0,0,0,0,0,0,0,0,0,0,0,0,0,0,0,0,0],"id":6,"left_children":[1,3,5,7,9,11,13,15,17,19,21,23,25,-1,27,-1,-1,-1,-1,-1,-1,-1,-1,-1,-1,-1,-1,-1,-1],"loss_changes":[2.9098024E1,8.512075E0,3.5426483E0,1.0801883E1,1.0388937E1,2.7268639E0,3.1691084E0,3.3237188E0,4.7849855E0,9.121439E0,9.618673E0,1.5327263E0,7.6203995E0,0E0,2.125561E0,0E0,0E0,0E0,0E0,0E0,0E0,0E0,0E0,0E0,0E0,0E0,0E0,0E0,0E0],"parents":[2147483647,0,0,1,1,2,2,3,3,4,4,5,5,6,6,7,7,8,8,9,9,10,10,11,11,12,12,14,14],"right_children":[2,4,6,8,10,12,14,16,18,20,22,24,26,-1,28,-1,-1,-1,-1,-1,-1,-1,-1,-1,-1,-1,-1,-1,-1],"split_conditions":[9.212722E-2,-7.2618234E-3,2.248618E-1,2.1845456E-2,1.5797395E0,1.2458149E-1,5.9851065E-2,-1.1293912E-1,7.309254E-2,6.547741E-2,2.7909756E-1,1.12711556E-1,1.9121699E-1,4.003402E-2,-8.84934E-3,1.2810582E-2,-1.2258639E-2,6.211075E-2,-9.062678E-3,-1.5586013E-3,-3.2728422E-2,2.4680238E-2,-1.2213469E-2,3.4383792E-2,6.1431177E-2,2.1724524E-3,7.2052546E-2,1.4396551E-2,-5.054332E-2],"split_indices":[9,1,2,2,5,9,10,7,2,6,4,7,9,0,7,0,0,0,0,0,0,0,0,0,0,0,0,0,0],"split_type":[0,0,0,0,0,0,0,0,0,0,0,0,0,0,0,0,0,0,0,0,0,0,0,0,0,0,0,0,0],"sum_hessian":[2.9648615E2,2.3990616E2,5.6579987E1,6.4958305E1,1.7494785E2,5.1112625E1,5.46736E0,5.1867977E1,1.3090333E1,1.034383E2,7.150955E1,3.1954088E1,1.9158537E1,1.6683528E0,3.7990074E0,2.2321692E1,2.9546284E1,1.0406406E1,2.6839263E0,3.5835434E1,6.760287E1,2.8551905E1,4.295765E1,1.9681026E1,1.2273063E1,1.483272E1,4.325818E0,1.4439013E0,2.355106E0],"tree_param":{"num_deleted":"0","num_feature":"16","num_nodes":"29","size_leaf_vector":"1"}},{"base_weights":[1.1916416E-2,-3.2617796E-2,9.1543835E-1,2.2793227E-1,-1.8034022E-1,7.0248805E-2,-1.4966078E-1,-1.4375316E-1,4.858289E-1,2.925977E-1,-3.1809658E-1,-4.192427E-2,3.1458788E-2,3.596519E-2,-2.1262532E-2,5.797425E-2,1.4491334E-2,-3.1598303E-2,2.986348E-2,-2.2096133E-2,1.7840011E-2],"categories":[],"categories_nodes":[],"categories_segments":[],"categories_sizes":[],"default_left":[0,0,0,0,0,0,0,0,0,0,0,0,0,0,0,0,0,0,0,0,0],"id":7,"left_children":[1,3,5,7,9,-1,11,13,15,17,19,-1,-1,-1,-1,-1,-1,-1,-1,-1,-1],"loss_changes":[1.1847197E1,1.0851091E1,7.421423E0,9.853214E0,1.1806799E1,0E0,3.3487563E0,1.0650578E1,7.65001E0,1.1948656E1,1.1833861E1,0E0,0E0,0E0,0E0,0E0,0E0,0E0,0E0,0E0,0E0],"parents":[2147483647,0,0,1,1,2,2,3,3,4,4,6,6,7,7,8,8,9,9,10,10],"right_children":[2,4,6,8,10,-1,12,14,16,18,20,-1,-1,-1,-1,-1,-1,-1,-1,-1,-1],"split_conditions":[3.5736315E-2,3.3835165E-4,1.749207E-2,2.7219005E-2,8.860972E-2,7.0248805E-2,2.321891E-1,-3.2660222E0,-3.3523433E-2,-1.7940493E-2,3.7186623E-1,-4.192427E-2,3.1458788E-2,3.596519E-2,-2.1262532E-2,5.797425E-2,1.4491334E-2,-3.1598303E-2,2.986348E-2,-2.2096133E-2,1.7840011E-2],"split_indices":[15,15,8,3,3,0,3,6,2,2,3,0,0,0,0,0,0,0,0,0,0],"split_type":[0,0,0,0,0,0,0,0,0,0,0,0,0,0,0,0,0,0,0,0,0],"sum_hessian":[2.9268866E2,2.7985846E2,1.2830206E1,1.010628E2,1.7879567E2,8.571497E0,4.258709E0,4.1579803E1,5.9482994E1,4.0077988E1,1.3871768E2,2.219306E0,2.039403E0,9.843834E0,3.1735971E1,1.22983E1,4.7184692E1,9.667262E0,3.0410727E1,1.17503944E2,2.1213734E1],"tree_param":{"num_deleted":"0","num_feature":"16","num_nodes":"21","size_leaf_vector":"1"}},{"base_weights":[1.4558949E-2,-1.4822632E-1,5.144795E-1,-7.000549E-2,-6.3700205E-1,9.296183E-1,3.1838074E-1,3.7611172E-1,-1.6533847E-1,-7.154179E-1,2.5292156E-2,1.1359462E0,3.6738375E-1,2.3940165E-1,6.2387146E-2,4.5110326E-2,3.9305337E-4,-1.5274318E-2,5.249996E-3,-2.6298442E-3,-4.1323047E-2,6.5012775E-2,1.1674455E-2,1.707524E-3,5.179633E-2,-2.6987826E-2,1.5645016E-2],"categories":[],"categories_nodes":[],"categories_segments":[],"categories_sizes":[],"default_left":[0,0,0,0,0,0,0,0,0,0,0,0,0,0,0,0,0,0,0,0,0,0,0,0,0,0,0],"id":8,"left_children":[1,3,5,7,9,11,13,15,17,19,-1,21,23,25,-1,-1,-1,-1,-1,-1,-1,-1,-1,-1,-1,-1,-1],"loss_changes":[2.4162275E1,8.521219E0,5.6407337E0,8.324026E0,3.1207619E0,2.236292E0,3.4483662E0,6.6784554E0,6.1225357E0,2.1073637E0,0E0,2.1068954E0,1.662003E0,2.9342537E0,0E0,0E0,0E0,0E0,0E0,0E0,0E0,0E0,0E0,0E0,0E0,0E0,0E0],"parents":[2147483647,0,0,1,1,2,2,3,3,4,4,5,5,6,6,7,7,8,8,9,9,11,11,12,12,13,13],"right_children":[2,4,6,8,10,12,14,16,18,20,-1,22,24,26,-1,-1,-1,-1,-1,-1,-1,-1,-1,-1,-1,-1,-1],"split_conditions":[8.388209E-2,7.144307E-2,3.5999757E-1,-6.4287577E-3,1.591385E-1,1.2458149E-1,1.9121699E-1,1.6666931E-1,1.5389891E0,-1.6696805E-2,2.5292156E-2,4.0330667E0,3.7834045E-2,-3.9396837E-2,6.2387146E-2,4.5110326E-2,3.9305337E-4,-1.5274318E-2,5.249996E-3,-2.6298442E-3,-4.1323047E-2,6.5012775E-2,1.1674455E-2,1.707524E-3,5.179633E-2,-2.6987826E-2,1.5645016E-2],"split_indices":[9,9,14,15,2,9,9,12,5,8,0,5,15,15,0,0,0,0,0,0,0,0,0,0,0,0,0],"split_type":[0,0,0,0,0,0,0,0,0,0,0,0,0,0,0,0,0,0,0,0,0,0,0,0,0,0,0],"sum_hessian":[2.9497076E2,2.2304564E2,7.192513E1,1.9326057E2,2.9785078E1,2.1875145E1,5.0049988E1,3.350877E1,1.597518E2,2.8222597E1,1.5624797E0,1.5256082E1,6.6190634E0,4.728888E1,2.7611082E0,1.3200347E1,2.0308422E1,1.05123856E2,5.4627945E1,4.261165E0,2.3961432E1,1.2533352E1,2.7227294E0,5.118729E0,1.5003341E0,3.529452E0,4.3759426E1],"tree_param":{"num_deleted":"0","num_feature":"16","num_nodes":"27","size_leaf_vector":"1"}},{"base_weights":[4.6188205E-2,-1.2386272E-1,5.7720745E-1,1.5063177E-1,-2.8412762E-1,7.4301386E-1,1.4982603E-1,-4.841086E-1,4.6520686E-1,1.5536875E-1,-3.9532167E-1,6.0246855E-1,1.2164153E0,1.0323945E0,-1.43933E-1,2.858002E-2,-3.0611712E-2,4.6242224E-3,3.4706883E-2,-3.7558883E-2,2.319323E-2,-2.2966731E-2,3.572122E-2,4.2063456E-2,1.1541637E-2,6.592354E-2,2.2585455E-2,-4.529247E-3,6.628323E-2,2.3038482E-2,-2.3573492E-2],"categories":[],"categories_nodes":[],"categories_segments":[],"categories_sizes":[],"default_left":[0,0,0,0,0,0,0,0,0,0,0,0,0,0,0,0,0,0,0,0,0,0,0,0,0,0,0,0,0,0,0],"id":9,"left_children":[1,3,5,7,9,11,13,15,17,19,21,23,25,27,29,-1,-1,-1,-1,-1,-1,-1,-1,-1,-1,-1,-1,-1,-1,-1,-1],"loss_changes":[2.6446407E1,9.811476E0,4.9215736E0,1.670028E1,6.929846E0,2.654974E0,5.62029E0,4.1145263E0,4.6867266E0,8.485795E0,8.316391E0,3.466035E0,2.3753929E-1,1.896122E0,3.5272706E0,0E0,0E0,0E0,0E0,0E0,0E0,0E0,0E0,0E0,0E0,0E0,0E0,0E0,0E0,0E0,0E0],"parents":[2147483647,0,0,1,1,2,2,3,3,4,4,5,5,6,6,7,7,8,8,9,9,10,10,11,11,12,12,13,13,14,14],"right_children":[2,4,6,8,10,12,14,16,18,20,22,24,26,28,30,-1,-1,-1,-1,-1,-1,-1,-1,-1,-1,-1,-1,-1,-1,-1,-1],"split_conditions":[8.388209E-2,3.836887E-3,3.4762743E0,2.7219005E-2,9.087708E-2,1.5797976E0,-2.758637E-1,4.651427E-2,4.0658727E-2,-1.7940493E-2,4.697631E-1,-1.1745389E0,4.4797596E-1,3.0459195E-2,1.1764547E-1,2.858002E-2,-3.0611712E-2,4.6242224E-3,3.4706883E-2,-3.7558883E-2,2.319323E-2,-2.2966731E-2,3.572122E-2,4.2063456E-2,1.1541637E-2,6.592354E-2,2.2585455E-2,-4.529247E-3,6.628323E-2,2.3038482E-2,-2.3573492E-2],"split_indices":[9,1,5,3,3,6,13,14,9,2,3,6,3,1,11,0,0,0,0,0,0,0,0,0,0,0,0,0,0,0,0],"split_type":[0,0,0,0,0,0,0,0,0,0,0,0,0,0,0,0,0,0,0,0,0,0,0,0,0,0,0,0,0,0,0],"sum_hessian":[2.9108E2,2.2105666E2,7.002332E1,8.151003E1,1.3954662E2,4.991848E1,2.0104841E1,2.6831432E1,5.4678604E1,2.8096693E1,1.1144992E2,4.0243477E1,9.675003E0,4.392776E0,1.5712066E1,2.5293393E0,2.4302094E1,2.1339586E1,3.3339016E1,6.7693386E0,2.1327354E1,1.05925934E2,5.523984E0,2.3731033E1,1.6512445E1,7.896945E0,1.7780583E0,1.0527488E0,3.3400273E0,5.3774242E0,1.0334641E1],"tree_param":{"num_deleted":"0","num_feature":"16","num_nodes":"31","size_leaf_vector":"1"}},{"base_weights":[9.068369E-3,-1.3370664E-1,4.5222703E-1,2.1808249E-1,-2.579336E-1,1.0052562E0,2.7667657E-1,-4.3088758E-1,6.6509163E-1,9.945093E-2,-3.7220532E-1,1.6896649E-1,1.2990031E0,4.86013E-1,-1.9871397E-1,1.102843E-2,-3.7554845E-2,4.094213E-2,-1.229829E-3,-1.4331273E-2,2.72952E-2,-2.1009019E-2,3.0617092E-2,3.9566983E-2,-2.0055478E-2,7.1002215E-2,2.383425E-2,-1.9223465E-2,2.9691765E-2,-3.8213376E-2,2.1245345E-2],"categories":[],"categories_nodes":[],"categories_segments":[],"categories_sizes":[],"default_left":[0,0,0,0,0,0,0,0,0,0,0,0,0,0,0,0,0,0,0,0,0,0,0,0,0,0,0,0,0,0,0],"id":10,"left_children":[1,3,5,7,9,11,13,15,17,19,21,23,25,27,29,-1,-1,-1,-1,-1,-1,-1,-1,-1,-1,-1,-1,-1,-1,-1,-1],"loss_changes":[1.8398252E1,9.6695175E0,6.600315E0,1.7097364E1,6.694807E0,3.8809052E0,5.585768E0,5.222637E0,3.7004795E0,7.100466E0,6.101942E0,2.2646937E0,5.377159E-1,3.8498516E0,6.522583E0,0E0,0E0,0E0,0E0,0E0,0E0,0E0,0E0,0E0,0E0,0E0,0E0,0E0,0E0,0E0,0E0],"parents":[2147483647,0,0,1,1,2,2,3,3,4,4,5,5,6,6,7,7,8,8,9,9,10,10,11,11,12,12,13,13,14,14],"right_children":[2,4,6,8,10,12,14,16,18,20,22,24,26,28,30,-1,-1,-1,-1,-1,-1,-1,-1,-1,-1,-1,-1,-1,-1,-1,-1],"split_conditions":[8.388209E-2,-8.923481E-3,-4.6551657E-1,3.6322758E-2,9.36265E-2,-2.6128216E0,2.9841647E0,1.6215982E-1,2.3918238E-3,1.0061091E-1,4.9451748E-1,-3.883494E-2,3.8985868E0,-3.823447E-1,1.8666585E-1,1.102843E-2,-3.7554845E-2,4.094213E-2,-1.229829E-3,-1.4331273E-2,2.72952E-2,-2.1009019E-2,3.0617092E-2,3.9566983E-2,-2.0055478E-2,7.1002215E-2,2.383425E-2,-1.9223465E-2,2.9691765E-2,-3.8213376E-2,2.1245345E-2],"split_indices":[9,1,13,3,3,6,6,12,0,4,3,10,6,13,12,0,0,0,0,0,0,0,0,0,0,0,0,0,0,0,0],"split_type":[0,0,0,0,0,0,0,0,0,0,0,0,0,0,0,0,0,0,0,0,0,0,0,0,0,0,0,0,0,0,0],"sum_hessian":[2.8882477E2,2.189747E2,6.985007E1,5.694913E1,1.6202556E2,1.56915E1,5.4158566E1,2.3242142E1,3.370699E1,3.928658E1,1.2273898E2,4.4883876E0,1.1203112E1,3.758556E1,1.6573006E1,7.761921E0,1.548022E1,2.7409397E1,6.297593E0,2.125984E1,1.8026741E1,1.1758264E2,5.1563444E0,1.9602166E0,2.528171E0,9.13204E0,2.0710719E0,3.859651E0,3.372591E1,8.57286E0,8.000146E0],"tree_param":{"num_deleted":"0","num_feature":"16","num_nodes":"31","size_leaf_vector":"1"}},{"base_weights":[-1.05231535E-2,-1.5077686E-1,4.0814513E-1,-1.8301395E-1,5.690766E-2,9.582514E-1,2.524705E-1,1.3003923E-1,-3.0585283E-1,-2.66231E-2,6.685047E-2,1.8027638E-1,6.0674787E-2,-2.1385876E-2,2.5412614E-2,-6.263686E-3,-2.7058968E-2,4.1069034E-2,-2.0551093E-2,1.6137475E-2,-1.7962098E-2],"categories":[],"categories_nodes":[],"categories_segments":[],"categories_sizes":[],"default_left":[0,0,0,0,0,0,0,0,0,0,0,0,0,0,0,0,0,0,0,0,0],"id":11,"left_children":[1,3,5,7,-1,9,11,13,15,17,-1,19,-1,-1,-1,-1,-1,-1,-1,-1,-1],"loss_changes":[1.7216095E1,9.3314705E0,6.0591908E0,8.310228E0,0E0,5.9561777E0,3.8543668E0,1.3150789E1,6.508645E0,2.094243E0,0E0,4.4035554E0,0E0,0E0,0E0,0E0,0E0,0E0,0E0,0E0,0E0],"parents":[2147483647,0,0,1,1,2,2,3,3,5,5,6,6,7,7,8,8,9,9,11,11],"right_children":[2,4,6,8,-1,10,12,14,16,18,-1,20,-1,-1,-1,-1,-1,-1,-1,-1,-1],"split_conditions":[8.251373E-2,4.9451748E-1,-4.6551657E-1,-7.2618234E-3,5.690766E-2,-2.6128216E0,1.9121699E-1,3.6322758E-2,1.885486E-1,-4.1764414E-1,6.685047E-2,1.3084608E-1,6.0674787E-2,-2.1385876E-2,2.5412614E-2,-6.263686E-3,-2.7058968E-2,4.1069034E-2,-2.0551093E-2,1.6137475E-2,-1.7962098E-2],"split_indices":[9,3,13,1,0,6,9,3,3,4,0,9,0,0,0,0,0,0,0,0,0],"split_type":[0,0,0,0,0,0,0,0,0,0,0,0,0,0,0,0,0,0,0,0,0],"sum_hessian":[2.911427E2,2.1856378E2,7.257891E1,2.1406781E2,4.495982E0,1.4871639E1,5.7707275E1,6.031E1,1.537578E2,4.388929E0,1.0482711E1,5.47797E1,2.9275718E0,2.4317585E1,3.5992416E1,8.786582E1,6.589198E1,1.0143738E0,3.3745549E0,4.365366E1,1.1126042E1],"tree_param":{"num_deleted":"0","num_feature":"16","num_nodes":"21","size_leaf_vector":"1"}},{"base_weights":[1.2672812E-2,-1.033059E-1,3.651319E-1,1.7963831E-1,-2.132117E-1,8.788328E-1,2.1183152E-1,2.8585937E-2,7.3336774E-1,8.9571553E-1,-2.36959E-1,1.1543698E0,1.17146805E-1,1.3719928E-1,5.9376996E-2,2.3216866E-2,-1.0729789E-2,4.6110686E-2,-2.6464885E-2,4.705653E-3,6.093342E-2,1.0720105E-3,-1.6541729E-2,2.496991E-3,6.41047E-2,-2.074694E-2,4.7013316E-2,1.4050054E-2,-1.24001E-2],"categories":[],"categories_nodes":[],"categories_segments":[],"categories_sizes":[],"default_left":[0,0,0,0,0,0,0,0,0,0,0,0,0,0,0,0,0,0,0,0,0,0,0,0,0,0,0,0,0],"id":12,"left_children":[1,3,5,7,9,11,13,15,17,19,21,23,25,27,-1,-1,-1,-1,-1,-1,-1,-1,-1,-1,-1,-1,-1,-1,-1],"loss_changes":[1.1855016E1,6.82663E0,5.467723E0,5.132544E0,4.364597E0,3.2612257E0,3.9594793E0,5.3395905E0,3.627264E0,7.9528904E-1,3.7709866E0,1.5964651E0,2.7604666E0,3.0453563E0,0E0,0E0,0E0,0E0,0E0,0E0,0E0,0E0,0E0,0E0,0E0,0E0,0E0,0E0,0E0],"parents":[2147483647,0,0,1,1,2,2,3,3,4,4,5,5,6,6,7,7,8,8,9,9,10,10,11,11,12,12,13,13],"right_children":[2,4,6,8,10,12,14,16,18,20,22,24,26,28,-1,-1,-1,-1,-1,-1,-1,-1,-1,-1,-1,-1,-1,-1,-1],"split_conditions":[8.388209E-2,-7.2618234E-3,-4.6551657E-1,2.1845456E-2,-3.066309E-2,1.2458149E-1,1.9121699E-1,1.562494E-1,8.17694E-2,2.1845456E-2,3.422956E-2,-4.6653185E-2,6.4415736E-3,1.2458149E-1,5.9376996E-2,2.3216866E-2,-1.0729789E-2,4.6110686E-2,-2.6464885E-2,4.705653E-3,6.093342E-2,1.0720105E-3,-1.6541729E-2,2.496991E-3,6.41047E-2,-2.074694E-2,4.7013316E-2,1.4050054E-2,-1.24001E-2],"split_indices":[9,1,13,2,10,9,9,12,2,2,2,0,15,9,0,0,0,0,0,0,0,0,0,0,0,0,0,0,0],"split_type":[0,0,0,0,0,0,0,0,0,0,0,0,0,0,0,0,0,0,0,0,0,0,0,0,0,0,0,0,0],"sum_hessian":[2.880887E2,2.1729382E2,7.079489E1,6.0613766E1,1.5668005E2,1.5183406E1,5.561148E1,4.8448956E1,1.2164811E1,2.5150723E0,1.5416498E2,1.0771361E1,4.4120445E0,5.2719563E1,2.8919208E0,1.7027811E1,3.1421144E1,1.0816684E1,1.3481281E0,1.0931572E0,1.4219152E0,4.1288113E1,1.1287687E2,1.2607391E0,9.510622E0,2.980966E0,1.4310784E0,3.858549E1,1.4134071E1],"tree_param":{"num_deleted":"0","num_feature":"16","num_nodes":"29","size_leaf_vector":"1"}},{"base_weights":[6.3757313E-4,-1.3094787E-1,4.0828958E-1,-1.6144274E-1,9.964976E-1,9.438769E-1,1.960205E-1,1.2514704E-1,-2.9433283E-1,3.5573554E-3,6.0656436E-2,1.0815057E0,2.7584982E-1,1.5579254E-2,6.771585E-1,-2.2978896E-2,2.3649836E-2,9.286396E-3,-2.1903627E-2,5.7825435E-2,6.2671616E-3,-2.1972433E-2,5.035866E-2,-2.8118147E-2,1.3766654E-2,6.513978E-2,4.502383E-3],"categories":[],"categories_nodes":[],"categories_segments":[],"categories_sizes":[],"default_left":[0,0,0,0,0,0,0,0,0,0,0,0,0,0,0,0,0,0,0,0,0,0,0,0,0,0,0],"id":13,"left_children":[1,3,5,7,9,11,13,15,17,-1,-1,19,21,23,25,-1,-1,-1,-1,-1,-1,-1,-1,-1,-1,-1,-1],"loss_changes":[1.5664942E1,7.751377E0,7.9166384E0,8.256346E0,1.1071477E0,1.5372066E0,4.529744E0,1.4266579E1,1.0276497E1,0E0,0E0,1.017664E0,2.9289157E0,6.0181856E0,5.113357E0,0E0,0E0,0E0,0E0,0E0,0E0,0E0,0E0,0E0,0E0,0E0,0E0],"parents":[2147483647,0,0,1,1,2,2,3,3,4,4,5,5,6,6,7,7,8,8,11,11,12,12,13,13,14,14],"right_children":[2,4,6,8,10,12,14,16,18,-1,-1,20,22,24,26,-1,-1,-1,-1,-1,-1,-1,-1,-1,-1,-1,-1],"split_conditions":[8.3225176E-2,4.9451748E-1,-4.1591246E-3,-2.5244927E-4,-3.6000365E-1,3.5718424E0,3.282389E-2,3.6322758E-2,8.860972E-2,3.5573554E-3,6.0656436E-2,5.555556E-1,2.8600523E-2,9.138538E-3,1.7253077E-1,-2.2978896E-2,2.3649836E-2,9.286396E-3,-2.1903627E-2,5.7825435E-2,6.2671616E-3,-2.1972433E-2,5.035866E-2,-2.8118147E-2,1.3766654E-2,6.513978E-2,4.502383E-3],"split_indices":[9,3,0,15,13,6,15,3,3,0,0,13,15,0,2,0,0,0,0,0,0,0,0,0,0,0,0],"split_type":[0,0,0,0,0,0,0,0,0,0,0,0,0,0,0,0,0,0,0,0,0,0,0,0,0,0,0],"sum_hessian":[2.900359E2,2.197741E2,7.026181E1,2.1482048E2,4.953605E0,1.8964605E1,5.1297203E1,6.807301E1,1.4674747E2,1.1916858E0,3.7619193E0,1.5211697E1,3.752908E0,3.8057045E1,1.3240159E1,2.5271378E1,4.2801632E1,3.374709E1,1.1300038E2,1.3910964E1,1.3007331E0,2.099003E0,1.6539048E0,1.1439536E1,2.6617508E1,5.81964E0,7.4205194E0],"tree_param":{"num_deleted":"0","num_feature":"16","num_nodes":"27","size_leaf_vector":"1"}},{"base_weights":[3.6871445E-3,-2.9551817E-2,7.3608243E-1,-3.8273493E-3,-1.0551019E0,6.853806E-2,1.7656007E-1,1.8742035E-1,-9.301713E-2,-9.393215E-3,-1.2061208E0,-3.550091E-2,6.092057E-1,1.441493E-3,2.3161786E-2,-1.1422057E-2,1.0397484E-2,-7.052572E-2,-1.2606673E-2,5.5071354E-2,1.9656452E-3],"categories":[],"categories_nodes":[],"categories_segments":[],"categories_sizes":[],"default_left":[0,0,0,0,0,0,0,0,0,0,0,0,0,0,0,0,0,0,0,0,0],"id":14,"left_children":[1,3,5,7,9,-1,11,13,15,-1,17,-1,19,-1,-1,-1,-1,-1,-1,-1,-1],"loss_changes":[7.1436644E0,7.4042935E0,4.2819395E0,4.7072673E0,6.72884E-1,0E0,3.4698405E0,3.8260589E0,7.71698E0,0E0,7.4892044E-1,0E0,1.6004333E0,0E0,0E0,0E0,0E0,0E0,0E0,0E0,0E0],"parents":[2147483647,0,0,1,1,2,2,3,3,4,4,6,6,7,7,8,8,10,10,12,12],"right_children":[2,4,6,8,10,-1,12,14,16,-1,18,-1,20,-1,-1,-1,-1,-1,-1,-1,-1],"split_conditions":[3.5736315E-2,5.485734E-1,9.18222E-2,-6.698918E-3,4.365672E-2,6.853806E-2,4.2022932E-2,-1.8142536E-2,4.0621784E-2,-9.393215E-3,8.9267455E-2,-3.550091E-2,1.7040157E-1,1.441493E-3,2.3161786E-2,-1.1422057E-2,1.0397484E-2,-7.052572E-2,-1.2606673E-2,5.5071354E-2,1.9656452E-3],"split_indices":[15,4,1,1,10,0,15,10,1,0,1,0,2,0,0,0,0,0,0,0,0],"split_type":[0,0,0,0,0,0,0,0,0,0,0,0,0,0,0,0,0,0,0,0,0],"sum_hessian":[2.9155234E2,2.79813E2,1.1739357E1,2.739452E2,5.8677945E0,4.8209586E0,6.918399E0,8.6774704E1,1.8717049E2,1.2030678E0,4.6647267E0,2.058667E0,4.859732E0,5.579677E1,3.0977942E1,1.2925256E2,5.7917927E1,3.4475393E0,1.2171874E0,2.1071105E0,2.7526214E0],"tree_param":{"num_deleted":"0","num_feature":"16","num_nodes":"21","size_leaf_vector":"1"}},{"base_weights":[3.1075362E-2,-1.0109726E-1,4.360442E-1,-4.3132298E-2,-4.587867E-1,1.0065262E0,2.5233275E-1,-1.56115E-1,3.4202227E-1,-5.791322E-1,3.1857875E-1,1.1326115E0,-1.11570535E-2,4.4939008E-1,-2.0949927E-1,6.949799E-2,-1.0203784E-2,4.8304744E-2,3.2218664E-3,-3.345314E-2,1.9103238E-2,4.983552E-2,-2.42488E-2,6.088484E-2,4.994051E-3,5.4027673E-2,1.2101809E-2,-2.5912756E-2,5.551947E-2],"categories":[],"categories_nodes":[],"categories_segments":[],"categories_sizes":[],"default_left":[0,0,0,0,0,0,0,0,0,0,0,0,0,0,0,0,0,0,0,0,0,0,0,0,0,0,0,0,0],"id":15,"left_children":[1,3,5,7,9,11,13,15,17,19,21,23,-1,25,27,-1,-1,-1,-1,-1,-1,-1,-1,-1,-1,-1,-1,-1,-1],"loss_changes":[1.5545493E1,4.5240655E0,7.2343464E0,8.308219E0,3.033968E0,2.8992958E0,5.1342115E0,1.1210405E1,7.445442E0,2.5662088E0,3.0599258E0,1.2532711E0,0E0,4.8603287E0,7.603232E0,0E0,0E0,0E0,0E0,0E0,0E0,0E0,0E0,0E0,0E0,0E0,0E0,0E0,0E0],"parents":[2147483647,0,0,1,1,2,2,3,3,4,4,5,5,6,6,7,7,8,8,9,9,10,10,11,11,13,13,14,14],"right_children":[2,4,6,8,10,12,14,16,18,20,22,24,-1,26,28,-1,-1,-1,-1,-1,-1,-1,-1,-1,-1,-1,-1,-1,-1],"split_conditions":[8.388209E-2,7.0999555E-2,-8.006137E-3,5.962303E-2,3.3425564E-1,9.062418E-1,1.2458149E-1,-1.4255681E0,-3.8012767E-3,6.554142E-2,3.0656266E0,4.0524836E0,-1.11570535E-2,3.5999757E-1,1.9121699E-1,6.949799E-2,-1.0203784E-2,4.8304744E-2,3.2218664E-3,-3.345314E-2,1.9103238E-2,4.983552E-2,-2.42488E-2,6.088484E-2,4.994051E-3,5.4027673E-2,1.2101809E-2,-2.5912756E-2,5.551947E-2],"split_indices":[9,9,0,9,3,14,9,6,0,10,6,6,0,14,9,0,0,0,0,0,0,0,0,0,0,0,0,0,0],"split_type":[0,0,0,0,0,0,0,0,0,0,0,0,0,0,0,0,0,0,0,0,0,0,0,0,0,0,0,0,0],"sum_hessian":[2.8860635E2,2.1815567E2,7.04507E1,1.8869714E2,2.945852E1,1.606986E1,5.4380836E1,1.4635847E2,4.233868E1,2.5730186E1,3.7283351E0,1.4646948E1,1.422913E0,3.813577E1,1.6245066E1,3.561686E0,1.4279678E2,1.2270813E1,3.0067867E1,2.3806732E1,1.9234554E0,1.8916051E0,1.83673E0,1.336659E1,1.2803584E0,8.389097E0,2.9746672E1,1.3657561E1,2.5875049E0],"tree_param":{"num_deleted":"0","num_feature":"16","num_nodes":"29","size_leaf_vector":"1"}},{"base_weights":[3.6168784E-2,-6.5046534E-2,3.4757844E-1,1.7036948E-1,-2.129712E-1,8.6625797E-1,1.9458848E-1,-4.19969E-1,4.50918E-1,-4.237929E-1,3.884119E-2,-3.573478E-2,1.2937372E0,1.0051001E-1,5.988214E-2,4.8303287E-3,-3.3827644E-2,2.8910672E-2,-2.2383532E-2,-2.764964E-2,2.9002717E-2,3.4448832E-2,-8.634248E-3,-3.6626015E-2,4.2249795E-2,1.4188486E-2,6.867423E-2,5.3249437E-2,-8.3592825E-4],"categories":[],"categories_nodes":[],"categories_segments":[],"categories_sizes":[],"default_left":[0,0,0,0,0,0,0,0,0,0,0,0,0,0,0,0,0,0,0,0,0,0,0,0,0,0,0,0,0],"id":16,"left_children":[1,3,5,7,9,11,13,15,17,19,21,23,25,27,-1,-1,-1,-1,-1,-1,-1,-1,-1,-1,-1,-1,-1,-1,-1],"loss_changes":[9.178393E0,7.699939E0,5.4981318E0,1.4345879E1,7.21474E0,6.206339E0,5.2051935E0,3.78368E0,6.9416666E0,9.903717E0,8.742269E0,4.3686113E0,4.854164E-1,5.9749084E0,0E0,0E0,0E0,0E0,0E0,0E0,0E0,0E0,0E0,0E0,0E0,0E0,0E0,0E0,0E0],"parents":[2147483647,0,0,1,1,2,2,3,3,4,4,5,5,6,6,7,7,8,8,9,9,10,10,11,11,12,12,13,13],"right_children":[2,4,6,8,10,12,14,16,18,20,22,24,26,28,-1,-1,-1,-1,-1,-1,-1,-1,-1,-1,-1,-1,-1,-1,-1],"split_conditions":[8.3225176E-2,1.7484268E-3,-4.6551657E-1,2.480207E-2,1.5642061E0,-2.6128216E0,8.666641E-1,-1.5544775E0,2.582552E-2,4.7948804E-2,1.9373306E0,-1.7000008E-2,-1.1375875E-1,-4.5195675E-1,5.988214E-2,4.8303287E-3,-3.3827644E-2,2.8910672E-2,-2.2383532E-2,-2.764964E-2,2.9002717E-2,3.4448832E-2,-8.634248E-3,-3.6626015E-2,4.2249795E-2,1.4188486E-2,6.867423E-2,5.3249437E-2,-8.3592825E-4],"split_indices":[9,15,13,3,5,6,13,5,0,1,5,8,3,7,0,0,0,0,0,0,0,0,0,0,0,0,0,0,0],"split_type":[0,0,0,0,0,0,0,0,0,0,0,0,0,0,0,0,0,0,0,0,0,0,0,0,0,0,0,0,0],"sum_hessian":[2.8948068E2,2.1906924E2,7.041144E1,8.4476555E1,1.345927E2,1.4976078E1,5.5435356E1,2.7053284E1,5.7423275E1,7.288725E1,6.1705444E1,5.110079E0,9.865999E0,5.168767E1,3.7476857E0,9.184927E0,1.7868357E1,5.0610275E1,6.8129973E0,6.497392E1,7.9133244E0,1.4593739E1,4.7111706E1,2.9469197E0,2.1631591E0,1.0556014E0,8.810398E0,4.725411E0,4.696226E1],"tree_param":{"num_deleted":"0","num_feature":"16","num_nodes":"29","size_leaf_vector":"1"}},{"base_weights":[4.0307153E-2,-8.266313E-2,4.175464E-1,-1.5909372E-2,-4.9794257E-1,8.0686855E-1,2.6112452E-1,3.186902E-1,-1.2473509E-1,-5.7265294E-1,3.5601236E-2,2.1762179E-1,1.08085E0,8.943488E-1,1.5472682E-1,1.0847158E-3,3.8654186E-2,-1.5340974E-2,7.6365E-3,-3.1526703E-2,1.7730204E-2,2.7803386E-2,-2.1591218E-2,2.5929727E-3,6.178538E-2,-4.880558E-3,5.4042198E-2,2.3134344E-3,5.019468E-2],"categories":[],"categories_nodes":[],"categories_segments":[],"categories_sizes":[],"default_left":[0,0,0,0,0,0,0,0,0,0,0,0,0,0,0,0,0,0,0,0,0,0,0,0,0,0,0,0,0],"id":17,"left_children":[1,3,5,7,9,11,13,15,17,19,-1,21,23,25,27,-1,-1,-1,-1,-1,-1,-1,-1,-1,-1,-1,-1,-1,-1],"loss_changes":[1.3210581E1,5.95335E0,4.051669E0,6.823318E0,3.0967646E0,2.9262352E0,3.3252122E0,6.1913266E0,7.185276E0,1.757021E0,0E0,1.8814818E0,2.0257683E0,1.4349113E0,4.118506E0,0E0,0E0,0E0,0E0,0E0,0E0,0E0,0E0,0E0,0E0,0E0,0E0,0E0,0E0],"parents":[2147483647,0,0,1,1,2,2,3,3,4,4,5,5,6,6,7,7,8,8,9,9,11,11,12,12,13,13,14,14],"right_children":[2,4,6,8,10,12,14,16,18,20,-1,22,24,26,28,-1,-1,-1,-1,-1,-1,-1,-1,-1,-1,-1,-1,-1,-1],"split_conditions":[8.388209E-2,7.144307E-2,-4.6929726E-3,6.547741E-2,8.3005615E-2,-3.2529044E0,-4.0667275E-1,-1.27055785E-2,1.5274653E0,3.2874515E0,3.5601236E-2,-3.9790401E0,8.767501E-2,-8.65465E-3,8.666641E-1,1.0847158E-3,3.8654186E-2,-1.5340974E-2,7.6365E-3,-3.1526703E-2,1.7730204E-2,2.7803386E-2,-2.1591218E-2,2.5929727E-3,6.178538E-2,-4.880558E-3,5.4042198E-2,2.3134344E-3,5.019468E-2],"split_indices":[9,9,0,6,1,5,7,2,5,6,0,5,9,8,13,0,0,0,0,0,0,0,0,0,0,0,0,0,0],"split_type":[0,0,0,0,0,0,0,0,0,0,0,0,0,0,0,0,0,0,0,0,0,0,0,0,0,0,0,0,0],"sum_hessian":[2.83033E2,2.1404176E2,6.8991234E1,1.8529498E2,2.8746778E1,1.8582504E1,5.040873E1,4.500193E1,1.4029305E2,2.7571102E1,1.175678E0,6.467426E0,1.2115078E1,6.186162E0,4.4222565E1,2.7847973E1,1.7153957E1,8.464175E1,5.5651302E1,2.6252378E1,1.3187226E0,4.346247E0,2.1211786E0,1.7593725E0,1.0355705E1,1.0544087E0,5.1317534E0,4.014909E1,4.0734754E0],"tree_param":{"num_deleted":"0","num_feature":"16","num_nodes":"29","size_leaf_vector":"1"}},{"base_weights":[-1.6706279E-2,-1.0149018E-1,3.6574945E-1,2.0674497E-2,-3.046524E-1,8.349898E-1,1.7900014E-1,-1.2381462E-1,5.687533E-1,-8.010814E-1,-1.0036694E-1,1.0300484E0,-2.149523E-2,8.5106306E-2,5.433729E-2,7.9833943E-4,-2.121946E-2,1.7780572E-2,7.381751E-2,1.51849855E-2,-5.0640076E-2,1.9375583E-2,-1.7706616E-2,1.0551146E-2,5.6399375E-2,1.9195208E-2,-2.5607547E-2],"categories":[],"categories_nodes":[],"categories_segments":[],"categories_sizes":[],"default_left":[0,0,0,0,0,0,0,0,0,0,0,0,0,0,0,0,0,0,0,0,0,0,0,0,0,0,0],"id":18,"left_children":[1,3,5,7,9,11,13,15,17,19,21,23,-1,25,-1,-1,-1,-1,-1,-1,-1,-1,-1,-1,-1,-1,-1],"loss_changes":[9.3559E0,5.8641367E0,4.439322E0,1.1816705E1,8.914166E0,4.053609E0,3.2085886E0,4.97307E0,5.4958534E0,6.3222084E0,8.058167E0,8.0266E-1,0E0,6.654159E0,0E0,0E0,0E0,0E0,0E0,0E0,0E0,0E0,0E0,0E0,0E0,0E0,0E0],"parents":[2147483647,0,0,1,1,2,2,3,3,4,4,5,5,6,6,7,7,8,8,9,9,10,10,11,11,13,13],"right_children":[2,4,6,8,10,12,14,16,18,20,22,24,-1,26,-1,-1,-1,-1,-1,-1,-1,-1,-1,-1,-1,-1,-1],"split_conditions":[9.212722E-2,1.885486E-1,-4.1591246E-3,1.4427046E-1,1.0065322E0,9.062418E-1,1.9121699E-1,9.608622E-2,3.0846557E-1,3.8964383E-2,2.0825745E-1,-4.2386606E-1,-2.149523E-2,1.2458149E-1,5.433729E-2,7.9833943E-4,-2.121946E-2,1.7780572E-2,7.381751E-2,1.51849855E-2,-5.0640076E-2,1.9375583E-2,-1.7706616E-2,1.0551146E-2,5.6399375E-2,1.9195208E-2,-2.5607547E-2],"split_indices":[9,3,0,3,6,14,9,3,4,12,4,7,0,9,0,0,0,0,0,0,0,0,0,0,0,0,0],"split_type":[0,0,0,0,0,0,0,0,0,0,0,0,0,0,0,0,0,0,0,0,0,0,0,0,0,0,0],"sum_hessian":[2.8638525E2,2.3501999E2,5.1365276E1,1.4732773E2,8.769226E1,1.363465E1,3.7730625E1,1.1720362E2,3.0124105E1,2.4714003E1,6.297826E1,1.1973837E1,1.6608136E0,3.518498E1,2.5456479E0,8.06462E1,3.6557423E1,2.552223E1,4.6018753E0,3.9046474E0,2.0809355E1,2.1368683E1,4.1609577E1,1.6158408E0,1.0357996E1,2.3690325E1,1.1494654E1],"tree_param":{"num_deleted":"0","num_feature":"16","num_nodes":"27","size_leaf_vector":"1"}},{"base_weights":[-2.379649E-2,-1.17441885E-1,4.0449998E-1,2.9594988E-1,-1.6251226E-1,5.7002586E-1,-3.8931306E-2,1.0040566E0,3.5279263E-2,-1.3429637E-1,-7.7218044E-1,8.70647E-1,4.824394E-2,-3.8282225E-1,4.945117E-1,1.5228827E-3,6.671263E-2,-3.7969287E-2,2.63985E-2,-7.6154605E-3,4.480373E-2,-6.529923E-2,-1.3441932E-2,4.597794E-2,-5.718419E-3,-1.54649485E-2,4.455959E-2,2.9437438E-2,-3.7794184E-2,-6.0150633E-3,4.8557773E-2],"categories":[],"categories_nodes":[],"categories_segments":[],"categories_sizes":[],"default_left":[0,0,0,0,0,0,0,0,0,0,0,0,0,0,0,0,0,0,0,0,0,0,0,0,0,0,0,0,0,0,0],"id":19,"left_children":[1,3,5,7,9,11,13,15,17,19,21,23,25,27,29,-1,-1,-1,-1,-1,-1,-1,-1,-1,-1,-1,-1,-1,-1,-1,-1],"loss_changes":[1.176803E1,4.5303116E0,3.887041E0,4.3953505E0,3.6389213E0,5.9823704E0,2.9866264E0,2.0240436E0,7.6761627E0,4.0183167E0,2.1780758E0,1.276331E0,4.82595E0,4.009878E0,1.9962636E0,0E0,0E0,0E0,0E0,0E0,0E0,0E0,0E0,0E0,0E0,0E0,0E0,0E0,0E0,0E0,0E0],"parents":[2147483647,0,0,1,1,2,2,3,3,4,4,5,5,6,6,7,7,8,8,9,9,10,10,11,11,12,12,13,13,14,14],"right_children":[2,4,6,8,10,12,14,16,18,20,22,24,26,28,30,-1,-1,-1,-1,-1,-1,-1,-1,-1,-1,-1,-1,-1,-1,-1,-1],"split_conditions":[9.212722E-2,6.250112E-2,1.7142886E-2,1.7860914E-2,3.3986206E0,1.2458149E-1,8.769205E-1,-9.793809E-1,1.3043526E-1,4.0342916E-2,1.6169156E-1,8.62069E-2,3.436023E-2,-4.170077E-2,1.151243E-1,1.5228827E-3,6.671263E-2,-3.7969287E-2,2.63985E-2,-7.6154605E-3,4.480373E-2,-6.529923E-2,-1.3441932E-2,4.597794E-2,-5.718419E-3,-1.54649485E-2,4.455959E-2,2.9437438E-2,-3.7794184E-2,-6.0150633E-3,4.8557773E-2],"split_indices":[9,14,8,11,5,9,14,13,11,8,2,10,15,7,9,0,0,0,0,0,0,0,0,0,0,0,0,0,0,0,0],"split_type":[0,0,0,0,0,0,0,0,0,0,0,0,0,0,0,0,0,0,0,0,0,0,0,0,0,0,0,0,0,0,0],"sum_hessian":[2.912242E2,2.3956912E2,5.1655083E1,2.3004276E1,2.1656485E2,3.7406384E1,1.4248701E1,5.4224563E0,1.758182E1,2.0815172E2,8.413132E0,2.3308655E1,1.4097729E1,8.835279E0,5.413421E0,1.6498966E0,3.77256E0,6.521667E0,1.1060153E1,2.0541289E2,2.7388265E0,3.3091187E0,5.1040134E0,2.2269306E1,1.0393484E0,1.0343519E1,3.7542098E0,2.290897E0,6.5443826E0,2.6905475E0,2.7228737E0],"tree_param":{"num_deleted":"0","num_feature":"16","num_nodes":"31","size_leaf_vector":"1"}},{"base_weights":[1.09387655E-2,-1.8999321E-2,7.7411044E-1,6.8244683E-3,-9.9635583E-1,6.325477E-2,2.0152847E-1,-4.787538E-2,2.07311E-1,-1.4005263E-2,-6.001662E-2,-5.1663625E-1,4.7167405E-2,6.438366E-4,-2.9343262E-2,1.7590107E-2,-1.439281E-2,1.8157968E-2,-5.022777E-2],"categories":[],"categories_nodes":[],"categories_segments":[],"categories_sizes":[],"default_left":[0,0,0,0,0,0,0,0,0,0,0,0,0,0,0,0,0,0,0],"id":20,"left_children":[1,3,5,7,9,-1,11,13,15,-1,-1,17,-1,-1,-1,-1,-1,-1,-1],"loss_changes":[6.579844E0,7.009891E0,2.8010387E0,2.98539E0,7.083001E-1,0E0,3.7945142E0,7.014123E0,4.2757635E0,0E0,0E0,1.9961553E0,0E0,0E0,0E0,0E0,0E0,0E0,0E0],"parents":[2147483647,0,0,1,1,2,2,3,3,4,4,6,6,7,7,8,8,11,11],"right_children":[2,4,6,8,10,-1,12,14,16,-1,-1,18,-1,-1,-1,-1,-1,-1,-1],"split_conditions":[3.7834045E-2,5.485734E-1,6.5625376E-1,4.1990656E-2,4.49724E-2,6.325477E-2,3.2874515E0,2.8287926E-1,7.727275E-1,-1.4005263E-2,-6.001662E-2,3.3986206E0,4.7167405E-2,6.438366E-4,-2.9343262E-2,1.7590107E-2,-1.439281E-2,1.8157968E-2,-5.022777E-2],"split_indices":[15,4,14,1,10,0,6,4,13,0,0,5,0,0,0,0,0,0,0],"split_type":[0,0,0,0,0,0,0,0,0,0,0,0,0,0,0,0,0,0,0],"sum_hessian":[2.863409E2,2.764705E2,9.87042E0,2.7032108E2,6.1494265E0,4.6627164E0,5.2077045E0,2.129751E2,5.7345966E1,1.8891217E0,4.260305E0,2.800277E0,2.4074273E0,1.9227858E2,2.0696524E1,4.4616325E1,1.2729638E1,1.0901897E0,1.7100873E0],"tree_param":{"num_deleted":"0","num_feature":"16","num_nodes":"19","size_leaf_vector":"1"}},{"base_weights":[1.6416173E-2,-5.5206716E-2,4.4160318E-1,4.6849272E-1,-9.7510315E-2,6.991824E-1,1.3437627E-1,-3.910304E-1,6.660635E-1,-1.9652395E-1,7.4118346E-2,1.0079215E0,3.4687927E-1,-1.2119355E-1,5.6271404E-2,2.9491393E-2,-4.903457E-2,4.1031074E-2,-9.207255E-3,-1.4269285E-2,1.7918793E-2,2.0941138E-2,-4.3139136E-3,2.7969712E-2,6.554981E-2,-4.6431877E-2,3.1030942E-2,1.8471725E-2,-2.7238637E-2],"categories":[],"categories_nodes":[],"categories_segments":[],"categories_sizes":[],"default_left":[0,0,0,0,0,0,0,0,0,0,0,0,0,0,0,0,0,0,0,0,0,0,0,0,0,0,0,0,0],"id":21,"left_children":[1,3,5,7,9,11,13,15,17,19,21,23,25,27,-1,-1,-1,-1,-1,-1,-1,-1,-1,-1,-1,-1,-1,-1,-1],"loss_changes":[8.892423E0,5.5867233E0,3.2370539E0,3.4641738E0,3.9612348E0,2.1149197E0,5.3120275E0,2.9822187E0,2.215466E0,7.378E0,4.7740045E0,8.3685684E-1,4.8037157E0,3.7649028E0,0E0,0E0,0E0,0E0,0E0,0E0,0E0,0E0,0E0,0E0,0E0,0E0,0E0,0E0,0E0],"parents":[2147483647,0,0,1,1,2,2,3,3,4,4,5,5,6,6,7,7,8,8,9,9,10,10,11,11,12,12,13,13],"right_children":[2,4,6,8,10,12,14,16,18,20,22,24,26,28,-1,-1,-1,-1,-1,-1,-1,-1,-1,-1,-1,-1,-1,-1,-1],"split_conditions":[9.726518E-2,3.7732482E-2,1.2627411E-1,3.3599246E-2,1.4036357E0,7.385349E-2,2.0093179E-1,3.0558826E-2,4.4737238E-1,1.6504722E-2,7.9520874E-2,-2.6645454E-2,9.625944E-2,-3.4121547E-2,5.6271404E-2,2.9491393E-2,-4.903457E-2,4.1031074E-2,-9.207255E-3,-1.4269285E-2,1.7918793E-2,2.0941138E-2,-4.3139136E-3,2.7969712E-2,6.554981E-2,-4.6431877E-2,3.1030942E-2,1.8471725E-2,-2.7238637E-2],"split_indices":[9,14,9,9,6,2,9,9,11,15,2,1,2,7,0,0,0,0,0,0,0,0,0,0,0,0,0,0,0],"split_type":[0,0,0,0,0,0,0,0,0,0,0,0,0,0,0,0,0,0,0,0,0,0,0,0,0,0,0,0,0],"sum_hessian":[2.902031E2,2.491105E2,4.1092587E1,1.7865772E1,2.3124474E2,2.1658394E1,1.9434193E1,3.1561007E0,1.4709672E1,1.4655258E2,8.469215E1,1.0551069E1,1.1107325E1,1.6147762E1,3.2864301E0,1.184871E0,1.9712299E0,1.2476407E1,2.233265E0,1.2674183E2,1.9810759E1,2.6382656E1,5.8309486E1,5.402104E0,5.148965E0,1.539846E0,9.567478E0,7.540961E0,8.606802E0],"tree_param":{"num_deleted":"0","num_feature":"16","num_nodes":"29","size_leaf_vector":"1"}},{"base_weights":[-1.7737458E-2,-1.131737E-1,4.3150613E-1,-9.140243E-2,-5.2449305E-2,9.631677E-1,2.2686383E-1,-1.2329898E-1,5.529325E-1,1.0667423E0,-8.598944E-3,4.320753E-2,6.685678E-1,-8.261899E-3,2.0716596E-2,3.380492E-2,-1.5771454E-2,1.17324935E-2,6.5737315E-2,-4.869498E-3,5.2135747E-2,6.49878E-2,5.861734E-3],"categories":[],"categories_nodes":[],"categories_segments":[],"categories_sizes":[],"default_left":[0,0,0,0,0,0,0,0,0,0,0,0,0,0,0,0,0,0,0,0,0,0,0],"id":22,"left_children":[1,3,5,7,-1,9,11,13,15,17,-1,19,21,-1,-1,-1,-1,-1,-1,-1,-1,-1,-1],"loss_changes":[1.2437475E1,4.775847E0,5.3125715E0,4.893305E0,0E0,1.8084335E0,3.0550218E0,5.1308665E0,1.4171469E0,2.3338175E0,0E0,4.0251546E0,3.708776E0,0E0,0E0,0E0,0E0,0E0,0E0,0E0,0E0,0E0,0E0],"parents":[2147483647,0,0,1,1,2,2,3,3,5,5,6,6,7,7,8,8,9,9,11,11,12,12],"right_children":[2,4,6,8,-1,10,12,14,16,18,-1,20,22,-1,-1,-1,-1,-1,-1,-1,-1,-1,-1],"split_conditions":[9.212722E-2,5.485734E-1,-4.1591246E-3,1.6156238E0,-5.2449305E-2,6.2244725E-1,3.0884987E-1,3.654757E-1,2.622726E-1,-3.643277E-2,-8.598944E-3,1.9121699E-1,5.280523E-3,-8.261899E-3,2.0716596E-2,3.380492E-2,-1.5771454E-2,1.17324935E-2,6.5737315E-2,-4.869498E-3,5.2135747E-2,6.49878E-2,5.861734E-3],"split_indices":[9,4,0,7,0,11,3,3,3,0,0,9,8,0,0,0,0,0,0,0,0,0,0],"split_type":[0,0,0,0,0,0,0,0,0,0,0,0,0,0,0,0,0,0,0,0,0,0,0],"sum_hessian":[2.8795383E2,2.3811691E2,4.9836914E1,2.3377588E2,4.341024E0,1.2821085E1,3.7015827E1,2.2351962E2,1.0256264E1,1.1804283E1,1.0168018E0,2.69204E1,1.0095427E1,2.0798776E2,1.5531861E1,9.176154E0,1.0801103E0,3.1572769E0,8.647007E0,2.4391842E1,2.5285594E0,4.073939E0,6.0214877E0],"tree_param":{"num_deleted":"0","num_feature":"16","num_nodes":"23","size_leaf_vector":"1"}},{"base_weights":[-1.93806E-2,-9.661793E-2,3.3318558E-1,4.348716E-1,-1.2910429E-1,7.739624E-1,1.5681157E-1,6.597926E-2,-4.2866882E-2,-1.5464257E-1,5.8615416E-1,9.589208E-1,-1.6184334E-2,5.5440173E-2,5.807708E-2,-3.341478E-2,2.008873E-2,-4.9133925E-3,-3.6258027E-2,-2.5639284E-2,4.45466E-2,5.3831406E-2,-8.7245675E-3,-2.0817188E-3,5.0154757E-2],"categories":[],"categories_nodes":[],"categories_segments":[],"categories_sizes":[],"default_left":[0,0,0,0,0,0,0,0,0,0,0,0,0,0,0,0,0,0,0,0,0,0,0,0,0],"id":23,"left_children":[1,3,5,7,9,11,13,-1,15,17,19,21,-1,23,-1,-1,-1,-1,-1,-1,-1,-1,-1,-1,-1],"loss_changes":[7.846737E0,4.1339836E0,3.9052057E0,5.903321E0,4.1703176E0,3.2639332E0,3.8310163E0,0E0,3.0358388E0,6.8898554E0,3.1055934E0,1.8825197E0,0E0,3.3343086E0,0E0,0E0,0E0,0E0,0E0,0E0,0E0,0E0,0E0,0E0,0E0],"parents":[2147483647,0,0,1,1,2,2,3,3,4,4,5,5,6,6,8,8,9,9,10,10,11,11,13,13],"right_children":[2,4,6,8,10,12,14,-1,16,18,20,22,-1,24,-1,-1,-1,-1,-1,-1,-1,-1,-1,-1,-1],"split_conditions":[9.212722E-2,2.8527007E-2,-4.1591246E-3,-1.0040415E-3,3.553923E-2,5.294091E-1,8.852465E-1,6.597926E-2,8.331835E-1,2.582552E-2,-1.7940493E-2,1.1589338E0,-1.6184334E-2,1.9121699E-1,5.807708E-2,-3.341478E-2,2.008873E-2,-4.9133925E-3,-3.6258027E-2,-2.5639284E-2,4.45466E-2,5.3831406E-2,-8.7245675E-3,-2.0817188E-3,5.0154757E-2],"split_indices":[9,9,0,15,0,13,13,0,5,0,2,7,0,9,0,0,0,0,0,0,0,0,0,0,0],"split_type":[0,0,0,0,0,0,0,0,0,0,0,0,0,0,0,0,0,0,0,0,0,0,0,0,0],"sum_hessian":[2.8596957E2,2.3517525E2,5.0794323E1,1.2833177E1,2.2234207E2,1.3548083E1,3.724624E1,3.8820126E0,8.951164E0,2.154338E2,6.9082656E0,1.1702543E1,1.8455404E0,3.479119E1,2.4550488E0,3.510428E0,5.440736E0,1.9712727E2,1.8306541E1,1.3517523E0,5.556513E0,1.0646935E1,1.0556078E0,3.2425682E1,2.3655105E0],"tree_param":{"num_deleted":"0","num_feature":"16","num_nodes":"25","size_leaf_vector":"1"}},{"base_weights":[2.9637018E-2,-6.0448308E-2,3.268375E-1,1.9923621E-1,-1.5841669E-1,4.399883E-1,-2.0576619E-2,-2.5462073E-1,3.8520414E-1,5.269124E-2,-1.8221208E-1,2.2609615E-1,8.7472326E-1,-5.0399125E-1,5.8741903E-1,-1.7324593E-3,-5.4126795E-2,3.4435328E-2,9.22102E-3,-1.4935161E-2,4.9623917E-4,2.3136253E-2,-1.0350518E-2,5.837922E-2,1.6661255E-2,-4.511633E-2,-2.523825E-3,-1.641347E-2,4.9847234E-2],"categories":[],"categories_nodes":[],"categories_segments":[],"categories_sizes":[],"default_left":[0,0,0,0,0,0,0,0,0,0,0,0,0,0,0,0,0,0,0,0,0,0,0,0,0,0,0,0,0],"id":24,"left_children":[1,3,5,7,9,11,13,15,17,-1,19,21,23,25,27,-1,-1,-1,-1,-1,-1,-1,-1,-1,-1,-1,-1,-1,-1],"loss_changes":[7.7309575E0,5.676036E0,2.6487656E0,5.2649374E0,4.85493E0,4.5164547E0,5.4256835E0,3.312534E0,2.5434108E0,0E0,3.570478E0,3.7164335E0,2.2068958E0,1.8080635E0,3.399287E0,0E0,0E0,0E0,0E0,0E0,0E0,0E0,0E0,0E0,0E0,0E0,0E0,0E0,0E0],"parents":[2147483647,0,0,1,1,2,2,3,3,4,4,5,5,6,6,7,7,8,8,10,10,11,11,12,12,13,13,14,14],"right_children":[2,4,6,8,10,12,14,16,18,-1,20,22,24,26,28,-1,-1,-1,-1,-1,-1,-1,-1,-1,-1,-1,-1,-1,-1],"split_conditions":[8.388209E-2,-7.2618234E-3,3.6392243E0,-8.077744E-1,-3.066309E-2,2.3051882E-2,3.7834045E-2,-3.46549E-3,1.562494E-1,5.269124E-2,2.6680462E-2,1.2458149E-1,8.0273636E-2,1.7708592E-1,3.3696394E0,-1.7324593E-3,-5.4126795E-2,3.4435328E-2,9.22102E-3,-1.4935161E-2,4.9623917E-4,2.3136253E-2,-1.0350518E-2,5.837922E-2,1.6661255E-2,-4.511633E-2,-2.523825E-3,-1.641347E-2,4.9847234E-2],"split_indices":[9,1,5,6,10,15,15,15,12,0,10,9,1,2,6,0,0,0,0,0,0,0,0,0,0,0,0,0,0],"split_type":[0,0,0,0,0,0,0,0,0,0,0,0,0,0,0,0,0,0,0,0,0,0,0,0,0,0,0,0,0],"sum_hessian":[2.870172E2,2.2086636E2,6.6150856E1,6.0216625E1,1.6064973E2,4.9698025E1,1.6452826E1,1.739493E1,4.2821697E1,2.2593946E0,1.5839034E2,3.4328354E1,1.5369671E1,9.260725E0,7.1921005E0,1.45665455E1,2.8283832E0,1.6082094E1,2.6739603E1,9.826087E1,6.012946E1,2.215534E1,1.2173016E1,9.224519E0,6.1451526E0,4.403432E0,4.8572936E0,2.2838616E0,4.908239E0],"tree_param":{"num_deleted":"0","num_feature":"16","num_nodes":"29","size_leaf_vector":"1"}},{"base_weights":[1.6013218E-2,-1.7720958E-2,7.4586755E-1,7.0468043E-3,-9.727102E-1,1.0642276E0,-1.5178372E-1,-4.9957123E-2,2.2622502E-1,-6.0338892E-2,4.238629E-3,1.175766E0,4.642336E-1,-3.6320537E-2,2.7981952E-2,-4.092708E-3,2.652295E-2,1.7062774E-2,-2.0783303E-2,1.6664539E-2,6.3093536E-2,-6.6239424E-3,4.045786E-2],"categories":[],"categories_nodes":[],"categories_segments":[],"categories_sizes":[],"default_left":[0,0,0,0,0,0,0,0,0,0,0,0,0,0,0,0,0,0,0,0,0,0,0],"id":25,"left_children":[1,3,5,7,9,11,13,15,17,-1,-1,19,21,-1,-1,-1,-1,-1,-1,-1,-1,-1,-1],"loss_changes":[7.046338E0,6.4880447E0,3.7746048E0,3.3606718E0,1.8186407E0,8.7109566E-2,2.117451E0,3.9972835E0,4.240696E0,0E0,0E0,1.1063194E-1,7.524483E-1,0E0,0E0,0E0,0E0,0E0,0E0,0E0,0E0,0E0,0E0],"parents":[2147483647,0,0,1,1,2,2,3,3,4,4,5,5,6,6,7,7,8,8,11,11,12,12],"right_children":[2,4,6,8,10,12,14,16,18,-1,-1,20,22,-1,-1,-1,-1,-1,-1,-1,-1,-1,-1],"split_conditions":[3.5736315E-2,5.485734E-1,8.115019E-2,8.3225176E-2,9.212722E-2,6.048622E-2,4.2022932E-2,1.6156238E0,3.6392243E0,-6.0338892E-2,4.238629E-3,3.2264814E-2,6.888478E-2,-3.6320537E-2,2.7981952E-2,-4.092708E-3,2.652295E-2,1.7062774E-2,-2.0783303E-2,1.6664539E-2,6.3093536E-2,-6.6239424E-3,4.045786E-2],"split_indices":[15,4,10,9,9,10,15,7,5,0,0,12,10,0,0,0,0,0,0,0,0,0,0],"split_type":[0,0,0,0,0,0,0,0,0,0,0,0,0,0,0,0,0,0,0,0,0,0,0],"sum_hessian":[2.8465497E2,2.7301196E2,1.1643008E1,2.6707788E2,5.9340763E0,8.457804E0,3.185205E0,2.1256578E2,5.4512093E1,4.74305E0,1.1910261E0,6.322775E0,2.1350284E0,1.7503517E0,1.4348534E0,2.0230688E2,1.0258899E1,4.6624992E1,7.8870983E0,1.0379455E0,5.284829E0,1.0076785E0,1.1273499E0],"tree_param":{"num_deleted":"0","num_feature":"16","num_nodes":"23","size_leaf_vector":"1"}},{"base_weights":[5.057215E-2,8.651366E-3,4.4131455E-1,1.934031E-1,-1.0120346E-1,1.1304804E0,2.3511498E-1,-2.4580461E-1,5.8815295E-1,3.4915102E-1,-2.6969764E-1,7.961235E-3,6.81447E-2,1.7849714E-2,1.0496682E0,5.0005782E-3,-3.237049E-2,4.0491898E-2,5.0945147E-3,2.2772651E-2,-4.0503725E-2,-2.240532E-2,-8.976118E-4,1.1132089E-2,-4.6567865E-2,1.3821438E-2,5.947378E-2],"categories":[],"categories_nodes":[],"categories_segments":[],"categories_sizes":[],"default_left":[0,0,0,0,0,0,0,0,0,0,0,0,0,0,0,0,0,0,0,0,0,0,0,0,0,0,0],"id":26,"left_children":[1,3,5,7,9,11,13,15,17,19,21,-1,-1,23,25,-1,-1,-1,-1,-1,-1,-1,-1,-1,-1,-1,-1],"loss_changes":[4.6751204E0,5.275985E0,3.6643138E0,1.6947788E1,1.246842E1,1.1614423E0,3.971974E0,6.533924E0,5.4514236E0,5.8939404E0,5.3472986E0,0E0,0E0,3.8655465E0,1.8262434E-1,0E0,0E0,0E0,0E0,0E0,0E0,0E0,0E0,0E0,0E0,0E0,0E0],"parents":[2147483647,0,0,1,1,2,2,3,3,4,4,5,5,6,6,7,7,8,8,9,9,10,10,13,13,14,14],"right_children":[2,4,6,8,10,12,14,16,18,20,22,-1,-1,24,26,-1,-1,-1,-1,-1,-1,-1,-1,-1,-1,-1,-1],"split_conditions":[3.654757E-1,2.469532E-5,1.9435066E0,4.6449747E-2,9.1774195E-2,1.0820909E0,1.0353556E-1,-1.1374676E0,-3.1672055E-3,3.6392243E0,5.698271E-2,7.961235E-3,6.81447E-2,6.8423355E-1,2.2222787E-2,5.0005782E-3,-3.237049E-2,4.0491898E-2,5.0945147E-3,2.2772651E-2,-4.0503725E-2,-2.240532E-2,-8.976118E-4,1.1132089E-2,-4.6567865E-2,1.3821438E-2,5.947378E-2],"split_indices":[3,15,6,3,3,5,9,6,1,5,9,0,0,3,11,0,0,0,0,0,0,0,0,0,0,0,0],"split_type":[0,0,0,0,0,0,0,0,0,0,0,0,0,0,0,0,0,0,0,0,0,0,0,0,0,0,0],"sum_hessian":[2.8464548E2,2.5798923E2,2.6656225E1,9.591713E1,1.6207211E2,5.1065426E0,2.1549683E1,4.558052E1,5.033661E1,4.3835514E1,1.18236595E2,1.3113804E0,3.7951622E0,1.78188E1,3.7308836E0,2.4894882E1,2.0685637E1,3.4117268E1,1.6219341E1,4.0709522E1,3.1259923E0,6.874084E1,4.949576E1,1.528623E1,2.5325701E0,1.0271553E0,2.7037284E0],"tree_param":{"num_deleted":"0","num_feature":"16","num_nodes":"27","size_leaf_vector":"1"}},{"base_weights":[5.746094E-3,-2.6039435E-2,7.897121E-1,1.8380903E-1,-1.3212855E-1,1.1004231E0,-1.229144E-1,9.1690846E-2,5.783226E-1,-3.1644374E-1,1.0132786E-1,6.1801013E-2,1.749617E-2,1.8664343E-2,-2.36696E-2,1.5348623E-2,-1.4195251E-2,-9.538092E-3,3.9061423E-2,-2.7048826E-2,2.5134357E-3,9.919797E-3,-4.828189E-2],"categories":[],"categories_nodes":[],"categories_segments":[],"categories_sizes":[],"default_left":[0,0,0,0,0,0,0,0,0,0,0,0,0,0,0,0,0,0,0,0,0,0,0],"id":27,"left_children":[1,3,5,7,9,11,13,15,17,19,21,-1,-1,-1,-1,-1,-1,-1,-1,-1,-1,-1,-1],"loss_changes":[7.049685E0,6.08102E0,3.261014E0,3.2821758E0,7.8326864E0,4.1457367E-1,8.200386E-1,6.1991954E0,2.8306208E0,8.388481E0,8.55348E0,0E0,0E0,0E0,0E0,0E0,0E0,0E0,0E0,0E0,0E0,0E0,0E0],"parents":[2147483647,0,0,1,1,2,2,3,3,4,4,5,5,6,6,7,7,8,8,9,9,10,10],"right_children":[2,4,6,8,10,12,14,16,18,20,22,-1,-1,-1,-1,-1,-1,-1,-1,-1,-1,-1,-1],"split_conditions":[3.7834045E-2,-1.0040415E-3,9.051717E-2,-4.7406573E-3,1.4456129E-2,7.0588183E-1,8.3495E-1,-5.7179113E-3,-6.791265E-1,1.358655E0,5.485734E-1,6.1801013E-2,1.749617E-2,1.8664343E-2,-2.36696E-2,1.5348623E-2,-1.4195251E-2,-9.538092E-3,3.9061423E-2,-2.7048826E-2,2.5134357E-3,9.919797E-3,-4.828189E-2],"split_indices":[15,15,10,15,15,13,14,2,5,6,4,0,0,0,0,0,0,0,0,0,0,0,0],"split_type":[0,0,0,0,0,0,0,0,0,0,0,0,0,0,0,0,0,0,0,0,0,0,0],"sum_hessian":[2.8108133E2,2.710582E2,1.0023141E1,9.077301E1,1.8028519E2,7.3238883E0,2.6992528E0,7.458903E1,1.6183985E1,1.0054716E2,7.973803E1,5.6552005E0,1.6686875E0,1.0903997E0,1.6088531E0,4.7529232E1,2.7059793E1,3.39095E0,1.2793035E1,6.206837E1,3.8478783E1,7.38349E1,5.903135E0],"tree_param":{"num_deleted":"0","num_feature":"16","num_nodes":"23","size_leaf_vector":"1"}},{"base_weights":[-2.3353925E-2,5.571136E-1,-5.8840115E-2,4.737753E-2,1.0674634E0,-4.9402815E-1,-1.7750597E-2,7.728885E-1,-8.969442E-1,2.1885566E-3,6.467793E-2,-1.0383699E0,-2.1592917E-1,5.464185E-1,-6.1828766E-2,1.4960726E-3,5.5521887E-2,5.072612E-3,-6.306268E-2,-6.412773E-2,-6.061015E-3,1.8049007E-3,-5.3534962E-2,-1.54154375E-2,3.9647467E-2,1.954927E-2,-5.551125E-3],"categories":[],"categories_nodes":[],"categories_segments":[],"categories_sizes":[],"default_left":[0,0,0,0,0,0,0,0,0,0,0,0,0,0,0,0,0,0,0,0,0,0,0,0,0,0,0],"id":28,"left_children":[1,3,5,7,9,11,13,15,17,-1,-1,19,21,23,25,-1,-1,-1,-1,-1,-1,-1,-1,-1,-1,-1,-1],"loss_changes":[6.0443115E0,4.348213E0,4.925372E0,7.2059927E0,1.8882694E0,3.3738189E0,6.3293724E0,1.4496841E0,1.7985687E0,0E0,0E0,1.5856247E0,3.6995263E0,4.131748E0,5.2941494E0,0E0,0E0,0E0,0E0,0E0,0E0,0E0,0E0,0E0,0E0,0E0,0E0],"parents":[2147483647,0,0,1,1,2,2,3,3,4,4,5,5,6,6,7,7,8,8,11,11,12,12,13,13,14,14],"right_children":[2,4,6,8,10,12,14,16,18,-1,-1,20,22,24,26,-1,-1,-1,-1,-1,-1,-1,-1,-1,-1,-1,-1],"split_conditions":[-1.4690635E-1,-2.2280829E-2,-6.659122E-2,-1.4149275E-1,5.5553395E-2,-1.2443771E-2,-1.4636856E0,-3.031556E-1,3.3333334E-1,2.1885566E-3,6.467793E-2,3.0555674E-1,1.3106915E0,-2.3232646E0,5.796693E-2,1.4960726E-3,5.5521887E-2,5.072612E-3,-6.306268E-2,-6.412773E-2,-6.061015E-3,1.8049007E-3,-5.3534962E-2,-1.54154375E-2,3.9647467E-2,1.954927E-2,-5.551125E-3],"split_indices":[3,15,3,2,12,8,5,3,14,0,0,12,5,6,14,0,0,0,0,0,0,0,0,0,0,0,0],"split_type":[0,0,0,0,0,0,0,0,0,0,0,0,0,0,0,0,0,0,0,0,0,0,0,0,0,0,0],"sum_hessian":[2.9084204E2,1.5909065E1,2.7493298E2,8.506063E0,7.403001E0,2.2768076E1,2.521649E2,4.9130034E0,3.5930603E0,1.5551836E0,5.8478174E0,6.7743587E0,1.5993717E1,1.7447882E1,2.3471701E2,1.8748919E0,3.038112E0,1.1534716E0,2.4395885E0,5.035325E0,1.7390339E0,1.3091488E1,2.9022295E0,3.8498359E0,1.3598046E1,2.2319996E1,2.1239702E2],"tree_param":{"num_deleted":"0","num_feature":"16","num_nodes":"27","size_leaf_vector":"1"}},{"base_weights":[3.1336065E-2,9.1872203E-1,6.657309E-3,5.9385885E-2,2.3335628E-1,-1.4970676E-2,5.964896E-1,-8.47971E-3,2.3992805E-2,5.6014948E-2,-2.3598313E-1,5.1816847E-2,1.470639E-2,-7.797269E-4,2.7938012E-2,-2.4742575E-2,1.7499054E-3,2.845264E-2,-1.9837832E-2],"categories":[],"categories_nodes":[],"categories_segments":[],"categories_sizes":[],"default_left":[0,0,0,0,0,0,0,0,0,0,0,0,0,0,0,0,0,0,0],"id":29,"left_children":[1,3,5,-1,7,9,11,-1,-1,13,15,-1,17,-1,-1,-1,-1,-1,-1],"loss_changes":[6.15376E0,1.1246338E0,3.5129225E0,0E0,4.1786662E-1,4.185389E0,2.477187E0,0E0,0E0,7.2843404E0,4.5658417E0,0E0,1.41364E0,0E0,0E0,0E0,0E0,0E0,0E0],"parents":[2147483647,0,0,1,1,2,2,4,4,5,5,6,6,9,9,10,10,12,12],"right_children":[2,4,6,-1,8,10,12,-1,-1,14,16,-1,18,-1,-1,-1,-1,-1,-1],"split_conditions":[-1.5201941E-1,3.157937E-1,3.7834045E-2,5.9385885E-2,4.5454502E-1,2.8449583E-1,6.237694E-2,-8.47971E-3,2.3992805E-2,1.6774978E-2,2E-1,5.1816847E-2,1.7253077E-1,-7.797269E-4,2.7938012E-2,-2.4742575E-2,1.7499054E-3,2.845264E-2,-1.9837832E-2],"split_indices":[2,11,15,0,11,4,10,0,0,15,12,0,2,0,0,0,0,0,0],"split_type":[0,0,0,0,0,0,0,0,0,0,0,0,0,0,0,0,0,0,0],"sum_hessian":[2.802782E2,6.6035604E0,2.7367465E2,4.215911E0,2.3876495E0,2.6493463E2,8.74001E0,1.0246524E0,1.3629972E0,2.0109329E2,6.3841354E1,4.532204E0,4.2078066E0,1.7686952E2,2.4223766E1,3.2227898E1,3.1613459E1,1.6294798E0,2.5783267E0],"tree_param":{"num_deleted":"0","num_feature":"16","num_nodes":"19","size_leaf_vector":"1"}},{"base_weights":[-2.6560975E-2,-9.538638E-2,2.876208E-1,1.0336238E-2,-2.6568466E-1,5.1794015E-2,5.629626E-1,-3.7101638E-1,1.7347215E-1,4.3887648E-1,-4.0622744E-1,2.4834755E-1,-9.6361625E-1,-1.4651766E-1,9.31144E-1,-2.9751703E-2,5.875973E-3,2.7116756E-3,4.14523E-2,-1.0973989E-2,5.73075E-2,-2.5264788E-2,2.3952281E-2,-4.93286E-3,3.4527365E-2,-6.6059776E-2,1.4487485E-3,4.228711E-2,-3.4292158E-2,5.7845127E-2,-1.24081625E-2],"categories":[],"categories_nodes":[],"categories_segments":[],"categories_sizes":[],"default_left":[0,0,0,0,0,0,0,0,0,0,0,0,0,0,0,0,0,0,0,0,0,0,0,0,0,0,0,0,0,0,0],"id":30,"left_children":[1,3,5,7,9,11,13,15,17,19,21,23,25,27,29,-1,-1,-1,-1,-1,-1,-1,-1,-1,-1,-1,-1,-1,-1,-1,-1],"loss_changes":[6.2302284E0,4.252791E0,3.3340826E0,9.184908E0,9.134993E0,6.0274224E0,6.35196E0,4.911907E0,8.034709E0,7.4797344E0,6.901263E0,3.91851E0,1.7803655E0,5.3928666E0,4.493964E0,0E0,0E0,0E0,0E0,0E0,0E0,0E0,0E0,0E0,0E0,0E0,0E0,0E0,0E0,0E0,0E0],"parents":[2147483647,0,0,1,1,2,2,3,3,4,4,5,5,6,6,7,7,8,8,9,9,10,10,11,11,12,12,13,13,14,14],"right_children":[2,4,6,8,10,12,14,16,18,20,22,24,26,28,30,-1,-1,-1,-1,-1,-1,-1,-1,-1,-1,-1,-1,-1,-1,-1,-1],"split_conditions":[9.212722E-2,1.885486E-1,1.6805854E-1,1.888166E-2,-1.4409972E-2,3.6392243E0,1.4567153E0,2.9962426E-3,4.0621784E-2,1.2697519E0,3.0695837E-2,-2.6645454E-2,4.2022932E-2,-2.0081298E-2,6.8423355E-1,-2.9751703E-2,5.875973E-3,2.7116756E-3,4.14523E-2,-1.0973989E-2,5.73075E-2,-2.5264788E-2,2.3952281E-2,-4.93286E-3,3.4527365E-2,-6.6059776E-2,1.4487485E-3,4.228711E-2,-3.4292158E-2,5.7845127E-2,-1.24081625E-2],"split_indices":[9,3,3,3,10,5,5,15,1,5,0,1,15,15,3,0,0,0,0,0,0,0,0,0,0,0,0,0,0,0,0],"split_type":[0,0,0,0,0,0,0,0,0,0,0,0,0,0,0,0,0,0,0,0,0,0,0,0,0,0,0,0,0,0,0],"sum_hessian":[2.8585178E2,2.3505621E2,5.0795574E1,1.4560358E2,8.945264E1,2.8001095E1,2.2794477E1,4.3242954E1,1.0236063E2,1.4523171E1,7.492947E1,2.409285E1,3.9082453E0,7.9933863E0,1.4801091E1,2.9498463E1,1.3744492E1,8.752409E1,1.4836538E1,7.878891E0,6.6442804E0,6.777427E1,7.1551976E0,1.3934784E1,1.0158066E1,2.6298053E0,1.2784399E0,2.6146894E0,5.378697E0,1.2438875E1,2.362216E0],"tree_param":{"num_deleted":"0","num_feature":"16","num_nodes":"31","size_leaf_vector":"1"}},{"base_weights":[1.78559E-2,1.6988292E-3,5.274236E-2,-3.664028E-2,3.513496E-1,1.3993518E-1,-1.5458602E-1,7.090004E-2,1.7638183E-1,-1.5783455E-2,2.1710498E-2,1.5623924E-2,-1.4788914E-2,-2.3621086E-2,2.0712562E-2],"categories":[],"categories_nodes":[],"categories_segments":[],"categories_sizes":[],"default_left":[0,0,0,0,0,0,0,0,0,0,0,0,0,0,0],"id":31,"left_children":[1,3,-1,5,7,9,11,-1,13,-1,-1,-1,-1,-1,-1],"loss_changes":[4.8017406E0,3.810596E0,0E0,5.357575E0,4.9920645E0,1.3963846E1,1.0253538E1,0E0,4.0960174E0,0E0,0E0,0E0,0E0,0E0,0E0],"parents":[2147483647,0,0,1,1,3,3,4,4,5,5,6,6,8,8],"right_children":[2,4,-1,6,8,10,12,-1,14,-1,-1,-1,-1,-1,-1],"split_conditions":[1.9121699E-1,3.654757E-1,5.274236E-2,1.8926038E-3,5.409893E-2,2.480207E-2,7.481286E-2,7.090004E-2,6.883734E-2,-1.5783455E-2,2.1710498E-2,1.5623924E-2,-1.4788914E-2,-2.3621086E-2,2.0712562E-2],"split_indices":[9,3,0,15,9,3,3,0,9,0,0,0,0,0,0],"split_type":[0,0,0,0,0,0,0,0,0,0,0,0,0,0,0],"sum_hessian":[2.856969E2,2.823001E2,3.396801E0,2.5521146E2,2.7088657E1,1.0212886E2,1.530826E2,2.816169E0,2.4272488E1,4.0049866E1,6.2079E1,3.525286E1,1.17829735E2,6.247095E0,1.8025393E1],"tree_param":{"num_deleted":"0","num_feature":"16","num_nodes":"15","size_leaf_vector":"1"}}]},"name":"gbtree"},"learner_model_param":{"base_score":"5E-1","boost_from_average":"1","num_class":"0","num_feature":"16","num_target":"1"},"objective":{"name":"binary:logistic","reg_loss_param":{"scale_pos_weight":"0.476159781"}}},"version":[2,1,0]}