{"learner":{"attributes":{"scikit_learn":"{\"_estimator_type\": \"classifier\"}"},"feature_names":["bias_week","bias_month","bias_quarter","bias_year","rsi","macd","macd_signal","vol_change","close_change","bb_width","return_5d","k_upper","k_lower","k_body","buy_power","rs_5d"],"feature_types":["float","float","float","float","float","float","float","float","float","float","float","float","float","float","float","float"],"gradient_booster":{"model":{"gbtree_model_param":{"num_parallel_tree":"1","num_trees":"34"},"iteration_indptr":[0,1,2,3,4,5,6,7,8,9,10,11,12,13,14,15,16,17,18,19,20,21,22,23,24,25,26,27,28,29,30,31,32,33,34],"tree_info":[0,0,0,0,0,0,0,0,0,0,0,0,0,0,0,0,0,0,0,0,0,0,0,0,0,0,0,0,0,0,0,0,0,0],"trees":[{"base_weights":[8.161522E-3,-1.9082943E-1,7.289317E-1,1.7119841E-1,-3.1841576E-1,7.9080325E-1,-6.0000002E-2,-6.451293E-1,7.198982E-1,1.5496768E-1,-4.783445E-1,6.7480874E-1,8.527458E-2,-2.2411528E-3,-4.3602705E-2,2.0199088E-2,5.6923456E-2,-1.3858954E-2,4.3662425E-2,-3.0048741E-2,1.4638992E-2,4.6981674E-2,1.3833557E-2],"categories":[],"categories_nodes":[],"categories_segments":[],"categories_sizes":[],"default_left":[0,0,0,0,0,0,0,0,0,0,0,0,0,0,0,0,0,0,0,0,0,0,0],"id":0,"left_children":[1,3,5,7,9,11,-1,13,15,17,19,21,-1,-1,-1,-1,-1,-1,-1,-1,-1,-1,-1],"loss_changes":[4.4855583E1,1.1376217E1,9.023865E0,2.9365551E1,1.3821835E1,5.86858E0,0E0,3.565919E0,4.705036E0,1.4710429E1,1.3034454E1,6.1051006E0,0E0,0E0,0E0,0E0,0E0,0E0,0E0,0E0,0E0,0E0,0E0],"parents":[2147483647,0,0,1,1,2,2,3,3,4,4,5,5,7,7,8,8,9,9,10,10,11,11],"right_children":[2,4,6,8,10,12,-1,14,16,18,20,22,-1,-1,-1,-1,-1,-1,-1,-1,-1,-1,-1],"split_conditions":[8.8854685E-2,-7.2618234E-3,7.890913E-1,2.4265261E-2,9.665325E-2,1.947151E-1,-6.0000002E-2,1.3043594E-1,1.4599472E-1,1.2895364E0,3.4828082E-1,7.745471E-3,8.527458E-2,-2.2411528E-3,-4.3602705E-2,2.0199088E-2,5.6923456E-2,-1.3858954E-2,4.3662425E-2,-3.0048741E-2,1.4638992E-2,4.6981674E-2,1.3833557E-2],"split_indices":[9,1,3,3,3,9,0,12,3,6,3,8,0,0,0,0,0,0,0,0,0,0,0],"split_type":[0,0,0,0,0,0,0,0,0,0,0,0,0,0,0,0,0,0,0,0,0,0,0],"sum_hessian":[3.1077228E2,2.4411264E2,6.665962E1,6.352313E1,1.8058952E2,6.515962E1,1.5E0,2.5463736E1,3.8059395E1,4.561165E1,1.3497787E2,5.9368645E1,5.7909765E0,7.313678E0,1.8150057E1,2.2809252E1,1.5250142E1,2.8861507E1,1.6750143E1,1.166482E2,1.8329668E1,3.4836662E1,2.453198E1],"tree_param":{"num_deleted":"0","num_feature":"16","num_nodes":"23","size_leaf_vector":"1"}},{"base_weights":[-3.0061226E-2,-2.30905E-1,7.079263E-1,3.331598E-1,-2.850909E-1,7.707308E-1,-3.9991572E-2,6.9708824E-1,-1.7098735E-1,-3.395367E-1,3.8530698E-1,1.3103412E0,5.6873024E-1,-1.9276924E-3,6.5214224E-2,3.6499314E-2,-3.243012E-2,-9.794804E-3,-3.181049E-2,4.6641685E-2,-1.6461259E-3,7.1936145E-2,2.2166544E-4,5.0563324E-2,1.4351449E-2],"categories":[],"categories_nodes":[],"categories_segments":[],"categories_sizes":[],"default_left":[0,0,0,0,0,0,0,0,0,0,0,0,0,0,0,0,0,0,0,0,0,0,0,0,0],"id":1,"left_children":[1,3,5,7,9,11,-1,13,15,17,19,21,23,-1,-1,-1,-1,-1,-1,-1,-1,-1,-1,-1,-1],"loss_changes":[4.6829315E1,7.6823235E0,7.0177536E0,4.1956043E0,8.417267E0,6.384117E0,0E0,5.9019494E0,4.827263E0,8.845789E0,4.0428867E0,2.8518677E0,5.862788E0,0E0,0E0,0E0,0E0,0E0,0E0,0E0,0E0,0E0,0E0,0E0,0E0],"parents":[2147483647,0,0,1,1,2,2,3,3,4,4,5,5,7,7,8,8,9,9,10,10,11,11,12,12],"right_children":[2,4,6,8,10,12,-1,14,16,18,20,22,24,-1,-1,-1,-1,-1,-1,-1,-1,-1,-1,-1,-1],"split_conditions":[9.10541E-2,4.6728984E-2,7.3765945E-1,1.5984115E-1,3.7347338E-1,-7.45608E-3,-3.9991572E-2,-1.6717248E-2,4.4158578E-2,1.9180779E-1,1.3813573E-2,9.032201E-1,1.1575493E-1,-1.9276924E-3,6.5214224E-2,3.6499314E-2,-3.243012E-2,-9.794804E-3,-3.181049E-2,4.6641685E-2,-1.6461259E-3,7.1936145E-2,2.2166544E-4,5.0563324E-2,1.4351449E-2],"split_indices":[9,14,3,3,3,0,0,0,2,3,15,14,11,0,0,0,0,0,0,0,0,0,0,0,0],"split_type":[0,0,0,0,0,0,0,0,0,0,0,0,0,0,0,0,0,0,0,0,0,0,0,0,0],"sum_hessian":[3.138414E2,2.4724156E2,6.659984E1,2.1217981E1,2.2602359E2,6.440588E1,2.193957E0,1.2100379E1,9.117602E0,2.0950255E2,1.6521046E1,1.6048418E1,4.8357464E1,5.8949366E0,6.2054424E0,2.9757483E0,6.1418543E0,1.422766E2,6.722595E1,6.621738E0,9.899307E0,1.4519343E1,1.5290749E0,1.7801886E1,3.0555578E1],"tree_param":{"num_deleted":"0","num_feature":"16","num_nodes":"25","size_leaf_vector":"1"}},{"base_weights":[1.6984321E-3,-1.9048017E-1,7.621885E-1,1.3183194E-1,-3.0315024E-1,1.0051324E0,4.1433978E-1,-6.574743E-2,7.925575E-1,-3.3797967E-1,7.431314E-1,1.0769038E0,-1.8412573E-2,5.5759534E-2,7.941132E-2,-1.0137401E-2,3.1236008E-2,8.496307E-3,6.724454E-2,3.1336814E-2,-1.8807372E-2,5.782166E-2,8.532521E-3,5.6829672E-2,8.557807E-3,5.007227E-2,-1.1743979E-2],"categories":[],"categories_nodes":[],"categories_segments":[],"categories_sizes":[],"default_left":[0,0,0,0,0,0,0,0,0,0,0,0,0,0,0,0,0,0,0,0,0,0,0,0,0,0,0],"id":2,"left_children":[1,3,5,7,9,11,13,15,17,19,21,23,-1,25,-1,-1,-1,-1,-1,-1,-1,-1,-1,-1,-1,-1,-1],"loss_changes":[4.572134E1,9.109177E0,4.9165993E0,8.587788E0,7.0056973E0,3.989952E0,1.1551134E1,4.975255E0,4.9739695E0,6.866081E0,1.2895014E0,1.6922684E0,0E0,6.341978E0,0E0,0E0,0E0,0E0,0E0,0E0,0E0,0E0,0E0,0E0,0E0,0E0,0E0],"parents":[2147483647,0,0,1,1,2,2,3,3,4,4,5,5,6,6,7,7,8,8,9,9,10,10,11,11,13,13],"right_children":[2,4,6,8,10,12,14,16,18,20,22,24,-1,26,-1,-1,-1,-1,-1,-1,-1,-1,-1,-1,-1,-1,-1],"split_conditions":[9.233561E-2,-6.77625E-3,1.2496225E-1,2.1621482E-2,8.3333366E-2,1.11668624E-1,1.947151E-1,3.8888654E-1,-3.2122843E-2,-2.4884777E-2,9.357996E-2,3.3169378E-2,-1.8412573E-2,-7.45608E-3,7.941132E-2,-1.0137401E-2,3.1236008E-2,8.496307E-3,6.724454E-2,3.1336814E-2,-1.8807372E-2,5.782166E-2,8.532521E-3,5.6829672E-2,8.557807E-3,5.007227E-2,-1.1743979E-2],"split_indices":[9,1,9,2,10,1,9,11,10,10,10,8,0,0,0,0,0,0,0,0,0,0,0,0,0,0,0],"split_type":[0,0,0,0,0,0,0,0,0,0,0,0,0,0,0,0,0,0,0,0,0,0,0,0,0,0,0],"sum_hessian":[3.1084525E2,2.4873784E2,6.210742E1,6.438458E1,1.8435326E2,3.5455257E1,2.6652164E1,5.0256634E1,1.4127949E1,1.7906923E2,5.284027E0,3.3899582E1,1.5556773E0,2.121825E1,5.4339147E0,4.2525257E1,7.731377E0,7.2560444E0,6.871904E0,6.2281413E0,1.7284108E2,2.4762583E0,2.8077688E0,3.1564579E1,2.335001E0,4.413117E0,1.6805132E1],"tree_param":{"num_deleted":"0","num_feature":"16","num_nodes":"27","size_leaf_vector":"1"}},{"base_weights":[7.0903488E-3,-2.0742778E-1,5.1354134E-1,-2.5064784E-1,1.1150229E0,1.0085384E0,3.5883403E-1,1.05595075E-1,-4.0052897E-1,5.9995204E-2,7.7907346E-2,1.1400623E0,-2.0017756E-2,2.7560568E-1,7.19071E-2,-2.7490396E-2,2.3357434E-2,9.471319E-3,-2.8796038E-2,-2.0953244E-2,2.6107917E-2,1.5907004E-2,6.628553E-2,5.5182423E-2,8.742339E-3],"categories":[],"categories_nodes":[],"categories_segments":[],"categories_sizes":[],"default_left":[0,0,0,0,0,0,0,0,0,0,0,0,0,0,0,0,0,0,0,0,0,0,0,0,0],"id":3,"left_children":[1,3,5,7,9,11,13,15,17,19,-1,21,-1,23,-1,-1,-1,-1,-1,-1,-1,-1,-1,-1,-1],"loss_changes":[3.334365E1,1.2603277E1,6.6309376E0,1.1234135E1,3.1824522E0,4.38328E0,5.9925537E0,1.5153242E1,1.5396709E1,9.0797025E-1,0E0,2.5753822E0,0E0,5.4194016E0,0E0,0E0,0E0,0E0,0E0,0E0,0E0,0E0,0E0,0E0,0E0],"parents":[2147483647,0,0,1,1,2,2,3,3,4,4,5,5,6,6,7,7,8,8,9,9,11,11,13,13],"right_children":[2,4,6,8,10,12,14,16,18,20,-1,22,-1,24,-1,-1,-1,-1,-1,-1,-1,-1,-1,-1,-1],"split_conditions":[7.9299025E-2,4.5937046E-1,-4.687497E-1,-9.96583E-4,2.8566757E-2,1.2134651E0,1.947151E-1,3.689383E-2,9.08113E-2,2.3004018E-2,7.7907346E-2,-3.6113092E-1,-2.0017756E-2,-4.510005E-1,7.19071E-2,-2.7490396E-2,2.3357434E-2,9.471319E-3,-2.8796038E-2,-2.0953244E-2,2.6107917E-2,1.5907004E-2,6.628553E-2,5.5182423E-2,8.742339E-3],"split_indices":[9,3,13,15,11,7,9,3,3,10,0,7,0,7,0,0,0,0,0,0,0,0,0,0,0],"split_type":[0,0,0,0,0,0,0,0,0,0,0,0,0,0,0,0,0,0,0,0,0,0,0,0,0],"sum_hessian":[3.0493E2,2.1461546E2,9.031453E1,2.0860823E2,6.007222E0,2.0191479E1,7.012305E1,6.1863735E1,1.4674449E2,2.1126459E0,3.8945763E0,1.8642008E1,1.5494713E0,6.626828E1,3.8547711E0,2.1808996E1,4.005474E1,3.3610554E1,1.1313394E2,1.0831494E0,1.0294966E0,3.934855E0,1.4707152E1,6.109193E0,6.0159084E1],"tree_param":{"num_deleted":"0","num_feature":"16","num_nodes":"25","size_leaf_vector":"1"}},{"base_weights":[-4.2355996E-2,-2.1381855E-1,6.19286E-1,-1.8037555E-1,-7.2207145E-2,7.3379254E-1,-1.1001746E-1,-2.0304199E-1,7.172762E-2,1.0990663E0,5.3625315E-1,-5.465727E-1,4.753631E-2,-1.6272264E-2,5.1589287E-4,2.2081135E-2,7.158051E-2,-9.962236E-3,3.3965733E-2,-4.208097E-2,2.9876752E-2],"categories":[],"categories_nodes":[],"categories_segments":[],"categories_sizes":[],"default_left":[0,0,0,0,0,0,0,0,0,0,0,0,0,0,0,0,0,0,0,0,0],"id":4,"left_children":[1,3,5,7,-1,9,11,13,-1,15,17,19,-1,-1,-1,-1,-1,-1,-1,-1,-1],"loss_changes":[3.6286427E1,1.0183981E1,5.579544E0,9.378974E0,0E0,3.526474E0,5.060099E0,6.4201994E0,0E0,3.5365372E0,4.2361717E0,3.0620594E0,0E0,0E0,0E0,0E0,0E0,0E0,0E0,0E0,0E0],"parents":[2147483647,0,0,1,1,2,2,3,3,5,5,6,6,7,7,9,9,10,10,11,11],"right_children":[2,4,6,8,-1,10,12,14,-1,16,18,20,-1,-1,-1,-1,-1,-1,-1,-1,-1],"split_conditions":[9.233561E-2,5.492308E-1,3.2472678E-2,3.0925348E-2,-7.2207145E-2,-4.0463293E-3,1.6086659E-1,1.392787E0,7.172762E-2,-2.8306488E-2,4.2426814E-3,4.190703E0,4.753631E-2,-1.6272264E-2,5.1589287E-4,2.2081135E-2,7.158051E-2,-9.962236E-3,3.3965733E-2,-4.208097E-2,2.9876752E-2],"split_indices":[9,4,8,15,0,0,9,6,0,0,10,6,0,0,0,0,0,0,0,0,0],"split_type":[0,0,0,0,0,0,0,0,0,0,0,0,0,0,0,0,0,0,0,0,0],"sum_hessian":[3.1768692E2,2.528408E2,6.484611E1,2.4726616E2,5.5746474E0,5.604105E1,8.805057E0,2.4470584E2,2.5603151E0,1.8067793E1,3.7973255E1,6.581237E0,2.2238195E0,1.551639E2,8.954195E1,6.8510985E0,1.1216695E1,6.11948E0,3.1853775E1,5.4421763E0,1.1390606E0],"tree_param":{"num_deleted":"0","num_feature":"16","num_nodes":"21","size_leaf_vector":"1"}},{"base_weights":[-5.82347E-3,8.1504416E-1,-6.4878955E-2,1.366937E0,2.2688039E-1,-1.6328083E-1,3.1921205E-1,2.934127E-1,8.0363095E-2,-6.6783667E-1,1.2665926E0,1.7617968E-1,-3.171116E-1,7.5472903E-1,1.05893396E-1,4.574651E-2,-2.366108E-2,2.738055E-2,-5.0470453E-2,7.5120434E-2,1.5994957E-2,-2.5879497E-2,3.0561207E-2,-1.9510329E-2,2.838333E-2,-2.0676164E-2,4.2277344E-2,2.9918162E-2,-8.973174E-3],"categories":[],"categories_nodes":[],"categories_segments":[],"categories_sizes":[],"default_left":[0,0,0,0,0,0,0,0,0,0,0,0,0,0,0,0,0,0,0,0,0,0,0,0,0,0,0,0,0],"id":5,"left_children":[1,3,5,7,9,11,13,15,-1,17,19,21,23,25,27,-1,-1,-1,-1,-1,-1,-1,-1,-1,-1,-1,-1,-1,-1],"loss_changes":[1.5167571E1,6.5063763E0,1.1080524E1,2.272131E0,1.1417876E1,1.222014E1,5.480199E0,1.9427302E0,0E0,3.3605297E0,7.69928E-1,2.2435518E1,1.0611797E1,2.419962E0,5.9161696E0,0E0,0E0,0E0,0E0,0E0,0E0,0E0,0E0,0E0,0E0,0E0,0E0,0E0,0E0],"parents":[2147483647,0,0,1,1,2,2,3,3,4,4,5,5,6,6,7,7,9,9,10,10,11,11,12,12,13,13,14,14],"right_children":[2,4,6,8,10,12,14,16,-1,18,20,22,24,26,28,-1,-1,-1,-1,-1,-1,-1,-1,-1,-1,-1,-1,-1,-1],"split_conditions":[-1.4485653E-1,-2.9134622E0,2.5691984E0,-3.3790696E-1,-1.0946617E0,-7.2618234E-3,4.4594467E-1,-1.0992004E-2,8.0363095E-2,-1.211651E-1,7.580829E-3,2.4265261E-2,3.3462518E-1,-5.02293E-1,3.8572806E-1,4.574651E-2,-2.366108E-2,2.738055E-2,-5.0470453E-2,7.5120434E-2,1.5994957E-2,-2.5879497E-2,3.0561207E-2,-1.9510329E-2,2.838333E-2,-2.0676164E-2,4.2277344E-2,2.9918162E-2,-8.973174E-3],"split_indices":[3,6,5,3,5,1,14,0,0,2,8,3,3,7,4,0,0,0,0,0,0,0,0,0,0,0,0,0,0],"split_type":[0,0,0,0,0,0,0,0,0,0,0,0,0,0,0,0,0,0,0,0,0,0,0,0,0,0,0,0,0],"sum_hessian":[3.1079266E2,1.99995E1,2.9079315E2,9.634792E0,1.0364707E1,2.3194508E2,5.884809E1,2.1686037E0,7.466189E0,5.7630377E0,4.60167E0,7.2285774E1,1.596593E2,1.8513142E1,4.033495E1,1.0908245E0,1.077779E0,1.1319419E0,4.631096E0,3.2140596E0,1.3876101E0,2.7785778E1,4.4499992E1,1.4799208E2,1.1667222E1,1.0790642E0,1.7434076E1,1.4395043E1,2.5939905E1],"tree_param":{"num_deleted":"0","num_feature":"16","num_nodes":"29","size_leaf_vector":"1"}},{"base_weights":[2.235782E-2,-1.7286882E-1,5.1337373E-1,1.7467548E-1,-2.9857555E-1,4.35981E-1,7.174387E-2,-6.595261E-2,9.537049E-1,-4.9086404E-1,-2.8301993E-2,4.9824205E-1,-5.3263474E-1,3.0632168E-2,-9.899926E-3,5.8592148E-2,-5.346428E-3,-3.0987344E-3,-3.4465495E-2,2.0434154E-2,-1.7034987E-2,3.8087633E-2,1.5652176E-2,-3.721675E-2,7.082002E-3],"categories":[],"categories_nodes":[],"categories_segments":[],"categories_sizes":[],"default_left":[0,0,0,0,0,0,0,0,0,0,0,0,0,0,0,0,0,0,0,0,0,0,0,0,0],"id":6,"left_children":[1,3,5,7,9,11,-1,13,15,17,19,21,23,-1,-1,-1,-1,-1,-1,-1,-1,-1,-1,-1,-1],"loss_changes":[3.013315E1,9.882346E0,5.7513676E0,1.1384839E1,8.592825E0,5.3266325E0,0E0,4.339931E0,3.437954E0,8.187799E0,9.682173E0,3.635067E0,8.9795065E-1,0E0,0E0,0E0,0E0,0E0,0E0,0E0,0E0,0E0,0E0,0E0,0E0],"parents":[2147483647,0,0,1,1,2,2,3,3,4,4,5,5,7,7,8,8,9,9,10,10,11,11,12,12],"right_children":[2,4,6,8,10,12,-1,14,16,18,20,22,24,-1,-1,-1,-1,-1,-1,-1,-1,-1,-1,-1,-1],"split_conditions":[8.103846E-2,-6.77625E-3,1.947151E-1,2.1621482E-2,1.5766517E0,1.2496053E-1,7.174387E-2,1.1905032E-2,8.157128E-2,8.697008E-2,2.7909756E-1,1.1575493E-1,8.4523946E-1,3.0632168E-2,-9.899926E-3,5.8592148E-2,-5.346428E-3,-3.0987344E-3,-3.4465495E-2,2.0434154E-2,-1.7034987E-2,3.8087633E-2,1.5652176E-2,-3.721675E-2,7.082002E-3],"split_indices":[9,1,9,2,5,1,0,11,2,6,4,11,13,0,0,0,0,0,0,0,0,0,0,0,0],"split_type":[0,0,0,0,0,0,0,0,0,0,0,0,0,0,0,0,0,0,0,0,0,0,0,0,0],"sum_hessian":[3.1242166E2,2.2400555E2,8.841609E1,5.9397736E1,1.6460782E2,8.292475E1,5.4913373E0,4.6079845E1,1.3317889E1,9.570296E1,6.890487E1,7.8372696E1,4.552054E0,6.9131117E0,3.9166733E1,1.0959104E1,2.3587859E0,3.068898E1,6.501398E1,2.8596117E1,4.0308754E1,3.1062338E1,4.731036E1,3.3852818E0,1.1667722E0],"tree_param":{"num_deleted":"0","num_feature":"16","num_nodes":"25","size_leaf_vector":"1"}},{"base_weights":[-4.9968273E-4,-5.645831E-2,6.6737455E-1,1.9727054E-1,-1.8700488E-1,9.693707E-1,-5.739125E-2,-1.2566443E-1,4.9020743E-1,3.1365466E-1,-3.3315298E-1,1.0902218E0,-2.1406148E-2,6.3638234E-1,-5.6194013E-1,3.4818366E-2,-1.8946884E-2,4.3351192E-2,2.8788222E-3,-2.7398575E-2,3.193375E-2,-2.3743335E-2,1.3404208E-2,6.194939E-2,1.07359905E-2,4.201785E-4,4.345175E-2,9.608141E-3,-4.282031E-2],"categories":[],"categories_nodes":[],"categories_segments":[],"categories_sizes":[],"default_left":[0,0,0,0,0,0,0,0,0,0,0,0,0,0,0,0,0,0,0,0,0,0,0,0,0,0,0,0,0],"id":7,"left_children":[1,3,5,7,9,11,13,15,17,19,21,23,-1,25,27,-1,-1,-1,-1,-1,-1,-1,-1,-1,-1,-1,-1,-1,-1],"loss_changes":[1.1654139E1,9.566996E0,5.3321505E0,9.3540745E0,1.4042397E1,3.3501205E0,3.1700804E0,1.0157154E1,8.380153E0,1.2547607E1,1.2731428E1,1.8173275E0,0E0,5.5546284E-1,1.3154403E0,0E0,0E0,0E0,0E0,0E0,0E0,0E0,0E0,0E0,0E0,0E0,0E0,0E0,0E0],"parents":[2147483647,0,0,1,1,2,2,3,3,4,4,5,5,6,6,7,7,8,8,9,9,10,10,11,11,13,13,14,14],"right_children":[2,4,6,8,10,12,14,16,18,20,22,24,-1,26,28,-1,-1,-1,-1,-1,-1,-1,-1,-1,-1,-1,-1,-1,-1],"split_conditions":[3.312188E-2,-9.96583E-4,1.7241335E-2,4.610002E-2,8.908707E-2,7.439621E-1,1.22449994E-1,-3.3184302E0,5.993794E-3,-7.8712904E-1,3.4508407E-1,2.184087E-2,-2.1406148E-2,2.0816574E-1,3.5841594E0,3.4818366E-2,-1.8946884E-2,4.3351192E-2,2.8788222E-3,-2.7398575E-2,3.193375E-2,-2.3743335E-2,1.3404208E-2,6.194939E-2,1.07359905E-2,4.201785E-4,4.345175E-2,9.608141E-3,-4.282031E-2],"split_indices":[15,15,8,3,3,13,11,6,0,6,3,0,0,3,5,0,0,0,0,0,0,0,0,0,0,0,0,0,0],"split_type":[0,0,0,0,0,0,0,0,0,0,0,0,0,0,0,0,0,0,0,0,0,0,0,0,0,0,0,0,0],"sum_hessian":[3.098222E2,2.8671494E2,2.310728E1,9.7229546E1,1.8948538E2,1.6072626E1,7.0346537E0,4.6518433E1,5.0711117E1,4.2555813E1,1.4692957E2,1.4995715E1,1.076911E0,2.8518977E0,4.182756E0,1.054471E1,3.5973724E1,2.6567268E1,2.4143847E1,1.1468078E1,3.1087736E1,1.1907367E2,2.7855896E1,1.2462845E1,2.532871E0,1.0510397E0,1.800858E0,1.2721934E0,2.9105623E0],"tree_param":{"num_deleted":"0","num_feature":"16","num_nodes":"29","size_leaf_vector":"1"}},{"base_weights":[1.1378573E-2,-1.6391282E-1,5.019281E-1,9.010876E-2,-2.8121552E-1,9.173412E-1,3.0055696E-1,5.0575894E-1,-1.3676104E-1,-5.1760167E-1,5.9527284E-3,4.6128047E-1,1.0731257E0,2.2547783E-1,6.1243635E-2,-3.578784E-2,3.2669026E-2,-2.7506545E-2,8.495699E-3,-3.335796E-2,1.1339988E-2,3.6276136E-2,-1.4367242E-2,3.8283996E-2,-2.84668E-2,6.581569E-2,3.4611918E-2,-4.495373E-2,1.3700391E-2],"categories":[],"categories_nodes":[],"categories_segments":[],"categories_sizes":[],"default_left":[0,0,0,0,0,0,0,0,0,0,0,0,0,0,0,0,0,0,0,0,0,0,0,0,0,0,0,0,0],"id":8,"left_children":[1,3,5,7,9,11,13,15,17,19,21,23,25,27,-1,-1,-1,-1,-1,-1,-1,-1,-1,-1,-1,-1,-1,-1,-1],"loss_changes":[2.6909618E1,6.8967724E0,6.615591E0,7.010129E0,1.0728443E1,1.3812542E0,3.6774755E0,5.1926007E0,6.2295995E0,9.800707E0,1.5472625E1,3.095625E0,8.423042E-1,3.1888683E0,0E0,0E0,0E0,0E0,0E0,0E0,0E0,0E0,0E0,0E0,0E0,0E0,0E0,0E0,0E0],"parents":[2147483647,0,0,1,1,2,2,3,3,4,4,5,5,6,6,7,7,8,8,9,9,10,10,11,11,12,12,13,13],"right_children":[2,4,6,8,10,12,14,16,18,20,22,24,26,28,-1,-1,-1,-1,-1,-1,-1,-1,-1,-1,-1,-1,-1,-1,-1],"split_conditions":[8.352097E-2,-1.36214E-4,3.5999757E-1,1.3559629E-1,1.5376276E0,-2.5724133E-2,1.947151E-1,-2.2351984E-2,-7.4297917E-1,1.5904156E-2,2.3469107E-1,-8.802683E-4,-5.0000215E-1,3.777771E-1,6.1243635E-2,-3.578784E-2,3.2669026E-2,-2.7506545E-2,8.495699E-3,-3.335796E-2,1.1339988E-2,3.6276136E-2,-1.4367242E-2,3.8283996E-2,-2.84668E-2,6.581569E-2,3.4611918E-2,-4.495373E-2,1.3700391E-2],"split_indices":[9,15,14,12,5,8,9,15,5,15,4,10,13,14,0,0,0,0,0,0,0,0,0,0,0,0,0,0,0],"split_type":[0,0,0,0,0,0,0,0,0,0,0,0,0,0,0,0,0,0,0,0,0,0,0,0,0,0,0,0,0],"sum_hessian":[3.109854E2,2.2960497E2,8.138045E1,7.260629E1,1.5699867E2,2.5408724E1,5.597172E1,2.5202772E1,4.740352E1,8.567323E1,7.132544E1,7.477955E0,1.7930769E1,5.291736E1,3.0543635E0,2.3024266E0,2.2900347E1,1.9851566E1,2.755195E1,7.142669E1,1.42465515E1,2.0227081E1,5.109836E1,5.9713445E0,1.5066103E0,9.444656E0,8.486113E0,1.4641219E0,5.145324E1],"tree_param":{"num_deleted":"0","num_feature":"16","num_nodes":"29","size_leaf_vector":"1"}},{"base_weights":[5.0541982E-2,-1.0066339E-1,6.5263593E-1,5.317106E-1,-1.5675391E-1,7.5921255E-1,-1.1056255E-1,1.1248938E0,8.549325E-2,-1.8668735E-1,5.890221E-1,9.599516E-1,3.874861E-1,7.372094E-1,-5.836691E-1,2.5052318E-2,7.647865E-2,-2.2820571E-2,3.688248E-2,-2.4251472E-3,-2.1331692E-2,6.299379E-2,-3.1234471E-2,5.3173155E-2,2.4638101E-2,1.7757126E-3,6.5852426E-2,-1.0261349E-3,5.3649634E-2,1.1341364E-2,-4.3704655E-2],"categories":[],"categories_nodes":[],"categories_segments":[],"categories_sizes":[],"default_left":[0,0,0,0,0,0,0,0,0,0,0,0,0,0,0,0,0,0,0,0,0,0,0,0,0,0,0,0,0,0,0],"id":9,"left_children":[1,3,5,7,9,11,13,15,17,19,21,23,25,27,29,-1,-1,-1,-1,-1,-1,-1,-1,-1,-1,-1,-1,-1,-1,-1,-1],"loss_changes":[2.8134443E1,8.85489E0,5.1285477E0,5.296901E0,5.197926E0,3.6983376E0,3.8284307E0,1.4211245E0,4.8285747E0,7.269922E0,8.144087E0,1.1561165E0,6.7599397E0,9.0655196E-1,1.6096237E0,0E0,0E0,0E0,0E0,0E0,0E0,0E0,0E0,0E0,0E0,0E0,0E0,0E0,0E0,0E0,0E0],"parents":[2147483647,0,0,1,1,2,2,3,3,4,4,5,5,6,6,7,7,8,8,9,9,10,10,11,11,12,12,13,13,14,14],"right_children":[2,4,6,8,10,12,14,16,18,20,22,24,26,28,30,-1,-1,-1,-1,-1,-1,-1,-1,-1,-1,-1,-1,-1,-1,-1,-1],"split_conditions":[9.233561E-2,4.6728984E-2,2.2380824E-1,5.6321556E-3,4.9029985E-1,1.3081203E-1,1.1363573E-1,1.1904728E-1,-6.4670837E-1,1.9001493E-1,8.142146E-2,4.6154207E-1,1.947151E-1,4.1159797E0,3.8250697E-1,2.5052318E-2,7.647865E-2,-2.2820571E-2,3.688248E-2,-2.4251472E-3,-2.1331692E-2,6.299379E-2,-3.1234471E-2,5.3173155E-2,2.4638101E-2,1.7757126E-3,6.5852426E-2,-1.0261349E-3,5.3649634E-2,1.1341364E-2,-4.3704655E-2],"split_indices":[9,14,2,15,3,9,11,11,13,3,9,12,9,6,3,0,0,0,0,0,0,0,0,0,0,0,0,0,0,0,0],"split_type":[0,0,0,0,0,0,0,0,0,0,0,0,0,0,0,0,0,0,0,0,0,0,0,0,0,0,0,0,0,0,0],"sum_hessian":[3.073128E2,2.4629335E2,6.101946E1,1.937515E1,2.269182E2,5.354711E1,7.472349E0,7.6648526E0,1.1710299E1,2.1888252E2,8.03568E0,3.3742912E1,1.98042E1,2.476469E0,4.99588E0,3.8963811E0,3.7684712E0,6.5597067E0,5.1505914E0,1.3965678E2,7.922574E1,5.1507015E0,2.884978E0,2.6577948E1,7.1649637E0,1.5118064E1,4.6861362E0,1.048744E0,1.427725E0,1.3756852E0,3.6201947E0],"tree_param":{"num_deleted":"0","num_feature":"16","num_nodes":"31","size_leaf_vector":"1"}},{"base_weights":[7.6367916E-3,-1.4071955E-1,4.2382148E-1,1.6608411E-1,-2.5432414E-1,9.7331166E-1,2.53493E-1,-4.5664948E-1,6.283266E-1,2.021911E-1,-4.0063858E-1,2.128833E-1,1.2244073E0,1.627503E-1,6.275146E-2,2.9166518E-3,-3.5223093E-2,6.977309E-2,1.988632E-2,-1.3983016E-2,3.230823E-2,-2.2757903E-2,3.7209403E-2,3.4971412E-2,-2.4607701E-2,4.9590864E-3,6.9776386E-2,1.1998556E-2,-3.3094358E-2],"categories":[],"categories_nodes":[],"categories_segments":[],"categories_sizes":[],"default_left":[0,0,0,0,0,0,0,0,0,0,0,0,0,0,0,0,0,0,0,0,0,0,0,0,0,0,0,0,0],"id":10,"left_children":[1,3,5,7,9,11,13,15,17,19,21,23,25,27,-1,-1,-1,-1,-1,-1,-1,-1,-1,-1,-1,-1,-1,-1,-1],"loss_changes":[1.9013765E1,7.956254E0,7.326993E0,1.8122953E1,1.117547E1,3.328247E0,5.532693E0,3.483923E0,5.810734E0,8.947238E0,8.210497E0,2.3599782E0,2.5418072E0,3.9178126E0,0E0,0E0,0E0,0E0,0E0,0E0,0E0,0E0,0E0,0E0,0E0,0E0,0E0,0E0,0E0],"parents":[2147483647,0,0,1,1,2,2,3,3,4,4,5,5,6,6,7,7,8,8,9,9,10,10,11,11,12,12,13,13],"right_children":[2,4,6,8,10,12,14,16,18,20,22,24,26,28,-1,-1,-1,-1,-1,-1,-1,-1,-1,-1,-1,-1,-1,-1,-1],"split_conditions":[8.352097E-2,-6.77625E-3,-4.687497E-1,4.610002E-2,9.36265E-2,-2.6252131E0,1.947151E-1,1.5789375E-1,-4.684777E-2,1.031709E-1,4.9029985E-1,-3.5104778E0,-4.0667042E-2,6.8228483E-1,6.275146E-2,2.9166518E-3,-3.5223093E-2,6.977309E-2,1.988632E-2,-1.3983016E-2,3.230823E-2,-2.2757903E-2,3.7209403E-2,3.4971412E-2,-2.4607701E-2,4.9590864E-3,6.9776386E-2,1.1998556E-2,-3.3094358E-2],"split_indices":[9,1,13,3,3,6,9,12,10,4,3,6,8,3,0,0,0,0,0,0,0,0,0,0,0,0,0,0,0],"split_type":[0,0,0,0,0,0,0,0,0,0,0,0,0,0,0,0,0,0,0,0,0,0,0,0,0,0,0,0,0],"sum_hessian":[3.0598102E2,2.2605989E2,7.9921135E1,6.0962082E1,1.6509781E2,1.7795956E1,6.2125175E1,2.59774E1,3.498468E1,3.9978653E1,1.2511916E2,4.8762727E0,1.2919683E1,5.8029957E1,4.0952187E0,8.687789E0,1.7289612E1,6.9182806E0,2.80664E1,1.9348986E1,2.0629665E1,1.2000657E2,5.1125884E0,2.889908E0,1.9863647E0,1.9139354E0,1.1005749E1,5.3709484E1,4.320473E0],"tree_param":{"num_deleted":"0","num_feature":"16","num_nodes":"29","size_leaf_vector":"1"}},{"base_weights":[-1.5941039E-2,-1.7093162E-1,4.0366206E-1,-2.0483002E-1,5.766188E-2,9.856889E-1,2.5195435E-1,1.0531158E-1,-3.23953E-1,-3.065476E-2,6.8367116E-2,3.0372667E-1,-4.88064E-2,-2.5806636E-2,2.6352484E-2,-6.9148256E-3,-2.8371895E-2,-4.2214904E-2,1.9210195E-2,1.173326E-2,5.9260715E-2],"categories":[],"categories_nodes":[],"categories_segments":[],"categories_sizes":[],"default_left":[0,0,0,0,0,0,0,0,0,0,0,0,0,0,0,0,0,0,0,0,0],"id":11,"left_children":[1,3,5,7,-1,9,11,13,15,17,-1,19,-1,-1,-1,-1,-1,-1,-1,-1,-1],"loss_changes":[2.008062E1,1.0354208E1,7.1067286E0,8.185364E0,0E0,6.5893135E0,4.5830145E0,1.6516457E1,7.1384735E0,2.2099774E0,0E0,3.7065258E0,0E0,0E0,0E0,0E0,0E0,0E0,0E0,0E0,0E0],"parents":[2147483647,0,0,1,1,2,2,3,3,5,5,6,6,7,7,8,8,9,9,11,11],"right_children":[2,4,6,8,-1,10,12,14,16,18,-1,20,-1,-1,-1,-1,-1,-1,-1,-1,-1],"split_conditions":[8.217077E-2,4.9029985E-1,-4.687497E-1,-6.77625E-3,5.766188E-2,-2.6252131E0,7.890913E-1,3.5506584E-2,1.8899241E-1,-3.6113092E-1,6.8367116E-2,1.947151E-1,-4.88064E-2,-2.5806636E-2,2.6352484E-2,-6.9148256E-3,-2.8371895E-2,-4.2214904E-2,1.9210195E-2,1.173326E-2,5.9260715E-2],"split_indices":[9,3,13,1,0,6,3,3,3,7,0,9,0,0,0,0,0,0,0,0,0],"split_type":[0,0,0,0,0,0,0,0,0,0,0,0,0,0,0,0,0,0,0,0,0],"sum_hessian":[3.067076E2,2.2440926E2,8.229837E1,2.1963205E2,4.7772093E0,1.5879471E1,6.64189E1,6.098112E1,1.5865092E2,4.5861707E0,1.12933E1,6.445438E1,1.964524E0,2.4562979E1,3.641814E1,9.09045E1,6.774642E1,1.1991624E0,3.3870084E0,6.094571E1,3.508667E0],"tree_param":{"num_deleted":"0","num_feature":"16","num_nodes":"21","size_leaf_vector":"1"}},{"base_weights":[1.5097977E-2,-1.3043159E-1,3.5661352E-1,1.5744098E-1,-2.3989664E-1,8.0090696E-1,2.2708094E-1,-1.4466958E-3,6.64979E-1,-1.7149073E-1,-7.3991084E-1,-2.9138144E-2,1.1211027E0,7.571928E-1,7.4186E-2,2.5535185E-2,-1.3383545E-2,4.6070706E-2,-2.1888271E-2,-1.607888E-2,1.0019847E-2,2.8461898E-2,-4.5356467E-2,2.0898325E-2,-3.160824E-2,6.250109E-2,7.0449086E-3,1.3807093E-2,6.666194E-2,3.1725116E-4,5.538289E-2],"categories":[],"categories_nodes":[],"categories_segments":[],"categories_sizes":[],"default_left":[0,0,0,0,0,0,0,0,0,0,0,0,0,0,0,0,0,0,0,0,0,0,0,0,0,0,0,0,0,0,0],"id":12,"left_children":[1,3,5,7,9,11,13,15,17,19,21,23,25,27,29,-1,-1,-1,-1,-1,-1,-1,-1,-1,-1,-1,-1,-1,-1,-1,-1],"loss_changes":[1.5236291E1,6.8139977E0,5.089121E0,4.8269978E0,5.215459E0,5.422387E0,5.8046484E0,6.487072E0,4.4387817E0,7.8058286E0,4.565172E0,2.0490332E0,1.6763268E0,4.0872726E0,4.0055747E0,0E0,0E0,0E0,0E0,0E0,0E0,0E0,0E0,0E0,0E0,0E0,0E0,0E0,0E0,0E0,0E0],"parents":[2147483647,0,0,1,1,2,2,3,3,4,4,5,5,6,6,7,7,8,8,9,9,10,10,11,11,12,12,13,13,14,14],"right_children":[2,4,6,8,10,12,14,16,18,20,22,24,26,28,30,-1,-1,-1,-1,-1,-1,-1,-1,-1,-1,-1,-1,-1,-1,-1,-1],"split_conditions":[7.9299025E-2,-6.77625E-3,5.494502E-2,2.1621482E-2,7.092979E-2,-5.2881595E-2,-8.713969E-3,1.5789375E-1,8.157128E-2,1.4276467E-2,8.686712E-3,-4.16664E-1,5.492308E-1,-2.4424106E-2,1.8187065E-1,2.5535185E-2,-1.3383545E-2,4.6070706E-2,-2.1888271E-2,-1.607888E-2,1.0019847E-2,2.8461898E-2,-4.5356467E-2,2.0898325E-2,-3.160824E-2,6.250109E-2,7.0449086E-3,1.3807093E-2,6.666194E-2,3.1725116E-4,5.538289E-2],"split_indices":[9,1,11,2,9,1,0,12,2,15,15,13,4,0,9,0,0,0,0,0,0,0,0,0,0,0,0,0,0,0,0],"split_type":[0,0,0,0,0,0,0,0,0,0,0,0,0,0,0,0,0,0,0,0,0,0,0,0,0,0,0,0,0,0,0],"sum_hessian":[3.0462558E2,2.1403654E2,9.058903E1,5.8845535E1,1.5519101E2,1.9279114E1,7.130992E1,4.5575127E1,1.3270406E1,1.3769606E2,1.7494944E1,5.619821E0,1.3659292E1,1.5078368E1,5.623155E1,1.527378E1,3.0301348E1,1.0900103E1,2.3703032E0,9.819976E1,3.94963E1,1.7092354E0,1.5785709E1,3.4033477E0,2.2164733E0,1.1828333E1,1.8309593E0,9.022844E0,6.0555243E0,5.371184E1,2.5197074E0],"tree_param":{"num_deleted":"0","num_feature":"16","num_nodes":"31","size_leaf_vector":"1"}},{"base_weights":[-1.937152E-4,-1.4654167E-1,3.5766247E-1,-1.7956169E-1,1.1128299E0,8.2952857E-1,1.6432172E-1,1.1959038E-1,-3.1459928E-1,3.1388185E-3,6.935455E-2,3.0183455E-1,1.1175982E0,6.825502E-1,1.545828E-2,-2.132248E-2,2.2472208E-2,9.366317E-3,-2.2628749E-2,3.9351724E-2,-5.8440994E-2,7.5358325E-3,6.72945E-2,4.4018228E-2,-1.619545E-2,-3.84369E-2,5.9094024E-3],"categories":[],"categories_nodes":[],"categories_segments":[],"categories_sizes":[],"default_left":[0,0,0,0,0,0,0,0,0,0,0,0,0,0,0,0,0,0,0,0,0,0,0,0,0,0,0],"id":13,"left_children":[1,3,5,7,9,11,13,15,17,-1,-1,19,21,23,25,-1,-1,-1,-1,-1,-1,-1,-1,-1,-1,-1,-1],"loss_changes":[1.6180956E1,9.318678E0,8.0451765E0,8.704493E0,1.5664315E0,3.5873203E0,4.993162E0,1.2340295E1,1.0340787E1,0E0,0E0,8.403055E0,3.4018784E0,3.1621823E0,4.2324767E0,0E0,0E0,0E0,0E0,0E0,0E0,0E0,0E0,0E0,0E0,0E0,0E0],"parents":[2147483647,0,0,1,1,2,2,3,3,4,4,5,5,6,6,7,7,8,8,11,11,12,12,13,13,14,14],"right_children":[2,4,6,8,10,12,14,16,18,-1,-1,20,22,24,26,-1,-1,-1,-1,-1,-1,-1,-1,-1,-1,-1,-1],"split_conditions":[7.9299025E-2,4.9029985E-1,-4.1767736E-3,-1.36214E-4,-4.524904E-3,-1.1394484E-1,5.494502E-2,4.610002E-2,8.367261E-2,3.1388185E-3,6.935455E-2,-1.389355E-1,-3.8280968E-2,5.3153473E-1,4.1811747E-4,-2.132248E-2,2.2472208E-2,9.366317E-3,-2.2628749E-2,3.9351724E-2,-5.8440994E-2,7.5358325E-3,6.72945E-2,4.4018228E-2,-1.619545E-2,-3.84369E-2,5.9094024E-3],"split_indices":[9,3,0,15,10,3,11,3,3,0,0,3,0,4,0,0,0,0,0,0,0,0,0,0,0,0,0],"split_type":[0,0,0,0,0,0,0,0,0,0,0,0,0,0,0,0,0,0,0,0,0,0,0,0,0,0,0],"sum_hessian":[3.06964E2,2.1828516E2,8.867884E1,2.1354358E2,4.7415724E0,2.4817915E1,6.3860924E1,6.64499E1,1.4709367E2,1.2364628E0,3.5051093E0,9.48705E0,1.5330865E1,1.3450726E1,5.04102E1,2.491416E1,4.153574E1,3.1639252E1,1.1545443E2,7.4830685E0,2.0039814E0,3.2454863E0,1.2085379E1,1.1346011E1,2.1047144E0,5.0879326E0,4.5322266E1],"tree_param":{"num_deleted":"0","num_feature":"16","num_nodes":"27","size_leaf_vector":"1"}},{"base_weights":[7.272583E-4,5.7507522E-2,-1.4927305E-2,4.6336782E-1,-4.6150062E-2,1.2235357E-1,1.0622053E0,-1.3531977E-1,1.7192446E-1,2.9630855E-2,-2.8540645E-2,6.702059E-2,2.9289394E-3,-1.6077731E-3,-2.7479086E-2,2.1298906E-2,-3.7200835E-3],"categories":[],"categories_nodes":[],"categories_segments":[],"categories_sizes":[],"default_left":[0,0,0,0,0,0,0,0,0,0,0,0,0,0,0,0,0],"id":14,"left_children":[1,-1,3,5,7,9,11,13,15,-1,-1,-1,-1,-1,-1,-1,-1],"loss_changes":[5.5592647E0,0E0,4.5739274E0,3.7034063E0,5.6057E0,4.6054516E0,1.7868738E0,8.7144165E0,5.2732544E0,0E0,0E0,0E0,0E0,0E0,0E0,0E0,0E0],"parents":[2147483647,0,0,2,2,3,3,4,4,5,5,6,6,7,7,8,8],"right_children":[2,-1,4,6,8,10,12,14,16,-1,-1,-1,-1,-1,-1,-1,-1],"split_conditions":[-6.471961E0,5.7507522E-2,2.0834658E-2,-6.4670837E-1,4.1322347E-2,-5.076161E-3,2.7448374E-1,2.1469077E-1,3.7524584E-1,2.9630855E-2,-2.8540645E-2,6.702059E-2,2.9289394E-3,-1.6077731E-3,-2.7479086E-2,2.1298906E-2,-3.7200835E-3],"split_indices":[6,0,14,13,1,10,4,4,4,0,0,0,0,0,0,0,0],"split_type":[0,0,0,0,0,0,0,0,0,0,0,0,0,0,0,0,0],"sum_hessian":[3.0700174E2,3.151277E0,3.0385046E2,1.7771515E1,2.8607895E2,1.20906725E1,5.6808414E0,2.0332127E2,8.275769E1,7.2899947E0,4.8006783E0,4.185146E0,1.4956958E0,1.636459E2,3.9675373E1,4.0380787E1,4.2376904E1],"tree_param":{"num_deleted":"0","num_feature":"16","num_nodes":"17","size_leaf_vector":"1"}},{"base_weights":[3.718519E-2,-8.637358E-2,5.160561E-1,-5.8875177E-2,-6.872243E-2,8.0083436E-1,1.24069974E-1,-9.064884E-2,7.558323E-1,1.2738138E0,5.6758153E-1,-1.5657617E-1,6.042978E-2,9.1304985E-4,-1.3772614E-2,3.5882015E-3,7.686662E-2,2.9749095E-2,7.062133E-2,3.5500668E-2,-9.4467085E-3,-2.954231E-2,3.3176597E-2],"categories":[],"categories_nodes":[],"categories_segments":[],"categories_sizes":[],"default_left":[0,0,0,0,0,0,0,0,0,0,0,0,0,0,0,0,0,0,0,0,0,0,0],"id":15,"left_children":[1,3,5,7,-1,9,11,13,15,17,19,21,-1,-1,-1,-1,-1,-1,-1,-1,-1,-1,-1],"loss_changes":[1.8120913E1,8.551021E0,6.911251E0,6.272236E0,0E0,3.269888E0,8.592931E0,4.6654253E0,4.756E0,2.0877266E-1,2.9402752E0,8.519213E0,0E0,0E0,0E0,0E0,0E0,0E0,0E0,0E0,0E0,0E0,0E0],"parents":[2147483647,0,0,1,1,2,2,3,3,5,5,6,6,7,7,8,8,9,9,10,10,11,11],"right_children":[2,4,6,8,-1,10,12,14,16,18,20,22,-1,-1,-1,-1,-1,-1,-1,-1,-1,-1,-1],"split_conditions":[9.233561E-2,5.492308E-1,1.2496225E-1,3.4295287E-2,-6.872243E-2,3.666687E-1,1.947151E-1,1.9001493E-1,9.217937E-3,9.841281E-2,4.697631E-1,3.0903572E-1,6.042978E-2,9.1304985E-4,-1.3772614E-2,3.5882015E-3,7.686662E-2,2.9749095E-2,7.062133E-2,3.5500668E-2,-9.4467085E-3,-2.954231E-2,3.3176597E-2],"split_indices":[9,4,9,0,0,14,9,3,15,9,3,3,0,0,0,0,0,0,0,0,0,0,0],"split_type":[0,0,0,0,0,0,0,0,0,0,0,0,0,0,0,0,0,0,0,0,0,0,0],"sum_hessian":[3.0450507E2,2.427024E2,6.180269E1,2.3865321E2,4.0491686E0,3.519238E1,2.6610312E1,2.3055046E2,8.102753E0,1.0149864E1,2.5042515E1,2.1819609E1,4.7907023E0,1.4562863E2,8.492184E1,4.9029202E0,3.199832E0,2.6185195E0,7.531345E0,2.1126438E1,3.9160774E0,1.4448355E1,7.371254E0],"tree_param":{"num_deleted":"0","num_feature":"16","num_nodes":"23","size_leaf_vector":"1"}},{"base_weights":[2.5255779E-2,-8.699624E-2,3.277472E-1,5.0846454E-2,-3.192785E-1,2.58001E-1,6.3541025E-2,-3.2400393E-1,1.9397493E-1,4.7140837E-1,-5.179241E-1,5.3984976E-1,-3.6323383E-2,1.9925058E-2,-2.3257166E-2,-7.340645E-3,2.1655323E-2,-2.3362337E-2,4.9157657E-2,-3.1499926E-2,3.49182E-2,2.9839221E-2,-3.244424E-2,4.3607887E-2,-1.0307579E-2],"categories":[],"categories_nodes":[],"categories_segments":[],"categories_sizes":[],"default_left":[0,0,0,0,0,0,0,0,0,0,0,0,0,0,0,0,0,0,0,0,0,0,0,0,0],"id":16,"left_children":[1,3,5,7,9,11,-1,13,15,17,19,21,23,-1,-1,-1,-1,-1,-1,-1,-1,-1,-1,-1,-1],"loss_changes":[1.0446646E1,7.2065334E0,5.1480703E0,7.6704717E0,1.3401817E1,6.554254E0,0E0,4.2190204E0,8.476978E0,8.790472E0,9.631346E0,3.114931E0,6.269583E0,0E0,0E0,0E0,0E0,0E0,0E0,0E0,0E0,0E0,0E0,0E0,0E0],"parents":[2147483647,0,0,1,1,2,2,3,3,4,4,5,5,7,7,8,8,9,9,10,10,11,11,12,12],"right_children":[2,4,6,8,10,12,-1,14,16,18,20,22,24,-1,-1,-1,-1,-1,-1,-1,-1,-1,-1,-1,-1],"split_conditions":[8.217077E-2,1.8899241E-1,8.66676E-1,8.676624E-3,4.2009437E-3,8.331214E-2,6.3541025E-2,-1.4170136E-1,-2.3752607E-3,8.7098366E-1,4.697631E-1,7.3765945E-1,-3.7312344E-1,1.9925058E-2,-2.3257166E-2,-7.340645E-3,2.1655323E-2,-2.3362337E-2,4.9157657E-2,-3.1499926E-2,3.49182E-2,2.9839221E-2,-3.244424E-2,4.3607887E-2,-1.0307579E-2],"split_indices":[9,3,13,3,1,13,0,3,8,6,3,3,7,0,0,0,0,0,0,0,0,0,0,0,0],"split_type":[0,0,0,0,0,0,0,0,0,0,0,0,0,0,0,0,0,0,0,0,0,0,0,0,0],"sum_hessian":[3.058193E2,2.2356764E2,8.225167E1,1.4079633E2,8.277132E1,7.7773415E1,4.478257E0,3.8555794E1,1.02240524E2,1.634374E1,6.6427574E1,3.9302574E1,3.847084E1,6.0029097E0,3.2552887E1,4.2318386E1,5.992214E1,5.7972436E0,1.0546497E1,6.126442E1,5.1631575E0,3.7981415E1,1.3211604E0,5.407636E0,3.3063206E1],"tree_param":{"num_deleted":"0","num_feature":"16","num_nodes":"25","size_leaf_vector":"1"}},{"base_weights":[3.7378058E-2,-7.682657E-2,4.807751E-1,-1.3779385E-1,1.4197937E-1,7.694467E-1,2.3118539E-1,-8.338979E-2,-6.703829E-1,3.4701186E-1,-5.5699503E-1,5.3521372E-2,1.0542151E0,6.8463695E-1,-2.7695388E-2,-8.095777E-3,3.0987531E-2,-4.8492204E-2,1.7404594E-2,-2.1163916E-2,2.4197359E-2,-4.827442E-2,3.0301188E-3,2.196768E-2,-3.183612E-2,5.6863286E-2,1.1820081E-2,4.713377E-2,1.509687E-4,-1.03665115E-2,5.7188924E-2],"categories":[],"categories_nodes":[],"categories_segments":[],"categories_sizes":[],"default_left":[0,0,0,0,0,0,0,0,0,0,0,0,0,0,0,0,0,0,0,0,0,0,0,0,0,0,0,0,0,0,0],"id":17,"left_children":[1,3,5,7,9,11,13,15,17,19,21,23,25,27,29,-1,-1,-1,-1,-1,-1,-1,-1,-1,-1,-1,-1,-1,-1,-1,-1],"loss_changes":[1.52585745E1,3.2197351E0,4.2678757E0,5.394982E0,7.7557693E0,5.689232E0,4.0714664E0,9.5878725E0,5.6120734E0,4.5735116E0,3.1747615E0,2.6961627E0,1.096962E0,2.2106504E0,5.063889E0,0E0,0E0,0E0,0E0,0E0,0E0,0E0,0E0,0E0,0E0,0E0,0E0,0E0,0E0,0E0,0E0],"parents":[2147483647,0,0,1,1,2,2,3,3,4,4,5,5,6,6,7,7,8,8,9,9,10,10,11,11,12,12,13,13,14,14],"right_children":[2,4,6,8,10,12,14,16,18,20,22,24,26,28,30,-1,-1,-1,-1,-1,-1,-1,-1,-1,-1,-1,-1,-1,-1,-1,-1],"split_conditions":[9.233561E-2,2.056317E0,3.0329158E-3,1.9553096E0,3.439735E0,-2.6252131E0,-1.4183952E-1,1.5586334E0,7.482661E-2,4.1721176E-2,3.6751735E0,-3.3184302E0,1.8851513E-2,4.6154207E-1,8.860711E-1,-8.095777E-3,3.0987531E-2,-4.8492204E-2,1.7404594E-2,-2.1163916E-2,2.4197359E-2,-4.827442E-2,3.0301188E-3,2.196768E-2,-3.183612E-2,5.6863286E-2,1.1820081E-2,4.713377E-2,1.509687E-4,-1.03665115E-2,5.7188924E-2],"split_indices":[9,6,8,5,5,6,7,5,9,9,6,6,0,12,13,0,0,0,0,0,0,0,0,0,0,0,0,0,0,0,0],"split_type":[0,0,0,0,0,0,0,0,0,0,0,0,0,0,0,0,0,0,0,0,0,0,0,0,0,0,0,0,0,0,0],"sum_hessian":[2.9959717E2,2.3889287E2,6.070429E1,1.8712367E2,5.17692E1,2.7182539E1,3.352175E1,1.7082994E2,1.6293732E1,4.041707E1,1.1352133E1,8.073417E0,1.9109123E1,1.1585014E1,2.1936735E1,1.5436086E2,1.6469078E1,1.2628372E1,3.6653595E0,5.784868E0,3.4632202E1,6.4937305E0,4.858402E0,5.411807E0,2.6616096E0,1.6992846E1,2.1162765E0,8.125837E0,3.4591768E0,1.973376E1,2.202975E0],"tree_param":{"num_deleted":"0","num_feature":"16","num_nodes":"31","size_leaf_vector":"1"}},{"base_weights":[-1.7953208E-2,-1.2684461E-1,2.9526302E-1,-1.5312253E-1,7.382047E-1,3.4062806E-1,-4.901742E-2,-2.7736945E-2,-4.1083905E-1,1.0111946E0,-9.582589E-3,6.5669787E-1,1.5051451E-1,-6.7710737E-3,1.7816102E-2,4.083053E-2,-2.5241751E-2,-7.4981437E-3,6.5524094E-2,3.9188255E-2,2.868479E-3,1.4121283E-3,3.264444E-2],"categories":[],"categories_nodes":[],"categories_segments":[],"categories_sizes":[],"default_left":[0,0,0,0,0,0,0,0,0,0,0,0,0,0,0,0,0,0,0,0,0,0,0],"id":18,"left_children":[1,3,5,7,9,11,-1,13,15,17,-1,19,21,-1,-1,-1,-1,-1,-1,-1,-1,-1,-1],"loss_changes":[1.0404164E1,5.255849E0,4.888788E0,7.110534E0,1.9305146E0,4.5129957E0,0E0,6.224388E0,8.7264E0,2.089922E0,0E0,2.1276302E0,3.005046E0,0E0,0E0,0E0,0E0,0E0,0E0,0E0,0E0,0E0,0E0],"parents":[2147483647,0,0,1,1,2,2,3,3,4,4,5,5,7,7,8,8,9,9,11,11,12,12],"right_children":[2,4,6,8,10,12,-1,14,16,18,-1,20,22,-1,-1,-1,-1,-1,-1,-1,-1,-1,-1],"split_conditions":[8.352097E-2,4.9029985E-1,7.890913E-1,1.9616291E-1,7.560938E-2,4.8387375E-1,-4.901742E-2,1.4897351E-1,-1.9924412E-2,-1.2390867E-3,-9.582589E-3,3.8347132E0,3.6414514E0,-6.7710737E-3,1.7816102E-2,4.083053E-2,-2.5241751E-2,-7.4981437E-3,6.5524094E-2,3.9188255E-2,2.868479E-3,1.4121283E-3,3.264444E-2],"split_indices":[9,3,3,3,9,14,0,3,0,15,0,6,6,0,0,0,0,0,0,0,0,0,0],"split_type":[0,0,0,0,0,0,0,0,0,0,0,0,0,0,0,0,0,0,0,0,0,0,0],"sum_hessian":[3.029507E2,2.2523982E2,7.7710884E1,2.1939807E2,5.841742E0,7.574993E1,1.9609538E0,1.4833633E2,7.106174E1,4.448319E0,1.3934234E0,2.752857E1,4.822136E1,1.1635851E2,3.1977829E1,4.507868E0,6.655387E1,1.0138347E0,3.4344842E0,2.2459133E1,5.069437E0,3.9631695E1,8.589666E0],"tree_param":{"num_deleted":"0","num_feature":"16","num_nodes":"23","size_leaf_vector":"1"}},{"base_weights":[-2.2359185E-2,-1.2196406E-1,3.867603E-1,-1.428399E-1,9.6085316E-1,7.288381E-1,1.7921935E-1,-9.2601165E-2,-5.61074E-1,5.910922E-2,3.8985608E-3,8.252746E-2,8.6167526E-1,5.483206E-1,-7.996577E-2,-1.2528623E-2,-1.7748526E-4,2.3015352E-2,-3.556058E-2,-3.1909224E-2,4.7114324E-2,5.5421002E-2,1.2038227E-2,-1.1987953E-3,6.9098175E-2,2.5032014E-2,-2.427513E-2],"categories":[],"categories_nodes":[],"categories_segments":[],"categories_sizes":[],"default_left":[0,0,0,0,0,0,0,0,0,0,0,0,0,0,0,0,0,0,0,0,0,0,0,0,0,0,0],"id":19,"left_children":[1,3,5,7,9,11,13,15,17,-1,-1,19,21,23,25,-1,-1,-1,-1,-1,-1,-1,-1,-1,-1,-1,-1],"loss_changes":[1.2595547E1,5.7523117E0,4.166789E0,5.086933E0,8.512273E-1,1.863267E0,3.7748098E0,3.0875642E0,4.319068E0,0E0,0E0,3.6668518E0,2.5802822E0,7.769573E0,5.843224E0,0E0,0E0,0E0,0E0,0E0,0E0,0E0,0E0,0E0,0E0,0E0,0E0],"parents":[2147483647,0,0,1,1,2,2,3,3,4,4,5,5,6,6,7,7,8,8,11,11,12,12,13,13,14,14],"right_children":[2,4,6,8,10,12,14,16,18,-1,-1,20,22,24,26,-1,-1,-1,-1,-1,-1,-1,-1,-1,-1,-1,-1],"split_conditions":[9.233561E-2,3.9446574E-2,-1.4183952E-1,9.793802E-1,4.784138E-2,-1.2443771E-2,1.176497E-1,4.6857804E-2,3.5083838E-2,5.910922E-2,3.8985608E-3,-3.1985673E-1,6.268885E-2,5.500253E-2,2.0479213E-3,-1.2528623E-2,-1.7748526E-4,2.3015352E-2,-3.556058E-2,-3.1909224E-2,4.7114324E-2,5.5421002E-2,1.2038227E-2,-1.1987953E-3,6.9098175E-2,2.5032014E-2,-2.427513E-2],"split_indices":[9,8,7,14,10,8,11,9,9,0,0,7,10,1,8,0,0,0,0,0,0,0,0,0,0,0,0],"split_type":[0,0,0,0,0,0,0,0,0,0,0,0,0,0,0,0,0,0,0,0,0,0,0,0,0,0,0],"sum_hessian":[3.0693338E2,2.474023E2,5.9531067E1,2.4357448E2,3.8278327E0,2.1530994E1,3.8000072E1,2.1854413E2,2.503034E1,2.7895176E0,1.038315E0,3.9472377E0,1.7583755E1,1.5215862E1,2.2784212E1,7.813107E1,1.4041306E2,2.9430394E0,2.2087301E1,2.2874498E0,1.659788E0,1.20214E1,5.562355E0,9.598041E0,5.617822E0,9.273232E0,1.3510979E1],"tree_param":{"num_deleted":"0","num_feature":"16","num_nodes":"27","size_leaf_vector":"1"}},{"base_weights":[3.163215E-3,-3.397211E-2,4.5014402E-1,-1.5368294E-2,-8.7266594E-1,8.7481487E-1,-1.1722339E-1,-7.386522E-2,2.2495571E-1,-9.366521E-3,-5.3920764E-2,1.1332154E0,1.2800597E-1,4.225874E-1,-8.0273896E-1,9.111905E-3,-8.124112E-3,2.450426E-2,-1.283645E-3,6.329721E-2,1.9347837E-2,-2.0003757E-2,4.5382064E-2,-5.619896E-3,5.493064E-2,4.638882E-3,-5.5466898E-2],"categories":[],"categories_nodes":[],"categories_segments":[],"categories_sizes":[],"default_left":[0,0,0,0,0,0,0,0,0,0,0,0,0,0,0,0,0,0,0,0,0,0,0,0,0,0,0],"id":20,"left_children":[1,3,5,7,9,11,13,15,17,-1,-1,19,21,23,25,-1,-1,-1,-1,-1,-1,-1,-1,-1,-1,-1,-1],"loss_changes":[5.0413423E0,4.363196E0,5.7158093E0,3.888676E0,6.5376186E-1,2.4489527E0,4.356016E0,5.0739436E0,3.6118073E0,0E0,0E0,4.8670483E-1,2.2499135E0,2.5567102E0,1.5105813E0,0E0,0E0,0E0,0E0,0E0,0E0,0E0,0E0,0E0,0E0,0E0,0E0],"parents":[2147483647,0,0,1,1,2,2,3,3,4,4,5,5,6,6,7,7,8,8,11,11,12,12,13,13,14,14],"right_children":[2,4,6,8,10,12,14,16,18,-1,-1,20,22,24,26,-1,-1,-1,-1,-1,-1,-1,-1,-1,-1,-1,-1],"split_conditions":[3.253643E-2,5.492308E-1,1.5284434E-1,1.8851513E-2,4.5003764E-2,8.115019E-2,3.2432655E-1,-2.4884777E-2,8.421067E-1,-9.366521E-3,-5.3920764E-2,-4.0616248E-2,-2.2763304E-1,5.864276E-1,5.068676E-2,9.111905E-3,-8.124112E-3,2.450426E-2,-1.283645E-3,6.329721E-2,1.9347837E-2,-2.0003757E-2,4.5382064E-2,-5.619896E-3,5.493064E-2,4.638882E-3,-5.5466898E-2],"split_indices":[15,4,7,0,10,10,13,10,14,0,0,7,7,7,10,0,0,0,0,0,0,0,0,0,0,0,0],"split_type":[0,0,0,0,0,0,0,0,0,0,0,0,0,0,0,0,0,0,0,0,0,0,0,0,0,0,0],"sum_hessian":[3.0179636E2,2.7949942E2,2.2296917E1,2.7443036E2,5.0690613E0,1.2442159E1,9.854758E0,2.2126517E2,5.3165203E1,1.6115588E0,3.4575026E0,8.859356E0,3.5828025E0,5.7278767E0,4.1268816E0,5.6608902E1,1.6465627E2,2.5370934E1,2.7794268E1,6.930343E0,1.9290128E0,2.4262443E0,1.1565583E0,3.6629052E0,2.0649714E0,1.23043E0,2.8964515E0],"tree_param":{"num_deleted":"0","num_feature":"16","num_nodes":"27","size_leaf_vector":"1"}},{"base_weights":[-3.4024345E-3,-9.667501E-2,2.7024165E-1,-2.8900757E-2,-4.5961148E-1,7.395346E-1,1.2749177E-1,-1.2584606E-1,2.642238E-1,-5.348294E-1,5.0926965E-2,1.1200836E0,1.528522E-1,4.889709E-2,5.4413624E-2,7.0357725E-2,-8.499709E-3,2.5792455E-2,-1.0216266E-2,8.48953E-3,-3.2857236E-2,2.7213046E-2,6.637203E-2,-2.5794882E-2,3.3243652E-2,9.313393E-3,-1.8577423E-2],"categories":[],"categories_nodes":[],"categories_segments":[],"categories_sizes":[],"default_left":[0,0,0,0,0,0,0,0,0,0,0,0,0,0,0,0,0,0,0,0,0,0,0,0,0,0,0],"id":21,"left_children":[1,3,5,7,9,11,13,15,17,19,-1,21,23,25,-1,-1,-1,-1,-1,-1,-1,-1,-1,-1,-1,-1,-1],"loss_changes":[7.865546E0,5.6393666E0,5.1539516E0,5.566335E0,4.5577426E0,3.8617296E0,4.57403E0,1.0187733E1,5.8487854E0,3.1282063E0,0E0,5.6690025E-1,3.173077E0,3.4012866E0,0E0,0E0,0E0,0E0,0E0,0E0,0E0,0E0,0E0,0E0,0E0,0E0,0E0],"parents":[2147483647,0,0,1,1,2,2,3,3,4,4,5,5,6,6,7,7,8,8,9,9,11,11,12,12,13,13],"right_children":[2,4,6,8,10,12,14,16,18,20,-1,22,24,26,-1,-1,-1,-1,-1,-1,-1,-1,-1,-1,-1,-1,-1],"split_conditions":[8.352097E-2,7.092979E-2,-4.5454293E-1,5.9619423E-2,8.4413335E-2,1.1449023E-1,1.947151E-1,-1.3690757E0,8.222185E-1,-1.6696805E-2,5.0926965E-2,-7.6595986E-1,6.172858E-2,1.3081203E-1,5.4413624E-2,7.0357725E-2,-8.499709E-3,2.5792455E-2,-1.0216266E-2,8.48953E-3,-3.2857236E-2,2.7213046E-2,6.637203E-2,-2.5794882E-2,3.3243652E-2,9.313393E-3,-1.8577423E-2],"split_indices":[9,9,13,9,1,9,9,6,14,8,0,13,12,9,0,0,0,0,0,0,0,0,0,0,0,0,0],"split_type":[0,0,0,0,0,0,0,0,0,0,0,0,0,0,0,0,0,0,0,0,0,0,0,0,0,0,0],"sum_hessian":[3.0614532E2,2.2880353E2,7.73418E1,1.9371002E2,3.509351E1,1.7063751E1,6.027804E1,1.459955E2,4.7714523E1,3.4001472E1,1.0920385E0,9.798693E0,7.2650595E0,5.669141E1,3.5866313E0,3.2225378E0,1.4277296E2,3.0977633E1,1.673689E1,4.971882E0,2.902959E1,3.554033E0,6.2446594E0,3.1470842E0,4.117975E0,4.3150097E1,1.3541313E1],"tree_param":{"num_deleted":"0","num_feature":"16","num_nodes":"27","size_leaf_vector":"1"}},{"base_weights":[-1.54523235E-2,-1.1695523E-1,4.1433167E-1,-9.488544E-2,-5.641299E-2,9.536151E-1,2.4725153E-1,-1.211166E-1,5.563936E-1,3.4647483E-1,1.2071364E0,4.2548585E-1,-2.1497746E-1,-9.168137E-4,-1.4816025E-2,5.385381E-2,-5.619126E-3,-4.99982E-3,4.537166E-2,6.47813E-2,1.4315455E-2,3.333882E-2,5.364893E-3,-4.4656824E-2,2.563413E-2],"categories":[],"categories_nodes":[],"categories_segments":[],"categories_sizes":[],"default_left":[0,0,0,0,0,0,0,0,0,0,0,0,0,0,0,0,0,0,0,0,0,0,0,0,0],"id":22,"left_children":[1,3,5,7,-1,9,11,13,15,17,19,21,23,-1,-1,-1,-1,-1,-1,-1,-1,-1,-1,-1,-1],"loss_changes":[1.3284013E1,5.38826E0,5.0068703E0,4.2024765E0,0E0,1.646285E0,3.8623986E0,4.1992683E0,3.4465845E0,1.4315326E0,3.6723042E-1,2.490447E0,7.0714755E0,0E0,0E0,0E0,0E0,0E0,0E0,0E0,0E0,0E0,0E0,0E0,0E0],"parents":[2147483647,0,0,1,1,2,2,3,3,5,5,6,6,7,7,8,8,9,9,10,10,11,11,12,12],"right_children":[2,4,6,8,-1,10,12,14,16,18,20,22,24,-1,-1,-1,-1,-1,-1,-1,-1,-1,-1,-1,-1],"split_conditions":[9.233561E-2,5.492308E-1,-7.45608E-3,3.392691E-2,-5.641299E-2,-3.6686003E-2,2.9267856E-1,1.9180779E-1,4.1908327E-2,2.0513321E-1,4.42622E-1,2.1591067E-1,4.6519408E-1,-9.168137E-4,-1.4816025E-2,5.385381E-2,-5.619126E-3,-4.99982E-3,4.537166E-2,6.47813E-2,1.4315455E-2,3.333882E-2,5.364893E-3,-4.4656824E-2,2.563413E-2],"split_indices":[9,4,0,0,0,0,7,3,0,11,11,11,7,0,0,0,0,0,0,0,0,0,0,0,0],"split_type":[0,0,0,0,0,0,0,0,0,0,0,0,0,0,0,0,0,0,0,0,0,0,0,0,0],"sum_hessian":[3.023985E2,2.4521378E2,5.718473E1,2.410472E2,4.16657E0,1.2412728E1,4.4772E1,2.3249709E2,8.550108E0,4.353496E0,8.059232E0,3.2369785E1,1.2402216E1,1.4723116E2,8.5265945E1,4.464054E0,4.086054E0,2.8816822E0,1.4718138E0,6.981317E0,1.0779147E0,1.7786364E1,1.4583422E1,6.3017507E0,6.1004653E0],"tree_param":{"num_deleted":"0","num_feature":"16","num_nodes":"25","size_leaf_vector":"1"}},{"base_weights":[-1.6587649E-2,-9.63433E-2,3.1669673E-1,4.290194E-1,-1.2592545E-1,8.176021E-1,1.5790561E-1,6.705516E-2,-5.4453246E-2,-1.4764585E-1,5.931983E-1,1.0316346E0,-2.3747087E-2,5.699248E-1,-7.5776994E-2,-3.2765802E-2,1.9140331E-2,-1.0498332E-2,5.497634E-3,-1.8350901E-2,4.1315295E-2,5.7697725E-2,-5.7494105E-3,-2.563689E-3,5.0938673E-2,2.3199936E-2,-1.2914106E-2],"categories":[],"categories_nodes":[],"categories_segments":[],"categories_sizes":[],"default_left":[0,0,0,0,0,0,0,0,0,0,0,0,0,0,0,0,0,0,0,0,0,0,0,0,0,0,0],"id":23,"left_children":[1,3,5,7,9,11,13,-1,15,17,19,21,-1,23,25,-1,-1,-1,-1,-1,-1,-1,-1,-1,-1,-1,-1],"loss_changes":[8.068352E0,3.8579955E0,4.5336833E0,5.926627E0,3.718997E0,4.3273964E0,4.4481883E0,0E0,2.7827308E0,3.6588483E0,1.8735826E0,1.8460236E0,0E0,4.7016077E0,3.0827084E0,0E0,0E0,0E0,0E0,0E0,0E0,0E0,0E0,0E0,0E0,0E0,0E0],"parents":[2147483647,0,0,1,1,2,2,3,3,4,4,5,5,6,6,8,8,9,9,10,10,11,11,13,13,14,14],"right_children":[2,4,6,8,10,12,14,-1,16,18,20,22,-1,24,26,-1,-1,-1,-1,-1,-1,-1,-1,-1,-1,-1,-1],"split_conditions":[9.233561E-2,2.8527007E-2,-7.45608E-3,-9.96583E-4,3.7192043E-2,5.2941245E-1,1.1575493E-1,6.705516E-2,8.1297493E-1,3.8888654E-1,-2.829893E-1,1.5113485E0,-2.3747087E-2,5.500253E-2,-4.7023755E-2,-3.2765802E-2,1.9140331E-2,-1.0498332E-2,5.497634E-3,-1.8350901E-2,4.1315295E-2,5.7697725E-2,-5.7494105E-3,-2.563689E-3,5.0938673E-2,2.3199936E-2,-1.2914106E-2],"split_indices":[9,9,0,15,0,13,11,0,5,11,7,7,0,1,2,0,0,0,0,0,0,0,0,0,0,0,0],"split_type":[0,0,0,0,0,0,0,0,0,0,0,0,0,0,0,0,0,0,0,0,0,0,0,0,0,0,0],"sum_hessian":[3.0138687E2,2.4376443E2,5.7622414E1,1.2274444E1,2.3149E2,1.2871247E1,4.4751167E1,3.6377795E0,8.636663E0,2.2547446E2,6.0155396E0,1.1215867E1,1.6553799E0,1.5674926E1,2.9076242E1,3.4277358E0,5.208928E0,1.8170058E2,4.3773888E1,1.0628778E0,4.952662E0,1.0128935E1,1.0869325E0,6.94665E0,8.728275E0,6.957224E0,2.2119019E1],"tree_param":{"num_deleted":"0","num_feature":"16","num_nodes":"27","size_leaf_vector":"1"}},{"base_weights":[3.7302315E-2,-6.636934E-2,2.9797924E-1,2.0429078E-1,-1.6426855E-1,2.4083875E-1,5.5360086E-2,-2.2522737E-1,3.6695018E-1,5.6111146E-2,-1.9039345E-1,3.939498E-1,-2.0698155E-1,1.0770928E-2,-4.0887777E-2,4.1151624E-2,1.170247E-2,-1.5408891E-2,-1.8726556E-4,5.0073046E-2,1.4802234E-2,1.4398116E-2,-3.9609164E-2],"categories":[],"categories_nodes":[],"categories_segments":[],"categories_sizes":[],"default_left":[0,0,0,0,0,0,0,0,0,0,0,0,0,0,0,0,0,0,0,0,0,0,0],"id":24,"left_children":[1,3,5,7,9,11,-1,13,15,-1,17,19,21,-1,-1,-1,-1,-1,-1,-1,-1,-1,-1],"loss_changes":[8.252469E0,5.830446E0,3.749824E0,4.173766E0,5.631993E0,5.7322087E0,0E0,4.537545E0,2.4048572E0,0E0,3.4912791E0,3.3768272E0,6.4998074E0,0E0,0E0,0E0,0E0,0E0,0E0,0E0,0E0,0E0,0E0],"parents":[2147483647,0,0,1,1,2,2,3,3,4,4,5,5,7,7,8,8,10,10,11,11,12,12],"right_children":[2,4,6,8,10,12,-1,14,16,-1,18,20,22,-1,-1,-1,-1,-1,-1,-1,-1,-1,-1],"split_conditions":[7.9299025E-2,-6.77625E-3,1.947151E-1,-7.8712904E-1,-3.128564E-2,1.2496225E-1,5.5360086E-2,1.9265915E-1,-6.619148E-2,5.6111146E-2,2.6402557E-2,-4.2748582E-1,1.5284434E-1,1.0770928E-2,-4.0887777E-2,4.1151624E-2,1.170247E-2,-1.5408891E-2,-1.8726556E-4,5.0073046E-2,1.4802234E-2,1.4398116E-2,-3.9609164E-2],"split_indices":[9,1,9,6,10,9,0,7,6,0,10,7,7,0,0,0,0,0,0,0,0,0,0],"split_type":[0,0,0,0,0,0,0,0,0,0,0,0,0,0,0,0,0,0,0,0,0,0,0],"sum_hessian":[3.0363464E2,2.177718E2,8.586282E1,5.7557346E1,1.6021446E2,8.141183E1,4.4509993E0,1.5704201E1,4.1853146E1,2.353686E0,1.5786078E2,6.0758587E1,2.065324E1,9.371403E0,6.332798E0,8.272198E0,3.3580948E1,9.638553E1,6.147524E1,7.1518345E0,5.3606754E1,1.1464705E1,9.188535E0],"tree_param":{"num_deleted":"0","num_feature":"16","num_nodes":"23","size_leaf_vector":"1"}},{"base_weights":[6.377178E-3,-6.385055E-2,2.982815E-1,-3.51741E-2,-6.385638E-2,3.6423656E-1,-8.377446E-1,-1.4213261E-1,1.4099877E-1,1.7455769E-1,7.754226E-1,-5.7464153E-2,-8.075573E-3,-1.1445848E-2,2.0906439E-2,3.4666087E-2,-9.4773265E-4,2.4064805E-2,-1.16591295E-2,4.651424E-2,-2.8361116E-2],"categories":[],"categories_nodes":[],"categories_segments":[],"categories_sizes":[],"default_left":[0,0,0,0,0,0,0,0,0,0,0,0,0,0,0,0,0,0,0,0,0],"id":25,"left_children":[1,3,5,7,-1,9,11,13,15,17,19,-1,-1,-1,-1,-1,-1,-1,-1,-1,-1],"loss_changes":[6.1758294E0,8.406674E0,4.682328E0,4.5110126E0,0E0,4.2253304E0,5.535505E-1,7.3304906E0,8.011754E0,5.0589523E0,4.137105E0,0E0,0E0,0E0,0E0,0E0,0E0,0E0,0E0,0E0,0E0],"parents":[2147483647,0,0,1,1,2,2,3,3,5,5,6,6,7,7,8,8,9,9,10,10],"right_children":[2,4,6,8,-1,10,12,14,16,18,20,-1,-1,-1,-1,-1,-1,-1,-1,-1,-1],"split_conditions":[9.233561E-2,5.492308E-1,7.3765945E-1,1.392787E0,-6.385638E-2,3.0903572E-1,4.728244E-1,1.5904156E-2,9.08113E-2,1.2496225E-1,4.434628E-2,-5.7464153E-2,-8.075573E-3,-1.1445848E-2,2.0906439E-2,3.4666087E-2,-9.4773265E-4,2.4064805E-2,-1.16591295E-2,4.651424E-2,-2.8361116E-2],"split_indices":[9,4,3,6,0,3,4,15,3,9,0,0,0,0,0,0,0,0,0,0,0],"split_type":[0,0,0,0,0,0,0,0,0,0,0,0,0,0,0,0,0,0,0,0,0],"sum_hessian":[2.9933417E2,2.419145E2,5.7419674E1,2.3733397E2,4.580524E0,5.491104E1,2.5086322E0,1.4779657E2,8.953741E1,3.8551758E1,1.6359287E1,1.2385151E0,1.2701169E0,1.284856E2,1.9310972E1,1.935828E1,7.017912E1,2.1897852E1,1.6653906E1,1.49428835E1,1.4164034E0],"tree_param":{"num_deleted":"0","num_feature":"16","num_nodes":"21","size_leaf_vector":"1"}},{"base_weights":[4.327551E-2,2.3970455E-2,5.4684054E-2,-3.2067604E-2,2.5903052E-1,1.1395852E-1,-1.8060252E-1,-4.1140888E-2,3.063992E-1,-1.7599506E-2,1.9658746E-2,1.7413775E-2,-1.7638931E-2,2.864321E-2,3.1028131E-3],"categories":[],"categories_nodes":[],"categories_segments":[],"categories_sizes":[],"default_left":[0,0,0,0,0,0,0,0,0,0,0,0,0,0,0],"id":26,"left_children":[1,3,-1,5,7,9,11,-1,13,-1,-1,-1,-1,-1,-1],"loss_changes":[6.1040764E0,3.932035E0,0E0,5.257059E0,3.1963408E0,1.60566E1,1.1056519E1,0E0,3.5956874E0,0E0,0E0,0E0,0E0,0E0,0E0],"parents":[2147483647,0,0,1,1,3,3,4,4,5,5,6,6,8,8],"right_children":[2,4,-1,6,8,10,12,-1,14,-1,-1,-1,-1,-1,-1],"split_conditions":[1.947151E-1,2.5501366E0,5.4684054E-2,4.0527144E-3,4.5475062E-2,2.7219005E-2,8.7866664E-2,-4.1140888E-2,3.439735E0,-1.7599506E-2,1.9658746E-2,1.7413775E-2,-1.7638931E-2,2.864321E-2,3.1028131E-3],"split_indices":[9,5,0,15,9,3,3,0,5,0,0,0,0,0,0],"split_type":[0,0,0,0,0,0,0,0,0,0,0,0,0,0,0],"sum_hessian":[3.0131042E2,2.96877E2,4.4333844E0,2.4042383E2,5.6453197E1,1.2135315E2,1.1907068E2,1.6813991E0,5.47718E1,4.537386E1,7.597929E1,2.8992092E1,9.007859E1,2.5556732E1,2.9215067E1],"tree_param":{"num_deleted":"0","num_feature":"16","num_nodes":"15","size_leaf_vector":"1"}},{"base_weights":[2.284312E-3,-3.4117248E-2,4.6372175E-1,-5.0202537E-2,6.1541896E-2,7.734112E-1,-3.28574E-1,1.6601591E-1,-1.6213289E-1,1.0282383E0,4.7373925E-3,2.9855296E-2,-7.1422994E-1,3.6532637E-3,2.9277211E-2,-1.7830601E-2,2.1126724E-3,7.5209658E-3,5.727938E-2,4.453736E-2,-2.90932E-2,-5.333386E-2,9.359E-3],"categories":[],"categories_nodes":[],"categories_segments":[],"categories_sizes":[],"default_left":[0,0,0,0,0,0,0,0,0,0,0,0,0,0,0,0,0,0,0,0,0,0,0],"id":27,"left_children":[1,3,5,7,-1,9,11,13,15,17,19,-1,21,-1,-1,-1,-1,-1,-1,-1,-1,-1,-1],"loss_changes":[5.020095E0,5.6994476E0,5.616002E0,6.6715345E0,0E0,3.1310663E0,2.8693967E0,3.628394E0,7.225959E0,1.0657692E0,3.1120946E0,0E0,1.8789847E0,0E0,0E0,0E0,0E0,0E0,0E0,0E0,0E0,0E0,0E0],"parents":[2147483647,0,0,1,1,2,2,3,3,5,5,6,6,7,7,8,8,9,9,10,10,12,12],"right_children":[2,4,6,8,-1,10,12,14,16,18,20,-1,22,-1,-1,-1,-1,-1,-1,-1,-1,-1,-1],"split_conditions":[3.312188E-2,9.176292E-2,8.115019E-2,-9.96583E-4,6.1541896E-2,1.5168314E-2,6.849215E-2,-4.651629E-3,1.519803E0,-2.029103E-2,1.1111174E-1,2.9855296E-2,2.954534E-1,3.6532637E-3,2.9277211E-2,-1.7830601E-2,2.1126724E-3,7.5209658E-3,5.727938E-2,4.453736E-2,-2.90932E-2,-5.333386E-2,9.359E-3],"split_indices":[15,1,10,15,0,8,11,15,5,8,11,0,11,0,0,0,0,0,0,0,0,0,0],"split_type":[0,0,0,0,0,0,0,0,0,0,0,0,0,0,0,0,0,0,0,0,0,0,0],"sum_hessian":[2.9692584E2,2.7607324E2,2.0852612E1,2.73555E2,2.5182388E0,1.5009567E1,5.8430448E0,9.314379E1,1.8041121E2,1.1018941E1,3.9906259E0,1.5571564E0,4.285888E0,7.7211075E1,1.59327135E1,9.206454E1,8.834667E1,1.5684112E0,9.45053E0,1.3830948E0,2.6075313E0,2.949359E0,1.3365295E0],"tree_param":{"num_deleted":"0","num_feature":"16","num_nodes":"23","size_leaf_vector":"1"}},{"base_weights":[-2.5136953E-2,5.7862335E-1,-6.7386635E-2,2.0370758E-1,6.970835E-2,-6.022129E-1,-1.752916E-2,9.1684645E-1,-4.3276182E-1,-9.633663E-1,-2.340686E-1,4.629534E-1,-5.8695644E-2,8.249158E-3,5.9824433E-2,-4.223557E-2,3.265987E-2,-6.988112E-2,-3.3023216E-2,1.8937645E-2,-4.5137595E-2,-1.4778788E-2,5.068264E-2,1.446074E-2,-6.10577E-3],"categories":[],"categories_nodes":[],"categories_segments":[],"categories_sizes":[],"default_left":[0,0,0,0,0,0,0,0,0,0,0,0,0,0,0,0,0,0,0,0,0,0,0,0,0],"id":28,"left_children":[1,3,5,7,-1,9,11,13,15,17,19,21,23,-1,-1,-1,-1,-1,-1,-1,-1,-1,-1,-1,-1],"loss_changes":[7.8683257E0,5.8855405E0,7.662338E0,7.2025056E0,0E0,3.0329046E0,5.253847E0,1.3567572E0,4.400108E0,6.619587E-1,5.8564234E0,9.057375E0,5.4251575E0,0E0,0E0,0E0,0E0,0E0,0E0,0E0,0E0,0E0,0E0,0E0,0E0],"parents":[2147483647,0,0,1,1,2,2,3,3,5,5,6,6,7,7,8,8,9,9,10,10,11,11,12,12],"right_children":[2,4,6,8,-1,10,12,14,16,18,20,22,24,-1,-1,-1,-1,-1,-1,-1,-1,-1,-1,-1,-1],"split_conditions":[-1.4170136E-1,-6.145318E-3,-7.060227E-2,-1.3752393E-1,6.970835E-2,-3.7105891E-3,-1.6931346E-2,-3.112501E-1,-6.872775E-1,-1.2555046E-1,4.1322347E-2,2.4265261E-2,6.1477456E-2,8.249158E-3,5.9824433E-2,-4.223557E-2,3.265987E-2,-6.988112E-2,-3.3023216E-2,1.8937645E-2,-4.5137595E-2,-1.4778788E-2,5.068264E-2,1.446074E-2,-6.10577E-3],"split_indices":[3,15,3,2,0,10,15,3,6,2,1,3,3,0,0,0,0,0,0,0,0,0,0,0,0],"split_type":[0,0,0,0,0,0,0,0,0,0,0,0,0,0,0,0,0,0,0,0,0,0,0,0,0],"sum_hessian":[3.0592825E2,1.9177717E1,2.8675055E2,1.3994191E1,5.183526E0,2.350724E1,2.632433E2,6.391853E0,7.6023383E0,1.105013E1,1.2457111E1,1.9965557E1,2.4327774E2,2.163883E0,4.2279696E0,5.6726265E0,1.9297116E0,3.0555007E0,7.9946294E0,6.7263055E0,5.7308054E0,8.592957E0,1.13726015E1,3.6960136E1,2.063176E2],"tree_param":{"num_deleted":"0","num_feature":"16","num_nodes":"25","size_leaf_vector":"1"}},{"base_weights":[1.5947398E-2,9.4317394E-1,-1.0265197E-2,5.9044063E-2,3.0448732E-1,-3.1727424E-1,3.3247184E-2,-9.779208E-3,2.8945714E-2,1.8893978E-1,-6.923505E-1,6.8068075E-1,-4.6217535E-3,-1.6523851E-2,6.040473E-2,-1.8016225E-2,-6.689945E-2,-7.2751367E-3,5.4834154E-2,1.2076772E-2,-4.4670994E-3],"categories":[],"categories_nodes":[],"categories_segments":[],"categories_sizes":[],"default_left":[0,0,0,0,0,0,0,0,0,0,0,0,0,0,0,0,0,0,0,0,0],"id":29,"left_children":[1,3,5,-1,7,9,11,-1,-1,13,15,17,19,-1,-1,-1,-1,-1,-1,-1,-1],"loss_changes":[7.2297635E0,8.819895E-1,3.8830147E0,0E0,6.0253364E-1,6.9812603E0,6.250326E0,0E0,0E0,8.943838E0,4.0064955E0,5.001147E0,5.0624614E0,0E0,0E0,0E0,0E0,0E0,0E0,0E0,0E0],"parents":[2147483647,0,0,1,1,2,2,4,4,5,5,6,6,9,9,10,10,11,11,12,12],"right_children":[2,4,6,-1,8,10,12,-1,-1,14,16,18,20,-1,-1,-1,-1,-1,-1,-1,-1],"split_conditions":[-1.5302363E-1,3.1818438E-1,-7.060227E-2,5.9044063E-2,1.3234824E-1,-1.361118E-1,-5.4995764E-2,-9.779208E-3,2.8945714E-2,-6.145318E-3,1.5332872E-1,4.363134E-2,9.665325E-2,-1.6523851E-2,6.040473E-2,-1.8016225E-2,-6.689945E-2,-7.2751367E-3,5.4834154E-2,1.2076772E-2,-4.4670994E-3],"split_indices":[2,11,3,0,12,3,10,0,0,15,4,3,3,0,0,0,0,0,0,0,0],"split_type":[0,0,0,0,0,0,0,0,0,0,0,0,0,0,0,0,0,0,0,0,0],"sum_hessian":[2.9606137E2,7.1777797E0,2.888836E2,4.612261E0,2.5655186E0,3.5079887E1,2.5380371E2,1.0108352E0,1.5546836E0,1.5141174E1,1.9938711E1,1.3086871E1,2.4071684E2,1.0477171E1,4.6640034E0,1.4196241E1,5.7424703E0,4.6004934E0,8.486377E0,6.116094E1,1.7955591E2],"tree_param":{"num_deleted":"0","num_feature":"16","num_nodes":"21","size_leaf_vector":"1"}},{"base_weights":[-3.2070234E-2,-1.04460634E-1,2.8331947E-1,2.8987265E-1,-1.4603773E-1,2.2302596E-2,5.646185E-1,5.616192E-1,-1.423754E-1,-1.6713557E-1,5.937866E-1,3.6437836E-1,-7.395751E-1,-4.6667207E-2,8.364151E-1,-4.8623597E-3,5.269585E-2,3.588562E-2,-2.6265228E-2,-6.7400387E-3,-3.5590556E-2,-2.8115243E-2,5.6189347E-2,-1.6143682E-3,5.4489143E-2,1.7422533E-2,-4.6366755E-2,3.4635644E-2,-4.3906197E-2,5.2125096E-2,-2.7589679E-2],"categories":[],"categories_nodes":[],"categories_segments":[],"categories_sizes":[],"default_left":[0,0,0,0,0,0,0,0,0,0,0,0,0,0,0,0,0,0,0,0,0,0,0,0,0,0,0,0,0,0,0],"id":30,"left_children":[1,3,5,7,9,11,13,15,17,19,21,23,25,27,29,-1,-1,-1,-1,-1,-1,-1,-1,-1,-1,-1,-1,-1,-1,-1,-1],"loss_changes":[6.9341373E0,4.086919E0,4.1523213E0,2.8831372E0,3.5929103E0,8.20901E0,4.5682077E0,4.920811E0,3.6737194E0,3.750547E0,4.5690985E0,6.2775517E0,2.318975E0,6.34856E0,5.9889336E0,0E0,0E0,0E0,0E0,0E0,0E0,0E0,0E0,0E0,0E0,0E0,0E0,0E0,0E0,0E0,0E0],"parents":[2147483647,0,0,1,1,2,2,3,3,4,4,5,5,6,6,7,7,8,8,9,9,10,10,11,11,12,12,13,13,14,14],"right_children":[2,4,6,8,10,12,14,16,18,20,22,24,26,28,30,-1,-1,-1,-1,-1,-1,-1,-1,-1,-1,-1,-1,-1,-1,-1,-1],"split_conditions":[9.3591005E-2,5.8822736E-2,1.6865382E-1,1.7058612E-1,3.7192043E-2,4.7712648E-1,4.197945E-2,4.610002E-2,1.8827072E-3,3.439735E0,-4.282013E-1,-2.7040105E-2,7.476513E-2,2.218135E-2,7.3765945E-1,-4.8623597E-3,5.269585E-2,3.588562E-2,-2.6265228E-2,-6.7400387E-3,-3.5590556E-2,-2.8115243E-2,5.6189347E-2,-1.6143682E-3,5.4489143E-2,1.7422533E-2,-4.6366755E-2,3.4635644E-2,-4.3906197E-2,5.2125096E-2,-2.7589679E-2],"split_indices":[9,14,3,3,0,6,1,3,1,5,5,1,11,1,3,0,0,0,0,0,0,0,0,0,0,0,0,0,0,0,0],"split_type":[0,0,0,0,0,0,0,0,0,0,0,0,0,0,0,0,0,0,0,0,0,0,0,0,0,0,0,0,0,0,0],"sum_hessian":[3.0141714E2,2.4569283E2,5.5724308E1,2.286456E1,2.2282826E2,2.9464E1,2.626031E1,1.3854921E1,9.009639E0,2.174026E2,5.4256616E0,2.0694227E1,8.769773E0,8.337379E0,1.792293E1,6.268262E0,7.5866594E0,2.506217E0,6.503422E0,2.0639728E2,1.1005336E1,1.6863245E0,3.7393372E0,1.3996275E1,6.6979527E0,1.164711E0,7.6050615E0,4.5013676E0,3.836012E0,1.582296E1,2.0999691E0],"tree_param":{"num_deleted":"0","num_feature":"16","num_nodes":"31","size_leaf_vector":"1"}},{"base_weights":[1.8443929E-2,1.0647548E-3,5.2001264E-2,1.6334394E-1,-7.4158825E-2,-2.4743973E-1,4.834325E-1,-1.3760263E-1,2.8464314E-1,-2.527425E-2,8.986572E-3,-2.07963E-3,3.5519864E-2,-4.007444E-3,-5.2502748E-2,4.2645987E-2,1.4834666E-3],"categories":[],"categories_nodes":[],"categories_segments":[],"categories_sizes":[],"default_left":[0,0,0,0,0,0,0,0,0,0,0,0,0,0,0,0,0],"id":31,"left_children":[1,3,-1,5,7,9,11,13,15,-1,-1,-1,-1,-1,-1,-1,-1],"loss_changes":[5.3548956E0,3.645341E0,0E0,1.2555616E1,4.6841087E0,4.7296343E0,6.40432E0,9.0409775E0,4.4642897E0,0E0,0E0,0E0,0E0,0E0,0E0,0E0,0E0],"parents":[2147483647,0,0,1,1,3,3,4,4,5,5,6,6,7,7,8,8],"right_children":[2,4,-1,6,8,10,12,14,16,-1,-1,-1,-1,-1,-1,-1,-1],"split_conditions":[1.947151E-1,-4.0463293E-3,5.2001264E-2,5.197309E-2,3.4828082E-1,-7.7246553E-3,-4.0255226E-2,1.3081203E-1,2.1821966E0,-2.527425E-2,8.986572E-3,-2.07963E-3,3.5519864E-2,-4.007444E-3,-5.2502748E-2,4.2645987E-2,1.4834666E-3],"split_indices":[9,0,0,9,3,8,3,9,6,0,0,0,0,0,0,0,0],"split_type":[0,0,0,0,0,0,0,0,0,0,0,0,0,0,0,0,0],"sum_hessian":[3.006746E2,2.9662936E2,4.0452266E0,9.357955E1,2.030498E2,4.108296E1,5.2496597E1,1.7306479E2,2.998503E1,2.5497261E1,1.5585698E1,1.6090977E1,3.640562E1,1.6383644E2,9.228335E0,8.560521E0,2.142451E1],"tree_param":{"num_deleted":"0","num_feature":"16","num_nodes":"17","size_leaf_vector":"1"}},{"base_weights":[-6.9430317E-3,-1.0059481E-1,2.3449901E-1,7.933361E-1,-1.2905212E-1,6.9712627E-1,1.0550764E-1,1.0204626E0,-1.2094992E-2,-1.5248922E-1,8.1047904E-1,2.3244818E-1,1.0038716E0,1.6817649E-1,-6.542608E-1,6.955146E-2,-4.491906E-3,-5.3413953E-3,-2.7522324E-2,-8.641521E-3,6.161536E-2,-1.2450887E-2,3.112476E-2,5.7613503E-2,-3.1012048E-3,2.5628817E-3,2.8541211E-2,-5.2956797E-2,2.3426801E-2],"categories":[],"categories_nodes":[],"categories_segments":[],"categories_sizes":[],"default_left":[0,0,0,0,0,0,0,0,0,0,0,0,0,0,0,0,0,0,0,0,0,0,0,0,0,0,0,0,0],"id":32,"left_children":[1,3,5,7,9,11,13,15,-1,17,19,21,23,25,27,-1,-1,-1,-1,-1,-1,-1,-1,-1,-1,-1,-1,-1,-1],"loss_changes":[6.8533044E0,5.6564636E0,4.981864E0,1.8635511E0,4.801814E0,2.3740082E0,3.3203225E0,2.5237937E0,0E0,3.7230983E0,2.4234483E0,1.7653532E0,1.7667112E0,2.9404325E0,2.9247153E0,0E0,0E0,0E0,0E0,0E0,0E0,0E0,0E0,0E0,0E0,0E0,0E0,0E0,0E0],"parents":[2147483647,0,0,1,1,2,2,3,3,4,4,5,5,6,6,7,7,9,9,10,10,11,11,12,12,13,13,14,14],"right_children":[2,4,6,8,10,12,14,16,-1,18,20,22,24,26,28,-1,-1,-1,-1,-1,-1,-1,-1,-1,-1,-1,-1,-1,-1],"split_conditions":[7.9299025E-2,-1.389355E-1,-4.687497E-1,7.251023E-2,4.9029985E-1,-1.3261548E0,6.6459805E-1,1.0274546E0,-1.2094992E-2,7.125161E-2,-1.4089334E-3,-8.899135E-2,4.3754396E0,3.4828082E-1,6.1403275E-1,6.955146E-2,-4.491906E-3,-5.3413953E-3,-2.7522324E-2,-8.641521E-3,6.161536E-2,-1.2450887E-2,3.112476E-2,5.7613503E-2,-3.1012048E-3,2.5628817E-3,2.8541211E-2,-5.2956797E-2,2.3426801E-2],"split_indices":[9,3,13,9,3,6,3,6,0,9,10,7,6,3,13,0,0,0,0,0,0,0,0,0,0,0,0,0,0],"split_type":[0,0,0,0,0,0,0,0,0,0,0,0,0,0,0,0,0,0,0,0,0,0,0,0,0,0,0,0,0],"sum_hessian":[3.010464E2,2.1733049E2,8.371591E1,5.8757935E0,2.114547E2,1.7292381E1,6.642353E1,4.830313E0,1.0454806E0,2.0712555E2,4.3291564E0,7.5750227E0,9.717358E0,6.208144E1,4.342087E0,3.4320242E0,1.3982888E0,1.8694415E2,2.0181385E1,1.476836E0,2.8523204E0,3.5520349E0,4.022988E0,8.458672E0,1.2586863E0,4.8984783E1,1.3096659E1,3.2329862E0,1.1091006E0],"tree_param":{"num_deleted":"0","num_feature":"16","num_nodes":"29","size_leaf_vector":"1"}},{"base_weights":[-6.4651854E-3,5.1902354E-1,-4.029776E-2,2.2230963E-1,6.626901E-2,-4.9967316E-1,5.6879628E-3,7.9758525E-1,-6.064443E-1,-9.9610454E-1,-1.5330455E-1,3.0522966E-1,-9.162493E-2,6.504199E-3,5.0165355E-2,-5.1880706E-2,4.2564746E-2,-5.521064E-2,-1.842781E-4,2.9650906E-2,-3.2360878E-2,-9.429085E-3,2.756914E-2,3.0842245E-2,-8.876733E-3],"categories":[],"categories_nodes":[],"categories_segments":[],"categories_sizes":[],"default_left":[0,0,0,0,0,0,0,0,0,0,0,0,0,0,0,0,0,0,0,0,0,0,0,0,0],"id":33,"left_children":[1,3,5,7,-1,9,11,13,15,17,19,21,23,-1,-1,-1,-1,-1,-1,-1,-1,-1,-1,-1,-1],"loss_changes":[5.316879E0,4.033664E0,5.934511E0,7.3614454E0,0E0,4.2426724E0,7.496905E0,1.0981016E0,4.9554873E0,1.1035252E0,6.3697047E0,7.7692885E0,1.192752E1,0E0,0E0,0E0,0E0,0E0,0E0,0E0,0E0,0E0,0E0,0E0,0E0],"parents":[2147483647,0,0,1,1,2,2,3,3,5,5,6,6,7,7,8,8,9,9,10,10,11,11,12,12],"right_children":[2,4,6,8,-1,10,12,14,16,18,20,22,24,-1,-1,-1,-1,-1,-1,-1,-1,-1,-1,-1,-1],"split_conditions":[-1.4485653E-1,-1.0946617E0,-7.060227E-2,-1.211651E-1,6.626901E-2,-1.744611E-2,-6.4036455E-3,6.248957E-2,-1.6125975E-2,9.069747E-1,-1.1837736E-1,4.8749827E-2,5.89714E-2,6.504199E-3,5.0165355E-2,-5.1880706E-2,4.2564746E-2,-5.521064E-2,-1.842781E-4,2.9650906E-2,-3.2360878E-2,-9.429085E-3,2.756914E-2,3.0842245E-2,-8.876733E-3],"split_indices":[3,5,3,2,0,10,1,14,1,14,3,3,3,0,0,0,0,0,0,0,0,0,0,0,0],"split_type":[0,0,0,0,0,0,0,0,0,0,0,0,0,0,0,0,0,0,0,0,0,0,0,0,0],"sum_hessian":[2.9688354E2,1.7090612E1,2.7979294E2,1.3425974E1,3.6646395E0,2.4562223E1,2.552307E2,7.947124E0,5.4788494E0,9.323502E0,1.5238722E1,6.2061325E1,1.9316937E2,2.2568152E0,5.690309E0,4.4506426E0,1.0282071E0,8.306043E0,1.0174592E0,5.9887795E0,9.249942E0,2.0722834E1,4.133849E1,2.0222311E1,1.7294707E2],"tree_param":{"num_deleted":"0","num_feature":"16","num_nodes":"25","size_leaf_vector":"1"}}]},"name":"gbtree"},"learner_model_param":{"base_score":"5E-1","boost_from_average":"1","num_class":"0","num_feature":"16","num_target":"1"},"objective":{"name":"binary:logistic","reg_loss_param":{"scale_pos_weight":"0.445459723"}}},"version":[2,1,0]}