{"learner":{"attributes":{"scikit_learn":"{\"_estimator_type\": \"classifier\"}"},"feature_names":["bias_week","bias_month","bias_quarter","bias_year","rsi","macd","macd_signal","vol_change","close_change","bb_width","return_5d","k_upper","k_lower","k_body","buy_power","rs_5d"],"feature_types":["float","float","float","float","float","float","float","float","float","float","float","float","float","float","float","float"],"gradient_booster":{"model":{"gbtree_model_param":{"num_parallel_tree":"1","num_trees":"33"},"iteration_indptr":[0,1,2,3,4,5,6,7,8,9,10,11,12,13,14,15,16,17,18,19,20,21,22,23,24,25,26,27,28,29,30,31,32,33],"tree_info":[0,0,0,0,0,0,0,0,0,0,0,0,0,0,0,0,0,0,0,0,0,0,0,0,0,0,0,0,0,0,0,0,0],"trees":[{"base_weights":[-1.6748648E-3,-1.3277324E-1,7.706122E-1,3.6848608E-1,-2.854185E-1,1.2309663E0,4.7062138E-1,4.6559583E-2,6.987998E-1,1.5352751E-1,-3.7671232E-1,7.698216E-1,1.4306818E0,1.168282E0,2.7088743E-1,2.8897608E-2,-1.2784234E-2,1.9370768E-2,4.4932064E-2,-7.2875456E-3,3.6259957E-2,-2.6704052E-2,-1.1306296E-2,6.533719E-2,1.2012946E-2,1.98488E-2,7.529859E-2,2.9024575E-2,8.364657E-2,2.9429017E-2,-9.554683E-3],"categories":[],"categories_nodes":[],"categories_segments":[],"categories_sizes":[],"default_left":[0,0,0,0,0,0,0,0,0,0,0,0,0,0,0,0,0,0,0,0,0,0,0,0,0,0,0,0,0,0,0],"id":0,"left_children":[1,3,5,7,9,11,13,15,17,19,21,23,25,27,29,-1,-1,-1,-1,-1,-1,-1,-1,-1,-1,-1,-1,-1,-1,-1,-1],"loss_changes":[9.306914E1,6.0232956E1,1.7843445E1,1.952048E1,2.4220001E1,3.688942E0,1.1163784E1,1.527611E1,5.2949867E0,1.7988539E1,1.17145E1,4.770953E0,2.1362305E0,4.3785534E0,9.703982E0,0E0,0E0,0E0,0E0,0E0,0E0,0E0,0E0,0E0,0E0,0E0,0E0,0E0,0E0,0E0,0E0],"parents":[2147483647,0,0,1,1,2,2,3,3,4,4,5,5,6,6,7,7,8,8,9,9,10,10,11,11,12,12,13,13,14,14],"right_children":[2,4,6,8,10,12,14,16,18,20,22,24,26,28,30,-1,-1,-1,-1,-1,-1,-1,-1,-1,-1,-1,-1,-1,-1,-1,-1],"split_conditions":[8.533905E-2,-7.99261E-2,-1.6922033E-3,-7.615094E-3,3.0193707E-2,9.70008E-2,-2.4460938E0,3.2967396E-4,-1.1235816E-2,5.927394E-1,9.1830844E-1,-5.6170683E-2,-1.4837934E-1,1.3102356E-1,3.3322695E-1,2.8897608E-2,-1.2784234E-2,1.9370768E-2,4.4932064E-2,-7.2875456E-3,3.6259957E-2,-2.6704052E-2,-1.1306296E-2,6.533719E-2,1.2012946E-2,1.98488E-2,7.529859E-2,2.9024575E-2,8.364657E-2,2.9429017E-2,-9.554683E-3],"split_indices":[9,4,10,15,3,9,6,3,8,6,6,1,1,9,12,0,0,0,0,0,0,0,0,0,0,0,0,0,0,0,0],"split_type":[0,0,0,0,0,0,0,0,0,0,0,0,0,0,0,0,0,0,0,0,0,0,0,0,0,0,0,0,0,0,0],"sum_hessian":[9.17231E2,7.848313E2,1.3239972E2,1.828783E2,6.01953E2,5.1013325E1,8.13864E1,9.319279E1,8.968551E1,1.0352363E2,4.9842938E2,1.6883585E1,3.4129738E1,1.7034958E1,6.435144E1,3.3457348E1,5.973544E1,3.6207348E1,5.347816E1,6.843956E1,3.5084064E1,2.4248077E2,2.5594862E2,7.6548076E0,9.228778E0,2.742926E0,3.1386814E1,8.862569E0,8.17239E0,3.7967857E1,2.6383585E1],"tree_param":{"num_deleted":"0","num_feature":"16","num_nodes":"31","size_leaf_vector":"1"}},{"base_weights":[-1.1596952E-2,4.7983098E-1,-1.9295666E-1,3.4321195E-1,1.2162176E0,3.121816E-1,-2.8117397E-1,4.4375238E-1,-5.366438E-1,1.3959131E0,3.9850616E-1,-1.882799E-1,5.5969614E-1,-3.4106869E-1,3.9968437E-1,6.5238796E-2,1.8383062E-2,6.0509425E-3,-3.528942E-2,7.740276E-2,3.0490061E-2,5.9500284E-2,-1.2647572E-2,-2.781936E-2,2.3738159E-2,1.4444584E-2,5.3573318E-2,-1.7526653E-3,-2.2196587E-2,6.3514315E-2,-2.0005105E-3],"categories":[],"categories_nodes":[],"categories_segments":[],"categories_sizes":[],"default_left":[0,0,0,0,0,0,0,0,0,0,0,0,0,0,0,0,0,0,0,0,0,0,0,0,0,0,0,0,0,0,0],"id":1,"left_children":[1,3,5,7,9,11,13,15,17,19,21,23,25,27,29,-1,-1,-1,-1,-1,-1,-1,-1,-1,-1,-1,-1,-1,-1,-1,-1],"loss_changes":[8.219989E1,2.4595394E1,3.0106157E1,1.8913185E1,5.103058E0,1.2570126E1,2.3544178E1,1.196891E1,2.5440602E0,2.7847176E0,4.6005745E0,8.57399E0,9.0562935E0,1.660886E1,1.7993591E1,0E0,0E0,0E0,0E0,0E0,0E0,0E0,0E0,0E0,0E0,0E0,0E0,0E0,0E0,0E0,0E0],"parents":[2147483647,0,0,1,1,2,2,3,3,4,4,5,5,6,6,7,7,8,8,9,9,10,10,11,11,12,12,13,13,14,14],"right_children":[2,4,6,8,10,12,14,16,18,20,22,24,26,28,30,-1,-1,-1,-1,-1,-1,-1,-1,-1,-1,-1,-1,-1,-1,-1,-1],"split_conditions":[-1.3806641E-2,1.0076413E-1,2.0294236E-2,9.5454544E-1,-2.6095642E-2,-4.660158E-3,8.533905E-2,-6.7433625E-2,-2.164508E-2,4.2857066E-1,-7.9402894E-2,2.9659193E-2,-1.9436384E-2,-7.949275E-3,2.5417712E-3,6.5238796E-2,1.8383062E-2,6.0509425E-3,-3.528942E-2,7.740276E-2,3.0490061E-2,5.9500284E-2,-1.2647572E-2,-2.781936E-2,2.3738159E-2,1.4444584E-2,5.3573318E-2,-1.7526653E-3,-2.2196587E-2,6.3514315E-2,-2.0005105E-3],"split_indices":[2,9,3,14,3,15,9,1,10,12,2,2,3,10,0,0,0,0,0,0,0,0,0,0,0,0,0,0,0,0,0],"split_type":[0,0,0,0,0,0,0,0,0,0,0,0,0,0,0,0,0,0,0,0,0,0,0,0,0,0,0,0,0,0,0],"sum_hessian":[9.202578E2,2.4762526E2,6.7263257E2,2.1011035E2,3.75149E1,9.962642E1,5.7300616E2,1.890082E2,2.1102161E1,3.0176414E1,7.338488E0,3.304681E1,6.6579605E1,5.271336E2,4.587256E1,1.4035816E1,1.7497238E2,4.3751945E0,1.6726967E1,2.4471085E1,5.70533E0,2.9399111E0,4.3985767E0,2.1352962E1,1.1693849E1,4.4563313E1,2.2016296E1,1.3295024E2,3.9418335E2,1.4759501E1,3.1113058E1],"tree_param":{"num_deleted":"0","num_feature":"16","num_nodes":"31","size_leaf_vector":"1"}},{"base_weights":[-3.920138E-4,-1.2179895E-1,7.3354614E-1,2.498219E-1,-2.8929284E-1,9.8640895E-1,3.8458398E-1,4.4078588E-1,-4.418665E-2,1.8720706E-1,-3.6559582E-1,7.7252764E-1,1.5067313E0,9.0943384E-1,3.4961894E-2,2.616967E-2,-4.2823634E-5,-2.5526976E-2,1.1374723E-2,3.2076895E-2,-4.3866024E-3,-3.1599417E-2,-1.1309769E-2,-1.3338576E-2,4.401102E-2,3.0945767E-2,8.053302E-2,2.6880467E-2,8.162908E-2,5.928393E-2,-5.081154E-3],"categories":[],"categories_nodes":[],"categories_segments":[],"categories_sizes":[],"default_left":[0,0,0,0,0,0,0,0,0,0,0,0,0,0,0,0,0,0,0,0,0,0,0,0,0,0,0,0,0,0,0],"id":2,"left_children":[1,3,5,7,9,11,13,15,17,19,21,23,25,27,29,-1,-1,-1,-1,-1,-1,-1,-1,-1,-1,-1,-1,-1,-1,-1,-1],"loss_changes":[8.189447E1,4.9159355E1,1.1131752E1,1.380577E1,1.9850048E1,7.1828613E0,1.0326758E1,5.434643E0,1.248154E1,9.519633E0,1.7285122E1,6.413742E0,9.2206573E-1,5.180084E0,5.609021E0,0E0,0E0,0E0,0E0,0E0,0E0,0E0,0E0,0E0,0E0,0E0,0E0,0E0,0E0,0E0,0E0],"parents":[2147483647,0,0,1,1,2,2,3,3,4,4,5,5,6,6,7,7,8,8,9,9,10,10,11,11,12,12,13,13,14,14],"right_children":[2,4,6,8,10,12,14,16,18,20,22,24,26,28,30,-1,-1,-1,-1,-1,-1,-1,-1,-1,-1,-1,-1,-1,-1,-1,-1],"split_conditions":[8.533905E-2,-1.1464987E-2,5.7059694E-2,-9.336162E-3,-7.464945E-1,1.3102356E-1,5.3890483E-3,-5.507875E-3,-1.0098362E-2,-4.756419E-3,2.7753621E-2,-4.297726E0,-1.4837934E-1,1.4964566E-1,5.2269407E-2,2.616967E-2,-4.2823634E-5,-2.5526976E-2,1.1374723E-2,3.2076895E-2,-4.3866024E-3,-3.1599417E-2,-1.1309769E-2,-1.3338576E-2,4.401102E-2,3.0945767E-2,8.053302E-2,2.6880467E-2,8.162908E-2,5.928393E-2,-5.081154E-3],"split_indices":[9,10,2,0,6,9,0,1,15,1,2,6,1,2,1,0,0,0,0,0,0,0,0,0,0,0,0,0,0,0,0],"split_type":[0,0,0,0,0,0,0,0,0,0,0,0,0,0,0,0,0,0,0,0,0,0,0,0,0,0,0,0,0,0,0],"sum_hessian":[9.170737E2,7.876207E2,1.2945297E2,2.4454784E2,5.4307294E2,7.4002815E1,5.5450157E1,1.4795143E2,9.6596405E1,7.475933E1,4.6831357E2,5.4205894E1,1.979692E1,2.1529322E1,3.3920834E1,1.2448236E2,2.346906E1,3.523491E1,6.1361496E1,2.768202E1,4.7077312E1,1.5966402E2,3.0864957E2,4.950779E0,4.9255116E1,2.8034618E0,1.699346E1,1.5369922E1,6.1594005E0,2.7841043E0,3.113673E1],"tree_param":{"num_deleted":"0","num_feature":"16","num_nodes":"31","size_leaf_vector":"1"}},{"base_weights":[-1.6998971E-3,6.1117566E-1,-1.1498714E-1,4.507095E-1,1.2524382E0,-2.1132396E-1,4.3413356E-1,9.265819E-1,2.5063527E-1,1.3268095E0,2.5224898E-3,-8.096251E-4,-3.7200123E-1,2.805821E-1,9.601447E-1,-2.3401888E-2,5.017643E-2,3.8896576E-3,2.8956054E-2,1.6238246E-2,7.010677E-2,5.309299E-3,-2.2462245E-2,-2.8879499E-2,-9.249832E-3,2.0091765E-2,-2.6002651E-2,6.944572E-2,4.042681E-3],"categories":[],"categories_nodes":[],"categories_segments":[],"categories_sizes":[],"default_left":[0,0,0,0,0,0,0,0,0,0,0,0,0,0,0,0,0,0,0,0,0,0,0,0,0,0,0,0,0],"id":3,"left_children":[1,3,5,7,9,11,13,15,17,19,-1,21,23,25,27,-1,-1,-1,-1,-1,-1,-1,-1,-1,-1,-1,-1,-1,-1],"loss_changes":[6.4203575E1,1.4280289E1,4.137722E1,1.0902618E1,2.4639778E0,2.2480572E1,9.165335E0,4.1446266E0,4.7074056E0,1.5541229E0,0E0,1.38996E1,1.4384529E1,9.123703E0,9.682926E0,0E0,0E0,0E0,0E0,0E0,0E0,0E0,0E0,0E0,0E0,0E0,0E0,0E0,0E0],"parents":[2147483647,0,0,1,1,2,2,3,3,4,4,5,5,6,6,7,7,8,8,9,9,11,11,12,12,13,13,14,14],"right_children":[2,4,6,8,10,12,14,16,18,20,-1,22,24,26,28,-1,-1,-1,-1,-1,-1,-1,-1,-1,-1,-1,-1,-1,-1],"split_conditions":[-2.8662471E-2,8.947969E-2,8.017524E-2,8.333519E-2,8.039214E-1,9.049454E-2,1.3102356E-1,-2.679688E-1,9.1830844E-1,-6.341001E-2,2.5224898E-3,1E0,9.1830844E-1,4.247138E-2,1.1069964E-1,-2.3401888E-2,5.017643E-2,3.8896576E-3,2.8956054E-2,1.6238246E-2,7.010677E-2,5.309299E-3,-2.2462245E-2,-2.8879499E-2,-9.249832E-3,2.0091765E-2,-2.6002651E-2,6.944572E-2,4.042681E-3],"split_indices":[10,9,9,14,13,3,9,3,6,15,0,14,6,15,2,0,0,0,0,0,0,0,0,0,0,0,0,0,0],"split_type":[0,0,0,0,0,0,0,0,0,0,0,0,0,0,0,0,0,0,0,0,0,0,0,0,0,0,0,0,0],"sum_hessian":[9.2269855E2,1.4326276E2,7.794358E2,1.159507E2,2.7312054E1,6.6362555E2,1.1581021E2,3.324558E1,8.2705124E1,2.5622831E1,1.6892226E0,2.8769785E2,3.7592773E2,9.0829094E1,2.4981115E1,1.4726126E0,3.1772966E1,5.5001396E1,2.7703726E1,2.162814E0,2.3460016E1,2.3289326E2,5.480458E1,1.7807135E2,1.9785637E2,7.931521E1,1.15138855E1,1.6402945E1,8.578171E0],"tree_param":{"num_deleted":"0","num_feature":"16","num_nodes":"29","size_leaf_vector":"1"}},{"base_weights":[-2.7519746E-3,5.848271E-1,-1.296583E-1,4.4037673E-1,1.0357459E0,-2.074418E-1,4.184891E-1,9.1261834E-1,2.3834935E-1,7.270023E-2,8.155461E-1,1.5315152E-2,-2.784768E-1,1.1712569E0,3.0728707E-1,5.244253E-2,-1.526273E-2,5.939755E-2,7.2952993E-3,5.2625865E-2,1.2373141E-2,-1.0176503E-2,9.741095E-3,-1.5670417E-2,1.7207516E-2,6.840997E-2,-9.797265E-3,1.8228693E-2,-2.8352072E-2],"categories":[],"categories_nodes":[],"categories_segments":[],"categories_sizes":[],"default_left":[0,0,0,0,0,0,0,0,0,0,0,0,0,0,0,0,0,0,0,0,0,0,0,0,0,0,0,0,0],"id":4,"left_children":[1,3,5,7,9,11,13,15,17,-1,19,21,23,25,27,-1,-1,-1,-1,-1,-1,-1,-1,-1,-1,-1,-1,-1,-1],"loss_changes":[6.921571E1,1.0282894E1,3.2633205E1,1.1861797E1,2.430252E0,1.0592573E1,7.608423E0,6.5555134E0,7.7297244E0,0E0,3.5086498E0,6.4327326E0,1.1143673E1,3.4713078E0,4.4288125E0,0E0,0E0,0E0,0E0,0E0,0E0,0E0,0E0,0E0,0E0,0E0,0E0,0E0,0E0],"parents":[2147483647,0,0,1,1,2,2,3,3,4,4,5,5,6,6,7,7,8,8,10,10,11,11,12,12,13,13,14,14],"right_children":[2,4,6,8,10,12,14,16,18,-1,20,22,24,26,28,-1,-1,-1,-1,-1,-1,-1,-1,-1,-1,-1,-1,-1,-1],"split_conditions":[-1.331939E-1,-3.6969103E-4,8.533905E-2,-5.937146E-2,-1.758279E0,2.7272853E-1,-2.1226438E-2,8.571444E-1,-2.9930666E-2,7.270023E-2,1.7741147E-2,6.398639E-1,6.451612E-2,8.386721E-1,1.1001556E0,5.244253E-2,-1.526273E-2,5.939755E-2,7.2952993E-3,5.2625865E-2,1.2373141E-2,-1.0176503E-2,9.741095E-3,-1.5670417E-2,1.7207516E-2,6.840997E-2,-9.797265E-3,1.8228693E-2,-2.8352072E-2],"split_indices":[4,15,9,1,6,14,10,14,15,0,15,6,10,7,7,0,0,0,0,0,0,0,0,0,0,0,0,0,0],"split_type":[0,0,0,0,0,0,0,0,0,0,0,0,0,0,0,0,0,0,0,0,0,0,0,0,0,0,0,0,0],"sum_hessian":[9.2621204E2,1.6387212E2,7.623399E2,1.2560998E2,3.8262135E1,6.6814935E2,9.419055E1,3.6581936E1,8.902804E1,1.1263864E1,2.6998272E1,1.6173927E2,5.064101E2,1.0896358E1,8.329419E1,3.3026367E1,3.5555704E0,6.846675E0,8.2181366E1,1.8449476E1,8.548797E0,7.2823204E1,8.891606E1,4.799783E2,2.643179E1,9.523752E0,1.3726054E0,7.8719444E1,4.5747437E0],"tree_param":{"num_deleted":"0","num_feature":"16","num_nodes":"29","size_leaf_vector":"1"}},{"base_weights":[2.1327785E-3,5.5219007E-1,-1.1549024E-1,8.729742E-1,4.2242017E-1,2.732805E-1,-2.2050588E-1,6.143628E-1,1.4003952E0,3.3466965E-1,1.1361101E0,4.1247076E-1,-3.175841E-1,-2.569339E-1,9.106345E-1,3.9713886E-2,-9.233698E-3,8.259726E-2,-6.9197663E-3,2.3723224E-2,-2.9223511E-2,7.4843764E-2,8.920566E-3,7.0847133E-3,3.4930572E-2,-1.3733528E-3,-3.97205E-2,-2.0785395E-2,-4.797477E-3,5.9280496E-2,-8.311356E-3],"categories":[],"categories_nodes":[],"categories_segments":[],"categories_sizes":[],"default_left":[0,0,0,0,0,0,0,0,0,0,0,0,0,0,0,0,0,0,0,0,0,0,0,0,0,0,0,0,0,0,0],"id":5,"left_children":[1,3,5,7,9,11,13,15,17,19,21,23,25,27,29,-1,-1,-1,-1,-1,-1,-1,-1,-1,-1,-1,-1,-1,-1,-1,-1],"loss_changes":[5.9762077E1,6.4050636E0,3.1128803E1,5.4044E0,6.9967136E0,1.3477936E1,2.4944433E1,4.833268E0,5.7754593E0,1.3937522E1,4.0446987E0,1.0111439E1,4.336609E0,1.4830036E1,5.802573E0,0E0,0E0,0E0,0E0,0E0,0E0,0E0,0E0,0E0,0E0,0E0,0E0,0E0,0E0,0E0,0E0],"parents":[2147483647,0,0,1,1,2,2,3,3,4,4,5,5,6,6,7,7,8,8,9,9,10,10,11,11,12,12,13,13,14,14],"right_children":[2,4,6,8,10,12,14,16,18,20,22,24,26,28,30,-1,-1,-1,-1,-1,-1,-1,-1,-1,-1,-1,-1,-1,-1,-1,-1],"split_conditions":[-1.331939E-1,-8.8430084E-2,2.0294236E-2,-1.001173E-1,1.3584317E-1,1E0,3.6284475E0,3.9999846E-1,1.3789103E-2,9.9212706E-2,3.003764E-1,-2.0137225E-1,2.2566918E-2,9.1830844E-1,2.733464E-1,3.9713886E-2,-9.233698E-3,8.259726E-2,-6.9197663E-3,2.3723224E-2,-2.9223511E-2,7.4843764E-2,8.920566E-3,7.0847133E-3,3.4930572E-2,-1.3733528E-3,-3.97205E-2,-2.0785395E-2,-4.797477E-3,5.9280496E-2,-8.311356E-3],"split_indices":[4,2,3,3,3,14,5,12,3,3,7,6,0,6,2,0,0,0,0,0,0,0,0,0,0,0,0,0,0,0,0],"split_type":[0,0,0,0,0,0,0,0,0,0,0,0,0,0,0,0,0,0,0,0,0,0,0,0,0,0,0,0,0,0,0],"sum_hessian":[9.217026E2,1.6172243E2,7.5998016E2,4.493022E1,1.16792206E2,1.6128743E2,5.9869275E2,3.160038E1,1.3329841E1,1.053126E2,1.1479606E1,1.3078116E2,3.0506264E1,5.807623E2,1.7930412E1,2.579762E1,5.8027587E0,1.1393741E1,1.9360998E0,9.182973E1,1.3482872E1,7.929551E0,3.5500546E0,6.796279E1,6.281837E1,1.9623976E1,1.0882288E1,2.9159183E2,2.891705E2,1.4202765E1,3.7276459E0],"tree_param":{"num_deleted":"0","num_feature":"16","num_nodes":"31","size_leaf_vector":"1"}},{"base_weights":[1.2024731E-2,4.6515366E-1,-1.3817361E-1,8.687327E-1,3.358633E-1,-2.1585213E-1,4.0667725E-1,1.2309538E-1,9.941231E-1,2.8673393E-1,1.167849E0,-3.6769894E-1,-5.2215416E-2,9.3319577E-1,2.3739079E-1,2.4051307E-2,-5.8809787E-2,5.507916E-2,6.779662E-3,2.5807548E-2,2.8499614E-3,6.423903E-2,1.818131E-2,-2.2829587E-2,8.960958E-3,1.6984627E-2,-1.790746E-2,-8.5993E-3,5.6117523E-2,1.694438E-2,-2.750555E-2],"categories":[],"categories_nodes":[],"categories_segments":[],"categories_sizes":[],"default_left":[0,0,0,0,0,0,0,0,0,0,0,0,0,0,0,0,0,0,0,0,0,0,0,0,0,0,0,0,0,0,0],"id":6,"left_children":[1,3,5,7,9,11,13,15,17,19,21,23,25,27,29,-1,-1,-1,-1,-1,-1,-1,-1,-1,-1,-1,-1,-1,-1,-1,-1],"loss_changes":[6.264121E1,1.166375E1,2.9346775E1,5.0163918E0,6.8249207E0,1.5031395E1,7.4981585E0,4.7761955E0,4.178356E0,8.757661E0,4.2067719E-1,1.5348042E1,3.5216278E1,4.526743E0,5.531969E0,0E0,0E0,0E0,0E0,0E0,0E0,0E0,0E0,0E0,0E0,0E0,0E0,0E0,0E0,0E0,0E0],"parents":[2147483647,0,0,1,1,2,2,3,3,4,4,5,5,6,6,7,7,8,8,9,9,10,10,11,11,12,12,13,13,14,14],"right_children":[2,4,6,8,10,12,14,16,18,20,22,24,26,28,30,-1,-1,-1,-1,-1,-1,-1,-1,-1,-1,-1,-1,-1,-1,-1,-1],"split_conditions":[-7.99261E-2,-5.4400165E-2,8.533905E-2,6.0013216E-2,1.03958726E-1,8.794709E-1,-4.9999678E-1,1.8749732E-1,8.125E-1,4.6290554E-2,5E-1,4.4025067E-2,1.857416E-1,4.1988613E-3,8.8770264E-1,2.4051307E-2,-5.8809787E-2,5.507916E-2,6.779662E-3,2.5807548E-2,2.8499614E-3,6.423903E-2,1.818131E-2,-2.2829587E-2,8.960958E-3,1.6984627E-2,-1.790746E-2,-8.5993E-3,5.6117523E-2,1.694438E-2,-2.750555E-2],"split_indices":[4,1,9,9,9,6,13,13,14,9,12,10,4,1,7,0,0,0,0,0,0,0,0,0,0,0,0,0,0,0,0],"split_type":[0,0,0,0,0,0,0,0,0,0,0,0,0,0,0,0,0,0,0,0,0,0,0,0,0,0,0,0,0,0,0],"sum_hessian":[9.184484E2,2.2812573E2,6.903227E2,5.396259E1,1.7416315E2,6.047135E2,8.560921E1,8.05356E0,4.5909027E1,1.6572179E2,8.4413595E0,3.1300925E2,2.9170425E2,1.9730484E1,6.587872E1,6.80789E0,1.2456701E0,4.0550335E1,5.358691E0,8.2294426E1,8.342736E1,6.8481197E0,1.5932398E0,2.6938947E2,4.3619793E1,1.2783475E2,1.6386949E2,2.8966842E0,1.6833801E1,5.8861988E1,7.016733E0],"tree_param":{"num_deleted":"0","num_feature":"16","num_nodes":"31","size_leaf_vector":"1"}},{"base_weights":[5.533944E-3,3.9095643E-1,-1.1291242E-1,7.9389167E-1,2.7396852E-1,6.7951006E-1,-1.565567E-1,9.266837E-1,-5.6262755E-1,3.1152384E-2,5.390724E-1,-8.477777E-2,1.1274879E0,-3.0986488E-1,-2.8860585E-3,2.6574148E-2,5.997628E-2,-6.747259E-2,4.8685096E-2,-3.5602846E-3,3.8096778E-2,-2.109113E-2,3.2684825E-2,4.149097E-2,-2.3019815E-2,6.5130085E-2,-3.9676916E-2,-7.3994608E-3,-3.8062725E-2,2.1664465E-2,-5.756525E-3],"categories":[],"categories_nodes":[],"categories_segments":[],"categories_sizes":[],"default_left":[0,0,0,0,0,0,0,0,0,0,0,0,0,0,0,0,0,0,0,0,0,0,0,0,0,0,0,0,0,0,0],"id":7,"left_children":[1,3,5,7,9,11,13,15,17,19,21,23,25,27,29,-1,-1,-1,-1,-1,-1,-1,-1,-1,-1,-1,-1,-1,-1,-1,-1],"loss_changes":[4.175648E1,9.917854E0,2.4305038E1,9.141365E0,1.0807861E1,1.2665367E1,1.5641785E1,4.102989E0,7.223834E0,6.698902E0,9.123293E0,5.3622465E0,8.843422E0,2.4173468E1,1.633376E1,0E0,0E0,0E0,0E0,0E0,0E0,0E0,0E0,0E0,0E0,0E0,0E0,0E0,0E0,0E0,0E0],"parents":[2147483647,0,0,1,1,2,2,3,3,4,4,5,5,6,6,7,7,8,8,9,9,10,10,11,11,12,12,13,13,14,14],"right_children":[2,4,6,8,10,12,14,16,18,20,22,24,26,28,30,-1,-1,-1,-1,-1,-1,-1,-1,-1,-1,-1,-1,-1,-1,-1,-1],"split_conditions":[-9.2837796E-2,-8.8430084E-2,-1.2621668E-1,-2.2443425E-2,-8.013833E-3,2.775434E-3,8.9005214E-1,-2.7712816E-2,-2.4054216E-1,1.290198E-1,-2.1691546E0,-2.1693668E0,2.5043724E0,1.3451785E-1,-2.2852288E-3,2.6574148E-2,5.997628E-2,-6.747259E-2,4.8685096E-2,-3.5602846E-3,3.8096778E-2,-2.109113E-2,3.2684825E-2,4.149097E-2,-2.3019815E-2,6.5130085E-2,-3.9676916E-2,-7.3994608E-3,-3.8062725E-2,2.1664465E-2,-5.756525E-3],"split_indices":[4,2,3,1,15,15,6,0,3,3,5,6,6,3,15,0,0,0,0,0,0,0,0,0,0,0,0,0,0,0,0],"split_type":[0,0,0,0,0,0,0,0,0,0,0,0,0,0,0,0,0,0,0,0,0,0,0,0,0,0,0,0,0,0,0],"sum_hessian":[9.127044E2,2.1401205E2,6.986924E2,4.685292E1,1.6715913E2,3.571253E1,6.6297986E2,4.2963966E1,3.888953E0,8.7830345E1,7.932879E1,1.3496729E1,2.2215801E1,3.313725E2,3.3160733E2,1.8751335E1,2.4212631E1,2.6522527E0,1.2367004E0,7.783136E1,9.998986E0,8.168884E0,7.1159904E1,3.5772476E0,9.919481E0,2.0654898E1,1.5609024E0,2.4488176E2,8.649074E1,6.728429E1,2.6432306E2],"tree_param":{"num_deleted":"0","num_feature":"16","num_nodes":"31","size_leaf_vector":"1"}},{"base_weights":[2.6964433E-3,3.9155576E-1,-1.2933831E-1,2.4878143E-1,7.228631E-1,-3.2921392E-1,2.9336207E-2,1.076251E-1,7.3674583E-1,8.52501E-1,2.5674373E-1,-5.4233354E-1,-1.5441135E-1,-1.6955128E-2,7.143006E-1,2.7949527E-2,-2.0028667E-3,4.2556193E-2,1.7090443E-4,4.6477374E-2,4.959962E-3,4.2900827E-2,-8.991822E-3,-4.0949057E-3,-3.2332208E-2,1.0089343E-2,-1.9579573E-2,1.609279E-2,-4.9838047E-3,7.451924E-2,-4.3109735E-4],"categories":[],"categories_nodes":[],"categories_segments":[],"categories_sizes":[],"default_left":[0,0,0,0,0,0,0,0,0,0,0,0,0,0,0,0,0,0,0,0,0,0,0,0,0,0,0,0,0,0,0],"id":8,"left_children":[1,3,5,7,9,11,13,15,17,19,21,23,25,27,29,-1,-1,-1,-1,-1,-1,-1,-1,-1,-1,-1,-1,-1,-1,-1,-1],"loss_changes":[4.774394E1,1.0969639E1,2.2026611E1,1.1371647E1,4.0388412E0,1.13643875E1,1.2311881E1,8.695809E0,3.111412E0,3.082386E0,4.5547485E0,6.5785637E0,1.4460167E1,1.024305E1,1.3803037E1,0E0,0E0,0E0,0E0,0E0,0E0,0E0,0E0,0E0,0E0,0E0,0E0,0E0,0E0,0E0,0E0],"parents":[2147483647,0,0,1,1,2,2,3,3,4,4,5,5,6,6,7,7,8,8,9,9,10,10,11,11,12,12,13,13,14,14],"right_children":[2,4,6,8,10,12,14,16,18,20,22,24,26,28,30,-1,-1,-1,-1,-1,-1,-1,-1,-1,-1,-1,-1,-1,-1,-1,-1],"split_conditions":[-7.99261E-2,-9.146052E-4,4.334985E-2,8.418325E-2,4.0000078E-1,2.6556414E-2,1.3102356E-1,-4.6167E-2,9.000015E-1,7.9999924E-1,-1.6214311E-1,-1.0959928E-2,1.4457907E-1,2.3076923E-1,2.4159352E-1,2.7949527E-2,-2.0028667E-3,4.2556193E-2,1.7090443E-4,4.6477374E-2,4.959962E-3,4.2900827E-2,-8.991822E-3,-4.0949057E-3,-3.2332208E-2,1.0089343E-2,-1.9579573E-2,1.609279E-2,-4.9838047E-3,7.451924E-2,-4.3109735E-4],"split_indices":[4,15,9,9,12,2,9,10,14,14,4,2,4,14,4,0,0,0,0,0,0,0,0,0,0,0,0,0,0,0,0],"split_type":[0,0,0,0,0,0,0,0,0,0,0,0,0,0,0,0,0,0,0,0,0,0,0,0,0,0,0,0,0,0,0],"sum_hessian":[9.2791626E2,2.3470737E2,6.932089E2,1.6524654E2,6.946082E1,3.063004E2,3.869085E2,1.2911674E2,3.61298E1,5.3697464E1,1.5763363E1,1.3707533E2,1.6922507E2,3.633292E2,2.3579306E1,3.1144365E1,9.7972374E1,3.111597E1,5.013827E0,4.8502716E1,5.194747E0,6.224904E0,9.538459E0,2.5648022E1,1.11427315E2,6.770085E1,1.0152422E2,7.073203E1,2.9259717E2,1.0859558E1,1.2719748E1],"tree_param":{"num_deleted":"0","num_feature":"16","num_nodes":"31","size_leaf_vector":"1"}},{"base_weights":[7.7430704E-3,-8.2579575E-2,5.514514E-1,1.5842958E-1,-2.064845E-1,9.071262E-1,3.2981914E-1,-9.053786E-2,4.1377965E-1,1.5946468E-2,-2.737027E-1,5.613543E-1,1.128527E0,7.2824514E-1,1.3896924E-1,2.294805E-2,-1.6299475E-2,1.2241582E-2,3.3255424E-2,-6.9863843E-3,3.4738105E-2,-2.6063373E-2,-9.446645E-3,1.3427374E-2,5.900858E-2,2.2050371E-2,6.2160205E-2,4.3856643E-2,-3.9028649E-3,-1.0275259E-2,3.6036324E-2],"categories":[],"categories_nodes":[],"categories_segments":[],"categories_sizes":[],"default_left":[0,0,0,0,0,0,0,0,0,0,0,0,0,0,0,0,0,0,0,0,0,0,0,0,0,0,0,0,0,0,0],"id":9,"left_children":[1,3,5,7,9,11,13,15,17,19,21,23,25,27,29,-1,-1,-1,-1,-1,-1,-1,-1,-1,-1,-1,-1,-1,-1,-1,-1],"loss_changes":[4.5154957E1,2.358112E1,1.0026257E1,1.7095644E1,7.7977543E0,3.1723785E0,6.1546087E0,1.7833168E1,5.4693375E0,1.2979772E1,8.303015E0,3.5599637E0,1.7632942E0,3.2388601E0,1.1543129E1,0E0,0E0,0E0,0E0,0E0,0E0,0E0,0E0,0E0,0E0,0E0,0E0,0E0,0E0,0E0,0E0],"parents":[2147483647,0,0,1,1,2,2,3,3,4,4,5,5,6,6,7,7,8,8,9,9,10,10,11,11,12,12,13,13,14,14],"right_children":[2,4,6,8,10,12,14,16,18,20,22,24,26,28,30,-1,-1,-1,-1,-1,-1,-1,-1,-1,-1,-1,-1,-1,-1,-1,-1],"split_conditions":[8.533905E-2,-4.756419E-3,-2.7029726E-3,-7.615094E-3,4.8426744E-2,1.0526548E-1,-1.196582E-1,5.046314E-3,5.0175497E-3,1.076435E0,2.7753621E-2,4.1988613E-3,8.947969E-2,5.069498E-2,3.0342028E0,2.294805E-2,-1.6299475E-2,1.2241582E-2,3.3255424E-2,-6.9863843E-3,3.4738105E-2,-2.6063373E-2,-9.446645E-3,1.3427374E-2,5.900858E-2,2.2050371E-2,6.2160205E-2,4.3856643E-2,-3.9028649E-3,-1.0275259E-2,3.6036324E-2],"split_indices":[9,1,10,15,3,11,3,3,15,6,2,1,9,2,5,0,0,0,0,0,0,0,0,0,0,0,0,0,0,0,0],"split_type":[0,0,0,0,0,0,0,0,0,0,0,0,0,0,0,0,0,0,0,0,0,0,0,0,0,0,0,0,0,0,0],"sum_hessian":[9.1755383E2,7.875685E2,1.299854E2,2.6732068E2,5.2024774E2,4.8714905E1,8.127049E1,1.3567876E2,1.3164194E2,1.2090971E2,3.9933804E2,2.0396389E1,2.8318518E1,2.5409271E1,5.5861217E1,4.041309E1,9.526566E1,7.990347E1,5.173847E1,9.9E1,2.1909708E1,1.0054722E2,2.9879083E2,1.4818611E1,5.577777E0,4.7409453E0,2.3577572E1,2.1374516E1,4.0347557E0,3.5492115E1,2.0369104E1],"tree_param":{"num_deleted":"0","num_feature":"16","num_nodes":"31","size_leaf_vector":"1"}},{"base_weights":[-3.7820567E-4,-8.500647E-2,5.077639E-1,2.3245549E-1,-1.7979334E-1,9.396799E-1,2.3036726E-1,2.3815209E-2,6.143537E-1,4.9253175E-1,-2.0800802E-1,7.541877E-1,1.364922E0,8.385472E-2,7.304455E-1,4.0942438E-2,-2.971071E-3,3.7686635E-2,-4.0688107E-4,4.8559297E-2,-8.610999E-3,-1.1552642E-2,2.2251077E-2,4.1618217E-2,-4.72055E-2,7.077252E-2,1.7393751E-2,-8.529906E-3,2.6834277E-2,6.801616E-2,-1.8907322E-2],"categories":[],"categories_nodes":[],"categories_segments":[],"categories_sizes":[],"default_left":[0,0,0,0,0,0,0,0,0,0,0,0,0,0,0,0,0,0,0,0,0,0,0,0,0,0,0,0,0,0,0],"id":10,"left_children":[1,3,5,7,9,11,13,15,17,19,21,23,25,27,29,-1,-1,-1,-1,-1,-1,-1,-1,-1,-1,-1,-1,-1,-1,-1,-1],"loss_changes":[3.9604816E1,2.3798367E1,1.5537037E1,1.44837885E1,1.16458435E1,3.001011E0,5.9019337E0,7.904575E0,5.5803375E0,8.060083E0,8.902241E0,5.806053E0,2.4165154E-1,7.4747167E0,1.3301554E1,0E0,0E0,0E0,0E0,0E0,0E0,0E0,0E0,0E0,0E0,0E0,0E0,0E0,0E0,0E0,0E0],"parents":[2147483647,0,0,1,1,2,2,3,3,4,4,5,5,6,6,7,7,8,8,9,9,10,10,11,11,12,12,13,13,14,14],"right_children":[2,4,6,8,10,12,14,16,18,20,22,24,26,28,30,-1,-1,-1,-1,-1,-1,-1,-1,-1,-1,-1,-1,-1,-1,-1,-1],"split_conditions":[8.533905E-2,-7.99261E-2,0E0,-3.101555E-3,-3.2256294E-2,1.3102356E-1,1.3805279E-1,-3.1410377E-2,1.02164246E-1,-4.705835E-3,7.142872E-2,4.7623355E-2,5.555556E-1,1.13989934E-1,3.705811E-1,4.0942438E-2,-2.971071E-3,3.7686635E-2,-4.0688107E-4,4.8559297E-2,-8.610999E-3,-1.1552642E-2,2.2251077E-2,4.1618217E-2,-4.72055E-2,7.077252E-2,1.7393751E-2,-8.529906E-3,2.6834277E-2,6.801616E-2,-1.8907322E-2],"split_indices":[9,4,10,15,10,9,9,15,3,8,10,15,12,3,4,0,0,0,0,0,0,0,0,0,0,0,0,0,0,0,0],"split_type":[0,0,0,0,0,0,0,0,0,0,0,0,0,0,0,0,0,0,0,0,0,0,0,0,0,0,0,0,0,0,0],"sum_hessian":[9.189703E2,7.8848517E2,1.3048514E2,1.8095956E2,6.075256E2,5.009618E1,8.038896E1,1.1771265E2,6.3246918E1,2.3805687E1,5.837199E2,3.6812138E1,1.3284042E1,6.307653E1,1.731243E1,1.0318456E1,1.0739419E2,5.1504063E1,1.1742855E1,1.3572116E1,1.0233571E1,5.6444727E2,1.9272642E1,3.5679607E1,1.1325328E0,1.2282125E1,1.0019175E0,4.078311E1,2.2293419E1,1.0895036E1,6.417393E0],"tree_param":{"num_deleted":"0","num_feature":"16","num_nodes":"31","size_leaf_vector":"1"}},{"base_weights":[7.92018E-3,3.7285483E-1,-1.11342475E-1,2.7274603E-1,7.927669E-1,-1.8059698E-1,3.5156855E-1,4.967139E-1,9.693303E-2,8.840613E-1,-3.217739E-2,-3.2108054E-1,-2.3490958E-2,5.2939594E-1,-2.1154481E-1,-4.3486293E-2,2.7185678E-2,4.9557324E-2,-1.2467279E-3,1.937299E-2,5.8010902E-2,-8.257425E-3,-3.5865907E-2,1.163541E-2,-1.1988732E-2,3.0705033E-2,-2.6939554E-2,-5.08851E-2,2.5850398E-2],"categories":[],"categories_nodes":[],"categories_segments":[],"categories_sizes":[],"default_left":[0,0,0,0,0,0,0,0,0,0,0,0,0,0,0,0,0,0,0,0,0,0,0,0,0,0,0,0,0],"id":11,"left_children":[1,3,5,7,9,11,13,15,17,19,-1,21,23,25,27,-1,-1,-1,-1,-1,-1,-1,-1,-1,-1,-1,-1,-1,-1],"loss_changes":[3.9414387E1,9.160223E0,2.1946451E1,7.1040983E0,6.1307335E0,1.3111811E1,9.041185E0,5.5873375E0,1.1249277E1,5.077425E0,0E0,1.926588E1,1.56646185E1,6.4884644E0,1.3515177E1,0E0,0E0,0E0,0E0,0E0,0E0,0E0,0E0,0E0,0E0,0E0,0E0,0E0,0E0],"parents":[2147483647,0,0,1,1,2,2,3,3,4,4,5,5,6,6,7,7,8,8,9,9,11,11,12,12,13,13,14,14],"right_children":[2,4,6,8,10,12,14,16,18,20,-1,22,24,26,28,-1,-1,-1,-1,-1,-1,-1,-1,-1,-1,-1,-1,-1,-1],"split_conditions":[-7.99261E-2,5.6968755E-3,8.533905E-2,-6.3471325E-2,-2.8961354E-3,9.010502E-1,4.247138E-2,-1.4837934E-1,-2.8744321E-2,8.3333336E-2,-3.217739E-2,1.3451785E-1,1.857416E-1,6.1538553E-1,1.1807801E-1,-4.3486293E-2,2.7185678E-2,4.9557324E-2,-1.2467279E-3,1.937299E-2,5.8010902E-2,-8.257425E-3,-3.5865907E-2,1.163541E-2,-1.1988732E-2,3.0705033E-2,-2.6939554E-2,-5.08851E-2,2.5850398E-2],"split_indices":[4,15,9,7,1,6,15,1,15,11,0,3,4,11,9,0,0,0,0,0,0,0,0,0,0,0,0,0,0],"split_type":[0,0,0,0,0,0,0,0,0,0,0,0,0,0,0,0,0,0,0,0,0,0,0,0,0,0,0,0,0],"sum_hessian":[9.036437E2,2.2205276E2,6.815909E2,1.8063754E2,4.141522E1,5.934211E2,8.81698E1,7.8636894E1,1.0200065E2,3.930164E1,2.1135793E0,3.1273288E2,2.806882E2,6.705436E1,2.1115437E1,2.0327578E0,7.660413E1,1.1378319E1,9.062233E1,1.4903794E1,2.4397844E1,2.2543419E2,8.72987E1,1.2845303E2,1.5223517E2,6.252164E1,4.532719E0,9.835449E0,1.1279988E1],"tree_param":{"num_deleted":"0","num_feature":"16","num_nodes":"29","size_leaf_vector":"1"}},{"base_weights":[2.7349576E-2,3.3130735E-1,-8.480802E-2,2.571033E-1,9.68057E-1,-2.5150165E-1,6.2898755E-2,8.073876E-1,2.0124131E-1,1.0415949E0,3.8086754E-4,-4.9680847E-1,-4.52343E-2,2.5366253E-1,-7.035125E-2,4.6756227E-2,-1.9660687E-2,-5.7710465E-2,1.1399162E-2,5.547592E-2,1.7150637E-2,3.7528425E-3,-3.1525984E-2,1.4079265E-2,-1.1185461E-2,4.3769713E-2,8.957839E-3,1.4914544E-2,-7.4507045E-3],"categories":[],"categories_nodes":[],"categories_segments":[],"categories_sizes":[],"default_left":[0,0,0,0,0,0,0,0,0,0,0,0,0,0,0,0,0,0,0,0,0,0,0,0,0,0,0,0,0],"id":12,"left_children":[1,3,5,7,9,11,13,15,17,19,-1,21,23,25,27,-1,-1,-1,-1,-1,-1,-1,-1,-1,-1,-1,-1,-1,-1],"loss_changes":[3.0821306E1,1.1264084E1,1.6280876E1,6.5878267E0,1.7627392E0,1.569105E1,8.941157E0,3.4204483E0,7.537554E0,7.240524E-1,0E0,1.0886337E1,9.967259E0,6.540658E0,6.060506E0,0E0,0E0,0E0,0E0,0E0,0E0,0E0,0E0,0E0,0E0,0E0,0E0,0E0,0E0],"parents":[2147483647,0,0,1,1,2,2,3,3,4,4,5,5,6,6,7,7,8,8,9,9,11,11,12,12,13,13,14,14],"right_children":[2,4,6,8,10,12,14,16,18,20,-1,22,24,26,28,-1,-1,-1,-1,-1,-1,-1,-1,-1,-1,-1,-1,-1,-1],"split_conditions":[-1.3806641E-2,1.10008664E-1,4.3704506E-2,-3.3311117E-1,6.6666776E-1,2.6556414E-2,9.345145E-3,-4.4748995E-2,-1.3869752E-1,-5.3588416E-2,3.8086754E-4,2.3501383E-2,7.7744653E-3,-2.0573026E-2,-4.9999678E-1,4.6756227E-2,-1.9660687E-2,-5.7710465E-2,1.1399162E-2,5.547592E-2,1.7150637E-2,3.7528425E-3,-3.1525984E-2,1.4079265E-2,-1.1185461E-2,4.3769713E-2,8.957839E-3,1.4914544E-2,-7.4507045E-3],"split_indices":[2,9,9,4,12,2,10,2,2,2,0,9,1,15,13,0,0,0,0,0,0,0,0,0,0,0,0,0,0],"split_type":[0,0,0,0,0,0,0,0,0,0,0,0,0,0,0,0,0,0,0,0,0,0,0,0,0,0,0,0,0],"sum_hessian":[9.0226044E2,2.4266397E2,6.5959644E2,2.1859378E2,2.4070196E1,3.0955136E2,3.500451E2,1.8905598E1,1.9968819E2,2.2279804E1,1.7903931E0,1.4075162E2,1.6879973E2,1.435837E2,2.064614E2,1.7287436E1,1.6181618E0,3.0477493E0,1.9664044E2,1.9769371E1,2.510433E0,2.6756454E1,1.1399516E2,5.941764E1,1.09382095E2,1.421487E1,1.2936884E2,3.5817196E1,1.706442E2],"tree_param":{"num_deleted":"0","num_feature":"16","num_nodes":"29","size_leaf_vector":"1"}},{"base_weights":[6.68385E-3,2.595859E-1,-1.1044683E-1,1.7271532E-1,8.559895E-1,-2.9815876E-1,3.5716083E-2,2.2142361E-1,-6.180597E-1,4.6007934E-1,1.0559515E0,-1.721032E-1,-5.4734355E-1,1.4565141E-2,6.1951727E-2,8.657746E-3,4.304031E-2,-3.9059136E-2,2.2606714E-2,3.2887233E-3,4.8845153E-2,6.484687E-2,1.9857591E-2,5.8989365E-2,-1.2609531E-2,-3.189152E-2,3.3782136E-2,1.1583119E-2,-4.794152E-3],"categories":[],"categories_nodes":[],"categories_segments":[],"categories_sizes":[],"default_left":[0,0,0,0,0,0,0,0,0,0,0,0,0,0,0,0,0,0,0,0,0,0,0,0,0,0,0,0,0],"id":13,"left_children":[1,3,5,7,9,11,13,15,17,19,21,23,25,27,-1,-1,-1,-1,-1,-1,-1,-1,-1,-1,-1,-1,-1,-1,-1],"loss_changes":[2.695128E1,1.4772818E1,1.7072481E1,9.86735E0,2.3928204E0,8.460487E0,8.903147E0,7.217903E0,2.9581122E0,2.7835164E0,3.197935E0,2.0036613E1,1.05048485E1,8.306058E0,0E0,0E0,0E0,0E0,0E0,0E0,0E0,0E0,0E0,0E0,0E0,0E0,0E0,0E0,0E0],"parents":[2147483647,0,0,1,1,2,2,3,3,4,4,5,5,6,6,7,7,8,8,9,9,10,10,11,11,12,12,13,13],"right_children":[2,4,6,8,10,12,14,16,18,20,22,24,26,28,-1,-1,-1,-1,-1,-1,-1,-1,-1,-1,-1,-1,-1,-1,-1],"split_conditions":[-1.1464987E-2,9.040639E-2,4.3704506E-2,7.500602E-1,-2.5492834E-2,1.3892382E-1,1.772037E-1,2.4449742E-1,2.030953E0,-1.3869752E-1,1.0585157E0,1.9429563E-2,1.5838651E-2,-7.8131706E-2,6.1951727E-2,8.657746E-3,4.304031E-2,-3.9059136E-2,2.2606714E-2,3.2887233E-3,4.8845153E-2,6.484687E-2,1.9857591E-2,5.8989365E-2,-1.2609531E-2,-3.189152E-2,3.3782136E-2,1.1583119E-2,-4.794152E-3],"split_indices":[10,9,9,13,15,3,9,3,6,2,6,9,15,6,0,0,0,0,0,0,0,0,0,0,0,0,0,0,0],"split_type":[0,0,0,0,0,0,0,0,0,0,0,0,0,0,0,0,0,0,0,0,0,0,0,0,0,0,0,0,0],"sum_hessian":[9.07854E2,2.869884E2,6.208656E2,2.5162672E2,3.5361687E1,2.7134576E2,3.4951984E2,2.3770512E2,1.3921604E1,1.2974315E1,2.2387373E1,1.8131451E2,9.003126E1,3.4447702E2,5.04283E0,2.2220135E2,1.5503757E1,1.2314619E1,1.6069858E0,7.998906E0,4.975409E0,1.56822405E1,6.7051334E0,9.372569E0,1.7194196E2,8.427439E1,5.75687E0,1.1578744E2,2.2868958E2],"tree_param":{"num_deleted":"0","num_feature":"16","num_nodes":"29","size_leaf_vector":"1"}},{"base_weights":[7.008536E-3,3.1788152E-1,-1.0814254E-1,4.0367618E-1,-3.7250638E-1,-1.40247E-1,6.104678E-1,8.541195E-1,3.310899E-1,4.8954945E-2,-5.791132E-1,1.13366894E-1,-2.0885533E-1,-6.167254E-1,8.03424E-1,-2.1875394E-3,5.0258357E-2,9.210493E-3,2.83033E-2,-4.0482465E-2,1.3912796E-2,1.0574628E-3,4.5824092E-2,1.6804548E-2,-1.1665706E-2,2.300349E-2,-5.6718733E-2,6.462268E-2,1.8303877E-2],"categories":[],"categories_nodes":[],"categories_segments":[],"categories_sizes":[],"default_left":[0,0,0,0,0,0,0,0,0,0,0,0,0,0,0,0,0,0,0,0,0,0,0,0,0,0,0,0,0],"id":14,"left_children":[1,3,5,7,9,11,13,15,17,-1,19,21,23,25,27,-1,-1,-1,-1,-1,-1,-1,-1,-1,-1,-1,-1,-1,-1],"loss_changes":[3.2578262E1,1.4720188E1,1.5407576E1,6.8864975E0,8.304861E0,1.1099575E1,7.2651186E0,4.08515E0,6.469599E0,0E0,5.1001673E0,1.0066504E1,6.760931E0,3.0023744E0,4.9033756E0,0E0,0E0,0E0,0E0,0E0,0E0,0E0,0E0,0E0,0E0,0E0,0E0,0E0,0E0],"parents":[2147483647,0,0,1,1,2,2,3,3,4,4,5,5,6,6,7,7,8,8,10,10,11,11,12,12,13,13,14,14],"right_children":[2,4,6,8,10,12,14,16,18,-1,20,22,24,26,28,-1,-1,-1,-1,-1,-1,-1,-1,-1,-1,-1,-1,-1,-1],"split_conditions":[-1.3806641E-2,9.5454544E-1,3.132576E0,-6.7433625E-2,-4.297726E0,2.4976191E-1,1.16151534E-1,-4.4592544E-1,-2.5013979E-3,4.8954945E-2,8.0642905E-3,2.15809E0,-7.464945E-1,9.52381E-2,5.2269407E-2,-2.1875394E-3,5.0258357E-2,9.210493E-3,2.83033E-2,-4.0482465E-2,1.3912796E-2,1.0574628E-3,4.5824092E-2,1.6804548E-2,-1.1665706E-2,2.300349E-2,-5.6718733E-2,6.462268E-2,1.8303877E-2],"split_indices":[2,14,6,1,6,14,2,7,0,0,15,6,6,11,1,0,0,0,0,0,0,0,0,0,0,0,0,0,0],"split_type":[0,0,0,0,0,0,0,0,0,0,0,0,0,0,0,0,0,0,0,0,0,0,0,0,0,0,0,0,0],"sum_hessian":[9.081141E2,2.449805E2,6.6313354E2,2.1827118E2,2.670932E1,6.35545E2,2.7588617E1,2.8797522E1,1.8947365E2,3.045693E0,2.3663626E1,1.3518283E2,5.0036212E2,3.450077E0,2.413854E1,4.24923E0,2.4548292E1,1.1769082E2,7.178283E1,1.8692972E1,4.9706535E0,1.2217987E2,1.3002964E1,2.094575E1,4.7941638E2,1.156208E0,2.2938693E0,1.0472852E1,1.36656885E1],"tree_param":{"num_deleted":"0","num_feature":"16","num_nodes":"29","size_leaf_vector":"1"}},{"base_weights":[-1.5314381E-2,-9.6759155E-2,4.0502205E-1,1.2502885E-1,-1.9768246E-1,1.0426468E0,3.174719E-1,1.6297875E-2,4.2152417E-1,-2.2922531E-1,3.4200272E-1,-6.560014E-3,1.1328541E0,6.350388E-1,1.3773626E-1,1.9198226E-2,-4.911085E-3,7.365053E-2,1.4742928E-2,-2.6931558E-3,-1.7748661E-2,3.3159036E-2,-1.3330929E-2,6.090934E-2,-1.0029471E-3,2.2546187E-2,6.487082E-2,-4.4669122E-3,2.2095794E-2],"categories":[],"categories_nodes":[],"categories_segments":[],"categories_sizes":[],"default_left":[0,0,0,0,0,0,0,0,0,0,0,0,0,0,0,0,0,0,0,0,0,0,0,0,0,0,0,0,0],"id":15,"left_children":[1,3,5,7,9,11,13,15,17,19,21,-1,23,25,27,-1,-1,-1,-1,-1,-1,-1,-1,-1,-1,-1,-1,-1,-1],"loss_changes":[3.1372416E1,1.7204353E1,7.9728336E0,7.7509522E0,9.0644455E0,2.0038967E0,7.4599266E0,7.4950047E0,8.160082E0,1.0991606E1,5.9531164E0,0E0,1.6353512E0,5.209408E0,5.959992E0,0E0,0E0,0E0,0E0,0E0,0E0,0E0,0E0,0E0,0E0,0E0,0E0,0E0,0E0],"parents":[2147483647,0,0,1,1,2,2,3,3,4,4,5,5,6,6,7,7,8,8,9,9,10,10,12,12,13,13,14,14],"right_children":[2,4,6,8,10,12,14,16,18,20,22,-1,24,26,28,-1,-1,-1,-1,-1,-1,-1,-1,-1,-1,-1,-1,-1,-1],"split_conditions":[8.017524E-2,-1.1464987E-2,-7.777778E-1,5.207423E-3,6.451612E-2,-4.6271175E-2,-2.7029726E-3,7.143013E-2,-7.392715E-2,9.049454E-2,2.121997E-1,-6.560014E-3,3.5551804E-1,7.024394E-2,4.730157E-2,1.9198226E-2,-4.911085E-3,7.365053E-2,1.4742928E-2,-2.6931558E-3,-1.7748661E-2,3.3159036E-2,-1.3330929E-2,6.090934E-2,-1.0029471E-3,2.2546187E-2,6.487082E-2,-4.4669122E-3,2.2095794E-2],"split_indices":[9,10,13,15,10,15,10,14,3,3,3,0,4,3,10,0,0,0,0,0,0,0,0,0,0,0,0,0,0],"split_type":[0,0,0,0,0,0,0,0,0,0,0,0,0,0,0,0,0,0,0,0,0,0,0,0,0,0,0,0,0],"sum_hessian":[9.142608E2,7.6651074E2,1.4775003E2,2.3964046E2,5.268703E2,1.6520761E1,1.3122926E2,1.7611165E2,6.352882E1,4.9832034E2,2.8549961E1,1.1465509E0,1.5374211E1,4.651348E1,8.471578E1,4.1267845E1,1.348438E2,5.687357E0,5.784146E1,2.0870224E2,2.896181E2,1.8629349E1,9.920612E0,1.4261996E1,1.1122152E0,3.771183E1,8.80165E0,4.891003E1,3.580575E1],"tree_param":{"num_deleted":"0","num_feature":"16","num_nodes":"29","size_leaf_vector":"1"}},{"base_weights":[6.369236E-3,2.5078884E-1,-1.02532715E-1,7.1168965E-1,1.6627172E-1,2.4859421E-1,-1.6080591E-1,-2.569367E-1,8.244727E-1,-1.5849064E-3,3.844491E-1,3.438716E-1,-9.7911125E-1,-3.579109E-1,-8.897674E-3,4.6245586E-2,-5.31752E-2,4.855645E-2,-1.10853305E-2,-3.7769303E-3,4.2750847E-2,3.9766976E-3,3.0696368E-2,1.28282895E-2,7.9207696E-2,-6.182768E-2,7.7268304E-3,-2.2926748E-2,1.684743E-2,1.127287E-2,-9.564773E-3],"categories":[],"categories_nodes":[],"categories_segments":[],"categories_sizes":[],"default_left":[0,0,0,0,0,0,0,0,0,0,0,0,0,0,0,0,0,0,0,0,0,0,0,0,0,0,0,0,0,0,0],"id":16,"left_children":[1,3,5,7,9,11,13,15,17,19,21,23,25,27,29,-1,-1,-1,-1,-1,-1,-1,-1,-1,-1,-1,-1,-1,-1,-1,-1],"loss_changes":[2.4124836E1,1.0763412E1,1.2869787E1,4.9074516E0,8.693548E0,1.0822433E1,1.6117092E1,5.9835553E0,6.1587353E0,8.626161E0,7.1733675E0,8.681503E0,2.151072E0,1.6537172E1,1.3083967E1,0E0,0E0,0E0,0E0,0E0,0E0,0E0,0E0,0E0,0E0,0E0,0E0,0E0,0E0,0E0,0E0],"parents":[2147483647,0,0,1,1,2,2,3,3,4,4,5,5,6,6,7,7,8,8,9,9,10,10,11,11,12,12,13,13,14,14],"right_children":[2,4,6,8,10,12,14,16,18,20,22,24,26,28,30,-1,-1,-1,-1,-1,-1,-1,-1,-1,-1,-1,-1,-1,-1,-1,-1],"split_conditions":[3.0193707E-2,-5.4400165E-2,-4.260556E-1,-3.339787E-1,-1.926061E-1,2.0825136E-2,9.1830844E-1,-1.1043859E-1,-4.548632E-3,1.0797797E-1,-4.3517243E-2,2.0180593E-1,2.5050988E-2,4.4943754E-2,4.11534E-3,4.6245586E-2,-5.31752E-2,4.855645E-2,-1.10853305E-2,-3.7769303E-3,4.2750847E-2,3.9766976E-3,3.0696368E-2,1.28282895E-2,7.9207696E-2,-6.182768E-2,7.7268304E-3,-2.2926748E-2,1.684743E-2,1.127287E-2,-9.564773E-3],"split_indices":[3,1,5,3,5,15,6,1,3,9,3,3,1,10,10,0,0,0,0,0,0,0,0,0,0,0,0,0,0,0,0],"split_type":[0,0,0,0,0,0,0,0,0,0,0,0,0,0,0,0,0,0,0,0,0,0,0,0,0,0,0,0,0,0,0],"sum_hessian":[9.043771E2,2.7834854E2,6.260285E2,4.198257E1,2.3636597E2,8.864278E1,5.3738574E2,4.245171E0,3.77374E1,1.341496E2,1.02216385E2,8.292704E1,5.7157326E0,2.3330727E2,3.040785E2,1.662465E0,2.5827062E0,3.3160595E1,4.576806E0,1.2432772E2,9.821869E0,4.4471825E1,5.774456E1,7.860103E1,4.3260136E0,4.583975E0,1.1317576E0,2.0409233E2,2.9214937E1,1.3298093E2,1.7109756E2],"tree_param":{"num_deleted":"0","num_feature":"16","num_nodes":"31","size_leaf_vector":"1"}},{"base_weights":[8.294831E-3,-5.6732535E-2,3.5692608E-1,1.11870214E-1,-1.6479047E-1,4.5236528E-1,-7.705327E-2,-1.3043997E-1,3.3717588E-1,-2.8996146E-1,-5.070918E-2,5.045982E-1,-5.645809E-1,3.841021E-1,-2.4208964E-1,8.158586E-3,-1.7076634E-2,3.2485224E-2,9.636275E-3,-1.9804237E-2,8.2605E-3,4.7642432E-2,-4.7397316E-3,4.547045E-2,1.971509E-2,2.3451857E-2,-4.621471E-2,4.229962E-2,-1.1430974E-2,-6.639581E-2,-4.2601503E-3],"categories":[],"categories_nodes":[],"categories_segments":[],"categories_sizes":[],"default_left":[0,0,0,0,0,0,0,0,0,0,0,0,0,0,0,0,0,0,0,0,0,0,0,0,0,0,0,0,0,0,0],"id":17,"left_children":[1,3,5,7,9,11,13,15,17,19,21,23,25,27,29,-1,-1,-1,-1,-1,-1,-1,-1,-1,-1,-1,-1,-1,-1,-1,-1],"loss_changes":[2.0582092E1,1.3960756E1,5.945938E0,1.6394493E1,6.6506844E0,6.506792E0,2.1160762E0,9.044115E0,6.8935146E0,1.0806265E1,1.0948143E1,4.6394157E0,2.7366095E0,2.2855487E0,3.3261862E0,0E0,0E0,0E0,0E0,0E0,0E0,0E0,0E0,0E0,0E0,0E0,0E0,0E0,0E0,0E0,0E0],"parents":[2147483647,0,0,1,1,2,2,3,3,4,4,5,5,6,6,7,7,8,8,9,9,10,10,11,11,12,12,13,13,14,14],"right_children":[2,4,6,8,10,12,14,16,18,20,22,24,26,28,30,-1,-1,-1,-1,-1,-1,-1,-1,-1,-1,-1,-1,-1,-1,-1,-1],"split_conditions":[8.0929264E-2,-1.1971174E-3,1E0,-7.615094E-3,4.334985E-2,4.8562482E-2,-2.117533E0,-1.0267588E-2,-8.255765E-1,1.4423081E-2,4.4453427E-2,-6.2151093E-2,-2.2911985E0,4.1666508E-1,-2.220875E0,8.158586E-3,-1.7076634E-2,3.2485224E-2,9.636275E-3,-1.9804237E-2,8.2605E-3,4.7642432E-2,-4.7397316E-3,4.547045E-2,1.971509E-2,2.3451857E-2,-4.621471E-2,4.229962E-2,-1.1430974E-2,-6.639581E-2,-4.2601503E-3],"split_indices":[9,1,14,15,9,0,6,0,5,8,9,1,6,12,5,0,0,0,0,0,0,0,0,0,0,0,0,0,0,0,0],"split_type":[0,0,0,0,0,0,0,0,0,0,0,0,0,0,0,0,0,0,0,0,0,0,0,0,0,0,0,0,0,0,0],"sum_hessian":[9.059839E2,7.642684E2,1.4171552E2,2.9849362E2,4.6577475E2,1.1613349E2,2.5582027E1,1.4402243E2,1.5447119E2,2.2135757E2,2.4441718E2,1.10939186E2,5.194305E0,6.3924494E0,1.9189577E1,6.033236E1,8.369007E1,4.772248E1,1.0674871E2,1.7961104E2,4.174654E1,9.417783E0,2.3499939E2,2.2203306E1,8.873588E1,1.2625401E0,3.9317648E0,3.427769E0,2.9646807E0,1.4802765E0,1.7709301E1],"tree_param":{"num_deleted":"0","num_feature":"16","num_nodes":"31","size_leaf_vector":"1"}},{"base_weights":[5.356962E-3,3.176232E-1,-8.6508915E-2,1.7056897E-1,5.781791E-1,4.9475214E-1,-1.1668267E-1,5.095627E-1,-1.8767457E-2,9.853932E-1,3.4628788E-1,-1.731803E-1,8.9520055E-1,-2.5382125E-1,2.4895633E-2,4.707415E-2,9.834123E-3,9.266084E-3,-2.021711E-2,1.1548197E-2,6.375407E-2,3.9046988E-2,-5.849917E-4,3.736546E-2,-2.8848732E-2,5.4438185E-2,-2.3147753E-2,-5.48719E-3,-3.1787492E-2,1.499021E-2,-5.417669E-3],"categories":[],"categories_nodes":[],"categories_segments":[],"categories_sizes":[],"default_left":[0,0,0,0,0,0,0,0,0,0,0,0,0,0,0,0,0,0,0,0,0,0,0,0,0,0,0,0,0,0,0],"id":18,"left_children":[1,3,5,7,9,11,13,15,17,19,21,23,25,27,29,-1,-1,-1,-1,-1,-1,-1,-1,-1,-1,-1,-1,-1,-1,-1,-1],"loss_changes":[2.5798588E1,7.7342052E0,1.2246155E1,8.487894E0,6.5835876E0,9.378947E0,1.2849011E1,6.2169027E0,6.8204203E0,5.4022503E0,7.519493E0,5.54698E0,6.214466E0,1.8424053E1,1.1987823E1,0E0,0E0,0E0,0E0,0E0,0E0,0E0,0E0,0E0,0E0,0E0,0E0,0E0,0E0,0E0,0E0],"parents":[2147483647,0,0,1,1,2,2,3,3,4,4,5,5,6,6,7,7,8,8,9,9,10,10,11,11,12,12,13,13,14,14],"right_children":[2,4,6,8,10,12,14,16,18,20,22,24,26,28,30,-1,-1,-1,-1,-1,-1,-1,-1,-1,-1,-1,-1,-1,-1,-1,-1],"split_conditions":[-9.2837796E-2,-3.8879088E-3,-1.2621668E-1,7.692308E-2,4.185469E-2,2.775434E-3,9.1830844E-1,-4.4315904E-2,-7.962724E-1,-1.7118718E-2,-2.9854955E-2,-2.1693668E0,2.3056749E-1,1.3451785E-1,1.5139335E-1,4.707415E-2,9.834123E-3,9.266084E-3,-2.021711E-2,1.1548197E-2,6.375407E-2,3.9046988E-2,-5.849917E-4,3.736546E-2,-2.8848732E-2,5.4438185E-2,-2.3147753E-2,-5.48719E-3,-3.1787492E-2,1.499021E-2,-5.417669E-3],"split_indices":[4,15,3,12,9,15,6,10,5,0,10,6,4,3,4,0,0,0,0,0,0,0,0,0,0,0,0,0,0,0,0],"split_type":[0,0,0,0,0,0,0,0,0,0,0,0,0,0,0,0,0,0,0,0,0,0,0,0,0,0,0,0,0,0,0],"sum_hessian":[8.9736725E2,2.034277E2,6.939395E2,1.3109442E2,7.233328E1,3.3485474E1,6.6045404E2,4.6373886E1,8.472053E1,2.506622E1,4.7267063E1,1.2763681E1,2.0721792E1,3.3508453E2,3.253695E2,1.8637028E1,2.7736858E1,5.573743E1,2.8983099E1,7.453221E0,1.7612999E1,2.0814093E1,2.6452969E1,3.6324444E0,9.131237E0,1.8310541E1,2.4112518E0,2.4423682E2,9.084773E1,1.0581358E2,2.1955594E2],"tree_param":{"num_deleted":"0","num_feature":"16","num_nodes":"31","size_leaf_vector":"1"}},{"base_weights":[-1.071896E-2,6.028882E-1,-4.2637356E-2,1.5538627E-1,9.8785925E-1,8.114111E-1,-5.840987E-2,-6.6975063E-1,4.7700974E-1,1.956621E-1,1.166084E0,-3.1572573E-2,1.0728674E0,-9.428417E-2,2.2919838E-1,-2.8721418E-3,-5.5859555E-2,6.8752775E-3,5.7823937E-2,4.1096464E-2,-1.9962708E-2,6.2359627E-2,-6.701165E-3,3.8093623E-2,-2.8665725E-2,6.1169118E-2,5.0576165E-4,7.5020746E-4,-9.9409325E-3,3.0720053E-2,8.1040664E-4],"categories":[],"categories_nodes":[],"categories_segments":[],"categories_sizes":[],"default_left":[0,0,0,0,0,0,0,0,0,0,0,0,0,0,0,0,0,0,0,0,0,0,0,0,0,0,0,0,0,0,0],"id":19,"left_children":[1,3,5,7,9,11,13,15,17,19,21,23,25,27,29,-1,-1,-1,-1,-1,-1,-1,-1,-1,-1,-1,-1,-1,-1,-1,-1],"loss_changes":[1.7873154E1,7.620262E0,1.1728207E1,6.1722317E0,3.1702843E0,3.5142765E0,8.815937E0,1.7443845E0,3.6363246E0,2.4228854E0,2.2179222E0,2.4612052E0,1.9201679E0,8.66876E0,7.7692685E0,0E0,0E0,0E0,0E0,0E0,0E0,0E0,0E0,0E0,0E0,0E0,0E0,0E0,0E0,0E0,0E0],"parents":[2147483647,0,0,1,1,2,2,3,3,4,4,5,5,6,6,7,7,8,8,9,9,10,10,11,11,12,12,13,13,14,14],"right_children":[2,4,6,8,10,12,14,16,18,20,22,24,26,28,30,-1,-1,-1,-1,-1,-1,-1,-1,-1,-1,-1,-1,-1,-1,-1,-1],"split_conditions":[-8.6163335E-2,-1.3869752E-1,-6.862758E-1,9.133454E-2,6.183136E-2,3.820394E-2,8.533905E-2,8.533905E-2,3.3333224E-1,1.666672E-1,7.692308E-1,6.4423396E-3,2.8571507E-1,8.364868E-3,9.345145E-3,-2.8721418E-3,-5.5859555E-2,6.8752775E-3,5.7823937E-2,4.1096464E-2,-1.9962708E-2,6.2359627E-2,-6.701165E-3,3.8093623E-2,-2.8665725E-2,6.1169118E-2,5.0576165E-4,7.5020746E-4,-9.9409325E-3,3.0720053E-2,8.1040664E-4],"split_indices":[2,2,7,9,9,9,9,9,11,11,13,2,11,1,10,0,0,0,0,0,0,0,0,0,0,0,0,0,0,0,0],"split_type":[0,0,0,0,0,0,0,0,0,0,0,0,0,0,0,0,0,0,0,0,0,0,0,0,0,0,0,0,0,0,0],"sum_hessian":[9.1026483E2,4.412408E1,8.6614075E2,2.1053955E1,2.3070124E1,1.4791065E1,8.513497E2,5.601274E0,1.5452682E1,4.622273E0,1.8447851E1,3.7096634E0,1.1081402E1,7.575324E2,9.3817276E1,2.841354E0,2.7599201E0,1.1105879E1,4.3468027E0,2.0659075E0,2.5563653E0,1.7402857E1,1.0449929E0,1.3402989E0,2.3693645E0,9.574275E0,1.5071265E0,3.7076398E2,3.8676846E2,3.2733177E1,6.10841E1],"tree_param":{"num_deleted":"0","num_feature":"16","num_nodes":"31","size_leaf_vector":"1"}},{"base_weights":[-3.4384453E-3,2.3658977E-1,-8.118234E-2,8.3679184E-2,5.107676E-1,-1.6769718E-1,1.0488193E-1,5.736733E-1,-9.218813E-3,1.7809737E-1,7.515631E-1,-2.7543578E-1,2.4874061E-1,2.286281E-1,-2.3964302E-1,3.9364412E-2,-9.116524E-3,3.7131846E-2,-3.928513E-3,1.91703E-2,-2.3904406E-2,5.231273E-2,1.6796062E-2,8.656724E-3,-1.702838E-2,1.8510759E-2,-1.4212787E-2,2.539863E-2,5.6686727E-3,-3.09213E-2,1.5662516E-2],"categories":[],"categories_nodes":[],"categories_segments":[],"categories_sizes":[],"default_left":[0,0,0,0,0,0,0,0,0,0,0,0,0,0,0,0,0,0,0,0,0,0,0,0,0,0,0,0,0,0,0],"id":20,"left_children":[1,3,5,7,9,11,13,15,17,19,21,23,25,27,29,-1,-1,-1,-1,-1,-1,-1,-1,-1,-1,-1,-1,-1,-1,-1,-1],"loss_changes":[1.6867483E1,9.228746E0,1.100767E1,6.522088E0,6.1929665E0,2.099506E1,9.319442E0,3.8308744E0,6.3848996E0,4.8277035E0,5.2224903E0,1.0898941E1,6.346226E0,5.106412E0,1.2322574E1,0E0,0E0,0E0,0E0,0E0,0E0,0E0,0E0,0E0,0E0,0E0,0E0,0E0,0E0,0E0,0E0],"parents":[2147483647,0,0,1,1,2,2,3,3,4,4,5,5,6,6,7,7,8,8,9,9,10,10,11,11,12,12,13,13,14,14],"right_children":[2,4,6,8,10,12,14,16,18,20,22,24,26,28,30,-1,-1,-1,-1,-1,-1,-1,-1,-1,-1,-1,-1,-1,-1,-1,-1],"split_conditions":[-7.99261E-2,-3.8879088E-3,1.3747222E-2,-3.1410377E-2,1.2499881E-1,1.6467026E0,1.9818268E0,1.3664651E-2,-4.7047448E-1,4.7619227E-2,3.7499687E-1,-6.011475E-1,9.862376E-3,3.335461E-1,3.0342028E0,3.9364412E-2,-9.116524E-3,3.7131846E-2,-3.928513E-3,1.91703E-2,-2.3904406E-2,5.231273E-2,1.6796062E-2,8.656724E-3,-1.702838E-2,1.8510759E-2,-1.4212787E-2,2.539863E-2,5.6686727E-3,-3.09213E-2,1.5662516E-2],"split_indices":[4,15,15,15,12,6,6,8,7,12,12,5,15,14,5,0,0,0,0,0,0,0,0,0,0,0,0,0,0,0,0],"split_type":[0,0,0,0,0,0,0,0,0,0,0,0,0,0,0,0,0,0,0,0,0,0,0,0,0,0,0,0,0,0,0],"sum_hessian":[9.018736E2,2.201462E2,6.817274E2,1.4216508E2,7.79811E1,4.6541895E2,2.1630847E2,2.1832644E1,1.2033244E2,3.3474342E1,4.450676E1,3.7002628E2,9.5392654E1,1.593939E2,5.691457E1,1.6990469E1,4.8421736E0,9.342275E0,1.10990166E2,2.5813475E1,7.660867E0,2.5154745E1,1.9352013E1,4.670505E1,3.2332123E2,7.793581E1,1.7456848E1,4.5560593E1,1.1383331E2,3.3705E1,2.3209568E1],"tree_param":{"num_deleted":"0","num_feature":"16","num_nodes":"31","size_leaf_vector":"1"}},{"base_weights":[1.4857489E-2,-4.355419E-2,3.6425978E-1,1.0164774E-1,-1.2529394E-1,6.418492E-1,2.0154667E-1,-1.6717903E-1,3.1754524E-1,-2.7988282E-1,-4.5766525E-2,3.136316E-1,1.051368E0,-6.12361E-1,2.9439107E-1,4.849428E-2,-1.2921939E-2,-2.6674971E-3,2.2616647E-2,-2.1120718E-2,1.2083067E-2,6.505612E-3,-1.0174229E-2,7.683854E-3,5.3822257E-2,5.607734E-2,-6.1726654E-3,-4.9640827E-2,4.0330193E-3,3.4068756E-2,5.7897624E-3],"categories":[],"categories_nodes":[],"categories_segments":[],"categories_sizes":[],"default_left":[0,0,0,0,0,0,0,0,0,0,0,0,0,0,0,0,0,0,0,0,0,0,0,0,0,0,0,0,0,0,0],"id":21,"left_children":[1,3,5,7,9,11,13,15,17,19,21,23,25,27,29,-1,-1,-1,-1,-1,-1,-1,-1,-1,-1,-1,-1,-1,-1,-1,-1],"loss_changes":[1.8377398E1,9.171899E0,5.695776E0,1.6217169E1,6.0629005E0,6.0147476E0,6.434603E0,1.3190695E1,7.7630224E0,1.2566825E1,9.111613E0,3.2055044E0,1.8348141E0,2.4001172E0,5.102307E0,0E0,0E0,0E0,0E0,0E0,0E0,0E0,0E0,0E0,0E0,0E0,0E0,0E0,0E0,0E0,0E0],"parents":[2147483647,0,0,1,1,2,2,3,3,4,4,5,5,6,6,7,7,8,8,9,9,10,10,11,11,12,12,13,13,14,14],"right_children":[2,4,6,8,10,12,14,16,18,20,22,24,26,28,30,-1,-1,-1,-1,-1,-1,-1,-1,-1,-1,-1,-1,-1,-1,-1,-1],"split_conditions":[8.533905E-2,-3.7563278E-3,-7.3091076E-3,-9.451298E-3,2.719619E-2,2.4967363E-1,8.946487E-3,2.733981E-2,-1.5151209E-2,1.309965E-2,8.3080055E-3,-2.1691546E0,2.5368648E-2,1.0604679E-3,5.2269407E-2,4.849428E-2,-1.2921939E-2,-2.6674971E-3,2.2616647E-2,-2.1120718E-2,1.2083067E-2,6.505612E-3,-1.0174229E-2,7.683854E-3,5.3822257E-2,5.607734E-2,-6.1726654E-3,-4.9640827E-2,4.0330193E-3,3.4068756E-2,5.7897624E-3],"split_indices":[9,1,1,15,2,11,1,9,8,15,15,5,2,8,1,0,0,0,0,0,0,0,0,0,0,0,0,0,0,0,0],"split_type":[0,0,0,0,0,0,0,0,0,0,0,0,0,0,0,0,0,0,0,0,0,0,0,0,0,0,0,0,0,0,0],"sum_hessian":[8.986705E2,7.707028E2,1.27967674E2,2.7750366E2,4.9319916E2,4.6202053E1,8.1765625E1,1.2370139E2,1.5380228E2,1.6668E2,3.2651917E2,2.6627068E1,1.9574984E1,7.7992234E0,7.39664E1,8.475228E0,1.1522616E2,4.1156406E1,1.1264587E2,1.3105449E2,3.5625496E1,1.5445462E2,1.7206453E2,2.3004675E1,3.6223936E0,1.851436E1,1.0606221E0,4.7557926E0,3.0434306E0,2.2467756E1,5.1498646E1],"tree_param":{"num_deleted":"0","num_feature":"16","num_nodes":"31","size_leaf_vector":"1"}},{"base_weights":[-3.5600823E-3,1.4454603E-1,-1.414643E-1,9.682615E-1,1.0463012E-1,1.7332457E-1,-2.2409044E-1,4.1703936E-1,1.3633429E0,6.364184E-2,7.5770164E-1,-5.3275293E-1,3.1917483E-1,-4.743052E-1,-1.2363433E-1,5.142194E-2,-3.0713448E-2,-5.222026E-3,7.9062365E-2,3.3178914E-2,1.5126811E-3,4.6125356E-2,-2.9332552E-2,-4.9231406E-2,4.459867E-3,3.2747865E-2,7.144864E-3,2.1177016E-2,-2.9321829E-2,-4.1776776E-2,-3.996019E-3],"categories":[],"categories_nodes":[],"categories_segments":[],"categories_sizes":[],"default_left":[0,0,0,0,0,0,0,0,0,0,0,0,0,0,0,0,0,0,0,0,0,0,0,0,0,0,0,0,0,0,0],"id":22,"left_children":[1,3,5,7,9,11,13,15,17,19,21,23,25,27,29,-1,-1,-1,-1,-1,-1,-1,-1,-1,-1,-1,-1,-1,-1,-1,-1],"loss_changes":[1.8250174E1,1.4064701E1,1.2073462E1,3.741705E0,1.0981812E1,1.0134794E1,9.16445E0,6.750444E0,3.7115555E0,7.7681727E0,5.912306E0,4.848826E0,4.690339E0,1.0795488E1,8.123112E0,0E0,0E0,0E0,0E0,0E0,0E0,0E0,0E0,0E0,0E0,0E0,0E0,0E0,0E0,0E0,0E0],"parents":[2147483647,0,0,1,1,2,2,3,3,4,4,5,5,6,6,7,7,8,8,9,9,10,10,11,11,12,12,13,13,14,14],"right_children":[2,4,6,8,10,12,14,16,18,20,22,24,26,28,30,-1,-1,-1,-1,-1,-1,-1,-1,-1,-1,-1,-1,-1,-1,-1,-1],"split_conditions":[8.608598E-2,2.3501383E-2,2.4976191E-1,4.7300678E-2,1.2677382E-1,1.0509202E-1,2.4887867E-2,5.1016905E-3,1.4909138E-2,-3.1410377E-2,1.18141495E-1,8.333519E-2,-1.2076437E-2,-1.0665774E0,9.570582E-2,5.142194E-2,-3.0713448E-2,-5.222026E-3,7.9062365E-2,3.3178914E-2,1.5126811E-3,4.6125356E-2,-2.9332552E-2,-4.9231406E-2,4.459867E-3,3.2747865E-2,7.144864E-3,2.1177016E-2,-2.9321829E-2,-4.1776776E-2,-3.996019E-3],"split_indices":[3,9,14,3,9,3,2,8,9,15,2,14,0,5,3,0,0,0,0,0,0,0,0,0,0,0,0,0,0,0,0],"split_type":[0,0,0,0,0,0,0,0,0,0,0,0,0,0,0,0,0,0,0,0,0,0,0,0,0,0,0,0,0,0,0],"sum_hessian":[8.91544E2,4.298482E2,4.6169577E2,1.8792088E1,4.1105612E2,9.576248E1,3.659333E2,8.703894E0,1.0088195E1,3.878135E2,2.3242626E1,1.59404125E1,7.982207E1,1.03762215E2,2.6217108E2,5.466138E0,3.2377553E0,1.3713846E0,8.71681E0,1.9450071E1,3.6836343E2,2.0983973E1,2.2586546E0,8.894803E0,7.0456095E0,2.6544071E1,5.3278E1,1.1211732E1,9.2550476E1,1.4119242E1,2.4805183E2],"tree_param":{"num_deleted":"0","num_feature":"16","num_nodes":"31","size_leaf_vector":"1"}},{"base_weights":[-1.0274588E-2,8.268747E-1,-2.7156096E-2,-3.8099033E-1,1.0315516E0,2.0048888E-1,-9.508289E-2,3.1652187E-3,-3.3919234E-2,1.2373878E0,8.6219266E-2,1.2463627E-1,7.514458E-1,-2.6128602E-1,1.10308435E-2,6.9677465E-2,2.4085104E-2,-4.330461E-2,3.9894573E-2,1.9906517E-2,-7.3451106E-4,4.8630565E-2,1.7026149E-2,3.5752274E-2,-1.4627633E-2,-1.5586312E-3,1.5865823E-2],"categories":[],"categories_nodes":[],"categories_segments":[],"categories_sizes":[],"default_left":[0,0,0,0,0,0,0,0,0,0,0,0,0,0,0,0,0,0,0,0,0,0,0,0,0,0,0],"id":23,"left_children":[1,3,5,7,9,11,13,-1,-1,15,17,19,21,23,25,-1,-1,-1,-1,-1,-1,-1,-1,-1,-1,-1,-1],"loss_changes":[1.268219E1,4.778468E0,1.3612135E1,4.7906157E-1,2.8973484E0,8.362553E0,1.1955397E1,0E0,0E0,8.159847E-1,3.2903996E0,6.828746E0,1.8760929E0,8.272068E0,5.3690205E0,0E0,0E0,0E0,0E0,0E0,0E0,0E0,0E0,0E0,0E0,0E0,0E0],"parents":[2147483647,0,0,1,1,2,2,3,3,4,4,5,5,6,6,9,9,10,10,11,11,12,12,13,13,14,14],"right_children":[2,4,6,8,10,12,14,-1,-1,16,18,20,22,24,26,-1,-1,-1,-1,-1,-1,-1,-1,-1,-1,-1,-1],"split_conditions":[-6.862758E-1,-2.3254236E-2,-1.04808435E-2,8.2653046E-2,3.0000305E-1,2.0038594E-2,3.7037037E-2,3.1652187E-3,-3.3919234E-2,2.554873E-2,4E-1,-1.0980981E-2,1.8228152E0,-3.2869585E-2,8.617971E-2,6.9677465E-2,2.4085104E-2,-4.330461E-2,3.9894573E-2,1.9906517E-2,-7.3451106E-4,4.8630565E-2,1.7026149E-2,3.5752274E-2,-1.4627633E-2,-1.5586312E-3,1.5865823E-2],"split_indices":[7,0,0,9,11,15,11,0,0,15,11,15,5,15,9,0,0,0,0,0,0,0,0,0,0,0,0],"split_type":[0,0,0,0,0,0,0,0,0,0,0,0,0,0,0,0,0,0,0,0,0,0,0,0,0,0,0],"sum_hessian":[8.947988E2,1.673893E1,8.7805994E2,2.3006468E0,1.4438283E1,2.0134274E2,6.7671716E2,1.2381057E0,1.0625412E0,1.1602924E1,2.8353589E0,1.7805531E2,2.3287424E1,2.631266E2,4.1359058E2,8.916296E0,2.6866283E0,1.1198584E0,1.7155006E0,5.946656E1,1.1858876E2,1.4250609E1,9.036814E0,7.4864154E0,2.5564017E2,3.642925E2,4.929808E1],"tree_param":{"num_deleted":"0","num_feature":"16","num_nodes":"27","size_leaf_vector":"1"}},{"base_weights":[-6.208806E-3,3.1525892E-1,-7.419061E-2,1.863594E-1,8.2088876E-1,-8.70475E-3,-3.1601512E-1,1.23042315E-1,9.635485E-1,9.2425156E-1,-2.844614E-1,3.3014815E-2,-3.851635E-1,-5.1861495E-1,-1.4684007E-1,-1.7717363E-2,1.03840185E-2,5.956797E-2,-7.825695E-3,4.8373416E-2,-5.391739E-3,-4.754565E-2,2.41391E-2,1.8446317E-2,-6.3901464E-4,-1.3824373E-2,-4.5667663E-2,-3.0796746E-2,8.840243E-3,6.4188056E-3,-1.759752E-2],"categories":[],"categories_nodes":[],"categories_segments":[],"categories_sizes":[],"default_left":[0,0,0,0,0,0,0,0,0,0,0,0,0,0,0,0,0,0,0,0,0,0,0,0,0,0,0,0,0,0,0],"id":24,"left_children":[1,3,5,7,9,11,13,15,17,19,21,23,25,27,29,-1,-1,-1,-1,-1,-1,-1,-1,-1,-1,-1,-1,-1,-1,-1,-1],"loss_changes":[1.971244E1,1.010935E1,1.1786908E1,6.119445E0,3.8838387E0,9.229839E0,5.3603735E0,4.8560266E0,2.5857706E0,1.4075298E0,2.235869E0,8.14603E0,3.1127825E0,4.967024E0,5.0033307E0,0E0,0E0,0E0,0E0,0E0,0E0,0E0,0E0,0E0,0E0,0E0,0E0,0E0,0E0,0E0,0E0],"parents":[2147483647,0,0,1,1,2,2,3,3,4,4,5,5,6,6,7,7,8,8,9,9,10,10,11,11,12,12,13,13,14,14],"right_children":[2,4,6,8,10,12,14,16,18,20,22,24,26,28,30,-1,-1,-1,-1,-1,-1,-1,-1,-1,-1,-1,-1,-1,-1,-1,-1],"split_conditions":[-2.4813768E-2,-3.6969103E-4,1E0,6.672443E-1,1.3180997E0,6.4285713E-1,3.839651E-2,4.1663192E-2,-1.0453181E-2,1.1557959E0,1.2499881E-1,-8.8046414E-1,9.389811E-2,1.7374156E-2,7.7090887E-3,-1.7717363E-2,1.03840185E-2,5.956797E-2,-7.825695E-3,4.8373416E-2,-5.391739E-3,-4.754565E-2,2.41391E-2,1.8446317E-2,-6.3901464E-4,-1.3824373E-2,-4.5667663E-2,-3.0796746E-2,8.840243E-3,6.4188056E-3,-1.759752E-2],"split_indices":[1,15,14,11,7,12,2,9,10,5,12,6,2,15,15,0,0,0,0,0,0,0,0,0,0,0,0,0,0,0,0],"split_type":[0,0,0,0,0,0,0,0,0,0,0,0,0,0,0,0,0,0,0,0,0,0,0,0,0,0,0,0,0,0,0],"sum_hessian":[8.999377E2,1.5645702E2,7.4348065E2,1.25764595E2,3.0692421E1,5.85865E2,1.576157E2,1.1736154E2,8.403051E0,2.8217594E1,2.474827E0,5.282374E2,5.7627544E1,7.078264E1,8.683307E1,1.7194069E1,1.0016747E2,6.9299126E0,1.4731386E0,2.7143614E1,1.0739806E0,1.1962972E0,1.2785299E0,6.2528538E1,4.657089E2,4.905736E1,8.570184E0,6.2193336E1,8.589301E0,3.723945E1,4.959362E1],"tree_param":{"num_deleted":"0","num_feature":"16","num_nodes":"31","size_leaf_vector":"1"}},{"base_weights":[3.1456978E-3,-2.1721603E-2,6.751212E-1,2.4567956E-1,-7.45827E-2,1.024291E0,-5.260389E-1,-1.1081606E0,2.7784052E-1,-8.456526E-2,1.1048062E0,1.9386293E-1,1.1457914E0,3.0741876E-2,-8.5258275E-1,-7.114117E-2,-8.358332E-3,2.3440992E-2,3.1758274E-3,1.75096E-2,-5.254516E-3,6.751819E-2,-9.384007E-5,-3.411669E-2,4.5015953E-2,6.4005576E-2,1.9292146E-2,-5.6927152E-2,-5.742901E-3],"categories":[],"categories_nodes":[],"categories_segments":[],"categories_sizes":[],"default_left":[0,0,0,0,0,0,0,0,0,0,0,0,0,0,0,0,0,0,0,0,0,0,0,0,0,0,0,0,0],"id":25,"left_children":[1,3,5,7,9,11,13,15,17,19,21,23,25,-1,27,-1,-1,-1,-1,-1,-1,-1,-1,-1,-1,-1,-1,-1,-1],"loss_changes":[1.50203285E1,1.2272294E1,1.3992051E1,6.5482607E0,8.624305E0,2.3196354E0,3.4617605E0,8.0622435E-1,5.733218E0,6.4566784E0,1.6745625E0,3.3496592E0,1.7285404E0,0E0,1.2508941E0,0E0,0E0,0E0,0E0,0E0,0E0,0E0,0E0,0E0,0E0,0E0,0E0,0E0,0E0],"parents":[2147483647,0,0,1,1,2,2,3,3,4,4,5,5,6,6,7,7,8,8,9,9,10,10,11,11,12,12,14,14],"right_children":[2,4,6,8,10,12,14,16,18,20,22,24,26,-1,28,-1,-1,-1,-1,-1,-1,-1,-1,-1,-1,-1,-1,-1,-1],"split_conditions":[1.3102356E-1,-1.331939E-1,3.9842018E-1,-3.339787E-1,3.8883333E0,-4.6319756E-1,-2.78421E-1,-5.0000244E-1,2.9111383E-2,-1.2621668E-1,2.5938654E-2,-2.3868282E-1,8E-1,3.0741876E-2,3.32252E-2,-7.114117E-2,-8.358332E-3,2.3440992E-2,3.1758274E-3,1.75096E-2,-5.254516E-3,6.751819E-2,-9.384007E-5,-3.411669E-2,4.5015953E-2,6.4005576E-2,1.9292146E-2,-5.6927152E-2,-5.742901E-3],"split_indices":[9,4,4,3,6,4,7,13,7,3,15,7,13,0,0,0,0,0,0,0,0,0,0,0,0,0,0,0,0],"split_type":[0,0,0,0,0,0,0,0,0,0,0,0,0,0,0,0,0,0,0,0,0,0,0,0,0,0,0,0,0],"sum_hessian":[8.969933E2,8.659166E2,3.1076662E1,1.4232237E2,7.2359424E2,2.419157E1,6.885091E0,2.5261333E0,1.3979623E2,7.184415E2,5.1527176E0,3.4190073E0,2.0772564E1,1.335671E0,5.54942E0,1.5093671E0,1.0167661E0,7.329619E1,6.650005E1,3.1664717E1,6.867768E2,4.0368147E0,1.1159029E0,1.5413998E0,1.8776075E0,1.7070843E1,3.7017214E0,3.6076782E0,1.941742E0],"tree_param":{"num_deleted":"0","num_feature":"16","num_nodes":"29","size_leaf_vector":"1"}},{"base_weights":[1.6719997E-2,-3.4438066E-2,2.8631252E-1,-4.4312764E-2,1.1559137E0,4.3311733E-1,-8.139681E-3,7.7326596E-1,-5.8210205E-2,-1.7015893E-2,7.6278254E-2,2.8147715E-1,7.990009E-1,-9.59795E-1,2.1638979E-1,4.530954E-2,-1.7278444E-2,-8.536446E-3,1.8192477E-3,2.3395354E-2,-3.5902616E-2,6.403255E-3,4.956383E-2,-5.911711E-2,-3.2162962E-3,1.8621316E-2,-3.490799E-2],"categories":[],"categories_nodes":[],"categories_segments":[],"categories_sizes":[],"default_left":[0,0,0,0,0,0,0,0,0,0,0,0,0,0,0,0,0,0,0,0,0,0,0,0,0,0,0],"id":26,"left_children":[1,3,5,7,9,11,13,15,17,-1,-1,19,21,23,25,-1,-1,-1,-1,-1,-1,-1,-1,-1,-1,-1,-1],"loss_changes":[1.2367123E1,8.913683E0,6.1855154E0,8.552293E0,3.9704876E0,5.0709724E0,1.0584002E1,2.184722E0,7.852206E0,0E0,0E0,1.3198562E1,3.4109097E0,1.8080082E0,5.983424E0,0E0,0E0,0E0,0E0,0E0,0E0,0E0,0E0,0E0,0E0,0E0,0E0],"parents":[2147483647,0,0,1,1,2,2,3,3,4,4,5,5,6,6,7,7,8,8,11,11,12,12,13,13,14,14],"right_children":[2,4,6,8,10,12,14,16,18,-1,-1,20,22,24,26,-1,-1,-1,-1,-1,-1,-1,-1,-1,-1,-1,-1],"split_conditions":[8.0929264E-2,7.602084E-2,3.6630075E-2,-6.862758E-1,-3.99589E-1,1.1304155E-1,4.584519E-2,2.000009E-2,1.4349347E-1,-1.7015893E-2,7.6278254E-2,8.506547E-3,8.533905E-2,2.3877801E-1,3.659721E-1,4.530954E-2,-1.7278444E-2,-8.536446E-3,1.8192477E-3,2.3395354E-2,-3.5902616E-2,6.403255E-3,4.956383E-2,-5.911711E-2,-3.2162962E-3,1.8621316E-2,-3.490799E-2],"split_indices":[9,1,10,7,13,3,10,8,11,0,0,3,9,3,3,0,0,0,0,0,0,0,0,0,0,0,0],"split_type":[0,0,0,0,0,0,0,0,0,0,0,0,0,0,0,0,0,0,0,0,0,0,0,0,0,0,0],"sum_hessian":[8.949842E2,7.52972E2,1.4201222E2,7.477319E2,5.2401204E0,9.445096E1,4.756127E1,1.1584447E1,7.361474E2,1.0538447E0,4.1862755E0,6.8026665E1,2.6424292E1,8.454149E0,3.910712E1,1.0524166E1,1.0602801E0,3.3585318E2,4.0029425E2,5.7781303E1,1.0245362E1,6.2569695E0,2.0167322E1,6.5147133E0,1.9394355E0,3.391369E1,5.1934314E0],"tree_param":{"num_deleted":"0","num_feature":"16","num_nodes":"27","size_leaf_vector":"1"}},{"base_weights":[1.2022923E-3,6.3919656E-2,-2.6837364E-1,2.7350515E-1,-1.3507519E-2,-3.1036633E-1,7.9859585E-1,1.8764538E-1,5.973801E-1,-3.7003472E-2,7.6322263E-1,-3.4140623E-1,9.310883E-1,6.7586385E-2,-2.3077278E-1,1.4537506E-2,-9.710657E-3,1.3194065E-2,5.9396505E-2,-7.7128857E-3,3.7647474E-3,5.0337523E-2,-1.5117422E-2,-3.0622074E-2,-1.0771391E-2,6.128025E-2,6.6207983E-3,-2.339197E-2,5.3303726E-3],"categories":[],"categories_nodes":[],"categories_segments":[],"categories_sizes":[],"default_left":[0,0,0,0,0,0,0,0,0,0,0,0,0,0,0,0,0,0,0,0,0,0,0,0,0,0,0,0,0],"id":27,"left_children":[1,3,5,7,9,11,13,15,17,19,21,23,25,-1,27,-1,-1,-1,-1,-1,-1,-1,-1,-1,-1,-1,-1,-1,-1],"loss_changes":[1.5119795E1,1.1776552E1,7.810457E0,5.331566E0,9.713944E0,6.6035776E0,4.1104617E0,6.206148E0,7.675414E0,6.8072634E0,4.360092E0,5.32679E0,8.3675385E-1,0E0,3.046978E-1,0E0,0E0,0E0,0E0,0E0,0E0,0E0,0E0,0E0,0E0,0E0,0E0,0E0,0E0],"parents":[2147483647,0,0,1,1,2,2,3,3,4,4,5,5,6,6,7,7,8,8,9,9,10,10,11,11,12,12,14,14],"right_children":[2,4,6,8,10,12,14,16,18,20,22,24,26,-1,28,-1,-1,-1,-1,-1,-1,-1,-1,-1,-1,-1,-1,-1,-1],"split_conditions":[1E0,-1.6571922E-2,6.462562E-2,6.666757E-3,3.6284475E0,3.132576E0,8.898226E-2,-6.8264194E-3,-3.424337E-2,9.1830844E-1,2.733464E-1,7.6436915E-2,3.8272735E-1,6.7586385E-2,3.302604E-1,1.4537506E-2,-9.710657E-3,1.3194065E-2,5.9396505E-2,-7.7128857E-3,3.7647474E-3,5.0337523E-2,-1.5117422E-2,-3.0622074E-2,-1.0771391E-2,6.128025E-2,6.6207983E-3,-2.339197E-2,5.3303726E-3],"split_indices":[14,2,8,8,5,6,1,1,2,6,2,4,4,0,6,0,0,0,0,0,0,0,0,0,0,0,0,0,0],"split_type":[0,0,0,0,0,0,0,0,0,0,0,0,0,0,0,0,0,0,0,0,0,0,0,0,0,0,0,0,0],"sum_hessian":[8.922725E2,7.2448303E2,1.677895E2,1.9476003E2,5.29723E2,1.6211813E2,5.6713657E0,1.5519653E2,3.9563484E1,5.150939E2,1.4629141E1,1.5887091E2,3.247231E0,3.4853494E0,2.1860166E0,1.22389114E2,3.280742E1,2.6209272E1,1.3354212E1,2.5180396E2,2.6328992E2,1.1952657E1,2.6764839E0,4.9186825E1,1.0968408E2,1.9818541E0,1.265377E0,1.0567725E0,1.1292442E0],"tree_param":{"num_deleted":"0","num_feature":"16","num_nodes":"29","size_leaf_vector":"1"}},{"base_weights":[7.433993E-3,1.6177836E-1,-6.480994E-2,1.0966567E-1,7.429956E-1,-1.2764683E-1,2.1406515E-1,2.8335968E-1,-3.7906602E-2,9.7716355E-1,-5.142428E-1,2.2358192E-2,-2.4042663E-1,-1.03892E-1,4.9298552E-1,1.593876E-2,-3.926852E-2,-1.9677628E-2,3.5129872E-3,5.3091485E-2,-2.266594E-3,-4.764566E-2,1.8176315E-2,-3.3328313E-2,4.356181E-3,-2.741327E-2,-1.1951545E-3,2.9929671E-2,-1.792319E-2,4.1637253E-2,8.675194E-3],"categories":[],"categories_nodes":[],"categories_segments":[],"categories_sizes":[],"default_left":[0,0,0,0,0,0,0,0,0,0,0,0,0,0,0,0,0,0,0,0,0,0,0,0,0,0,0,0,0,0,0],"id":28,"left_children":[1,3,5,7,9,11,13,15,17,19,21,23,25,27,29,-1,-1,-1,-1,-1,-1,-1,-1,-1,-1,-1,-1,-1,-1,-1,-1],"loss_changes":[1.0132906E1,8.693922E0,1.0875859E1,6.856084E0,7.4700136E0,8.563361E0,1.0180361E1,4.897913E0,5.615956E0,1.8051109E0,2.0295053E0,9.785692E0,1.9239798E1,9.90707E0,6.478677E0,0E0,0E0,0E0,0E0,0E0,0E0,0E0,0E0,0E0,0E0,0E0,0E0,0E0,0E0,0E0,0E0],"parents":[2147483647,0,0,1,1,2,2,3,3,4,4,5,5,6,6,7,7,8,8,9,9,10,10,11,11,12,12,13,13,14,14],"right_children":[2,4,6,8,10,12,14,16,18,20,22,24,26,28,30,-1,-1,-1,-1,-1,-1,-1,-1,-1,-1,-1,-1,-1,-1,-1,-1],"split_conditions":[-1.0453181E-2,2.4449742E-1,4.584519E-2,-1.7870622E-2,4.0842307E-1,8.860956E-2,1.3935673E-2,8.724287E-3,-1.2673289E-2,-1.3236885E-2,3.8339666E-3,-2.220875E0,8.030357E-1,1.0007819E-2,9.614995E-3,1.593876E-2,-3.926852E-2,-1.9677628E-2,3.5129872E-3,5.3091485E-2,-2.266594E-3,-4.764566E-2,1.8176315E-2,-3.3328313E-2,4.356181E-3,-2.741327E-2,-1.1951545E-3,2.9929671E-2,-1.792319E-2,4.1637253E-2,8.675194E-3],"split_indices":[10,3,10,2,3,3,15,1,15,10,1,5,6,2,8,0,0,0,0,0,0,0,0,0,0,0,0,0,0,0,0],"split_type":[0,0,0,0,0,0,0,0,0,0,0,0,0,0,0,0,0,0,0,0,0,0,0,0,0,0,0,0,0,0,0],"sum_hessian":[9.0680426E2,2.887244E2,6.1807983E2,2.6605798E2,2.2666422E1,5.0486465E2,1.13215195E2,1.2178992E2,1.4426807E2,1.9295324E1,3.3710961E0,2.1701768E2,2.8784695E2,5.3198605E1,6.001659E1,1.1856271E2,3.227203E0,3.3029663E1,1.11238396E2,1.778426E1,1.5110657E0,2.190682E0,1.1804142E0,1.7850103E1,1.9916759E2,1.18227234E2,1.6961974E2,1.3791067E1,3.9407536E1,2.830669E1,3.1709902E1],"tree_param":{"num_deleted":"0","num_feature":"16","num_nodes":"31","size_leaf_vector":"1"}},{"base_weights":[1.7112993E-2,2.1952605E-1,-4.1636743E-2,2.1772029E-2,4.558963E-1,4.658853E-1,-6.689574E-2,3.8428637E-1,-2.980296E-1,-9.6908E-1,5.08778E-1,5.8072793E-1,-4.955478E-2,-1.1029594E-1,2.7747548E-1,6.415532E-3,4.169375E-2,-2.2172306E-2,4.5113828E-2,-8.129989E-3,-6.1382182E-2,4.6649884E-2,1.9872366E-2,5.745947E-4,5.1578756E-2,-6.5817162E-3,2.614378E-2,-3.294887E-2,2.0434588E-2],"categories":[],"categories_nodes":[],"categories_segments":[],"categories_sizes":[],"default_left":[0,0,0,0,0,0,0,0,0,0,0,0,0,0,0,0,0,0,0,0,0,0,0,0,0,0,0,0,0],"id":29,"left_children":[1,3,5,7,9,11,13,15,17,19,21,23,-1,25,27,-1,-1,-1,-1,-1,-1,-1,-1,-1,-1,-1,-1,-1,-1],"loss_changes":[1.0647578E1,9.404417E0,8.930505E0,1.2949525E1,7.4027386E0,6.1035166E0,9.927191E0,5.9149885E0,1.0765219E1,5.563688E-1,3.835823E0,8.009186E0,0E0,8.023628E0,9.410871E0,0E0,0E0,0E0,0E0,0E0,0E0,0E0,0E0,0E0,0E0,0E0,0E0,0E0,0E0],"parents":[2147483647,0,0,1,1,2,2,3,3,4,4,5,5,6,6,7,7,8,8,9,9,10,10,11,11,13,13,14,14],"right_children":[2,4,6,8,10,12,14,16,18,20,22,24,-1,26,28,-1,-1,-1,-1,-1,-1,-1,-1,-1,-1,-1,-1,-1,-1],"split_conditions":[-9.2837796E-2,-7.615094E-3,-1.2621668E-1,3.2967396E-4,-2.679688E-1,2.6360723E-1,2.755719E-1,-7.857746E-2,2.0180593E-1,-2.7185872E-1,-1.8637872E0,3.344742E-1,-4.955478E-2,2.7170575E0,2.5165534E-1,6.415532E-3,4.169375E-2,-2.2172306E-2,4.5113828E-2,-8.129989E-3,-6.1382182E-2,4.6649884E-2,1.9872366E-2,5.745947E-4,5.1578756E-2,-6.5817162E-3,2.614378E-2,-3.294887E-2,2.0434588E-2],"split_indices":[4,15,3,3,3,4,3,3,3,4,6,14,0,6,5,0,0,0,0,0,0,0,0,0,0,0,0,0,0],"split_type":[0,0,0,0,0,0,0,0,0,0,0,0,0,0,0,0,0,0,0,0,0,0,0,0,0,0,0,0,0],"sum_hessian":[8.9360925E2,2.0040578E2,6.932035E2,1.0971077E2,9.0695015E1,3.2037544E1,6.6116595E2,5.132695E1,5.8383816E1,2.6253595E0,8.806966E1,3.025425E1,1.783294E0,5.877705E2,7.339545E1,3.352481E1,1.7802137E1,5.263738E1,5.7464356E0,1.0328081E0,1.5925515E0,1.6773752E1,7.1295906E1,1.3824737E1,1.6429514E1,5.693742E2,1.8396275E1,8.52597E0,6.486948E1],"tree_param":{"num_deleted":"0","num_feature":"16","num_nodes":"29","size_leaf_vector":"1"}},{"base_weights":[-5.006426E-3,-2.4333272E-2,5.442623E-1,8.681975E-3,-2.9544133E-1,6.791143E-1,-3.925057E-1,-2.1656422E-2,3.358469E-1,9.0308356E-1,-3.5138956E-1,-3.0801785E-1,8.3013624E-1,2.5969148E-1,-5.7428002E-2,4.3258057E-3,-7.720196E-3,-1.717075E-2,2.3325464E-2,-4.0880046E-3,6.3587956E-2,-2.507937E-2,-3.8959612E-3,2.9400716E-2,-6.6118546E-2,4.7609817E-2,1.0540432E-2,-5.971518E-3,2.4811095E-2],"categories":[],"categories_nodes":[],"categories_segments":[],"categories_sizes":[],"default_left":[0,0,0,0,0,0,0,0,0,0,0,0,0,0,0,0,0,0,0,0,0,0,0,0,0,0,0,0,0],"id":30,"left_children":[1,3,5,7,9,11,13,15,17,19,21,23,25,27,-1,-1,-1,-1,-1,-1,-1,-1,-1,-1,-1,-1,-1,-1,-1],"loss_changes":[9.485459E0,7.726277E0,4.1033173E0,7.6521306E0,6.600808E0,4.268359E0,2.4953797E0,1.0148233E1,5.966681E0,1.7230933E0,3.667758E0,4.686646E0,1.584486E0,3.4691662E-1,0E0,0E0,0E0,0E0,0E0,0E0,0E0,0E0,0E0,0E0,0E0,0E0,0E0,0E0,0E0],"parents":[2147483647,0,0,1,1,2,2,3,3,4,4,5,5,6,6,7,7,8,8,9,9,10,10,11,11,12,12,13,13],"right_children":[2,4,6,8,10,12,14,16,18,20,22,24,26,28,-1,-1,-1,-1,-1,-1,-1,-1,-1,-1,-1,-1,-1,-1,-1],"split_conditions":[1.3102356E-1,6.363617E-1,3.739512E-1,2.6541618E-1,-3.9301287E-2,-1.4837934E-1,1.5548922E-1,9.049454E-2,3.6839032E-1,-6.797384E-1,5.920946E-3,-2.679688E-1,3.8709676E-1,9.409783E-2,-5.7428002E-2,4.3258057E-3,-7.720196E-3,-1.717075E-2,2.3325464E-2,-4.0880046E-3,6.3587956E-2,-2.507937E-2,-3.8959612E-3,2.9400716E-2,-6.6118546E-2,4.7609817E-2,1.0540432E-2,-5.971518E-3,2.4811095E-2],"split_indices":[9,12,3,3,10,1,1,3,5,6,8,3,11,1,0,0,0,0,0,0,0,0,0,0,0,0,0,0,0],"split_type":[0,0,0,0,0,0,0,0,0,0,0,0,0,0,0,0,0,0,0,0,0,0,0,0,0,0,0,0,0],"sum_hessian":[8.9128937E2,8.619172E2,2.9372152E1,7.692114E2,9.2705765E1,2.5916414E1,3.4557378E0,7.047893E2,6.442215E1,3.4592924E0,8.9246475E1,3.3009176E0,2.2615496E1,2.207765E0,1.2479728E0,3.8853244E2,3.1625687E2,1.0130325E1,5.4291824E1,1.1542294E0,2.305063E0,5.7068596E1,3.2177876E1,1.9758499E0,1.3250676E0,1.8443161E1,4.1723356E0,1.0384167E0,1.1693482E0],"tree_param":{"num_deleted":"0","num_feature":"16","num_nodes":"29","size_leaf_vector":"1"}},{"base_weights":[1.453189E-2,2.1857697E-1,-4.6114888E-2,8.577949E-2,4.7680438E-1,-7.345874E-2,4.1437504E-1,4.7493637E-1,-1.4981951E-1,5.607956E-1,-8.159488E-1,-4.7595438E-2,-8.709436E-1,9.447667E-1,-4.8053208E-1,3.232707E-2,-8.795358E-3,-2.2887101E-2,1.0403715E-2,5.1132638E-2,1.56498E-2,-6.600674E-2,-6.657888E-3,-3.920755E-3,1.6332459E-2,-6.259284E-2,3.260806E-2,-2.5438467E-2,5.152264E-2,-6.0487937E-2,-4.684028E-3],"categories":[],"categories_nodes":[],"categories_segments":[],"categories_sizes":[],"default_left":[0,0,0,0,0,0,0,0,0,0,0,0,0,0,0,0,0,0,0,0,0,0,0,0,0,0,0,0,0,0,0],"id":31,"left_children":[1,3,5,7,9,11,13,15,17,19,21,23,25,27,29,-1,-1,-1,-1,-1,-1,-1,-1,-1,-1,-1,-1,-1,-1,-1,-1],"loss_changes":[1.1156956E1,7.042553E0,8.784324E0,1.2689832E1,8.05083E0,1.3511609E1,1.9021704E1,5.937278E0,9.626711E0,7.2630825E0,1.4331548E0,7.378784E0,1.2758199E1,3.6253376E0,4.180252E0,0E0,0E0,0E0,0E0,0E0,0E0,0E0,0E0,0E0,0E0,0E0,0E0,0E0,0E0,0E0,0E0],"parents":[2147483647,0,0,1,1,2,2,3,3,4,4,5,5,6,6,7,7,8,8,9,9,10,10,11,11,12,12,13,13,14,14],"right_children":[2,4,6,8,10,12,14,16,18,20,22,24,26,28,30,-1,-1,-1,-1,-1,-1,-1,-1,-1,-1,-1,-1,-1,-1,-1,-1],"split_conditions":[3.4159808E-3,7.1168486E-3,2.7170575E0,-1.5347592E-2,2.462788E0,2.6832383E0,3.739512E-1,4.2857066E-1,-6.0566436E-2,-1.196582E-1,3.210876E-2,2.755719E-1,3.0342028E0,8.0312684E-2,7.5893E-2,3.232707E-2,-8.795358E-3,-2.2887101E-2,1.0403715E-2,5.1132638E-2,1.56498E-2,-6.600674E-2,-6.657888E-3,-3.920755E-3,1.6332459E-2,-6.259284E-2,3.260806E-2,-2.5438467E-2,5.152264E-2,-6.0487937E-2,-4.684028E-3],"split_indices":[3,15,6,15,6,5,3,12,3,3,15,3,5,2,9,0,0,0,0,0,0,0,0,0,0,0,0,0,0,0,0],"split_type":[0,0,0,0,0,0,0,0,0,0,0,0,0,0,0,0,0,0,0,0,0,0,0,0,0,0,0,0,0,0,0],"sum_hessian":[8.997812E2,2.0556317E2,6.94218E2,1.3663081E2,6.893235E1,6.5609937E2,3.8118645E1,5.114117E1,8.548965E1,6.5258644E1,3.673707E0,6.365161E2,1.9583227E1,2.3898699E1,1.4219945E1,4.0475723E1,1.0665447E1,4.5802975E1,3.9686672E1,2.16953E1,4.3563343E1,1.5762985E0,2.0974085E0,5.888166E2,4.7699547E1,1.5807915E1,3.7753122E0,1.0555332E0,2.2843164E1,4.191552E0,1.0028393E1],"tree_param":{"num_deleted":"0","num_feature":"16","num_nodes":"31","size_leaf_vector":"1"}},{"base_weights":[-7.045942E-3,-2.6992865E-2,5.3780204E-1,1.4871584E-1,-7.580365E-2,8.7057805E-1,-2.2417238E-1,1.0928158E-1,1.1765996E0,-8.629845E-2,7.063881E-1,-1.5510054E-1,1.0875506E0,4.600015E-2,-5.06525E-1,-2.8847372E-3,1.5178362E-2,2.1335378E-3,6.94864E-2,-3.7501447E-3,-4.166774E-2,6.0701378E-2,9.292435E-3,3.0755347E-2,-5.269311E-2,5.9094608E-2,-1.3889764E-2,2.670139E-2,-3.7449133E-2],"categories":[],"categories_nodes":[],"categories_segments":[],"categories_sizes":[],"default_left":[0,0,0,0,0,0,0,0,0,0,0,0,0,0,0,0,0,0,0,0,0,0,0,0,0,0,0,0,0],"id":32,"left_children":[1,3,5,7,9,11,13,15,17,19,21,23,25,-1,27,-1,-1,-1,-1,-1,-1,-1,-1,-1,-1,-1,-1,-1,-1],"loss_changes":[9.794659E0,7.4648323E0,8.266098E0,7.5434327E0,5.6495724E0,5.1445484E0,3.8486524E0,5.9666805E0,1.6060019E0,5.613794E0,2.184904E0,3.956538E0,2.7215729E0,0E0,2.6814606E0,0E0,0E0,0E0,0E0,0E0,0E0,0E0,0E0,0E0,0E0,0E0,0E0,0E0,0E0],"parents":[2147483647,0,0,1,1,2,2,3,3,4,4,5,5,6,6,7,7,8,8,9,9,10,10,11,11,12,12,14,14],"right_children":[2,4,6,8,10,12,14,16,18,20,22,24,26,-1,28,-1,-1,-1,-1,-1,-1,-1,-1,-1,-1,-1,-1,-1,-1],"split_conditions":[1.3102356E-1,-9.2837796E-2,3.2439473E-1,2.0419616E-1,3.6284475E0,-4.2712185E-1,7.137136E-3,-8.013833E-3,3.9287727E-2,1.10008664E-1,3.739512E-1,-2.8996995E-1,7.058824E-1,4.600015E-2,-3.6115274E-1,-2.8847372E-3,1.5178362E-2,2.1335378E-3,6.94864E-2,-3.7501447E-3,-4.166774E-2,6.0701378E-2,9.292435E-3,3.0755347E-2,-5.269311E-2,5.9094608E-2,-1.3889764E-2,2.670139E-2,-3.7449133E-2],"split_indices":[9,4,4,3,5,4,0,15,9,9,3,3,11,0,7,0,0,0,0,0,0,0,0,0,0,0,0,0,0],"split_type":[0,0,0,0,0,0,0,0,0,0,0,0,0,0,0,0,0,0,0,0,0,0,0,0,0,0,0,0,0],"sum_hessian":[8.988993E2,8.6806964E2,3.0829632E1,1.8827434E2,6.797953E2,2.135901E1,9.47062E0,1.823836E2,5.89074E0,6.7167303E2,8.122281E0,3.7791715E0,1.757984E1,1.4275247E0,8.043096E0,9.846346E1,8.3920135E1,1.1219151E0,4.768825E0,6.6275256E2,8.920481E0,3.4376116E0,4.6846695E0,2.2050912E0,1.5740802E0,1.6569311E1,1.0105282E0,1.2926942E0,6.7504015E0],"tree_param":{"num_deleted":"0","num_feature":"16","num_nodes":"29","size_leaf_vector":"1"}}]},"name":"gbtree"},"learner_model_param":{"base_score":"5E-1","boost_from_average":"1","num_class":"0","num_feature":"16","num_target":"1"},"objective":{"name":"binary:logistic","reg_loss_param":{"scale_pos_weight":"0.633791208"}}},"version":[2,1,0]}