{"learner":{"attributes":{"scikit_learn":"{\"_estimator_type\": \"classifier\"}"},"feature_names":["bias_week","bias_month","bias_quarter","bias_year","rsi","macd","macd_signal","vol_change","close_change","bb_width","return_5d","k_upper","k_lower","k_body","buy_power","rs_5d","obv","atr_ratio","trend_strength"],"feature_types":["float","float","float","float","float","float","float","float","float","float","float","float","float","float","float","float","float","float","float"],"gradient_booster":{"model":{"cats":{"enc":[],"feature_segments":[],"sorted_idx":[]},"gbtree_model_param":{"num_parallel_tree":"1","num_trees":"18"},"iteration_indptr":[0,1,2,3,4,5,6,7,8,9,10,11,12,13,14,15,16,17,18],"tree_info":[0,0,0,0,0,0,0,0,0,0,0,0,0,0,0,0,0,0],"trees":[{"base_weights":[-9.7251525E-3,2.2006212E-2,-1.646079E-1,3.5202372E-1,-1.08258285E-1,-1.7676212E-2,5.0451897E-2,4.672092E-3,-4.107495E-2],"categories":[],"categories_nodes":[],"categories_segments":[],"categories_sizes":[],"default_left":[0,0,0,0,0,0,0,0,0],"id":0,"left_children":[1,3,-1,5,7,-1,-1,-1,-1],"loss_changes":[7.266103E1,5.6069897E1,0E0,3.1499569E1,4.4588516E1,0E0,0E0,0E0,0E0],"parents":[2147483647,0,0,1,1,3,3,4,4],"right_children":[2,4,-1,6,8,-1,-1,-1,-1],"split_conditions":[1.1009074E-1,2.1276752E-2,-1.646079E-1,6.640133E-2,1.177478E-1,-1.7676212E-2,5.0451897E-2,4.672092E-3,-4.107495E-2],"split_indices":[17,17,0,6,3,0,0,0,0],"split_type":[0,0,0,0,0,0,0,0,0],"sum_hessian":[1.3174661E3,1.2913368E3,2.6129269E1,3.7032202E2,9.210148E2,8.113701E1,2.8918503E2,6.058973E2,3.1511752E2],"tree_param":{"num_deleted":"0","num_feature":"19","num_nodes":"9","size_leaf_vector":"1"}},{"base_weights":[-2.055898E-2,5.615721E-1,-7.247048E-2,1.0030137E0,-0E0,1.8856725E-2,-3.511939E-1,1.2531097E-1,1.3956125E-2,-8.522232E-2,6.7629956E-2,-2.3626138E-3,7.740227E-2,-7.239703E-2,-2.0554116E-2],"categories":[],"categories_nodes":[],"categories_segments":[],"categories_sizes":[],"default_left":[0,0,0,0,0,0,0,0,0,0,0,0,0,0,0],"id":1,"left_children":[1,3,5,7,9,11,13,-1,-1,-1,-1,-1,-1,-1,-1],"loss_changes":[3.8658577E1,2.7729881E1,3.1590054E1,1.0332691E1,2.6170952E1,3.1161787E1,1.4509666E1,0E0,0E0,0E0,0E0,0E0,0E0,0E0,0E0],"parents":[2147483647,0,0,1,1,2,2,3,3,4,4,5,5,6,6],"right_children":[2,4,6,8,10,12,14,-1,-1,-1,-1,-1,-1,-1,-1],"split_conditions":[2.4697272E-2,9.489057E-2,8.000008E-1,6.2385905E-3,2.1624515E-2,1.2855189E-1,-4.5108138E-7,1.2531097E-1,1.3956125E-2,-8.522232E-2,6.7629956E-2,-2.3626138E-3,7.740227E-2,-7.239703E-2,-2.0554116E-2],"split_indices":[9,3,14,1,9,16,16,0,0,0,0,0,0,0,0],"split_type":[0,0,0,0,0,0,0,0,0,0,0,0,0,0,0],"sum_hessian":[1.3155742E3,1.0409275E2,1.2114816E3,6.0140053E1,4.3952698E1,9.064544E2,3.050271E2,4.4163387E1,1.5976667E1,2.0671196E1,2.3281504E1,8.556156E2,5.083879E1,7.9643135E1,2.2538397E2],"tree_param":{"num_deleted":"0","num_feature":"19","num_nodes":"15","size_leaf_vector":"1"}},{"base_weights":[-1.1563318E-2,1.6923133E-1,-3.1475806E-1,6.099638E-1,7.2677046E-2,-2.314793E-1,-1.3929406E0,-0E0,8.8681884E-2,-8.69478E-2,1.4522213E-2,-3.119102E-2,4.7825538E-2,-5.0863445E-2,-1.7167039E-1],"categories":[],"categories_nodes":[],"categories_segments":[],"categories_sizes":[],"default_left":[0,0,0,0,0,0,0,0,0,0,0,0,0,0,0],"id":2,"left_children":[1,3,5,7,9,11,13,-1,-1,-1,-1,-1,-1,-1,-1],"loss_changes":[7.238489E1,3.3302353E1,4.082118E1,2.3826061E1,4.5660355E1,2.6990671E1,4.853859E0,0E0,0E0,0E0,0E0,0E0,0E0,0E0,0E0],"parents":[2147483647,0,0,1,1,2,2,3,3,4,4,5,5,6,6],"right_children":[2,4,6,8,10,12,14,-1,-1,-1,-1,-1,-1,-1,-1],"split_conditions":[3.232829E-2,-2.0277876E-2,1.00444585E-1,2.2177676E-2,-1.3009622E-2,1.2677385E-1,-6.2151045E-2,-0E0,8.8681884E-2,-8.69478E-2,1.4522213E-2,-3.119102E-2,4.7825538E-2,-5.0863445E-2,-1.7167039E-1],"split_indices":[17,2,17,17,15,9,1,0,0,0,0,0,0,0,0],"split_type":[0,0,0,0,0,0,0,0,0,0,0,0,0,0,0],"sum_hessian":[1.3143682E3,8.187482E2,4.9561993E2,1.4286441E2,6.758838E2,4.621121E2,3.350786E1,4.6583214E1,9.628119E1,4.6443783E1,6.2944E2,4.1686014E2,4.5251938E1,1.1194873E1,2.2312984E1],"tree_param":{"num_deleted":"0","num_feature":"19","num_nodes":"15","size_leaf_vector":"1"}},{"base_weights":[-1.338214E-2,1.5006365E-1,-2.7804065E-1,4.663041E-1,4.953694E-2,-2.1038067E-1,-1.2484218E0,1.2712842E-1,3.6915552E-2,2.6941888E-2,-1.2208631E-2,-1.2267184E-2,-1.1065106E-1,-4.1142546E-2,-1.5835142E-1],"categories":[],"categories_nodes":[],"categories_segments":[],"categories_sizes":[],"default_left":[0,0,0,0,0,0,0,0,0,0,0,0,0,0,0],"id":3,"left_children":[1,3,5,7,9,11,13,-1,-1,-1,-1,-1,-1,-1,-1],"loss_changes":[5.7505432E1,2.4663559E1,3.0192417E1,1.0863441E1,2.4176914E1,3.481149E1,4.425453E0,0E0,0E0,0E0,0E0,0E0,0E0,0E0,0E0],"parents":[2147483647,0,0,1,1,2,2,3,3,4,4,5,5,6,6],"right_children":[2,4,6,8,10,12,14,-1,-1,-1,-1,-1,-1,-1,-1],"split_conditions":[3.232829E-2,-7.167841E-2,1.00444585E-1,1.6164284E-2,2.0876413E-2,2.609119E-1,-1.8117927E-2,1.2712842E-1,3.6915552E-2,2.6941888E-2,-1.2208631E-2,-1.2267184E-2,-1.1065106E-1,-4.1142546E-2,-1.5835142E-1],"split_indices":[17,4,17,17,17,3,0,0,0,0,0,0,0,0,0],"split_type":[0,0,0,0,0,0,0,0,0,0,0,0,0,0,0],"sum_hessian":[1.3225574E3,8.123733E2,5.101841E2,1.904714E2,6.2190186E2,4.7919058E2,3.0993538E1,1.7143084E1,1.7332832E2,2.7768515E2,3.442167E2,4.3964468E2,3.95459E1,1.10833235E1,1.9910213E1],"tree_param":{"num_deleted":"0","num_feature":"19","num_nodes":"15","size_leaf_vector":"1"}},{"base_weights":[5.7919365E-3,6.6217244E-1,-3.7661485E-2,1.322678E-1,-0E0,3.7073195E-1,-1.0837149E-1,-5.5143524E-2,5.550836E-2,1.0750552E-3,7.2026834E-2,-6.6980086E-2,-2.3269076E-3],"categories":[],"categories_nodes":[],"categories_segments":[],"categories_sizes":[],"default_left":[0,0,0,0,0,0,0,0,0,0,0,0,0],"id":4,"left_children":[1,3,5,-1,7,9,11,-1,-1,-1,-1,-1,-1],"loss_changes":[3.9260406E1,3.850719E1,3.5263577E1,0E0,1.337458E1,2.11716E1,4.959072E1,0E0,0E0,0E0,0E0,0E0,0E0],"parents":[2147483647,0,0,1,1,2,2,4,4,5,5,6,6],"right_children":[2,4,6,-1,8,10,12,-1,-1,-1,-1,-1,-1],"split_conditions":[2.3501387E-2,8.870393E-2,-1.9051737E-1,1.322678E-1,1.9197328E-2,-6.613963E-2,-3.060115E-5,-5.5143524E-2,5.550836E-2,1.0750552E-3,7.2026834E-2,-6.6980086E-2,-2.3269076E-3],"split_indices":[9,3,4,0,17,2,16,0,0,0,0,0,0],"split_type":[0,0,0,0,0,0,0,0,0,0,0,0,0],"sum_hessian":[1.3269866E3,8.554659E1,1.24144E3,4.270014E1,4.284645E1,1.7846742E2,1.0629725E3,2.1798664E1,2.1047787E1,9.185806E1,8.660936E1,1.3496303E2,9.280095E2],"tree_param":{"num_deleted":"0","num_feature":"19","num_nodes":"13","size_leaf_vector":"1"}},{"base_weights":[3.235082E-2,6.285533E-2,-1.3672696E-1,2.4724384E-1,-5.8808196E-2,-5.9523948E-2,2.9650873E-2,1.9333193E-2,-2.1215744E-2],"categories":[],"categories_nodes":[],"categories_segments":[],"categories_sizes":[],"default_left":[0,0,0,0,0,0,0,0,0],"id":5,"left_children":[1,3,-1,5,7,-1,-1,-1,-1],"loss_changes":[5.4293175E1,2.967813E1,0E0,2.2345222E1,3.066323E1,0E0,0E0,0E0,0E0],"parents":[2147483647,0,0,1,1,3,3,4,4],"right_children":[2,4,-1,6,8,-1,-1,-1,-1],"split_conditions":[1.1009074E-1,2.462952E-2,-1.3672696E-1,-1.7160388E-2,-1.4334432E-2,-5.9523948E-2,2.9650873E-2,1.9333193E-2,-2.1215744E-2],"split_indices":[17,17,0,15,2,0,0,0,0],"split_type":[0,0,0,0,0,0,0,0,0],"sum_hessian":[1.3304038E3,1.3038807E3,2.6523123E1,5.2566046E2,7.782203E2,2.7650724E1,4.9800974E2,2.8968964E2,4.885306E2],"tree_param":{"num_deleted":"0","num_feature":"19","num_nodes":"9","size_leaf_vector":"1"}},{"base_weights":[5.88064E-2,5.546884E-1,1.0009444E-2,7.213418E-1,4.363816E-4,-1.418104E-2,6.296148E-1,9.056842E-3,8.5883334E-2,8.0695E-3,-2.148484E-2,7.4193967E-3,9.141912E-2],"categories":[],"categories_nodes":[],"categories_segments":[],"categories_sizes":[],"default_left":[0,0,0,0,0,0,0,0,0,0,0,0,0],"id":6,"left_children":[1,3,5,7,-1,9,11,-1,-1,-1,-1,-1,-1],"loss_changes":[3.057916E1,8.799004E0,1.9414165E1,5.4969673E0,0E0,2.2619085E1,5.6356125E0,0E0,0E0,0E0,0E0,0E0,0E0],"parents":[2147483647,0,0,1,1,2,2,3,3,5,5,6,6],"right_children":[2,4,6,8,-1,10,12,-1,-1,-1,-1,-1,-1],"split_conditions":[2.4697272E-2,1.4634229E-1,3.134753E0,6.640133E-2,4.363816E-4,6.1366882E-2,1.5856672E-2,9.056842E-3,8.5883334E-2,8.0695E-3,-2.148484E-2,7.4193967E-3,9.141912E-2],"split_indices":[9,4,6,6,0,9,15,0,0,0,0,0,0],"split_type":[0,0,0,0,0,0,0,0,0,0,0,0,0],"sum_hessian":[1.3162838E3,1.1371237E2,1.2025715E3,8.4116745E1,2.9595633E1,1.1539565E3,4.8614983E1,1.8620447E1,6.549629E1,7.7641797E2,3.7753854E2,1.9457626E1,2.9157356E1],"tree_param":{"num_deleted":"0","num_feature":"19","num_nodes":"13","size_leaf_vector":"1"}},{"base_weights":[-7.193193E-3,1.6263492E-1,-1.4834878E-1,6.348593E-1,1.09923676E-1,8.773838E-2,-1.799616E-1,8.560921E-2,-0E0,-6.1622686E-3,2.1950854E-2,-7.997395E-3,-4.7848046E-2],"categories":[],"categories_nodes":[],"categories_segments":[],"categories_sizes":[],"default_left":[0,0,0,0,0,0,0,0,0,0,0,0,0],"id":7,"left_children":[1,3,5,7,9,-1,11,-1,-1,-1,-1,-1,-1],"loss_changes":[3.2015137E1,1.3239195E1,2.2497076E1,7.558037E0,1.0776739E1,0E0,2.0283443E1,0E0,0E0,0E0,0E0,0E0,0E0],"parents":[2147483647,0,0,1,1,2,2,3,3,4,4,6,6],"right_children":[2,4,6,8,10,-1,12,-1,-1,-1,-1,-1,-1],"split_conditions":[-2.754456E-3,2.614623E-2,-2.4924184E-1,1.9757864E-3,-7.6032737E-3,8.773838E-2,6.8722345E-2,8.560921E-2,-0E0,-6.1622686E-3,2.1950854E-2,-7.997395E-3,-4.7848046E-2],"split_indices":[10,9,3,15,15,0,9,0,0,0,0,0,0],"split_type":[0,0,0,0,0,0,0,0,0,0,0,0,0],"sum_hessian":[1.3366991E3,5.994731E2,7.3722595E2,5.5814697E1,5.436584E2,1.9714813E1,7.175111E2,4.031801E1,1.549669E1,2.0567676E2,3.3798163E2,5.4576184E2,1.7174927E2],"tree_param":{"num_deleted":"0","num_feature":"19","num_nodes":"13","size_leaf_vector":"1"}},{"base_weights":[2.5467884E-3,2.8011892E-2,-1.0420572E0,1.398028E-3,7.9183817E-1,-2.8838279E-2,-1.376242E-1,1.943849E-2,-1.2720088E-2,1.042574E-2,1.0327529E-1],"categories":[],"categories_nodes":[],"categories_segments":[],"categories_sizes":[],"default_left":[0,0,0,0,0,0,0,0,0,0,0],"id":8,"left_children":[1,3,5,7,9,-1,-1,-1,-1,-1,-1],"loss_changes":[3.2376328E1,2.4112839E1,3.683609E0,3.1279379E1,4.2621937E0,0E0,0E0,0E0,0E0,0E0,0E0],"parents":[2147483647,0,0,1,1,2,2,3,3,4,4],"right_children":[2,4,6,8,10,-1,-1,-1,-1,-1,-1],"split_conditions":[1.00444585E-1,1.2794031E-1,-3.533577E-2,2.4289008E-2,2.9411793E-1,-2.8838279E-2,-1.376242E-1,1.943849E-2,-1.2720088E-2,1.042574E-2,1.0327529E-1],"split_indices":[17,18,10,17,14,0,0,0,0,0,0],"split_type":[0,0,0,0,0,0,0,0,0,0,0],"sum_hessian":[1.3028912E3,1.2740664E3,2.882484E1,1.2340967E3,3.9969784E1,1.1176751E1,1.7648088E1,5.0039838E2,7.3369824E2,1.3081758E1,2.6888025E1],"tree_param":{"num_deleted":"0","num_feature":"19","num_nodes":"11","size_leaf_vector":"1"}},{"base_weights":[2.9001946E-2,4.784286E-2,-1.2162163E-1,6.6492915E-2,1.6167577E-2,9.729045E-3,-1.886492E-2],"categories":[],"categories_nodes":[],"categories_segments":[],"categories_sizes":[],"default_left":[0,0,0,0,0,0,0],"id":9,"left_children":[1,3,-1,-1,5,-1,-1],"loss_changes":[2.8748512E1,2.4282555E1,0E0,0E0,2.09234E1,0E0,0E0],"parents":[2147483647,0,0,1,1,4,4],"right_children":[2,4,-1,-1,6,-1,-1],"split_conditions":[1.2691559E-1,-3.241402E-1,-1.2162163E-1,6.6492915E-2,3.840621E-2,9.729045E-3,-1.886492E-2],"split_indices":[17,4,0,0,17,0,0],"split_type":[0,0,0,0,0,0,0],"sum_hessian":[1.3278575E3,1.3100618E3,1.7795816E1,5.9915752E1,1.250146E3,9.027569E2,3.4738904E2],"tree_param":{"num_deleted":"0","num_feature":"19","num_nodes":"7","size_leaf_vector":"1"}},{"base_weights":[-2.9449368E-2,-5.31415E-3,-9.7790174E-2,-3.6660585E-1,3.5126984E-2,-2.9022954E-3,-1.1541012E-1,1.0262437E-3,5.709134E-2],"categories":[],"categories_nodes":[],"categories_segments":[],"categories_sizes":[],"default_left":[0,0,0,0,0,0,0,0,0],"id":10,"left_children":[1,3,-1,5,7,-1,-1,-1,-1],"loss_changes":[2.778387E1,1.931779E1,0E0,3.3208958E1,1.391112E1,0E0,0E0,0E0,0E0],"parents":[2147483647,0,0,1,1,3,3,4,4],"right_children":[2,4,-1,6,8,-1,-1,-1,-1],"split_conditions":[1.00444585E-1,-7.031911E-3,-9.7790174E-2,-1.9547509E-2,1.1928719E-1,-2.9022954E-3,-1.1541012E-1,1.0262437E-3,5.709134E-2],"split_indices":[17,16,0,16,18,0,0,0,0],"split_type":[0,0,0,0,0,0,0,0,0],"sum_hessian":[1.3004785E3,1.2708419E3,2.9636606E1,1.334802E2,1.1373617E3,9.58216E1,3.765859E1,1.0915554E3,4.5806293E1],"tree_param":{"num_deleted":"0","num_feature":"19","num_nodes":"9","size_leaf_vector":"1"}},{"base_weights":[4.405075E-2,4.8496175E-1,3.2351823E-3,7.5922126E-1,-0E0,1.4625591E-1,-9.733089E-2,2.9646482E-2,1.0267711E-1,-6.911828E-2,2.77415E-2,1.9794658E-2,-3.2011144E-2,-3.8140886E-2,1.749947E-3],"categories":[],"categories_nodes":[],"categories_segments":[],"categories_sizes":[],"default_left":[0,0,0,0,0,0,0,0,0,0,0,0,0,0,0],"id":11,"left_children":[1,3,5,7,9,11,13,-1,-1,-1,-1,-1,-1,-1,-1],"loss_changes":[2.2840874E1,1.5286978E1,1.769355E1,5.9339447E0,7.82879E0,1.25709095E1,2.421935E1,0E0,0E0,0E0,0E0,0E0,0E0,0E0,0E0],"parents":[2147483647,0,0,1,1,2,2,3,3,4,4,5,5,6,6],"right_children":[2,4,6,8,10,12,14,-1,-1,-1,-1,-1,-1,-1,-1],"split_conditions":[2.4697272E-2,5.873837E-3,-4.5454754E-3,-4.817376E-6,2.6015595E-2,6.5E-1,2.471963E-6,2.9646482E-2,1.0267711E-1,-6.911828E-2,2.77415E-2,1.9794658E-2,-3.2011144E-2,-3.8140886E-2,1.749947E-3],"split_indices":[9,1,10,16,2,13,16,0,0,0,0,0,0,0,0],"split_type":[0,0,0,0,0,0,0,0,0,0,0,0,0,0,0],"sum_hessian":[1.3303062E3,1.07961876E2,1.2223444E3,7.0524864E1,3.7437016E1,5.1389197E2,7.0845233E2,2.9546701E1,4.0978157E1,1.1926159E1,2.5510855E1,4.6581357E2,4.8078426E1,2.0810756E2,5.0034476E2],"tree_param":{"num_deleted":"0","num_feature":"19","num_nodes":"15","size_leaf_vector":"1"}},{"base_weights":[-9.330579E-3,2.1123244E-1,-9.30831E-2,4.8991677E-1,5.017329E-2,9.504076E-2,-2.2662947E-1,-4.961715E-2,6.835591E-2,-1.1772014E-2,4.6363644E-2,2.5223084E-2,-1.991684E-2,-1.4452216E-2,-6.1811384E-2],"categories":[],"categories_nodes":[],"categories_segments":[],"categories_sizes":[],"default_left":[0,0,0,0,0,0,0,0,0,0,0,0,0,0,0],"id":12,"left_children":[1,3,5,7,9,11,13,-1,-1,-1,-1,-1,-1,-1,-1],"loss_changes":[2.4065498E1,1.4719058E1,2.4468744E1,2.5085123E1,1.7010118E1,1.8610071E1,1.6541426E1,0E0,0E0,0E0,0E0,0E0,0E0,0E0,0E0],"parents":[2147483647,0,0,1,1,2,2,3,3,4,4,5,5,6,6],"right_children":[2,4,6,8,10,12,14,-1,-1,-1,-1,-1,-1,-1,-1],"split_conditions":[2.1174725E-2,8.115326E-2,-1.4702481E-1,-6.6947695E-3,1.9456778E-2,4.987191E-2,1.7471733E-2,-4.961715E-2,6.835591E-2,-1.1772014E-2,4.6363644E-2,2.5223084E-2,-1.991684E-2,-1.4452216E-2,-6.1811384E-2],"split_indices":[17,3,6,3,17,17,0,0,0,0,0,0,0,0,0],"split_type":[0,0,0,0,0,0,0,0,0,0,0,0,0,0,0],"sum_hessian":[1.3170183E3,3.5502353E2,9.619948E2,1.2484476E2,2.3017877E2,3.923876E2,5.696072E2,1.8991467E1,1.05853294E2,1.600557E2,7.012307E1,2.6004776E2,1.3233984E2,4.7784494E2,9.176226E1],"tree_param":{"num_deleted":"0","num_feature":"19","num_nodes":"15","size_leaf_vector":"1"}},{"base_weights":[-1.147229E-3,-3.3904906E-2,5.117982E-1,-7.7591854E-4,-5.435848E-1,1.7774332E-1,1.3017336E-1,1.4247086E-3,-9.117801E-2,-6.940034E-2,1.0296452E-2,7.216519E-2,-3.4153853E-2],"categories":[],"categories_nodes":[],"categories_segments":[],"categories_sizes":[],"default_left":[0,0,0,0,0,0,0,0,0,0,0,0,0],"id":13,"left_children":[1,3,5,7,9,11,-1,-1,-1,-1,-1,-1,-1],"loss_changes":[2.1100529E1,1.9791134E1,1.6703398E1,1.8348501E1,8.602692E0,1.668537E1,0E0,0E0,0E0,0E0,0E0,0E0,0E0],"parents":[2147483647,0,0,1,1,2,2,3,3,4,4,5,5],"right_children":[2,4,6,8,10,12,-1,-1,-1,-1,-1,-1,-1],"split_conditions":[8.760169E-2,4.454372E-3,1.460232E-1,1.3816828E-1,2.6993892E-1,8.758138E-2,1.3017336E-1,1.4247086E-3,-9.117801E-2,-6.940034E-2,1.0296452E-2,7.216519E-2,-3.4153853E-2],"split_indices":[16,16,9,9,4,9,0,0,0,0,0,0,0],"split_type":[0,0,0,0,0,0,0,0,0,0,0,0,0],"sum_hessian":[1.3197291E3,1.2447076E3,7.502146E1,1.1729667E3,7.1740974E1,5.4985477E1,2.0035986E1,1.1516057E3,2.1360939E1,6.0610386E1,1.11305895E1,2.8870993E1,2.6114485E1],"tree_param":{"num_deleted":"0","num_feature":"19","num_nodes":"13","size_leaf_vector":"1"}},{"base_weights":[4.0959544E-3,5.4841065E-1,-2.2021635E-2,7.264892E-2,-0E0,8.299486E-2,-2.96784E-1,3.5284832E-2,-4.069743E-3,-4.5308527E-2,-5.806642E-4],"categories":[],"categories_nodes":[],"categories_segments":[],"categories_sizes":[],"default_left":[0,0,0,0,0,0,0,0,0,0,0],"id":14,"left_children":[1,3,5,-1,-1,7,9,-1,-1,-1,-1],"loss_changes":[1.9822433E1,7.058609E0,3.6463215E1,0E0,0E0,3.1021795E1,1.5279388E1,0E0,0E0,0E0,0E0],"parents":[2147483647,0,0,1,1,2,2,5,5,6,6],"right_children":[2,4,6,-1,-1,8,10,-1,-1,-1,-1],"split_conditions":[-2.2261992E-1,3.636377E-1,6.1366882E-2,7.264892E-2,-0E0,4.8502695E-2,1.5322956E-1,3.5284832E-2,-4.069743E-3,-4.5308527E-2,-5.806642E-4],"split_indices":[3,12,9,0,0,3,3,0,0,0,0],"split_type":[0,0,0,0,0,0,0,0,0,0,0],"sum_hessian":[1.3107341E3,6.3893692E1,1.2468405E3,4.8955647E1,1.49380455E1,8.9616693E2,3.5067346E2,2.8579266E2,6.1037427E2,2.2124057E2,1.294329E2],"tree_param":{"num_deleted":"0","num_feature":"19","num_nodes":"11","size_leaf_vector":"1"}},{"base_weights":[-1.4476567E-2,8.778394E-2,-1.8701014E-1,2.6871186E-1,-4.7218986E-2,-9.6567735E-2,-8.8853496E-1,1.0115049E-1,1.7173002E-2,-1.8943587E-2,4.177464E-2,-4.2998493E-3,-9.850118E-2,-1.2409706E-1,2.8476387E-2],"categories":[],"categories_nodes":[],"categories_segments":[],"categories_sizes":[],"default_left":[0,0,0,0,0,0,0,0,0,0,0,0,0,0,0],"id":15,"left_children":[1,3,5,7,9,11,13,-1,-1,-1,-1,-1,-1,-1,-1],"loss_changes":[2.3181786E1,2.0255922E1,2.9016249E1,2.262143E1,3.0193304E1,1.861048E1,2.4945538E1,0E0,0E0,0E0,0E0,0E0,0E0,0E0,0E0],"parents":[2147483647,0,0,1,1,2,2,3,3,4,4,5,5,6,6],"right_children":[2,4,6,8,10,12,14,-1,-1,-1,-1,-1,-1,-1,-1],"split_conditions":[3.232829E-2,8.870393E-2,2.2425298E-1,2.3501387E-2,2.4163207E-1,1.1009074E-1,8.760169E-2,1.0115049E-1,1.7173002E-2,-1.8943587E-2,4.177464E-2,-4.2998493E-3,-9.850118E-2,-1.2409706E-1,2.8476387E-2],"split_indices":[17,3,3,9,3,17,16,0,0,0,0,0,0,0,0],"split_type":[0,0,0,0,0,0,0,0,0,0,0,0,0,0,0],"sum_hessian":[1.3010793E3,8.087218E2,4.923575E2,3.5268445E2,4.5603735E2,4.3905563E2,5.330186E1,3.707893E1,3.1560553E2,3.5265723E2,1.0338013E2,4.1689926E2,2.2156382E1,4.220313E1,1.1098732E1],"tree_param":{"num_deleted":"0","num_feature":"19","num_nodes":"15","size_leaf_vector":"1"}},{"base_weights":[-1.0762011E-2,1.18100695E-1,-1.17168844E-1,1.6727066E-1,-4.3899283E-1,-4.2717886E-1,4.8251105E-3,9.09819E-3,4.48882E-2,-1.1325625E-1,-0E0,-6.669443E-3,-7.401495E-2,8.82601E-3,-2.0421589E-2],"categories":[],"categories_nodes":[],"categories_segments":[],"categories_sizes":[],"default_left":[0,0,0,0,0,0,0,0,0,0,0,0,0,0,0],"id":16,"left_children":[1,3,5,7,9,11,13,-1,-1,-1,-1,-1,-1,-1,-1],"loss_changes":[1.7633476E1,1.5064717E1,2.7956718E1,1.0180729E1,1.2953794E1,2.190979E1,8.730903E0,0E0,0E0,0E0,0E0,0E0,0E0,0E0,0E0],"parents":[2147483647,0,0,1,1,2,2,3,3,4,4,5,5,6,6],"right_children":[2,4,6,8,10,12,14,-1,-1,-1,-1,-1,-1,-1,-1],"split_conditions":[-2.754456E-3,6.666726E-1,2.471963E-6,5.169395E-1,4.9755737E-2,-4.691104E-1,6.8722345E-2,9.09819E-3,4.48882E-2,-1.1325625E-1,-0E0,-6.669443E-3,-7.401495E-2,8.82601E-3,-2.0421589E-2],"split_indices":[10,13,16,7,9,5,9,0,0,0,0,0,0,0,0],"split_type":[0,0,0,0,0,0,0,0,0,0,0,0,0,0,0],"sum_hessian":[1.2859973E3,5.720396E2,7.139577E2,5.2941406E2,4.2625526E1,2.0677878E2,5.0717892E2,4.2487564E2,1.0453842E2,1.617362E1,2.6451904E1,1.00509514E2,1.0626926E2,3.7010724E2,1.3707169E2],"tree_param":{"num_deleted":"0","num_feature":"19","num_nodes":"15","size_leaf_vector":"1"}},{"base_weights":[-1.8017532E-2,-0E0,-1.0192955E-1,3.0552763E-1,-4.3059565E-2,4.475331E-2,-9.739436E-5,7.14808E-3,-2.0505467E-2],"categories":[],"categories_nodes":[],"categories_segments":[],"categories_sizes":[],"default_left":[0,0,0,0,0,0,0,0,0],"id":17,"left_children":[1,3,-1,5,7,-1,-1,-1,-1],"loss_changes":[2.1082764E1,1.6021446E1,0E0,7.6900682E0,2.1240921E1,0E0,0E0,0E0,0E0],"parents":[2147483647,0,0,1,1,3,3,4,4],"right_children":[2,4,-1,6,8,-1,-1,-1,-1],"split_conditions":[1.1009074E-1,-2.0750245E-1,-1.0192955E-1,5.3342097E-2,2.8657056E-2,4.475331E-2,-9.739436E-5,7.14808E-3,-2.0505467E-2],"split_indices":[17,4,0,17,17,0,0,0,0],"split_type":[0,0,0,0,0,0,0,0,0],"sum_hessian":[1.2810258E3,1.260741E3,2.0284752E1,1.4948091E2,1.11126E3,1.0629946E2,4.3181454E1,6.443011E2,4.6695898E2],"tree_param":{"num_deleted":"0","num_feature":"19","num_nodes":"9","size_leaf_vector":"1"}}]},"name":"gbtree"},"learner_model_param":{"base_score":"[5E-1]","boost_from_average":"1","num_class":"0","num_feature":"19","num_target":"1"},"objective":{"name":"binary:logistic","reg_loss_param":{"scale_pos_weight":"2.17235851"}}},"version":[3,2,0]}