{"learner":{"attributes":{"scikit_learn":"{\"_estimator_type\": \"classifier\"}"},"feature_names":["bias_week","bias_month","bias_quarter","bias_year","rsi","macd","macd_signal","vol_change","close_change","bb_width","return_5d","k_upper","k_lower","k_body","buy_power","rs_5d"],"feature_types":["float","float","float","float","float","float","float","float","float","float","float","float","float","float","float","float"],"gradient_booster":{"model":{"gbtree_model_param":{"num_parallel_tree":"1","num_trees":"14"},"iteration_indptr":[0,1,2,3,4,5,6,7,8,9,10,11,12,13,14],"tree_info":[0,0,0,0,0,0,0,0,0,0,0,0,0,0],"trees":[{"base_weights":[8.772916E-3,-3.760127E-1,3.3846006E-1,-6.6391534E-1,-1.1946479E-1,2.9422367E-1,1.2661487E0,1.1925464E-1,-8.955891E-1,-1.9768015E-1,9.56032E-1,1.2377906E0,2.5677812E-1,1.3915838E0,2.3277358E-3,5.9026428E-2,-5.2300277E-3,-5.2120753E-2,-2.166145E-2,6.135152E-2,-1.1619086E-2,6.502616E-2,-2.1250835E-3,1.710785E-2,7.1430184E-2,8.566838E-3,3.6308132E-2,7.442515E-2,5.086653E-3],"categories":[],"categories_nodes":[],"categories_segments":[],"categories_sizes":[],"default_left":[0,0,0,0,0,0,0,0,0,0,0,0,0,0,0,0,0,0,0,0,0,0,0,0,0,0,0,0,0],"id":0,"left_children":[1,3,5,7,9,11,13,15,17,19,21,23,25,27,-1,-1,-1,-1,-1,-1,-1,-1,-1,-1,-1,-1,-1,-1,-1],"loss_changes":[8.619798E1,2.3079784E1,1.46441765E1,2.687413E1,1.4239049E1,1.2068758E1,2.4367561E0,8.334143E0,7.285179E0,8.023874E0,4.0092573E0,1.7533398E0,1.3449221E1,1.6977997E0,0E0,0E0,0E0,0E0,0E0,0E0,0E0,0E0,0E0,0E0,0E0,0E0,0E0,0E0,0E0],"parents":[2147483647,0,0,1,1,2,2,3,3,4,4,5,5,6,6,7,7,8,8,9,9,10,10,11,11,12,12,13,13],"right_children":[2,4,6,8,10,12,14,16,18,20,22,24,26,28,-1,-1,-1,-1,-1,-1,-1,-1,-1,-1,-1,-1,-1,-1,-1],"split_conditions":[6.664688E-2,-2.939046E-2,5.725158E0,-1.5631038E-1,2.8577902E0,-1.4559723E-1,8.0000114E-1,3.473254E-2,5.6996766E-2,2.1536484E-2,4.4395602E-1,-5.775654E-1,3.0738479E-2,6.677478E-1,2.3277358E-3,5.9026428E-2,-5.2300277E-3,-5.2120753E-2,-2.166145E-2,6.135152E-2,-1.1619086E-2,6.502616E-2,-2.1250835E-3,1.710785E-2,7.1430184E-2,8.566838E-3,3.6308132E-2,7.442515E-2,5.086653E-3],"split_indices":[9,3,6,3,6,1,13,9,9,9,3,4,0,4,0,0,0,0,0,0,0,0,0,0,0,0,0,0,0],"split_type":[0,0,0,0,0,0,0,0,0,0,0,0,0,0,0,0,0,0,0,0,0,0,0,0,0,0,0,0,0],"sum_hessian":[6.7747614E2,3.125505E2,3.649256E2,1.465272E2,1.660233E2,3.4957352E2,1.5352087E1,3.3560764E1,1.12966446E2,1.5552869E2,1.0494605E1,1.2119753E1,3.3745377E2,1.3792506E1,1.5595803E0,5.101494E0,2.8459272E1,8.478711E1,2.8179333E1,2.881136E0,1.5264755E2,7.57784E0,2.9167655E0,2.6191607E0,9.500593E0,2.866418E2,5.081195E1,1.2685321E1,1.1071852E0],"tree_param":{"num_deleted":"0","num_feature":"16","num_nodes":"29","size_leaf_vector":"1"}},{"base_weights":[7.477863E-3,-3.45253E-1,3.0483165E-1,-6.151113E-1,-1.1721512E-1,1.4428744E-1,5.477655E-1,-3.6747318E-2,-7.958574E-1,4.1586936E-2,-4.4600254E-1,5.155081E-1,-1.480103E-1,8.232048E-2,4.7382364E-1,5.176356E-2,-1.3717473E-2,3.4789406E-3,-4.2878117E-2,-1.7557653E-2,1.8427566E-2,1.2933071E-2,-2.9142046E-2,1.6884325E-2,4.6750765E-2,-3.4251574E-2,-8.442606E-4,1.9796602E-2,7.58691E-2],"categories":[],"categories_nodes":[],"categories_segments":[],"categories_sizes":[],"default_left":[0,0,0,0,0,0,0,0,0,0,0,0,0,0,0,0,0,0,0,0,0,0,0,0,0,0,0,0,0],"id":1,"left_children":[1,3,5,7,9,11,13,15,17,19,21,23,25,-1,27,-1,-1,-1,-1,-1,-1,-1,-1,-1,-1,-1,-1,-1,-1],"loss_changes":[7.1385414E1,1.908601E1,1.4323303E1,1.4851715E1,8.8931E0,2.4349096E1,1.112722E1,9.1843815E0,5.848854E0,1.4964633E1,5.4968414E0,7.052107E0,8.856037E0,0E0,1.0676493E1,0E0,0E0,0E0,0E0,0E0,0E0,0E0,0E0,0E0,0E0,0E0,0E0,0E0,0E0],"parents":[2147483647,0,0,1,1,2,2,3,3,4,4,5,5,6,6,7,7,8,8,9,9,10,10,11,11,12,12,14,14],"right_children":[2,4,6,8,10,12,14,16,18,20,22,24,26,-1,28,-1,-1,-1,-1,-1,-1,-1,-1,-1,-1,-1,-1,-1,-1],"split_conditions":[6.626054E-2,-2.939046E-2,2.5058843E-2,-1.5631038E-1,2.1582924E-2,-9.598953E-2,-1.9313371E-1,3.441201E-2,-4.5434576E-2,-4.566183E-3,2.287979E-3,1.6167955E-1,-6.238599E-2,8.232048E-2,4.1515103E-1,5.176356E-2,-1.3717473E-2,3.4789406E-3,-4.2878117E-2,-1.7557653E-2,1.8427566E-2,1.2933071E-2,-2.9142046E-2,1.6884325E-2,4.6750765E-2,-3.4251574E-2,-8.442606E-4,1.9796602E-2,7.58691E-2],"split_indices":[9,3,2,3,10,2,3,9,1,8,2,9,1,0,2,0,0,0,0,0,0,0,0,0,0,0,0,0,0],"split_type":[0,0,0,0,0,0,0,0,0,0,0,0,0,0,0,0,0,0,0,0,0,0,0,0,0,0,0,0,0],"sum_hessian":[6.7859753E2,3.103221E2,3.6827542E2,1.41351E2,1.6897112E2,2.2269806E2,1.4557735E2,3.3942562E1,1.0740844E2,1.1452827E2,5.444285E1,9.776809E1,1.2492997E2,7.838906E0,1.3773843E2,5.549054E0,2.8393507E1,7.1399603E0,1.00268486E2,5.199701E1,6.2531258E1,8.708294E0,4.5734554E1,6.993068E1,2.7837416E1,2.3688745E1,1.0124123E2,1.2945526E2,8.283184E0],"tree_param":{"num_deleted":"0","num_feature":"16","num_nodes":"29","size_leaf_vector":"1"}},{"base_weights":[1.4075263E-2,-3.2936615E-1,3.1892404E-1,-3.6910066E-1,6.1260223E-1,1.5762086E-1,5.6262773E-1,-5.3015864E-1,-2.485317E-1,1.0244915E0,-3.6853462E-1,5.432358E-1,-8.477359E-2,5.0206256E-1,1.4326283E0,-4.5845397E-2,-1.9454544E-2,1.7364986E-2,-1.5054764E-2,1.316263E-2,7.9206966E-2,1.6601328E-2,-3.8703207E-2,1.4186209E-3,3.8144927E-2,-1.7659705E-2,6.0677333E-3,3.570642E-2,9.89358E-3,7.94647E-2,3.1887464E-2],"categories":[],"categories_nodes":[],"categories_segments":[],"categories_sizes":[],"default_left":[0,0,0,0,0,0,0,0,0,0,0,0,0,0,0,0,0,0,0,0,0,0,0,0,0,0,0,0,0,0,0],"id":2,"left_children":[1,3,5,7,9,11,13,15,17,19,21,23,25,27,29,-1,-1,-1,-1,-1,-1,-1,-1,-1,-1,-1,-1,-1,-1,-1,-1],"loss_changes":[7.1025055E1,1.2166576E1,1.4037807E1,5.824524E0,5.747634E0,2.0387728E1,6.801632E0,6.7594337E0,5.657342E0,3.682951E0,1.5821936E0,9.493433E0,7.4842386E0,8.566296E0,7.609367E-2,0E0,0E0,0E0,0E0,0E0,0E0,0E0,0E0,0E0,0E0,0E0,0E0,0E0,0E0,0E0,0E0],"parents":[2147483647,0,0,1,1,2,2,3,3,4,4,5,5,6,6,7,7,8,8,9,9,10,10,11,11,12,12,13,13,14,14],"right_children":[2,4,6,8,10,12,14,16,18,20,22,24,26,28,30,-1,-1,-1,-1,-1,-1,-1,-1,-1,-1,-1,-1,-1,-1,-1,-1],"split_conditions":[6.709416E-2,2.7995355E0,9.6030277E-1,-3.8759885E-3,7.330538E-1,-1.0745583E-1,7.1711516E0,-4.3938515E-1,-1.9133794E0,4.4052515E-2,3.199997E-1,1.0341547E-1,-9.501159E-3,3.4774373E0,5.000014E-1,-4.5845397E-2,-1.9454544E-2,1.7364986E-2,-1.5054764E-2,1.316263E-2,7.9206966E-2,1.6601328E-2,-3.8703207E-2,1.4186209E-3,3.8144927E-2,-1.7659705E-2,6.0677333E-3,3.570642E-2,9.89358E-3,7.94647E-2,3.1887464E-2],"split_indices":[9,6,5,8,7,2,6,7,6,9,11,9,10,6,13,0,0,0,0,0,0,0,0,0,0,0,0,0,0,0,0],"split_type":[0,0,0,0,0,0,0,0,0,0,0,0,0,0,0,0,0,0,0,0,0,0,0,0,0,0,0,0,0,0,0],"sum_hessian":[6.7637897E2,3.180193E2,3.5835965E2,3.0573096E2,1.2288318E1,2.1662569E2,1.4173396E2,1.2943391E2,1.7629706E2,8.623791E0,3.664527E0,8.313255E1,1.3349313E2,1.3398375E2,7.750211E0,3.3123432E1,9.6310486E1,1.3837347E1,1.624597E2,4.2768126E0,4.3469787E0,1.40999E0,2.254537E0,2.5198778E1,5.793378E1,5.767509E1,7.581805E1,7.815241E1,5.5831345E1,5.6393204E0,2.1108906E0],"tree_param":{"num_deleted":"0","num_feature":"16","num_nodes":"31","size_leaf_vector":"1"}},{"base_weights":[1.6523486E-2,-3.2015914E-1,3.00902E-1,-6.1348253E-1,-6.3747175E-2,1.383042E-1,5.371095E-1,3.283897E-2,-8.019221E-1,-1.2818477E-1,6.8060225E-1,5.019019E-1,-9.9395E-2,3.402538E-1,7.910573E-1,-3.219848E-2,2.2832958E-2,1.8569035E-2,-4.358433E-2,-2.1988244E-3,-3.8000062E-2,6.7244194E-2,-2.1189946E-5,-8.09359E-3,3.006734E-2,-1.4437899E-2,1.0530561E-2,3.1679332E-2,2.4008192E-3,2.001675E-2,4.6176527E-2],"categories":[],"categories_nodes":[],"categories_segments":[],"categories_sizes":[],"default_left":[0,0,0,0,0,0,0,0,0,0,0,0,0,0,0,0,0,0,0,0,0,0,0,0,0,0,0,0,0,0,0],"id":3,"left_children":[1,3,5,7,9,11,13,15,17,19,21,23,25,27,29,-1,-1,-1,-1,-1,-1,-1,-1,-1,-1,-1,-1,-1,-1,-1,-1],"loss_changes":[6.531022E1,2.3454193E1,1.4126854E1,1.7756737E1,8.134845E0,1.9093925E1,7.2498474E0,9.996243E0,9.553291E0,8.226939E0,6.119706E0,5.858032E0,7.931637E0,7.3831034E0,2.9907951E0,0E0,0E0,0E0,0E0,0E0,0E0,0E0,0E0,0E0,0E0,0E0,0E0,0E0,0E0,0E0,0E0],"parents":[2147483647,0,0,1,1,2,2,3,3,4,4,5,5,6,6,7,7,8,8,9,9,10,10,11,11,12,12,13,13,14,14],"right_children":[2,4,6,8,10,12,14,16,18,20,22,24,26,28,30,-1,-1,-1,-1,-1,-1,-1,-1,-1,-1,-1,-1,-1,-1,-1,-1],"split_conditions":[6.626054E-2,-3.2763377E-2,2.5058843E-2,-1.5631038E-1,2.7995355E0,-1.0449013E-1,1.8749645E-1,1.4285582E-1,-4.0675346E-2,9.4686255E-2,1.06157195E-2,7.8940175E-2,-7.183186E-3,2.9865017E0,1.5376928E0,-3.219848E-2,2.2832958E-2,1.8569035E-2,-4.358433E-2,-2.1988244E-3,-3.8000062E-2,6.7244194E-2,-2.1189946E-5,-8.09359E-3,3.006734E-2,-1.4437899E-2,1.0530561E-2,3.1679332E-2,2.4008192E-3,2.001675E-2,4.6176527E-2],"split_indices":[9,3,2,3,6,2,12,14,15,2,10,9,3,6,6,0,0,0,0,0,0,0,0,0,0,0,0,0,0,0,0],"split_type":[0,0,0,0,0,0,0,0,0,0,0,0,0,0,0,0,0,0,0,0,0,0,0,0,0,0,0,0,0,0,0],"sum_hessian":[6.8011835E2,3.1136267E2,3.6875565E2,1.4457875E2,1.6678394E2,2.1934854E2,1.494071E2,3.282371E1,1.11755035E2,1.5425778E2,1.2526151E1,8.627147E1,1.3307707E2,8.5482506E1,6.3924606E1,1.2439438E1,2.0384275E1,6.0293746E0,1.05725655E2,1.3706006E2,1.7197712E1,5.847568E0,6.678583E0,1.1159095E1,7.511238E1,8.265621E1,5.0420853E1,4.2078365E1,4.340414E1,1.72041E1,4.6720505E1],"tree_param":{"num_deleted":"0","num_feature":"16","num_nodes":"31","size_leaf_vector":"1"}},{"base_weights":[-4.1788278E-4,-3.0213487E-1,2.712629E-1,-5.481769E-1,-1.3617297E-1,1.4463758E-1,4.907514E-1,-8.110241E-1,-2.1182796E-1,6.574958E-1,-2.0160757E-1,1.0154313E0,8.7735035E-2,7.5065535E-1,3.442554E-1,2.0446563E-2,-4.2612765E-2,9.0038E-4,-4.6133656E-2,4.621391E-2,-2.1709405E-2,-1.2401461E-2,2.1492256E-2,-4.9134544E-3,6.041667E-2,2.0590756E-2,-5.1773473E-4,1.0431732E-2,5.6643236E-2,3.9614253E-2,1.0370922E-2],"categories":[],"categories_nodes":[],"categories_segments":[],"categories_sizes":[],"default_left":[0,0,0,0,0,0,0,0,0,0,0,0,0,0,0,0,0,0,0,0,0,0,0,0,0,0,0,0,0,0,0],"id":4,"left_children":[1,3,5,7,9,11,13,15,17,19,21,23,25,27,29,-1,-1,-1,-1,-1,-1,-1,-1,-1,-1,-1,-1,-1,-1,-1,-1],"loss_changes":[5.6273296E1,1.3207346E1,9.968716E0,1.1382652E1,1.0289546E1,1.1332014E1,4.757536E0,4.0209007E0,9.6043625E0,4.8081045E0,5.4253573E0,3.1357555E0,6.916809E0,9.42609E0,5.114068E0,0E0,0E0,0E0,0E0,0E0,0E0,0E0,0E0,0E0,0E0,0E0,0E0,0E0,0E0,0E0,0E0],"parents":[2147483647,0,0,1,1,2,2,3,3,4,4,5,5,6,6,7,7,8,8,9,9,10,10,11,11,12,12,13,13,14,14],"right_children":[2,4,6,8,10,12,14,16,18,20,22,24,26,28,30,-1,-1,-1,-1,-1,-1,-1,-1,-1,-1,-1,-1,-1,-1,-1,-1],"split_conditions":[6.752868E-2,-5.940562E-2,3.2906283E-2,4.987769E-2,-1.2048077E-2,-1.4559723E-1,3.6537237E-2,-4.178691E-2,-9.904847E-2,6.0190883E-2,2.7995355E0,-9.9901754E-1,-4.0806866E0,1.3777624E-1,3.92151E-2,2.0446563E-2,-4.2612765E-2,9.0038E-4,-4.6133656E-2,4.621391E-2,-2.1709405E-2,-1.2401461E-2,2.1492256E-2,-4.9134544E-3,6.041667E-2,2.0590756E-2,-5.1773473E-4,1.0431732E-2,5.6643236E-2,3.9614253E-2,1.0370922E-2],"split_indices":[9,4,1,9,0,1,15,15,4,9,6,7,6,6,11,0,0,0,0,0,0,0,0,0,0,0,0,0,0,0,0],"split_type":[0,0,0,0,0,0,0,0,0,0,0,0,0,0,0,0,0,0,0,0,0,0,0,0,0,0,0,0,0,0,0],"sum_hessian":[6.8450507E2,3.2427127E2,3.602338E2,1.2969408E2,1.945772E2,2.2949474E2,1.3073907E2,7.2009445E1,5.7684628E1,1.4131036E1,1.8044617E2,1.3043392E1,2.1645134E2,4.5641224E1,8.509785E1,2.0626082E0,6.994684E1,4.4327126E1,1.3357499E1,1.1479144E1,2.6518922E0,1.6865462E2,1.1791543E1,1.9981067E0,1.1045285E1,4.954861E1,1.6690273E2,1.9513912E1,2.6127312E1,1.8789038E1,6.630881E1],"tree_param":{"num_deleted":"0","num_feature":"16","num_nodes":"31","size_leaf_vector":"1"}},{"base_weights":[-3.0532584E-2,5.5464125E-1,-8.914673E-2,7.812896E-1,1.1895289E-1,-2.3647997E-1,2.7897418E-1,5.2740257E-2,9.65493E-1,6.859869E-1,-3.4343305E-1,-3.1443882E-1,1.9098143E-1,1.2968038E0,2.1542227E-1,5.3907156E-2,-2.6962591E-2,6.463987E-2,3.6394056E-2,-2.9786114E-2,5.8624126E-2,-3.125305E-2,2.2571696E-2,-4.6780235E-3,-2.2724476E-2,5.3654253E-3,3.960929E-2,1.9941889E-2,7.0812024E-2,7.849093E-3,6.63146E-2],"categories":[],"categories_nodes":[],"categories_segments":[],"categories_sizes":[],"default_left":[0,0,0,0,0,0,0,0,0,0,0,0,0,0,0,0,0,0,0,0,0,0,0,0,0,0,0,0,0,0,0],"id":5,"left_children":[1,3,5,7,9,11,13,15,17,19,21,23,25,27,29,-1,-1,-1,-1,-1,-1,-1,-1,-1,-1,-1,-1,-1,-1,-1,-1],"loss_changes":[2.3627136E1,6.1009293E0,3.4000793E1,5.462141E0,6.1724343E0,1.4968859E1,1.1318593E1,6.2560797E0,1.6046276E0,7.2484455E0,3.2234325E0,1.1673943E1,3.417654E0,5.4390335E-1,1.0825607E1,0E0,0E0,0E0,0E0,0E0,0E0,0E0,0E0,0E0,0E0,0E0,0E0,0E0,0E0,0E0,0E0],"parents":[2147483647,0,0,1,1,2,2,3,3,4,4,5,5,6,6,7,7,8,8,9,9,10,10,11,11,12,12,13,13,14,14],"right_children":[2,4,6,8,10,12,14,16,18,20,22,24,26,28,30,-1,-1,-1,-1,-1,-1,-1,-1,-1,-1,-1,-1,-1,-1,-1,-1],"split_conditions":[-4.0806866E0,-3.0745998E-2,1.5125902E0,-4.7543785E-1,-2.8275084E-1,1.6995536E-1,-1.7408648E-1,-8.227194E0,-6.6173377E0,-1.9089198E-1,3.1170455E-1,-1.1804444E0,3.8323537E-2,-2.7901944E-2,7.1711516E0,5.3907156E-2,-2.6962591E-2,6.463987E-2,3.6394056E-2,-2.9786114E-2,5.8624126E-2,-3.125305E-2,2.2571696E-2,-4.6780235E-3,-2.2724476E-2,5.3654253E-3,3.960929E-2,1.9941889E-2,7.0812024E-2,7.849093E-3,6.63146E-2],"split_indices":[6,1,5,3,3,3,3,6,5,2,7,6,1,8,6,0,0,0,0,0,0,0,0,0,0,0,0,0,0,0,0],"split_type":[0,0,0,0,0,0,0,0,0,0,0,0,0,0,0,0,0,0,0,0,0,0,0,0,0,0,0,0,0,0,0],"sum_hessian":[6.86407E2,6.1723938E1,6.2468304E2,4.0080524E1,2.1643415E1,4.4638406E2,1.7829895E2,8.348279E0,3.1732244E1,9.504392E0,1.2139024E1,3.777549E2,6.862916E1,9.338038E0,1.689609E2,2.7550254E0,5.593254E0,1.147918E1,2.0253065E1,2.5532215E0,6.95117E0,9.121005E0,3.018019E0,1.4722684E2,2.3052808E2,6.1279095E1,7.350063E0,1.6056362E0,7.732403E0,1.6160075E2,7.3601494E0],"tree_param":{"num_deleted":"0","num_feature":"16","num_nodes":"31","size_leaf_vector":"1"}},{"base_weights":[-6.796464E-3,-2.9844835E-1,2.3902889E-1,-5.170142E-1,-1.1852829E-1,2.013683E-1,1.0600966E0,-7.190067E-1,-2.3722577E-1,4.4023152E-2,-3.1462234E-1,9.038756E-2,4.183082E-1,5.848636E-3,1.1741301E0,-4.6962034E-2,-6.6378876E-3,-1.1134825E-3,-3.6813095E-2,-2.966481E-3,4.049018E-2,2.8990617E-2,-1.9296274E-2,2.089995E-2,-4.3297256E-3,3.7663136E-2,1.360689E-2,6.377356E-2,1.6333573E-3],"categories":[],"categories_nodes":[],"categories_segments":[],"categories_sizes":[],"default_left":[0,0,0,0,0,0,0,0,0,0,0,0,0,0,0,0,0,0,0,0,0,0,0,0,0,0,0,0,0],"id":6,"left_children":[1,3,5,7,9,11,13,15,17,19,21,23,25,-1,27,-1,-1,-1,-1,-1,-1,-1,-1,-1,-1,-1,-1,-1,-1],"loss_changes":[4.894184E1,1.22160225E1,1.1241072E1,7.779213E0,5.5136104E0,8.519412E0,1.5846462E0,1.0358917E1,6.470111E0,7.583922E0,5.218958E0,1.3743579E1,5.6709003E0,0E0,1.5978947E0,0E0,0E0,0E0,0E0,0E0,0E0,0E0,0E0,0E0,0E0,0E0,0E0,0E0,0E0],"parents":[2147483647,0,0,1,1,2,2,3,3,4,4,5,5,6,6,7,7,8,8,9,9,10,10,11,11,12,12,14,14],"right_children":[2,4,6,8,10,12,14,16,18,20,22,24,26,-1,28,-1,-1,-1,-1,-1,-1,-1,-1,-1,-1,-1,-1,-1,-1],"split_conditions":[6.626054E-2,-3.8872417E-2,2.3932001E-1,4.987769E-2,1.7978752E-2,1.2473178E0,-1.059013E-1,-4.702852E-1,-9.904847E-2,2.3727083E0,-8.4428775E-1,-1.0745583E-1,2.3166547E0,5.848636E-3,3.2109444E0,-4.6962034E-2,-6.6378876E-3,-1.1134825E-3,-3.6813095E-2,-2.966481E-3,4.049018E-2,2.8990617E-2,-1.9296274E-2,2.089995E-2,-4.3297256E-3,3.7663136E-2,1.360689E-2,6.377356E-2,1.6333573E-3],"split_indices":[9,4,9,9,1,6,10,5,4,6,5,2,6,0,7,0,0,0,0,0,0,0,0,0,0,0,0,0,0],"split_type":[0,0,0,0,0,0,0,0,0,0,0,0,0,0,0,0,0,0,0,0,0,0,0,0,0,0,0,0,0],"sum_hessian":[6.8064044E2,3.112058E2,3.694346E2,1.3966635E2,1.7153947E2,3.5442322E2,1.5011372E1,8.0197876E1,5.946848E1,9.421543E1,7.7324036E1,2.3541022E2,1.1901301E2,1.8377644E0,1.3173607E1,5.78598E1,2.2338083E1,4.229489E1,1.7173586E1,8.3824646E1,1.0390783E1,5.1825E0,7.214153E1,8.2090576E1,1.5331964E2,3.489549E1,8.4117516E1,1.1991574E1,1.1820327E0],"tree_param":{"num_deleted":"0","num_feature":"16","num_nodes":"29","size_leaf_vector":"1"}},{"base_weights":[2.4455467E-2,-8.151815E-2,3.7819862E-1,3.794872E-1,-1.8421097E-1,2.5126E-1,9.090066E-1,1.0593551E0,2.7438012E-1,-3.8674748E-1,5.1386673E-2,3.3864465E-1,-3.07765E-1,1.1200037E0,4.0684596E-1,1.970614E-2,6.604612E-2,-2.9348148E-2,1.7284757E-2,-4.2681606E-3,-2.8319279E-2,-2.0825503E-2,8.897163E-3,1.9871334E-2,-3.6583174E-2,-2.8422216E-2,3.516774E-2,7.0948884E-2,2.6448047E-2,-2.8010458E-2,7.348969E-2],"categories":[],"categories_nodes":[],"categories_segments":[],"categories_sizes":[],"default_left":[0,0,0,0,0,0,0,0,0,0,0,0,0,0,0,0,0,0,0,0,0,0,0,0,0,0,0,0,0,0,0],"id":7,"left_children":[1,3,5,7,9,11,13,15,17,19,21,23,25,27,29,-1,-1,-1,-1,-1,-1,-1,-1,-1,-1,-1,-1,-1,-1,-1,-1],"loss_changes":[2.5283047E1,2.4647879E1,1.0246454E1,6.4911814E0,2.031173E1,6.3003426E0,2.6827126E0,1.6297531E0,5.3349466E0,1.233828E1,1.1767071E1,7.222026E0,5.0573974E0,2.8341026E0,1.1445995E1,0E0,0E0,0E0,0E0,0E0,0E0,0E0,0E0,0E0,0E0,0E0,0E0,0E0,0E0,0E0,0E0],"parents":[2147483647,0,0,1,1,2,2,3,3,4,4,5,5,6,6,7,7,8,8,9,9,10,10,11,11,12,12,13,13,14,14],"right_children":[2,4,6,8,10,12,14,16,18,20,22,24,26,28,30,-1,-1,-1,-1,-1,-1,-1,-1,-1,-1,-1,-1,-1,-1,-1,-1],"split_conditions":[1.7226616E0,-1.0745583E-1,2.4703269E-1,-1.4559723E-1,-2.2541437E-2,4.96959E-1,5.000037E-1,3.92151E-2,-6.3640386E-2,-1.4265841E-1,-1.3668202E-1,5.3754365E-1,7.445789E-1,5.3754365E-1,4.6740256E-2,1.970614E-2,6.604612E-2,-2.9348148E-2,1.7284757E-2,-4.2681606E-3,-2.8319279E-2,-2.0825503E-2,8.897163E-3,1.9871334E-2,-3.6583174E-2,-2.8422216E-2,3.516774E-2,7.0948884E-2,2.6448047E-2,-2.8010458E-2,7.348969E-2],"split_indices":[5,2,2,1,3,3,13,11,0,3,4,4,3,4,8,0,0,0,0,0,0,0,0,0,0,0,0,0,0,0,0],"split_type":[0,0,0,0,0,0,0,0,0,0,0,0,0,0,0,0,0,0,0,0,0,0,0,0,0,0,0,0,0,0,0],"sum_hessian":[6.726179E2,5.181586E2,1.544593E2,9.3905525E1,4.242531E2,1.25839195E2,2.8620113E1,1.1358178E1,8.254735E1,2.277884E2,1.9646469E2,1.091686E2,1.6670593E1,1.9286129E1,9.333985E0,3.9130535E0,7.4451246E0,5.759041E0,7.678831E1,8.561864E1,1.4216977E2,4.1338737E1,1.5512596E2,1.0408108E2,5.08752E0,1.3601709E1,3.0688832E0,1.1877296E1,7.408832E0,5.1351047E0,4.1988807E0],"tree_param":{"num_deleted":"0","num_feature":"16","num_nodes":"31","size_leaf_vector":"1"}},{"base_weights":[5.724965E-4,-2.762502E-1,2.2579071E-1,-4.9760205E-1,-1.11694686E-1,1.9530983E-1,1.0526208E0,-5.770056E-1,1.7290512E-1,-1.3800035E-1,8.5758734E-1,6.809153E-2,3.8787654E-1,1.2219211E0,-2.3550814E-2,-4.6883754E-2,-2.1994388E-2,3.0516017E-2,-2.525543E-2,-8.3538145E-4,-1.6879052E-2,6.593346E-2,-1.3132212E-2,2.5520418E-2,-3.8974963E-3,1.708377E-2,6.37266E-2,2.9824674E-3,6.657616E-2],"categories":[],"categories_nodes":[],"categories_segments":[],"categories_sizes":[],"default_left":[0,0,0,0,0,0,0,0,0,0,0,0,0,0,0,0,0,0,0,0,0,0,0,0,0,0,0,0,0],"id":8,"left_children":[1,3,5,7,9,11,13,15,17,19,21,23,25,27,-1,-1,-1,-1,-1,-1,-1,-1,-1,-1,-1,-1,-1,-1,-1],"loss_changes":[4.290698E1,1.1190056E1,9.358141E0,7.093445E0,4.6665382E0,8.969538E0,3.9970417E0,5.407364E0,4.661479E0,4.2192163E0,2.852353E0,1.4402104E1,5.540127E0,1.4767208E0,0E0,0E0,0E0,0E0,0E0,0E0,0E0,0E0,0E0,0E0,0E0,0E0,0E0,0E0,0E0],"parents":[2147483647,0,0,1,1,2,2,3,3,4,4,5,5,6,6,7,7,8,8,9,9,10,10,11,11,12,12,13,13],"right_children":[2,4,6,8,10,12,14,16,18,20,22,24,26,28,-1,-1,-1,-1,-1,-1,-1,-1,-1,-1,-1,-1,-1,-1,-1],"split_conditions":[6.559355E-2,-4.3858667E-3,9.2307806E-1,1.5125902E0,3.0091255E0,7.667562E-1,6.1729336E0,-4.2473787E-1,1.6666985E-1,2.5000238E-1,3.1119704E-1,-3.1172252E-1,4.1515103E-1,-8.130194E-3,-2.3550814E-2,-4.6883754E-2,-2.1994388E-2,3.0516017E-2,-2.525543E-2,-8.3538145E-4,-1.6879052E-2,6.593346E-2,-1.3132212E-2,2.5520418E-2,-3.8974963E-3,1.708377E-2,6.37266E-2,2.9824674E-3,6.657616E-2],"split_indices":[9,8,13,5,5,5,7,7,12,12,4,4,2,0,0,0,0,0,0,0,0,0,0,0,0,0,0,0,0],"split_type":[0,0,0,0,0,0,0,0,0,0,0,0,0,0,0,0,0,0,0,0,0,0,0,0,0,0,0,0,0],"sum_hessian":[6.8621234E2,3.0773682E2,3.784755E2,1.3035965E2,1.7737718E2,3.6621143E2,1.22640705E1,1.1668133E2,1.3678319E1,1.7352544E2,3.851737E0,2.2133865E2,1.4487277E2,1.1215836E1,1.0482343E0,3.0532188E1,8.614914E1,8.375058E0,5.3032618E0,1.0860549E2,6.4919945E1,2.6031523E0,1.2485847E0,5.432107E1,1.6701758E2,1.3901447E2,5.8583016E0,1.099583E0,1.0116253E1],"tree_param":{"num_deleted":"0","num_feature":"16","num_nodes":"29","size_leaf_vector":"1"}},{"base_weights":[5.2905553E-3,-1.6189599E-1,3.7476528E-1,-3.4600407E-1,-8.1456725E-5,7.161217E-1,2.671965E-1,-1.5455944E-2,-5.283505E-1,3.856685E-2,-6.605961E-1,1.2899123E0,4.4655526E-1,-1.4383502E-1,3.9901087E-1,6.731864E-2,-6.5423995E-3,3.6226716E-2,-3.174117E-2,7.42589E-2,7.0814963E-4,-5.39029E-2,4.894615E-2,2.0957042E-2,7.134744E-2,2.7292287E-2,-2.8864948E-2,5.4861873E-2,-1.6664488E-2,1.5642552E-2,4.5823585E-2],"categories":[],"categories_nodes":[],"categories_segments":[],"categories_sizes":[],"default_left":[0,0,0,0,0,0,0,0,0,0,0,0,0,0,0,0,0,0,0,0,0,0,0,0,0,0,0,0,0,0,0],"id":9,"left_children":[1,3,5,7,9,11,13,15,17,19,21,23,25,27,29,-1,-1,-1,-1,-1,-1,-1,-1,-1,-1,-1,-1,-1,-1,-1,-1],"loss_changes":[4.2019825E1,1.3952842E1,7.59E0,1.3196981E1,6.414275E0,7.1859417E0,8.874185E0,1.2577975E1,1.9291042E1,8.359133E0,1.0561821E1,1.2527466E0,3.941486E0,9.829503E0,5.218651E0,0E0,0E0,0E0,0E0,0E0,0E0,0E0,0E0,0E0,0E0,0E0,0E0,0E0,0E0,0E0,0E0],"parents":[2147483647,0,0,1,1,2,2,3,3,4,4,5,5,6,6,7,7,8,8,9,9,10,10,11,11,12,12,13,13,14,14],"right_children":[2,4,6,8,10,12,14,16,18,20,22,24,26,28,30,-1,-1,-1,-1,-1,-1,-1,-1,-1,-1,-1,-1,-1,-1,-1,-1],"split_conditions":[9.428225E-2,-3.6353253E-2,-4.0806866E0,-1.5631038E-1,4.96959E-1,1.2499821E-1,-5.4689888E-2,3.473254E-2,-4.9069177E-2,2.1536484E-2,6.9190073E-1,-5.007756E-1,1.6995536E-1,-1.4559723E-1,5.725158E0,6.731864E-2,-6.5423995E-3,3.6226716E-2,-3.174117E-2,7.42589E-2,7.0814963E-4,-5.39029E-2,4.894615E-2,2.0957042E-2,7.134744E-2,2.7292287E-2,-2.8864948E-2,5.4861873E-2,-1.6664488E-2,1.5642552E-2,4.5823585E-2],"split_indices":[9,3,6,3,3,14,1,9,1,9,3,3,3,1,6,0,0,0,0,0,0,0,0,0,0,0,0,0,0,0,0],"split_type":[0,0,0,0,0,0,0,0,0,0,0,0,0,0,0,0,0,0,0,0,0,0,0,0,0,0,0,0,0,0,0],"sum_hessian":[6.782672E2,4.6735284E2,2.1091437E2,2.180843E2,2.4926854E2,4.9182465E1,1.617319E2,7.79199E1,1.401644E2,2.3637903E2,1.2889499E1,1.4510574E1,3.467189E1,3.924975E1,1.22482155E2,5.2533484E0,7.266655E1,1.0523833E1,1.2964056E2,2.9284449E0,2.3345059E2,1.0546543E1,2.3429554E0,2.52494E0,1.1985634E1,3.2032352E1,2.6395364E0,4.5635395E0,3.468621E1,1.063748E2,1.6107351E1],"tree_param":{"num_deleted":"0","num_feature":"16","num_nodes":"31","size_leaf_vector":"1"}},{"base_weights":[-6.9719955E-4,-2.0733774E-1,1.8657161E-1,-3.3505735E-1,2.2480045E-1,5.451587E-2,3.4200636E-1,-4.2782858E-1,5.576603E-2,9.033444E-2,1.1832455E0,8.6754537E-1,-7.6011877E-4,8.549884E-1,2.2870684E-1,-2.9132238E-2,-9.110893E-3,5.9253395E-2,-3.4583795E-3,1.5393098E-2,-2.1230793E-2,7.110658E-2,8.039042E-3,5.9454676E-2,-1.6376838E-2,-1.0071419E-2,1.4901327E-2,-3.2036589E-3,5.0864156E-2,8.598106E-3,5.316406E-2],"categories":[],"categories_nodes":[],"categories_segments":[],"categories_sizes":[],"default_left":[0,0,0,0,0,0,0,0,0,0,0,0,0,0,0,0,0,0,0,0,0,0,0,0,0,0,0,0,0,0,0],"id":10,"left_children":[1,3,5,7,9,11,13,15,17,19,21,23,25,27,29,-1,-1,-1,-1,-1,-1,-1,-1,-1,-1,-1,-1,-1,-1,-1,-1],"loss_changes":[2.6370653E1,1.7956131E1,7.319173E0,9.105045E0,9.495276E0,8.740306E0,9.337332E0,7.5950394E0,6.985855E0,7.570989E0,1.9901714E0,5.147089E0,1.1037473E1,4.4366016E0,6.244142E0,0E0,0E0,0E0,0E0,0E0,0E0,0E0,0E0,0E0,0E0,0E0,0E0,0E0,0E0,0E0,0E0],"parents":[2147483647,0,0,1,1,2,2,3,3,4,4,5,5,6,6,7,7,8,8,9,9,10,10,11,11,12,12,13,13,14,14],"right_children":[2,4,6,8,10,12,14,16,18,20,22,24,26,28,30,-1,-1,-1,-1,-1,-1,-1,-1,-1,-1,-1,-1,-1,-1,-1,-1],"split_conditions":[6.838847E-2,1.4959805E-1,1.1006231E-1,1.1100389E-2,2.7995355E0,-5.137021E-2,-3.0784234E-1,-4.263073E-2,-1.6851155E-1,1.2338741E-2,3.370133E-2,1.2084625E-2,6.363392E-3,-5.19656E-1,7.1711516E0,-2.9132238E-2,-9.110893E-3,5.9253395E-2,-3.4583795E-3,1.5393098E-2,-2.1230793E-2,7.110658E-2,8.039042E-3,5.9454676E-2,-1.6376838E-2,-1.0071419E-2,1.4901327E-2,-3.2036589E-3,5.0864156E-2,8.598106E-3,5.316406E-2],"split_indices":[9,3,9,0,6,15,3,3,3,0,1,0,15,3,6,0,0,0,0,0,0,0,0,0,0,0,0,0,0,0,0],"split_type":[0,0,0,0,0,0,0,0,0,0,0,0,0,0,0,0,0,0,0,0,0,0,0,0,0,0,0,0,0,0,0],"sum_hessian":[6.7945966E2,3.229716E2,3.5648804E2,2.4946593E2,7.350567E1,1.934693E2,1.6301875E2,2.0153265E2,4.7933266E1,6.542154E1,8.08413E0,1.1380714E1,1.8208858E2,2.8307173E1,1.3471158E2,1.22772835E2,7.875982E1,3.9293597E0,4.4003906E1,4.6275707E1,1.9145832E1,6.2362275E0,1.8479028E0,8.971783E0,2.4089317E0,1.09124954E2,7.296362E1,4.339297E0,2.3967876E1,1.272646E2,7.4469795E0],"tree_param":{"num_deleted":"0","num_feature":"16","num_nodes":"31","size_leaf_vector":"1"}},{"base_weights":[2.129765E-2,-1.1993609E-1,3.3070198E-1,-2.0770192E-1,1.8854178E-1,1.178869E-1,4.6342495E-1,8.308945E-1,-2.3509397E-1,8.812184E-1,-4.7959886E-3,5.717609E-1,-1.03929974E-1,3.717395E-1,9.176616E-1,5.6784827E-2,-3.011823E-2,-1.5044344E-2,3.3637949E-3,2.1450976E-2,7.267963E-2,6.77114E-3,-3.2541018E-2,1.8894076E-2,7.294114E-2,-2.3694215E-2,1.45131275E-2,3.207755E-2,1.0621159E-2,5.737559E-2,1.6504368E-2],"categories":[],"categories_nodes":[],"categories_segments":[],"categories_sizes":[],"default_left":[0,0,0,0,0,0,0,0,0,0,0,0,0,0,0,0,0,0,0,0,0,0,0,0,0,0,0,0,0,0,0],"id":11,"left_children":[1,3,5,7,9,11,13,15,17,19,21,23,25,27,29,-1,-1,-1,-1,-1,-1,-1,-1,-1,-1,-1,-1,-1,-1,-1,-1],"loss_changes":[2.9171494E1,1.24513E1,5.8543797E0,1.036271E1,1.3673439E1,8.2844095E0,5.0107174E0,4.792366E0,6.9628105E0,5.1425495E0,7.406614E0,4.087701E0,8.263885E0,4.5321207E0,2.4439907E0,0E0,0E0,0E0,0E0,0E0,0E0,0E0,0E0,0E0,0E0,0E0,0E0,0E0,0E0,0E0,0E0],"parents":[2147483647,0,0,1,1,2,2,3,3,4,4,5,5,6,6,7,7,8,8,9,9,10,10,11,11,12,12,13,13,14,14],"right_children":[2,4,6,8,10,12,14,16,18,20,22,24,26,28,30,-1,-1,-1,-1,-1,-1,-1,-1,-1,-1,-1,-1,-1,-1,-1,-1],"split_conditions":[9.504974E-2,1.6995536E-1,-1.6279105E-2,-5.428317E-2,2.1911415E-1,-3.3119762E-1,4.2856988E-1,7.182728E-2,8.6191285E-1,-2.4284746E-2,4.96959E-1,1.7156218E-3,1.2473178E0,1.5189864E-1,6.666656E-1,5.6784827E-2,-3.011823E-2,-1.5044344E-2,3.3637949E-3,2.1450976E-2,7.267963E-2,6.77114E-3,-3.2541018E-2,1.8894076E-2,7.294114E-2,-2.3694215E-2,1.45131275E-2,3.207755E-2,1.0621159E-2,5.737559E-2,1.6504368E-2],"split_indices":[9,3,10,15,3,4,12,3,6,7,3,3,6,11,12,0,0,0,0,0,0,0,0,0,0,0,0,0,0,0,0],"split_type":[0,0,0,0,0,0,0,0,0,0,0,0,0,0,0,0,0,0,0,0,0,0,0,0,0,0,0,0,0,0,0],"sum_hessian":[6.656577E2,4.5745544E2,2.0820226E2,3.563859E2,1.0106957E2,8.069685E1,1.275054E2,8.404064E0,3.479818E2,2.1278082E1,7.979149E1,2.5973389E1,5.4723465E1,1.0760438E2,1.990103E1,7.101455E0,1.302609E0,2.857994E2,6.2182415E1,1.2864303E1,8.413778E0,6.621088E1,1.3580613E1,2.2484983E1,3.4884048E0,2.812534E1,2.6598127E1,3.8825024E1,6.877935E1,1.3620091E1,6.280938E0],"tree_param":{"num_deleted":"0","num_feature":"16","num_nodes":"31","size_leaf_vector":"1"}},{"base_weights":[-9.36895E-3,-2.5098374E-1,2.0071593E-1,-4.6046945E-1,-1.0187749E-1,9.1299E-2,3.7130317E-1,-6.786793E-1,-8.332635E-2,4.6647334E-1,-1.760548E-1,3.2190222E-1,-7.986939E-2,6.492556E-1,1.4722434E-1,-3.62477E-2,2.492168E-2,-1.3029973E-2,3.88774E-2,3.323161E-2,-1.1452607E-2,-2.094736E-3,-2.3609355E-2,4.518185E-2,1.1854396E-2,-2.8114825E-2,8.5430256E-5,1.6680641E-2,5.095568E-2,2.5413674E-3,5.410278E-2],"categories":[],"categories_nodes":[],"categories_segments":[],"categories_sizes":[],"default_left":[0,0,0,0,0,0,0,0,0,0,0,0,0,0,0,0,0,0,0,0,0,0,0,0,0,0,0,0,0,0,0],"id":12,"left_children":[1,3,5,7,9,11,13,15,17,19,21,23,25,27,29,-1,-1,-1,-1,-1,-1,-1,-1,-1,-1,-1,-1,-1,-1,-1,-1],"loss_changes":[3.4151794E1,9.726955E0,6.6839466E0,1.0627668E1,7.8427706E0,8.733107E0,8.643824E0,4.8334885E0,7.638405E0,3.1189747E0,6.4781585E0,4.4325743E0,5.0154853E0,6.9373627E0,7.0623364E0,0E0,0E0,0E0,0E0,0E0,0E0,0E0,0E0,0E0,0E0,0E0,0E0,0E0,0E0,0E0,0E0],"parents":[2147483647,0,0,1,1,2,2,3,3,4,4,5,5,6,6,7,7,8,8,9,9,10,10,11,11,12,12,13,13,14,14],"right_children":[2,4,6,8,10,12,14,16,18,20,22,24,26,28,30,-1,-1,-1,-1,-1,-1,-1,-1,-1,-1,-1,-1,-1,-1,-1,-1],"split_conditions":[6.626054E-2,-5.940562E-2,3.287833E-2,5.2340657E-2,-1.6279105E-2,-9.598953E-2,3.6537237E-2,2.4102706E-2,2.898436E-3,5.6996766E-2,1.2207027E-2,-1.4559723E-1,-6.846353E-2,3.2272354E-2,4.1515103E-1,-3.62477E-2,2.492168E-2,-1.3029973E-2,3.88774E-2,3.323161E-2,-1.1452607E-2,-2.094736E-3,-2.3609355E-2,4.518185E-2,1.1854396E-2,-2.8114825E-2,8.5430256E-5,1.6680641E-2,5.095568E-2,2.5413674E-3,5.410278E-2],"split_indices":[9,4,2,9,10,2,15,2,10,9,15,1,1,1,2,0,0,0,0,0,0,0,0,0,0,0,0,0,0,0,0],"split_type":[0,0,0,0,0,0,0,0,0,0,0,0,0,0,0,0,0,0,0,0,0,0,0,0,0,0,0,0,0,0,0],"sum_hessian":[6.7082184E2,3.119077E2,3.589141E2,1.2882619E2,1.8308154E2,2.1959691E2,1.3931718E2,8.11021E1,4.7724083E1,2.0525486E1,1.6255606E2,9.318059E1,1.2641631E2,6.1336536E1,7.798065E1,7.8404E1,2.698097E0,4.015298E1,7.571104E0,1.6008888E1,4.516598E0,1.1265857E2,4.9897484E1,1.0628207E1,8.2552376E1,1.7432592E1,1.0898373E2,3.411999E1,2.7216545E1,7.1647E1,6.3336525E0],"tree_param":{"num_deleted":"0","num_feature":"16","num_nodes":"31","size_leaf_vector":"1"}},{"base_weights":[6.5644755E-4,-2.3847063E-1,2.15963E-1,-4.3065342E-1,-6.9522604E-2,8.299102E-2,3.7236682E-1,1.03082344E-1,-6.015284E-1,3.6936685E-2,-4.5880312E-1,-8.657861E-1,1.3272054E-1,7.338262E-1,2.8407237E-1,-3.510605E-2,1.9086314E-2,-3.7254427E-2,-8.546394E-3,-3.2247614E-2,6.8510175E-3,-2.5926447E-2,3.427411E-2,4.551166E-3,-5.8701176E-2,4.7248747E-2,4.914816E-3,5.614712E-3,4.3288466E-2,1.1575779E-2,5.8969922E-2],"categories":[],"categories_nodes":[],"categories_segments":[],"categories_sizes":[],"default_left":[0,0,0,0,0,0,0,0,0,0,0,0,0,0,0,0,0,0,0,0,0,0,0,0,0,0,0,0,0,0,0],"id":13,"left_children":[1,3,5,7,9,11,13,15,17,19,21,23,25,27,29,-1,-1,-1,-1,-1,-1,-1,-1,-1,-1,-1,-1,-1,-1,-1,-1],"loss_changes":[3.468805E1,1.0334597E1,7.342325E0,1.3664406E1,7.1064625E0,9.216568E0,4.9816437E0,8.574681E0,6.8655586E0,9.319141E0,2.871244E0,2.9795194E0,5.0565653E0,2.4691124E0,5.953761E0,0E0,0E0,0E0,0E0,0E0,0E0,0E0,0E0,0E0,0E0,0E0,0E0,0E0,0E0,0E0,0E0],"parents":[2147483647,0,0,1,1,2,2,3,3,4,4,5,5,6,6,7,7,8,8,9,9,10,10,11,11,12,12,13,13,14,14],"right_children":[2,4,6,8,10,12,14,16,18,20,22,24,26,28,30,-1,-1,-1,-1,-1,-1,-1,-1,-1,-1,-1,-1,-1,-1,-1,-1],"split_conditions":[6.752868E-2,-3.2763377E-2,1.1006231E-1,-1.5631038E-1,3.229147E-2,-5.185574E0,-3.0784234E-1,-9.598953E-2,5.6996766E-2,-1.5923043E-1,9.46428E-1,-4.1060644E-1,-4.243687E0,-5.007756E-1,4.1515103E-1,-3.510605E-2,1.9086314E-2,-3.7254427E-2,-8.546394E-3,-3.2247614E-2,6.8510175E-3,-2.5926447E-2,3.427411E-2,4.551166E-3,-5.8701176E-2,4.7248747E-2,4.914816E-3,5.614712E-3,4.3288466E-2,1.1575779E-2,5.8969922E-2],"split_indices":[9,3,9,3,10,6,3,2,9,4,13,3,6,3,2,0,0,0,0,0,0,0,0,0,0,0,0,0,0,0,0],"split_type":[0,0,0,0,0,0,0,0,0,0,0,0,0,0,0,0,0,0,0,0,0,0,0,0,0,0,0,0,0,0,0],"sum_hessian":[6.71742E2,3.1821432E2,3.5352768E2,1.481457E2,1.7006863E2,1.9190434E2,1.6162334E2,3.6022987E1,1.1212272E2,1.3425742E2,3.581121E1,8.74031E0,1.8316403E2,3.0294157E1,1.3132918E2,8.870355E0,2.7152632E1,8.3540405E1,2.8582314E1,1.6486649E1,1.17770775E2,3.4554497E1,1.2567134E0,2.3013415E0,6.438968E0,6.3716383E0,1.7679239E2,5.6290383E0,2.466512E1,1.2523624E2,6.0929456E0],"tree_param":{"num_deleted":"0","num_feature":"16","num_nodes":"31","size_leaf_vector":"1"}}]},"name":"gbtree"},"learner_model_param":{"base_score":"5E-1","boost_from_average":"1","num_class":"0","num_feature":"16","num_target":"1"},"objective":{"name":"binary:logistic","reg_loss_param":{"scale_pos_weight":"0.404790133"}}},"version":[2,1,0]}