{"learner":{"attributes":{"scikit_learn":"{\"_estimator_type\": \"classifier\"}"},"feature_names":["bias_week","bias_month","bias_quarter","bias_year","rsi","macd","macd_signal","vol_change","close_change","bb_width","return_5d","k_upper","k_lower","k_body","buy_power","rs_5d"],"feature_types":["float","float","float","float","float","float","float","float","float","float","float","float","float","float","float","float"],"gradient_booster":{"model":{"cats":{"enc":[],"feature_segments":[],"sorted_idx":[]},"gbtree_model_param":{"num_parallel_tree":"1","num_trees":"23"},"iteration_indptr":[0,1,2,3,4,5,6,7,8,9,10,11,12,13,14,15,16,17,18,19,20,21,22,23],"tree_info":[0,0,0,0,0,0,0,0,0,0,0,0,0,0,0,0,0,0,0,0,0,0,0],"trees":[{"base_weights":[-1.3928756E-2,7.968519E-1,-9.131757E-2,3.7925425E-1,1.1550577E0,-1.6395043E-1,8.627201E-1,1.0945104E0,-3.0107087E-1,8.1082545E-2,8.6506665E-1,7.075018E-2,-1.8225113E-1,5.8910286E-1,1.5504293E0,6.476979E-2,-1.8534198E-2,2.0958612E-2,-2.8030485E-2,4.9836334E-2,-7.526453E-3,-1.8382592E-2,-2.9350014E-3,7.877565E-2,1.001796E-2,8.6854845E-2,1.2664179E-2],"categories":[],"categories_nodes":[],"categories_segments":[],"categories_sizes":[],"default_left":[0,0,0,0,0,0,0,0,0,0,0,0,0,0,0,0,0,0,0,0,0,0,0,0,0,0,0],"id":0,"left_children":[1,3,5,7,9,11,13,15,17,-1,19,-1,21,23,25,-1,-1,-1,-1,-1,-1,-1,-1,-1,-1,-1,-1],"loss_changes":[3.2318916E1,6.275688E0,3.271253E1,1.1138033E1,1.7999363E0,1.2903488E1,5.3739414E0,3.7307577E0,2.5096154E0,0E0,2.3885412E0,0E0,9.908308E0,9.468591E0,1.7143898E0,0E0,0E0,0E0,0E0,0E0,0E0,0E0,0E0,0E0,0E0,0E0,0E0],"parents":[2147483647,0,0,1,1,2,2,3,3,4,4,5,5,6,6,7,7,8,8,10,10,12,12,13,13,14,14],"right_children":[2,4,6,8,10,12,14,16,18,-1,20,-1,22,24,26,-1,-1,-1,-1,-1,-1,-1,-1,-1,-1,-1,-1],"split_conditions":[-2.6150814E-1,-3.7757673E0,3.6079564E0,-6.6415224E0,1.3333364E-1,-5.86379E0,6.0964584E0,1.2500001E-1,-4.521742E-1,8.1082545E-2,1.8630831E-1,7.075018E-2,-3.2104537E-2,1.3347524E-1,1.0087782E0,6.476979E-2,-1.8534198E-2,2.0958612E-2,-2.8030485E-2,4.9836334E-2,-7.526453E-3,-1.8382592E-2,-2.9350014E-3,7.877565E-2,1.001796E-2,8.6854845E-2,1.2664179E-2],"split_indices":[3,5,5,6,11,6,5,10,4,0,4,0,3,3,3,0,0,0,0,0,0,0,0,0,0,0,0],"split_type":[0,0,0,0,0,0,0,0,0,0,0,0,0,0,0,0,0,0,0,0,0,0,0,0,0,0,0],"sum_hessian":[5.1292084E2,4.388225E1,4.690386E2,2.1211998E1,2.2670256E1,4.3662555E2,3.2413055E1,1.004375E1,1.1168247E1,6.929185E0,1.5741071E1,4.1282363E0,4.324973E2,2.451568E1,7.897377E0,8.934653E0,1.1090959E0,2.7954798E0,8.372767E0,1.395106E1,1.7900112E0,1.7216736E2,2.6032996E2,6.0673547E0,1.8448326E1,6.6073656E0,1.2900112E0],"tree_param":{"num_deleted":"0","num_feature":"16","num_nodes":"27","size_leaf_vector":"1"}},{"base_weights":[-1.4706821E-2,-1.4620703E-1,5.2057564E-1,-6.045657E-1,-5.650295E-2,3.0290243E-1,9.520996E-1,-1.6357267E-1,-8.128814E-1,-7.9163775E-2,1.0255687E0,1.9629167E-1,1.1023763E0,-4.2114106E-1,1.1074833E0,-4.4456504E-2,1.2698144E-2,-5.017349E-2,-1.7440869E-2,-7.7209616E-4,-2.2661552E-2,5.952692E-2,1.3267707E-4,3.9509233E-2,-1.7815307E-3,6.79769E-2,1.101297E-3,3.0254781E-2,-5.172911E-2,-7.395918E-4,5.7303544E-2],"categories":[],"categories_nodes":[],"categories_segments":[],"categories_sizes":[],"default_left":[0,0,0,0,0,0,0,0,0,0,0,0,0,0,0,0,0,0,0,0,0,0,0,0,0,0,0,0,0,0,0],"id":1,"left_children":[1,3,5,7,9,11,13,15,17,19,21,23,25,27,29,-1,-1,-1,-1,-1,-1,-1,-1,-1,-1,-1,-1,-1,-1,-1,-1],"loss_changes":[3.6346233E1,1.7006046E1,9.277548E0,6.0890675E0,8.607162E0,5.6782885E0,7.652998E0,7.187929E0,3.6961823E0,8.133134E0,1.2125115E0,8.600791E0,2.1706438E0,3.2373595E0,1.3391685E0,0E0,0E0,0E0,0E0,0E0,0E0,0E0,0E0,0E0,0E0,0E0,0E0,0E0,0E0,0E0,0E0],"parents":[2147483647,0,0,1,1,2,2,3,3,4,4,5,5,6,6,7,7,8,8,9,9,10,10,11,11,12,12,13,13,14,14],"right_children":[2,4,6,8,10,12,14,16,18,20,22,24,26,28,30,-1,-1,-1,-1,-1,-1,-1,-1,-1,-1,-1,-1,-1,-1,-1,-1],"split_conditions":[1.0791882E-1,3.6659446E-2,1.6415063E-1,-1.2984148E-1,5.6029618E-2,1.0648438E-1,-1.5649869E-1,-1.1538609E-2,3.2379773E-2,2.4490286E-1,2.1247096E0,-1.7725313E-2,4.285727E-1,-1.7206955E-1,-6.849345E-2,-4.4456504E-2,1.2698144E-2,-5.017349E-2,-1.7440869E-2,-7.7209616E-4,-2.2661552E-2,5.952692E-2,1.3267707E-4,3.9509233E-2,-1.7815307E-3,6.79769E-2,1.101297E-3,3.0254781E-2,-5.172911E-2,-7.395918E-4,5.7303544E-2],"split_indices":[9,9,9,6,8,1,10,10,9,4,6,0,12,10,8,0,0,0,0,0,0,0,0,0,0,0,0,0,0,0,0],"split_type":[0,0,0,0,0,0,0,0,0,0,0,0,0,0,0,0,0,0,0,0,0,0,0,0,0,0,0,0,0,0,0],"sum_hessian":[5.142756E2,4.1343573E2,1.0083986E2,6.672961E1,3.4670612E2,6.8159935E1,3.267992E1,2.1981398E1,4.4748207E1,3.4050214E2,6.203979E0,6.1239155E1,6.920784E0,3.1480386E0,2.9531881E1,7.616547E0,1.4364852E1,3.089674E1,1.3851467E1,2.9183047E2,4.8671646E1,5.2012796E0,1.0026993E0,1.6522413E1,4.471674E1,5.381398E0,1.5393859E0,1.1828432E0,1.9651953E0,1.0021502E0,2.852973E1],"tree_param":{"num_deleted":"0","num_feature":"16","num_nodes":"31","size_leaf_vector":"1"}},{"base_weights":[2.5273886E-2,-3.6986668E-2,8.527899E-1,6.3215107E-1,-1.2232072E-1,5.3768384E-1,1.4201386E0,1.1224047E0,4.225815E-1,7.284265E-2,-1.3810419E-1,1.288597E0,5.8413517E-2,2.5244856E-2,7.642165E-2,-1.1586608E-2,6.529286E-2,6.0638037E-2,1.4232749E-2,1.563007E-2,-9.25404E-3,7.650202E-2,1.0027361E-2,-1.1794171E-2,6.727853E-2],"categories":[],"categories_nodes":[],"categories_segments":[],"categories_sizes":[],"default_left":[0,0,0,0,0,0,0,0,0,0,0,0,0,0,0,0,0,0,0,0,0,0,0,0,0],"id":2,"left_children":[1,3,5,7,9,11,13,15,17,-1,19,21,23,-1,-1,-1,-1,-1,-1,-1,-1,-1,-1,-1,-1],"loss_changes":[2.648185E1,2.7395123E1,5.6659927E0,5.1018543E0,1.0797859E1,8.825438E0,4.407692E-1,4.1901016E0,3.9733157E0,0E0,8.989552E0,2.211897E0,6.4328146E0,0E0,0E0,0E0,0E0,0E0,0E0,0E0,0E0,0E0,0E0,0E0,0E0],"parents":[2147483647,0,0,1,1,2,2,3,3,4,4,5,5,6,6,7,7,8,8,10,10,11,11,12,12],"right_children":[2,4,6,8,10,12,14,16,18,-1,20,22,24,-1,-1,-1,-1,-1,-1,-1,-1,-1,-1,-1,-1],"split_conditions":[3.6079564E0,-2.3041992E-1,5.49038E0,1.0526354E-1,-5.86379E0,1.3347524E-1,5.030522E0,-1.309524E-1,-1.2329432E-1,7.284265E-2,-5.707747E-2,1.3670765E-1,5.5024624E-1,2.5244856E-2,7.642165E-2,-1.1586608E-2,6.529286E-2,6.0638037E-2,1.4232749E-2,1.563007E-2,-9.25404E-3,7.650202E-2,1.0027361E-2,-1.1794171E-2,6.727853E-2],"split_indices":[5,3,5,11,6,3,6,10,1,0,10,1,7,0,0,0,0,0,0,0,0,0,0,0,0],"split_type":[0,0,0,0,0,0,0,0,0,0,0,0,0,0,0,0,0,0,0,0,0,0,0,0,0],"sum_hessian":[5.123829E2,4.7741824E2,3.4964638E1,5.3273323E1,4.2414493E2,2.3731726E1,1.1232911E1,1.46488905E1,3.862443E1,3.2937584E0,4.2085117E2,8.587812E0,1.5143913E1,1.7875805E0,9.445331E0,1.7163851E0,1.2932506E1,4.5819125E0,3.404252E1,3.9190746E1,3.8166043E2,6.695767E0,1.8920451E0,1.2990494E1,2.1534197E0],"tree_param":{"num_deleted":"0","num_feature":"16","num_nodes":"25","size_leaf_vector":"1"}},{"base_weights":[-9.9850325E-3,-1.4058271E-1,5.2027583E-1,-5.854892E-1,-5.62607E-2,2.0693384E-1,7.276953E-1,7.863302E-1,-6.637941E-1,7.0911443E-1,-8.60134E-2,6.705683E-1,-8.8505965E-4,7.9553105E-2,6.1448944E-1,-2.1786524E-2,6.7598365E-2,4.032506E-2,-3.660856E-2,-5.069193E-2,4.920151E-2,2.668412E-2,-6.1367727E-3,-2.2059424E-2,4.7293995E-2,-6.2407195E-3,5.3209543E-2,2.41064E-2,6.3589804E-2],"categories":[],"categories_nodes":[],"categories_segments":[],"categories_sizes":[],"default_left":[0,0,0,0,0,0,0,0,0,0,0,0,0,0,0,0,0,0,0,0,0,0,0,0,0,0,0,0,0],"id":3,"left_children":[1,3,5,7,9,11,13,15,17,19,21,23,25,-1,27,-1,-1,-1,-1,-1,-1,-1,-1,-1,-1,-1,-1,-1,-1],"loss_changes":[3.6067326E1,1.5642407E1,6.539028E0,7.661936E0,8.085149E0,4.0852976E0,5.0365524E0,3.3865008E0,6.966484E0,7.2942977E0,7.80445E0,4.4338045E0,4.1284437E0,0E0,4.261587E0,0E0,0E0,0E0,0E0,0E0,0E0,0E0,0E0,0E0,0E0,0E0,0E0,0E0,0E0],"parents":[2147483647,0,0,1,1,2,2,3,3,4,4,5,5,6,6,7,7,8,8,9,9,10,10,11,11,12,12,14,14],"right_children":[2,4,6,8,10,12,14,16,18,20,22,24,26,-1,28,-1,-1,-1,-1,-1,-1,-1,-1,-1,-1,-1,-1,-1,-1],"split_conditions":[1.0791882E-1,3.6659446E-2,-2.8517224E-2,2.0056728E-2,-8.181804E-2,-7.11611E0,-3.1794173E-1,-5.0558966E-2,-1.8413687E-1,-5.357343E0,-2.6150814E-1,-1.5649869E-1,3.2994986E-1,7.9553105E-2,6.0964584E0,-2.1786524E-2,6.7598365E-2,4.032506E-2,-3.660856E-2,-5.069193E-2,4.920151E-2,2.668412E-2,-6.1367727E-3,-2.2059424E-2,4.7293995E-2,-6.2407195E-3,5.3209543E-2,2.41064E-2,6.3589804E-2],"split_indices":[9,9,15,9,10,5,3,3,3,5,3,10,3,0,5,0,0,0,0,0,0,0,0,0,0,0,0,0,0],"split_type":[0,0,0,0,0,0,0,0,0,0,0,0,0,0,0,0,0,0,0,0,0,0,0,0,0,0,0,0,0],"sum_hessian":[5.187654E2,4.1683755E2,1.01927826E2,6.5467766E1,3.5136978E2,4.139356E1,6.0534267E1,3.0469239E0,6.2420845E1,1.2293414E1,3.3907635E2,1.2122383E1,2.9271175E1,5.5039177E0,5.503035E1,1.0367299E0,2.010194E0,2.294207E0,6.0126637E1,1.3217739E0,1.0971641E1,1.8211906E1,3.2086447E2,2.2865174E0,9.835865E0,2.7011055E1,2.2601206E0,4.724928E1,7.781071E0],"tree_param":{"num_deleted":"0","num_feature":"16","num_nodes":"29","size_leaf_vector":"1"}},{"base_weights":[-1.817351E-2,-1.4021273E-1,4.661651E-1,2.429155E-1,-2.4984828E-1,1.3811292E-1,6.668612E-1,5.1212247E-2,7.8064364E-1,-8.370532E-1,-1.7803004E-1,9.582011E-1,-1.6910721E-1,1.0083556E0,2.6751378E-1,2.235279E-2,-1.7152965E-2,-5.09541E-2,4.9231257E-2,5.494388E-2,-4.7206804E-2,4.7346313E-2,-1.0470723E-2,7.253062E-2,2.508679E-2,-1.6669964E-2,6.653773E-2,7.3396645E-2,3.20976E-2,-5.821367E-3,5.525407E-2],"categories":[],"categories_nodes":[],"categories_segments":[],"categories_sizes":[],"default_left":[0,0,0,0,0,0,0,0,0,0,0,0,0,0,0,0,0,0,0,0,0,0,0,0,0,0,0,0,0,0,0],"id":4,"left_children":[1,3,5,7,9,11,13,15,17,19,21,23,25,27,29,-1,-1,-1,-1,-1,-1,-1,-1,-1,-1,-1,-1,-1,-1,-1,-1],"loss_changes":[3.0681263E1,1.7470985E1,6.786476E0,9.518673E0,1.34624195E1,1.04709835E1,8.534485E0,1.0988854E1,9.924005E0,8.273106E0,1.0396704E1,1.8122721E0,7.987947E0,4.8568993E0,1.0136091E1,0E0,0E0,0E0,0E0,0E0,0E0,0E0,0E0,0E0,0E0,0E0,0E0,0E0,0E0,0E0,0E0],"parents":[2147483647,0,0,1,1,2,2,3,3,4,4,5,5,6,6,7,7,8,8,9,9,10,10,11,11,12,12,13,13,14,14],"right_children":[2,4,6,8,10,12,14,16,18,20,22,24,26,28,30,-1,-1,-1,-1,-1,-1,-1,-1,-1,-1,-1,-1,-1,-1,-1,-1],"split_conditions":[1.0791882E-1,-1.4153584E0,-3.7715368E-2,-4.33948E-2,2.8772071E-2,-6.6415224E0,1.21263936E-1,-1.588636E-1,-4.466108E0,1.8499328E-2,-8.181804E-2,-4.1726357E-1,3.2994986E-1,1.3161787E-1,5.8236623E0,2.235279E-2,-1.7152965E-2,-5.09541E-2,4.9231257E-2,5.494388E-2,-4.7206804E-2,4.7346313E-2,-1.0470723E-2,7.253062E-2,2.508679E-2,-1.6669964E-2,6.653773E-2,7.3396645E-2,3.20976E-2,-5.821367E-3,5.525407E-2],"split_indices":[9,6,15,3,9,6,3,3,6,9,10,4,3,9,5,0,0,0,0,0,0,0,0,0,0,0,0,0,0,0,0],"split_type":[0,0,0,0,0,0,0,0,0,0,0,0,0,0,0,0,0,0,0,0,0,0,0,0,0,0,0,0,0,0,0],"sum_hessian":[5.169627E2,4.1348663E2,1.0347608E2,9.1726616E1,3.2176E2,3.9917015E1,6.3559067E1,6.842717E1,2.329945E1,3.3903214E1,2.878568E2,1.0300935E1,2.9616081E1,3.3439175E1,3.0119896E1,3.407871E1,3.434846E1,1.965136E0,2.1334312E1,1.291553E0,3.261166E1,7.0210047E0,2.8083582E2,3.9076452E0,6.39329E0,2.7393194E1,2.2228868E0,1.3499956E1,1.9939219E1,2.1243065E1,8.876831E0],"tree_param":{"num_deleted":"0","num_feature":"16","num_nodes":"31","size_leaf_vector":"1"}},{"base_weights":[-1.4439293E-2,-1.5883145E-1,3.9909422E-1,-5.4709876E-1,-7.480233E-2,2.4487571E-1,8.516357E-1,-9.25063E-1,-3.1046048E-1,-3.378101E-2,-7.230542E-1,-1.591887E-4,5.191384E-1,5.7081364E-2,9.489105E-1,2.9762035E-2,-5.587222E-2,3.8479317E-2,-2.9242167E-2,-2.6529504E-3,6.555071E-2,-5.306063E-2,9.013591E-3,1.0180559E-2,-2.51564E-2,7.966373E-2,1.2871993E-2,5.169788E-2,-3.1775624E-2,5.1599473E-2,-1.027631E-2],"categories":[],"categories_nodes":[],"categories_segments":[],"categories_sizes":[],"default_left":[0,0,0,0,0,0,0,0,0,0,0,0,0,0,0,0,0,0,0,0,0,0,0,0,0,0,0,0,0,0,0],"id":5,"left_children":[1,3,5,7,9,11,13,15,17,19,21,23,25,27,29,-1,-1,-1,-1,-1,-1,-1,-1,-1,-1,-1,-1,-1,-1,-1,-1],"loss_changes":[3.093443E1,1.2484771E1,9.149437E0,5.807949E0,8.399256E0,6.815245E0,2.5487328E0,8.191589E0,1.331563E1,7.820341E0,5.935128E0,5.6941657E0,1.3040895E1,3.8622248E0,3.083601E0,0E0,0E0,0E0,0E0,0E0,0E0,0E0,0E0,0E0,0E0,0E0,0E0,0E0,0E0,0E0,0E0],"parents":[2147483647,0,0,1,1,2,2,3,3,4,4,5,5,6,6,7,7,8,8,9,9,10,10,11,11,12,12,13,13,14,14],"right_children":[2,4,6,8,10,12,14,16,18,20,22,24,26,28,30,-1,-1,-1,-1,-1,-1,-1,-1,-1,-1,-1,-1,-1,-1,-1,-1],"split_conditions":[9.551031E-2,3.6659446E-2,1.6415063E-1,-4.1423213E-2,3.5703826E-1,-2.355822E-2,-1.8357295E-1,-1.8032731E-1,-3.6634372E-3,7.8260966E-2,2.2900814E-2,4.7953034E-4,2.1430096E-2,-3.182017E-1,7.5000274E-1,2.9762035E-2,-5.587222E-2,3.8479317E-2,-2.9242167E-2,-2.6529504E-3,6.555071E-2,-5.306063E-2,9.013591E-3,1.0180559E-2,-2.51564E-2,7.966373E-2,1.2871993E-2,5.169788E-2,-3.1775624E-2,5.1599473E-2,-1.027631E-2],"split_indices":[9,9,9,3,4,2,1,3,2,1,8,3,1,2,11,0,0,0,0,0,0,0,0,0,0,0,0,0,0,0,0],"split_type":[0,0,0,0,0,0,0,0,0,0,0,0,0,0,0,0,0,0,0,0,0,0,0,0,0,0,0,0,0,0,0],"sum_hessian":[5.160076E2,3.8292047E2,1.3308719E2,6.714723E1,3.1577325E2,1.00410194E2,3.2676987E1,2.4733353E1,4.2413876E1,2.9796985E2,1.7803396E1,5.3558643E1,4.6851555E1,3.7372653E0,2.893972E1,2.54301E0,2.2190342E1,8.226664E0,3.4187214E1,2.9470572E2,3.2641394E0,1.2826891E1,4.9765053E0,3.8539936E1,1.5018703E1,8.181706E0,3.8669846E1,1.3459618E0,2.3913033E0,2.7095837E1,1.843884E0],"tree_param":{"num_deleted":"0","num_feature":"16","num_nodes":"31","size_leaf_vector":"1"}},{"base_weights":[-6.3200425E-3,-4.7777243E-2,8.1910807E-1,5.43594E-1,-1.05185635E-1,3.8146544E-1,1.0944067E0,6.055561E-1,-4.979622E-2,6.802033E-2,-1.1897971E-1,9.9449205E-1,-3.1433704E-1,2.2949469E-1,6.271327E-2,1.1632108E-2,5.211674E-2,-1.5029778E-2,-1.7569796E-4,6.1499704E-2,3.7055658E-4,-3.769793E-2,1.5428203E-2,3.2360997E-2,-1.5994037E-2],"categories":[],"categories_nodes":[],"categories_segments":[],"categories_sizes":[],"default_left":[0,0,0,0,0,0,0,0,0,0,0,0,0,0,0,0,0,0,0,0,0,0,0,0,0],"id":6,"left_children":[1,3,5,7,9,11,13,15,-1,-1,17,19,21,23,-1,-1,-1,-1,-1,-1,-1,-1,-1,-1,-1],"loss_changes":[1.7590887E1,1.6669636E1,2.5444736E0,4.748909E0,9.195902E0,5.0165834E0,1.7247219E0,6.6638765E0,0E0,0E0,9.301796E0,1.4095707E0,1.8551903E0,1.0090033E0,0E0,0E0,0E0,0E0,0E0,0E0,0E0,0E0,0E0,0E0,0E0],"parents":[2147483647,0,0,1,1,2,2,3,3,4,4,5,5,6,6,7,7,10,10,11,11,12,12,13,13],"right_children":[2,4,6,8,10,12,14,16,-1,-1,18,20,22,24,-1,-1,-1,-1,-1,-1,-1,-1,-1,-1,-1],"split_conditions":[1.0648438E-1,-2.5733715E-1,4.9999857E-1,1.5995766E-1,-5.86379E0,1.7300196E-3,3.1644087E-2,-1.2476018E-1,-4.979622E-2,6.802033E-2,-3.2104537E-2,7.3826903E-1,-2.4999762E-1,5.323974E-1,6.271327E-2,1.1632108E-2,5.211674E-2,-1.5029778E-2,-1.7569796E-4,6.1499704E-2,3.7055658E-4,-3.769793E-2,1.5428203E-2,3.2360997E-2,-1.5994037E-2],"split_indices":[1,3,14,2,6,8,15,2,0,0,3,3,13,7,0,0,0,0,0,0,0,0,0,0,0],"split_type":[0,0,0,0,0,0,0,0,0,0,0,0,0,0,0,0,0,0,0,0,0,0,0,0,0],"sum_hessian":[5.119101E2,4.88326E2,2.3584097E1,4.246099E1,4.4586502E2,1.0028083E1,1.3556015E1,4.140134E1,1.0596501E0,3.2470777E0,4.4261792E2,5.102939E0,4.9251432E0,2.4946065E0,1.1061408E1,2.3160204E1,1.8241137E1,1.7140771E2,2.712102E2,3.9212885E0,1.1816504E0,2.7640069E0,2.1611366E0,1.315924E0,1.1786824E0],"tree_param":{"num_deleted":"0","num_feature":"16","num_nodes":"25","size_leaf_vector":"1"}},{"base_weights":[1.0566141E-2,-1.0626082E-1,4.9403137E-1,-4.7960562E-1,-3.7423007E-2,2.7408075E-1,7.9411167E-1,-9.4260025E-1,-1.7964523E-1,-6.203409E-1,-1.1141549E-2,5.2988136E-1,-3.5756316E-2,-3.0478922E-1,9.086331E-1,4.1176725E-2,-5.830436E-2,6.2310737E-2,-1.8782698E-2,2.0666087E-2,-4.8747234E-2,1.769003E-2,-5.117354E-3,3.3937212E-2,-1.2391254E-2,-1.1763718E-2,3.667764E-2,-4.908051E-2,1.8451283E-2,5.063024E-2,-5.000532E-3],"categories":[],"categories_nodes":[],"categories_segments":[],"categories_sizes":[],"default_left":[0,0,0,0,0,0,0,0,0,0,0,0,0,0,0,0,0,0,0,0,0,0,0,0,0,0,0,0,0,0,0],"id":7,"left_children":[1,3,5,7,9,11,13,15,17,19,21,23,25,27,29,-1,-1,-1,-1,-1,-1,-1,-1,-1,-1,-1,-1,-1,-1,-1,-1],"loss_changes":[2.9374191E1,1.074855E1,6.4624653E0,8.876294E0,5.428498E0,4.7687354E0,5.5978127E0,1.0974779E1,1.1860021E1,6.006583E0,1.1369846E1,3.9759903E0,4.4763002E0,2.5235515E0,4.1430855E0,0E0,0E0,0E0,0E0,0E0,0E0,0E0,0E0,0E0,0E0,0E0,0E0,0E0,0E0,0E0,0E0],"parents":[2147483647,0,0,1,1,2,2,3,3,4,4,5,5,6,6,7,7,8,8,9,9,10,10,11,11,12,12,13,13,14,14],"right_children":[2,4,6,8,10,12,14,16,18,20,22,24,26,28,30,-1,-1,-1,-1,-1,-1,-1,-1,-1,-1,-1,-1,-1,-1,-1,-1],"split_conditions":[1.0791882E-1,3.6659446E-2,1.5037973E-1,-4.33948E-2,-4.211143E0,1.279807E-1,-1.5649869E-1,-1.8413687E-1,-5.019697E-1,-5.2827435E0,-1.5950347E0,1.8010874E-1,3.2994986E-1,-2.8344464E-1,7.1428573E-1,4.1176725E-2,-5.830436E-2,6.2310737E-2,-1.8782698E-2,2.0666087E-2,-4.8747234E-2,1.769003E-2,-5.117354E-3,3.3937212E-2,-1.2391254E-2,-1.1763718E-2,3.667764E-2,-4.908051E-2,1.8451283E-2,5.063024E-2,-5.000532E-3],"split_indices":[9,9,9,3,6,9,10,3,6,6,6,2,3,7,11,0,0,0,0,0,0,0,0,0,0,0,0,0,0,0,0],"split_type":[0,0,0,0,0,0,0,0,0,0,0,0,0,0,0,0,0,0,0,0,0,0,0,0,0,0,0,0,0,0,0],"sum_hessian":[5.181355E2,4.17926E2,1.00209526E2,6.413266E1,3.5379333E2,5.8929314E1,4.1280212E1,2.4371838E1,3.976082E1,1.4287845E1,3.395055E2,3.189045E1,2.7038864E1,3.7391784E0,3.7541035E1,2.43601E0,2.1935827E1,4.157711E0,3.5603107E1,3.607237E0,1.0680608E1,6.730755E1,2.7219794E2,2.6873728E1,5.016723E0,2.2021759E1,5.0171037E0,1.6375389E0,2.1016395E0,3.402934E1,3.511694E0],"tree_param":{"num_deleted":"0","num_feature":"16","num_nodes":"31","size_leaf_vector":"1"}},{"base_weights":[1.42553365E-2,-2.9651666E-2,5.6174153E-1,7.747069E-1,-6.2330447E-2,6.9089746E-1,-8.1260777E-1,8.694735E-1,-1.53265E-2,-1.1466292E-1,3.248995E-1,3.9258713E-1,1.2093693E0,-6.308561E-2,2.3490512E-3,6.2161446E-2,2.4863588E-2,-3.8811702E-2,-4.0659467E-3,2.8073017E-2,-1.2570149E-2,6.305863E-2,-5.225825E-3,2.645274E-2,7.3251195E-2],"categories":[],"categories_nodes":[],"categories_segments":[],"categories_sizes":[],"default_left":[0,0,0,0,0,0,0,0,0,0,0,0,0,0,0,0,0,0,0,0,0,0,0,0,0],"id":8,"left_children":[1,3,5,7,9,11,13,15,-1,17,19,21,23,-1,-1,-1,-1,-1,-1,-1,-1,-1,-1,-1,-1],"loss_changes":[1.234553E1,1.2553663E1,7.3293734E0,2.1773224E0,9.3206005E0,4.9993324E0,1.5010972E0,1.8032007E0,0E0,8.855578E0,7.612185E0,1.0471732E1,1.3895798E0,0E0,0E0,0E0,0E0,0E0,0E0,0E0,0E0,0E0,0E0,0E0,0E0],"parents":[2147483647,0,0,1,1,2,2,3,3,4,4,5,5,6,6,7,7,9,9,10,10,11,11,12,12],"right_children":[2,4,6,8,10,12,14,16,-1,18,20,22,24,-1,-1,-1,-1,-1,-1,-1,-1,-1,-1,-1,-1],"split_conditions":[3.6079564E0,-5.532121E0,1.0087782E0,7.4999607E-1,2.4600891E-2,5.030522E0,7.567481E-2,-7.827644E0,-1.53265E-2,-4.3495116E0,1.1846944E0,3.8351316E0,5.8236623E0,-6.308561E-2,2.3490512E-3,6.2161446E-2,2.4863588E-2,-3.8811702E-2,-4.0659467E-3,2.8073017E-2,-1.2570149E-2,6.305863E-2,-5.225825E-3,2.645274E-2,7.3251195E-2],"split_indices":[5,6,3,11,0,6,15,6,0,6,6,6,5,0,0,0,0,0,0,0,0,0,0,0,0],"split_type":[0,0,0,0,0,0,0,0,0,0,0,0,0,0,0,0,0,0,0,0,0,0,0,0,0],"sum_hessian":[5.1188074E2,4.7475262E2,3.7128113E1,1.7648327E1,4.571043E2,3.439326E1,2.7348514E0,1.6406233E1,1.2420957E0,4.0330347E2,5.380085E1,2.2947363E1,1.1445899E1,1.4890614E0,1.24579E0,7.0183663E0,9.387866E0,1.8282602E1,3.8502084E2,3.81619E1,1.5638952E1,7.793244E0,1.5154119E1,3.9647734E0,7.4811254E0],"tree_param":{"num_deleted":"0","num_feature":"16","num_nodes":"25","size_leaf_vector":"1"}},{"base_weights":[2.4035355E-2,-1.1996471E-1,3.511497E-1,3.162697E-1,-2.2386326E-1,2.502496E-1,9.481035E-1,-3.770422E-1,5.0703377E-1,-5.364039E-1,-7.246203E-2,3.765144E-1,-3.041142E-1,1.0387905E0,-1.6648695E-2,2.8224884E-2,-4.2146858E-2,5.342685E-2,1.641533E-2,-3.99269E-2,8.650167E-4,2.5376812E-2,-1.2729443E-2,9.585689E-3,4.680768E-2,-3.7757345E-2,7.6391376E-3,7.40067E-2,3.5307553E-2],"categories":[],"categories_nodes":[],"categories_segments":[],"categories_sizes":[],"default_left":[0,0,0,0,0,0,0,0,0,0,0,0,0,0,0,0,0,0,0,0,0,0,0,0,0,0,0,0,0],"id":9,"left_children":[1,3,5,7,9,11,13,15,17,19,21,23,25,27,-1,-1,-1,-1,-1,-1,-1,-1,-1,-1,-1,-1,-1,-1,-1],"loss_changes":[2.420082E1,1.6244965E1,9.220421E0,9.324748E0,1.3626742E1,9.611288E0,2.9417725E0,7.2639756E0,5.1269655E0,1.367034E1,2.0802517E1,1.12954035E1,5.41615E0,2.0538902E0,0E0,0E0,0E0,0E0,0E0,0E0,0E0,0E0,0E0,0E0,0E0,0E0,0E0,0E0,0E0],"parents":[2147483647,0,0,1,1,2,2,3,3,4,4,5,5,6,6,7,7,8,8,9,9,10,10,11,11,12,12,13,13],"right_children":[2,4,6,8,10,12,14,16,18,20,22,24,26,28,-1,-1,-1,-1,-1,-1,-1,-1,-1,-1,-1,-1,-1,-1,-1],"split_conditions":[8.881462E-2,-1.4153584E0,1.0648438E-1,-5.2509386E-2,-3.2104537E-2,2.4130054E-1,7.0000845E-1,-1.6798325E-1,-1.5360766E-2,5.9169687E-2,1.3125272E-3,-2.385809E-1,7.6478146E-2,9.314588E-2,-1.6648695E-2,2.8224884E-2,-4.2146858E-2,5.342685E-2,1.641533E-2,-3.99269E-2,8.650167E-4,2.5376812E-2,-1.2729443E-2,9.585689E-3,4.680768E-2,-3.7757345E-2,7.6391376E-3,7.40067E-2,3.5307553E-2],"split_indices":[9,6,1,1,3,4,11,3,10,9,2,5,1,10,0,0,0,0,0,0,0,0,0,0,0,0,0,0,0],"split_type":[0,0,0,0,0,0,0,0,0,0,0,0,0,0,0,0,0,0,0,0,0,0,0,0,0,0,0,0,0],"sum_hessian":[5.118746E2,3.5585556E2,1.5601906E2,6.805825E1,2.877973E2,1.3467485E2,2.1344206E1,1.4474764E1,5.3583485E1,9.308895E1,1.9470834E2,1.0995234E2,2.4722507E1,2.0109772E1,1.234435E0,4.7214384E0,9.753325E0,1.1735558E1,4.1847927E1,6.287877E1,3.0210182E1,4.6102932E1,1.4860541E2,8.366693E1,2.6285414E1,1.21126E1,1.2609907E1,7.160116E0,1.2949656E1],"tree_param":{"num_deleted":"0","num_feature":"16","num_nodes":"29","size_leaf_vector":"1"}},{"base_weights":[-1.1883159E-2,1.0478193E0,-4.3710157E-2,1.2304193E0,1.9715399E-1,-8.2609765E-2,7.68842E-1,6.698834E-2,1.3328186E-2,4.9560357E-2,-3.5149787E-2,-6.4663357E-1,-4.0077195E-2,9.141556E-1,2.8252968E-1,3.1036412E-2,-4.3087322E-2,-2.3346454E-2,-8.765386E-5,-8.007627E-3,5.096748E-2,-9.510381E-3,5.1449705E-2],"categories":[],"categories_nodes":[],"categories_segments":[],"categories_sizes":[],"default_left":[0,0,0,0,0,0,0,0,0,0,0,0,0,0,0,0,0,0,0,0,0,0,0],"id":10,"left_children":[1,3,5,7,9,11,13,-1,-1,-1,-1,15,17,19,21,-1,-1,-1,-1,-1,-1,-1,-1],"loss_changes":[1.7234707E1,2.0719185E0,1.5733023E1,9.1565704E-1,3.4300995E0,1.1345049E1,1.3491173E0,0E0,0E0,0E0,0E0,9.578308E0,7.22693E0,2.091836E0,2.5530624E0,0E0,0E0,0E0,0E0,0E0,0E0,0E0,0E0],"parents":[2147483647,0,0,1,1,2,2,3,3,4,4,5,5,6,6,11,11,12,12,13,13,14,14],"right_children":[2,4,6,8,10,12,14,-1,-1,-1,-1,16,18,20,22,-1,-1,-1,-1,-1,-1,-1,-1],"split_conditions":[-6.2900186E0,2.5529617E-1,1.0648438E-1,6.000013E-1,-1.5076193E-1,2.8772071E-2,3.7500238E-1,6.698834E-2,1.3328186E-2,4.9560357E-2,-3.5149787E-2,-6.238731E-1,-3.8888006E0,1.8051405E-2,2.591817E-1,3.1036412E-2,-4.3087322E-2,-2.3346454E-2,-8.765386E-5,-8.007627E-3,5.096748E-2,-9.510381E-3,5.1449705E-2],"split_indices":[6,9,1,11,1,9,11,0,0,0,0,6,5,15,2,0,0,0,0,0,0,0,0],"split_type":[0,0,0,0,0,0,0,0,0,0,0,0,0,0,0,0,0,0,0,0,0,0,0],"sum_hessian":[5.0864606E2,1.3900391E1,4.9474567E2,1.1076366E1,2.8240242E0,4.729999E2,2.1745764E1,9.597537E0,1.4788301E0,1.4466904E0,1.3773338E0,3.2171455E1,4.4082843E2,1.6065504E1,5.6802588E0,4.3945966E0,2.7776857E1,3.5396828E1,4.054316E2,1.386208E0,1.46792965E1,3.9340231E0,1.7462356E0],"tree_param":{"num_deleted":"0","num_feature":"16","num_nodes":"23","size_leaf_vector":"1"}},{"base_weights":[2.7019663E-2,2.526747E-3,1.1178542E0,9.6222335E-1,-2.4945343E-2,1.2498696E0,5.091286E-3,1.1057813E0,-3.4668613E-3,-7.129586E-2,2.9800332E-1,1.9101297E-2,6.923056E-2,6.3147165E-2,2.1032318E-2,-1.1154898E-3,-2.5419045E-2,6.993552E-2,1.1058836E-2],"categories":[],"categories_nodes":[],"categories_segments":[],"categories_sizes":[],"default_left":[0,0,0,0,0,0,0,0,0,0,0,0,0,0,0,0,0,0,0],"id":11,"left_children":[1,3,5,7,9,11,-1,13,-1,15,17,-1,-1,-1,-1,-1,-1,-1,-1],"loss_changes":[1.348457E1,1.3067426E1,1.3593807E0,2.119277E0,7.23524E0,6.076851E-1,0E0,7.788658E-1,0E0,9.029568E0,4.821983E0,0E0,0E0,0E0,0E0,0E0,0E0,0E0,0E0],"parents":[2147483647,0,0,1,1,2,2,3,3,4,4,5,5,7,7,9,9,10,10],"right_children":[2,4,6,8,10,12,-1,14,-1,16,18,-1,-1,-1,-1,-1,-1,-1,-1],"split_conditions":[5.49038E0,-6.6415224E0,1.0087782E0,1.2500001E-1,2.5075354E-2,5.8236623E0,5.091286E-3,4.251985E-1,-3.4668613E-3,2.4772607E-1,-7.092224E-3,1.9101297E-2,6.923056E-2,6.3147165E-2,2.1032318E-2,-1.1154898E-3,-2.5419045E-2,6.993552E-2,1.1058836E-2],"split_indices":[5,6,3,10,0,5,0,7,0,4,8,0,0,0,0,0,0,0,0],"split_type":[0,0,0,0,0,0,0,0,0,0,0,0,0,0,0,0,0,0,0],"sum_hessian":[5.0381085E2,4.9372733E2,1.00835285E1,1.2793122E1,4.809342E2,8.720321E0,1.3632078E0,1.1167095E1,1.6260275E0,4.2125388E2,5.9680325E1,1.6873946E0,7.0329256E0,8.397465E0,2.76963E0,3.7974518E2,4.1508686E1,2.7711751E0,5.690915E1],"tree_param":{"num_deleted":"0","num_feature":"16","num_nodes":"19","size_leaf_vector":"1"}},{"base_weights":[-9.930105E-3,-1.2786445E-1,3.3128265E-1,1.8366018E-1,-2.0820628E-1,9.65964E-1,2.5946692E-1,8.577899E-1,-2.1290397E-2,-4.749206E-1,-8.142676E-2,3.0553925E-1,1.2270262E0,-3.5583583E-1,4.284734E-1,5.4225188E-2,3.2517032E-3,-1.0633846E-2,2.5650559E-2,-3.9844383E-2,4.7345613E-3,1.6026696E-2,-1.106877E-2,4.96712E-2,-1.6677286E-2,7.012241E-2,1.4912033E-2,-1.9234713E-3,-3.2759916E-2,5.116048E-2,1.2508514E-2],"categories":[],"categories_nodes":[],"categories_segments":[],"categories_sizes":[],"default_left":[0,0,0,0,0,0,0,0,0,0,0,0,0,0,0,0,0,0,0,0,0,0,0,0,0,0,0,0,0,0,0],"id":12,"left_children":[1,3,5,7,9,11,13,15,17,19,21,23,25,27,29,-1,-1,-1,-1,-1,-1,-1,-1,-1,-1,-1,-1,-1,-1,-1,-1],"loss_changes":[2.0624866E1,9.569795E0,5.7502604E0,1.0879299E1,1.0214336E1,1.8691463E0,1.259389E1,3.2277708E0,6.3732944E0,1.7954185E1,1.1700413E1,2.5377767E0,1.0475521E0,2.4760563E0,9.745337E0,0E0,0E0,0E0,0E0,0E0,0E0,0E0,0E0,0E0,0E0,0E0,0E0,0E0,0E0,0E0,0E0],"parents":[2147483647,0,0,1,1,2,2,3,3,4,4,5,5,6,6,7,7,8,8,9,9,10,10,11,11,12,12,13,13,14,14],"right_children":[2,4,6,8,10,12,14,16,18,20,22,24,26,28,30,-1,-1,-1,-1,-1,-1,-1,-1,-1,-1,-1,-1,-1,-1,-1,-1],"split_conditions":[9.551031E-2,-1.4153584E0,-6.6415224E0,5.6128092E-2,-3.2104537E-2,-7.843296E-2,-1.2844697E-1,8.00429E-1,-3.9380908E-2,5.7437073E-2,1.3125272E-3,-4.2896938E-1,8.75E-1,-5.5866456E-3,-2.3809547E-2,5.4225188E-2,3.2517032E-3,-1.0633846E-2,2.5650559E-2,-3.9844383E-2,4.7345613E-3,1.6026696E-2,-1.106877E-2,4.96712E-2,-1.6677286E-2,7.012241E-2,1.4912033E-2,-1.9234713E-3,-3.2759916E-2,5.116048E-2,1.2508514E-2],"split_indices":[9,6,6,9,3,15,2,7,3,9,2,4,14,8,10,0,0,0,0,0,0,0,0,0,0,0,0,0,0,0,0],"split_type":[0,0,0,0,0,0,0,0,0,0,0,0,0,0,0,0,0,0,0,0,0,0,0,0,0,0,0,0,0,0,0],"sum_hessian":[5.104848E2,3.7982874E2,1.3065605E2,7.761015E1,3.022186E2,1.2015635E1,1.1864041E2,1.7351551E1,6.0258602E1,9.648686E1,2.0573172E2,4.0189714E0,7.996663E0,2.5326963E1,9.3313446E1,1.3206665E1,4.1448865E0,4.4809734E1,1.5448869E1,6.1388603E1,3.509826E1,5.279719E1,1.5293454E2,1.6685573E0,2.350414E0,6.297297E0,1.6993661E0,1.2841581E1,1.2485381E1,2.042997E1,7.288348E1],"tree_param":{"num_deleted":"0","num_feature":"16","num_nodes":"31","size_leaf_vector":"1"}},{"base_weights":[-4.060408E-3,-1.0226365E-1,4.1233242E-1,-6.351577E-1,-5.16486E-2,2.2585987E-1,6.639795E-1,8.2599336E-1,-7.5813407E-1,1.0377564E-2,-3.5862628E-1,7.1476305E-1,4.627616E-2,-3.188348E-2,7.5338966E-1,5.85751E-3,5.5646557E-2,4.2707082E-2,-4.346024E-2,-9.109083E-3,9.3282955E-3,-2.459973E-2,2.5071397E-2,8.5309865E-3,6.913617E-2,2.880322E-2,-8.980454E-3,-4.2864256E-2,4.5851868E-2,5.0320894E-2,2.1582741E-2],"categories":[],"categories_nodes":[],"categories_segments":[],"categories_sizes":[],"default_left":[0,0,0,0,0,0,0,0,0,0,0,0,0,0,0,0,0,0,0,0,0,0,0,0,0,0,0,0,0,0,0],"id":13,"left_children":[1,3,5,7,9,11,13,15,17,19,21,23,25,27,29,-1,-1,-1,-1,-1,-1,-1,-1,-1,-1,-1,-1,-1,-1,-1,-1],"loss_changes":[2.098087E1,1.1164593E1,4.4448605E0,7.0809193E0,7.243355E0,5.037987E0,2.5849056E0,5.3415084E-1,6.7691975E0,1.0798259E1,7.5808268E0,5.3785076E0,5.2865186E0,5.208232E0,2.5381432E0,0E0,0E0,0E0,0E0,0E0,0E0,0E0,0E0,0E0,0E0,0E0,0E0,0E0,0E0,0E0,0E0],"parents":[2147483647,0,0,1,1,2,2,3,3,4,4,5,5,6,6,7,7,8,8,9,9,10,10,11,11,12,12,13,13,14,14],"right_children":[2,4,6,8,10,12,14,16,18,20,22,24,26,28,30,-1,-1,-1,-1,-1,-1,-1,-1,-1,-1,-1,-1,-1,-1,-1,-1],"split_conditions":[1.0791882E-1,2.8772071E-2,1.5037973E-1,-1.634308E-1,8.2614064E-2,-3.7891228E-2,-1.309524E-1,-3.0863073E-3,1.8499328E-2,-3.2104537E-2,3.984112E-1,-8.554127E-2,9.0907015E-2,1.4285481E-1,2.5000054E-1,5.85751E-3,5.5646557E-2,4.2707082E-2,-4.346024E-2,-9.109083E-3,9.3282955E-3,-2.459973E-2,2.5071397E-2,8.5309865E-3,6.913617E-2,2.880322E-2,-8.980454E-3,-4.2864256E-2,4.5851868E-2,5.0320894E-2,2.1582741E-2],"split_indices":[9,9,9,3,2,10,10,8,9,3,3,1,12,11,11,0,0,0,0,0,0,0,0,0,0,0,0,0,0,0,0],"split_type":[0,0,0,0,0,0,0,0,0,0,0,0,0,0,0,0,0,0,0,0,0,0,0,0,0,0,0,0,0,0,0],"sum_hessian":[5.110598E2,4.1414185E2,9.691796E1,3.4921936E1,3.792199E2,5.675762E1,4.016034E1,2.2672129E0,3.2654724E1,3.162803E2,6.2939606E1,1.4446903E1,4.231072E1,4.6458616E0,3.5514477E1,1.0591054E0,1.2081074E0,1.6734377E0,3.0981287E1,1.5110313E2,1.6517717E2,5.4860374E1,8.07923E0,8.65317E0,5.7937326E0,1.2184082E1,3.0126638E1,2.5362868E0,2.1095748E0,1.8688679E1,1.68258E1],"tree_param":{"num_deleted":"0","num_feature":"16","num_nodes":"31","size_leaf_vector":"1"}},{"base_weights":[-4.784658E-3,-6.0135707E-2,6.125682E-1,-5.420744E-1,-2.3075523E-2,1.2766424E-1,8.285959E-1,7.854233E-1,-8.0485487E-1,-2.2695616E-1,5.466037E-2,7.88902E-1,-2.5792244E-1,9.878424E-1,-4.7389078E-1,-9.500722E-3,5.1628526E-2,-5.1893692E-2,-1.0175903E-2,4.3157022E-2,-1.3775365E-2,2.242116E-2,-9.970128E-4,5.442518E-2,1.2485057E-2,-2.8546084E-2,3.5945646E-2,-8.598533E-3,5.2062135E-2,-3.3732384E-2,3.76153E-4],"categories":[],"categories_nodes":[],"categories_segments":[],"categories_sizes":[],"default_left":[0,0,0,0,0,0,0,0,0,0,0,0,0,0,0,0,0,0,0,0,0,0,0,0,0,0,0,0,0,0,0],"id":14,"left_children":[1,3,5,7,9,11,13,15,17,19,21,23,25,27,29,-1,-1,-1,-1,-1,-1,-1,-1,-1,-1,-1,-1,-1,-1,-1,-1],"loss_changes":[1.75953E1,8.426158E0,4.332465E0,1.2385723E1,6.9823627E0,3.8342297E0,6.5098743E0,1.6604183E0,3.799036E0,6.672886E0,9.385112E0,6.153462E-1,3.3910682E0,1.8066597E0,3.7708706E-1,0E0,0E0,0E0,0E0,0E0,0E0,0E0,0E0,0E0,0E0,0E0,0E0,0E0,0E0,0E0,0E0],"parents":[2147483647,0,0,1,1,2,2,3,3,4,4,5,5,6,6,7,7,8,8,9,9,10,10,11,11,12,12,13,13,14,14],"right_children":[2,4,6,8,10,12,14,16,18,20,22,24,26,28,30,-1,-1,-1,-1,-1,-1,-1,-1,-1,-1,-1,-1,-1,-1,-1,-1],"split_conditions":[1.5037973E-1,2.8772071E-2,-4.5871526E-2,-5.4859513E-1,-2.478674E-2,-2.635688E-1,6.9999695E-1,-1.3892778E-2,-4.9397433E-3,-4.9676076E-2,-1.669907E0,2.3349869E-1,-1.3669069E-1,-3.846148E-2,7.4833566E-3,-9.500722E-3,5.1628526E-2,-5.1893692E-2,-1.0175903E-2,4.3157022E-2,-1.3775365E-2,2.242116E-2,-9.970128E-4,5.442518E-2,1.2485057E-2,-2.8546084E-2,3.5945646E-2,-8.598533E-3,5.2062135E-2,-3.3732384E-2,3.76153E-4],"split_indices":[9,9,10,6,15,2,11,0,15,0,6,9,2,0,0,0,0,0,0,0,0,0,0,0,0,0,0,0,0,0,0],"split_type":[0,0,0,0,0,0,0,0,0,0,0,0,0,0,0,0,0,0,0,0,0,0,0,0,0,0,0,0,0,0,0],"sum_hessian":[5.128391E2,4.714703E2,4.1368816E1,3.2693256E1,4.3877704E2,1.3240236E1,2.812858E1,5.0736456E0,2.761961E1,1.2058775E2,3.181893E2,4.491626E0,8.748611E0,2.5279406E1,2.849175E0,1.0723753E0,4.0012703E0,1.9382801E1,8.236809E0,4.4263754E0,1.1616138E2,4.9882835E1,2.6830646E2,2.2324514E0,2.259174E0,6.940321E0,1.8082899E0,1.0149558E0,2.426445E1,1.7274245E0,1.1217505E0],"tree_param":{"num_deleted":"0","num_feature":"16","num_nodes":"31","size_leaf_vector":"1"}},{"base_weights":[-7.486179E-3,5.133099E-1,-4.9963802E-2,3.376824E-2,8.076766E-1,-7.4229755E-2,7.5910795E-1,5.051469E-1,-7.5079125E-1,8.982043E-1,-2.914244E-2,-5.365374E-1,-3.6296584E-2,2.6772988E-1,1.050525E0,4.5835864E-2,-1.3091964E-2,-5.322971E-2,2.1740003E-2,5.4575622E-2,8.233477E-3,3.377595E-2,-3.764012E-2,-9.875189E-3,3.0638247E-3,3.066947E-2,-1.9699946E-2,2.0061595E-2,6.535967E-2],"categories":[],"categories_nodes":[],"categories_segments":[],"categories_sizes":[],"default_left":[0,0,0,0,0,0,0,0,0,0,0,0,0,0,0,0,0,0,0,0,0,0,0,0,0,0,0,0,0],"id":15,"left_children":[1,3,5,7,9,11,13,15,17,19,-1,21,23,25,27,-1,-1,-1,-1,-1,-1,-1,-1,-1,-1,-1,-1,-1,-1],"loss_changes":[1.1309432E1,5.4150305E0,9.33314E0,6.188512E0,3.5252466E0,8.041569E0,1.7017441E0,3.5262532E0,2.8059237E0,3.0506706E0,0E0,9.626225E0,6.710987E0,1.7278385E0,8.671961E-1,0E0,0E0,0E0,0E0,0E0,0E0,0E0,0E0,0E0,0E0,0E0,0E0,0E0,0E0],"parents":[2147483647,0,0,1,1,2,2,3,3,4,4,5,5,6,6,7,7,8,8,9,9,11,11,12,12,13,13,14,14],"right_children":[2,4,6,8,10,12,14,16,18,20,-1,22,24,26,28,-1,-1,-1,-1,-1,-1,-1,-1,-1,-1,-1,-1,-1,-1],"split_conditions":[-2.7348796E-1,-3.0662304E-1,1.2460464E-1,-1.7031924E-1,1.6518381E-1,2.8772071E-2,4.9999857E-1,2.3349869E-1,2.9009426E-1,5.000012E-1,-2.914244E-2,-5.4859513E-1,-4.6062287E-2,1.9164832E-1,-1.6931835E-1,4.5835864E-2,-1.3091964E-2,-5.322971E-2,2.1740003E-2,5.4575622E-2,8.233477E-3,3.377595E-2,-3.764012E-2,-9.875189E-3,3.0638247E-3,3.066947E-2,-1.9699946E-2,2.0061595E-2,6.535967E-2],"split_indices":[3,4,1,2,2,9,14,9,7,11,0,6,3,1,7,0,0,0,0,0,0,0,0,0,0,0,0,0,0],"split_type":[0,0,0,0,0,0,0,0,0,0,0,0,0,0,0,0,0,0,0,0,0,0,0,0,0,0,0,0,0],"sum_hessian":[5.0906656E2,3.7553864E1,4.715127E2,1.4708125E1,2.284574E1,4.5866452E2,1.2848167E1,9.410345E0,5.29778E0,2.178173E1,1.0640081E0,3.378372E1,4.2488083E2,5.497378E0,7.350789E0,5.99706E0,3.4132857E0,4.269724E0,1.0280564E0,1.6852566E1,4.929166E0,4.7937245E0,2.8989992E1,1.5981511E2,2.650657E2,3.6590781E0,1.8382996E0,2.8087459E0,4.542043E0],"tree_param":{"num_deleted":"0","num_feature":"16","num_nodes":"29","size_leaf_vector":"1"}},{"base_weights":[-1.9625467E-3,-1.0386857E-1,2.8196782E-1,3.720969E-1,-1.5794003E-1,2.223533E-1,8.7625825E-1,-3.029397E-2,7.631096E-1,-4.055566E-1,-1.7065352E-2,4.1092217E-1,-2.426249E-2,1.0744385E0,1.6892125E-1,1.1965896E-2,-3.0061577E-2,7.4502884E-4,4.7887027E-2,1.8651215E-2,-2.3724632E-2,2.3744402E-2,-1.1031651E-2,2.210234E-2,-2.9705038E-2,-5.864474E-3,4.9514916E-2,1.7346295E-2,6.9363244E-2,-1.9660862E-2,4.28244E-2],"categories":[],"categories_nodes":[],"categories_segments":[],"categories_sizes":[],"default_left":[0,0,0,0,0,0,0,0,0,0,0,0,0,0,0,0,0,0,0,0,0,0,0,0,0,0,0,0,0,0,0],"id":16,"left_children":[1,3,5,7,9,11,13,15,17,19,21,23,25,27,29,-1,-1,-1,-1,-1,-1,-1,-1,-1,-1,-1,-1,-1,-1,-1,-1],"loss_changes":[1.47785845E1,9.731678E0,4.584573E0,6.1027427E0,1.1790798E1,5.7739153E0,1.4948807E0,3.223252E0,2.845108E0,6.757082E0,2.1797522E1,2.4614935E0,5.274156E0,1.6022406E0,1.8069892E0,0E0,0E0,0E0,0E0,0E0,0E0,0E0,0E0,0E0,0E0,0E0,0E0,0E0,0E0,0E0,0E0],"parents":[2147483647,0,0,1,1,2,2,3,3,4,4,5,5,6,6,7,7,8,8,9,9,10,10,11,11,12,12,13,13,14,14],"right_children":[2,4,6,8,10,12,14,16,18,20,22,24,26,28,30,-1,-1,-1,-1,-1,-1,-1,-1,-1,-1,-1,-1,-1,-1,-1,-1],"split_conditions":[9.369606E-2,-8.860674E-2,4.7318578E-2,-2.993842E0,-3.2104537E-2,1.7300196E-3,8.947368E-1,-1.1600983E-1,-8.181815E-1,-2.46172E-1,1.3125272E-3,8.9988536E-1,2.0914316E-1,6E-1,4.4633216E-1,1.1965896E-2,-3.0061577E-2,7.4502884E-4,4.7887027E-2,1.8651215E-2,-2.3724632E-2,2.3744402E-2,-1.1031651E-2,2.210234E-2,-2.9705038E-2,-5.864474E-3,4.9514916E-2,1.7346295E-2,6.9363244E-2,-1.9660862E-2,4.28244E-2],"split_indices":[9,2,8,5,3,8,13,3,13,3,2,3,9,13,7,0,0,0,0,0,0,0,0,0,0,0,0,0,0,0,0],"split_type":[0,0,0,0,0,0,0,0,0,0,0,0,0,0,0,0,0,0,0,0,0,0,0,0,0,0,0,0,0,0,0],"sum_hessian":[5.0875284E2,3.7484915E2,1.3390369E2,3.7640057E1,3.372091E2,1.2294498E2,1.0958717E1,1.900478E1,1.8635277E1,1.2159744E2,2.1561165E2,6.929441E1,5.3650562E1,8.154902E0,2.8038144E0,1.3303396E1,5.701384E0,4.0691233E0,1.4566154E1,9.531797E0,1.1206565E2,6.2715916E1,1.5289574E2,6.775623E1,1.5381814E0,4.9954533E1,3.6960313E0,3.0863218E0,5.0685806E0,1.7781464E0,1.025668E0],"tree_param":{"num_deleted":"0","num_feature":"16","num_nodes":"31","size_leaf_vector":"1"}},{"base_weights":[1.685019E-2,-1.7718598E-2,8.047165E-1,4.0202162E-1,-5.685943E-2,2.440221E-1,9.560957E-1,-8.188226E-2,8.939411E-1,5.299499E-1,-8.1409976E-2,5.1214933E-2,-3.5115454E-1,1.1579936E0,6.5974206E-1,3.964916E-2,-1.97772E-2,5.4175623E-2,-4.442723E-3,-1.7199682E-2,4.232709E-2,-4.9342816E-3,4.8235323E-2,-4.953881E-2,1.8908083E-2,6.593374E-2,2.3010401E-2,-2.0165478E-3,4.5840826E-2],"categories":[],"categories_nodes":[],"categories_segments":[],"categories_sizes":[],"default_left":[0,0,0,0,0,0,0,0,0,0,0,0,0,0,0,0,0,0,0,0,0,0,0,0,0,0,0,0,0],"id":17,"left_children":[1,3,5,7,9,11,13,15,17,19,21,-1,23,25,27,-1,-1,-1,-1,-1,-1,-1,-1,-1,-1,-1,-1,-1,-1],"loss_changes":[1.3704996E1,7.950302E0,1.5618706E0,9.899975E0,6.41436E0,3.071335E0,2.1197414E-1,6.2756696E0,3.9259186E0,5.241782E0,7.782341E0,0E0,2.2672508E0,3.3244133E-1,1.6447699E0,0E0,0E0,0E0,0E0,0E0,0E0,0E0,0E0,0E0,0E0,0E0,0E0,0E0,0E0],"parents":[2147483647,0,0,1,1,2,2,3,3,4,4,5,5,6,6,7,7,8,8,9,9,10,10,12,12,13,13,14,14],"right_children":[2,4,6,8,10,12,14,16,18,20,22,-1,24,26,28,-1,-1,-1,-1,-1,-1,-1,-1,-1,-1,-1,-1,-1,-1],"split_conditions":[1.0648438E-1,-2.6150814E-1,2.435317E0,-2.4557391E-1,-8.181804E-2,3.426382E-1,-3.9241064E-2,-4.521742E-1,5.30876E-2,-1.8329652E-1,1.6415063E-1,5.1214933E-2,3.14771E-2,5.7376932E-2,2.2015704E-2,3.964916E-2,-1.97772E-2,5.4175623E-2,-4.442723E-3,-1.7199682E-2,4.232709E-2,-4.9342816E-3,4.8235323E-2,-4.953881E-2,1.8908083E-2,6.593374E-2,2.3010401E-2,-2.0165478E-3,4.5840826E-2],"split_indices":[1,3,5,4,10,4,7,4,1,2,9,0,8,0,0,0,0,0,0,0,0,0,0,0,0,0,0,0,0],"split_type":[0,0,0,0,0,0,0,0,0,0,0,0,0,0,0,0,0,0,0,0,0,0,0,0,0,0,0,0,0],"sum_hessian":[5.0167828E2,4.8152805E2,2.0150238E1,4.028174E1,4.412463E2,4.839005E0,1.5311233E1,2.0726507E1,1.9555233E1,1.6892567E1,4.2435373E2,1.7819151E0,3.0570898E0,7.3775997E0,7.9336324E0,5.066599E0,1.5659907E1,1.630725E1,3.247984E0,4.469122E0,1.2423445E1,4.1835074E2,6.003014E0,1.4377024E0,1.6193875E0,5.273463E0,2.104137E0,2.3572934E0,5.5763392E0],"tree_param":{"num_deleted":"0","num_feature":"16","num_nodes":"29","size_leaf_vector":"1"}},{"base_weights":[1.1721202E-2,-5.059752E-1,5.211218E-2,8.5327387E-1,-6.2102085E-1,3.05716E-2,9.39658E-1,5.453164E-2,8.563549E-3,5.271272E-2,-7.165011E-1,7.7065244E-2,-2.175871E-1,2.684201E-3,1.1253154E0,-3.9731644E-2,3.925588E-2,4.2713617E-4,2.9453028E-2,-2.0502475E-3,-2.9084802E-2,6.377319E-2,2.5566129E-2],"categories":[],"categories_nodes":[],"categories_segments":[],"categories_sizes":[],"default_left":[0,0,0,0,0,0,0,0,0,0,0,0,0,0,0,0,0,0,0,0,0,0,0],"id":18,"left_children":[1,3,5,7,9,11,13,-1,-1,-1,15,17,19,-1,21,-1,-1,-1,-1,-1,-1,-1,-1],"loss_changes":[1.0680344E1,6.3108873E0,9.024548E0,3.4838843E-1,6.299844E0,5.362856E0,1.7796793E0,0E0,0E0,0E0,4.5412006E0,1.3711772E1,4.693797E0,0E0,1.9584942E-1,0E0,0E0,0E0,0E0,0E0,0E0,0E0,0E0],"parents":[2147483647,0,0,1,1,2,2,3,3,4,4,5,5,6,6,10,10,11,11,12,12,14,14],"right_children":[2,4,6,8,10,12,14,-1,-1,-1,16,18,20,-1,22,-1,-1,-1,-1,-1,-1,-1,-1],"split_conditions":[2.8772071E-2,-4.3792743E-2,5.49038E0,-1.1088583E0,1.8499328E-2,2.4490286E-1,-6.363636E-1,5.453164E-2,8.563549E-3,5.271272E-2,3.12501E-2,3.2204766E-2,3.3333758E-1,2.684201E-3,3.8461676E-1,-3.9731644E-2,3.925588E-2,4.2713617E-4,2.9453028E-2,-2.0502475E-3,-2.9084802E-2,6.377319E-2,2.5566129E-2],"split_indices":[9,2,5,5,9,4,13,0,0,0,10,1,12,0,12,0,0,0,0,0,0,0,0],"split_type":[0,0,0,0,0,0,0,0,0,0,0,0,0,0,0,0,0,0,0,0,0,0,0],"sum_hessian":[5.0850946E2,3.5968582E1,4.725409E2,2.3060522E0,3.366253E1,4.6235406E2,1.0186807E1,1.266209E0,1.0398432E0,1.2736561E0,3.2388874E1,3.899792E2,7.23749E1,1.9881816E0,8.198626E0,3.1234505E1,1.154368E0,3.4484393E2,4.5135254E1,4.9487522E1,2.2887377E1,5.7220135E0,2.4766119E0],"tree_param":{"num_deleted":"0","num_feature":"16","num_nodes":"23","size_leaf_vector":"1"}},{"base_weights":[1.654922E-2,8.0392647E-1,-1.3752796E-2,1.0046564E0,2.0298307E-1,-4.050154E-2,5.505375E-1,1.1115961E0,-5.7176254E-3,-2.67334E-1,4.780184E-2,2.0291673E-1,-1.04008935E-1,1.1280037E0,3.3292213E-1,2.175132E-2,5.990395E-2,2.2225522E-2,-3.4894064E-2,4.2366767E-3,4.4350337E-2,-1.6048377E-2,-1.7705355E-3,6.2576085E-2,1.4048559E-2,-3.4763508E-2,2.5944019E-2],"categories":[],"categories_nodes":[],"categories_segments":[],"categories_sizes":[],"default_left":[0,0,0,0,0,0,0,0,0,0,0,0,0,0,0,0,0,0,0,0,0,0,0,0,0,0,0],"id":19,"left_children":[1,3,5,7,9,11,13,15,-1,17,-1,19,21,23,25,-1,-1,-1,-1,-1,-1,-1,-1,-1,-1,-1,-1],"loss_changes":[1.2063188E1,2.0562048E0,7.3791533E0,1.7775393E0,2.3610053E0,7.22917E0,2.4050512E0,2.208538E-1,0E0,1.671218E0,0E0,7.7523575E0,5.5021243E0,2.381692E-1,3.7047594E0,0E0,0E0,0E0,0E0,0E0,0E0,0E0,0E0,0E0,0E0,0E0,0E0],"parents":[2147483647,0,0,1,1,2,2,3,3,4,4,5,5,6,6,7,7,9,9,11,11,12,12,13,13,14,14],"right_children":[2,4,6,8,10,12,14,16,-1,18,-1,20,22,24,26,-1,-1,-1,-1,-1,-1,-1,-1,-1,-1,-1,-1],"split_conditions":[-5.2827435E0,4.158527E-1,1.0648438E-1,1.2500001E-1,2.7058706E-2,-3.6649335E-2,3.527009E-1,-4.8168844E-1,-5.7176254E-3,-2.4961664E-1,4.780184E-2,2.0977974E0,-2.2178365E-2,4.6955194E0,1.3759847E-1,2.175132E-2,5.990395E-2,2.2225522E-2,-3.4894064E-2,4.2366767E-3,4.4350337E-2,-1.6048377E-2,-1.7705355E-3,6.2576085E-2,1.4048559E-2,-3.4763508E-2,2.5944019E-2],"split_indices":[6,7,1,10,8,10,4,7,0,2,0,6,15,5,2,0,0,0,0,0,0,0,0,0,0,0,0],"split_type":[0,0,0,0,0,0,0,0,0,0,0,0,0,0,0,0,0,0,0,0,0,0,0,0,0,0,0],"sum_hessian":[5.0413733E2,1.7736483E1,4.8640085E2,1.2791879E1,4.944603E0,4.6527396E2,2.1126902E1,1.1682088E1,1.1097912E0,3.440716E0,1.503887E0,9.581776E1,3.694562E2,4.637449E0,1.6489452E1,2.0074747E0,9.674613E0,1.2845224E0,2.1561935E0,8.266111E1,1.3156648E1,8.786928E1,2.815869E2,3.6304967E0,1.006952E0,2.1060297E0,1.4383423E1],"tree_param":{"num_deleted":"0","num_feature":"16","num_nodes":"27","size_leaf_vector":"1"}},{"base_weights":[1.8613158E-2,-5.10857E-3,7.532094E-1,3.6277953E-1,-3.8473774E-2,6.058857E-2,9.8628205E-1,-2.1575391E-1,8.1575257E-1,-7.577166E-2,3.1162226E-1,4.1911077E-2,-3.5830662E-1,1.1929178E0,-1.6571676E-2,2.3194937E-2,-3.1685945E-2,4.642519E-2,-1.9751592E-2,-2.4564078E-3,-3.205549E-2,3.8361542E-2,4.4178995E-3,7.530149E-3,-3.2498118E-2,6.9635876E-2,1.4351144E-2],"categories":[],"categories_nodes":[],"categories_segments":[],"categories_sizes":[],"default_left":[0,0,0,0,0,0,0,0,0,0,0,0,0,0,0,0,0,0,0,0,0,0,0,0,0,0,0],"id":20,"left_children":[1,3,5,7,9,11,13,15,17,19,21,-1,23,25,-1,-1,-1,-1,-1,-1,-1,-1,-1,-1,-1,-1,-1],"loss_changes":[8.788463E0,6.020395E0,2.4870434E0,1.086423E1,5.8937783E0,1.9413419E0,3.5916824E0,5.60646E0,3.518179E0,6.1000776E0,4.354828E0,0E0,6.878157E-1,1.4762802E0,0E0,0E0,0E0,0E0,0E0,0E0,0E0,0E0,0E0,0E0,0E0,0E0,0E0],"parents":[2147483647,0,0,1,1,2,2,3,3,4,4,5,5,6,6,7,7,8,8,9,9,10,10,12,12,13,13],"right_children":[2,4,6,8,10,12,14,16,18,20,22,-1,24,26,-1,-1,-1,-1,-1,-1,-1,-1,-1,-1,-1,-1,-1],"split_conditions":[5.339818E-2,-2.6150814E-1,-1.1628102E-2,-2.8238568E-1,2.852622E0,-2.46172E-1,7.8970474E-1,-4.2896938E-1,8.7499845E-1,3.7313965E-1,1.5730208E-1,4.1911077E-2,1E0,6.944462E-2,-1.6571676E-2,2.3194937E-2,-3.1685945E-2,4.642519E-2,-1.9751592E-2,-2.4564078E-3,-3.205549E-2,3.8361542E-2,4.4178995E-3,7.530149E-3,-3.2498118E-2,6.9635876E-2,1.4351144E-2],"split_indices":[8,3,1,4,6,3,3,4,14,4,3,0,14,8,0,0,0,0,0,0,0,0,0,0,0,0,0],"split_type":[0,0,0,0,0,0,0,0,0,0,0,0,0,0,0,0,0,0,0,0,0,0,0,0,0,0,0],"sum_hessian":[5.0311276E2,4.8833633E2,1.4776408E1,3.9785408E1,4.4855093E2,4.0376616E0,1.0738746E1,1.7701233E1,2.2084175E1,4.0607303E2,4.2477894E1,1.0631014E0,2.9745603E0,9.364908E0,1.3738375E0,6.698655E0,1.1002578E1,2.0416115E1,1.6680593E0,3.8883478E2,1.7238277E1,1.3168638E1,2.9309258E1,1.25986E0,1.7147002E0,7.2323775E0,2.1325312E0],"tree_param":{"num_deleted":"0","num_feature":"16","num_nodes":"27","size_leaf_vector":"1"}},{"base_weights":[4.476143E-3,-1.4246936E-2,9.2845523E-1,4.5949936E-1,-5.1462315E-2,6.263827E-2,2.5296596E-1,1.1972418E-1,7.5648105E-1,-2.0450586E-1,4.3685585E-2,-3.213792E-2,7.216068E-1,3.571725E-2,-2.320959E-2,4.3563984E-2,-3.1091535E-2,3.158098E-3,-1.8660847E-2,5.497743E-2,1.2975304E-4,4.2201325E-2,1.0986258E-2],"categories":[],"categories_nodes":[],"categories_segments":[],"categories_sizes":[],"default_left":[0,0,0,0,0,0,0,0,0,0,0,0,0,0,0,0,0,0,0,0,0,0,0],"id":21,"left_children":[1,3,5,7,9,-1,11,13,15,17,19,-1,21,-1,-1,-1,-1,-1,-1,-1,-1,-1,-1],"loss_changes":[8.695024E0,8.713146E0,1.869895E0,3.5418715E0,6.6762657E0,0E0,2.3490314E0,6.573485E0,3.5513792E0,7.9581757E0,1.2282308E1,0E0,2.4642348E-2,0E0,0E0,0E0,0E0,0E0,0E0,0E0,0E0,0E0,0E0],"parents":[2147483647,0,0,1,1,2,2,3,3,4,4,6,6,7,7,8,8,9,9,10,10,12,12],"right_children":[2,4,6,8,10,-1,12,14,16,18,20,-1,22,-1,-1,-1,-1,-1,-1,-1,-1,-1,-1],"split_conditions":[5.49038E0,-2.7798575E-1,7.3826903E-1,-3.8714764E0,-4.1423213E-2,6.263827E-2,6.482344E0,-6.6415224E0,4.068166E0,-1.7030559E0,-2.7292696E-1,-3.213792E-2,4.8157418E-1,3.571725E-2,-2.320959E-2,4.3563984E-2,-3.1091535E-2,3.158098E-3,-1.8660847E-2,5.497743E-2,1.2975304E-4,4.2201325E-2,1.0986258E-2],"split_indices":[5,3,3,6,3,0,5,6,6,6,4,0,4,0,0,0,0,0,0,0,0,0,0],"split_type":[0,0,0,0,0,0,0,0,0,0,0,0,0,0,0,0,0,0,0,0,0,0,0],"sum_hessian":[5.0084558E2,4.9186328E2,8.982306E0,3.4997917E1,4.5686536E2,5.491277E0,3.4910288E0,1.6977354E1,1.8020565E1,1.7470554E2,2.8215982E2,1.0715028E0,2.4195259E0,8.300902E0,8.676451E0,1.6974625E1,1.0459396E0,6.7785835E1,1.0691971E2,9.604451E0,2.7255536E2,1.3970349E0,1.0224911E0],"tree_param":{"num_deleted":"0","num_feature":"16","num_nodes":"23","size_leaf_vector":"1"}},{"base_weights":[-6.871628E-3,-3.866493E-1,4.8710488E-2,5.271321E-4,-5.7575727E-1,1.8531118E-2,5.358949E-1,-7.1046996E-1,4.2546844E-1,-7.046967E-1,4.1097965E-2,1.4323209E-1,-1.2998293E-1,-1.8281879E-1,6.7213774E-1,-4.520602E-2,2.5573515E-3,3.2910354E-2,-3.981338E-2,-2.1099014E-2,-4.620134E-2,-2.6501944E-2,2.240713E-2,-3.0042983E-3,1.2882515E-2,-8.626542E-3,2.1769103E-2,2.7394224E-2,-2.9361803E-2,3.8715865E-2,-8.753988E-3],"categories":[],"categories_nodes":[],"categories_segments":[],"categories_sizes":[],"default_left":[0,0,0,0,0,0,0,0,0,0,0,0,0,0,0,0,0,0,0,0,0,0,0,0,0,0,0,0,0,0,0],"id":22,"left_children":[1,3,5,7,9,11,13,15,17,19,21,23,25,27,29,-1,-1,-1,-1,-1,-1,-1,-1,-1,-1,-1,-1,-1,-1,-1,-1],"loss_changes":[1.0686295E1,4.7324085E0,6.4847116E0,7.011888E0,3.4826746E0,7.7412715E0,2.6424794E0,1.3267479E0,4.6543355E0,1.8405457E0,2.2024832E0,5.299615E0,4.6660004E0,1.7657765E0,2.0266247E0,0E0,0E0,0E0,0E0,0E0,0E0,0E0,0E0,0E0,0E0,0E0,0E0,0E0,0E0,0E0,0E0],"parents":[2147483647,0,0,1,1,2,2,3,3,4,4,5,5,6,6,7,7,8,8,9,9,10,10,11,11,12,12,13,13,14,14],"right_children":[2,4,6,8,10,12,14,16,18,20,22,24,26,28,30,-1,-1,-1,-1,-1,-1,-1,-1,-1,-1,-1,-1,-1,-1,-1,-1],"split_conditions":[3.6659446E-2,-1.2984148E-1,4.1379225E-2,-1.1538609E-2,1.6064247E-2,1.5409327E-3,1.922211E-2,-6.9637704E-3,1.0951882E-2,-6.771763E-3,-2.2990458E-1,-2.5201682E-2,1.5037973E-1,-1.0108905E-1,5.360747E-1,-4.520602E-2,2.5573515E-3,3.2910354E-2,-3.981338E-2,-2.1099014E-2,-4.620134E-2,-2.6501944E-2,2.240713E-2,-3.0042983E-3,1.2882515E-2,-8.626542E-3,2.1769103E-2,2.7394224E-2,-2.9361803E-2,3.8715865E-2,-8.753988E-3],"split_indices":[9,6,8,10,10,0,0,0,2,10,7,15,9,7,4,0,0,0,0,0,0,0,0,0,0,0,0,0,0,0,0],"split_type":[0,0,0,0,0,0,0,0,0,0,0,0,0,0,0,0,0,0,0,0,0,0,0,0,0,0,0,0,0,0,0],"sum_hessian":[5.0435498E2,6.3630245E1,4.4072473E2,2.1207525E1,4.2422718E1,4.1599344E2,2.4731302E1,7.6821284E0,1.3525397E1,3.4970528E1,7.452191E0,2.2614479E2,1.8984866E2,3.886616E0,2.0844687E1,5.975642E0,1.7064865E0,1.1748568E1,1.7768295E0,1.6555037E1,1.8415491E1,2.9752967E0,4.4768944E0,8.160671E1,1.4453807E2,1.7720732E2,1.26413355E1,1.2583224E0,2.6282938E0,1.8678047E1,2.1666381E0],"tree_param":{"num_deleted":"0","num_feature":"16","num_nodes":"31","size_leaf_vector":"1"}}]},"name":"gbtree"},"learner_model_param":{"base_score":"[5E-1]","boost_from_average":"1","num_class":"0","num_feature":"16","num_target":"1"},"objective":{"name":"binary:logistic","reg_loss_param":{"scale_pos_weight":"0.287276775"}}},"version":[3,2,0]}