{"learner":{"attributes":{"scikit_learn":"{\"_estimator_type\": \"classifier\"}"},"feature_names":["bias_week","bias_month","bias_quarter","bias_year","rsi","macd","macd_signal","vol_change","close_change","bb_width","return_5d","k_upper","k_lower","k_body","buy_power","rs_5d","obv","atr_ratio","trend_strength"],"feature_types":["float","float","float","float","float","float","float","float","float","float","float","float","float","float","float","float","float","float","float"],"gradient_booster":{"model":{"cats":{"enc":[],"feature_segments":[],"sorted_idx":[]},"gbtree_model_param":{"num_parallel_tree":"1","num_trees":"24"},"iteration_indptr":[0,1,2,3,4,5,6,7,8,9,10,11,12,13,14,15,16,17,18,19,20,21,22,23,24],"tree_info":[0,0,0,0,0,0,0,0,0,0,0,0,0,0,0,0,0,0,0,0,0,0,0,0],"trees":[{"base_weights":[9.258389E-3,-2.6910114E-1,1.6667303E-1,3.7748808E-1,-4.6793455E-1,2.1195425E-1,-1.036823E0,5.9926927E-2,-1.0940943E-2,-3.7984177E-2,-1.6809823E-1,-8.224653E-3,3.154118E-2,-1.29161E-1,-0E0],"categories":[],"categories_nodes":[],"categories_segments":[],"categories_sizes":[],"default_left":[0,0,0,0,0,0,0,0,0,0,0,0,0,0,0],"id":0,"left_children":[1,3,5,7,9,11,13,-1,-1,-1,-1,-1,-1,-1,-1],"loss_changes":[5.2061012E1,5.5114883E1,4.0152435E1,1.2001643E1,2.90504E1,2.374892E1,4.9677067E0,0E0,0E0,0E0,0E0,0E0,0E0,0E0,0E0],"parents":[2147483647,0,0,1,1,2,2,3,3,4,4,5,5,6,6],"right_children":[2,4,6,8,10,12,14,-1,-1,-1,-1,-1,-1,-1,-1],"split_conditions":[-2.6648391E-2,-2.282526E-1,5.402047E-1,1.3744023E-1,2.3816967E0,-1.041441E-4,1.4267036E-1,5.9926927E-2,-1.0940943E-2,-3.7984177E-2,-1.6809823E-1,-8.224653E-3,3.154118E-2,-1.29161E-1,-0E0],"split_indices":[3,3,3,9,6,16,9,0,0,0,0,0,0,0,0],"split_type":[0,0,0,0,0,0,0,0,0,0,0,0,0,0,0],"sum_hessian":[1.1916476E3,4.250641E2,7.6658356E2,9.712106E1,3.2794302E2,7.4127704E2,2.530646E1,6.932852E1,2.7792543E1,3.094606E2,1.8482405E1,1.9044223E2,5.5083484E2,1.8662027E1,6.644433E0],"tree_param":{"num_deleted":"0","num_feature":"19","num_nodes":"15","size_leaf_vector":"1"}},{"base_weights":[-1.3114354E-2,-2.8572163E-1,1.3354376E-1,3.3276397E-1,-5.0153506E-1,1.8633276E-1,-9.9128264E-1,-1.3014011E-1,4.4357076E-2,5.9433524E-2,-6.089268E-2,7.552598E-3,4.971848E-2,-1.21204615E-1,-0E0],"categories":[],"categories_nodes":[],"categories_segments":[],"categories_sizes":[],"default_left":[0,0,0,0,0,0,0,0,0,0,0,0,0,0,0],"id":1,"left_children":[1,3,5,7,9,11,13,-1,-1,-1,-1,-1,-1,-1,-1],"loss_changes":[4.774781E1,5.6601315E1,4.3806244E1,1.8589931E1,3.9223953E1,2.4131222E1,5.2185764E0,0E0,0E0,0E0,0E0,0E0,0E0,0E0,0E0],"parents":[2147483647,0,0,1,1,2,2,3,3,4,4,5,5,6,6],"right_children":[2,4,6,8,10,12,14,-1,-1,-1,-1,-1,-1,-1,-1],"split_conditions":[-2.6648391E-2,-2.2547881E-1,5.136906E-1,-8.842954E-2,3.5606977E-2,2.9782286E-1,1.5254506E-1,-1.3014011E-1,4.4357076E-2,5.9433524E-2,-6.089268E-2,7.552598E-3,4.971848E-2,-1.21204615E-1,-0E0],"split_indices":[3,3,3,15,9,3,9,0,0,0,0,0,0,0,0],"split_type":[0,0,0,0,0,0,0,0,0,0,0,0,0,0,0],"sum_hessian":[1.1840233E3,4.192599E2,7.6476337E2,1.0562943E2,3.1363046E2,7.330831E2,3.1680248E1,4.9998507E0,1.0062958E2,2.683265E1,2.8679782E2,5.4912683E2,1.839563E2,2.4053955E1,7.626292E0],"tree_param":{"num_deleted":"0","num_feature":"19","num_nodes":"15","size_leaf_vector":"1"}},{"base_weights":[-0E0,-2.437339E-1,1.9078934E-1,-1.746532E-1,-1.4940807E-1,2.4450457E-1,-1.1830488E0,-3.523164E-2,1.0765025E-2,6.6012554E-2,1.7102752E-2,-1.4231278E-1,-0E0],"categories":[],"categories_nodes":[],"categories_segments":[],"categories_sizes":[],"default_left":[0,0,0,0,0,0,0,0,0,0,0,0,0],"id":2,"left_children":[1,3,5,7,-1,9,11,-1,-1,-1,-1,-1,-1],"loss_changes":[5.5742096E1,4.20692E1,4.7495743E1,2.6335777E1,0E0,1.7618446E1,7.607876E0,0E0,0E0,0E0,0E0,0E0,0E0],"parents":[2147483647,0,0,1,1,2,2,3,3,5,5,6,6],"right_children":[2,4,6,8,-1,10,12,-1,-1,-1,-1,-1,-1],"split_conditions":[5.6906976E-2,2.9880412E0,5.402047E-1,4.184229E-3,-1.4940807E-1,2.9726706E-2,3.0735233E-1,-3.523164E-2,1.0765025E-2,6.6012554E-2,1.7102752E-2,-1.4231278E-1,-0E0],"split_indices":[3,5,3,1,0,17,2,0,0,0,0,0,0],"split_type":[0,0,0,0,0,0,0,0,0,0,0,0,0],"sum_hessian":[1.1956343E3,5.275963E2,6.68038E2,5.0284726E2,2.474904E1,6.45163E2,2.2874983E1,3.1182217E2,1.9102509E2,8.8731865E1,5.5643115E2,1.8976748E1,3.8982348E0],"tree_param":{"num_deleted":"0","num_feature":"19","num_nodes":"13","size_leaf_vector":"1"}},{"base_weights":[3.683177E-3,-2.0220034E-1,1.3849007E-1,5.3442985E-1,-2.9964802E-1,2.857922E-1,-4.333251E-1,-3.943838E-2,9.282971E-2,-3.7164018E-2,5.217507E-2,3.144785E-2,-6.449878E-2,-1.4807974E-1,-2.1350248E-2],"categories":[],"categories_nodes":[],"categories_segments":[],"categories_sizes":[],"default_left":[0,0,0,0,0,0,0,0,0,0,0,0,0,0,0],"id":3,"left_children":[1,3,5,7,9,11,13,-1,-1,-1,-1,-1,-1,-1,-1],"loss_changes":[3.3154667E1,3.3211258E1,6.1398575E1,2.1096737E1,2.562593E1,1.653455E1,2.9854532E1,0E0,0E0,0E0,0E0,0E0,0E0,0E0,0E0],"parents":[2147483647,0,0,1,1,2,2,3,3,4,4,5,5,6,6],"right_children":[2,4,6,8,10,12,14,-1,-1,-1,-1,-1,-1,-1,-1],"split_conditions":[-3.568654E-3,-2.6742533E-1,1.2978059E-1,-5.5461526E0,2.8652278E-1,4.411289E-1,6.776222E-2,-3.943838E-2,9.282971E-2,-3.7164018E-2,5.217507E-2,3.144785E-2,-6.449878E-2,-1.4807974E-1,-2.1350248E-2],"split_indices":[4,3,2,6,3,3,3,0,0,0,0,0,0,0,0],"split_type":[0,0,0,0,0,0,0,0,0,0,0,0,0,0,0],"sum_hessian":[1.1980109E3,4.672497E2,7.3076117E2,5.143524E1,4.1581445E2,5.8455206E2,1.4620909E2,1.3794214E1,3.764103E1,3.8412637E2,3.1688082E1,5.68565E2,1.5987071E1,2.2335905E1,1.2387319E2],"tree_param":{"num_deleted":"0","num_feature":"19","num_nodes":"15","size_leaf_vector":"1"}},{"base_weights":[-2.3029985E-2,-2.597651E-1,1.3052423E-1,5.4141587E-1,-3.3437032E-1,3.1861863E-1,-1.575725E-1,-0E0,9.795829E-2,-1.1970013E-3,-5.2868422E-2,2.2364908E-3,4.7753897E-2,-1.1825167E-1,-3.819846E-3],"categories":[],"categories_nodes":[],"categories_segments":[],"categories_sizes":[],"default_left":[0,0,0,0,0,0,0,0,0,0,0,0,0,0,0],"id":4,"left_children":[1,3,5,7,9,11,13,-1,-1,-1,-1,-1,-1,-1,-1],"loss_changes":[4.372578E1,2.8131535E1,3.9371525E1,9.62493E0,2.682523E1,2.0061527E1,3.1657824E1,0E0,0E0,0E0,0E0,0E0,0E0,0E0,0E0],"parents":[2147483647,0,0,1,1,2,2,3,3,4,4,5,5,6,6],"right_children":[2,4,6,8,10,12,14,-1,-1,-1,-1,-1,-1,-1,-1],"split_conditions":[1.2261681E-4,-2.866126E-1,8.703992E-2,-5.1617103E0,4.719354E-2,1.6600848E-4,8.699434E-3,-0E0,9.795829E-2,-1.1970013E-3,-5.2868422E-2,2.2364908E-3,4.7753897E-2,-1.1825167E-1,-3.819846E-3],"split_indices":[4,3,2,6,17,16,3,0,0,0,0,0,0,0,0],"split_type":[0,0,0,0,0,0,0,0,0,0,0,0,0,0,0],"sum_hessian":[1.1931722E3,4.7497977E2,7.181925E2,3.7427906E1,4.3755185E2,4.391873E2,2.7900522E2,1.6909456E1,2.0518452E1,1.7148653E2,2.660653E2,1.6105984E2,2.781274E2,2.6041498E1,2.5296371E2],"tree_param":{"num_deleted":"0","num_feature":"19","num_nodes":"15","size_leaf_vector":"1"}},{"base_weights":[1.1961594E-3,-2.3110689E-1,1.2784743E-1,1.8159778E-1,-4.4464442E-1,2.7316096E-1,-1.411372E-1,-6.521949E-3,5.8301393E-2,8.355361E-3,-7.120098E-2,3.8014075E-3,5.835256E-2,-4.7121276E-3,-1.5788603E-1],"categories":[],"categories_nodes":[],"categories_segments":[],"categories_sizes":[],"default_left":[0,0,0,0,0,0,0,0,0,0,0,0,0,0,0],"id":5,"left_children":[1,3,5,7,9,11,13,-1,-1,-1,-1,-1,-1,-1,-1],"loss_changes":[3.486308E1,3.7200912E1,3.0750744E1,1.5110962E1,4.1501793E1,3.637918E1,3.265111E1,0E0,0E0,0E0,0E0,0E0,0E0,0E0,0E0],"parents":[2147483647,0,0,1,1,2,2,3,3,4,4,5,5,6,6],"right_children":[2,4,6,8,10,12,14,-1,-1,-1,-1,-1,-1,-1,-1],"split_conditions":[-2.6648391E-2,-2.0281175E-1,1.9077691E0,9.2095174E-2,4.5017533E-2,1.5031797E-4,1.1424464E-1,-6.521949E-3,5.8301393E-2,8.355361E-3,-7.120098E-2,3.8014075E-3,5.835256E-2,-4.7121276E-3,-1.5788603E-1],"split_indices":[3,3,5,17,17,16,17,0,0,0,0,0,0,0,0],"split_type":[0,0,0,0,0,0,0,0,0,0,0,0,0,0,0],"sum_hessian":[1.1911372E3,4.1374194E2,7.773953E2,1.3752263E2,2.762193E2,5.1015988E2,2.6723544E2,8.246775E1,5.5054882E1,9.145616E1,1.8476314E2,2.969493E2,2.1321057E2,2.533267E2,1.3908725E1],"tree_param":{"num_deleted":"0","num_feature":"19","num_nodes":"15","size_leaf_vector":"1"}},{"base_weights":[-3.6496427E-2,-2.9557782E-1,6.816917E-2,3.2051432E-1,-3.8360772E-1,1.5703207E-1,-3.8698012E-1,-1.1414417E-1,5.9123367E-2,-6.654045E-2,-1.16983475E-2,8.714921E-3,5.5090386E-2,-1.4284344E-1,-1.2229568E-2],"categories":[],"categories_nodes":[],"categories_segments":[],"categories_sizes":[],"default_left":[0,0,0,0,0,0,0,0,0,0,0,0,0,0,0],"id":6,"left_children":[1,3,5,7,9,11,13,-1,-1,-1,-1,-1,-1,-1,-1],"loss_changes":[3.224261E1,1.8843542E1,3.3001736E1,1.5606642E1,2.1316147E1,1.7715675E1,3.277185E1,0E0,0E0,0E0,0E0,0E0,0E0,0E0,0E0],"parents":[2147483647,0,0,1,1,2,2,3,3,4,4,5,5,6,6],"right_children":[2,4,6,8,10,12,14,-1,-1,-1,-1,-1,-1,-1,-1],"split_conditions":[-1.21861565E-4,-2.6742533E-1,1.3257192E-1,-8.842954E-2,-4.065003E-3,2.7475992E-1,8.5813E-2,-1.1414417E-1,5.9123367E-2,-6.654045E-2,-1.16983475E-2,8.714921E-3,5.5090386E-2,-1.4284344E-1,-1.2229568E-2],"split_indices":[16,3,2,15,3,3,3,0,0,0,0,0,0,0,0],"split_type":[0,0,0,0,0,0,0,0,0,0,0,0,0,0,0],"sum_hessian":[1.1686122E3,3.420051E2,8.2660706E2,3.9271103E1,3.0273398E2,6.961999E2,1.3040714E2,4.471058E0,3.4800045E1,1.4077527E2,1.6195871E2,5.9889545E2,9.730448E1,2.3634666E1,1.0677248E2],"tree_param":{"num_deleted":"0","num_feature":"19","num_nodes":"15","size_leaf_vector":"1"}},{"base_weights":[6.6970917E-3,-1.7681439E-1,1.1581792E-1,4.5490068E-1,-2.4177027E-1,3.2487488E-1,-9.375449E-2,9.1319785E-2,-2.823552E-2,-0E0,-3.96699E-2,2.060702E-2,1.0864577E-1,-9.5765285E-2,-1.4208618E-3],"categories":[],"categories_nodes":[],"categories_segments":[],"categories_sizes":[],"default_left":[0,0,0,0,0,0,0,0,0,0,0,0,0,0,0],"id":7,"left_children":[1,3,5,7,9,11,13,-1,-1,-1,-1,-1,-1,-1,-1],"loss_changes":[2.4040043E1,1.777298E1,3.4056206E1,1.4857297E1,1.6310171E1,3.1921116E1,2.3896116E1,0E0,0E0,0E0,0E0,0E0,0E0,0E0,0E0],"parents":[2147483647,0,0,1,1,2,2,3,3,4,4,5,5,6,6],"right_children":[2,4,6,8,10,12,14,-1,-1,-1,-1,-1,-1,-1,-1],"split_conditions":[-2.2878516E-2,-2.866126E-1,6.490243E-2,1.5254506E-1,3.9198503E-2,2.6580915E-1,-4.8983783E-2,9.1319785E-2,-2.823552E-2,-0E0,-3.96699E-2,2.060702E-2,1.0864577E-1,-9.5765285E-2,-1.4208618E-3],"split_indices":[4,3,2,9,18,3,3,0,0,0,0,0,0,0,0],"split_type":[0,0,0,0,0,0,0,0,0,0,0,0,0,0,0],"sum_hessian":[1.2056288E3,4.41668E2,7.6396075E2,3.7461166E1,4.0420685E2,3.875986E2,3.7636215E2,2.4728064E1,1.2733102E1,1.5501932E2,2.4918752E2,3.3992886E2,4.7669746E1,2.8259535E1,3.4810263E2],"tree_param":{"num_deleted":"0","num_feature":"19","num_nodes":"15","size_leaf_vector":"1"}},{"base_weights":[-5.5144024E-3,1.3427977E-1,-1.3038477E-1,-5.60915E-2,3.5833362E-1,4.8813465E-1,-1.8433529E-1,2.8334865E-2,-1.7212696E-2,5.748439E-2,1.3840706E-3,-8.575134E-2,7.0315965E-2,-3.192493E-2,1.0218876E-2],"categories":[],"categories_nodes":[],"categories_segments":[],"categories_sizes":[],"default_left":[0,0,0,0,0,0,0,0,0,0,0,0,0,0,0],"id":8,"left_children":[1,3,5,7,9,11,13,-1,-1,-1,-1,-1,-1,-1,-1],"loss_changes":[2.0358707E1,2.3816568E1,2.0241425E1,1.135957E1,1.8039604E1,1.4210024E1,2.338224E1,0E0,0E0,0E0,0E0,0E0,0E0,0E0,0E0],"parents":[2147483647,0,0,1,1,2,2,3,3,4,4,5,5,6,6],"right_children":[2,4,6,8,10,12,14,-1,-1,-1,-1,-1,-1,-1,-1],"split_conditions":[4.8167627E-2,1.415733E-4,4.2273924E-2,1.1111111E-1,7.477413E-2,3.2086696E-2,9.116032E-2,2.8334865E-2,-1.7212696E-2,5.748439E-2,1.3840706E-3,-8.575134E-2,7.0315965E-2,-3.192493E-2,1.0218876E-2],"split_indices":[17,16,9,14,2,9,17,0,0,0,0,0,0,0,0],"split_type":[0,0,0,0,0,0,0,0,0,0,0,0,0,0,0],"sum_hessian":[1.1650526E3,5.4113E2,6.2392255E2,2.8746478E2,2.5366524E2,4.614625E1,5.777763E2,6.8290634E1,2.1917413E2,1.5012587E2,1.0353936E2,4.687438E0,4.1458813E1,3.9602914E2,1.817472E2],"tree_param":{"num_deleted":"0","num_feature":"19","num_nodes":"15","size_leaf_vector":"1"}},{"base_weights":[-7.712539E-3,1.24486014E-1,-1.5169305E-1,9.4204956E-1,9.2091165E-2,5.4595125E-1,-2.0959629E-1,-1.8380119E-2,1.3655551E-1,5.197676E-3,7.764719E-2,-1.0041406E-1,8.360303E-2,1.6175128E-3,-3.4418814E-2],"categories":[],"categories_nodes":[],"categories_segments":[],"categories_sizes":[],"default_left":[0,0,0,0,0,0,0,0,0,0,0,0,0,0,0],"id":9,"left_children":[1,3,5,7,9,11,13,-1,-1,-1,-1,-1,-1,-1,-1],"loss_changes":[2.2610071E1,1.3735176E1,2.2576113E1,1.2939121E1,1.4252438E1,1.9472363E1,1.734374E1,0E0,0E0,0E0,0E0,0E0,0E0,0E0,0E0],"parents":[2147483647,0,0,1,1,2,2,3,3,4,4,5,5,6,6],"right_children":[2,4,6,8,10,12,14,-1,-1,-1,-1,-1,-1,-1,-1],"split_conditions":[5.037336E-2,2.2286966E-2,4.2834863E-2,2.6085768E-2,1.2527399E-1,5.375675E-2,7.1428575E-2,-1.8380119E-2,1.3655551E-1,5.197676E-3,7.764719E-2,-1.0041406E-1,8.360303E-2,1.6175128E-3,-3.4418814E-2],"split_indices":[17,17,9,18,9,17,12,0,0,0,0,0,0,0,0],"split_type":[0,0,0,0,0,0,0,0,0,0,0,0,0,0,0],"sum_hessian":[1.1829364E3,6.0859827E2,5.7433813E2,1.9620216E1,5.88978E2,4.0474754E1,5.338634E2,4.1526375E0,1.5467579E1,5.609304E2,2.8047651E1,4.9283905E0,3.5546364E1,1.9595767E2,3.3790573E2],"tree_param":{"num_deleted":"0","num_feature":"19","num_nodes":"15","size_leaf_vector":"1"}},{"base_weights":[-9.020007E-3,4.5946103E-2,-3.289198E-1,-5.727039E-2,1.9268422E-1,-1.13924116E-1,-6.2387156E-1,-2.2262536E-2,4.1210004E-3,3.727908E-2,-1.14266155E-2,-2.1609817E-2,1.17272064E-1,-1.05729274E-1,-2.039244E-2],"categories":[],"categories_nodes":[],"categories_segments":[],"categories_sizes":[],"default_left":[0,0,0,0,0,0,0,0,0,0,0,0,0,0,0],"id":10,"left_children":[1,3,5,7,9,11,13,-1,-1,-1,-1,-1,-1,-1,-1],"loss_changes":[2.1331295E1,1.5436382E1,9.599148E0,9.96305E0,2.4386965E1,1.2696716E1,1.0009771E1,0E0,0E0,0E0,0E0,0E0,0E0,0E0,0E0],"parents":[2147483647,0,0,1,1,2,2,3,3,4,4,5,5,6,6],"right_children":[2,4,6,8,10,12,14,-1,-1,-1,-1,-1,-1,-1,-1],"split_conditions":[2.3612099E-2,1.5031797E-4,6.59933E-2,-1.7610215E-2,8.0965064E-2,4.4758024E0,9.245996E-2,-2.2262536E-2,4.1210004E-3,3.727908E-2,-1.14266155E-2,-2.1609817E-2,1.17272064E-1,-1.05729274E-1,-2.039244E-2],"split_indices":[0,16,17,15,2,6,17,0,0,0,0,0,0,0,0],"split_type":[0,0,0,0,0,0,0,0,0,0,0,0,0,0,0],"sum_hessian":[1.1752472E3,9.975384E2,1.7770883E2,5.76903E2,4.2063538E2,1.0789874E2,6.981009E1,2.2240506E2,3.5449796E2,2.6823172E2,1.5240364E2,1.0216454E2,5.7341995E0,3.0675676E1,3.913441E1],"tree_param":{"num_deleted":"0","num_feature":"19","num_nodes":"15","size_leaf_vector":"1"}},{"base_weights":[1.8478658E-2,6.365862E-2,-3.230145E-1,-7.758509E-2,1.6725674E-1,-3.8865352E-1,3.885224E-1,-4.260422E-3,-1.19443364E-1,8.115775E-2,1.2131313E-2,-2.6125502E-2,-1.0792635E-1,1.21108346E-1,-7.613422E-4],"categories":[],"categories_nodes":[],"categories_segments":[],"categories_sizes":[],"default_left":[0,0,0,0,0,0,0,0,0,0,0,0,0,0,0],"id":11,"left_children":[1,3,5,7,9,11,13,-1,-1,-1,-1,-1,-1,-1,-1],"loss_changes":[1.7788939E1,1.5683944E1,6.3573217E0,1.4262714E1,1.5921013E1,7.693142E0,5.6420474E0,0E0,0E0,0E0,0E0,0E0,0E0,0E0,0E0],"parents":[2147483647,0,0,1,1,2,2,3,3,4,4,5,5,6,6],"right_children":[2,4,6,8,10,12,14,-1,-1,-1,-1,-1,-1,-1,-1],"split_conditions":[3.0248625E-2,-4.805796E-3,4.4758024E0,1.1583296E-1,2.6742036E-2,1.3191994E-1,1.2436789E-1,-4.260422E-3,-1.19443364E-1,8.115775E-2,1.2131313E-2,-2.6125502E-2,-1.0792635E-1,1.21108346E-1,-7.613422E-4],"split_indices":[0,15,6,2,17,18,9,0,0,0,0,0,0,0,0],"split_type":[0,0,0,0,0,0,0,0,0,0,0,0,0,0,0],"sum_hessian":[1.1888673E3,1.056407E3,1.3246031E2,4.3787338E2,6.185336E2,1.2453215E2,7.928165E0,4.2762155E2,1.0251855E1,3.5771896E1,5.827617E2,1.09351524E2,1.518063E1,3.8129897E0,4.1151752E0],"tree_param":{"num_deleted":"0","num_feature":"19","num_nodes":"15","size_leaf_vector":"1"}},{"base_weights":[-1.7579457E-2,-2.1519685E-1,6.4517766E-2,1.19364716E-1,-2.5063998E-1,1.2502158E-1,-4.071526E-1,2.7864536E-2,-3.1090628E-2,5.3333356E-3,5.0033726E-2,-2.6247E-3,-1.15170896E-1],"categories":[],"categories_nodes":[],"categories_segments":[],"categories_sizes":[],"default_left":[0,0,0,0,0,0,0,0,0,0,0,0,0],"id":12,"left_children":[1,3,5,-1,7,9,11,-1,-1,-1,-1,-1,-1],"loss_changes":[1.9486788E1,1.5931383E1,2.2976583E1,0E0,1.1762495E1,1.8637424E1,2.3085213E1,0E0,0E0,0E0,0E0,0E0,0E0],"parents":[2147483647,0,0,1,1,2,2,4,4,5,5,6,6],"right_children":[2,4,6,-1,8,10,12,-1,-1,-1,-1,-1,-1],"split_conditions":[-7.342464E-2,-5.5435944E-1,3.3264053E0,1.19364716E-1,-2.866126E-1,8.3788514E-2,8.4877275E-2,2.7864536E-2,-3.1090628E-2,5.3333356E-3,5.0033726E-2,-2.6247E-3,-1.15170896E-1],"split_indices":[4,4,6,0,3,17,17,0,0,0,0,0,0],"split_type":[0,0,0,0,0,0,0,0,0,0,0,0,0],"sum_hessian":[1.1785814E3,3.5356735E2,8.2501404E2,6.3757486E0,3.4719162E2,7.3601495E2,8.899908E1,3.2562077E1,3.1462955E2,6.254556E2,1.1055928E2,6.171582E1,2.7283257E1],"tree_param":{"num_deleted":"0","num_feature":"19","num_nodes":"13","size_leaf_vector":"1"}},{"base_weights":[9.356875E-3,2.367677E-2,-1.1923865E-1,-1.2841126E-1,1.3680533E-1,1.3762861E-2,-2.9830245E-2,2.5413247E-2,-1.7081099E-3],"categories":[],"categories_nodes":[],"categories_segments":[],"categories_sizes":[],"default_left":[0,0,0,0,0,0,0,0,0],"id":13,"left_children":[1,3,-1,5,7,-1,-1,-1,-1],"loss_changes":[1.7924181E1,2.02311E1,0E0,2.3077848E1,1.3083728E1,0E0,0E0,0E0,0E0],"parents":[2147483647,0,0,1,1,3,3,4,4],"right_children":[2,4,-1,6,8,-1,-1,-1,-1],"split_conditions":[5.876106E-1,3.1435084E-2,-1.1923865E-1,-1.6523461E-1,1.6228606E0,1.3762861E-2,-2.9830245E-2,2.5413247E-2,-1.7081099E-3],"split_indices":[3,3,0,3,6,0,0,0,0],"split_type":[0,0,0,0,0,0,0,0,0],"sum_hessian":[1.1841676E3,1.1730078E3,1.1159753E1,4.9179803E2,6.812098E2,1.8775818E2,3.0403986E2,3.91693E2,2.8951678E2],"tree_param":{"num_deleted":"0","num_feature":"19","num_nodes":"9","size_leaf_vector":"1"}},{"base_weights":[7.3434557E-3,2.949938E-2,-6.703229E-1,-2.9948903E-2,3.6006454E-1,-1.18444495E-1,-8.9723915E-2,-1.1886082E-2,1.7041134E-2,7.536722E-2,5.5897664E-3,3.2446157E-2,-6.9485076E-2],"categories":[],"categories_nodes":[],"categories_segments":[],"categories_sizes":[],"default_left":[0,0,0,0,0,0,0,0,0,0,0,0,0],"id":14,"left_children":[1,3,5,7,9,-1,11,-1,-1,-1,-1,-1,-1],"loss_changes":[1.6159407E1,2.3123222E1,7.320301E0,1.7302174E1,1.9895407E1,0E0,5.888632E0,0E0,0E0,0E0,0E0,0E0,0E0],"parents":[2147483647,0,0,1,1,2,2,3,3,4,4,6,6],"right_children":[2,4,6,8,10,-1,12,-1,-1,-1,-1,-1,-1],"split_conditions":[5.136906E-1,2.9782286E-1,1.04692236E-1,4.0058175E-4,7.1584105E-2,-1.18444495E-1,6.088778E-2,-1.1886082E-2,1.7041134E-2,7.536722E-2,5.5897664E-3,3.2446157E-2,-6.9485076E-2],"split_indices":[3,3,9,16,2,0,17,0,0,0,0,0,0],"split_type":[0,0,0,0,0,0,0,0,0,0,0,0,0],"sum_hessian":[1.1704915E3,1.1374548E3,3.3036644E1,9.589611E2,1.7849374E2,1.4849123E1,1.818752E1,6.7139014E2,2.8757095E2,7.330603E1,1.0518771E2,8.854047E0,9.333472E0],"tree_param":{"num_deleted":"0","num_feature":"19","num_nodes":"13","size_leaf_vector":"1"}},{"base_weights":[7.4619344E-3,1.1427866E-1,-1.0723073E-1,5.8235496E-2,9.392483E-1,3.7832394E-1,-1.9686776E-1,2.9037734E-3,1.0090536E-1,1.2839586E-1,-0E0,-6.0896785E-4,6.2271222E-2,-5.0049342E-2,-2.4412759E-4],"categories":[],"categories_nodes":[],"categories_segments":[],"categories_sizes":[],"default_left":[0,0,0,0,0,0,0,0,0,0,0,0,0,0,0],"id":15,"left_children":[1,3,5,7,9,11,13,-1,-1,-1,-1,-1,-1,-1,-1],"loss_changes":[1.4356467E1,2.6195E1,2.3781126E1,1.373874E1,9.9206085E0,9.340457E0,2.7112165E1,0E0,0E0,0E0,0E0,0E0,0E0,0E0,0E0],"parents":[2147483647,0,0,1,1,2,2,3,3,4,4,5,5,6,6],"right_children":[2,4,6,8,10,12,14,-1,-1,-1,-1,-1,-1,-1,-1],"split_conditions":[5.1765297E-2,1.2527399E-1,-2.2547881E-1,1.3540372E-3,4.2001876E-1,-1.794867E-2,-2.6648391E-2,2.9037734E-3,1.0090536E-1,1.2839586E-1,-0E0,-6.0896785E-4,6.2271222E-2,-5.0049342E-2,-2.4412759E-4],"split_indices":[17,9,3,16,3,8,3,0,0,0,0,0,0,0,0],"split_type":[0,0,0,0,0,0,0,0,0,0,0,0,0,0,0],"sum_hessian":[1.1688296E3,6.1537366E2,5.5345593E2,5.79652E2,3.5721634E1,8.1897316E1,4.7155862E2,5.6580273E2,1.3849268E1,2.432465E1,1.1396986E1,2.899847E1,5.289885E1,1.7756978E2,2.9398883E2],"tree_param":{"num_deleted":"0","num_feature":"19","num_nodes":"15","size_leaf_vector":"1"}},{"base_weights":[4.349378E-2,8.0730006E-2,-3.7048638E-1,-3.7110977E-2,2.1783824E-1,-9.7711784E-1,2.276521E-2,-9.546395E-2,-6.46702E-4,4.3689027E-2,1.7108597E-3,-1.23591796E-1,2.301357E-2,5.9568737E-2,-7.3888056E-2],"categories":[],"categories_nodes":[],"categories_segments":[],"categories_sizes":[],"default_left":[0,0,0,0,0,0,0,0,0,0,0,0,0,0,0],"id":16,"left_children":[1,3,5,7,9,11,13,-1,-1,-1,-1,-1,-1,-1,-1],"loss_changes":[1.7262323E1,1.7709995E1,2.3862991E1,1.3875267E1,2.1452679E1,1.4895977E1,2.3899128E1,0E0,0E0,0E0,0E0,0E0,0E0,0E0,0E0],"parents":[2147483647,0,0,1,1,2,2,3,3,4,4,5,5,6,6],"right_children":[2,4,6,8,10,12,14,-1,-1,-1,-1,-1,-1,-1,-1],"split_conditions":[3.3264053E0,5.751282E-1,1.1740877E-1,2.748097E-2,1.5630276E0,9.793453E-3,6.59933E-2,-9.546395E-2,-6.46702E-4,4.3689027E-2,1.7108597E-3,-1.23591796E-1,2.301357E-2,5.9568737E-2,-7.3888056E-2],"split_indices":[6,5,18,9,5,16,17,0,0,0,0,0,0,0,0],"split_type":[0,0,0,0,0,0,0,0,0,0,0,0,0,0,0],"sum_hessian":[1.1596769E3,1.0696091E3,9.006779E1,5.667166E2,5.0289246E2,3.7174564E1,5.2893223E1,1.4938761E1,5.5177783E2,2.3256703E2,2.7032544E2,3.191802E1,5.256542E0,3.1962189E1,2.0931034E1],"tree_param":{"num_deleted":"0","num_feature":"19","num_nodes":"15","size_leaf_vector":"1"}},{"base_weights":[1.1476554E-3,-1.6134559E-1,9.791077E-2,-1.1588457E-1,-9.917858E-2,2.6054105E-1,-3.7698627E-2,-1.5555413E-2,7.294906E-2,1.7075825E-3,4.277491E-2,4.017939E-2,-1.2982223E-2],"categories":[],"categories_nodes":[],"categories_segments":[],"categories_sizes":[],"default_left":[0,0,0,0,0,0,0,0,0,0,0,0,0],"id":17,"left_children":[1,3,5,7,-1,9,11,-1,-1,-1,-1,-1,-1],"loss_changes":[1.8049662E1,1.3513892E1,1.6696201E1,1.2901161E1,0E0,1.3158159E1,1.5654575E1,0E0,0E0,0E0,0E0,0E0,0E0],"parents":[2147483647,0,0,1,1,2,2,3,3,5,5,6,6],"right_children":[2,4,6,8,-1,10,12,-1,-1,-1,-1,-1,-1],"split_conditions":[-4.065003E-3,9.0661146E-2,3.6900858E-3,2.125703E0,-9.917858E-2,-8.350388E-3,3.0653838E-2,-1.5555413E-2,7.294906E-2,1.7075825E-3,4.277491E-2,4.017939E-2,-1.2982223E-2],"split_indices":[3,2,10,5,0,4,17,0,0,0,0,0,0],"split_type":[0,0,0,0,0,0,0,0,0,0,0,0,0],"sum_hessian":[1.1553191E3,4.2229272E2,7.3302637E2,4.0405508E2,1.8237652E1,3.405047E2,3.925217E2,3.8871954E2,1.5335541E1,1.4620392E2,1.9430077E2,6.353381E1,3.2898788E2],"tree_param":{"num_deleted":"0","num_feature":"19","num_nodes":"13","size_leaf_vector":"1"}},{"base_weights":[-3.8781415E-3,8.791591E-3,-7.4204737E-1,-1.0713613E-1,1.08148254E-1,-1.05237186E-1,-0E0,-5.3446013E-3,-1.10798396E-1,6.43872E-3,5.6256592E-2,7.909516E-2,-8.0786765E-2],"categories":[],"categories_nodes":[],"categories_segments":[],"categories_sizes":[],"default_left":[0,0,0,0,0,0,0,0,0,0,0,0,0],"id":18,"left_children":[1,3,5,7,9,-1,11,-1,-1,-1,-1,-1,-1],"loss_changes":[1.2601564E1,1.3236995E1,5.4249077E0,2.5266266E1,1.10299015E1,0E0,5.536201E0,0E0,0E0,0E0,0E0,0E0,0E0],"parents":[2147483647,0,0,1,1,2,2,3,3,4,4,6,6],"right_children":[2,4,6,8,10,-1,12,-1,-1,-1,-1,-1,-1],"split_conditions":[5.402047E-1,5.94943E-2,1.4116488E-1,1.1680015E-1,8.799693E-2,-1.05237186E-1,2.1693009E-1,-5.3446013E-3,-1.10798396E-1,6.43872E-3,5.6256592E-2,7.909516E-2,-8.0786765E-2],"split_indices":[3,3,9,2,1,0,2,0,0,0,0,0,0],"split_type":[0,0,0,0,0,0,0,0,0,0,0,0,0],"sum_hessian":[1.1691907E3,1.1472968E3,2.1893835E1,5.189897E2,6.283071E2,1.5091816E1,6.802019E0,4.9597177E2,2.3017916E1,5.7959546E2,4.8711647E1,3.4703147E0,3.3317044E0],"tree_param":{"num_deleted":"0","num_feature":"19","num_nodes":"13","size_leaf_vector":"1"}},{"base_weights":[5.592647E-3,4.924322E-2,-3.7321395E-1,6.239446E-2,-1.0029987E-1,-5.812732E-2,-1.4130375E-2,1.9558666E-3,3.1481653E-2,5.3381443E-2,-6.59565E-2],"categories":[],"categories_nodes":[],"categories_segments":[],"categories_sizes":[],"default_left":[0,0,0,0,0,0,0,0,0,0,0],"id":19,"left_children":[1,3,5,7,-1,-1,9,-1,-1,-1,-1],"loss_changes":[1.8434908E1,1.2481398E1,7.3813925E0,1.0493053E1,0E0,0E0,1.762822E1,0E0,0E0,0E0,0E0],"parents":[2147483647,0,0,1,1,2,2,3,3,6,6],"right_children":[2,4,6,8,-1,-1,10,-1,-1,-1,-1],"split_conditions":[9.375E-1,1.9232635E-1,4.5220673E-4,1.21670485E-1,-1.0029987E-1,-5.812732E-2,8.703992E-2,1.9558666E-3,3.1481653E-2,5.3381443E-2,-6.59565E-2],"split_indices":[14,18,16,9,0,0,2,0,0,0,0],"split_type":[0,0,0,0,0,0,0,0,0,0,0],"sum_hessian":[1.1572449E3,1.0436815E3,1.1356335E2,1.0337974E3,9.884179E0,6.702782E1,4.653553E1,8.9393304E2,1.3986427E2,2.3379663E1,2.3155867E1],"tree_param":{"num_deleted":"0","num_feature":"19","num_nodes":"11","size_leaf_vector":"1"}},{"base_weights":[-2.0944731E-2,1.5534676E-2,-3.856322E-1,5.435107E-1,-5.675954E-3,-4.6849188E-1,4.144041E-2,6.985915E-2,-2.6563306E-3,-1.7775726E-2,8.040067E-3,-5.4321367E-2,1.2093649E-2],"categories":[],"categories_nodes":[],"categories_segments":[],"categories_sizes":[],"default_left":[0,0,0,0,0,0,0,0,0,0,0,0,0],"id":20,"left_children":[1,3,5,7,9,11,-1,-1,-1,-1,-1,-1,-1],"loss_changes":[1.6190657E1,1.2908764E1,7.6443825E0,5.6168966E0,1.5291017E1,5.8366585E0,0E0,0E0,0E0,0E0,0E0,0E0,0E0],"parents":[2147483647,0,0,1,1,2,2,3,3,4,4,5,5],"right_children":[2,4,6,8,10,12,-1,-1,-1,-1,-1,-1,-1],"split_conditions":[6.763278E-2,-9.3333334E-1,6.4102566E-1,1.1049991E-1,-2.6648391E-2,5.727736E-1,4.144041E-2,6.985915E-2,-2.6563306E-3,-1.7775726E-2,8.040067E-3,-5.4321367E-2,1.2093649E-2],"split_indices":[10,13,11,4,3,4,0,0,0,0,0,0,0],"split_type":[0,0,0,0,0,0,0,0,0,0,0,0,0],"sum_hessian":[1.1530452E3,1.0433258E3,1.0971934E2,4.3580112E1,9.997457E2,1.0233083E2,7.388504E0,3.69249E1,6.655213E0,3.415223E2,6.5822345E2,9.366294E1,8.66789E0],"tree_param":{"num_deleted":"0","num_feature":"19","num_nodes":"13","size_leaf_vector":"1"}},{"base_weights":[4.9714562E-3,2.7020505E-1,-4.5404054E-2,1.3769728E-1,1.8695618E-1,6.226492E-1,-7.147367E-2,-2.7614032E-4,6.342723E-2,1.0932836E-1,-0E0,2.4580117E-2,-1.3163701E-2],"categories":[],"categories_nodes":[],"categories_segments":[],"categories_sizes":[],"default_left":[0,0,0,0,0,0,0,0,0,0,0,0,0],"id":21,"left_children":[1,3,5,-1,7,9,11,-1,-1,-1,-1,-1,-1],"loss_changes":[1.5982239E1,1.4094038E1,1.5624558E1,0E0,1.7023996E1,8.388215E0,1.8025715E1,0E0,0E0,0E0,0E0,0E0,0E0],"parents":[2147483647,0,0,1,1,2,2,4,4,5,5,6,6],"right_children":[2,4,6,-1,8,10,12,-1,-1,-1,-1,-1,-1],"split_conditions":[4.1871265E-2,-2.1588047E0,2.7147043E-2,1.3769728E-1,1.7411724E-1,1.0780817E0,-1.9378659E-1,-2.7614032E-4,6.342723E-2,1.0932836E-1,-0E0,2.4580117E-2,-1.3163701E-2],"split_indices":[9,6,17,0,3,6,3,0,0,0,0,0,0],"split_type":[0,0,0,0,0,0,0,0,0,0,0,0,0],"sum_hessian":[1.1565751E3,1.9114769E2,9.654273E2,1.0434346E1,1.8071335E2,3.2269897E1,9.331574E2,1.2441183E2,5.6301517E1,1.6618927E1,1.56509695E1,1.4380992E2,7.8934753E2],"tree_param":{"num_deleted":"0","num_feature":"19","num_nodes":"13","size_leaf_vector":"1"}},{"base_weights":[1.317851E-2,-4.036308E-2,2.4998304E-1,-6.684906E-3,-6.3173264E-1,7.719379E-1,-7.4193545E-2,1.7215211E-3,-5.384969E-2,-7.58275E-2,-0E0,8.8895425E-2,-0E0,1.4071546E-3,-1.3074246E-1],"categories":[],"categories_nodes":[],"categories_segments":[],"categories_sizes":[],"default_left":[0,0,0,0,0,0,0,0,0,0,0,0,0,0,0],"id":22,"left_children":[1,3,5,7,9,11,13,-1,-1,-1,-1,-1,-1,-1,-1],"loss_changes":[1.5083721E1,1.7125103E1,3.8892944E1,1.2619244E1,4.956835E0,8.332291E0,1.768511E1,0E0,0E0,0E0,0E0,0E0,0E0,0E0,0E0],"parents":[2147483647,0,0,1,1,2,2,3,3,4,4,5,5,6,6],"right_children":[2,4,6,8,10,12,14,-1,-1,-1,-1,-1,-1,-1,-1],"split_conditions":[2.7475992E-1,8.22944E-2,1.7334343E0,2.3536187E-1,4.5714286E-1,4.411289E-1,1.1424464E-1,1.7215211E-3,-5.384969E-2,-7.58275E-2,-0E0,8.8895425E-2,-0E0,1.4071546E-3,-1.3074246E-1],"split_indices":[3,10,6,3,11,3,17,0,0,0,0,0,0,0,0],"split_type":[0,0,0,0,0,0,0,0,0,0,0,0,0,0,0],"sum_hessian":[1.1508496E3,9.314446E2,2.1940498E2,8.8568964E2,4.575495E1,8.626823E1,1.3313675E2,8.4445734E2,4.123232E1,3.946187E1,6.293084E0,7.416826E1,1.2099966E1,1.2340783E2,9.728922E0],"tree_param":{"num_deleted":"0","num_feature":"19","num_nodes":"15","size_leaf_vector":"1"}},{"base_weights":[2.3405296E-3,1.7441949E-2,-1.0068761E-1,-1.23876415E-1,1.1132723E-1,2.3727328E-2,-1.7908914E-2,3.418855E-3,3.5731915E-2],"categories":[],"categories_nodes":[],"categories_segments":[],"categories_sizes":[],"default_left":[0,0,0,0,0,0,0,0,0],"id":23,"left_children":[1,3,-1,5,7,-1,-1,-1,-1],"loss_changes":[1.5882107E1,1.5439851E1,0E0,9.281506E0,1.2680885E1,0E0,0E0,0E0,0E0],"parents":[2147483647,0,0,1,1,3,3,4,4],"right_children":[2,4,-1,6,8,-1,-1,-1,-1],"split_conditions":[5.543392E-1,-5.9402552E-3,-1.0068761E-1,-7.894717E-2,2.7475992E-1,2.3727328E-2,-1.7908914E-2,3.418855E-3,3.5731915E-2],"split_indices":[3,15,0,10,3,0,0,0,0],"split_type":[0,0,0,0,0,0,0,0,0],"sum_hessian":[1.1783053E3,1.1640892E3,1.4216034E1,4.549695E2,7.091198E2,5.5668694E1,3.993008E2,5.494626E2,1.5965721E2],"tree_param":{"num_deleted":"0","num_feature":"19","num_nodes":"9","size_leaf_vector":"1"}}]},"name":"gbtree"},"learner_model_param":{"base_score":"[5E-1]","boost_from_average":"1","num_class":"0","num_feature":"19","num_target":"1"},"objective":{"name":"binary:logistic","reg_loss_param":{"scale_pos_weight":"1.92962193"}}},"version":[3,2,0]}