{"learner":{"attributes":{"scikit_learn":"{\"_estimator_type\": \"classifier\"}"},"feature_names":["bias_week","bias_month","bias_quarter","bias_year","rsi","macd","macd_signal","vol_change","close_change","bb_width","return_5d","k_upper","k_lower","k_body","buy_power","rs_5d"],"feature_types":["float","float","float","float","float","float","float","float","float","float","float","float","float","float","float","float"],"gradient_booster":{"model":{"cats":{"enc":[],"feature_segments":[],"sorted_idx":[]},"gbtree_model_param":{"num_parallel_tree":"1","num_trees":"3"},"iteration_indptr":[0,1,2,3],"tree_info":[0,0,0],"trees":[{"base_weights":[2.453582E-2,9.5727724E-1,-3.149274E-2,4.6841052E-1,8.653804E-2,-9.534773E-2,8.955468E-1,1.716957E-1,6.8994105E-2,4.1131306E-1,-1.690347E-1,9.8226565E-1,-1.9266779E-2,3.8719174E-2,-1.8087426E-2,3.9280005E-4,4.1624527E-2,-1.2811284E-2,1.9320995E-2,5.4052036E-2,-2.2148302E-2],"categories":[],"categories_nodes":[],"categories_segments":[],"categories_sizes":[],"default_left":[0,0,0,0,0,0,0,0,0,0,0,0,0,0,0,0,0,0,0,0,0],"id":0,"left_children":[1,3,5,7,-1,9,11,13,-1,15,17,19,-1,-1,-1,-1,-1,-1,-1,-1,-1],"loss_changes":[1.8574837E1,6.80468E0,1.9958332E1,3.4712467E0,0E0,1.1829216E1,2.792223E0,3.9729018E0,0E0,6.838943E0,1.3451268E1,3.3836746E0,0E0,0E0,0E0,0E0,0E0,0E0,0E0,0E0,0E0],"parents":[2147483647,0,0,1,1,2,2,3,3,5,5,6,6,7,7,9,9,10,10,11,11],"right_children":[2,4,6,8,-1,10,12,14,-1,16,18,20,-1,-1,-1,-1,-1,-1,-1,-1,-1],"split_conditions":[-3.4381336E-1,-1.5429486E-1,4.725856E0,3.3333507E-1,8.653804E-2,-2.967288E0,3.413155E0,-9.817808E-2,6.8994105E-2,-2.3992601E-1,3.8606173E-1,6.94446E-2,-1.9266779E-2,3.8719174E-2,-1.8087426E-2,3.9280005E-4,4.1624527E-2,-1.2811284E-2,1.9320995E-2,5.4052036E-2,-2.2148302E-2],"split_indices":[3,4,6,12,0,6,7,1,0,4,3,8,0,0,0,0,0,0,0,0,0],"split_type":[0,0,0,0,0,0,0,0,0,0,0,0,0,0,0,0,0,0,0,0,0],"sum_hessian":[3.538533E2,1.9139582E1,3.347137E2,1.2711246E1,6.428335E0,3.1398352E2,2.073021E1,1.04860525E1,2.225193E0,3.928484E1,2.7469867E2,1.9634068E1,1.0961411E0,4.7114115E0,5.7746415E0,2.0584785E1,1.8700056E1,2.3789455E2,3.6804134E1,1.8587376E1,1.0466924E0],"tree_param":{"num_deleted":"0","num_feature":"16","num_nodes":"21","size_leaf_vector":"1"}},{"base_weights":[2.7041627E-2,-1.4043492E-1,3.5684252E-1,5.2175856E-1,-1.96242E-1,4.6046213E-3,4.7587094E-1,-4.637405E-2,6.615044E-1,-5.0808764E-1,-8.3686516E-2,5.5517757E-1,-2.6332575E-1,1.2435839E0,2.98349E-1,-1.8226298E-2,4.2383805E-2,-4.522072E-2,-9.857466E-3,-7.7141994E-3,2.1537868E-2,6.720425E-2,-2.5002778E-2,5.169929E-3,-5.364231E-2,-3.5033436E-3,7.6402E-2,8.262212E-3,4.4055548E-2],"categories":[],"categories_nodes":[],"categories_segments":[],"categories_sizes":[],"default_left":[0,0,0,0,0,0,0,0,0,0,0,0,0,0,0,0,0,0,0,0,0,0,0,0,0,0,0,0,0],"id":1,"left_children":[1,3,5,7,9,11,13,-1,15,17,19,21,23,25,27,-1,-1,-1,-1,-1,-1,-1,-1,-1,-1,-1,-1,-1,-1],"loss_changes":[1.9592154E1,8.800352E0,5.0054636E0,4.373875E0,7.602193E0,4.7452364E0,1.179421E1,0E0,3.6552596E0,6.915635E0,5.9221992E0,9.435787E0,6.5380573E0,6.2534866E0,5.580042E0,0E0,0E0,0E0,0E0,0E0,0E0,0E0,0E0,0E0,0E0,0E0,0E0,0E0,0E0],"parents":[2147483647,0,0,1,1,2,2,3,3,4,4,5,5,6,6,8,8,9,9,10,10,11,11,12,12,13,13,14,14],"right_children":[2,4,6,8,10,12,14,-1,16,18,20,22,24,26,28,-1,-1,-1,-1,-1,-1,-1,-1,-1,-1,-1,-1,-1,-1],"split_conditions":[1.0696693E-1,-2.967288E0,-2.7096808E-1,-7.802584E0,-2.599137E-2,-6.4483066E0,-2.239141E0,-4.637405E-2,-5.9371077E-2,-8.451703E-1,6.513407E-2,-6.780541E-2,-1.8672215E-2,-7.149358E-2,4.8E-1,-1.8226298E-2,4.2383805E-2,-4.522072E-2,-9.857466E-3,-7.7141994E-3,2.1537868E-2,6.720425E-2,-2.5002778E-2,5.169929E-3,-5.364231E-2,-3.5033436E-3,7.6402E-2,8.262212E-3,4.4055548E-2],"split_indices":[9,6,4,5,15,6,6,0,15,6,10,15,10,15,11,0,0,0,0,0,0,0,0,0,0,0,0,0,0],"split_type":[0,0,0,0,0,0,0,0,0,0,0,0,0,0,0,0,0,0,0,0,0,0,0,0,0,0,0,0,0],"sum_hessian":[3.528051E2,2.3436577E2,1.18439354E2,1.7567282E1,2.1679848E2,3.017674E1,8.826261E1,1.049235E0,1.6518045E1,5.6565186E1,1.6023329E2,9.527167E0,2.0649574E1,1.5448528E1,7.281409E1,2.3897326E0,1.4128313E1,2.4028906E1,3.253628E1,1.4151341E2,1.8719881E1,5.294895E0,4.2322726E0,1.481186E1,5.8377132E0,2.883923E0,1.2564605E1,6.032029E1,1.2493796E1],"tree_param":{"num_deleted":"0","num_feature":"16","num_nodes":"29","size_leaf_vector":"1"}},{"base_weights":[-1.6745284E-2,-1.00912705E-1,4.7325563E-1,4.368024E-1,-2.1171653E-1,6.294088E-1,-2.8325206E-1,1.6650099E-1,7.613982E-1,-2.8638485E-1,4.0925214E-1,3.3761224E-1,1.0558113E0,4.9817502E-2,-5.484632E-1,3.047036E-2,-1.5836943E-2,7.442613E-3,5.6139726E-2,5.566705E-3,-2.0392789E-2,-9.2004286E-4,4.344919E-2,3.583525E-2,-2.5046846E-2,-9.051145E-4,5.621971E-2,-4.4209607E-2,1.1525366E-2],"categories":[],"categories_nodes":[],"categories_segments":[],"categories_sizes":[],"default_left":[0,0,0,0,0,0,0,0,0,0,0,0,0,0,0,0,0,0,0,0,0,0,0,0,0,0,0,0,0],"id":2,"left_children":[1,3,5,7,9,11,13,15,17,19,21,23,25,-1,27,-1,-1,-1,-1,-1,-1,-1,-1,-1,-1,-1,-1,-1,-1],"loss_changes":[1.49812355E1,1.8552896E1,6.469348E0,4.5465717E0,1.2060035E1,5.174591E0,3.8727076E0,6.687268E0,5.1284513E0,1.1181858E1,5.5325737E0,9.216233E0,1.3159618E0,0E0,2.4957125E0,0E0,0E0,0E0,0E0,0E0,0E0,0E0,0E0,0E0,0E0,0E0,0E0,0E0,0E0],"parents":[2147483647,0,0,1,1,2,2,3,3,4,4,5,5,6,6,7,7,8,8,9,9,10,10,11,11,12,12,14,14],"right_children":[2,4,6,8,10,12,14,16,18,20,22,24,26,-1,28,-1,-1,-1,-1,-1,-1,-1,-1,-1,-1,-1,-1,-1,-1],"split_conditions":[4.828056E-2,-2.967288E0,7.263957E-1,-4.36911E-2,4.1850117E-1,7.933382E-2,7.2694406E-2,-1.5706813E-2,3.2257587E-2,-9.039332E-2,1.4285845E-1,4.3530025E0,-7.2124827E-1,4.9817502E-2,3.507901E-2,3.047036E-2,-1.5836943E-2,7.442613E-3,5.6139726E-2,5.566705E-3,-2.0392789E-2,-9.2004286E-4,4.344919E-2,3.583525E-2,-2.5046846E-2,-9.051145E-4,5.621971E-2,-4.4209607E-2,1.1525366E-2],"split_indices":[15,6,3,15,3,15,15,10,12,3,12,5,5,0,0,0,0,0,0,0,0,0,0,0,0,0,0,0,0],"split_type":[0,0,0,0,0,0,0,0,0,0,0,0,0,0,0,0,0,0,0,0,0,0,0,0,0,0,0,0,0],"sum_hessian":[3.6109293E2,3.0883792E2,5.225501E1,5.226436E1,2.5657355E2,4.345362E1,8.80139E0,2.9342697E1,2.2921661E1,2.2951442E2,2.705913E1,2.6862675E1,1.6590944E1,1.0377227E0,7.7636666E0,1.5174057E1,1.4168639E1,9.029337E0,1.38923235E1,5.3717278E1,1.7579715E2,1.4515993E1,1.2543137E1,1.859949E1,8.263187E0,1.0401208E0,1.5550823E1,5.330985E0,2.4326816E0],"tree_param":{"num_deleted":"0","num_feature":"16","num_nodes":"29","size_leaf_vector":"1"}}]},"name":"gbtree"},"learner_model_param":{"base_score":"[5E-1]","boost_from_average":"1","num_class":"0","num_feature":"16","num_target":"1"},"objective":{"name":"binary:logistic","reg_loss_param":{"scale_pos_weight":"0.197794929"}}},"version":[3,2,0]}