{"learner":{"attributes":{"scikit_learn":"{\"_estimator_type\": \"classifier\"}"},"feature_names":["bias_week","bias_month","bias_quarter","bias_year","rsi","macd","macd_signal","vol_change","close_change","bb_width","return_5d","k_upper","k_lower","k_body","buy_power","rs_5d"],"feature_types":["float","float","float","float","float","float","float","float","float","float","float","float","float","float","float","float"],"gradient_booster":{"model":{"cats":{"enc":[],"feature_segments":[],"sorted_idx":[]},"gbtree_model_param":{"num_parallel_tree":"1","num_trees":"8"},"iteration_indptr":[0,1,2,3,4,5,6,7,8],"tree_info":[0,0,0,0,0,0,0,0],"trees":[{"base_weights":[2.4929907E-2,6.7672145E-1,-5.9691016E-2,1.6686739E-1,1.2995994E0,-1.2224029E-1,8.691954E-1,4.571642E-1,-8.7877756E-1,-1.4532672E-2,1.4245605E0,-1.6151825E-1,9.186998E-1,9.637831E-1,-2.263786E-2,-2.179419E-2,3.7118744E-2,-1.2063888E-2,-5.0218012E-2,2.8774986E-2,7.882256E-2,-1.1696687E-2,1.9491846E-2,6.277438E-2,9.603131E-4,5.3456426E-2,-2.263786E-2],"categories":[],"categories_nodes":[],"categories_segments":[],"categories_sizes":[],"default_left":[0,0,0,0,0,0,0,0,0,0,0,0,0,0,0,0,0,0,0,0,0,0,0,0,0,0,0],"id":0,"left_children":[1,3,5,7,9,11,13,15,17,-1,19,21,23,25,-1,-1,-1,-1,-1,-1,-1,-1,-1,-1,-1,-1,-1],"loss_changes":[1.9951412E1,1.2982723E1,1.8723982E1,7.6876802E0,4.102457E0,1.2459036E1,2.97962E0,5.2762914E0,2.0263052E-1,0E0,1.3338966E0,1.1709817E1,3.337822E0,3.3642654E0,0E0,0E0,0E0,0E0,0E0,0E0,0E0,0E0,0E0,0E0,0E0,0E0,0E0],"parents":[2147483647,0,0,1,1,2,2,3,3,4,4,5,5,6,6,7,7,8,8,10,10,11,11,12,12,13,13],"right_children":[2,4,6,8,10,12,14,16,18,-1,20,22,24,26,-1,-1,-1,-1,-1,-1,-1,-1,-1,-1,-1,-1,-1],"split_conditions":[-2.3679307E-1,-3.0239511E-2,4.766479E0,-2.5766258E0,-7.668777E0,1.2839867E-1,6.965169E-2,-5.333327E-2,-3.4366226E-1,-1.4532672E-2,5.8825154E-2,3.84871E-1,5.311927E-1,3.4615393E0,-2.263786E-2,-2.179419E-2,3.7118744E-2,-1.2063888E-2,-5.0218012E-2,2.8774986E-2,7.882256E-2,-1.1696687E-2,1.9491846E-2,6.277438E-2,9.603131E-4,5.3456426E-2,-2.263786E-2],"split_indices":[3,1,6,6,5,10,8,8,3,0,14,3,3,7,0,0,0,0,0,0,0,0,0,0,0,0,0],"split_type":[0,0,0,0,0,0,0,0,0,0,0,0,0,0,0,0,0,0,0,0,0,0,0,0,0,0,0],"sum_hessian":[3.5999985E2,4.0563435E1,3.194364E2,2.3002628E1,1.7560806E1,3.0009692E2,1.93395E1,1.8444714E1,4.5579147E0,1.1827832E0,1.6378021E1,2.8999918E2,1.0097751E1,1.8300978E1,1.0385222E0,4.336872E0,1.41078415E1,1.2308702E0,3.3270445E0,3.2120035E0,1.31660185E1,2.5684113E2,3.315803E1,7.0589657E0,3.038785E0,1.7262455E1,1.0385222E0],"tree_param":{"num_deleted":"0","num_feature":"16","num_nodes":"27","size_leaf_vector":"1"}},{"base_weights":[2.632231E-2,-1.4535278E-1,3.6700472E-1,-2.0439647E-1,4.1241804E-1,-3.3980582E-2,5.0486696E-1,4.1703546E-1,-2.5603303E-1,-1.5648474E-1,1.0756444E0,6.3806254E-1,-3.4160012E-1,1.3146358E0,3.2138366E-1,-3.0019183E-2,2.9851547E-2,-1.3725701E-2,6.114762E-2,2.4405157E-2,-2.5794566E-2,1.1534742E-2,6.427927E-2,6.8284474E-2,-2.2051303E-2,7.6336804E-4,-6.120306E-2,4.6656365E-3,7.740749E-2,-7.867719E-3,2.3748899E-2],"categories":[],"categories_nodes":[],"categories_segments":[],"categories_sizes":[],"default_left":[0,0,0,0,0,0,0,0,0,0,0,0,0,0,0,0,0,0,0,0,0,0,0,0,0,0,0,0,0,0,0],"id":1,"left_children":[1,3,5,7,9,11,13,15,17,19,21,23,25,27,29,-1,-1,-1,-1,-1,-1,-1,-1,-1,-1,-1,-1,-1,-1,-1,-1],"loss_changes":[2.1188782E1,8.021232E0,6.726475E0,7.1214247E0,8.997822E0,6.8310685E0,1.3006008E1,3.4993563E0,5.869343E0,3.3722205E0,1.6426163E0,8.762831E0,7.134428E0,4.5248337E0,5.590139E0,0E0,0E0,0E0,0E0,0E0,0E0,0E0,0E0,0E0,0E0,0E0,0E0,0E0,0E0,0E0,0E0],"parents":[2147483647,0,0,1,1,2,2,3,3,4,4,5,5,6,6,7,7,8,8,9,9,10,10,11,11,12,12,13,13,14,14],"right_children":[2,4,6,8,10,12,14,16,18,20,22,24,26,28,30,-1,-1,-1,-1,-1,-1,-1,-1,-1,-1,-1,-1,-1,-1,-1,-1],"split_conditions":[1.0696693E-1,6.451609E-2,-2.734486E-1,-2.967288E0,8.908314E-1,-6.503608E0,-2.3001091E0,-9.309309E-2,4.962876E0,7.4870572E-3,6.405668E-2,-6.798891E-2,-1.1864537E-2,-7.19507E-2,1.5718216E0,-3.0019183E-2,2.9851547E-2,-1.3725701E-2,6.114762E-2,2.4405157E-2,-2.5794566E-2,1.1534742E-2,6.427927E-2,6.8284474E-2,-2.2051303E-2,7.6336804E-4,-6.120306E-2,4.6656365E-3,7.740749E-2,-7.867719E-3,2.3748899E-2],"split_indices":[9,10,4,6,5,6,6,10,6,15,9,15,10,15,5,0,0,0,0,0,0,0,0,0,0,0,0,0,0,0,0],"split_type":[0,0,0,0,0,0,0,0,0,0,0,0,0,0,0,0,0,0,0,0,0,0,0,0,0,0,0,0,0,0,0],"sum_hessian":[3.6037173E2,2.400036E2,1.2036815E2,2.176025E2,2.2401098E1,3.0988543E1,8.93796E1,1.6151175E1,2.0145132E2,1.2469262E1,9.931837E0,9.393272E0,2.159527E1,1.537224E1,7.400736E1,2.0767663E0,1.4074408E1,1.9976945E2,1.6818725E0,4.3355203E0,8.133741E0,2.3943105E0,7.5375266E0,5.451646E0,3.9416265E0,1.6076591E1,5.518679E0,2.6920261E0,1.2680214E1,1.7970531E1,5.603683E1],"tree_param":{"num_deleted":"0","num_feature":"16","num_nodes":"31","size_leaf_vector":"1"}},{"base_weights":[-9.508701E-3,-9.256952E-2,4.733595E-1,4.3298468E-1,-2.0177907E-1,6.19984E-1,-3.0298263E-1,2.4176006E-1,8.630382E-1,-2.3385483E-1,1.1659507E0,4.2239773E-1,1.131863E0,3.629152E-2,-5.7762843E-1,-1.3030039E-3,2.8192421E-2,5.236512E-2,-1.2067272E-2,-1.3064861E-2,4.708773E-2,6.968021E-2,6.97413E-4,3.573931E-2,-9.2987E-3,1.4856507E-2,6.3298784E-2,-4.882923E-2,1.7853811E-2],"categories":[],"categories_nodes":[],"categories_segments":[],"categories_sizes":[],"default_left":[0,0,0,0,0,0,0,0,0,0,0,0,0,0,0,0,0,0,0,0,0,0,0,0,0,0,0,0,0],"id":2,"left_children":[1,3,5,7,9,11,13,15,17,19,21,23,25,-1,27,-1,-1,-1,-1,-1,-1,-1,-1,-1,-1,-1,-1,-1,-1],"loss_changes":[1.4842834E1,1.8205145E1,6.3710213E0,4.2837286E0,1.176853E1,4.17618E0,3.0473344E0,3.3963778E0,3.595169E0,8.532986E0,1.5990896E0,6.3227205E0,9.919224E-1,0E0,3.2939484E0,0E0,0E0,0E0,0E0,0E0,0E0,0E0,0E0,0E0,0E0,0E0,0E0,0E0,0E0],"parents":[2147483647,0,0,1,1,2,2,3,3,4,4,5,5,6,6,7,7,8,8,9,9,10,10,11,11,12,12,14,14],"right_children":[2,4,6,8,10,12,14,16,18,20,22,24,26,-1,28,-1,-1,-1,-1,-1,-1,-1,-1,-1,-1,-1,-1,-1,-1],"split_conditions":[4.8060007E-2,-2.967288E0,7.443593E-1,2.6315913E-1,8.263887E-1,9.141743E-2,7.715554E-2,-4.3396518E-2,7.6000196E-1,4.852708E0,3.657655E-2,4.412804E0,-2.2058824E-2,3.629152E-2,3.5375275E-2,-1.3030039E-3,2.8192421E-2,5.236512E-2,-1.2067272E-2,-1.3064861E-2,4.708773E-2,6.968021E-2,6.97413E-4,3.573931E-2,-9.2987E-3,1.4856507E-2,6.3298784E-2,-4.882923E-2,1.7853811E-2],"split_indices":[15,6,3,12,3,15,15,15,12,6,15,5,0,0,0,0,0,0,0,0,0,0,0,0,0,0,0,0,0],"split_type":[0,0,0,0,0,0,0,0,0,0,0,0,0,0,0,0,0,0,0,0,0,0,0,0,0,0,0,0,0],"sum_hessian":[3.6798438E2,3.1466534E2,5.3319027E1,5.3627327E1,2.6103802E2,4.501806E1,8.300968E0,3.820259E1,1.5424735E1,2.558665E2,5.1715198E0,3.3797394E1,1.1220667E1,1.4029146E0,6.898054E0,2.1360327E1,1.6842264E1,1.3263443E1,2.1612928E0,2.5079001E2,5.0764885E0,4.1430626E0,1.028457E0,2.2708557E1,1.1088835E1,1.9983335E0,9.222334E0,4.8031425E0,2.094911E0],"tree_param":{"num_deleted":"0","num_feature":"16","num_nodes":"29","size_leaf_vector":"1"}},{"base_weights":[8.354729E-3,-1.8756466E-1,3.682957E-1,5.0403184E-1,-2.4936506E-1,6.2311344E-2,5.246423E-1,-3.8109547E-1,1.0126195E0,2.4499895E-1,-3.0555218E-1,-1.5448299E-1,5.606386E-1,1.1678649E0,3.5675356E-1,-3.139301E-2,2.0394245E-2,7.110113E-2,-5.470487E-3,-4.252962E-2,1.9905804E-2,-1.7850973E-2,1.0441928E-2,2.997653E-2,-2.4459582E-2,-1.3986099E-2,4.793765E-2,-3.137296E-2,6.757247E-2,5.3571355E-2,1.2355911E-2],"categories":[],"categories_nodes":[],"categories_segments":[],"categories_sizes":[],"default_left":[0,0,0,0,0,0,0,0,0,0,0,0,0,0,0,0,0,0,0,0,0,0,0,0,0,0,0,0,0,0,0],"id":3,"left_children":[1,3,5,7,9,11,13,15,17,19,21,23,25,27,29,-1,-1,-1,-1,-1,-1,-1,-1,-1,-1,-1,-1,-1,-1,-1,-1],"loss_changes":[2.5957756E1,1.0314405E1,6.1735935E0,9.337574E0,6.1718273E0,4.9488087E0,8.840797E0,1.8103278E0,6.0824156E0,4.189606E0,5.3043346E0,8.406142E0,4.905152E0,6.5512886E0,5.174611E0,0E0,0E0,0E0,0E0,0E0,0E0,0E0,0E0,0E0,0E0,0E0,0E0,0E0,0E0,0E0,0E0],"parents":[2147483647,0,0,1,1,2,2,3,3,4,4,5,5,6,6,7,7,8,8,9,9,10,10,11,11,12,12,13,13,14,14],"right_children":[2,4,6,8,10,12,14,16,18,20,22,24,26,28,30,-1,-1,-1,-1,-1,-1,-1,-1,-1,-1,-1,-1,-1,-1,-1,-1],"split_conditions":[1.0334061E-1,-2.1686704E-1,-5.091256E-2,-3.0239511E-2,-5.223868E-2,-7.659823E-2,-1.1358802E-1,-8.85891E-3,2.5005503E-2,-1.1187508E-1,4.3733034E-1,-7.668777E0,1.1750849E-1,-7.411761E-2,6.1318357E-3,-3.139301E-2,2.0394245E-2,7.110113E-2,-5.470487E-3,-4.252962E-2,1.9905804E-2,-1.7850973E-2,1.0441928E-2,2.997653E-2,-2.4459582E-2,-1.3986099E-2,4.793765E-2,-3.137296E-2,6.757247E-2,5.3571355E-2,1.2355911E-2],"split_indices":[9,3,1,1,10,3,3,15,15,1,3,5,9,15,15,0,0,0,0,0,0,0,0,0,0,0,0,0,0,0,0],"split_type":[0,0,0,0,0,0,0,0,0,0,0,0,0,0,0,0,0,0,0,0,0,0,0,0,0,0,0,0,0,0,0],"sum_hessian":[3.661142E2,2.3738313E2,1.2873106E2,1.8885317E1,2.1849782E2,4.400597E1,8.472509E1,6.983014E0,1.1902303E1,2.1956093E1,1.9654172E2,3.1146059E1,1.2859913E1,1.6304066E1,6.842103E1,5.474881E0,1.5081327E0,8.5245285E0,3.3777745E0,2.1337078E0,1.9822386E1,1.789435E2,1.759822E1,9.332071E0,2.1813988E1,4.2294827E0,8.630429E0,1.2882342E0,1.5015831E1,7.9334006E0,6.0487625E1],"tree_param":{"num_deleted":"0","num_feature":"16","num_nodes":"31","size_leaf_vector":"1"}},{"base_weights":[-2.2304159E-2,-2.4237244E-1,2.683355E-1,1.4436342E-1,-3.859196E-1,-9.637811E-2,3.8933936E-1,-5.3803927E-1,4.1257635E-1,-4.6654838E-1,4.355021E-1,-3.2762644E-1,2.6295742E-1,5.006046E-1,-4.7210153E-2,-3.795331E-2,4.48454E-2,2.756599E-2,-2.5806991E-2,7.773707E-3,-2.7581293E-2,6.6280715E-2,-9.9450825E-3,-2.0645184E-2,2.5116017E-2,-9.679708E-3,3.9704558E-2,4.47171E-2,1.807891E-2,-2.9985247E-2,1.2735832E-2],"categories":[],"categories_nodes":[],"categories_segments":[],"categories_sizes":[],"default_left":[0,0,0,0,0,0,0,0,0,0,0,0,0,0,0,0,0,0,0,0,0,0,0,0,0,0,0,0,0,0,0],"id":4,"left_children":[1,3,5,7,9,11,13,15,17,19,21,23,25,27,29,-1,-1,-1,-1,-1,-1,-1,-1,-1,-1,-1,-1,-1,-1,-1,-1],"loss_changes":[2.3665995E1,1.1742466E1,7.0754995E0,1.0785374E1,1.03895035E1,3.4541028E0,5.84972E0,5.983088E0,5.695925E0,7.522997E0,8.318748E0,1.9842992E0,4.136631E0,4.91358E0,4.369059E0,0E0,0E0,0E0,0E0,0E0,0E0,0E0,0E0,0E0,0E0,0E0,0E0,0E0,0E0,0E0,0E0],"parents":[2147483647,0,0,1,1,2,2,3,3,4,4,5,5,6,6,7,7,8,8,9,9,10,10,11,11,12,12,13,13,14,14],"right_children":[2,4,6,8,10,12,14,16,18,20,22,24,26,28,30,-1,-1,-1,-1,-1,-1,-1,-1,-1,-1,-1,-1,-1,-1,-1,-1],"split_conditions":[9.180026E-2,-5.3734448E-2,9.090767E-2,-2.7535781E-2,4.4337288E-1,3.2978796E-3,6.0701793E-1,5.99613E-1,8.53637E-2,-4.7029745E-2,1.3596098E-1,6.722826E-2,1.2141011E-1,-1.364154E-1,-4.41959E-2,-3.795331E-2,4.48454E-2,2.756599E-2,-2.5806991E-2,7.773707E-3,-2.7581293E-2,6.6280715E-2,-9.9450825E-3,-2.0645184E-2,2.5116017E-2,-9.679708E-3,3.9704558E-2,4.47171E-2,1.807891E-2,-2.9985247E-2,1.2735832E-2],"split_indices":[9,3,14,15,3,3,7,6,9,10,4,15,9,3,15,0,0,0,0,0,0,0,0,0,0,0,0,0,0,0,0],"split_type":[0,0,0,0,0,0,0,0,0,0,0,0,0,0,0,0,0,0,0,0,0,0,0,0,0,0,0,0,0,0,0],"sum_hessian":[3.679923E2,2.0951587E2,1.5847643E2,5.671423E1,1.5280165E2,3.9530975E1,1.1894545E2,1.571788E1,4.099635E1,1.3953705E2,1.3264597E1,2.4105965E1,1.5425012E1,9.466981E1,2.4275642E1,1.4028124E1,1.6897564E0,3.6021378E1,4.9749684E0,1.6689379E1,1.2284767E2,5.066461E0,8.198136E0,2.231553E1,1.7904332E0,8.636641E0,6.7883706E0,2.3286665E1,7.138314E1,8.229765E0,1.6045877E1],"tree_param":{"num_deleted":"0","num_feature":"16","num_nodes":"31","size_leaf_vector":"1"}},{"base_weights":[8.81216E-3,-1.6169788E-1,3.596458E-1,1.4887024E-1,-2.5139725E-1,-9.408184E-2,4.819345E-1,-4.5612505E-1,7.5592136E-1,5.9538215E-1,-2.9556942E-1,6.084631E-1,-2.4934696E-1,1.191308E0,4.0288326E-1,-4.404157E-2,4.214536E-3,1.7854034E-3,5.012987E-2,-2.643467E-2,5.731414E-2,-1.5970303E-2,5.2548498E-2,5.1519245E-2,-2.64759E-3,-2.8226828E-2,1.0046768E-2,7.277603E-2,-6.275897E-3,7.06778E-4,3.0268127E-2],"categories":[],"categories_nodes":[],"categories_segments":[],"categories_sizes":[],"default_left":[0,0,0,0,0,0,0,0,0,0,0,0,0,0,0,0,0,0,0,0,0,0,0,0,0,0,0,0,0,0,0],"id":5,"left_children":[1,3,5,7,9,11,13,15,17,19,21,23,25,27,29,-1,-1,-1,-1,-1,-1,-1,-1,-1,-1,-1,-1,-1,-1,-1,-1],"loss_changes":[2.1864073E1,6.890197E0,6.677561E0,2.0821323E1,7.3290234E0,3.0110521E0,4.8090496E0,6.626563E0,4.9753056E0,6.682785E0,6.1909323E0,1.4597319E0,3.2609944E0,3.2950954E0,6.7900314E0,0E0,0E0,0E0,0E0,0E0,0E0,0E0,0E0,0E0,0E0,0E0,0E0,0E0,0E0,0E0,0E0],"parents":[2147483647,0,0,1,1,2,2,3,3,4,4,5,5,6,6,7,7,8,8,9,9,10,10,11,11,12,12,13,13,14,14],"right_children":[2,4,6,8,10,12,14,16,18,20,22,24,26,28,30,-1,-1,-1,-1,-1,-1,-1,-1,-1,-1,-1,-1,-1,-1,-1,-1],"split_conditions":[1.0696693E-1,-9.53935E-2,-2.7777703E-2,-2.0664532E-2,-3.7328E-2,-7.709533E-2,-3.51343E-1,7.838429E-2,-4.1347387E-1,-1.4091397E-2,8.263887E-1,2.5640962E-1,-1.8990055E-2,8.2353073E-1,-7.066607E-2,-4.404157E-2,4.214536E-3,1.7854034E-3,5.012987E-2,-2.643467E-2,5.731414E-2,-1.5970303E-2,5.2548498E-2,5.1519245E-2,-2.64759E-3,-2.8226828E-2,1.0046768E-2,7.277603E-2,-6.275897E-3,7.06778E-4,3.0268127E-2],"split_indices":[9,3,8,1,0,0,3,9,7,3,3,11,1,13,3,0,0,0,0,0,0,0,0,0,0,0,0,0,0,0,0],"split_type":[0,0,0,0,0,0,0,0,0,0,0,0,0,0,0,0,0,0,0,0,0,0,0,0,0,0,0,0,0,0,0],"sum_hessian":[3.6352158E2,2.4499142E2,1.18530136E2,5.4754395E1,1.9023703E2,2.5213003E1,9.331714E1,2.7548155E1,2.720624E1,8.813023E0,1.8142401E2,4.035278E0,2.1177727E1,7.94569E0,8.5371445E1,1.5072746E1,1.24754095E1,7.233003E0,1.9973236E1,2.9118667E0,5.9011564E0,1.790178E2,2.406198E0,2.1230917E0,1.9121861E0,1.2308356E1,8.8693695E0,6.530136E0,1.415554E0,2.9603798E1,5.5767647E1],"tree_param":{"num_deleted":"0","num_feature":"16","num_nodes":"31","size_leaf_vector":"1"}},{"base_weights":[-3.6644517E-3,-7.5371645E-2,6.199133E-1,3.667091E-1,-2.0068526E-1,8.110031E-1,1.17621515E-2,1.8059418E-1,7.518172E-1,-2.5352165E-1,8.389094E-1,5.9876484E-1,1.3380065E0,-6.3433605E-1,2.64981E-1,6.6483825E-2,4.6030837E-3,4.388968E-2,-5.394583E-3,7.792573E-3,-1.5778484E-2,6.0460683E-2,-4.072433E-3,3.9574433E-2,-2.0931108E-2,7.607308E-2,2.351564E-2,-4.5761574E-2,-1.5414106E-3,2.855577E-2,-2.2704614E-2],"categories":[],"categories_nodes":[],"categories_segments":[],"categories_sizes":[],"default_left":[0,0,0,0,0,0,0,0,0,0,0,0,0,0,0,0,0,0,0,0,0,0,0,0,0,0,0,0,0,0,0],"id":6,"left_children":[1,3,5,7,9,11,13,15,17,19,21,23,25,27,29,-1,-1,-1,-1,-1,-1,-1,-1,-1,-1,-1,-1,-1,-1,-1,-1],"loss_changes":[1.6340199E1,1.8227549E1,4.3703203E0,5.0769625E0,1.4272611E1,2.4048157E0,1.8083303E0,4.9995527E0,2.6268291E0,6.256013E0,4.396884E0,4.6927752E0,4.6545696E-1,5.0028133E-1,2.0001779E0,0E0,0E0,0E0,0E0,0E0,0E0,0E0,0E0,0E0,0E0,0E0,0E0,0E0,0E0,0E0,0E0],"parents":[2147483647,0,0,1,1,2,2,3,3,4,4,5,5,6,6,7,7,8,8,9,9,10,10,11,11,12,12,13,13,14,14],"right_children":[2,4,6,8,10,12,14,16,18,20,22,24,26,28,30,-1,-1,-1,-1,-1,-1,-1,-1,-1,-1,-1,-1,-1,-1,-1,-1],"split_conditions":[4.4337288E-1,-2.0690086E0,1.2873717E-1,-1.9672439E-2,8.084366E-2,8.263887E-1,-4.2857027E-1,-1.196093E1,-3.648657E-2,-1.3836706E-1,3.019635E-1,7.083847E-1,7.643459E-2,3.4855905E-1,8.5714287E-1,6.6483825E-2,4.6030837E-3,4.388968E-2,-5.394583E-3,7.792573E-3,-1.5778484E-2,6.0460683E-2,-4.072433E-3,3.9574433E-2,-2.0931108E-2,7.607308E-2,2.351564E-2,-4.5761574E-2,-1.5414106E-3,2.855577E-2,-2.2704614E-2],"split_indices":[3,6,1,1,15,3,13,5,2,3,3,3,1,2,13,0,0,0,0,0,0,0,0,0,0,0,0,0,0,0,0],"split_type":[0,0,0,0,0,0,0,0,0,0,0,0,0,0,0,0,0,0,0,0,0,0,0,0,0,0,0,0,0,0,0],"sum_hessian":[3.633849E2,3.266962E2,3.6688705E1,7.1728035E1,2.5496814E2,2.766303E1,9.025677E0,4.9348064E1,2.2379976E1,2.4335594E2,1.1612197E1,2.1243769E1,6.419262E0,2.117556E0,6.90812E0,2.527251E0,4.6820812E1,1.9501335E1,2.8786397E0,3.1831297E1,2.1152466E2,8.056734E0,3.5554626E0,1.8047134E1,3.1966343E0,4.6769633E0,1.7422984E0,1.092531E0,1.025025E0,4.989626E0,1.9184942E0],"tree_param":{"num_deleted":"0","num_feature":"16","num_nodes":"31","size_leaf_vector":"1"}},{"base_weights":[7.5233746E-3,-1.7477602E-1,2.500881E-1,3.926346E-1,-2.2737525E-1,1.8950264E-1,9.602374E-1,-4.741292E-1,8.7053347E-1,-2.9030296E-1,3.6189726E-1,2.9975963E-1,-2.1066238E-1,7.940989E-2,-1.3168535E-1,1.9357404E-2,-5.4612722E-2,7.029045E-2,-2.634329E-2,-7.14046E-3,-2.3611767E-2,-4.479593E-2,2.9670967E-2,-1.5231817E-3,2.3297833E-2,2.73081E-2,-1.4822292E-2,3.7634443E-2,-3.573055E-2],"categories":[],"categories_nodes":[],"categories_segments":[],"categories_sizes":[],"default_left":[0,0,0,0,0,0,0,0,0,0,0,0,0,0,0,0,0,0,0,0,0,0,0,0,0,0,0,0,0],"id":7,"left_children":[1,3,5,7,9,11,13,15,17,19,21,23,25,-1,27,-1,-1,-1,-1,-1,-1,-1,-1,-1,-1,-1,-1,-1,-1],"loss_changes":[1.6370756E1,6.398273E0,6.6520224E0,7.993151E0,7.3021927E0,6.575343E0,8.601933E0,4.230089E0,9.827919E0,4.6531096E0,6.1147346E0,6.3875656E0,2.2699747E0,0E0,3.317838E0,0E0,0E0,0E0,0E0,0E0,0E0,0E0,0E0,0E0,0E0,0E0,0E0,0E0,0E0],"parents":[2147483647,0,0,1,1,2,2,3,3,4,4,5,5,6,6,7,7,8,8,9,9,10,10,11,11,12,12,14,14],"right_children":[2,4,6,8,10,12,14,16,18,20,22,24,26,-1,28,-1,-1,-1,-1,-1,-1,-1,-1,-1,-1,-1,-1,-1,-1],"split_conditions":[9.180026E-2,-2.1234792E-1,5.704148E0,-3.0239511E-2,2.879167E0,3.2901661E0,1.2684646E-1,-1.0557755E-1,2.696481E-2,2.574657E-2,3.9601833E-2,-7.3931664E-2,-5.1275074E-1,7.940989E-2,7.787398E-1,1.9357404E-2,-5.4612722E-2,7.029045E-2,-2.634329E-2,-7.14046E-3,-2.3611767E-2,-4.479593E-2,2.9670967E-2,-1.5231817E-3,2.3297833E-2,2.73081E-2,-1.4822292E-2,3.7634443E-2,-3.573055E-2],"split_indices":[9,3,6,1,6,6,15,2,15,2,9,1,7,0,3,0,0,0,0,0,0,0,0,0,0,0,0,0,0],"split_type":[0,0,0,0,0,0,0,0,0,0,0,0,0,0,0,0,0,0,0,0,0,0,0,0,0,0,0,0,0],"sum_hessian":[3.6822812E2,2.1038948E2,1.5783864E2,1.7300196E1,1.9308928E2,1.465986E2,1.1240022E1,6.1513667E0,1.11488285E1,1.7491742E2,1.8171865E1,1.1512835E2,3.1470263E1,6.8475347E0,4.392487E0,2.726298E0,3.4250689E0,8.056686E0,3.0921416E0,9.758753E1,7.732989E1,2.378769E0,1.5793097E1,3.8817356E1,7.631099E1,2.6575227E0,2.881274E1,1.6293398E0,2.763147E0],"tree_param":{"num_deleted":"0","num_feature":"16","num_nodes":"29","size_leaf_vector":"1"}}]},"name":"gbtree"},"learner_model_param":{"base_score":"[5E-1]","boost_from_average":"1","num_class":"0","num_feature":"16","num_target":"1"},"objective":{"name":"binary:logistic","reg_loss_param":{"scale_pos_weight":"0.192348123"}}},"version":[3,2,0]}