{"learner":{"attributes":{"scikit_learn":"{\"_estimator_type\": \"classifier\"}"},"feature_names":["bias_week","bias_month","bias_quarter","bias_year","rsi","macd","macd_signal","vol_change","close_change","bb_width","return_5d","k_upper","k_lower","k_body","buy_power","rs_5d"],"feature_types":["float","float","float","float","float","float","float","float","float","float","float","float","float","float","float","float"],"gradient_booster":{"model":{"gbtree_model_param":{"num_parallel_tree":"1","num_trees":"30"},"iteration_indptr":[0,1,2,3,4,5,6,7,8,9,10,11,12,13,14,15,16,17,18,19,20,21,22,23,24,25,26,27,28,29,30],"tree_info":[0,0,0,0,0,0,0,0,0,0,0,0,0,0,0,0,0,0,0,0,0,0,0,0,0,0,0,0,0,0],"trees":[{"base_weights":[9.421749E-3,-3.3507657E-1,3.3188388E-1,-5.284408E-1,1.102125E-1,1.1691828E0,2.553481E-1,-7.6454324E-1,-1.8418758E-1,3.411346E-2,8.665758E-1,1.2674072E0,2.313978E-3,5.083635E-2,5.321804E-1,1.9031312E-2,-4.1354947E-2,3.5032894E-2,-1.3584882E-2,4.2734616E-2,-2.7033228E-3,7.626503E-2,4.809217E-3,2.8709478E-3,6.7639574E-2,8.0776125E-2,-4.292676E-5,2.0405369E-2,5.276208E-2],"categories":[],"categories_nodes":[],"categories_segments":[],"categories_sizes":[],"default_left":[0,0,0,0,0,0,0,0,0,0,0,0,0,0,0,0,0,0,0,0,0,0,0,0,0,0,0,0,0],"id":0,"left_children":[1,3,5,7,9,11,13,15,17,19,21,23,-1,25,27,-1,-1,-1,-1,-1,-1,-1,-1,-1,-1,-1,-1,-1,-1],"loss_changes":[6.562831E1,2.4653015E1,1.9255497E1,1.6060722E1,4.995953E0,2.7292366E0,1.5873865E1,8.76236E0,6.571649E0,5.861731E0,3.8829226E0,2.3197517E0,0E0,1.3156233E1,7.306755E0,0E0,0E0,0E0,0E0,0E0,0E0,0E0,0E0,0E0,0E0,0E0,0E0,0E0,0E0],"parents":[2147483647,0,0,1,1,2,2,3,3,4,4,5,5,6,6,7,7,8,8,9,9,10,10,11,11,13,13,14,14],"right_children":[2,4,6,8,10,12,14,16,18,20,22,24,-1,26,28,-1,-1,-1,-1,-1,-1,-1,-1,-1,-1,-1,-1,-1,-1],"split_conditions":[7.736475E-2,1.14431016E-1,-3.5885563E-1,-9.802884E-4,4.7578588E-1,7.500011E-1,8.054625E-2,-7.837839E-2,-1.5928455E-2,-2.1919576E-2,1.5650439E-3,8.895381E-2,2.313978E-3,-7.5379376E0,5.0000215E-1,1.9031312E-2,-4.1354947E-2,3.5032894E-2,-1.3584882E-2,4.2734616E-2,-2.7033228E-3,7.626503E-2,4.809217E-3,2.8709478E-3,6.7639574E-2,8.0776125E-2,-4.292676E-5,2.0405369E-2,5.276208E-2],"split_indices":[9,3,3,1,3,11,3,10,15,0,15,9,0,6,11,0,0,0,0,0,0,0,0,0,0,0,0,0,0],"split_type":[0,0,0,0,0,0,0,0,0,0,0,0,0,0,0,0,0,0,0,0,0,0,0,0,0,0,0,0,0],"sum_hessian":[5.887784E2,2.8464374E2,3.0413464E2,1.9833234E2,8.63114E1,2.4276316E1,2.798583E2,1.1692183E2,8.141051E1,7.9370865E1,6.94054E0,2.2205252E1,2.0710638E0,1.6163385E2,1.18224464E2,5.7927494E0,1.1112908E2,6.6962028E0,7.47143E1,6.85815E0,7.251271E1,3.2131913E0,3.7273483E0,1.5738952E0,2.0631357E1,4.2018657E0,1.5743199E2,9.699656E1,2.1227903E1],"tree_param":{"num_deleted":"0","num_feature":"16","num_nodes":"29","size_leaf_vector":"1"}},{"base_weights":[1.4155442E-2,-3.0520654E-1,3.1380165E-1,-5.6211686E-1,2.0644233E-2,2.5845033E-1,1.0759542E0,-7.293612E-1,-8.329023E-2,-4.1669246E-2,9.0205795E-1,1.3576187E-1,5.3201234E-1,1.4132634E0,4.2494377E-1,-2.1997094E-2,-6.375726E-2,1.246009E-2,-3.9080657E-2,3.8186505E-2,-4.935785E-3,-7.1229744E-3,6.059121E-2,3.7647292E-2,1.8581453E-3,3.3311676E-2,-1.5092593E-4,7.988713E-2,9.170706E-3,-1.1313446E-2,5.3392347E-2],"categories":[],"categories_nodes":[],"categories_segments":[],"categories_sizes":[],"default_left":[0,0,0,0,0,0,0,0,0,0,0,0,0,0,0,0,0,0,0,0,0,0,0,0,0,0,0,0,0,0,0],"id":1,"left_children":[1,3,5,7,9,11,13,15,17,19,21,23,25,27,29,-1,-1,-1,-1,-1,-1,-1,-1,-1,-1,-1,-1,-1,-1,-1,-1],"loss_changes":[5.6515095E1,2.3945822E1,1.2574673E1,1.2744068E1,7.0132065E0,9.505123E0,3.8598366E0,1.8137955E1,1.0067535E1,5.5692797E0,2.9002748E0,1.2042056E1,6.3222294E0,2.645012E0,3.7426915E0,0E0,0E0,0E0,0E0,0E0,0E0,0E0,0E0,0E0,0E0,0E0,0E0,0E0,0E0,0E0,0E0],"parents":[2147483647,0,0,1,1,2,2,3,3,4,4,5,5,6,6,7,7,8,8,9,9,10,10,11,11,12,12,13,13,14,14],"right_children":[2,4,6,8,10,12,14,16,18,20,22,24,26,28,30,-1,-1,-1,-1,-1,-1,-1,-1,-1,-1,-1,-1,-1,-1,-1,-1],"split_conditions":[7.6832965E-2,3.7297428E-2,2.2411536E-1,1.2964572E-2,4.7578588E-1,2.0702592E-1,1.9838141E-1,-4.724646E-2,2.0418756E-2,-3.6033247E-2,-2.3498485E-2,-3.182672E-1,8.333338E-1,6.73272E-2,1.7543875E-2,-2.1997094E-2,-6.375726E-2,1.246009E-2,-3.9080657E-2,3.8186505E-2,-4.935785E-3,-7.1229744E-3,6.059121E-2,3.7647292E-2,1.8581453E-3,3.3311676E-2,-1.5092593E-4,7.988713E-2,9.170706E-3,-1.1313446E-2,5.3392347E-2],"split_indices":[9,3,9,1,3,3,2,3,15,2,8,3,14,0,0,0,0,0,0,0,0,0,0,0,0,0,0,0,0,0,0],"split_type":[0,0,0,0,0,0,0,0,0,0,0,0,0,0,0,0,0,0,0,0,0,0,0,0,0,0,0,0,0,0,0],"sum_hessian":[5.885706E2,2.8490317E2,3.0366745E2,1.5889815E2,1.26005035E2,2.8435526E2,1.9312197E1,1.17377396E2,4.152075E1,1.1857485E2,7.4301844E0,1.9734518E2,8.701008E1,1.1949765E1,7.3624315E0,7.7883354E1,3.949404E1,2.8563818E1,1.295693E1,7.0237355E0,1.1155111E2,1.8230501E0,5.6071343E0,2.6270092E1,1.7107509E2,6.9363815E1,1.7646265E1,1.0130969E1,1.818796E0,3.9795237E0,3.382908E0],"tree_param":{"num_deleted":"0","num_feature":"16","num_nodes":"31","size_leaf_vector":"1"}},{"base_weights":[2.1826657E-2,-2.9630783E-1,3.184795E-1,-6.2264055E-1,-1.6235568E-2,1.2990351E0,2.665725E-1,-6.838662E-1,7.21776E-1,-4.6711598E-2,6.933326E-2,7.7921647E-4,1.3964161E0,-3.028931E-2,3.7858677E-1,1.8750137E-2,-3.6900353E-2,-1.7964339E-2,6.425395E-2,-1.5057798E-2,8.301781E-3,7.4027196E-2,2.9393127E-2,-8.349866E-3,3.138883E-2,6.0398784E-3,2.3551906E-2],"categories":[],"categories_nodes":[],"categories_segments":[],"categories_sizes":[],"default_left":[0,0,0,0,0,0,0,0,0,0,0,0,0,0,0,0,0,0,0,0,0,0,0,0,0,0,0],"id":2,"left_children":[1,3,5,7,9,11,13,15,17,19,-1,-1,21,23,25,-1,-1,-1,-1,-1,-1,-1,-1,-1,-1,-1,-1],"loss_changes":[5.5560387E1,2.5956469E1,1.5157555E1,1.1292252E1,6.645502E0,1.8599854E0,9.673122E0,7.4995003E0,4.2377806E0,8.257144E0,0E0,0E0,8.078766E-2,7.3490567E0,4.9725094E0,0E0,0E0,0E0,0E0,0E0,0E0,0E0,0E0,0E0,0E0,0E0,0E0],"parents":[2147483647,0,0,1,1,2,2,3,3,4,4,5,5,6,6,7,7,8,8,9,9,12,12,13,13,14,14],"right_children":[2,4,6,8,10,12,14,16,18,20,-1,-1,22,24,26,-1,-1,-1,-1,-1,-1,-1,-1,-1,-1,-1,-1],"split_conditions":[7.736475E-2,-6.1131706E-3,-7.9014535E0,2.7934833E0,6.7226574E-2,-7.1230334E-1,7.142867E-2,-7.837839E-2,5.2548803E-2,2.4999683E-1,6.933326E-2,7.7921647E-4,5.3846157E-1,6.290128E-2,-2.3225622E0,1.8750137E-2,-3.6900353E-2,-1.7964339E-2,6.425395E-2,-1.5057798E-2,8.301781E-3,7.4027196E-2,2.9393127E-2,-8.349866E-3,3.138883E-2,6.0398784E-3,2.3551906E-2],"split_indices":[9,1,6,6,8,7,11,10,9,11,0,0,11,8,5,0,0,0,0,0,0,0,0,0,0,0,0],"split_type":[0,0,0,0,0,0,0,0,0,0,0,0,0,0,0,0,0,0,0,0,0,0,0,0,0,0,0],"sum_hessian":[5.8671625E2,2.8310828E2,3.0360797E2,1.3019057E2,1.5291771E2,1.4055958E1,2.89552E2,1.2498978E2,5.2007895E0,1.5061256E2,2.3051412E0,1.0730841E0,1.2982874E1,7.952454E1,2.1002747E2,5.79167E0,1.1919811E2,1.9056809E0,3.2951088E0,6.839591E1,8.221665E1,1.1006568E1,1.9763058E0,6.64635E1,1.3061039E1,5.604881E1,1.5397865E2],"tree_param":{"num_deleted":"0","num_feature":"16","num_nodes":"27","size_leaf_vector":"1"}},{"base_weights":[-9.155056E-3,-3.159885E-1,2.8413805E-1,-4.8099563E-1,6.66871E-2,1.0742064E0,2.1314141E-1,-5.0543296E-1,5.564406E-2,1.010812E0,-3.217065E-3,1.2068993E0,-1.5241331E-1,7.000598E-2,5.072007E-1,-3.6178872E-2,-1.7433766E-2,6.0003992E-2,3.2205104E-3,-1.3467818E-2,1.2988651E-2,4.610532E-2,8.175788E-2,-2.1955617E-2,9.079087E-3,7.1884386E-2,1.8274457E-3,4.2181898E-2,1.8202804E-2],"categories":[],"categories_nodes":[],"categories_segments":[],"categories_sizes":[],"default_left":[0,0,0,0,0,0,0,0,0,0,0,0,0,0,0,0,0,0,0,0,0,0,0,0,0,0,0,0,0],"id":3,"left_children":[1,3,5,7,9,11,13,15,-1,17,19,21,23,25,27,-1,-1,-1,-1,-1,-1,-1,-1,-1,-1,-1,-1,-1,-1],"loss_changes":[5.367719E1,1.8437962E1,1.6877928E1,8.500153E0,5.8572273E0,4.2365265E0,1.1795213E1,6.634781E0,0E0,1.0185461E0,5.91998E0,1.2461967E0,3.9749286E-1,8.651453E0,4.116955E0,0E0,0E0,0E0,0E0,0E0,0E0,0E0,0E0,0E0,0E0,0E0,0E0,0E0,0E0],"parents":[2147483647,0,0,1,1,2,2,3,3,4,4,5,5,6,6,7,7,9,9,10,10,11,11,12,12,13,13,14,14],"right_children":[2,4,6,8,10,12,14,16,-1,18,20,22,24,26,28,-1,-1,-1,-1,-1,-1,-1,-1,-1,-1,-1,-1,-1,-1],"split_conditions":[7.6832965E-2,1.14431016E-1,-3.5885563E-1,5.447489E-2,-2.71855E-2,7.5000036E-1,2.1179849E-1,-3.4596555E-2,5.564406E-2,2.0245422E-1,2.6666772E-1,1.8701518E-4,-6.9683514E0,-7.5379376E0,6.666621E-2,-3.6178872E-2,-1.7433766E-2,6.0003992E-2,3.2205104E-3,-1.3467818E-2,1.2988651E-2,4.610532E-2,8.175788E-2,-2.1955617E-2,9.079087E-3,7.1884386E-2,1.8274457E-3,4.2181898E-2,1.8202804E-2],"split_indices":[9,3,3,8,2,11,3,2,0,3,11,15,6,6,12,0,0,0,0,0,0,0,0,0,0,0,0,0,0],"split_type":[0,0,0,0,0,0,0,0,0,0,0,0,0,0,0,0,0,0,0,0,0,0,0,0,0,0,0,0,0],"sum_hessian":[5.9446765E2,2.904897E2,3.03978E2,2.0279076E2,8.769893E1,2.3898548E1,2.8007944E2,2.004011E2,2.3896582E0,5.117814E0,8.2581116E1,2.1580137E1,2.3184128E0,1.8921552E2,9.0863914E1,8.228169E1,1.1811939E2,4.0415196E0,1.0762944E0,4.1032776E1,4.1548336E1,1.4854806E1,6.7253304E0,1.0781817E0,1.2402309E0,3.5159733E0,1.8569954E2,2.5660242E1,6.5203674E1],"tree_param":{"num_deleted":"0","num_feature":"16","num_nodes":"29","size_leaf_vector":"1"}},{"base_weights":[-4.5228135E-3,-3.042706E-1,2.8525472E-1,-5.7484275E-1,-6.500989E-2,1.2136308E0,2.3574103E-1,-7.3711556E-1,-1.7943652E-1,-2.4867624E-1,1.8112734E-1,-1.3291745E-3,1.3093919E0,-2.0441389E-2,3.305514E-1,-4.1023266E-2,1.8481761E-3,-1.4284684E-2,3.731787E-2,-1.518797E-2,4.8788365E-2,-2.3853619E-2,1.5474473E-2,-6.1734667E-4,7.094385E-2,3.4489E-2,-9.588372E-3,2.289148E-3,2.2935072E-2],"categories":[],"categories_nodes":[],"categories_segments":[],"categories_sizes":[],"default_left":[0,0,0,0,0,0,0,0,0,0,0,0,0,0,0,0,0,0,0,0,0,0,0,0,0,0,0,0,0],"id":4,"left_children":[1,3,5,7,9,11,13,15,17,19,21,-1,23,25,27,-1,-1,-1,-1,-1,-1,-1,-1,-1,-1,-1,-1,-1,-1],"loss_changes":[5.193836E1,1.8989765E1,1.3689859E1,8.709724E0,7.1475086E0,1.8345032E0,7.0477657E0,6.313469E0,4.287779E0,6.3931217E0,5.868797E0,0E0,2.0560875E0,9.774931E0,7.702444E0,0E0,0E0,0E0,0E0,0E0,0E0,0E0,0E0,0E0,0E0,0E0,0E0,0E0,0E0],"parents":[2147483647,0,0,1,1,2,2,3,3,4,4,5,5,6,6,7,7,8,8,9,9,10,10,12,12,13,13,14,14],"right_children":[2,4,6,8,10,12,14,16,18,20,22,-1,24,26,28,-1,-1,-1,-1,-1,-1,-1,-1,-1,-1,-1,-1,-1,-1],"split_conditions":[7.736475E-2,-6.1131706E-3,-7.9014535E0,6.2249947E-2,3.1249994E-1,9.815409E-2,7.142867E-2,1.9729292E0,6.1111045E-1,6.290128E-2,-1.4936771E-2,-1.3291745E-3,-7.621482E-1,-5.6496773E-2,-1.0911051E-1,-4.1023266E-2,1.8481761E-3,-1.4284684E-2,3.731787E-2,-1.518797E-2,4.8788365E-2,-2.3853619E-2,1.5474473E-2,-6.1734667E-4,7.094385E-2,3.4489E-2,-9.588372E-3,2.289148E-3,2.2935072E-2],"split_indices":[9,1,6,9,11,9,11,6,11,8,4,0,7,10,4,0,0,0,0,0,0,0,0,0,0,0,0,0,0],"split_type":[0,0,0,0,0,0,0,0,0,0,0,0,0,0,0,0,0,0,0,0,0,0,0,0,0,0,0,0,0],"sum_hessian":[5.959544E2,2.9291312E2,3.0304126E2,1.3680368E2,1.5610945E2,1.4153509E1,2.8888776E2,9.638397E1,4.0419712E1,8.9393875E1,6.671557E1,1.0662876E0,1.3087222E1,7.824638E1,2.1064137E2,8.6960495E1,9.423472E0,3.687843E1,3.5412815E0,8.626505E1,3.1288223E0,1.0444243E1,5.6271328E1,1.0690098E0,1.2018212E1,1.4618828E1,6.3627552E1,6.579418E1,1.4484718E2],"tree_param":{"num_deleted":"0","num_feature":"16","num_nodes":"29","size_leaf_vector":"1"}},{"base_weights":[1.2000164E-2,-9.7964734E-2,4.731311E-1,7.2694826E-1,-1.746563E-1,3.1696093E-1,9.679212E-1,4.4638538E-1,1.1221147E0,1.3870576E-1,-2.607692E-1,2.104438E-1,7.5391525E-1,1.112836E0,2.9293776E-1,4.682496E-2,6.128142E-3,3.260617E-2,7.128667E-2,-1.478672E-3,3.0825982E-2,-2.7689097E-2,-4.355558E-3,-2.4866594E-2,1.4074827E-2,7.873561E-2,1.7979996E-2,6.166585E-2,2.1317871E-2,-1.803687E-2,4.963934E-2],"categories":[],"categories_nodes":[],"categories_segments":[],"categories_sizes":[],"default_left":[0,0,0,0,0,0,0,0,0,0,0,0,0,0,0,0,0,0,0,0,0,0,0,0,0,0,0,0,0,0,0],"id":5,"left_children":[1,3,5,7,9,11,13,15,17,19,21,23,25,27,29,-1,-1,-1,-1,-1,-1,-1,-1,-1,-1,-1,-1,-1,-1,-1,-1],"loss_changes":[3.0072422E1,3.0426998E1,8.51663E0,4.037363E0,1.18827305E1,3.9501667E0,2.3059654E0,3.947957E0,1.4012203E0,7.680034E0,1.7492737E1,3.7791793E0,4.9083576E0,1.2767315E0,3.1547236E0,0E0,0E0,0E0,0E0,0E0,0E0,0E0,0E0,0E0,0E0,0E0,0E0,0E0,0E0,0E0,0E0],"parents":[2147483647,0,0,1,1,2,2,3,3,4,4,5,5,6,6,7,7,8,8,9,9,10,10,11,11,12,12,13,13,14,14],"right_children":[2,4,6,8,10,12,14,16,18,20,22,24,26,28,30,-1,-1,-1,-1,-1,-1,-1,-1,-1,-1,-1,-1,-1,-1,-1,-1],"split_conditions":[2.587492E-1,-3.1009942E-1,4.5161307E-1,4.5454758E-1,-1.8011949E0,5.436722E-1,2.9999655E-1,-2.1339144E-1,-2.2348584E-1,-7.503472E-2,-4.090928E-2,-1.010953E-2,1.5386629E0,6.734173E-1,5.1736697E-3,4.682496E-2,6.128142E-3,3.260617E-2,7.128667E-2,-1.478672E-3,3.0825982E-2,-2.7689097E-2,-4.355558E-3,-2.4866594E-2,1.4074827E-2,7.873561E-2,1.7979996E-2,6.166585E-2,2.1317871E-2,-1.803687E-2,4.963934E-2],"split_indices":[3,3,11,14,6,7,12,2,4,2,4,2,5,3,0,0,0,0,0,0,0,0,0,0,0,0,0,0,0,0,0],"split_type":[0,0,0,0,0,0,0,0,0,0,0,0,0,0,0,0,0,0,0,0,0,0,0,0,0,0,0,0,0,0,0],"sum_hessian":[5.911343E2,4.7794687E2,1.131874E2,3.9933514E1,4.3801337E2,8.7279915E1,2.5907486E1,2.459851E1,1.5335002E1,9.428877E1,3.4372458E2,7.13648E1,1.5915112E1,2.0794376E1,5.11311E0,9.033724E0,1.5564787E1,7.253961E0,8.081041E0,7.042441E1,2.386436E1,1.2709261E2,2.1663197E2,5.9632964E0,6.5401505E1,4.193173E0,1.1721938E1,1.701207E1,3.782306E0,2.8943088E0,2.2188015E0],"tree_param":{"num_deleted":"0","num_feature":"16","num_nodes":"31","size_leaf_vector":"1"}},{"base_weights":[1.5817985E-3,-2.4478793E-1,2.4591696E-1,-5.392636E-1,3.18643E-2,1.1666723E0,1.9986826E-1,-5.895934E-1,4.834295E-1,2.5835642E-1,-1.350865E-1,-2.305193E-3,1.2698836E0,-1.3245635E-1,3.286082E-1,1.754306E-2,-3.181279E-2,5.6366842E-2,-2.5027994E-2,-1.0401297E-2,2.3743665E-2,-9.042579E-3,4.68889E-2,6.8263665E-2,2.412243E-2,-1.1006623E-2,3.475563E-2,1.1158637E-2,3.0668331E-2],"categories":[],"categories_nodes":[],"categories_segments":[],"categories_sizes":[],"default_left":[0,0,0,0,0,0,0,0,0,0,0,0,0,0,0,0,0,0,0,0,0,0,0,0,0,0,0,0,0],"id":6,"left_children":[1,3,5,7,9,11,13,15,17,19,21,-1,23,25,27,-1,-1,-1,-1,-1,-1,-1,-1,-1,-1,-1,-1,-1,-1],"loss_changes":[3.573357E1,2.409722E1,1.2403322E1,7.657509E0,5.8333707E0,1.8095264E0,1.2238743E1,6.233799E0,5.1691456E0,6.7041698E0,4.5361714E0,0E0,3.1227493E-1,5.979711E0,6.0402107E0,0E0,0E0,0E0,0E0,0E0,0E0,0E0,0E0,0E0,0E0,0E0,0E0,0E0,0E0],"parents":[2147483647,0,0,1,1,2,2,3,3,4,4,5,5,6,6,7,7,8,8,9,9,10,10,12,12,13,13,14,14],"right_children":[2,4,6,8,10,12,14,16,18,20,22,-1,24,26,28,-1,-1,-1,-1,-1,-1,-1,-1,-1,-1,-1,-1,-1,-1],"split_conditions":[7.846597E-2,-5.235049E-3,-7.9014535E0,2.6218388E0,2.9669229E-2,9.623701E-2,7.142867E-2,-7.837839E-2,-1.4391702E-2,-2.2508258E-2,8.666699E-1,-2.305193E-3,5.3846157E-1,1.3669065E-1,1.4466934E-1,1.754306E-2,-3.181279E-2,5.6366842E-2,-2.5027994E-2,-1.0401297E-2,2.3743665E-2,-9.042579E-3,4.68889E-2,6.8263665E-2,2.412243E-2,-1.1006623E-2,3.475563E-2,1.1158637E-2,3.0668331E-2],"split_indices":[9,1,6,6,2,9,11,10,1,4,13,0,11,10,9,0,0,0,0,0,0,0,0,0,0,0,0,0,0],"split_type":[0,0,0,0,0,0,0,0,0,0,0,0,0,0,0,0,0,0,0,0,0,0,0,0,0,0,0,0,0],"sum_hessian":[5.9161255E2,2.945789E2,2.970337E2,1.422331E2,1.5234578E2,1.2988556E1,2.8404514E2,1.3596533E2,6.2677727E0,6.441302E1,8.793276E1,1.0620718E0,1.1926484E1,7.930395E1,2.0474118E2,6.1190953E0,1.2984624E2,3.700526E0,2.5672467E0,2.0434929E1,4.397809E1,8.51327E1,2.8000658E0,9.983289E0,1.9431952E0,7.23707E1,6.9332514E0,1.5071918E2,5.402201E1],"tree_param":{"num_deleted":"0","num_feature":"16","num_nodes":"29","size_leaf_vector":"1"}},{"base_weights":[-5.6692157E-3,-1.0040636E-1,3.8538763E-1,6.943684E-1,-1.7398635E-1,2.7655768E-1,8.56753E-1,2.8309372E-1,1.0554073E0,-3.3871195E-1,2.9735016E-3,1.5623759E-1,6.7129165E-1,1.1763117E0,2.5807285E-1,4.4895988E-2,-2.3206582E-3,3.2516457E-2,7.5680725E-2,2.9745658E-3,-2.5870938E-2,3.327292E-2,-4.1646524E-3,-4.3757584E-2,1.0525987E-2,5.132494E-2,9.308058E-3,6.7246996E-2,-3.6027753E-3,-7.2455914E-3,4.792825E-2],"categories":[],"categories_nodes":[],"categories_segments":[],"categories_sizes":[],"default_left":[0,0,0,0,0,0,0,0,0,0,0,0,0,0,0,0,0,0,0,0,0,0,0,0,0,0,0,0,0,0,0],"id":7,"left_children":[1,3,5,7,9,11,13,15,17,19,21,23,25,27,29,-1,-1,-1,-1,-1,-1,-1,-1,-1,-1,-1,-1,-1,-1,-1,-1],"loss_changes":[2.1886501E1,2.7928463E1,5.67325E0,5.713835E0,1.2710859E1,4.4107647E0,3.7396631E0,4.1534266E0,2.9499798E0,1.6100767E1,1.2125248E1,4.3367195E0,3.5840225E0,2.9383926E0,2.5767379E0,0E0,0E0,0E0,0E0,0E0,0E0,0E0,0E0,0E0,0E0,0E0,0E0,0E0,0E0,0E0,0E0],"parents":[2147483647,0,0,1,1,2,2,3,3,4,4,5,5,6,6,7,7,8,8,9,9,10,10,11,11,12,12,13,13,14,14],"right_children":[2,4,6,8,10,12,14,16,18,20,22,24,26,28,30,-1,-1,-1,-1,-1,-1,-1,-1,-1,-1,-1,-1,-1,-1,-1,-1],"split_conditions":[2.587492E-1,-3.1009942E-1,5.0000215E-1,-3.8242947E-2,-2.199704E-3,3.0651458E-2,1.7142813E-1,-9.8597206E-2,2.260868E-3,-1.7687567E0,-1.9255552E-1,-1.9115152E0,3.155283E0,8.783782E-1,5.12262E-1,4.4895988E-2,-2.3206582E-3,3.2516457E-2,7.5680725E-2,2.9745658E-3,-2.5870938E-2,3.327292E-2,-4.1646524E-3,-4.3757584E-2,1.0525987E-2,5.132494E-2,9.308058E-3,6.7246996E-2,-3.6027753E-3,-7.2455914E-3,4.792825E-2],"split_indices":[3,3,11,15,1,8,12,15,0,6,3,5,5,11,3,0,0,0,0,0,0,0,0,0,0,0,0,0,0,0,0],"split_type":[0,0,0,0,0,0,0,0,0,0,0,0,0,0,0,0,0,0,0,0,0,0,0,0,0,0,0,0,0,0,0],"sum_hessian":[5.887224E2,4.7451096E2,1.1421144E2,3.9492752E1,4.3501822E2,9.407736E1,2.0134085E1,1.9295982E1,2.019677E1,2.2482376E2,2.1019446E2,7.316999E1,2.0907368E1,1.2498102E1,7.635982E0,6.1310434E0,1.3164939E1,1.200396E1,8.19281E0,6.9849266E1,1.5497449E2,2.3443773E1,1.8675069E2,2.9023094E0,7.026768E1,1.1425687E1,9.481682E0,1.0942625E1,1.5554775E0,5.3508377E0,2.285144E0],"tree_param":{"num_deleted":"0","num_feature":"16","num_nodes":"31","size_leaf_vector":"1"}},{"base_weights":[1.33580025E-2,-2.6140335E-1,2.7693638E-1,-3.7282228E-1,9.1021076E-2,2.2349343E-1,1.0325239E0,5.377117E-1,-3.9924285E-1,3.9200965E-2,5.2418288E-2,-5.4032754E-2,3.3387214E-1,1.3161217E0,3.4507376E-1,-3.4634065E-2,5.2609857E-2,6.2473632E-2,-2.0785162E-2,2.096822E-2,-4.3209805E-3,-1.029929E-2,4.4107784E-2,2.0717539E-2,-1.0090744E-2,7.47563E-2,9.3807895E-3,-2.207863E-2,4.7694825E-2],"categories":[],"categories_nodes":[],"categories_segments":[],"categories_sizes":[],"default_left":[0,0,0,0,0,0,0,0,0,0,0,0,0,0,0,0,0,0,0,0,0,0,0,0,0,0,0,0,0],"id":8,"left_children":[1,3,5,7,9,11,13,15,17,19,-1,21,23,25,27,-1,-1,-1,-1,-1,-1,-1,-1,-1,-1,-1,-1,-1,-1],"loss_changes":[4.3275158E1,1.1523108E1,1.2083622E1,5.567461E0,3.4855053E0,8.78176E0,3.4194012E0,4.97032E0,6.4031906E0,3.3063815E0,0E0,1.1884774E1,8.913708E0,2.4891186E0,3.8494015E0,0E0,0E0,0E0,0E0,0E0,0E0,0E0,0E0,0E0,0E0,0E0,0E0,0E0,0E0],"parents":[2147483647,0,0,1,1,2,2,3,3,4,4,5,5,6,6,7,7,8,8,9,9,11,11,12,12,13,13,14,14],"right_children":[2,4,6,8,10,12,14,16,18,20,-1,22,24,26,28,-1,-1,-1,-1,-1,-1,-1,-1,-1,-1,-1,-1,-1,-1],"split_conditions":[7.736475E-2,1.1303014E-2,2.2411536E-1,-7.837839E-2,6.7226574E-2,-3.2491013E-2,6.5657363E0,-1.5177223E-1,-3.8784778E0,1.6129052E-2,5.2418288E-2,-7.209477E-1,3.8866624E-1,6.73272E-2,3.1394652E-1,-3.4634065E-2,5.2609857E-2,6.2473632E-2,-2.0785162E-2,2.096822E-2,-4.3209805E-3,-1.029929E-2,4.4107784E-2,2.0717539E-2,-1.0090744E-2,7.47563E-2,9.3807895E-3,-2.207863E-2,4.7694825E-2],"split_indices":[9,0,9,10,8,15,5,2,5,0,0,5,4,0,2,0,0,0,0,0,0,0,0,0,0,0,0,0,0],"split_type":[0,0,0,0,0,0,0,0,0,0,0,0,0,0,0,0,0,0,0,0,0,0,0,0,0,0,0,0,0],"sum_hessian":[5.95549E2,2.9159286E2,3.0395618E2,2.215059E2,7.0086945E1,2.8508762E2,1.8868555E1,5.7004013E0,2.1580551E2,6.747551E1,2.6114345E0,8.126723E1,2.0382039E2,1.2710515E1,6.15804E0,1.5786644E0,4.121737E0,1.3927861E0,2.1441272E2,1.6177992E1,5.129752E1,7.058975E1,1.0677471E1,1.7739592E2,2.6424467E1,1.0689989E1,2.0205255E0,2.806515E0,3.351525E0],"tree_param":{"num_deleted":"0","num_feature":"16","num_nodes":"29","size_leaf_vector":"1"}},{"base_weights":[7.833046E-3,-2.3477675E-1,2.3290859E-1,-3.9744422E-1,1.4730947E-1,7.3450977E-1,1.6289125E-1,-5.8675E-1,-1.7618082E-1,1.0263001E0,1.0338005E-1,4.7445688E-1,1.149856E0,3.5747968E-2,4.075679E-1,-3.5545774E-2,-1.0268017E-2,3.570839E-2,-1.205233E-2,4.858084E-3,6.68956E-2,-2.1019466E-2,9.8388465E-3,4.3434847E-2,1.4855427E-3,6.548067E-2,2.7227474E-3,2.073722E-2,-2.9398042E-3,2.8220385E-2,-1.6349027E-3],"categories":[],"categories_nodes":[],"categories_segments":[],"categories_sizes":[],"default_left":[0,0,0,0,0,0,0,0,0,0,0,0,0,0,0,0,0,0,0,0,0,0,0,0,0,0,0,0,0,0,0],"id":9,"left_children":[1,3,5,7,9,11,13,15,17,19,21,23,25,27,29,-1,-1,-1,-1,-1,-1,-1,-1,-1,-1,-1,-1,-1,-1,-1,-1],"loss_changes":[3.227973E1,1.7741486E1,1.0649647E1,8.266422E0,3.2025166E0,3.480564E0,8.396093E0,4.9332695E0,5.5757046E0,1.0184183E0,4.1292005E0,4.2918773E0,2.3173523E0,6.4385643E0,6.3955774E0,0E0,0E0,0E0,0E0,0E0,0E0,0E0,0E0,0E0,0E0,0E0,0E0,0E0,0E0,0E0,0E0],"parents":[2147483647,0,0,1,1,2,2,3,3,4,4,5,5,6,6,7,7,8,8,9,9,10,10,11,11,12,12,13,13,14,14],"right_children":[2,4,6,8,10,12,14,16,18,20,22,24,26,28,30,-1,-1,-1,-1,-1,-1,-1,-1,-1,-1,-1,-1,-1,-1,-1,-1],"split_conditions":[7.605853E-2,1.1822831E-1,-3.0307454E-1,-6.1131706E-3,-3.324736E-2,-3.8784778E0,2.1179849E-1,6.2249947E-2,3.0392187E-2,-3.56084E-2,-7.0588344E-1,-7.6526694E0,1.08673505E-1,-4.972395E-2,3.3332092E-1,-3.5545774E-2,-1.0268017E-2,3.570839E-2,-1.205233E-2,4.858084E-3,6.68956E-2,-2.1019466E-2,9.8388465E-3,4.3434847E-2,1.4855427E-3,6.548067E-2,2.7227474E-3,2.073722E-2,-2.9398042E-3,2.8220385E-2,-1.6349027E-3],"split_indices":[9,3,3,1,2,5,3,9,9,10,13,5,1,10,12,0,0,0,0,0,0,0,0,0,0,0,0,0,0,0,0],"split_type":[0,0,0,0,0,0,0,0,0,0,0,0,0,0,0,0,0,0,0,0,0,0,0,0,0,0,0,0,0,0,0],"sum_hessian":[5.891425E2,2.835066E2,3.0563593E2,1.9882124E2,8.4685356E1,3.6274757E1,2.6936118E2,1.06258286E2,9.256296E1,2.9664629E0,8.171889E1,2.362512E1,1.2649636E1,1.780077E2,9.135348E1,7.95092E1,2.6749086E1,5.605932E0,8.695702E1,1.0744778E0,1.891985E0,1.1836838E1,6.988205E1,1.201835E1,1.1606771E1,1.0868916E1,1.780721E0,3.4863693E1,1.4314401E2,6.715005E1,2.4203426E1],"tree_param":{"num_deleted":"0","num_feature":"16","num_nodes":"31","size_leaf_vector":"1"}},{"base_weights":[-1.4463988E-3,-2.2775806E-1,2.1894524E-1,-4.1640672E-1,1.2512402E-2,1.6667312E-1,9.648965E-1,-2.4712114E-1,-7.5684065E-1,6.448272E-1,-5.9649263E-2,4.779261E-1,8.657233E-2,1.3690253E0,1.8423285E-1,-1.8371362E-2,9.825929E-3,-5.117784E-2,3.2150992E-3,4.7729325E-2,-9.131288E-3,-5.7062386E-3,4.1985203E-2,1.6505362E-2,6.742915E-2,-3.432069E-3,1.7324885E-2,7.1362965E-2,1.9983798E-2,3.667723E-2,-3.894226E-2],"categories":[],"categories_nodes":[],"categories_segments":[],"categories_sizes":[],"default_left":[0,0,0,0,0,0,0,0,0,0,0,0,0,0,0,0,0,0,0,0,0,0,0,0,0,0,0,0,0,0,0],"id":10,"left_children":[1,3,5,7,9,11,13,15,17,19,21,23,25,27,29,-1,-1,-1,-1,-1,-1,-1,-1,-1,-1,-1,-1,-1,-1,-1,-1],"loss_changes":[2.9536737E1,1.3248195E1,1.153777E1,9.246777E0,5.946167E0,6.9789605E0,5.8803463E0,5.986628E0,1.1866314E1,3.5953097E0,5.834149E0,6.9437504E0,9.108095E0,1.4377785E-1,4.690262E0,0E0,0E0,0E0,0E0,0E0,0E0,0E0,0E0,0E0,0E0,0E0,0E0,0E0,0E0,0E0,0E0],"parents":[2147483647,0,0,1,1,2,2,3,3,4,4,5,5,6,6,7,7,8,8,9,9,10,10,11,11,12,12,13,13,14,14],"right_children":[2,4,6,8,10,12,14,16,18,20,22,24,26,28,30,-1,-1,-1,-1,-1,-1,-1,-1,-1,-1,-1,-1,-1,-1,-1,-1],"split_conditions":[7.7982515E-2,4.1125022E-2,2.2411536E-1,-4.724646E-2,-2.3041539E-2,-5.0430458E-2,4.7817826E0,1.085953E-2,1.2964572E-2,7.0052226E-3,4.7578588E-1,2.8949292E0,1.5358226E-2,8.233125E-2,3.7500268E-1,-1.8371362E-2,9.825929E-3,-5.117784E-2,3.2150992E-3,4.7729325E-2,-9.131288E-3,-5.7062386E-3,4.1985203E-2,1.6505362E-2,6.742915E-2,-3.432069E-3,1.7324885E-2,7.1362965E-2,1.9983798E-2,3.667723E-2,-3.894226E-2],"split_indices":[9,3,9,3,8,10,6,0,1,10,3,6,0,0,12,0,0,0,0,0,0,0,0,0,0,0,0,0,0,0,0],"split_type":[0,0,0,0,0,0,0,0,0,0,0,0,0,0,0,0,0,0,0,0,0,0,0,0,0,0,0,0,0,0,0],"sum_hessian":[5.901894E2,2.9116742E2,2.99022E2,1.6269452E2,1.2847289E2,2.8058368E2,1.8438307E1,1.098139E2,5.288062E1,1.2346972E1,1.1612591E2,5.641227E1,2.2417142E2,1.1652466E1,6.785841E0,8.652254E1,2.3291368E1,3.972953E1,1.3151091E1,8.872052E0,3.4749207E0,1.1031691E2,5.8089976E0,4.9403725E1,7.008546E0,1.4081818E2,8.335325E1,1.05464945E1,1.1059712E0,4.472939E0,2.3129015E0],"tree_param":{"num_deleted":"0","num_feature":"16","num_nodes":"31","size_leaf_vector":"1"}},{"base_weights":[7.0604263E-3,-2.0372407E-1,2.1641153E-1,-3.954883E-1,3.289677E-2,7.885849E-1,1.5860236E-1,-6.0515815E-1,-1.3042329E-1,9.368074E-1,-1.537131E-2,8.9943874E-1,-2.4634133E-1,2.0561775E-2,4.0989783E-1,-1.8358981E-2,-4.957304E-2,3.544376E-2,-1.2108611E-2,6.1670102E-2,-1.575705E-2,-5.4280814E-3,2.1778261E-2,5.4438096E-2,1.3465041E-2,2.2833066E-2,-4.0383816E-2,4.1843615E-3,-3.8926344E-2,3.348608E-2,1.3776846E-2],"categories":[],"categories_nodes":[],"categories_segments":[],"categories_sizes":[],"default_left":[0,0,0,0,0,0,0,0,0,0,0,0,0,0,0,0,0,0,0,0,0,0,0,0,0,0,0,0,0,0,0],"id":11,"left_children":[1,3,5,7,9,11,13,15,17,19,21,23,25,27,29,-1,-1,-1,-1,-1,-1,-1,-1,-1,-1,-1,-1,-1,-1,-1,-1],"loss_changes":[2.5698156E1,1.3181023E1,9.53849E0,8.833883E0,5.72253E0,3.2683697E0,9.239563E0,7.8424644E0,6.9343295E0,2.8573217E0,5.3078017E0,2.5941868E0,1.6925516E0,8.798176E0,3.1134405E0,0E0,0E0,0E0,0E0,0E0,0E0,0E0,0E0,0E0,0E0,0E0,0E0,0E0,0E0,0E0,0E0],"parents":[2147483647,0,0,1,1,2,2,3,3,4,4,5,5,6,6,7,7,8,8,9,9,10,10,11,11,12,12,13,13,14,14],"right_children":[2,4,6,8,10,12,14,16,18,20,22,24,26,28,30,-1,-1,-1,-1,-1,-1,-1,-1,-1,-1,-1,-1,-1,-1,-1,-1],"split_conditions":[7.846597E-2,4.1125022E-2,-3.5114843E-1,-6.1131706E-3,-1.78568E-1,7.499922E-1,1.8749027E-1,-6.009837E-2,-1.8146586E-2,1.1666616E-1,3.5977745E-1,5.3658534E-2,-3.6099337E-2,4.0384892E-1,1.8034816E-2,-1.8358981E-2,-4.957304E-2,3.544376E-2,-1.2108611E-2,6.1670102E-2,-1.575705E-2,-5.4280814E-3,2.1778261E-2,5.4438096E-2,1.3465041E-2,2.2833066E-2,-4.0383816E-2,4.1843615E-3,-3.8926344E-2,3.348608E-2,1.3776846E-2],"split_indices":[9,3,3,1,4,11,3,3,15,13,3,10,7,4,1,0,0,0,0,0,0,0,0,0,0,0,0,0,0,0,0],"split_type":[0,0,0,0,0,0,0,0,0,0,0,0,0,0,0,0,0,0,0,0,0,0,0,0,0,0,0,0,0,0,0],"sum_hessian":[5.803562E2,2.8920148E2,2.9115472E2,1.5937117E2,1.298303E2,2.5557274E1,2.6559744E2,8.8267426E1,7.1103745E1,5.648225E0,1.24182076E2,2.3202864E1,2.3544092E0,1.7212712E2,9.347034E1,5.582648E1,3.2440945E1,7.726891E0,6.3376854E1,4.578389E0,1.069836E0,1.0354315E2,2.0638924E1,1.7282555E1,5.9203105E0,1.1280895E0,1.2263198E0,1.6035486E2,1.1772252E1,3.0501942E1,6.296839E1],"tree_param":{"num_deleted":"0","num_feature":"16","num_nodes":"31","size_leaf_vector":"1"}},{"base_weights":[-1.4901012E-2,-2.4078812E-1,1.9698638E-1,-5.01484E-1,-1.6730515E-2,-3.3274755E-2,2.858074E-1,-5.521918E-1,3.810346E-1,-1.695999E-1,1.8561478E-1,1.0123807E0,-8.850934E-2,1.9882217E-1,6.0905504E-1,1.996407E-2,-3.0056512E-2,4.322378E-2,-2.315092E-2,-1.5169841E-2,2.323534E-2,2.2275671E-2,-8.14684E-3,5.667726E-2,1.5274378E-2,1.55030405E-2,-9.242678E-3,1.1381201E-2,-5.4335173E-2,3.407229E-2,-1.2135434E-2],"categories":[],"categories_nodes":[],"categories_segments":[],"categories_sizes":[],"default_left":[0,0,0,0,0,0,0,0,0,0,0,0,0,0,0,0,0,0,0,0,0,0,0,0,0,0,0,0,0,0,0],"id":12,"left_children":[1,3,5,7,9,11,13,15,17,19,21,23,25,27,29,-1,-1,-1,-1,-1,-1,-1,-1,-1,-1,-1,-1,-1,-1,-1,-1],"loss_changes":[2.8081059E1,1.6576784E1,6.2017784E0,6.081909E0,4.7868624E0,5.009067E0,6.0252895E0,6.036457E0,3.5507648E0,7.61757E0,6.1092305E0,2.6630402E-2,3.1992831E0,6.679749E0,2.9934673E0,0E0,0E0,0E0,0E0,0E0,0E0,0E0,0E0,0E0,0E0,0E0,0E0,0E0,0E0,0E0,0E0],"parents":[2147483647,0,0,1,1,2,2,3,3,4,4,5,5,6,6,7,7,8,8,9,9,10,10,11,11,12,12,13,13,14,14],"right_children":[2,4,6,8,10,12,14,16,18,20,22,24,26,28,30,-1,-1,-1,-1,-1,-1,-1,-1,-1,-1,-1,-1,-1,-1,-1,-1],"split_conditions":[7.6832965E-2,-7.1479217E-3,7.142867E-2,1.8131716E0,3.1578958E-1,-8.272165E0,1.5871564E-1,-7.837839E-2,7.660649E-2,2.8106485E-2,1.0228826E-2,5.594956E-2,-5.6496773E-2,5.6283826E-1,7.50007E-1,1.996407E-2,-3.0056512E-2,4.322378E-2,-2.315092E-2,-1.5169841E-2,2.323534E-2,2.2275671E-2,-8.14684E-3,5.667726E-2,1.5274378E-2,1.55030405E-2,-9.242678E-3,1.1381201E-2,-5.4335173E-2,3.407229E-2,-1.2135434E-2],"split_indices":[9,1,11,5,11,5,9,10,4,0,15,0,10,4,11,0,0,0,0,0,0,0,0,0,0,0,0,0,0,0,0],"split_type":[0,0,0,0,0,0,0,0,0,0,0,0,0,0,0,0,0,0,0,0,0,0,0,0,0,0,0,0,0,0,0],"sum_hessian":[5.8471014E2,2.8293973E2,3.017704E2,1.302051E2,1.5273463E2,8.4176125E1,2.1759425E2,1.2348424E2,6.720863E0,8.709629E1,6.563835E1,3.3539114E0,8.082221E1,1.7272849E2,4.4865772E1,5.6904435E0,1.1779379E2,4.257904E0,2.4629588E0,7.235569E1,1.4740595E1,3.7441666E1,2.8196688E1,2.34791E0,1.0060014E0,1.530171E1,6.55205E1,1.6974825E2,2.9802318E0,4.153565E1,3.3301244E0],"tree_param":{"num_deleted":"0","num_feature":"16","num_nodes":"31","size_leaf_vector":"1"}},{"base_weights":[-8.404834E-3,-9.925218E-2,3.76882E-1,3.7369266E-1,-1.6899714E-1,9.211962E-1,2.860557E-1,2.0046689E-2,7.4556494E-1,-2.2287586E-1,3.1933212E-1,4.3785837E-1,1.3073854E0,-5.101988E-1,3.257071E-1,-1.0914922E-2,4.5171916E-2,4.4999305E-2,-1.5205733E-2,-1.7624272E-2,1.0829465E-3,2.595881E-2,-9.609943E-3,-7.976852E-3,4.3300778E-2,2.5966844E-2,7.246314E-2,2.5816401E-2,-4.7258765E-2,5.1540878E-2,1.262392E-2],"categories":[],"categories_nodes":[],"categories_segments":[],"categories_sizes":[],"default_left":[0,0,0,0,0,0,0,0,0,0,0,0,0,0,0,0,0,0,0,0,0,0,0,0,0,0,0,0,0,0,0],"id":13,"left_children":[1,3,5,7,9,11,13,15,17,19,21,23,25,27,29,-1,-1,-1,-1,-1,-1,-1,-1,-1,-1,-1,-1,-1,-1,-1,-1],"loss_changes":[2.0586376E1,1.5759361E1,5.2845984E0,8.0685835E0,1.1000185E1,2.3390322E0,3.248475E0,7.0471E0,5.1257095E0,1.1883318E1,4.361349E0,2.2946653E0,1.60429E-1,2.7297704E0,4.572983E0,0E0,0E0,0E0,0E0,0E0,0E0,0E0,0E0,0E0,0E0,0E0,0E0,0E0,0E0,0E0,0E0],"parents":[2147483647,0,0,1,1,2,2,3,3,4,4,5,5,6,6,7,7,8,8,9,9,10,10,11,11,12,12,13,13,14,14],"right_children":[2,4,6,8,10,12,14,16,18,20,22,24,26,28,30,-1,-1,-1,-1,-1,-1,-1,-1,-1,-1,-1,-1,-1,-1,-1,-1],"split_conditions":[2.587492E-1,-2.6157543E-1,-4.6017636E-2,-2.8808152E-2,1.3906278E-1,1.7241393E-1,-4.701439E-2,2.2411536E-1,2.5085588E0,4.1125022E-2,3.223532E-2,2.6181316E-2,8.0728576E-2,1.0043311E-1,-3.1652562E-2,-1.0914922E-2,4.5171916E-2,4.4999305E-2,-1.5205733E-2,-1.7624272E-2,1.0829465E-3,2.595881E-2,-9.609943E-3,-7.976852E-3,4.3300778E-2,2.5966844E-2,7.246314E-2,2.5816401E-2,-4.7258765E-2,5.1540878E-2,1.262392E-2],"split_indices":[3,3,10,15,9,11,2,9,6,3,3,2,9,9,15,0,0,0,0,0,0,0,0,0,0,0,0,0,0,0,0],"split_type":[0,0,0,0,0,0,0,0,0,0,0,0,0,0,0,0,0,0,0,0,0,0,0,0,0,0,0,0,0,0,0],"sum_hessian":[5.860751E2,4.7485153E2,1.1122354E2,6.04665E1,4.1438504E2,1.4597795E1,9.662575E1,3.1532955E1,2.8933546E1,3.7369754E2,4.0687496E1,7.431119E0,7.166676E0,4.020548E0,9.26052E1,2.5425789E1,6.1071663E0,2.5347252E1,3.5862925E0,2.4395422E2,1.2974333E2,2.9246555E1,1.1440943E1,3.3643394E0,4.0667796E0,1.8044473E0,5.362229E0,1.140943E0,2.8796046E0,7.4823065E0,8.5122894E1],"tree_param":{"num_deleted":"0","num_feature":"16","num_nodes":"31","size_leaf_vector":"1"}},{"base_weights":[3.0244903E-3,-8.832264E-2,2.3398456E-1,4.3282542E-1,-1.4835094E-1,9.15739E-2,5.066921E-1,6.3871264E-2,3.2230452E-1,-2.0331979E-1,2.646619E-1,-5.9477076E-2,3.8495237E-1,1.1039854E0,3.344194E-1,-1.7379304E-2,2.8316949E-2,-8.599472E-3,-4.433395E-2,4.3721544E-4,2.828601E-2,5.3958935E-3,-2.2187358E-2,3.6482915E-2,-5.791187E-3,1.1155529E-2,6.506418E-2,2.2394648E-2,-4.1724205E-2],"categories":[],"categories_nodes":[],"categories_segments":[],"categories_sizes":[],"default_left":[0,0,0,0,0,0,0,0,0,0,0,0,0,0,0,0,0,0,0,0,0,0,0,0,0,0,0,0,0],"id":14,"left_children":[1,3,5,7,9,11,13,-1,15,17,19,21,23,25,27,-1,-1,-1,-1,-1,-1,-1,-1,-1,-1,-1,-1,-1,-1],"loss_changes":[1.2368783E1,1.32074995E1,6.406432E0,3.6628113E0,8.6237545E0,4.9141173E0,5.4733458E0,0E0,6.725501E0,6.9921875E0,3.4446716E0,4.7903347E0,6.583195E0,1.843194E0,6.409413E0,0E0,0E0,0E0,0E0,0E0,0E0,0E0,0E0,0E0,0E0,0E0,0E0,0E0,0E0],"parents":[2147483647,0,0,1,1,2,2,3,3,4,4,5,5,6,6,8,8,9,9,10,10,11,11,12,12,13,13,14,14],"right_children":[2,4,6,8,10,12,14,-1,16,18,20,22,24,26,28,-1,-1,-1,-1,-1,-1,-1,-1,-1,-1,-1,-1,-1,-1],"split_conditions":[1.3147774E-2,-7.837839E-2,3.333343E-1,-1.9586869E-1,6.153844E-1,7.4237294E-2,1.8264791E-2,6.3871264E-2,-6.323117E-2,3.5017207E-1,7.87421E-3,1.7072856E-1,6.430657E-2,-3.2491013E-2,7.999979E-1,-1.7379304E-2,2.8316949E-2,-8.599472E-3,-4.433395E-2,4.3721544E-4,2.828601E-2,5.3958935E-3,-2.2187358E-2,3.6482915E-2,-5.791187E-3,1.1155529E-2,6.506418E-2,2.2394648E-2,-4.1724205E-2],"split_indices":[0,10,11,1,11,1,0,0,15,4,2,4,15,15,11,0,0,0,0,0,0,0,0,0,0,0,0,0,0],"split_type":[0,0,0,0,0,0,0,0,0,0,0,0,0,0,0,0,0,0,0,0,0,0,0,0,0,0,0,0,0],"sum_hessian":[5.8428705E2,4.1913312E2,1.6515396E2,4.264979E1,3.764833E2,1.093737E2,5.578026E1,3.7134452E0,3.8936344E1,3.327099E2,4.3773422E1,7.272649E1,3.664722E1,1.1276101E1,4.4504158E1,1.0283402E1,2.8652943E1,3.1932147E2,1.338842E1,2.4216764E1,1.9556658E1,5.1159603E1,2.1566881E1,2.1435308E1,1.5211911E1,2.4533741E0,8.822727E0,4.112837E1,3.3757885E0],"tree_param":{"num_deleted":"0","num_feature":"16","num_nodes":"29","size_leaf_vector":"1"}},{"base_weights":[4.2997915E-3,-1.8115145E-1,1.8509431E-1,-3.7554723E-1,5.5275023E-2,1.4020662E-1,8.3067805E-1,1.0541521E-1,-4.956014E-1,4.759067E-3,8.3261734E-1,-1.2143355E-1,2.4080518E-1,1.1387529E0,1.8594556E-1,3.677794E-2,-1.0894786E-2,-4.2560115E-2,-1.377106E-2,4.5327194E-2,-1.3480781E-3,6.69706E-2,1.0033387E-2,-1.44498125E-2,4.341892E-2,3.4454476E-2,8.064986E-3,6.298917E-2,-3.871784E-3,-1.342762E-2,4.383447E-2],"categories":[],"categories_nodes":[],"categories_segments":[],"categories_sizes":[],"default_left":[0,0,0,0,0,0,0,0,0,0,0,0,0,0,0,0,0,0,0,0,0,0,0,0,0,0,0,0,0,0,0],"id":15,"left_children":[1,3,5,7,9,11,13,15,17,19,21,23,25,27,29,-1,-1,-1,-1,-1,-1,-1,-1,-1,-1,-1,-1,-1,-1,-1,-1],"loss_changes":[1.97275E1,1.3370416E1,8.516834E0,9.263588E0,5.1768255E0,7.392529E0,3.5948534E0,6.8203745E0,9.774702E0,3.596903E0,2.3077316E0,1.3246748E1,7.1025085E0,1.9776726E0,2.5560124E0,0E0,0E0,0E0,0E0,0E0,0E0,0E0,0E0,0E0,0E0,0E0,0E0,0E0,0E0,0E0,0E0],"parents":[2147483647,0,0,1,1,2,2,3,3,4,4,5,5,6,6,7,7,8,8,9,9,10,10,11,11,12,12,13,13,14,14],"right_children":[2,4,6,8,10,12,14,16,18,20,22,24,26,28,30,-1,-1,-1,-1,-1,-1,-1,-1,-1,-1,-1,-1,-1,-1,-1,-1],"split_conditions":[7.6832965E-2,3.7297428E-2,2.2411536E-1,-1.7687567E0,4.7578588E-1,-3.2491013E-2,5.165876E0,-1.5928455E-2,-3.324736E-2,-5.2364405E-2,1.5650439E-3,4.1188446E-1,-2.2945973E-1,8.818628E-2,6.8604937E0,3.677794E-2,-1.0894786E-2,-4.2560115E-2,-1.377106E-2,4.5327194E-2,-1.3480781E-3,6.69706E-2,1.0033387E-2,-1.44498125E-2,4.341892E-2,3.4454476E-2,8.064986E-3,6.298917E-2,-3.871784E-3,-1.342762E-2,4.383447E-2],"split_indices":[9,3,9,6,3,15,6,15,2,2,15,6,3,0,6,0,0,0,0,0,0,0,0,0,0,0,0,0,0,0,0],"split_type":[0,0,0,0,0,0,0,0,0,0,0,0,0,0,0,0,0,0,0,0,0,0,0,0,0,0,0,0,0,0,0],"sum_hessian":[5.863788E2,2.894606E2,2.9691818E2,1.5852716E2,1.3093344E2,2.7875354E2,1.8164665E1,3.1690447E1,1.26836716E2,1.238886E2,7.0448365E0,7.735608E1,2.0139745E2,1.1772924E1,6.3917403E0,1.0313675E1,2.1376772E1,4.7406746E1,7.942996E1,3.2726123E0,1.2061599E2,3.2882886E0,3.756548E0,6.676212E1,1.0593958E1,2.9183239E1,1.7221422E2,1.06747675E1,1.0981573E0,4.223778E0,2.1679628E0],"tree_param":{"num_deleted":"0","num_feature":"16","num_nodes":"31","size_leaf_vector":"1"}},{"base_weights":[-1.2345102E-3,-1.1575871E-1,2.3027453E-1,5.312628E-1,-1.8843195E-1,1.4137161E-1,5.9454393E-1,1.3566694E-1,8.471514E-1,3.5086992E-1,-2.389245E-1,8.67534E-2,9.709634E-1,1.0908309E0,2.7185166E-1,3.6876995E-2,-1.0639432E-2,5.8243077E-2,2.2267504E-2,-1.2156664E-2,3.5547722E-2,-1.9056454E-2,-4.3005566E-3,3.4390833E-2,-8.680985E-5,6.3533835E-2,2.1409659E-2,2.4904145E-2,6.983465E-2,-1.5027727E-3,3.7711572E-2],"categories":[],"categories_nodes":[],"categories_segments":[],"categories_sizes":[],"default_left":[0,0,0,0,0,0,0,0,0,0,0,0,0,0,0,0,0,0,0,0,0,0,0,0,0,0,0,0,0,0,0],"id":16,"left_children":[1,3,5,7,9,11,13,15,17,19,21,23,25,27,29,-1,-1,-1,-1,-1,-1,-1,-1,-1,-1,-1,-1,-1,-1,-1,-1],"loss_changes":[1.5497438E1,1.848792E1,6.180887E0,4.85235E0,9.67734E0,7.0211587E0,5.7313805E0,4.1079526E0,2.2782688E0,6.7106676E0,6.985159E0,7.8850203E0,1.0157051E0,1.9329433E0,3.5384057E0,0E0,0E0,0E0,0E0,0E0,0E0,0E0,0E0,0E0,0E0,0E0,0E0,0E0,0E0,0E0,0E0],"parents":[2147483647,0,0,1,1,2,2,3,3,4,4,5,5,6,6,7,7,8,8,9,9,10,10,11,11,12,12,13,13,14,14],"right_children":[2,4,6,8,10,12,14,16,18,20,22,24,26,28,30,-1,-1,-1,-1,-1,-1,-1,-1,-1,-1,-1,-1,-1,-1,-1,-1],"split_conditions":[1.1822831E-1,-3.1009942E-1,5.0000215E-1,-3.8242947E-2,-4.077666E0,6.290128E-2,-4.041971E-2,-8.8673726E-2,1.3123825E-1,7.407379E-2,-9.802884E-4,-4.972395E-2,3.932038E0,-1.818174E-2,1.0558044E-2,3.6876995E-2,-1.0639432E-2,5.8243077E-2,2.2267504E-2,-1.2156664E-2,3.5547722E-2,-1.9056454E-2,-4.3005566E-3,3.4390833E-2,-8.680985E-5,6.3533835E-2,2.1409659E-2,2.4904145E-2,6.983465E-2,-1.5027727E-3,3.7711572E-2],"split_indices":[3,3,11,15,5,8,7,15,9,11,1,10,5,10,8,0,0,0,0,0,0,0,0,0,0,0,0,0,0,0,0],"split_type":[0,0,0,0,0,0,0,0,0,0,0,0,0,0,0,0,0,0,0,0,0,0,0,0,0,0,0,0,0,0,0],"sum_hessian":[5.825083E2,3.900541E2,1.924542E2,3.8749626E1,3.5130447E2,1.5581448E2,3.66397E1,1.7838928E1,2.09107E1,2.9566036E1,3.2173843E2,1.4722607E2,8.588415E0,1.3498768E1,2.3140932E1,6.131552E0,1.1707375E1,1.0616769E1,1.0293931E1,1.1281167E1,1.828487E1,1.6593329E2,1.5580515E2,1.8024212E1,1.2920186E2,4.669089E0,3.9193258E0,5.489262E0,8.009506E0,1.4809686E1,8.331247E0],"tree_param":{"num_deleted":"0","num_feature":"16","num_nodes":"31","size_leaf_vector":"1"}},{"base_weights":[1.5807254E-2,-7.606062E-2,3.403562E-1,-1.7371146E-1,2.4857442E-1,5.933514E-1,1.8548943E-1,-1.4408165E-1,-5.9723276E-1,-4.1009474E-1,3.3540332E-1,6.573505E-1,-4.0448955E-1,3.5760915E-1,-1.900757E-1,-6.482036E-3,-5.2248757E-2,1.1142007E-2,-3.8655203E-2,3.4207623E-2,-3.6936015E-2,7.86825E-3,3.4724917E-2,-4.05665E-3,3.7218105E-2,-4.650852E-2,1.1779827E-2,4.5200074E-3,3.4873284E-2,-1.7424332E-2,3.0445604E-2],"categories":[],"categories_nodes":[],"categories_segments":[],"categories_sizes":[],"default_left":[0,0,0,0,0,0,0,0,0,0,0,0,0,0,0,0,0,0,0,0,0,0,0,0,0,0,0,0,0,0,0],"id":17,"left_children":[1,3,5,7,9,11,13,15,17,19,21,23,25,27,29,-1,-1,-1,-1,-1,-1,-1,-1,-1,-1,-1,-1,-1,-1,-1,-1],"loss_changes":[1.7362011E1,1.4434942E1,4.9229975E0,4.300948E0,6.1651163E0,3.3517265E0,5.312835E0,4.132412E0,3.4232512E0,5.081311E0,5.8791304E0,3.0026913E0,1.4074194E0,5.021118E0,3.5221703E0,0E0,0E0,0E0,0E0,0E0,0E0,0E0,0E0,0E0,0E0,0E0,0E0,0E0,0E0,0E0,0E0],"parents":[2147483647,0,0,1,1,2,2,3,3,4,4,5,5,6,6,7,7,8,8,9,9,10,10,11,11,12,12,13,13,14,14],"right_children":[2,4,6,8,10,12,14,16,18,20,22,24,26,28,30,-1,-1,-1,-1,-1,-1,-1,-1,-1,-1,-1,-1,-1,-1,-1,-1],"split_conditions":[1.2614831E-1,1.4388356E-2,9.090783E-2,8.9999384E-1,-2.2183986E0,2.3442955E0,3.3333126E-1,1.9838141E-1,-1.4800003E0,-1.12855874E-1,8.56151E-2,-5.5925494E-1,2.7317555E0,-1.7361034E-3,2.2949222E-1,-6.482036E-3,-5.2248757E-2,1.1142007E-2,-3.8655203E-2,3.4207623E-2,-3.6936015E-2,7.86825E-3,3.4724917E-2,-4.05665E-3,3.7218105E-2,-4.650852E-2,1.1779827E-2,4.5200074E-3,3.4873284E-2,-1.7424332E-2,3.0445604E-2],"split_indices":[9,0,12,14,5,7,13,2,6,2,9,7,7,8,9,0,0,0,0,0,0,0,0,0,0,0,0,0,0,0,0],"split_type":[0,0,0,0,0,0,0,0,0,0,0,0,0,0,0,0,0,0,0,0,0,0,0,0,0,0,0,0,0,0,0],"sum_hessian":[5.804443E2,4.529862E2,1.274581E2,3.485935E2,1.04392685E2,4.7321243E1,8.0136856E1,3.270529E2,2.1540625E1,1.1725097E1,9.266759E1,4.478977E1,2.531476E0,5.4985207E1,2.515165E1,3.2301892E2,4.0339513E0,3.7566445E0,1.778398E1,2.4581532E0,9.266943E0,6.2913486E1,2.9754105E1,4.7282066E0,4.006156E1,1.1411185E0,1.3903574E0,3.1491392E1,2.3493816E1,2.146061E1,3.6910381E0],"tree_param":{"num_deleted":"0","num_feature":"16","num_nodes":"31","size_leaf_vector":"1"}},{"base_weights":[-2.3135745E-3,-1.9088985E-1,1.7018941E-1,-3.8030604E-1,4.0555123E-2,8.077051E-2,4.8942235E-1,3.819026E-2,-4.756774E-1,5.941906E-1,-1.585195E-2,1.2387746E-1,-5.288976E-1,9.8184323E-1,3.1931898E-1,-2.5116086E-2,2.3890806E-2,-4.2588066E-2,-1.1597362E-2,3.300776E-3,5.6382664E-2,-3.2524236E-3,3.8892284E-2,-9.82101E-4,1.6085964E-2,2.026937E-2,-3.93071E-2,2.6918178E-2,6.440376E-2,-1.0061258E-2,2.6117403E-2],"categories":[],"categories_nodes":[],"categories_segments":[],"categories_sizes":[],"default_left":[0,0,0,0,0,0,0,0,0,0,0,0,0,0,0,0,0,0,0,0,0,0,0,0,0,0,0,0,0,0,0],"id":18,"left_children":[1,3,5,7,9,11,13,15,17,19,21,23,25,27,29,-1,-1,-1,-1,-1,-1,-1,-1,-1,-1,-1,-1,-1,-1,-1,-1],"loss_changes":[1.8869612E1,1.2164104E1,8.608375E0,6.1045227E0,3.9325721E0,6.3166866E0,5.22256E0,7.1851463E0,1.1192915E1,3.2057815E0,4.540383E0,6.337144E0,4.1394105E0,1.5456505E0,5.45336E0,0E0,0E0,0E0,0E0,0E0,0E0,0E0,0E0,0E0,0E0,0E0,0E0,0E0,0E0,0E0,0E0],"parents":[2147483647,0,0,1,1,2,2,3,3,4,4,5,5,6,6,7,7,8,8,9,9,10,10,11,11,12,12,13,13,14,14],"right_children":[2,4,6,8,10,12,14,16,18,20,22,24,26,28,30,-1,-1,-1,-1,-1,-1,-1,-1,-1,-1,-1,-1,-1,-1,-1,-1],"split_conditions":[7.605853E-2,4.1125022E-2,1.5871564E-1,-1.8377613E0,-2.2838483E-2,7.284176E-2,-5.213896E-2,-4.166593E-3,-3.324736E-2,1.3410698E0,4.7578588E-1,4.47805E-2,1.1764733E-1,-7.622972E-2,-2.520812E-1,-2.5116086E-2,2.3890806E-2,-4.2588066E-2,-1.1597362E-2,3.300776E-3,5.6382664E-2,-3.2524236E-3,3.8892284E-2,-9.82101E-4,1.6085964E-2,2.026937E-2,-3.93071E-2,2.6918178E-2,6.440376E-2,-1.0061258E-2,2.6117403E-2],"split_indices":[9,3,9,6,0,15,10,0,2,6,3,3,14,15,3,0,0,0,0,0,0,0,0,0,0,0,0,0,0,0,0],"split_type":[0,0,0,0,0,0,0,0,0,0,0,0,0,0,0,0,0,0,0,0,0,0,0,0,0,0,0,0,0,0,0],"sum_hessian":[5.780698E2,2.7611774E2,3.019521E2,1.5149223E2,1.24625496E2,2.3685945E2,6.509263E1,2.8227503E1,1.23264725E2,1.0641841E1,1.1398365E2,2.2196228E2,1.4897167E1,1.5487336E1,4.9605293E1,1.2597049E1,1.5630454E1,4.749053E1,7.57742E1,5.912095E0,4.7297463E0,1.0819532E2,5.7883306E0,1.2916408E2,9.27982E1,3.0918834E0,1.1805284E1,7.452615E0,8.034721E0,1.3921356E1,3.5683937E1],"tree_param":{"num_deleted":"0","num_feature":"16","num_nodes":"31","size_leaf_vector":"1"}},{"base_weights":[1.8437188E-3,-1.9712892E-1,1.3419753E-1,-4.3936056E-1,1.3530266E-2,3.9426216E-1,6.6389546E-2,-4.9896023E-1,4.060911E-1,-1.6846046E-1,3.3271793E-1,8.811894E-2,6.329913E-1,9.807278E-2,-4.8328334E-1,-2.7406234E-2,-2.8552117E-3,6.6374004E-2,-8.774678E-3,-1.2826877E-2,3.2570075E-2,5.5806328E-2,1.0605889E-2,-2.4044048E-2,2.5782956E-2,3.5364132E-2,-1.2614392E-2,4.4569722E-4,1.641599E-2,-4.5868907E-2,1.2458119E-2],"categories":[],"categories_nodes":[],"categories_segments":[],"categories_sizes":[],"default_left":[0,0,0,0,0,0,0,0,0,0,0,0,0,0,0,0,0,0,0,0,0,0,0,0,0,0,0,0,0,0,0],"id":19,"left_children":[1,3,5,7,9,11,13,15,17,19,21,23,25,27,29,-1,-1,-1,-1,-1,-1,-1,-1,-1,-1,-1,-1,-1,-1,-1,-1],"loss_changes":[1.5426424E1,1.1946761E1,6.177152E0,5.688696E0,7.3827558E0,5.246441E0,4.927625E0,2.1878548E0,4.3703732E0,6.015618E0,4.1222014E0,8.263218E0,2.8486748E0,5.4532347E0,5.1379337E0,0E0,0E0,0E0,0E0,0E0,0E0,0E0,0E0,0E0,0E0,0E0,0E0,0E0,0E0,0E0,0E0],"parents":[2147483647,0,0,1,1,2,2,3,3,4,4,5,5,6,6,7,7,8,8,9,9,10,10,11,11,12,12,13,13,14,14],"right_children":[2,4,6,8,10,12,14,16,18,20,22,24,26,28,30,-1,-1,-1,-1,-1,-1,-1,-1,-1,-1,-1,-1,-1,-1,-1,-1],"split_conditions":[6.820629E-2,-6.1131706E-3,-4.7776036E-2,1.7126988E0,3.3333614E-1,1.0435345E-1,6.6666764E-1,6.249973E-1,-1.8779552E-2,6.1538404E-1,-1.5081331E-2,-1.9727473E0,7.499922E-1,5.9105534E-2,4.5870747E-3,-2.7406234E-2,-2.8552117E-3,6.6374004E-2,-8.774678E-3,-1.2826877E-2,3.2570075E-2,5.5806328E-2,1.0605889E-2,-2.4044048E-2,2.5782956E-2,3.5364132E-2,-1.2614392E-2,4.4569722E-4,1.641599E-2,-4.5868907E-2,1.2458119E-2],"split_indices":[9,1,10,5,11,9,12,11,8,12,15,5,11,10,8,0,0,0,0,0,0,0,0,0,0,0,0,0,0,0,0],"split_type":[0,0,0,0,0,0,0,0,0,0,0,0,0,0,0,0,0,0,0,0,0,0,0,0,0,0,0,0,0,0,0],"sum_hessian":[5.837767E2,2.3300371E2,3.5077298E2,1.0787516E2,1.2512855E2,7.154838E1,2.792246E2,1.0115418E2,6.720981E0,7.999191E1,4.513664E1,3.1947905E1,3.960047E1,2.64784E2,1.4440616E1,9.080949E1,1.0344689E1,2.104444E0,4.616537E0,7.285252E1,7.139386E0,4.920261E0,4.0216377E1,1.3652909E1,1.8294994E1,3.6720043E1,2.8804276E0,1.9162105E2,7.316294E1,8.9084215E0,5.5321937E0],"tree_param":{"num_deleted":"0","num_feature":"16","num_nodes":"31","size_leaf_vector":"1"}},{"base_weights":[-1.6845766E-2,-4.414943E-2,7.143272E-1,5.4380816E-1,-6.620635E-2,1.0833108E0,2.0896311E-1,7.317397E-2,8.9641035E-1,-1.996362E-1,2.6995216E-2,5.240063E-1,6.731209E-2,4.9863078E-2,-2.0437235E-1,4.7191884E-2,-1.8222375E-2,5.4820705E-2,-2.4981026E-2,2.3124935E-2,-1.2488337E-2,6.514489E-2,1.3328998E-4,4.0697325E-2,-8.071991E-3,-2.2634557E-2,2.7738115E-2],"categories":[],"categories_nodes":[],"categories_segments":[],"categories_sizes":[],"default_left":[0,0,0,0,0,0,0,0,0,0,0,0,0,0,0,0,0,0,0,0,0,0,0,0,0,0,0],"id":20,"left_children":[1,3,5,7,9,11,13,15,17,19,21,23,-1,-1,25,-1,-1,-1,-1,-1,-1,-1,-1,-1,-1,-1,-1],"loss_changes":[1.1677804E1,7.3413568E0,3.7004213E0,3.3324704E0,6.7684746E0,1.0493479E0,3.503144E0,4.100607E0,3.791523E0,7.543172E0,9.963053E0,1.2151328E0,0E0,0E0,1.6597989E0,0E0,0E0,0E0,0E0,0E0,0E0,0E0,0E0,0E0,0E0,0E0,0E0],"parents":[2147483647,0,0,1,1,2,2,3,3,4,4,5,5,6,6,7,7,8,8,9,9,10,10,11,11,14,14],"right_children":[2,4,6,8,10,12,14,16,18,20,22,24,-1,-1,26,-1,-1,-1,-1,-1,-1,-1,-1,-1,-1,-1,-1],"split_conditions":[6.290128E-2,-1.14173114E-1,1.8938911E0,-5.1020373E-2,-4.090928E-2,4.0000062E-2,4.1667596E-2,5.6976773E-2,3.5211165E-2,-6.2332964E0,-2.8914403E-2,2.18415E0,6.731209E-2,4.9863078E-2,4.462063E0,4.7191884E-2,-1.8222375E-2,5.4820705E-2,-2.4981026E-2,2.3124935E-2,-1.2488337E-2,6.514489E-2,1.3328998E-4,4.0697325E-2,-8.071991E-3,-2.2634557E-2,2.7738115E-2],"split_indices":[8,10,5,8,4,12,12,7,8,6,1,7,0,0,5,0,0,0,0,0,0,0,0,0,0,0,0],"split_type":[0,0,0,0,0,0,0,0,0,0,0,0,0,0,0,0,0,0,0,0,0,0,0,0,0,0,0],"sum_hessian":[5.8237213E2,5.6231366E2,2.0058456E1,1.9476845E1,5.4283685E2,1.093258E1,9.125875E0,8.859368E0,1.0617476E1,2.2277057E2,3.2006625E2,4.4530454E0,6.4795346E0,2.6531558E0,6.4727197E0,2.5765283E0,6.2828403E0,9.474696E0,1.142781E0,1.5100044E1,2.0767053E2,5.005613E0,3.1506067E2,2.9976044E0,1.4554409E0,5.1814895E0,1.2912302E0],"tree_param":{"num_deleted":"0","num_feature":"16","num_nodes":"27","size_leaf_vector":"1"}},{"base_weights":[1.9382138E-2,-1.2528521E-1,2.1064095E-1,-3.3656687E-1,6.307878E-2,3.568072E-1,9.0693384E-2,-4.8615187E-1,-1.02916226E-1,-5.1475644E-1,1.19089514E-1,4.7425613E-2,4.9102563E-1,2.519047E-1,-1.8558905E-1,-2.7472734E-2,3.6758312E-3,2.7673712E-3,-2.550973E-2,1.6182182E-2,-3.0725861E-2,3.1610887E-2,2.9370727E-3,-3.65355E-2,1.3138145E-2,6.729166E-2,2.0831442E-2,1.4968202E-4,2.4324607E-2,-2.1833617E-2,7.158369E-3],"categories":[],"categories_nodes":[],"categories_segments":[],"categories_sizes":[],"default_left":[0,0,0,0,0,0,0,0,0,0,0,0,0,0,0,0,0,0,0,0,0,0,0,0,0,0,0,0,0,0,0],"id":21,"left_children":[1,3,5,7,9,11,13,15,17,19,21,23,25,27,29,-1,-1,-1,-1,-1,-1,-1,-1,-1,-1,-1,-1,-1,-1,-1,-1],"loss_changes":[1.6005716E1,1.313209E1,4.334632E0,5.382353E0,5.7253685E0,4.624584E0,6.2000484E0,3.3881798E0,4.020487E0,1.5080552E0,4.928417E0,6.0521765E0,4.396961E0,5.1176715E0,4.312228E0,0E0,0E0,0E0,0E0,0E0,0E0,0E0,0E0,0E0,0E0,0E0,0E0,0E0,0E0,0E0,0E0],"parents":[2147483647,0,0,1,1,2,2,3,3,4,4,5,5,6,6,7,7,8,8,9,9,10,10,11,11,12,12,13,13,14,14],"right_children":[2,4,6,8,10,12,14,16,18,20,22,24,26,28,30,-1,-1,-1,-1,-1,-1,-1,-1,-1,-1,-1,-1,-1,-1,-1,-1],"split_conditions":[8.60933E-2,-6.1131706E-3,1.3333501E-1,6.2652886E-2,-6.2303394E-1,-3.7500624E-2,2.6253946E0,1.8803825E0,5.714307E-1,-2.1216456E-2,-1.8601825E-2,1.04887106E-1,-1.7100674E-1,-2.3225622E0,1.4097068E-1,-2.7472734E-2,3.6758312E-3,2.7673712E-3,-2.550973E-2,1.6182182E-2,-3.0725861E-2,3.1610887E-2,2.9370727E-3,-3.65355E-2,1.3138145E-2,6.729166E-2,2.0831442E-2,1.4968202E-4,2.4324607E-2,-2.1833617E-2,7.158369E-3],"split_indices":[9,1,12,9,7,15,5,6,14,8,15,9,2,5,9,0,0,0,0,0,0,0,0,0,0,0,0,0,0,0,0],"split_type":[0,0,0,0,0,0,0,0,0,0,0,0,0,0,0,0,0,0,0,0,0,0,0,0,0,0,0,0,0,0,0],"sum_hessian":[5.765192E2,3.2843634E2,2.480829E2,1.5443025E2,1.7400609E2,1.1093028E2,1.3715263E2,9.349398E1,6.093628E1,1.4652554E1,1.5935353E2,3.3973244E1,7.695704E1,8.666921E1,5.048341E1,8.401005E1,9.483928E0,4.4505905E1,1.6430374E1,1.3194615E0,1.3333092E1,1.5771895E1,1.4358163E2,6.8450117E0,2.7128233E1,4.7932634E0,7.216377E1,4.2542202E1,4.4127014E1,2.8436876E1,2.2046535E1],"tree_param":{"num_deleted":"0","num_feature":"16","num_nodes":"31","size_leaf_vector":"1"}},{"base_weights":[9.863585E-4,-7.2982855E-2,2.9191804E-1,-2.1324249E-1,1.0024673E-1,-5.2879024E-1,3.4239733E-1,4.3500277E-1,-2.9762152E-1,1.20862395E-1,-5.2709866E-2,1.5214212E-1,-9.5345056E-1,3.8479877E-1,-3.2143408E-1,-1.8402038E-2,3.2521065E-2,-8.679858E-3,-3.2116022E-2,-4.3128524E-3,1.12874685E-2,-1.5312617E-2,2.7594654E-2,-5.978942E-2,-1.6268698E-2,5.08761E-3,2.7077217E-2,1.7422413E-2,-2.9930264E-2],"categories":[],"categories_nodes":[],"categories_segments":[],"categories_sizes":[],"default_left":[0,0,0,0,0,0,0,0,0,0,0,0,0,0,0,0,0,0,0,0,0,0,0,0,0,0,0,0,0],"id":22,"left_children":[1,3,5,7,9,11,13,15,17,19,-1,21,23,25,27,-1,-1,-1,-1,-1,-1,-1,-1,-1,-1,-1,-1,-1,-1],"loss_changes":[1.2357524E1,1.1145618E1,5.003478E0,1.3985461E1,5.0188417E0,2.2090483E0,3.2273579E0,5.3567247E0,9.496155E0,4.42549E0,0E0,8.2943106E-1,3.0098724E-1,4.563423E0,1.5389318E0,0E0,0E0,0E0,0E0,0E0,0E0,0E0,0E0,0E0,0E0,0E0,0E0,0E0,0E0],"parents":[2147483647,0,0,1,1,2,2,3,3,4,4,5,5,6,6,7,7,8,8,9,9,11,11,12,12,13,13,14,14],"right_children":[2,4,6,8,10,12,14,16,18,20,-1,22,24,26,28,-1,-1,-1,-1,-1,-1,-1,-1,-1,-1,-1,-1,-1,-1],"split_conditions":[1.2958595E-1,4.1125022E-2,-6.366478E-1,-2.520812E-1,5.193391E0,2.5323495E-2,7.7419335E-1,-4.5848187E-2,3.8545843E-2,1.500012E-1,-5.2709866E-2,-3.3736458E-1,5.736667E-2,1.1110806E-1,-3.2558236E-2,-1.8402038E-2,3.2521065E-2,-8.679858E-3,-3.2116022E-2,-4.3128524E-3,1.12874685E-2,-1.5312617E-2,2.7594654E-2,-5.978942E-2,-1.6268698E-2,5.08761E-3,2.7077217E-2,1.7422413E-2,-2.9930264E-2],"split_indices":[9,3,7,3,5,15,11,15,2,11,0,4,15,11,8,0,0,0,0,0,0,0,0,0,0,0,0,0,0],"split_type":[0,0,0,0,0,0,0,0,0,0,0,0,0,0,0,0,0,0,0,0,0,0,0,0,0,0,0,0,0],"sum_hessian":[5.7224475E2,4.5684204E2,1.1540269E2,2.5231665E2,2.045254E2,6.1377535E0,1.0926493E2,2.8581656E1,2.23735E2,2.0181674E2,2.708667E0,2.604014E0,3.5337398E0,1.0309989E2,6.1650443E0,5.8955507E0,2.2686104E1,1.6564038E2,5.8094604E1,6.79043E1,1.3391245E2,1.3219852E0,1.2820287E0,1.8976564E0,1.6360834E0,3.7333424E1,6.5766464E1,1.7290423E0,4.436002E0],"tree_param":{"num_deleted":"0","num_feature":"16","num_nodes":"29","size_leaf_vector":"1"}},{"base_weights":[-5.4226806E-3,-1.4591703E-1,1.775179E-1,-3.1085187E-1,-6.28439E-3,8.0930954E-1,1.3935204E-1,-3.6803734E-1,5.0007993E-1,6.216016E-1,-7.5452164E-2,5.0354585E-2,1.1375889E0,-1.1977117E-1,2.0378564E-1,-2.6417991E-2,-6.167795E-3,-4.5378856E-2,3.925118E-2,-2.6192263E-2,4.9316958E-2,-1.0993382E-2,7.5232955E-3,3.960405E-2,-2.0240363E-2,1.2953341E-2,6.0501654E-2,-1.4228426E-2,2.0885793E-2,2.7372349E-2,4.8980745E-3],"categories":[],"categories_nodes":[],"categories_segments":[],"categories_sizes":[],"default_left":[0,0,0,0,0,0,0,0,0,0,0,0,0,0,0,0,0,0,0,0,0,0,0,0,0,0,0,0,0,0,0],"id":23,"left_children":[1,3,5,7,9,11,13,15,17,19,21,23,25,27,29,-1,-1,-1,-1,-1,-1,-1,-1,-1,-1,-1,-1,-1,-1,-1,-1],"loss_changes":[1.4832695E1,7.515062E0,5.9322057E0,7.1224537E0,7.767662E0,3.4491196E0,3.9917994E0,5.4400787E0,4.8357534E0,7.931929E0,5.286797E0,2.1084864E0,3.0881977E-1,4.366128E0,6.8806524E0,0E0,0E0,0E0,0E0,0E0,0E0,0E0,0E0,0E0,0E0,0E0,0E0,0E0,0E0,0E0,0E0],"parents":[2147483647,0,0,1,1,2,2,3,3,4,4,5,5,6,6,7,7,8,8,9,9,10,10,11,11,12,12,13,13,14,14],"right_children":[2,4,6,8,10,12,14,16,18,20,22,24,26,28,30,-1,-1,-1,-1,-1,-1,-1,-1,-1,-1,-1,-1,-1,-1,-1,-1],"split_conditions":[8.56151E-2,-7.1479217E-3,-7.5379376E0,6.355511E-2,-1.946769E-2,-1.621372E-1,-3.33639E0,6.2652886E-2,4.162308E-2,3.4990102E-2,3.3333614E-1,-2.1428494E-1,-6.666656E-1,-1.1751609E-2,-1.8036196E-2,-2.6417991E-2,-6.167795E-3,-4.5378856E-2,3.925118E-2,-2.6192263E-2,4.9316958E-2,-1.0993382E-2,7.5232955E-3,3.960405E-2,-2.0240363E-2,1.2953341E-2,6.0501654E-2,-1.4228426E-2,2.0885793E-2,2.7372349E-2,4.8980745E-3],"split_indices":[9,1,6,2,15,1,6,9,9,9,11,13,13,15,0,0,0,0,0,0,0,0,0,0,0,0,0,0,0,0,0],"split_type":[0,0,0,0,0,0,0,0,0,0,0,0,0,0,0,0,0,0,0,0,0,0,0,0,0,0,0,0,0,0,0],"sum_hessian":[5.750923E2,3.2539694E2,2.4969533E2,1.4862E2,1.7677696E2,1.3073506E1,2.3662183E2,1.3934013E2,9.279864E0,1.674883E1,1.6002812E2,4.295666E0,8.777841E0,4.6950207E1,1.8967162E2,8.348133E1,5.58588E1,1.1943779E0,8.085486E0,3.939797E0,1.2809033E1,9.763981E1,6.238832E1,1.3520927E0,2.9435732E0,1.0172967E0,7.760544E0,3.6293053E1,1.0657151E1,4.3672634E1,1.45999E2],"tree_param":{"num_deleted":"0","num_feature":"16","num_nodes":"31","size_leaf_vector":"1"}},{"base_weights":[1.2530143E-2,-1.3447964E-1,1.11511275E-1,-3.0729795E-1,3.2840658E-2,1.4545536E-1,-4.6117356E-1,-3.7192103E-1,3.2404697E-1,-1.4806451E-1,3.2696405E-1,8.141673E-2,4.5617804E-1,4.1004848E-2,-6.785497E-1,5.896197E-3,-2.3105465E-2,-4.286683E-2,3.516818E-2,-1.2413363E-2,3.591877E-2,4.2411E-2,4.5891237E-3,6.5415236E-3,-1.7939577E-2,5.5757552E-2,1.3107518E-2,-4.5341227E-2,4.9706027E-2],"categories":[],"categories_nodes":[],"categories_segments":[],"categories_sizes":[],"default_left":[0,0,0,0,0,0,0,0,0,0,0,0,0,0,0,0,0,0,0,0,0,0,0,0,0,0,0,0,0],"id":24,"left_children":[1,3,5,7,9,11,13,15,17,19,21,23,25,-1,27,-1,-1,-1,-1,-1,-1,-1,-1,-1,-1,-1,-1,-1,-1],"loss_changes":[8.413151E0,6.7383685E0,6.782603E0,4.7944117E0,6.386905E0,6.467433E0,6.0071187E0,4.6660967E0,5.6091638E0,6.6418433E0,5.521847E0,5.969017E0,6.82193E0,0E0,7.499027E0,0E0,0E0,0E0,0E0,0E0,0E0,0E0,0E0,0E0,0E0,0E0,0E0,0E0,0E0],"parents":[2147483647,0,0,1,1,2,2,3,3,4,4,5,5,6,6,7,7,8,8,9,9,10,10,11,11,12,12,14,14],"right_children":[2,4,6,8,10,12,14,16,18,20,22,24,26,-1,28,-1,-1,-1,-1,-1,-1,-1,-1,-1,-1,-1,-1,-1,-1],"split_conditions":[6.820629E-2,-3.302338E-3,5.279391E0,2.135784E0,3.3333614E-1,2.738682E0,1.930738E-2,-1.5979424E0,4.162308E-2,5.625015E-1,4.615409E-1,2.6253946E0,-1.986744E-2,4.1004848E-2,9.352999E0,5.896197E-3,-2.3105465E-2,-4.286683E-2,3.516818E-2,-1.2413363E-2,3.591877E-2,4.2411E-2,4.5891237E-3,6.5415236E-3,-1.7939577E-2,5.5757552E-2,1.3107518E-2,-4.5341227E-2,4.9706027E-2],"split_indices":[9,1,6,6,11,6,1,6,9,12,11,5,10,0,5,0,0,0,0,0,0,0,0,0,0,0,0,0,0],"split_type":[0,0,0,0,0,0,0,0,0,0,0,0,0,0,0,0,0,0,0,0,0,0,0,0,0,0,0,0,0],"sum_hessian":[5.761453E2,2.3168341E2,3.4446188E2,1.1355771E2,1.181257E2,3.2589172E2,1.8570187E1,1.0338623E2,1.0171479E1,7.344736E1,4.4678345E1,2.712502E2,5.4641495E1,2.2913976E0,1.627879E1,1.6027512E1,8.735872E1,2.165817E0,8.005663E0,6.647326E1,6.9740915E0,1.3080375E1,3.1597971E1,2.4450691E2,2.6743298E1,1.1349156E1,4.3292336E1,1.4726829E1,1.5519602E0],"tree_param":{"num_deleted":"0","num_feature":"16","num_nodes":"29","size_leaf_vector":"1"}},{"base_weights":[-2.0004846E-2,-9.810173E-2,2.9699033E-1,-1.6722023E-1,2.9755405E-1,3.562207E-1,-1.6665456E-1,5.715015E-1,-1.9407427E-1,3.928338E-1,-2.134522E-1,-8.626893E-2,4.374531E-1,-3.8905212E-1,4.8386533E-2,-1.6294865E-2,3.8088243E-2,-1.5299642E-2,1.7757964E-3,6.6497154E-3,3.539299E-2,9.670211E-3,-4.357585E-2,-1.9821335E-2,2.9326191E-2,2.4258267E-2,-2.3186537E-2,3.018239E-2,-4.0936317E-2],"categories":[],"categories_nodes":[],"categories_segments":[],"categories_sizes":[],"default_left":[0,0,0,0,0,0,0,0,0,0,0,0,0,0,0,0,0,0,0,0,0,0,0,0,0,0,0,0,0],"id":25,"left_children":[1,3,5,7,9,11,13,15,17,19,21,23,25,27,-1,-1,-1,-1,-1,-1,-1,-1,-1,-1,-1,-1,-1,-1,-1],"loss_changes":[1.438467E1,1.2793598E1,3.2139206E0,7.993249E0,3.4755435E0,3.710433E0,3.8311768E0,2.6712632E0,9.881777E0,4.7407446E0,3.2730768E0,3.7138934E0,3.943985E0,5.681877E0,0E0,0E0,0E0,0E0,0E0,0E0,0E0,0E0,0E0,0E0,0E0,0E0,0E0,0E0,0E0],"parents":[2147483647,0,0,1,1,2,2,3,3,4,4,5,5,6,6,7,7,8,8,9,9,10,10,11,11,12,12,13,13],"right_children":[2,4,6,8,10,12,14,16,18,20,22,24,26,28,-1,-1,-1,-1,-1,-1,-1,-1,-1,-1,-1,-1,-1,-1,-1],"split_conditions":[2.4559693E-1,1.3906278E-1,5.4743466E0,-3.1009942E-1,4.1125022E-2,-4.468807E-2,9.352999E0,6.820629E-2,4.1125022E-2,4.4444656E-1,4.2104692E0,1.0437186E0,5.39442E-1,4.7578588E-1,4.8386533E-2,-1.6294865E-2,3.8088243E-2,-1.5299642E-2,1.7757964E-3,6.6497154E-3,3.539299E-2,9.670211E-3,-4.357585E-2,-1.9821335E-2,2.9326191E-2,2.4258267E-2,-2.3186537E-2,3.018239E-2,-4.0936317E-2],"split_indices":[3,9,6,3,3,4,5,9,3,14,6,6,4,3,0,0,0,0,0,0,0,0,0,0,0,0,0,0,0],"split_type":[0,0,0,0,0,0,0,0,0,0,0,0,0,0,0,0,0,0,0,0,0,0,0,0,0,0,0,0,0],"sum_hessian":[5.7887317E2,4.6500278E2,1.13870415E2,3.963418E2,6.866098E1,1.01176834E2,1.26935835E1,1.3191031E1,3.8315076E2,5.8065605E1,1.0595377E1,1.568351E1,8.5493324E1,1.1162248E1,1.531335E0,2.1827881E0,1.1008244E1,2.5736163E2,1.25789116E2,3.259927E1,2.5466337E1,6.983714E0,3.6116629E0,1.1015934E1,4.667576E0,8.163298E1,3.8603399E0,3.2496066E0,7.9126415E0],"tree_param":{"num_deleted":"0","num_feature":"16","num_nodes":"29","size_leaf_vector":"1"}},{"base_weights":[-2.455919E-2,-1.4611682E-1,1.2422022E-1,-1.7189115E-1,6.9210505E-1,4.126582E-1,3.711236E-2,-3.2349443E-1,-4.5084115E-2,6.501348E-2,2.2873797E-2,2.31758E-1,8.77504E-1,8.041404E-2,-6.2153816E-1,-3.547054E-2,-1.0919641E-2,3.4440905E-2,-5.029409E-3,3.0900935E-2,-2.8716255E-2,-1.27950525E-2,2.3031052E-2,2.214424E-3,5.1051717E-2,1.7728544E-3,3.2944463E-2,-5.4026198E-2,2.1380808E-2],"categories":[],"categories_nodes":[],"categories_segments":[],"categories_sizes":[],"default_left":[0,0,0,0,0,0,0,0,0,0,0,0,0,0,0,0,0,0,0,0,0,0,0,0,0,0,0,0,0],"id":26,"left_children":[1,3,5,7,9,11,13,15,17,-1,19,21,23,25,27,-1,-1,-1,-1,-1,-1,-1,-1,-1,-1,-1,-1,-1,-1],"loss_changes":[1.0504304E1,7.0229497E0,6.5488143E0,5.9609003E0,3.931181E0,4.8840876E0,5.8042245E0,5.5807495E0,7.0111923E0,0E0,2.3635106E0,5.1301584E0,1.9387531E0,4.92298E0,6.5104904E0,0E0,0E0,0E0,0E0,0E0,0E0,0E0,0E0,0E0,0E0,0E0,0E0,0E0,0E0],"parents":[2147483647,0,0,1,1,2,2,3,3,4,4,5,5,6,6,7,7,8,8,10,10,11,11,12,12,13,13,14,14],"right_children":[2,4,6,8,10,12,14,16,18,-1,20,22,24,26,28,-1,-1,-1,-1,-1,-1,-1,-1,-1,-1,-1,-1,-1,-1],"split_conditions":[8.365566E-2,4.7578588E-1,-4.489787E-2,-7.1479217E-3,1.5650439E-3,1.6273195E-1,5.4743466E0,-1.7575005E-1,-1.8598874E-1,6.501348E-2,1.2793125E0,-2.2278309E-1,-4.5462286E-1,4.7900457E0,1.0484679E-1,-3.547054E-2,-1.0919641E-2,3.4440905E-2,-5.029409E-3,3.0900935E-2,-2.8716255E-2,-1.27950525E-2,2.3031052E-2,2.214424E-3,5.1051717E-2,1.7728544E-3,3.2944463E-2,-5.4026198E-2,2.1380808E-2],"split_indices":[9,3,10,1,15,9,6,3,3,0,6,3,7,5,15,0,0,0,0,0,0,0,0,0,0,0,0,0,0],"split_type":[0,0,0,0,0,0,0,0,0,0,0,0,0,0,0,0,0,0,0,0,0,0,0,0,0,0,0,0,0],"sum_hessian":[5.7881726E2,3.1856067E2,2.6025656E2,3.0982874E2,8.731932E0,5.9499638E1,2.0075693E2,1.4041066E2,1.6941808E2,4.08068E0,4.6512523E0,4.3910084E1,1.5589556E1,1.8919649E2,1.1560441E1,2.8823956E1,1.115867E2,1.11097145E1,1.5830836E2,2.312171E0,2.339081E0,1.3987505E1,2.9922579E1,2.4831364E0,1.310642E1,1.7653792E2,1.2658581E1,8.021348E0,3.539093E0],"tree_param":{"num_deleted":"0","num_feature":"16","num_nodes":"29","size_leaf_vector":"1"}},{"base_weights":[8.471491E-3,-1.2647177E-1,1.1075244E-1,1.811694E-1,-2.341401E-1,2.61274E-1,-9.633195E-2,8.885421E-2,9.024562E-1,-1.6367333E-1,-8.3497506E-1,6.275114E-2,2.2642566E-1,-3.759647E-1,9.730875E-2,-6.696586E-4,3.219748E-2,5.9976358E-2,-1.03261685E-2,-9.460149E-3,4.8468616E-2,-4.7169082E-2,2.5606379E-2,7.882367E-3,3.7117757E-2,-3.1557746E-2,-1.9245765E-3,3.0913085E-2,-2.3412553E-3],"categories":[],"categories_nodes":[],"categories_segments":[],"categories_sizes":[],"default_left":[0,0,0,0,0,0,0,0,0,0,0,0,0,0,0,0,0,0,0,0,0,0,0,0,0,0,0,0,0],"id":27,"left_children":[1,3,5,7,9,11,13,15,17,19,21,-1,23,25,27,-1,-1,-1,-1,-1,-1,-1,-1,-1,-1,-1,-1,-1,-1],"loss_changes":[7.909989E0,8.228001E0,1.0185535E1,4.2232885E0,7.6323004E0,6.2619534E0,7.505345E0,3.3236058E0,2.6276746E0,4.9700384E0,3.260373E0,0E0,6.4066153E0,4.8535843E0,6.207934E0,0E0,0E0,0E0,0E0,0E0,0E0,0E0,0E0,0E0,0E0,0E0,0E0,0E0,0E0],"parents":[2147483647,0,0,1,1,2,2,3,3,4,4,5,5,6,6,7,7,8,8,9,9,10,10,12,12,13,13,14,14],"right_children":[2,4,6,8,10,12,14,16,18,20,22,-1,24,26,28,-1,-1,-1,-1,-1,-1,-1,-1,-1,-1,-1,-1,-1,-1],"split_conditions":[-4.090928E-2,-1.2149084E-1,1.8406929E-1,7.0588183E-1,2.020202E-2,-2.8914403E-2,6.0778394E-2,4.285726E-1,-3.9392204E0,2.8949292E0,-3.302338E-3,6.275114E-2,2.8011398E-2,3.3333397E-1,5.263034E-2,-6.696586E-4,3.219748E-2,5.9976358E-2,-1.03261685E-2,-9.460149E-3,4.8468616E-2,-4.7169082E-2,2.5606379E-2,7.882367E-3,3.7117757E-2,-3.1557746E-2,-1.9245765E-3,3.0913085E-2,-2.3412553E-3],"split_indices":[4,2,4,13,8,1,1,12,6,6,1,0,8,11,12,0,0,0,0,0,0,0,0,0,0,0,0,0,0],"split_type":[0,0,0,0,0,0,0,0,0,0,0,0,0,0,0,0,0,0,0,0,0,0,0,0,0,0,0,0,0],"sum_hessian":[5.7108453E2,2.4612527E2,3.2495926E2,6.3630604E1,1.8249467E2,1.8802762E2,1.3693163E2,5.7406517E1,6.2240877E0,1.6447699E2,1.8017683E1,5.184029E0,1.8284358E2,5.5640583E1,8.1291046E1,4.930121E1,8.105306E0,4.844661E0,1.3794265E0,1.6166734E2,2.8096557E0,1.6953098E1,1.0645849E0,1.6248795E2,2.0355637E1,3.118722E1,2.4453365E1,1.6904055E1,6.4386986E1],"tree_param":{"num_deleted":"0","num_feature":"16","num_nodes":"29","size_leaf_vector":"1"}},{"base_weights":[4.0265084E-3,-1.9894116E-2,6.34207E-1,-7.165186E-2,1.9740428E-1,4.6792772E-1,1.1210184E0,4.3102935E-1,-1.04689226E-1,2.5938323E-1,-2.9453698E-1,6.620362E-1,-4.9921375E-2,6.2287796E-2,1.6906995E-2,8.668684E-3,5.6205135E-2,5.2807003E-2,-5.7042055E-3,1.5876215E-2,-1.671408E-2,2.7577281E-2,-3.1189376E-2,1.5790652E-2,5.5283595E-2],"categories":[],"categories_nodes":[],"categories_segments":[],"categories_sizes":[],"default_left":[0,0,0,0,0,0,0,0,0,0,0,0,0,0,0,0,0,0,0,0,0,0,0,0,0],"id":28,"left_children":[1,3,5,7,9,11,13,15,17,19,21,23,-1,-1,-1,-1,-1,-1,-1,-1,-1,-1,-1,-1,-1],"loss_changes":[8.796179E0,6.3387666E0,1.2027903E0,7.599792E0,3.3828363E0,5.676985E0,3.9355278E-2,4.849628E0,4.7844095E0,3.4487414E0,3.85467E0,2.1335425E0,0E0,0E0,0E0,0E0,0E0,0E0,0E0,0E0,0E0,0E0,0E0,0E0,0E0],"parents":[2147483647,0,0,1,1,2,2,3,3,4,4,5,5,6,6,7,7,8,8,9,9,10,10,11,11],"right_children":[2,4,6,8,10,12,14,16,18,20,22,24,-1,-1,-1,-1,-1,-1,-1,-1,-1,-1,-1,-1,-1],"split_conditions":[6.290128E-2,2.587492E-1,2.6091978E-1,-3.3582643E-1,5.4743466E0,3.833595E0,1.19059496E-1,-1.3673433E0,-7.5379376E0,7.142862E-1,4.7578588E-1,-6.294341E-3,-4.9921375E-2,6.2287796E-2,1.6906995E-2,8.668684E-3,5.6205135E-2,5.2807003E-2,-5.7042055E-3,1.5876215E-2,-1.671408E-2,2.7577281E-2,-3.1189376E-2,1.5790652E-2,5.5283595E-2],"split_indices":[8,3,2,3,6,5,15,5,6,13,3,3,0,0,0,0,0,0,0,0,0,0,0,0,0],"split_type":[0,0,0,0,0,0,0,0,0,0,0,0,0,0,0,0,0,0,0,0,0,0,0,0,0],"sum_hessian":[5.8168414E2,5.6134485E2,2.0339304E1,4.5390146E2,1.0744336E2,1.662272E1,3.7165828E0,2.7248852E1,4.2665262E2,9.58412E1,1.1602157E1,1.5163916E1,1.4588046E0,2.6958046E0,1.0207782E0,2.077553E1,6.473321E0,2.5308049E0,4.241218E2,8.771583E1,8.125374E0,3.061023E0,8.541134E0,9.478533E0,5.6853833E0],"tree_param":{"num_deleted":"0","num_feature":"16","num_nodes":"25","size_leaf_vector":"1"}},{"base_weights":[-1.744768E-2,-7.614182E-2,2.2408721E-1,-4.256949E-2,-6.111287E-1,1.398115E-1,6.009295E-1,-9.076196E-2,3.0652633E-1,-8.6611426E-1,-9.630926E-2,2.1157897E-1,-4.303238E-1,7.304295E-1,-3.076444E-1,1.1298227E-2,-7.0123896E-3,3.8568135E-2,5.5670473E-3,2.9576158E-3,-5.5218857E-2,2.9816195E-2,-4.9364295E-2,7.6864026E-3,4.569805E-2,-3.4547158E-2,4.4239867E-2,5.327772E-2,2.0445196E-2,2.88858E-3,-2.655196E-2],"categories":[],"categories_nodes":[],"categories_segments":[],"categories_sizes":[],"default_left":[0,0,0,0,0,0,0,0,0,0,0,0,0,0,0,0,0,0,0,0,0,0,0,0,0,0,0,0,0,0,0],"id":29,"left_children":[1,3,5,7,9,11,13,15,17,19,21,23,25,27,29,-1,-1,-1,-1,-1,-1,-1,-1,-1,-1,-1,-1,-1,-1,-1,-1],"loss_changes":[8.220747E0,8.348927E0,3.516882E0,7.42747E0,3.5211344E0,3.9357915E0,2.6272364E0,6.1012564E0,4.775542E0,4.086096E0,6.8959374E0,3.2779448E0,4.325065E0,1.5219393E0,2.9605937E-1,0E0,0E0,0E0,0E0,0E0,0E0,0E0,0E0,0E0,0E0,0E0,0E0,0E0,0E0,0E0,0E0],"parents":[2147483647,0,0,1,1,2,2,3,3,4,4,5,5,6,6,7,7,8,8,9,9,10,10,11,11,12,12,13,13,14,14],"right_children":[2,4,6,8,10,12,14,16,18,20,22,24,26,28,30,-1,-1,-1,-1,-1,-1,-1,-1,-1,-1,-1,-1,-1,-1,-1,-1],"split_conditions":[2.4559693E-1,3.8134086E-1,5.0000215E-1,3.364135E-2,1.8978691E-1,5.4743466E0,3.333324E-1,-3.0134434E-1,4.307862E-2,9.458758E-2,5.165876E0,2.6091978E-1,9.352999E0,6.4412184E-2,2.7934833E0,1.1298227E-2,-7.0123896E-3,3.8568135E-2,5.5670473E-3,2.9576158E-3,-5.5218857E-2,2.9816195E-2,-4.9364295E-2,7.6864026E-3,4.569805E-2,-3.4547158E-2,4.4239867E-2,5.327772E-2,2.0445196E-2,2.88858E-3,-2.655196E-2],"split_indices":[3,4,11,15,2,6,12,4,15,2,6,2,5,7,6,0,0,0,0,0,0,0,0,0,0,0,0,0,0,0,0],"split_type":[0,0,0,0,0,0,0,0,0,0,0,0,0,0,0,0,0,0,0,0,0,0,0,0,0,0,0,0,0,0,0],"sum_hessian":[5.776745E2,4.6529123E2,1.1238325E2,4.3883252E2,2.6458727E1,9.296409E1,1.9419159E1,3.8625082E2,5.2581688E1,1.7238356E1,9.220371E0,8.312889E1,9.835197E0,1.7168224E1,2.2509344E0,5.1711704E1,3.3453912E2,1.4676788E1,3.79049E1,3.6839385E0,1.3554418E1,5.373665E0,3.8467066E0,7.792921E1,5.199686E0,8.604624E0,1.2305735E0,7.273267E0,9.894958E0,1.1352886E0,1.1156458E0],"tree_param":{"num_deleted":"0","num_feature":"16","num_nodes":"31","size_leaf_vector":"1"}}]},"name":"gbtree"},"learner_model_param":{"base_score":"5E-1","boost_from_average":"1","num_class":"0","num_feature":"16","num_target":"1"},"objective":{"name":"binary:logistic","reg_loss_param":{"scale_pos_weight":"0.329558074"}}},"version":[2,1,0]}