{"learner":{"attributes":{"scikit_learn":"{\"_estimator_type\": \"classifier\"}"},"feature_names":["bias_week","bias_month","bias_quarter","bias_year","rsi","macd","macd_signal","vol_change","close_change","bb_width","return_5d","return_10d","k_upper","k_lower","k_body","buy_power","rs_5d","rs_10d","dist_to_20d_high","dist_to_20d_low","kd_k","kd_d","kd_cross","gap_ratio","obv","atr_ratio","trend_strength"],"feature_types":["float","float","float","float","float","float","float","float","float","float","float","float","float","float","float","float","float","float","float","float","float","float","float","float","float","float","float"],"gradient_booster":{"model":{"gbtree_model_param":{"num_parallel_tree":"1","num_trees":"15"},"iteration_indptr":[0,1,2,3,4,5,6,7,8,9,10,11,12,13,14,15],"tree_info":[0,0,0,0,0,0,0,0,0,0,0,0,0,0,0],"trees":[{"base_weights":[-0E0,4.203404E-1,-4.2081487E-1,-1.0905177E-1,5.059774E-1,-1.2969084E-1,-9.879054E-1,8.269631E-2,-0E0,-5.3834256E-2,4.4900347E-2,1.19438365E-1,-1.1434832E-1],"categories":[],"categories_nodes":[],"categories_segments":[],"categories_sizes":[],"default_left":[0,0,0,0,0,0,0,0,0,0,0,0,0],"id":0,"left_children":[1,3,5,-1,7,9,11,-1,-1,-1,-1,-1,-1],"loss_changes":[8.547931E1,3.0611042E1,3.722934E1,0E0,3.977841E1,3.96525E1,2.966983E1,0E0,0E0,0E0,0E0,0E0,0E0],"parents":[2147483647,0,0,1,1,2,2,4,4,5,5,6,6],"right_children":[2,4,6,-1,8,10,12,-1,-1,-1,-1,-1,-1],"split_conditions":[4.6153825E-2,-2.2222279E-2,8.783886E-2,-1.0905177E-1,2.087068E-1,4.9835492E-2,-4.426457E-1,8.269631E-2,-0E0,-5.3834256E-2,4.4900347E-2,1.19438365E-1,-1.1434832E-1],"split_indices":[18,10,26,0,4,25,3,0,0,0,0,0,0],"split_type":[0,0,0,0,0,0,0,0,0,0,0,0,0],"sum_hessian":[4.815217E2,2.4094878E2,2.4057294E2,1.0904788E1,2.3004398E2,1.6229288E2,7.828007E1,1.414421E2,8.860189E1,9.725056E1,6.504231E1,4.136971E0,7.41431E1],"tree_param":{"num_deleted":"0","num_feature":"27","num_nodes":"13","size_leaf_vector":"1"}},{"base_weights":[-2.1155838E-2,-6.1499E-1,1.6523735E-1,-7.3968977E-1,4.883342E-1,3.9083332E-1,-2.1008712E-1,-3.3231493E-2,-1.3018103E-1,1.003459E-1,-0E0,4.481197E-2,-5.7279278E-2,-5.6598872E-2,5.5005763E-2],"categories":[],"categories_nodes":[],"categories_segments":[],"categories_sizes":[],"default_left":[0,0,0,0,0,0,0,0,0,0,0,0,0,0,0],"id":1,"left_children":[1,3,5,7,9,11,13,-1,-1,-1,-1,-1,-1,-1,-1],"loss_changes":[5.4501213E1,1.7157902E1,3.138152E1,2.1047695E1,4.1589756E0,1.3622505E1,3.719275E1,0E0,0E0,0E0,0E0,0E0,0E0,0E0,0E0],"parents":[2147483647,0,0,1,1,2,2,3,3,4,4,5,5,6,6],"right_children":[2,4,6,8,10,12,14,-1,-1,-1,-1,-1,-1,-1,-1],"split_conditions":[3.0057293E1,1.9502501E-1,7.4917085E-2,8.995984E-2,2.500006E-1,8.935372E-2,1.1187298E-1,-3.3231493E-2,-1.3018103E-1,1.003459E-1,-0E0,4.481197E-2,-5.7279278E-2,-5.6598872E-2,5.5005763E-2],"split_indices":[20,26,26,9,15,10,1,0,0,0,0,0,0,0,0],"split_type":[0,0,0,0,0,0,0,0,0,0,0,0,0,0,0],"sum_hessian":[4.8157693E2,1.17462555E2,3.6411438E2,1.0762608E2,9.8364725E0,2.31149E2,1.3296538E2,6.616713E1,4.145895E1,5.6954813E0,4.140991E0,2.2009416E2,1.105484E1,9.251581E1,4.0449566E1],"tree_param":{"num_deleted":"0","num_feature":"27","num_nodes":"15","size_leaf_vector":"1"}},{"base_weights":[-0E0,-6.8616295E-1,1.4344613E-1,-9.2472875E-1,5.948636E-1,-8.2476005E-2,4.62375E-1,-0E0,-1.1122122E-1,-8.050019E-3,1.0609719E-1,2.1040892E-2,-6.238186E-2,7.9602554E-2,-2.8537676E-2],"categories":[],"categories_nodes":[],"categories_segments":[],"categories_sizes":[],"default_left":[0,0,0,0,0,0,0,0,0,0,0,0,0,0,0],"id":2,"left_children":[1,3,5,7,9,11,13,-1,-1,-1,-1,-1,-1,-1,-1],"loss_changes":[4.8061005E1,2.7099213E1,2.9563707E1,1.4714291E1,6.26169E0,3.7999584E1,4.4538708E1,0E0,0E0,0E0,0E0,0E0,0E0,0E0,0E0],"parents":[2147483647,0,0,1,1,2,2,3,3,4,4,5,5,6,6],"right_children":[2,4,6,8,10,12,14,-1,-1,-1,-1,-1,-1,-1,-1],"split_conditions":[2.8285429E1,1.9752352E-1,1.5140991E-1,-1.5517267E-2,-8.161883E-2,5.557367E-2,6.527101E-2,-0E0,-1.1122122E-1,-8.050019E-3,1.0609719E-1,2.1040892E-2,-6.238186E-2,7.9602554E-2,-2.8537676E-2],"split_indices":[21,26,3,23,17,26,25,0,0,0,0,0,0,0,0],"split_type":[0,0,0,0,0,0,0,0,0,0,0,0,0,0,0],"sum_hessian":[4.809231E2,8.382438E1,3.970987E2,7.2350365E1,1.1474015E1,2.2867844E2,1.6842026E2,1.1703439E1,6.0646927E1,3.0688136E0,8.405201E0,1.4623564E2,8.2442795E1,1.1790728E2,5.051298E1],"tree_param":{"num_deleted":"0","num_feature":"27","num_nodes":"15","size_leaf_vector":"1"}},{"base_weights":[-6.133232E-4,2.7079546E-1,-4.4429854E-1,6.0357332E-2,5.763055E-1,-5.595587E-1,5.7849642E-2,3.686352E-2,-7.527667E-2,8.240431E-2,-1.9277448E-2,5.240093E-2,-6.621147E-2],"categories":[],"categories_nodes":[],"categories_segments":[],"categories_sizes":[],"default_left":[0,0,0,0,0,0,0,0,0,0,0,0,0],"id":3,"left_children":[1,3,5,7,9,11,-1,-1,-1,-1,-1,-1,-1],"loss_changes":[5.598712E1,1.674849E1,2.1353046E1,4.350289E1,2.334953E1,1.9725697E1,0E0,0E0,0E0,0E0,0E0,0E0,0E0],"parents":[2147483647,0,0,1,1,2,2,3,3,4,4,5,5],"right_children":[2,4,6,8,10,12,-1,-1,-1,-1,-1,-1,-1],"split_conditions":[6.410257E-2,4.695638E-2,2.2312E-1,9.4527966E-1,6.5425895E-2,-5.1696733E-2,5.7849642E-2,3.686352E-2,-7.527667E-2,8.240431E-2,-1.9277448E-2,5.240093E-2,-6.621147E-2],"split_indices":[18,25,9,6,25,24,0,0,0,0,0,0,0],"split_type":[0,0,0,0,0,0,0,0,0,0,0,0,0],"sum_hessian":[4.599593E2,2.8244086E2,1.7751845E2,1.7222385E2,1.10216995E2,1.6193918E2,1.5579265E1,1.2714051E2,4.5083336E1,8.501291E1,2.5204088E1,1.2424199E1,1.4951498E2],"tree_param":{"num_deleted":"0","num_feature":"27","num_nodes":"13","size_leaf_vector":"1"}},{"base_weights":[-3.1284727E-2,2.3739788E-1,-3.5760775E-1,-6.74801E-1,3.4808236E-1,-1.6115317E-1,-2.4430294E-1,-1.6927841E-1,-0E0,7.80561E-2,6.7220265E-3,2.0437348E-3,-8.1831776E-2],"categories":[],"categories_nodes":[],"categories_segments":[],"categories_sizes":[],"default_left":[0,0,0,0,0,0,0,0,0,0,0,0,0],"id":4,"left_children":[1,3,5,7,9,-1,11,-1,-1,-1,-1,-1,-1],"loss_changes":[4.213654E1,2.5530182E1,2.6935345E1,1.8941864E1,2.6683947E1,0E0,3.3207073E1,0E0,0E0,0E0,0E0,0E0,0E0],"parents":[2147483647,0,0,1,1,2,2,3,3,4,4,6,6],"right_children":[2,4,6,8,10,-1,12,-1,-1,-1,-1,-1,-1],"split_conditions":[5.4545444E-2,-4.3970935E-2,2.7402142E-2,3.4868788E-2,4.7472095E-1,-1.6115317E-1,9.945824E-2,-1.6927841E-1,-0E0,7.80561E-2,6.7220265E-3,2.0437348E-3,-8.1831776E-2],"split_indices":[18,2,25,26,6,0,26,0,0,0,0,0,0],"split_type":[0,0,0,0,0,0,0,0,0,0,0,0,0],"sum_hessian":[4.7579785E2,2.5728494E2,2.1851291E2,2.516064E1,2.321243E2,1.5360273E1,2.0315263E2,9.711844E0,1.5448796E1,8.67449E1,1.453794E2,1.3740881E2,6.574381E1],"tree_param":{"num_deleted":"0","num_feature":"27","num_nodes":"13","size_leaf_vector":"1"}},{"base_weights":[5.7012733E-2,-7.8852195E-1,1.547443E-1,-1.0630596E0,4.4936184E-2,9.513082E-1,8.901144E-2,-1.2316034E-1,-0E0,-1.14350475E-1,1.4017674E-1,-1.3547562E-2,3.888183E-2],"categories":[],"categories_nodes":[],"categories_segments":[],"categories_sizes":[],"default_left":[0,0,0,0,0,0,0,0,0,0,0,0,0],"id":5,"left_children":[1,3,5,7,-1,9,11,-1,-1,-1,-1,-1,-1],"loss_changes":[3.8515076E1,1.8049461E1,2.0372087E1,9.965797E0,0E0,3.1601803E1,2.8342995E1,0E0,0E0,0E0,0E0,0E0,0E0],"parents":[2147483647,0,0,1,1,2,2,3,3,5,5,6,6],"right_children":[2,4,6,8,-1,10,12,-1,-1,-1,-1,-1,-1],"split_conditions":[-4.517557E-2,2.6173896E-1,2.9481111E-2,9.443193E-4,4.4936184E-2,-3.8853556E-2,1.2411418E-1,-1.2316034E-1,-0E0,-1.14350475E-1,1.4017674E-1,-1.3547562E-2,3.888183E-2],"split_indices":[16,9,9,2,0,2,3,0,0,0,0,0,0],"split_type":[0,0,0,0,0,0,0,0,0,0,0,0,0],"sum_hessian":[4.8123926E2,4.683933E1,4.3439993E2,3.9945904E1,6.8934245E0,2.961398E1,4.0478595E2,3.5521824E1,4.42408E0,4.218651E0,2.5395329E1,2.2802426E2,1.7676169E2],"tree_param":{"num_deleted":"0","num_feature":"27","num_nodes":"13","size_leaf_vector":"1"}},{"base_weights":[-1.7151957E-2,-3.7199533E-1,1.5152124E-1,-1.8964241E-1,-1.0476254E0,4.0111884E-1,-2.4384384E-1,-2.642397E-2,1.09532185E-1,-1.279202E-1,1.8413676E-2,5.8197107E-2,-2.4143218E-3,-1.3473172E-1,3.853213E-3],"categories":[],"categories_nodes":[],"categories_segments":[],"categories_sizes":[],"default_left":[0,0,0,0,0,0,0,0,0,0,0,0,0,0,0],"id":6,"left_children":[1,3,5,7,9,11,13,-1,-1,-1,-1,-1,-1,-1,-1],"loss_changes":[2.9184837E1,1.6594482E1,3.2079796E1,1.1138054E1,1.1917938E1,1.7097744E1,4.117531E1,0E0,0E0,0E0,0E0,0E0,0E0,0E0,0E0],"parents":[2147483647,0,0,1,1,2,2,3,3,4,4,5,5,6,6],"right_children":[2,4,6,8,10,12,14,-1,-1,-1,-1,-1,-1,-1,-1],"split_conditions":[-4.1371383E-2,-8.219279E-3,2.0553377E0,3.6346155E-1,1.612899E-2,4.7154497E-2,4.695638E-2,-2.642397E-2,1.09532185E-1,-1.279202E-1,1.8413676E-2,5.8197107E-2,-2.4143218E-3,-1.3473172E-1,3.853213E-3],"split_indices":[4,11,5,18,23,18,25,0,0,0,0,0,0,0,0],"split_type":[0,0,0,0,0,0,0,0,0,0,0,0,0,0,0],"sum_hessian":[4.7763266E2,1.578612E2,3.1977145E2,1.278074E2,3.0053808E1,1.9950922E2,1.2026224E2,1.2294373E2,4.8636675E0,2.6621027E1,3.4327815E0,1.4238573E2,5.712348E1,2.5284735E1,9.497751E1],"tree_param":{"num_deleted":"0","num_feature":"27","num_nodes":"15","size_leaf_vector":"1"}},{"base_weights":[1.3259596E-2,-2.9367417E-1,1.674793E-1,-1.04157045E-1,-1.3956318E0,7.872038E-1,4.9833715E-2,-3.5693746E-2,4.710563E-2,-0E0,-1.6181837E-1,-0E0,1.2879175E-1,-6.4043147E-3,6.295356E-2],"categories":[],"categories_nodes":[],"categories_segments":[],"categories_sizes":[],"default_left":[0,0,0,0,0,0,0,0,0,0,0,0,0,0,0],"id":7,"left_children":[1,3,5,7,9,11,13,-1,-1,-1,-1,-1,-1,-1,-1],"loss_changes":[2.2560741E1,2.9182112E1,2.185194E1,2.0054674E1,6.9550934E0,2.0601925E1,1.9918777E1,0E0,0E0,0E0,0E0,0E0,0E0,0E0,0E0],"parents":[2147483647,0,0,1,1,2,2,3,3,4,4,5,5,6,6],"right_children":[2,4,6,8,10,12,14,-1,-1,-1,-1,-1,-1,-1,-1],"split_conditions":[3.542813E1,2.2892053E-3,-2.0648208E-2,-2.01755E-3,-2.0945106E-1,-2.4908002E-2,8.081742E1,-3.5693746E-2,4.710563E-2,-0E0,-1.6181837E-1,-0E0,1.2879175E-1,-6.4043147E-3,6.295356E-2],"split_indices":[20,24,16,24,5,17,20,0,0,0,0,0,0,0,0],"split_type":[0,0,0,0,0,0,0,0,0,0,0,0,0,0,0],"sum_hessian":[4.8086795E2,1.5566301E2,3.2520493E2,1.3537144E2,2.0291555E1,4.8044987E1,2.7715994E2,9.683488E1,3.8536575E1,3.0555532E0,1.7236002E1,1.8704826E1,2.9340158E1,2.2923032E2,4.792963E1],"tree_param":{"num_deleted":"0","num_feature":"27","num_nodes":"15","size_leaf_vector":"1"}},{"base_weights":[1.3231361E-2,-2.2401955E-2,1.2126194E-1,3.745349E-2,-1.1083568E0,-1.2417969E-2,3.7734397E-2,-0E0,-1.5019745E-1],"categories":[],"categories_nodes":[],"categories_segments":[],"categories_sizes":[],"default_left":[0,0,0,0,0,0,0,0,0],"id":8,"left_children":[1,3,-1,5,7,-1,-1,-1,-1],"loss_changes":[2.3179096E1,3.2355267E1,0E0,2.487258E1,1.4029703E1,0E0,0E0,0E0,0E0],"parents":[2147483647,0,0,1,1,3,3,4,4],"right_children":[2,4,-1,6,8,-1,-1,-1,-1],"split_conditions":[4.2938933E-1,3.9418397E0,1.2126194E-1,1.3331601E-1,-7.1685133E-3,-1.2417969E-2,3.7734397E-2,-0E0,-1.5019745E-1],"split_indices":[19,6,0,3,23,0,0,0,0],"split_type":[0,0,0,0,0,0,0,0,0],"sum_hessian":[4.737646E2,4.592139E2,1.4550699E1,4.3404688E2,2.516701E1,2.9033188E2,1.4371503E2,5.9612055E0,1.9205805E1],"tree_param":{"num_deleted":"0","num_feature":"27","num_nodes":"9","size_leaf_vector":"1"}},{"base_weights":[2.8497528E-2,-4.800415E-1,1.4890078E-1,-6.773307E-1,5.76252E-1,9.481284E-1,8.167733E-2,-0E0,-9.038685E-2,1.18528515E-1,-2.3075372E-2,-2.7552327E-2,1.3163127E-1,-6.1740052E-2,1.4978721E-2],"categories":[],"categories_nodes":[],"categories_segments":[],"categories_sizes":[],"default_left":[0,0,0,0,0,0,0,0,0,0,0,0,0,0,0],"id":9,"left_children":[1,3,5,7,9,11,13,-1,-1,-1,-1,-1,-1,-1,-1],"loss_changes":[2.7766542E1,1.8397825E1,1.8025297E1,1.1291298E1,8.481064E0,1.5126007E1,1.6295914E1,0E0,0E0,0E0,0E0,0E0,0E0,0E0,0E0],"parents":[2147483647,0,0,1,1,2,2,3,3,4,4,5,5,6,6],"right_children":[2,4,6,8,10,12,14,-1,-1,-1,-1,-1,-1,-1,-1],"split_conditions":[2.5326714E1,1.9502501E-1,3.1286173E-2,6.2499866E-2,1.2776016E1,-4.5067146E-1,2.4449436E-2,-0E0,-9.038685E-2,1.18528515E-1,-2.3075372E-2,-2.7552327E-2,1.3163127E-1,-6.1740052E-2,1.4978721E-2],"split_indices":[20,26,9,15,20,6,25,0,0,0,0,0,0,0,0],"split_type":[0,0,0,0,0,0,0,0,0,0,0,0,0,0,0],"sum_hessian":[4.6380453E2,8.471188E1,3.7909265E2,7.343909E1,1.1272798E1,2.5932951E1,3.531597E2,1.9641653E1,5.3797436E1,7.7338743E0,3.5389233E0,4.7710986E0,2.1161854E1,2.812188E1,3.250378E2],"tree_param":{"num_deleted":"0","num_feature":"27","num_nodes":"15","size_leaf_vector":"1"}},{"base_weights":[-8.260091E-3,-5.7590306E-2,1.13365866E-1,1.0283068E-1,-4.6905947E-1,3.712797E-2,-2.7841402E-2,-6.0121324E-2,4.4096973E-2],"categories":[],"categories_nodes":[],"categories_segments":[],"categories_sizes":[],"default_left":[0,0,0,0,0,0,0,0,0],"id":10,"left_children":[1,3,-1,5,7,-1,-1,-1,-1],"loss_changes":[2.3720116E1,3.0150517E1,0E0,3.3190964E1,1.668503E1,0E0,0E0,0E0,0E0],"parents":[2147483647,0,0,1,1,3,3,4,4],"right_children":[2,4,-1,6,8,-1,-1,-1,-1],"split_conditions":[4.166667E-1,8.783886E-2,1.13365866E-1,3.5346877E-3,1.9132636E-1,3.712797E-2,-2.7841402E-2,-6.0121324E-2,4.4096973E-2],"split_indices":[19,26,0,24,24,0,0,0,0],"split_type":[0,0,0,0,0,0,0,0,0],"sum_hessian":[4.5896484E2,4.4276746E2,1.6197397E1,3.1508997E2,1.27677475E2,1.8795244E2,1.2713753E2,1.13426056E2,1.4251415E1],"tree_param":{"num_deleted":"0","num_feature":"27","num_nodes":"9","size_leaf_vector":"1"}},{"base_weights":[6.0851984E-2,-4.3509322E-1,1.5931605E-1,4.0162304E-1,-7.8213024E-1,-1.2356291E-1,1.9793412E-1,6.3466944E-2,-1.1560661E-2,-1.0726336E-2,-1.2207552E-1,4.9315266E-2,3.623251E-4],"categories":[],"categories_nodes":[],"categories_segments":[],"categories_sizes":[],"default_left":[0,0,0,0,0,0,0,0,0,0,0,0,0],"id":11,"left_children":[1,3,5,7,9,-1,11,-1,-1,-1,-1,-1,-1],"loss_changes":[2.2788414E1,2.3094608E1,1.9736324E1,3.8161147E0,1.3693565E1,0E0,2.1824224E1,0E0,0E0,0E0,0E0,0E0,0E0],"parents":[2147483647,0,0,1,1,2,2,3,3,4,4,6,6],"right_children":[2,4,6,8,10,-1,12,-1,-1,-1,-1,-1,-1],"split_conditions":[2.76111E1,6.2499866E-2,-5.26211E0,-1.2265959E-2,-7.689196E-2,-1.2356291E-1,1.0749428E-3,6.3466944E-2,-1.1560661E-2,-1.0726336E-2,-1.2207552E-1,4.9315266E-2,3.623251E-4],"split_indices":[21,15,5,0,1,0,24,0,0,0,0,0,0],"split_type":[0,0,0,0,0,0,0,0,0,0,0,0,0],"sum_hessian":[4.7730743E2,7.478481E1,4.025226E2,1.9980108E1,5.4804707E1,8.485554E0,3.9403708E2,1.6530596E1,3.4495134E0,2.433275E1,3.0471956E1,1.5003423E2,2.4400285E2],"tree_param":{"num_deleted":"0","num_feature":"27","num_nodes":"13","size_leaf_vector":"1"}},{"base_weights":[-7.7944035E-3,-1.07233666E-1,8.4444857E-1,-4.3546792E-2,-1.4555684E-1,1.1348953E0,-0E0,-2.223709E-2,2.1978686E-2,1.2807553E-1,-0E0,-1.24289006E-1,8.079823E-2],"categories":[],"categories_nodes":[],"categories_segments":[],"categories_sizes":[],"default_left":[0,0,0,0,0,0,0,0,0,0,0,0,0],"id":12,"left_children":[1,3,5,7,-1,9,11,-1,-1,-1,-1,-1,-1],"loss_changes":[3.881761E1,3.3789608E1,1.4149059E1,1.9838251E1,0E0,5.7363396E0,1.3166191E1,0E0,0E0,0E0,0E0,0E0,0E0],"parents":[2147483647,0,0,1,1,2,2,3,3,5,5,6,6],"right_children":[2,4,6,8,-1,10,12,-1,-1,-1,-1,-1,-1],"split_conditions":[2.808461E-1,3.7954626E0,7.1085736E-2,7.771132E-2,-1.4555684E-1,3.9619636E-2,3.779606E-1,-2.223709E-2,2.1978686E-2,1.2807553E-1,-0E0,-1.24289006E-1,8.079823E-2],"split_indices":[19,6,25,3,0,8,26,0,0,0,0,0,0],"split_type":[0,0,0,0,0,0,0,0,0,0,0,0,0],"sum_hessian":[4.7587225E2,4.291935E2,4.6678726E1,4.1242883E2,1.6764671E1,3.6444073E1,1.02346525E1,2.5044049E2,1.6198836E2,3.140507E1,5.0390024E0,4.9099603E0,5.3246927E0],"tree_param":{"num_deleted":"0","num_feature":"27","num_nodes":"13","size_leaf_vector":"1"}},{"base_weights":[3.0538075E-2,-1.0342831E-3,1.066965E-1,1.746495E-1,-3.179032E-1,3.7944667E-2,-3.1568125E-2,-6.980735E-2,1.4377389E-2],"categories":[],"categories_nodes":[],"categories_segments":[],"categories_sizes":[],"default_left":[0,0,0,0,0,0,0,0,0],"id":13,"left_children":[1,3,-1,5,7,-1,-1,-1,-1],"loss_changes":[1.801961E1,2.5844816E1,0E0,2.9996914E1,3.1363956E1,0E0,0E0,0E0,0E0],"parents":[2147483647,0,0,1,1,3,3,4,4],"right_children":[2,4,-1,6,8,-1,-1,-1,-1],"split_conditions":[4.2938933E-1,5.6589125E-3,1.066965E-1,9.348717E-2,4.5177724E-2,3.7944667E-2,-3.1568125E-2,-6.980735E-2,1.4377389E-2],"split_indices":[19,24,0,9,24,0,0,0,0],"split_type":[0,0,0,0,0,0,0,0,0],"sum_hessian":[4.7183127E2,4.567367E2,1.5094575E1,2.8949963E2,1.6723706E2,2.0697913E2,8.252049E1,9.362098E1,7.361609E1],"tree_param":{"num_deleted":"0","num_feature":"27","num_nodes":"9","size_leaf_vector":"1"}},{"base_weights":[-2.4442296E-2,-2.2658724E-1,2.0488055E-1,-1.1959875E-1,-1.3476789E-1,7.263085E-1,-6.321797E-2,-4.2356923E-2,2.1811122E-2,-8.541449E-3,9.623349E-2,-9.291803E-2,8.766803E-3],"categories":[],"categories_nodes":[],"categories_segments":[],"categories_sizes":[],"default_left":[0,0,0,0,0,0,0,0,0,0,0,0,0],"id":14,"left_children":[1,3,5,7,-1,9,11,-1,-1,-1,-1,-1,-1],"loss_changes":[2.1494293E1,2.6931814E1,3.1109703E1,2.477136E1,0E0,1.687252E1,2.0211454E1,0E0,0E0,0E0,0E0,0E0,0E0],"parents":[2147483647,0,0,1,1,2,2,3,3,5,5,6,6],"right_children":[2,4,6,8,-1,10,12,-1,-1,-1,-1,-1,-1],"split_conditions":[7.453883E-2,2.2205305E0,8.472725E-1,-6.438553E-1,-1.3476789E-1,-1.8032778E-2,4.6530627E-2,-4.2356923E-2,2.1811122E-2,-8.541449E-3,9.623349E-2,-9.291803E-2,8.766803E-3],"split_indices":[3,5,6,6,0,10,25,0,0,0,0,0,0],"split_type":[0,0,0,0,0,0,0,0,0,0,0,0,0],"sum_hessian":[4.608923E2,2.5019246E2,2.1069983E2,2.3127824E2,1.891422E1,7.390202E1,1.367978E2,1.24743195E2,1.0653504E2,1.5051954E1,5.8850067E1,2.1769655E1,1.15028145E2],"tree_param":{"num_deleted":"0","num_feature":"27","num_nodes":"13","size_leaf_vector":"1"}}]},"name":"gbtree"},"learner_model_param":{"base_score":"5E-1","boost_from_average":"1","num_class":"0","num_feature":"27","num_target":"1"},"objective":{"name":"binary:logistic","reg_loss_param":{"scale_pos_weight":"3.30957675"}}},"version":[2,1,0]}