{"learner":{"attributes":{"scikit_learn":"{\"_estimator_type\": \"classifier\"}"},"feature_names":["bias_week","bias_month","bias_quarter","bias_year","rsi","macd","macd_signal","vol_change","close_change","bb_width","return_5d","k_upper","k_lower","k_body","buy_power","rs_5d"],"feature_types":["float","float","float","float","float","float","float","float","float","float","float","float","float","float","float","float"],"gradient_booster":{"model":{"cats":{"enc":[],"feature_segments":[],"sorted_idx":[]},"gbtree_model_param":{"num_parallel_tree":"1","num_trees":"23"},"iteration_indptr":[0,1,2,3,4,5,6,7,8,9,10,11,12,13,14,15,16,17,18,19,20,21,22,23],"tree_info":[0,0,0,0,0,0,0,0,0,0,0,0,0,0,0,0,0,0,0,0,0,0,0],"trees":[{"base_weights":[5.747189E-3,1.1549993E0,-6.851964E-2,1.3617145E0,3.1922987E-1,-1.7195949E-1,5.2397805E-1,1.6134701E0,6.813032E-1,-6.241999E-1,7.7387586E-2,1.6409747E-1,-3.4865367E-1,4.1622862E-1,1.4677027E0,1.3518244E-2,8.597693E-2,7.075261E-2,-1.8681736E-4,-6.349203E-2,6.242083E-3,3.2427043E-3,7.1001366E-2,5.740177E-3,-2.3789061E-2,3.675809E-2,4.239346E-3,8.197734E-2,3.3999158E-3],"categories":[],"categories_nodes":[],"categories_segments":[],"categories_sizes":[],"default_left":[0,0,0,0,0,0,0,0,0,0,0,0,0,0,0,0,0,0,0,0,0,0,0,0,0,0,0,0,0],"id":0,"left_children":[1,3,5,7,9,11,13,15,17,19,-1,21,23,25,27,-1,-1,-1,-1,-1,-1,-1,-1,-1,-1,-1,-1,-1,-1],"loss_changes":[5.824248E1,6.721298E0,3.9377968E1,4.5365334E0,1.1999373E1,3.2508667E1,9.102842E0,2.8521729E0,5.341661E0,3.1071568E0,0E0,2.3466358E1,2.1176971E1,9.148385E0,2.1478825E0,0E0,0E0,0E0,0E0,0E0,0E0,0E0,0E0,0E0,0E0,0E0,0E0,0E0,0E0],"parents":[2147483647,0,0,1,1,2,2,3,3,4,4,5,5,6,6,7,7,8,8,9,9,11,11,12,12,13,13,14,14],"right_children":[2,4,6,8,10,12,14,16,18,20,-1,22,24,26,28,-1,-1,-1,-1,-1,-1,-1,-1,-1,-1,-1,-1,-1,-1],"split_conditions":[-1.5255637E-1,-9.431222E-2,1.6556772E0,3.3333334E-1,4.3206173E-1,-2.1888524E-1,3.6206195E0,-9.233177E-2,1.6666739E-1,1.867328E-2,7.7387586E-2,1.2675342E-1,-9.617916E-3,2.2770622E0,5.190492E-1,1.3518244E-2,8.597693E-2,7.075261E-2,-1.8681736E-4,-6.349203E-2,6.242083E-3,3.2427043E-3,7.1001366E-2,5.740177E-3,-2.3789061E-2,3.675809E-2,4.239346E-3,8.197734E-2,3.3999158E-3],"split_indices":[3,5,6,12,6,6,6,10,11,1,0,3,1,6,4,0,0,0,0,0,0,0,0,0,0,0,0,0,0],"split_type":[0,0,0,0,0,0,0,0,0,0,0,0,0,0,0,0,0,0,0,0,0,0,0,0,0,0,0,0,0],"sum_hessian":[6.8045825E2,4.0420086E1,6.4003815E2,3.1900639E1,8.519445E0,5.455111E2,9.452704E1,2.2284096E1,9.616542E0,5.0970964E0,3.4223495E0,1.8800786E2,3.5750327E2,8.613379E1,8.393247E0,1.8907831E0,2.0393312E1,4.1286626E0,5.4878798E0,2.3640783E0,2.7330182E0,1.752141E2,1.2793753E1,7.697596E1,2.805273E2,4.327444E1,4.285935E1,7.3228555E0,1.0703915E0],"tree_param":{"num_deleted":"0","num_feature":"16","num_nodes":"29","size_leaf_vector":"1"}},{"base_weights":[-1.972384E-2,-1.9608967E-1,6.760966E-1,1.7672192E-1,-3.5341045E-1,5.789552E-1,1.4707918E0,4.1480727E-2,5.9708077E-1,-4.529517E-1,4.1194537E-1,6.751408E-1,-1.1017307E-1,7.897466E-2,2.9048938E-3,1.0888768E-2,-2.1310471E-2,4.454773E-2,2.9509654E-3,3.017344E-2,-2.5602823E-2,6.626185E-2,1.0856146E-2,-2.8840607E-2,3.691821E-2,-4.462348E-2,6.08315E-3],"categories":[],"categories_nodes":[],"categories_segments":[],"categories_sizes":[],"default_left":[0,0,0,0,0,0,0,0,0,0,0,0,0,0,0,0,0,0,0,0,0,0,0,0,0,0,0],"id":1,"left_children":[1,3,5,7,9,11,13,15,17,19,21,23,25,-1,-1,-1,-1,-1,-1,-1,-1,-1,-1,-1,-1,-1,-1],"loss_changes":[8.408532E1,3.211799E1,9.844906E0,9.233716E0,2.9493866E1,8.367569E0,2.1261349E0,1.0340776E1,6.2039156E0,2.1594055E1,7.683084E0,9.127296E0,3.0437717E0,0E0,0E0,0E0,0E0,0E0,0E0,0E0,0E0,0E0,0E0,0E0,0E0,0E0,0E0],"parents":[2147483647,0,0,1,1,2,2,3,3,4,4,5,5,6,6,7,7,8,8,9,9,10,10,11,11,12,12],"right_children":[2,4,6,8,10,12,14,16,18,20,22,24,26,-1,-1,-1,-1,-1,-1,-1,-1,-1,-1,-1,-1,-1,-1],"split_conditions":[6.599704E-2,-2.1888524E-1,1.4050215E-1,8.267546E-3,1.6556772E0,5.714277E-1,4.5450744E-1,-6.639876E-2,3.365393E-2,-2.3530167E-2,-2.2432182E-2,-4.2727447E-1,-1.8340265E-2,7.897466E-2,2.9048938E-3,1.0888768E-2,-2.1310471E-2,4.454773E-2,2.9509654E-3,3.017344E-2,-2.5602823E-2,6.626185E-2,1.0856146E-2,-2.8840607E-2,3.691821E-2,-4.462348E-2,6.08315E-3],"split_indices":[9,6,9,1,6,12,4,4,10,15,10,4,15,0,0,0,0,0,0,0,0,0,0,0,0,0,0],"split_type":[0,0,0,0,0,0,0,0,0,0,0,0,0,0,0,0,0,0,0,0,0,0,0,0,0,0,0],"sum_hessian":[6.8310565E2,5.45547E2,1.3755864E2,1.618586E2,3.8368842E2,1.241156E2,1.3443046E1,1.2329109E2,3.856751E1,3.398908E2,4.3797596E1,1.0893167E2,1.5183929E1,1.2372926E1,1.0701205E0,8.99275E1,3.3363586E1,2.4519693E1,1.4047815E1,1.7520712E1,3.223701E2,6.6801243E0,3.711747E1,4.846079E0,1.04085594E2,2.8196993E0,1.236423E1],"tree_param":{"num_deleted":"0","num_feature":"16","num_nodes":"27","size_leaf_vector":"1"}},{"base_weights":[-1.1444156E-2,8.997596E-1,-7.5555764E-2,1.0827905E0,1.8794425E-1,-1.6536221E-1,4.2166182E-1,5.549013E-1,1.3082864E0,-5.755394E-1,7.365479E-2,2.0381676E-1,-3.0689743E-1,3.2315755E-1,1.3539447E0,6.315429E-2,-2.7131304E-2,7.273313E-2,7.3878216E-3,-4.4645693E-2,2.955535E-2,6.824137E-3,5.9787102E-2,-1.690067E-2,5.515024E-2,3.8677283E-2,6.3646324E-3,7.590277E-2,1.0160152E-2],"categories":[],"categories_nodes":[],"categories_segments":[],"categories_sizes":[],"default_left":[0,0,0,0,0,0,0,0,0,0,0,0,0,0,0,0,0,0,0,0,0,0,0,0,0,0,0,0,0],"id":2,"left_children":[1,3,5,7,9,11,13,15,17,19,-1,21,23,25,27,-1,-1,-1,-1,-1,-1,-1,-1,-1,-1,-1,-1,-1,-1],"loss_changes":[4.029551E1,5.703903E0,2.8838274E1,3.5424728E0,1.113497E1,2.8613941E1,8.639786E0,1.037714E1,3.9281006E0,3.2292895E0,0E0,9.991005E0,1.7718685E1,7.903775E0,1.4161606E0,0E0,0E0,0E0,0E0,0E0,0E0,0E0,0E0,0E0,0E0,0E0,0E0,0E0,0E0],"parents":[2147483647,0,0,1,1,2,2,3,3,4,4,5,5,6,6,7,7,8,8,9,9,11,11,12,12,13,13,14,14],"right_children":[2,4,6,8,10,12,14,16,18,20,-1,22,24,26,28,-1,-1,-1,-1,-1,-1,-1,-1,-1,-1,-1,-1,-1,-1],"split_conditions":[-1.4961636E-1,-7.888268E-2,1.6556772E0,-3.0669644E0,4.3206173E-1,-4.099548E-1,3.6206195E0,-4.186025E0,-1.5581052E-1,6.1143745E-2,7.365479E-2,1.2492683E-1,3.725979E-2,-8.021327E-3,4.5454273E-1,6.315429E-2,-2.7131304E-2,7.273313E-2,7.3878216E-3,-4.4645693E-2,2.955535E-2,6.824137E-3,5.9787102E-2,-1.690067E-2,5.515024E-2,3.8677283E-2,6.3646324E-3,7.590277E-2,1.0160152E-2],"split_indices":[3,5,6,6,6,6,6,6,3,1,0,3,15,10,12,0,0,0,0,0,0,0,0,0,0,0,0,0,0],"split_type":[0,0,0,0,0,0,0,0,0,0,0,0,0,0,0,0,0,0,0,0,0,0,0,0,0,0,0,0,0],"sum_hessian":[6.8760657E2,4.434249E1,6.432641E2,3.4858162E1,9.484332E0,5.45419E2,9.784508E1,1.1469262E1,2.3388899E1,6.2961025E0,3.1882298E0,1.5103108E2,3.9438794E2,8.971273E1,8.132346E0,6.8794312E0,4.589831E0,2.0544235E1,2.8446636E0,5.134064E0,1.1620383E0,1.4249576E2,8.535323E0,3.8661575E2,7.7721944E0,2.629604E1,6.341669E1,6.837966E0,1.2943804E0],"tree_param":{"num_deleted":"0","num_feature":"16","num_nodes":"29","size_leaf_vector":"1"}},{"base_weights":[-1.3409102E-2,-1.969205E-1,5.056434E-1,1.9784854E-1,-3.592623E-1,1.0918118E0,4.0107715E-1,-1.5271907E-1,3.6206156E-1,5.8008887E-2,-5.201933E-1,4.4850484E-1,1.4110693E0,-1.7680016E-1,5.0168544E-1,4.6801515E-2,-1.8576166E-2,3.4856554E-2,7.141878E-3,-1.55937895E-2,2.1534787E-2,-1.2245307E-2,-3.2627698E-2,-1.44317895E-2,7.139486E-2,8.189806E-2,2.5581995E-2,-4.723574E-2,1.3431332E-2,8.159155E-2,1.9410787E-2],"categories":[],"categories_nodes":[],"categories_segments":[],"categories_sizes":[],"default_left":[0,0,0,0,0,0,0,0,0,0,0,0,0,0,0,0,0,0,0,0,0,0,0,0,0,0,0,0,0,0,0],"id":3,"left_children":[1,3,5,7,9,11,13,15,17,19,21,23,25,27,29,-1,-1,-1,-1,-1,-1,-1,-1,-1,-1,-1,-1,-1,-1,-1,-1],"loss_changes":[6.59402E1,3.284513E1,1.0645798E1,8.671181E0,2.4388176E1,4.870123E0,9.102367E0,1.188869E1,7.408963E0,1.41756115E1,9.382065E0,7.886394E0,2.7212563E0,8.370172E0,1.6333206E1,0E0,0E0,0E0,0E0,0E0,0E0,0E0,0E0,0E0,0E0,0E0,0E0,0E0,0E0,0E0,0E0],"parents":[2147483647,0,0,1,1,2,2,3,3,4,4,5,5,6,6,7,7,8,8,9,9,10,10,11,11,12,12,13,13,14,14],"right_children":[2,4,6,8,10,12,14,16,18,20,22,24,26,28,30,-1,-1,-1,-1,-1,-1,-1,-1,-1,-1,-1,-1,-1,-1,-1,-1],"split_conditions":[5.9096403E-2,-8.658618E-3,-1.5581052E-1,-3.6451437E-2,2.2734271E-2,-3.2587585E0,-8.2985274E-2,-1.5581052E-1,-1.1715025E-2,8.507554E-3,3.7278634E-1,1.5457933E-1,4.015807E-2,-1.7946146E-2,-5.012625E-2,4.6801515E-2,-1.8576166E-2,3.4856554E-2,7.141878E-3,-1.55937895E-2,2.1534787E-2,-1.2245307E-2,-3.2627698E-2,-1.44317895E-2,7.139486E-2,8.189806E-2,2.5581995E-2,-4.723574E-2,1.3431332E-2,8.159155E-2,1.9410787E-2],"split_indices":[9,1,3,3,3,5,3,3,15,1,5,9,1,15,3,0,0,0,0,0,0,0,0,0,0,0,0,0,0,0,0],"split_type":[0,0,0,0,0,0,0,0,0,0,0,0,0,0,0,0,0,0,0,0,0,0,0,0,0,0,0,0,0,0,0],"sum_hessian":[6.902252E2,5.1039526E2,1.7983E2,1.4866515E2,3.617301E2,2.5794146E1,1.5403584E2,4.744593E1,1.0121922E2,1.0085833E2,2.6087177E2,9.352867E0,1.6441278E1,2.27287E1,1.3130714E2,7.3910117E0,4.0054916E1,3.9170177E1,6.2049046E1,5.070136E1,5.0156975E1,8.562887E1,1.7524289E2,5.738826E0,3.6140418E0,1.2473558E1,3.9677198E0,7.9323797E0,1.4796321E1,1.0759782E1,1.2054737E2],"tree_param":{"num_deleted":"0","num_feature":"16","num_nodes":"31","size_leaf_vector":"1"}},{"base_weights":[4.682424E-3,-1.7390752E-1,4.932075E-1,6.928754E-1,-2.3999323E-1,4.0393698E-1,6.6124916E-2,3.6778584E-1,1.0630605E0,1.0263108E-1,-3.8235578E-1,6.3670194E-1,1.5486193E-1,3.833836E-2,-1.5627462E-2,6.447443E-2,7.078399E-3,-3.614274E-4,7.254669E-2,2.7614886E-2,-2.1181142E-2,-2.726219E-2,3.5494417E-2,-3.258865E-2,1.2170381E-2],"categories":[],"categories_nodes":[],"categories_segments":[],"categories_sizes":[],"default_left":[0,0,0,0,0,0,0,0,0,0,0,0,0,0,0,0,0,0,0,0,0,0,0,0,0],"id":4,"left_children":[1,3,5,7,9,11,-1,13,15,17,19,21,23,-1,-1,-1,-1,-1,-1,-1,-1,-1,-1,-1,-1],"loss_changes":[5.979305E1,2.8915611E1,1.3048065E1,3.9187489E0,2.2821917E1,9.587799E0,0E0,5.8303432E0,3.2008686E0,2.0435965E1,1.296933E1,7.8301125E0,6.0176864E0,0E0,0E0,0E0,0E0,0E0,0E0,0E0,0E0,0E0,0E0,0E0,0E0],"parents":[2147483647,0,0,1,1,2,2,3,3,4,4,5,5,7,7,8,8,9,9,10,10,11,11,12,12],"right_children":[2,4,6,8,10,12,-1,14,16,18,20,22,24,-1,-1,-1,-1,-1,-1,-1,-1,-1,-1,-1,-1],"split_conditions":[5.9096403E-2,-2.4082758E-2,1.3603197E-1,-1.9174054E-1,-1.7408203E-1,2.6315838E-1,6.6124916E-2,-6.063687E-1,1.43369E-2,1.21668406E-1,-1.8612552E-2,-4.5768872E-2,-5.2102894E-1,3.833836E-2,-1.5627462E-2,6.447443E-2,7.078399E-3,-3.614274E-4,7.254669E-2,2.7614886E-2,-2.1181142E-2,-2.726219E-2,3.5494417E-2,-3.258865E-2,1.2170381E-2],"split_indices":[9,15,9,5,6,12,0,6,8,3,8,15,7,0,0,0,0,0,0,0,0,0,0,0,0],"split_type":[0,0,0,0,0,0,0,0,0,0,0,0,0,0,0,0,0,0,0,0,0,0,0,0,0],"sum_hessian":[6.833581E2,5.008914E2,1.8246667E2,3.4811947E1,4.6607944E2,1.6607617E2,1.639049E1,1.9596334E1,1.5215613E1,1.3689441E2,3.2918503E2,8.5044426E1,8.103175E1,1.227225E1,7.3240848E0,1.1893745E1,3.3218677E0,1.2750033E2,9.39408E0,1.3396031E1,3.15789E2,4.582817E0,8.046161E1,7.385979E0,7.3645775E1],"tree_param":{"num_deleted":"0","num_feature":"16","num_nodes":"25","size_leaf_vector":"1"}},{"base_weights":[2.4753704E-3,-1.476126E-1,5.3249276E-1,1.3464777E-1,-3.0508342E-1,1.1272649E0,4.1123286E-1,5.0829142E-2,1.025742E0,4.3820634E-1,-4.1061953E-1,-5.6747437E-2,1.2663808E0,1.0211887E0,3.1371477E-1,-1.1273429E-4,7.949139E-2,7.478564E-2,-1.9474032E-3,3.1609572E-2,-3.54587E-2,-7.5115537E-4,-2.5206253E-2,-3.7521236E-2,4.335923E-2,6.9899745E-2,4.9894624E-3,5.9621163E-2,-2.0621315E-2,1.8528126E-2,-2.7407974E-2],"categories":[],"categories_nodes":[],"categories_segments":[],"categories_sizes":[],"default_left":[0,0,0,0,0,0,0,0,0,0,0,0,0,0,0,0,0,0,0,0,0,0,0,0,0,0,0,0,0,0,0],"id":5,"left_children":[1,3,5,7,9,11,13,15,17,19,21,23,25,27,29,-1,-1,-1,-1,-1,-1,-1,-1,-1,-1,-1,-1,-1,-1,-1,-1],"loss_changes":[5.44293E1,2.3742325E1,1.0426514E1,1.4262268E1,2.7053879E1,4.1891956E0,7.233736E0,1.4400453E1,8.276924E0,1.0036483E1,1.1108414E1,2.9486177E0,3.3015366E0,4.6802483E0,5.6385345E0,0E0,0E0,0E0,0E0,0E0,0E0,0E0,0E0,0E0,0E0,0E0,0E0,0E0,0E0,0E0,0E0],"parents":[2147483647,0,0,1,1,2,2,3,3,4,4,5,5,6,6,7,7,8,8,9,9,10,10,11,11,12,12,13,13,14,14],"right_children":[2,4,6,8,10,12,14,16,18,20,22,24,26,28,30,-1,-1,-1,-1,-1,-1,-1,-1,-1,-1,-1,-1,-1,-1,-1,-1],"split_conditions":[6.3381806E-2,-1.0532943E-3,-1.5581052E-1,1.3352156E-2,-8.658618E-3,-5.362684E-1,-7.142827E-1,2.0623924E-1,4.793904E-2,2.9307503E-1,1.9594308E-2,1.5457933E-1,7.8163624E-2,3.5998216E-1,5.589033E-1,-1.1273429E-4,7.949139E-2,7.478564E-2,-1.9474032E-3,3.1609572E-2,-3.54587E-2,-7.5115537E-4,-2.5206253E-2,-3.7521236E-2,4.335923E-2,6.9899745E-2,4.9894624E-3,5.9621163E-2,-2.0621315E-2,1.8528126E-2,-2.7407974E-2],"split_indices":[9,2,3,1,1,4,13,3,9,3,3,9,1,3,4,0,0,0,0,0,0,0,0,0,0,0,0,0,0,0,0],"split_type":[0,0,0,0,0,0,0,0,0,0,0,0,0,0,0,0,0,0,0,0,0,0,0,0,0,0,0,0,0,0,0],"sum_hessian":[6.822334E2,5.322381E2,1.4999532E2,1.906501E2,3.4158798E2,2.3996706E1,1.2599861E2,1.7522502E2,1.54250765E1,4.2078354E1,2.9950964E2,2.5853064E0,2.14114E1,1.6062037E1,1.0993658E2,1.7034784E2,4.8771787E0,1.0420481E1,5.0045958E0,3.6377163E1,5.7011943E0,5.7481537E1,2.4202809E2,1.5839145E0,1.0013919E0,1.9062431E1,2.3489687E0,1.4498537E1,1.5634999E0,1.0366881E2,6.267766E0],"tree_param":{"num_deleted":"0","num_feature":"16","num_nodes":"31","size_leaf_vector":"1"}},{"base_weights":[1.5801199E-2,8.9735574E-1,-3.842792E-2,1.0259122E0,-1.309629E-1,-1.1761367E-1,3.905978E-1,1.1503211E0,-4.738649E-1,-9.317207E-1,5.3567E-2,1.5434088E-1,-3.0449358E-1,3.006944E-1,7.5625084E-2,3.1506125E-2,6.629478E-2,-3.896883E-2,2.858873E-3,-1.3742402E-2,-5.6751456E-2,5.4090167E-3,7.8697935E-2,-1.8589413E-2,1.7901814E-2,3.1193277E-2,-1.0126876E-3],"categories":[],"categories_nodes":[],"categories_segments":[],"categories_sizes":[],"default_left":[0,0,0,0,0,0,0,0,0,0,0,0,0,0,0,0,0,0,0,0,0,0,0,0,0,0,0],"id":6,"left_children":[1,3,5,7,9,11,13,15,17,19,-1,21,23,25,-1,-1,-1,-1,-1,-1,-1,-1,-1,-1,-1,-1,-1],"loss_changes":[3.2367542E1,5.321148E0,2.1724094E1,7.073448E0,6.04954E0,2.7463305E1,9.596817E0,2.1420212E0,5.94277E-1,1.8004775E-1,0E0,1.4271111E1,1.4403416E1,9.711697E0,0E0,0E0,0E0,0E0,0E0,0E0,0E0,0E0,0E0,0E0,0E0,0E0,0E0],"parents":[2147483647,0,0,1,1,2,2,3,3,4,4,5,5,6,6,7,7,8,8,9,9,11,11,12,12,13,13],"right_children":[2,4,6,8,10,12,14,16,18,20,-1,22,24,26,-1,-1,-1,-1,-1,-1,-1,-1,-1,-1,-1,-1,-1],"split_conditions":[-1.5581052E-1,1.4855846E-2,1.6236838E0,5.7906356E-2,7.5501096E-3,-1.0532943E-3,3.8192918E0,-3.5290341E0,1.2499575E-1,3.5174992E-3,5.3567E-2,2.0623924E-1,4.6337854E-2,2.2770622E0,7.5625084E-2,3.1506125E-2,6.629478E-2,-3.896883E-2,2.858873E-3,-1.3742402E-2,-5.6751456E-2,5.4090167E-3,7.8697935E-2,-1.8589413E-2,1.7901814E-2,3.1193277E-2,-1.0126876E-3],"split_indices":[3,2,6,1,15,2,6,5,13,15,0,3,1,6,0,0,0,0,0,0,0,0,0,0,0,0,0],"split_type":[0,0,0,0,0,0,0,0,0,0,0,0,0,0,0,0,0,0,0,0,0,0,0,0,0,0,0],"sum_hessian":[6.7534E2,3.82353E1,6.3710474E2,3.398852E1,4.246775E0,5.3844855E2,9.86562E1,3.1600239E1,2.388285E0,2.6841383E0,1.5626366E0,2.1937706E2,3.190715E2,9.251089E1,6.1453047E0,9.132135E0,2.2468103E1,1.2192233E0,1.1690617E0,1.1902893E0,1.493849E0,2.1351071E2,5.866349E0,2.9004935E2,2.9022146E1,4.562553E1,4.688536E1],"tree_param":{"num_deleted":"0","num_feature":"16","num_nodes":"27","size_leaf_vector":"1"}},{"base_weights":[-1.1090101E-2,-1.4787145E-1,5.1949257E-1,5.971452E-1,-2.0489895E-1,7.306964E-1,2.1758124E-1,-1.8167806E-1,7.8620183E-1,5.6275815E-1,-2.602632E-1,2.2367978E-1,8.686362E-1,7.252787E-1,1.1235803E-2,3.488558E-2,-2.994871E-2,2.4520421E-2,6.7935154E-2,1.4174166E-2,5.4742713E-2,-3.3266507E-3,-2.1766003E-2,-8.377924E-3,6.0720332E-2,5.5748086E-2,1.5793504E-2,7.5877034E-3,5.959558E-2,-1.8234955E-2,1.5520078E-2],"categories":[],"categories_nodes":[],"categories_segments":[],"categories_sizes":[],"default_left":[0,0,0,0,0,0,0,0,0,0,0,0,0,0,0,0,0,0,0,0,0,0,0,0,0,0,0,0,0,0,0],"id":7,"left_children":[1,3,5,7,9,11,13,15,17,19,21,23,25,27,29,-1,-1,-1,-1,-1,-1,-1,-1,-1,-1,-1,-1,-1,-1,-1,-1],"loss_changes":[5.0283318E1,2.3523382E1,8.896324E0,5.946807E0,2.1922575E1,5.619896E0,6.264667E0,3.5414648E0,4.7367363E0,4.8584337E0,1.6201736E1,7.6173086E0,8.499153E0,4.4457626E0,5.0155916E0,0E0,0E0,0E0,0E0,0E0,0E0,0E0,0E0,0E0,0E0,0E0,0E0,0E0,0E0,0E0,0E0],"parents":[2147483647,0,0,1,1,2,2,3,3,4,4,5,5,6,6,7,7,8,8,9,9,10,10,11,11,12,12,13,13,14,14],"right_children":[2,4,6,8,10,12,14,16,18,20,22,24,26,28,30,-1,-1,-1,-1,-1,-1,-1,-1,-1,-1,-1,-1,-1,-1,-1,-1],"split_conditions":[6.599704E-2,-2.4082758E-2,8.544437E-3,-3.8951196E-2,-3.6423746E-2,-2.6150657E-2,-5.155672E-2,-7.142827E-1,4.533194E-2,2.069894E-1,2.553375E-1,1.3603197E-1,2.3227394E0,-7.300397E-2,1.443868E-1,3.488558E-2,-2.994871E-2,2.4520421E-2,6.7935154E-2,1.4174166E-2,5.4742713E-2,-3.3266507E-3,-2.1766003E-2,-8.377924E-3,6.0720332E-2,5.5748086E-2,1.5793504E-2,7.5877034E-3,5.959558E-2,-1.8234955E-2,1.5520078E-2],"split_indices":[9,15,0,1,10,15,3,13,9,7,6,9,6,2,3,0,0,0,0,0,0,0,0,0,0,0,0,0,0,0,0],"split_type":[0,0,0,0,0,0,0,0,0,0,0,0,0,0,0,0,0,0,0,0,0,0,0,0,0,0,0,0,0,0,0],"sum_hessian":[6.9079913E2,5.497881E2,1.410111E2,3.8417995E1,5.1137006E2,8.213373E1,5.887737E1,7.511837E0,3.090616E1,3.3783108E1,4.7758698E2,1.8127008E1,6.4006714E1,1.6287739E1,4.258963E1,2.2011845E0,5.3106523E0,2.1601795E1,9.304364E0,2.3160109E1,1.0622999E1,2.2735739E2,2.5022957E2,1.3590852E1,4.536157E0,4.357266E1,2.0434057E1,7.9014783E0,8.38626E0,1.8776201E1,2.381343E1],"tree_param":{"num_deleted":"0","num_feature":"16","num_nodes":"31","size_leaf_vector":"1"}},{"base_weights":[-1.193652E-2,4.8734123E-1,-9.1073856E-2,3.75919E-1,1.0207778E0,6.5516084E-1,-1.2990242E-1,4.8125082E-1,-4.4408888E-1,6.675683E-2,5.532582E-1,8.5965544E-1,3.0510955E-2,-2.0233609E-1,2.896972E-1,3.372977E-2,4.67235E-3,-3.4694225E-2,3.3048376E-2,-2.840229E-2,4.3149706E-2,1.4520583E-2,5.894469E-2,-3.3611283E-2,6.339497E-2,-2.22033E-3,-1.9024486E-2,4.345237E-2,7.04512E-3],"categories":[],"categories_nodes":[],"categories_segments":[],"categories_sizes":[],"default_left":[0,0,0,0,0,0,0,0,0,0,0,0,0,0,0,0,0,0,0,0,0,0,0,0,0,0,0,0,0],"id":8,"left_children":[1,3,5,7,9,11,13,15,17,-1,19,21,23,25,27,-1,-1,-1,-1,-1,-1,-1,-1,-1,-1,-1,-1,-1,-1],"loss_changes":[2.7069714E1,5.18779E0,1.7216633E1,7.0479755E0,1.5560608E0,3.7302837E0,1.7165073E1,5.2303905E0,3.088428E0,0E0,3.2635458E0,3.677065E0,8.0607815E0,1.3504303E1,7.0556474E0,0E0,0E0,0E0,0E0,0E0,0E0,0E0,0E0,0E0,0E0,0E0,0E0,0E0,0E0],"parents":[2147483647,0,0,1,1,2,2,3,3,4,4,5,5,6,6,7,7,8,8,10,10,11,11,12,12,13,13,14,14],"right_children":[2,4,6,8,10,12,14,16,18,-1,20,22,24,26,28,-1,-1,-1,-1,-1,-1,-1,-1,-1,-1,-1,-1,-1,-1],"split_conditions":[-1.4060852E-2,-2.1857955E-3,-1.4961636E-1,4.5454273E-1,3.333379E-1,-7.888268E-2,1.6236838E0,-1.3840838E-2,1.4252077E-1,6.675683E-2,4.0000218E-1,-9.835975E-3,4.2003846E-1,2.4187844E-1,8.595132E-2,3.372977E-2,4.67235E-3,-3.4694225E-2,3.3048376E-2,-2.840229E-2,4.3149706E-2,1.4520583E-2,5.894469E-2,-3.3611283E-2,6.339497E-2,-2.22033E-3,-1.9024486E-2,4.345237E-2,7.04512E-3],"split_indices":[0,8,3,12,12,5,6,8,3,0,14,10,6,6,3,0,0,0,0,0,0,0,0,0,0,0,0,0,0],"split_type":[0,0,0,0,0,0,0,0,0,0,0,0,0,0,0,0,0,0,0,0,0,0,0,0,0,0,0,0,0],"sum_hessian":[6.829862E2,9.273878E1,5.9024744E2,7.812503E1,1.4613749E1,2.8408066E1,5.6183936E2,6.9598114E1,8.526915E0,7.6285477E0,6.9852004E0,2.1118261E1,7.289805E0,4.795709E2,8.226846E1,4.5949753E1,2.364836E1,7.258279E0,1.2686361E0,1.33138E0,5.65382E0,8.274121E0,1.2844139E1,4.9406524E0,2.3491526E0,2.5487698E2,2.2469392E2,1.5822216E1,6.644625E1],"tree_param":{"num_deleted":"0","num_feature":"16","num_nodes":"29","size_leaf_vector":"1"}},{"base_weights":[1.210123E-2,-1.6534205E-1,5.240657E-1,1.6353029E-1,-2.6305145E-1,6.191208E-1,-7.407455E-2,6.732684E-2,1.1738672E0,-3.247757E-1,5.306238E-1,1.1466651E0,5.024461E-1,-1.776494E-1,3.894045E-2,4.3724682E-2,-7.3372014E-4,7.841223E-2,-9.760419E-4,-1.721573E-2,8.024038E-2,3.9936744E-2,-2.726692E-2,2.7804498E-2,7.53141E-2,-8.348548E-3,2.982915E-2,-3.1620126E-2,4.213967E-3],"categories":[],"categories_nodes":[],"categories_segments":[],"categories_sizes":[],"default_left":[0,0,0,0,0,0,0,0,0,0,0,0,0,0,0,0,0,0,0,0,0,0,0,0,0,0,0,0,0],"id":9,"left_children":[1,3,5,7,9,11,13,15,17,19,21,23,25,27,-1,-1,-1,-1,-1,-1,-1,-1,-1,-1,-1,-1,-1,-1,-1],"loss_changes":[6.214227E1,1.6368256E1,1.0055901E1,1.12915325E1,1.9378656E1,8.781044E0,2.3499093E0,7.15286E0,4.788744E0,1.4290562E1,8.706123E0,4.844204E0,8.056761E0,2.8093967E0,0E0,0E0,0E0,0E0,0E0,0E0,0E0,0E0,0E0,0E0,0E0,0E0,0E0,0E0,0E0],"parents":[2147483647,0,0,1,1,2,2,3,3,4,4,5,5,6,6,7,7,8,8,9,9,10,10,11,11,12,12,13,13],"right_children":[2,4,6,8,10,12,14,16,18,20,22,24,26,28,-1,-1,-1,-1,-1,-1,-1,-1,-1,-1,-1,-1,-1,-1,-1],"split_conditions":[5.9096403E-2,-4.099548E-1,5.714277E-1,7.625423E-2,1.7466508E0,-1.4250702E-1,1.3603197E-1,-1.5581052E-1,5.6196135E-3,3.9121166E-1,3.355013E-1,-3.0669644E0,-8.2985274E-2,-1.3248062E-2,3.894045E-2,4.3724682E-2,-7.3372014E-4,7.841223E-2,-9.760419E-4,-1.721573E-2,8.024038E-2,3.9936744E-2,-2.726692E-2,2.7804498E-2,7.53141E-2,-8.348548E-3,2.982915E-2,-3.1620126E-2,4.213967E-3],"split_indices":[9,6,12,3,6,3,9,3,2,3,3,6,3,1,0,0,0,0,0,0,0,0,0,0,0,0,0,0,0],"split_type":[0,0,0,0,0,0,0,0,0,0,0,0,0,0,0,0,0,0,0,0,0,0,0,0,0,0,0,0,0],"sum_hessian":[6.8209607E2,5.0703748E2,1.7505858E2,1.1598365E2,3.910538E2,1.5102322E2,2.4035349E1,1.0687385E2,9.109801E0,3.6338416E2,2.7669643E1,2.5753029E1,1.252702E2,2.2138535E1,1.8968136E0,8.964892E0,9.790896E1,6.6109715E0,2.49883E0,3.6055475E2,2.8294113E0,2.2356459E1,5.313185E0,1.0710394E1,1.5042634E1,1.5348898E1,1.099213E2,7.5741343E0,1.4564401E1],"tree_param":{"num_deleted":"0","num_feature":"16","num_nodes":"29","size_leaf_vector":"1"}},{"base_weights":[-1.9069843E-3,-1.5212223E-1,4.174277E-1,6.71656E-1,-2.0531969E-1,5.0668395E-1,-1.3184379E-1,1.8966097E-1,1.0454677E0,1.2628236E-1,-3.170955E-1,6.229604E-1,1.14454344E-1,-4.3054166E-1,3.2710418E-1,3.1160016E-2,-2.4171984E-2,6.286103E-2,-1.9840335E-2,-6.967177E-3,2.0360652E-2,-1.8784244E-2,1.3822928E-2,2.752592E-2,6.5628864E-2,-9.546945E-3,6.0793936E-2,3.1245058E-2,-3.4925673E-2,-5.427147E-2,3.4785036E-2],"categories":[],"categories_nodes":[],"categories_segments":[],"categories_sizes":[],"default_left":[0,0,0,0,0,0,0,0,0,0,0,0,0,0,0,0,0,0,0,0,0,0,0,0,0,0,0,0,0,0,0],"id":10,"left_children":[1,3,5,7,9,11,13,15,17,19,21,23,25,27,29,-1,-1,-1,-1,-1,-1,-1,-1,-1,-1,-1,-1,-1,-1,-1,-1],"loss_changes":[4.268481E1,2.200145E1,8.828926E0,5.2966843E0,1.743873E1,6.94981E0,3.674436E0,4.545131E0,5.6770115E0,8.940805E0,1.2322575E1,5.198368E0,1.24851055E1,4.9747543E0,6.342008E0,0E0,0E0,0E0,0E0,0E0,0E0,0E0,0E0,0E0,0E0,0E0,0E0,0E0,0E0,0E0,0E0],"parents":[2147483647,0,0,1,1,2,2,3,3,4,4,5,5,6,6,7,7,8,8,9,9,10,10,11,11,12,12,13,13,14,14],"right_children":[2,4,6,8,10,12,14,16,18,20,22,24,26,28,30,-1,-1,-1,-1,-1,-1,-1,-1,-1,-1,-1,-1,-1,-1,-1,-1],"split_conditions":[5.9096403E-2,-2.5490725E-2,5.833317E-1,-2.5666194E-2,-1.134924E-2,2.351498E0,1.1334629E0,-4.30744E-2,1.7234264E-2,-4.81549E-3,1.6556772E0,1.3603197E-1,3.6206195E0,-3.3715552E-1,-5.2102894E-1,3.1160016E-2,-2.4171984E-2,6.286103E-2,-1.9840335E-2,-6.967177E-3,2.0360652E-2,-1.8784244E-2,1.3822928E-2,2.752592E-2,6.5628864E-2,-9.546945E-3,6.0793936E-2,3.1245058E-2,-3.4925673E-2,-5.427147E-2,3.4785036E-2],"split_indices":[9,15,12,2,2,6,5,2,0,15,6,9,6,7,7,0,0,0,0,0,0,0,0,0,0,0,0,0,0,0,0],"split_type":[0,0,0,0,0,0,0,0,0,0,0,0,0,0,0,0,0,0,0,0,0,0,0,0,0,0,0,0,0,0,0],"sum_hessian":[6.7563116E2,4.9790683E2,1.7772433E2,2.9497875E1,4.6840894E2,1.5294794E2,2.4776402E1,1.3542922E1,1.5954952E1,1.1805345E2,3.503555E2,1.1752068E2,3.5427254E1,1.5045929E1,9.730473E0,8.2824135E0,5.2605085E0,1.4024239E1,1.930714E0,6.0938656E1,5.7114796E1,3.1921323E2,3.1142275E1,1.0797641E2,9.544274E0,2.838387E1,7.043385E0,2.776873E0,1.2269055E1,1.611216E0,8.119257E0],"tree_param":{"num_deleted":"0","num_feature":"16","num_nodes":"31","size_leaf_vector":"1"}},{"base_weights":[2.3749318E-2,7.668432E-1,-2.6644042E-2,2.017338E-1,9.676739E-1,4.8217073E-1,-8.779844E-2,6.376829E-2,-4.6321338E-1,1.1797445E0,4.2783165E-1,-2.631079E-1,6.274686E-1,-1.8513471E-1,2.2563414E-1,4.720937E-2,-4.4922285E-2,6.6287905E-2,1.3561527E-2,-3.63965E-2,6.610989E-2,1.0304302E-2,-3.4059748E-2,5.8033943E-2,2.316703E-2,6.8296543E-3,-1.627788E-2,-3.0106723E-2,1.4936729E-2],"categories":[],"categories_nodes":[],"categories_segments":[],"categories_sizes":[],"default_left":[0,0,0,0,0,0,0,0,0,0,0,0,0,0,0,0,0,0,0,0,0,0,0,0,0,0,0,0,0],"id":11,"left_children":[1,3,5,7,9,11,13,-1,15,17,19,21,23,25,27,-1,-1,-1,-1,-1,-1,-1,-1,-1,-1,-1,-1,-1,-1],"loss_changes":[2.5163013E1,4.6479683E0,1.9637592E1,9.48085E0,3.0696793E0,7.498516E0,1.7218636E1,0E0,6.008103E0,2.5385323E0,1.1686656E1,2.44598E0,4.44779E0,1.9478062E1,8.28008E0,0E0,0E0,0E0,0E0,0E0,0E0,0E0,0E0,0E0,0E0,0E0,0E0,0E0,0E0],"parents":[2147483647,0,0,1,1,2,2,3,3,4,4,5,5,6,6,8,8,9,9,10,10,11,11,12,12,13,13,14,14],"right_children":[2,4,6,8,10,12,14,-1,16,18,20,22,24,26,28,-1,-1,-1,-1,-1,-1,-1,-1,-1,-1,-1,-1,-1,-1],"split_conditions":[-1.4961636E-1,-3.0669644E0,-1.5583869E-2,-2.8272694E-1,-6.063687E-1,-7.533577E-2,5.5909593E-2,6.376829E-2,-6.939947E-2,-1.5581052E-1,6.727276E-2,2.2222358E-1,-1.5793366E-2,-4.099548E-1,-5.2102894E-1,4.720937E-2,-4.4922285E-2,6.6287905E-2,1.3561527E-2,-3.63965E-2,6.610989E-2,1.0304302E-2,-3.4059748E-2,5.8033943E-2,2.316703E-2,6.8296543E-3,-1.627788E-2,-3.0106723E-2,1.4936729E-2],"split_indices":[3,6,0,3,6,3,2,0,15,3,6,12,15,6,7,0,0,0,0,0,0,0,0,0,0,0,0,0,0],"split_type":[0,0,0,0,0,0,0,0,0,0,0,0,0,0,0,0,0,0,0,0,0,0,0,0,0,0,0,0,0],"sum_hessian":[6.7041785E2,4.167447E1,6.287434E2,1.1452694E1,3.0221775E1,6.672186E1,5.6202155E2,4.0291624E0,7.4235315E0,2.0846949E1,9.374827E0,1.0753411E1,5.5968452E1,4.291566E2,1.3286494E2,1.4772367E0,5.946295E0,1.7564737E1,3.2822099E0,4.170942E0,5.2038856E0,5.305944E0,5.447467E0,1.1743855E1,4.4224598E1,1.3040604E2,2.9875055E2,1.0193992E1,1.2267095E2],"tree_param":{"num_deleted":"0","num_feature":"16","num_nodes":"29","size_leaf_vector":"1"}},{"base_weights":[-2.67015E-2,-1.6064702E-1,3.472801E-1,6.114043E-1,-2.1411684E-1,9.0415204E-1,2.4365951E-1,1.2834269E0,3.0735028E-1,1.8960628E-1,-2.8687152E-1,3.6708853E-1,1.3076752E0,-5.69028E-1,3.035848E-1,7.084946E-2,8.093959E-3,3.805356E-2,-1.6249215E-2,-2.9634222E-2,1.6677769E-2,-1.0411202E-2,-2.9829396E-2,4.9416833E-2,-3.6385164E-2,7.359884E-2,-3.587108E-3,-6.303388E-2,1.0864652E-2,5.2302267E-2,1.0622564E-2],"categories":[],"categories_nodes":[],"categories_segments":[],"categories_sizes":[],"default_left":[0,0,0,0,0,0,0,0,0,0,0,0,0,0,0,0,0,0,0,0,0,0,0,0,0,0,0,0,0,0,0],"id":12,"left_children":[1,3,5,7,9,11,13,15,17,19,21,23,25,27,29,-1,-1,-1,-1,-1,-1,-1,-1,-1,-1,-1,-1,-1,-1,-1,-1],"loss_changes":[3.415416E1,2.0849064E1,1.0156122E1,6.300725E0,1.3862789E1,5.5539246E0,7.623007E0,1.2524128E0,7.096959E0,8.348892E0,9.588081E0,9.788879E0,3.6202183E0,6.176778E0,9.462205E0,0E0,0E0,0E0,0E0,0E0,0E0,0E0,0E0,0E0,0E0,0E0,0E0,0E0,0E0,0E0,0E0],"parents":[2147483647,0,0,1,1,2,2,3,3,4,4,5,5,6,6,7,7,8,8,9,9,10,10,11,11,12,12,13,13,14,14],"right_children":[2,4,6,8,10,12,14,16,18,20,22,24,26,28,30,-1,-1,-1,-1,-1,-1,-1,-1,-1,-1,-1,-1,-1,-1,-1,-1],"split_conditions":[5.8686096E-2,-2.4468742E-2,-1.4250702E-1,3.5597127E-2,-2.1276643E-2,-2.753452E0,-1.21935636E-1,1.1921001E-2,2.5000104E-1,2.5444135E-2,5.000062E-1,-4.186025E0,1.7936653E-1,-9.267725E-3,-1.6082244E0,7.084946E-2,8.093959E-3,3.805356E-2,-1.6249215E-2,-2.9634222E-2,1.6677769E-2,-1.0411202E-2,-2.9829396E-2,4.9416833E-2,-3.6385164E-2,7.359884E-2,-3.587108E-3,-6.303388E-2,1.0864652E-2,5.2302267E-2,1.0622564E-2],"split_indices":[9,15,3,9,10,6,3,0,12,9,12,6,4,15,6,0,0,0,0,0,0,0,0,0,0,0,0,0,0,0,0],"split_type":[0,0,0,0,0,0,0,0,0,0,0,0,0,0,0,0,0,0,0,0,0,0,0,0,0,0,0,0,0,0,0],"sum_hessian":[6.796991E2,5.0087558E2,1.788235E2,3.1766354E1,4.6910922E2,2.6842497E1,1.51981E2,8.892043E0,2.2874311E1,7.138431E1,3.977249E2,1.2335047E1,1.4507449E1,9.853633E0,1.4212738E2,7.710407E0,1.1816366E0,1.3199584E1,9.674727E0,1.0609532E1,6.0774773E1,3.1851538E2,7.920954E1,7.9314957E0,4.403551E0,1.2903429E1,1.6040204E0,4.9214525E0,4.9321804E0,1.4392689E1,1.2773469E2],"tree_param":{"num_deleted":"0","num_feature":"16","num_nodes":"31","size_leaf_vector":"1"}},{"base_weights":[-3.5488687E-3,-1.24769986E-1,3.3388516E-1,1.5547076E-1,-2.3932263E-1,5.2102345E-1,1.1877716E-1,-1.832208E-1,3.7984285E-1,5.8376074E-1,-2.967979E-1,5.867285E-1,-3.4553897E-1,-7.8383315E-1,2.3032959E-1,4.9135674E-2,-1.6186656E-2,1.5952738E-2,7.447933E-2,-2.126672E-2,4.8171163E-2,-1.9170344E-2,1.925076E-3,2.5067493E-2,6.283636E-2,-5.5945385E-2,1.1630861E-2,-5.3642143E-2,1.9573335E-2,-2.1189343E-2,1.8064946E-2],"categories":[],"categories_nodes":[],"categories_segments":[],"categories_sizes":[],"default_left":[0,0,0,0,0,0,0,0,0,0,0,0,0,0,0,0,0,0,0,0,0,0,0,0,0,0,0,0,0,0,0],"id":13,"left_children":[1,3,5,7,9,11,13,15,17,19,21,23,25,27,29,-1,-1,-1,-1,-1,-1,-1,-1,-1,-1,-1,-1,-1,-1,-1,-1],"loss_changes":[2.7750357E1,1.6059399E1,7.1561604E0,1.112076E1,1.6951801E1,5.6455536E0,8.710399E0,9.922337E0,5.447653E0,9.408058E0,9.661448E0,4.473999E0,3.5540977E0,3.662281E0,6.678543E0,0E0,0E0,0E0,0E0,0E0,0E0,0E0,0E0,0E0,0E0,0E0,0E0,0E0,0E0,0E0,0E0],"parents":[2147483647,0,0,1,1,2,2,3,3,4,4,5,5,6,6,7,7,8,8,9,9,10,10,11,11,12,12,13,13,14,14],"right_children":[2,4,6,8,10,12,14,16,18,20,22,24,26,28,30,-1,-1,-1,-1,-1,-1,-1,-1,-1,-1,-1,-1,-1,-1,-1,-1],"split_conditions":[5.9096403E-2,-8.658618E-3,2.6315838E-1,-1.3362798E-2,-7.3091015E-2,3.9121166E-1,-5.2102894E-1,-1.6595039E-1,1.5258289E-2,2.708023E-2,1.018683E-2,2.6999673E-1,7.412861E-2,3.201539E-3,3.0769283E-1,4.9135674E-2,-1.6186656E-2,1.5952738E-2,7.447933E-2,-2.126672E-2,4.8171163E-2,-1.9170344E-2,1.925076E-3,2.5067493E-2,6.283636E-2,-5.5945385E-2,1.1630861E-2,-5.3642143E-2,1.9573335E-2,-2.1189343E-2,1.8064946E-2],"split_indices":[9,1,12,3,3,3,7,3,8,9,8,3,9,8,12,0,0,0,0,0,0,0,0,0,0,0,0,0,0,0,0],"split_type":[0,0,0,0,0,0,0,0,0,0,0,0,0,0,0,0,0,0,0,0,0,0,0,0,0,0,0,0,0,0,0],"sum_hessian":[6.764059E2,4.980976E2,1.7830829E2,1.444236E2,3.5367398E2,9.459284E1,8.371544E1,5.762364E1,8.679996E1,2.2487116E1,3.311869E2,8.822623E1,6.366618E0,8.545353E0,7.517008E1,5.552947E0,5.207069E1,8.35129E1,3.2870579E0,6.114705E0,1.6372412E1,2.6308713E2,6.8099754E1,7.980489E1,8.421334E0,2.3234112E0,4.0432067E0,6.9287324E0,1.6166208E0,1.21670265E1,6.300306E1],"tree_param":{"num_deleted":"0","num_feature":"16","num_nodes":"31","size_leaf_vector":"1"}},{"base_weights":[-4.9020527E-3,-1.0097089E-1,4.9375367E-1,2.2251135E-1,-1.6594048E-1,5.883464E-1,-3.965842E-1,1.2288818E-1,7.57446E-1,6.4290315E-1,-2.0468074E-1,8.211249E-1,2.8184247E-1,4.1373643E-1,-6.6913766E-1,2.1875305E-2,-2.6514952E-3,4.452451E-2,-2.1534262E-2,6.425717E-2,1.648945E-2,-1.6552588E-2,-4.271395E-3,-3.5395866E-4,4.9835283E-2,-3.869056E-2,2.1867923E-2,-2.0445369E-3,3.1667043E-2,-5.2148618E-2,3.0252838E-3],"categories":[],"categories_nodes":[],"categories_segments":[],"categories_sizes":[],"default_left":[0,0,0,0,0,0,0,0,0,0,0,0,0,0,0,0,0,0,0,0,0,0,0,0,0,0,0,0,0,0,0],"id":14,"left_children":[1,3,5,7,9,11,13,15,17,19,21,23,25,27,29,-1,-1,-1,-1,-1,-1,-1,-1,-1,-1,-1,-1,-1,-1,-1,-1],"loss_changes":[3.2695816E1,1.2062952E1,9.518604E0,5.029984E0,1.5080991E1,6.9079666E0,2.747303E0,4.5745745E0,2.7386217E0,4.0098085E0,6.844265E0,8.201267E0,7.6793737E0,3.6867613E-1,2.45049E0,0E0,0E0,0E0,0E0,0E0,0E0,0E0,0E0,0E0,0E0,0E0,0E0,0E0,0E0,0E0,0E0],"parents":[2147483647,0,0,1,1,2,2,3,3,4,4,5,5,6,6,7,7,8,8,9,9,10,10,11,11,12,12,13,13,14,14],"right_children":[2,4,6,8,10,12,14,16,18,20,22,24,26,28,30,-1,-1,-1,-1,-1,-1,-1,-1,-1,-1,-1,-1,-1,-1,-1,-1],"split_conditions":[7.247784E-2,-2.1276643E-2,4.9791002E-1,2.4630731E-2,-2.5490725E-2,2.6315838E-1,8.457413E-2,-4.176904E-2,2.4906182E0,3.61023E-2,6.3694683E-3,-3.7065215E-2,2.999997E-1,5.917139E-2,2.8993769E0,2.1875305E-2,-2.6514952E-3,4.452451E-2,-2.1534262E-2,6.425717E-2,1.648945E-2,-1.6552588E-2,-4.271395E-3,-3.5395866E-4,4.9835283E-2,-3.869056E-2,2.1867923E-2,-2.0445369E-3,3.1667043E-2,-5.2148618E-2,3.0252838E-3],"split_indices":[9,10,4,2,15,12,9,2,5,9,10,15,12,10,6,0,0,0,0,0,0,0,0,0,0,0,0,0,0,0,0],"split_type":[0,0,0,0,0,0,0,0,0,0,0,0,0,0,0,0,0,0,0,0,0,0,0,0,0,0,0,0,0,0,0],"sum_hessian":[6.804691E2,5.712182E2,1.0925089E2,9.513219E1,4.7608603E2,9.906505E1,1.0185842E1,8.123346E1,1.3898729E1,2.1047512E1,4.550385E2,5.5349854E1,4.3715195E1,2.433342E0,7.7524996E0,2.8599016E1,5.2634445E1,1.2724394E1,1.1743362E0,5.8807974E0,1.5166716E1,2.2006346E2,2.3497504E2,9.849588E0,4.5500263E1,5.1026025E0,3.861259E1,1.057628E0,1.375714E0,4.842172E0,2.9103272E0],"tree_param":{"num_deleted":"0","num_feature":"16","num_nodes":"31","size_leaf_vector":"1"}},{"base_weights":[1.816179E-2,-8.024347E-2,4.001732E-1,5.368155E-1,-1.2219169E-1,4.671678E-1,-3.094059E-1,-2.74181E-1,7.8714234E-1,4.8564762E-1,-1.5515374E-1,3.9689058E-1,6.4113185E-2,4.8562804E-1,-6.548986E-1,2.6558606E-2,-3.6393978E-2,1.683035E-2,5.5404067E-2,3.46252E-2,-3.1196598E-2,5.7512387E-3,-1.1679802E-2,-1.4384136E-2,2.3817463E-2,5.260397E-2,-6.030911E-3,-7.053512E-2,-1.438254E-2],"categories":[],"categories_nodes":[],"categories_segments":[],"categories_sizes":[],"default_left":[0,0,0,0,0,0,0,0,0,0,0,0,0,0,0,0,0,0,0,0,0,0,0,0,0,0,0,0,0],"id":15,"left_children":[1,3,5,7,9,11,13,15,17,19,21,23,-1,25,27,-1,-1,-1,-1,-1,-1,-1,-1,-1,-1,-1,-1,-1,-1],"loss_changes":[2.5292168E1,1.3917666E1,6.6955433E0,7.168973E0,1.0131217E1,6.726776E0,3.7487679E0,3.6093001E0,3.4486027E0,6.4132776E0,1.0132742E1,6.541401E0,0E0,1.6233817E0,2.129029E0,0E0,0E0,0E0,0E0,0E0,0E0,0E0,0E0,0E0,0E0,0E0,0E0,0E0,0E0],"parents":[2147483647,0,0,1,1,2,2,3,3,4,4,5,5,6,6,7,7,8,8,9,9,10,10,11,11,13,13,14,14],"right_children":[2,4,6,8,10,12,14,16,18,20,22,24,-1,26,28,-1,-1,-1,-1,-1,-1,-1,-1,-1,-1,-1,-1,-1,-1],"split_conditions":[6.599704E-2,-2.5490725E-2,4.9791002E-1,-3.8951196E-2,-2.0191332E-2,1.5457933E-1,8.567658E-2,1.4286324E-1,-1.3362798E-2,4.166632E-1,-3.7773556E-1,-3.0669644E0,6.4113185E-2,6.666667E-1,-1.2935074E-3,2.6558606E-2,-3.6393978E-2,1.683035E-2,5.5404067E-2,3.46252E-2,-3.1196598E-2,5.7512387E-3,-1.1679802E-2,-1.4384136E-2,2.3817463E-2,5.260397E-2,-6.030911E-3,-7.053512E-2,-1.438254E-2],"split_indices":[9,15,4,1,8,9,9,12,3,14,6,6,0,14,8,0,0,0,0,0,0,0,0,0,0,0,0,0,0],"split_type":[0,0,0,0,0,0,0,0,0,0,0,0,0,0,0,0,0,0,0,0,0,0,0,0,0,0,0,0,0],"sum_hessian":[6.709543E2,5.3414874E2,1.3680556E2,3.32496E1,5.0089917E2,1.2531556E2,1.1489991E1,7.8198714E0,2.5429728E1,2.5059212E1,4.7583997E2,1.16737434E2,8.578127E0,3.357723E0,8.132268E0,2.7563527E0,5.063519E0,1.1431277E1,1.3998449E1,2.1438389E1,3.6208224E0,1.0696263E2,3.6887732E2,1.1868061E1,1.0486937E2,1.3556552E0,2.0020678E0,1.7301991E0,6.402069E0],"tree_param":{"num_deleted":"0","num_feature":"16","num_nodes":"29","size_leaf_vector":"1"}},{"base_weights":[-3.1656106E-3,-1.0237442E-1,4.0266523E-1,9.222101E-2,-2.193036E-1,3.2639527E-1,1.1098818E0,1.3601277E0,3.623938E-2,9.889653E-2,-3.4610498E-1,5.066541E-1,-2.1052271E-2,1.2032331E0,1.8848715E-2,1.8080456E-2,7.2231464E-2,-1.8655738E-3,5.0688185E-2,1.4871567E-2,-2.0805357E-2,-2.9917752E-2,-9.67712E-3,-1.08918315E-2,3.6237333E-2,-3.5057522E-2,1.4792916E-2,6.6935316E-2,2.2429328E-2],"categories":[],"categories_nodes":[],"categories_segments":[],"categories_sizes":[],"default_left":[0,0,0,0,0,0,0,0,0,0,0,0,0,0,0,0,0,0,0,0,0,0,0,0,0,0,0,0,0],"id":16,"left_children":[1,3,5,7,9,11,13,15,17,19,21,23,25,27,-1,-1,-1,-1,-1,-1,-1,-1,-1,-1,-1,-1,-1,-1,-1],"loss_changes":[2.7168028E1,1.2357452E1,6.7876186E0,1.4445938E1,1.3711706E1,7.5931435E0,4.0075493E-1,2.0393181E-1,1.4173574E1,1.0079515E1,9.220989E0,1.2759113E1,9.327661E0,4.8521137E-1,0E0,0E0,0E0,0E0,0E0,0E0,0E0,0E0,0E0,0E0,0E0,0E0,0E0,0E0,0E0],"parents":[2147483647,0,0,1,1,2,2,3,3,4,4,5,5,6,6,7,7,8,8,9,9,10,10,11,11,12,12,13,13],"right_children":[2,4,6,8,10,12,14,16,18,20,22,24,26,28,-1,-1,-1,-1,-1,-1,-1,-1,-1,-1,-1,-1,-1,-1,-1],"split_conditions":[6.599704E-2,2.5578633E-2,1.454813E-1,-5.3952422E-2,-7.843042E-3,2.3120942E0,8.952399E-2,-9.3750286E-1,5.231857E-2,5.2709854E-3,7.4546054E-2,-2.6150657E-2,1.311624E-1,7.058814E-1,1.8848715E-2,1.8080456E-2,7.2231464E-2,-1.8655738E-3,5.0688185E-2,1.4871567E-2,-2.0805357E-2,-2.9917752E-2,-9.67712E-3,-1.08918315E-2,3.6237333E-2,-3.5057522E-2,1.4792916E-2,6.6935316E-2,2.2429328E-2],"split_indices":[9,3,9,10,10,5,15,13,2,15,3,15,3,13,0,0,0,0,0,0,0,0,0,0,0,0,0,0,0],"split_type":[0,0,0,0,0,0,0,0,0,0,0,0,0,0,0,0,0,0,0,0,0,0,0,0,0,0,0,0,0],"sum_hessian":[6.7275714E2,5.412032E2,1.3155399E2,2.0321718E2,3.37986E2,1.20066864E2,1.1487122E1,7.608106E0,1.9560907E2,9.6370445E1,2.4161555E2,7.875162E1,4.1315247E1,9.620074E0,1.8670471E0,1.0055288E0,6.602577E0,1.828155E2,1.2793568E1,6.9861275E1,2.650917E1,8.9956924E1,1.5165863E2,1.8221622E1,6.053E1,1.2747129E1,2.8568117E1,7.499774E0,2.1203008E0],"tree_param":{"num_deleted":"0","num_feature":"16","num_nodes":"29","size_leaf_vector":"1"}},{"base_weights":[2.3998804E-2,-7.4330054E-2,3.0223656E-1,1.7219345E-1,-1.7086639E-1,8.189107E-1,1.7239182E-1,-2.2509134E-1,4.5656124E-1,2.2176968E-1,-3.1702256E-1,1.0185053E0,1.17263034E-1,7.834047E-1,9.958111E-2,1.9036414E-2,-2.5194297E-2,1.4148543E-2,4.0416107E-2,-5.9612384E-3,2.8162917E-2,-3.0602172E-2,-9.726744E-3,2.7986206E-4,5.720945E-2,-1.1100208E-2,4.2043816E-2,4.842353E-2,-2.2277586E-2,-1.22615285E-2,1.401973E-2],"categories":[],"categories_nodes":[],"categories_segments":[],"categories_sizes":[],"default_left":[0,0,0,0,0,0,0,0,0,0,0,0,0,0,0,0,0,0,0,0,0,0,0,0,0,0,0,0,0,0,0],"id":17,"left_children":[1,3,5,7,9,11,13,15,17,19,21,23,25,27,29,-1,-1,-1,-1,-1,-1,-1,-1,-1,-1,-1,-1,-1,-1,-1,-1],"loss_changes":[1.827861E1,1.1782235E1,1.1561471E1,1.5858902E1,2.0464302E1,4.749525E0,6.1802297E0,1.0131777E1,4.754835E0,1.1361394E1,9.25437E0,3.4228668E0,2.3543875E0,3.8049793E0,7.9767523E0,0E0,0E0,0E0,0E0,0E0,0E0,0E0,0E0,0E0,0E0,0E0,0E0,0E0,0E0,0E0,0E0],"parents":[2147483647,0,0,1,1,2,2,3,3,4,4,5,5,6,6,7,7,8,8,9,9,10,10,11,11,12,12,13,13,14,14],"right_children":[2,4,6,8,10,12,14,16,18,20,22,24,26,28,30,-1,-1,-1,-1,-1,-1,-1,-1,-1,-1,-1,-1,-1,-1,-1,-1],"split_conditions":[5.9096403E-2,-9.617916E-3,-1.3006793E-2,-1.3362798E-2,1.9594308E-2,3.750031E-1,-1.6595039E-1,-5.8663305E-2,1.7786031E-3,8.507554E-3,5.8093976E-2,-5.362684E-1,8.203162E-3,1.5984386E-1,-7.888268E-2,1.9036414E-2,-2.5194297E-2,1.4148543E-2,4.0416107E-2,-5.9612384E-3,2.8162917E-2,-3.0602172E-2,-9.726744E-3,2.7986206E-4,5.720945E-2,-1.1100208E-2,4.2043816E-2,4.842353E-2,-2.2277586E-2,-1.22615285E-2,1.401973E-2],"split_indices":[9,1,0,3,3,12,3,2,2,1,3,4,3,4,5,0,0,0,0,0,0,0,0,0,0,0,0,0,0,0,0],"split_type":[0,0,0,0,0,0,0,0,0,0,0,0,0,0,0,0,0,0,0,0,0,0,0,0,0,0,0,0,0,0,0],"sum_hessian":[6.662861E2,4.9284732E2,1.7343875E2,1.384657E2,3.5438162E2,3.376706E1,1.3967169E2,5.7851257E1,8.061443E1,9.5991455E1,2.5839017E2,2.5937222E1,7.829836E0,1.3832517E1,1.2583918E2,1.8117144E1,3.973411E1,5.5185436E1,2.5429E1,4.835615E1,4.76353E1,7.463335E1,1.8375682E2,2.978388E0,2.2958834E1,5.8025174E0,2.0273187E0,1.22063465E1,1.6261702E0,4.3165745E1,8.267343E1],"tree_param":{"num_deleted":"0","num_feature":"16","num_nodes":"31","size_leaf_vector":"1"}},{"base_weights":[7.281044E-3,-1.4933787E-1,2.3675208E-1,-1.5833953E-2,-3.437434E-1,3.163044E-1,-3.6788318E-1,-8.9761496E-2,7.778948E-1,-5.5022645E-1,3.3345988E-1,7.3996866E-1,2.3437996E-1,1.7357737E-2,-7.4810386E-1,-1.0924139E-2,8.830965E-3,5.3260587E-3,5.6274742E-2,5.705261E-2,-3.1494502E-2,-2.3187712E-2,3.083826E-2,4.4323537E-2,1.2613726E-2,2.0491915E-2,5.289795E-3,1.6299207E-2,-2.8138373E-2,-4.648757E-2,4.332179E-2],"categories":[],"categories_nodes":[],"categories_segments":[],"categories_sizes":[],"default_left":[0,0,0,0,0,0,0,0,0,0,0,0,0,0,0,0,0,0,0,0,0,0,0,0,0,0,0,0,0,0,0],"id":18,"left_children":[1,3,5,7,9,11,13,15,17,19,21,23,25,27,29,-1,-1,-1,-1,-1,-1,-1,-1,-1,-1,-1,-1,-1,-1,-1,-1],"loss_changes":[2.4303337E1,1.0426534E1,1.3310358E1,1.4114229E1,2.3059437E1,8.258862E0,4.7524133E0,7.5769563E0,4.6633854E0,1.7661228E1,9.060253E0,2.55591E0,4.582658E0,3.2359984E0,5.588006E0,0E0,0E0,0E0,0E0,0E0,0E0,0E0,0E0,0E0,0E0,0E0,0E0,0E0,0E0,0E0,0E0],"parents":[2147483647,0,0,1,1,2,2,3,3,4,4,5,5,6,6,7,7,8,8,9,9,10,10,11,11,12,12,13,13,14,14],"right_children":[2,4,6,8,10,12,14,16,18,20,22,24,26,28,30,-1,-1,-1,-1,-1,-1,-1,-1,-1,-1,-1,-1,-1,-1,-1,-1],"split_conditions":[4.680317E-2,2.0970559E-2,6.249969E-1,1.3006733E-1,5.5909593E-2,-1.6286656E-2,8.822903E-3,3.3333233E-1,9.585541E-3,-1.7206287E-2,-7.7733737E-3,2.0600193E0,1.0466706E-3,1.6666874E-1,1.1157292E-1,-1.0924139E-2,8.830965E-3,5.3260587E-3,5.6274742E-2,5.705261E-2,-3.1494502E-2,-2.3187712E-2,3.083826E-2,4.4323537E-2,1.2613726E-2,2.0491915E-2,5.289795E-3,1.6299207E-2,-2.8138373E-2,-4.648757E-2,4.332179E-2],"split_indices":[9,2,12,4,2,8,15,11,2,4,15,5,15,11,9,0,0,0,0,0,0,0,0,0,0,0,0,0,0,0,0],"split_type":[0,0,0,0,0,0,0,0,0,0,0,0,0,0,0,0,0,0,0,0,0,0,0,0,0,0,0,0,0,0,0],"sum_hessian":[6.7424524E2,4.0094254E2,2.733027E2,2.3834534E2,1.625972E2,2.419465E2,3.1356216E1,2.1884877E2,1.9496567E1,1.24748276E2,3.784893E1,3.7902916E1,2.0404358E2,1.604933E1,1.5306888E1,1.4767072E2,7.1178055E1,7.0964823E0,1.24000845E1,5.01231E0,1.1973596E2,9.756746E0,2.8092184E1,2.8518387E1,9.384528E0,8.536803E1,1.1867556E2,1.0762019E1,5.2873106E0,1.4140155E1,1.1667324E0],"tree_param":{"num_deleted":"0","num_feature":"16","num_nodes":"31","size_leaf_vector":"1"}},{"base_weights":[9.085885E-3,-8.7419815E-2,3.558034E-1,2.87657E-1,-1.6144124E-1,4.3994057E-1,-4.4747573E-1,7.6867473E-1,1.5373316E-1,5.2252984E-1,-1.9458784E-1,-2.9008245E-1,4.9940255E-1,5.455479E-2,-7.2300416E-1,4.566777E-2,-2.5736233E-2,-1.1054047E-2,2.5870768E-2,5.3768206E-2,2.1453013E-3,-3.7150837E-2,-7.957952E-3,2.5901753E-2,-5.016106E-2,1.2559081E-2,3.271687E-2,-4.21648E-2,7.938046E-3],"categories":[],"categories_nodes":[],"categories_segments":[],"categories_sizes":[],"default_left":[0,0,0,0,0,0,0,0,0,0,0,0,0,0,0,0,0,0,0,0,0,0,0,0,0,0,0,0,0],"id":19,"left_children":[1,3,5,7,9,11,13,15,17,19,21,23,25,-1,27,-1,-1,-1,-1,-1,-1,-1,-1,-1,-1,-1,-1,-1,-1],"loss_changes":[2.2385775E1,1.4578829E1,1.0041794E1,5.462677E0,1.0027139E1,5.8904114E0,6.8537035E0,3.9270096E0,9.522112E0,5.391408E0,8.0092125E0,6.629373E0,4.556677E0,0E0,1.4846835E0,0E0,0E0,0E0,0E0,0E0,0E0,0E0,0E0,0E0,0E0,0E0,0E0,0E0,0E0],"parents":[2147483647,0,0,1,1,2,2,3,3,4,4,5,5,6,6,7,7,8,8,9,9,10,10,11,11,12,12,14,14],"right_children":[2,4,6,8,10,12,14,16,18,20,22,24,26,-1,28,-1,-1,-1,-1,-1,-1,-1,-1,-1,-1,-1,-1,-1,-1],"split_conditions":[6.3381806E-2,-2.1276643E-2,4.9791002E-1,-1.8260147E-2,-2.5490725E-2,-5.4226893E-1,1.2447593E-1,3.1787924E-2,-3.5716419E-3,2.6443333E-3,-1.30759E0,1.501875E-2,7.601956E-2,5.455479E-2,3.4495869E0,4.566777E-2,-2.5736233E-2,-1.1054047E-2,2.5870768E-2,5.3768206E-2,2.1453013E-3,-3.7150837E-2,-7.957952E-3,2.5901753E-2,-5.016106E-2,1.2559081E-2,3.271687E-2,-4.21648E-2,7.938046E-3],"split_indices":[9,10,4,8,15,7,2,15,8,0,5,10,9,0,6,0,0,0,0,0,0,0,0,0,0,0,0,0,0],"split_type":[0,0,0,0,0,0,0,0,0,0,0,0,0,0,0,0,0,0,0,0,0,0,0,0,0,0,0,0,0],"sum_hessian":[6.670969E2,5.224309E2,1.4466606E2,8.563258E1,4.367983E2,1.3135951E2,1.3306554E1,1.7617111E1,6.801547E1,1.950725E1,4.1729105E2,9.601545E0,1.21757965E2,1.5714494E0,1.1735105E1,1.609142E1,1.5256929E0,3.368821E1,3.4327263E1,8.484994E0,1.1022255E1,2.4109533E1,3.9318152E2,4.6292906E0,4.9722548E0,4.779957E1,7.39584E1,1.0364755E1,1.3703494E0],"tree_param":{"num_deleted":"0","num_feature":"16","num_nodes":"29","size_leaf_vector":"1"}},{"base_weights":[-1.0687336E-2,2.1819147E-1,-9.735886E-2,7.215224E-1,1.22251324E-1,-2.019201E-1,2.156152E-1,1.2544958E-1,1.0012583E0,-1.3577536E-1,3.290607E-1,-2.2230323E-1,6.836276E-2,5.510941E-1,9.773944E-3,3.550374E-2,-4.0121246E-2,6.396933E-2,8.4971385E-3,1.9891073E-3,-4.555172E-2,2.0195883E-2,-5.2913453E-2,-7.900751E-3,-3.436355E-2,5.6981344E-2,1.4360775E-2,-2.6871592E-3,4.9973495E-2],"categories":[],"categories_nodes":[],"categories_segments":[],"categories_sizes":[],"default_left":[0,0,0,0,0,0,0,0,0,0,0,0,0,0,0,0,0,0,0,0,0,0,0,0,0,0,0,0,0],"id":20,"left_children":[1,3,5,7,9,11,13,15,17,19,21,23,-1,25,27,-1,-1,-1,-1,-1,-1,-1,-1,-1,-1,-1,-1,-1,-1],"loss_changes":[1.3372775E1,8.853804E0,1.604206E1,4.7835503E0,8.408318E0,1.2041283E1,8.482275E0,6.2910557E0,4.3824387E0,9.623266E0,9.492969E0,1.0745817E1,0E0,6.928321E0,4.9061527E0,0E0,0E0,0E0,0E0,0E0,0E0,0E0,0E0,0E0,0E0,0E0,0E0,0E0,0E0],"parents":[2147483647,0,0,1,1,2,2,3,3,4,4,5,5,6,6,7,7,8,8,9,9,10,10,11,11,13,13,14,14],"right_children":[2,4,6,8,10,12,14,16,18,20,22,24,-1,26,28,-1,-1,-1,-1,-1,-1,-1,-1,-1,-1,-1,-1,-1,-1],"split_conditions":[-4.099548E-1,-1.5581052E-1,1.4307333E0,-3.0669644E0,-1.2741174E0,1.9074353E0,2.0286319E-1,-4.186025E0,1.7049449E-2,8.8889015E-1,3.4625325E-2,1.1538669E0,6.836276E-2,-2.5133392E-1,3.8192918E0,3.550374E-2,-4.0121246E-2,6.396933E-2,8.4971385E-3,1.9891073E-3,-4.555172E-2,2.0195883E-2,-5.2913453E-2,-7.900751E-3,-3.436355E-2,5.6981344E-2,1.4360775E-2,-2.6871592E-3,4.9973495E-2],"split_indices":[6,3,6,6,5,5,4,6,15,14,15,6,0,7,6,0,0,0,0,0,0,0,0,0,0,0,0,0,0],"split_type":[0,0,0,0,0,0,0,0,0,0,0,0,0,0,0,0,0,0,0,0,0,0,0,0,0,0,0,0,0],"sum_hessian":[6.720528E2,1.8417447E2,4.878783E2,2.8441462E1,1.55733E2,3.6596738E2,1.2191091E2,9.5469265E0,1.8894533E1,6.943971E1,8.62933E1,3.6212186E2,3.845524E0,4.571979E1,7.6191124E1,6.000761E0,3.5461655E0,1.3753962E1,5.140572E0,5.739198E1,1.2047734E1,8.254806E1,3.7452383E0,3.1931235E2,4.280951E1,1.312597E1,3.259382E1,7.2484856E1,3.7062666E0],"tree_param":{"num_deleted":"0","num_feature":"16","num_nodes":"29","size_leaf_vector":"1"}},{"base_weights":[1.112175E-2,3.8216513E-1,-4.583386E-2,8.5707194E-1,2.5661513E-1,-1.19029075E-1,2.0320816E-1,3.5090023E-1,1.2244489E0,6.9377553E-1,8.7860115E-2,3.2982606E-2,-3.5357034E-1,8.161404E-1,1.0833913E-1,3.5358023E-2,-2.0607946E-2,6.945585E-2,-5.5393865E-3,2.1213607E-3,4.4758562E-2,-7.0488895E-3,2.5289863E-2,-4.0827827E-3,1.4015915E-2,1.2887877E-2,-2.3232276E-2,5.6115486E-2,-8.474978E-3,4.2287573E-2,1.2771464E-4],"categories":[],"categories_nodes":[],"categories_segments":[],"categories_sizes":[],"default_left":[0,0,0,0,0,0,0,0,0,0,0,0,0,0,0,0,0,0,0,0,0,0,0,0,0,0,0,0,0,0,0],"id":21,"left_children":[1,3,5,7,9,11,13,15,17,19,21,23,25,27,29,-1,-1,-1,-1,-1,-1,-1,-1,-1,-1,-1,-1,-1,-1,-1,-1],"loss_changes":[1.4051445E1,5.0555544E0,1.0534811E1,2.9310627E0,5.206868E0,1.5922039E1,7.5488863E0,2.7387123E0,2.3680792E0,2.5518055E0,5.1080284E0,7.726165E0,1.2041906E1,5.4565067E0,8.960127E0,0E0,0E0,0E0,0E0,0E0,0E0,0E0,0E0,0E0,0E0,0E0,0E0,0E0,0E0,0E0,0E0],"parents":[2147483647,0,0,1,1,2,2,3,3,4,4,5,5,6,6,7,7,8,8,9,9,10,10,11,11,12,12,13,13,14,14],"right_children":[2,4,6,8,10,12,14,16,18,20,22,24,26,28,30,-1,-1,-1,-1,-1,-1,-1,-1,-1,-1,-1,-1,-1,-1,-1,-1],"split_conditions":[-1.4060852E-2,-1.963743E-2,5.5909593E-2,-7.533577E-2,-2.0538156E-1,2.7691543E-1,1.2132312E0,-1.3249479E-1,6.428576E-1,-4.5418385E-2,5.5708563E-1,8.267546E-3,-9.390255E-3,3.3764977E-2,1.3217238E-2,3.5358023E-2,-2.0607946E-2,6.945585E-2,-5.5393865E-3,2.1213607E-3,4.4758562E-2,-7.0488895E-3,2.5289863E-2,-4.0827827E-3,1.4015915E-2,1.2887877E-2,-2.3232276E-2,5.6115486E-2,-8.474978E-3,4.2287573E-2,1.2771464E-4],"split_indices":[0,15,2,3,7,6,5,3,14,1,7,1,1,0,3,0,0,0,0,0,0,0,0,0,0,0,0,0,0,0,0],"split_type":[0,0,0,0,0,0,0,0,0,0,0,0,0,0,0,0,0,0,0,0,0,0,0,0,0,0,0,0,0,0,0],"sum_hessian":[6.630765E2,8.7478516E1,5.7559796E2,1.707268E1,7.040583E1,4.452561E2,1.3034187E2,8.002287E0,9.070392E0,1.8742414E1,5.1663418E1,2.7068088E2,1.7457523E2,1.6451138E1,1.1389074E2,5.505236E0,2.4970508E0,8.0386715E0,1.0317209E0,4.7123923E0,1.4030022E1,3.381241E1,1.7851011E1,1.8541313E2,8.5267746E1,2.663927E1,1.4793596E2,1.2446287E1,4.00485E0,1.3410797E1,1.0047994E2],"tree_param":{"num_deleted":"0","num_feature":"16","num_nodes":"31","size_leaf_vector":"1"}},{"base_weights":[2.3850463E-2,-4.2948652E-2,4.3822825E-1,1.7189518E-1,-1.16825014E-1,5.464229E-1,-4.1225746E-1,-9.0618394E-2,3.0939353E-1,-3.935821E-2,-3.9413798E-1,3.2972235E-2,6.696836E-1,-5.917565E-2,-8.254927E-2,7.604538E-3,-2.5862057E-2,5.4055747E-2,1.1842965E-2,-4.0911688E-3,2.8490907E-2,-2.3906821E-2,1.00154306E-4,3.2086246E-2,-4.0601004E-2,3.7104957E-2,-1.5302321E-3,-2.3329502E-2,3.319474E-2],"categories":[],"categories_nodes":[],"categories_segments":[],"categories_sizes":[],"default_left":[0,0,0,0,0,0,0,0,0,0,0,0,0,0,0,0,0,0,0,0,0,0,0,0,0,0,0,0,0],"id":22,"left_children":[1,3,5,7,9,11,13,15,17,19,21,23,25,-1,27,-1,-1,-1,-1,-1,-1,-1,-1,-1,-1,-1,-1,-1,-1],"loss_changes":[1.8340939E1,9.082035E0,8.689131E0,5.3158045E0,9.124213E0,5.169447E0,2.6869483E0,5.372836E0,5.138135E0,8.678058E0,3.0884523E0,9.2307205E0,3.3746567E0,0E0,2.8170097E0,0E0,0E0,0E0,0E0,0E0,0E0,0E0,0E0,0E0,0E0,0E0,0E0,0E0,0E0],"parents":[2147483647,0,0,1,1,2,2,3,3,4,4,5,5,6,6,7,7,8,8,9,9,10,10,11,11,12,12,14,14],"right_children":[2,4,6,8,10,12,14,16,18,20,22,24,26,-1,28,-1,-1,-1,-1,-1,-1,-1,-1,-1,-1,-1,-1,-1,-1],"split_conditions":[7.561168E-2,-3.7773556E-1,4.9791002E-1,-1.3503646E0,4.9999836E-1,-3.0669644E0,-1.2935074E-3,-5.5296313E-2,-5.2418727E-2,4.4444416E-2,1.4307333E0,-4.186025E0,6.363634E-1,-5.917565E-2,1.6828121E-1,7.604538E-3,-2.5862057E-2,5.4055747E-2,1.1842965E-2,-4.0911688E-3,2.8490907E-2,-2.3906821E-2,1.00154306E-4,3.2086246E-2,-4.0601004E-2,3.7104957E-2,-1.5302321E-3,-2.3329502E-2,3.319474E-2],"split_indices":[9,6,4,5,12,6,8,2,2,10,6,6,12,0,2,0,0,0,0,0,0,0,0,0,0,0,0,0,0],"split_type":[0,0,0,0,0,0,0,0,0,0,0,0,0,0,0,0,0,0,0,0,0,0,0,0,0,0,0,0,0],"sum_hessian":[6.609245E2,5.69944E2,9.098055E1,1.4549509E2,4.2444888E2,8.1029854E1,9.950704E0,5.012904E1,9.5366035E1,3.326623E2,9.178659E1,1.593191E1,6.509794E1,2.2044537E0,7.7462497E0,3.2361702E1,1.7767338E1,6.998737E0,8.83673E1,3.1179312E2,2.0869148E1,7.555813E1,1.622846E1,9.400279E0,6.5316305E0,5.8943043E1,6.154899E0,5.3622975E0,2.3839521E0],"tree_param":{"num_deleted":"0","num_feature":"16","num_nodes":"29","size_leaf_vector":"1"}}]},"name":"gbtree"},"learner_model_param":{"base_score":"[5E-1]","boost_from_average":"1","num_class":"0","num_feature":"16","num_target":"1"},"objective":{"name":"binary:logistic","reg_loss_param":{"scale_pos_weight":"0.456313252"}}},"version":[3,2,0]}