{"learner":{"attributes":{"scikit_learn":"{\"_estimator_type\": \"classifier\"}"},"feature_names":["bias_week","bias_month","bias_quarter","bias_year","rsi","macd","macd_signal","vol_change","close_change","bb_width","return_5d","k_upper","k_lower","k_body","buy_power","rs_5d"],"feature_types":["float","float","float","float","float","float","float","float","float","float","float","float","float","float","float","float"],"gradient_booster":{"model":{"gbtree_model_param":{"num_parallel_tree":"1","num_trees":"100"},"iteration_indptr":[0,1,2,3,4,5,6,7,8,9,10,11,12,13,14,15,16,17,18,19,20,21,22,23,24,25,26,27,28,29,30,31,32,33,34,35,36,37,38,39,40,41,42,43,44,45,46,47,48,49,50,51,52,53,54,55,56,57,58,59,60,61,62,63,64,65,66,67,68,69,70,71,72,73,74,75,76,77,78,79,80,81,82,83,84,85,86,87,88,89,90,91,92,93,94,95,96,97,98,99,100],"tree_info":[0,0,0,0,0,0,0,0,0,0,0,0,0,0,0,0,0,0,0,0,0,0,0,0,0,0,0,0,0,0,0,0,0,0,0,0,0,0,0,0,0,0,0,0,0,0,0,0,0,0,0,0,0,0,0,0,0,0,0,0,0,0,0,0,0,0,0,0,0,0,0,0,0,0,0,0,0,0,0,0,0,0,0,0,0,0,0,0,0,0,0,0,0,0,0,0,0,0,0,0],"trees":[{"base_weights":[-1.0653647E-3,-3.3619007E-1,4.260358E-1,2.8777028E-2,-3.9337108E-1,2.1274659E-1,5.820453E-1,-2.0869786E-2,7.09189E-2,-4.9880143E-2,-1.6812716E-2,5.07428E-2,8.137678E-3,5.0408147E-2,1.1767084E-1],"categories":[],"categories_nodes":[],"categories_segments":[],"categories_sizes":[],"default_left":[0,0,0,0,0,0,0,0,0,0,0,0,0,0,0],"id":0,"left_children":[1,3,5,7,9,11,13,-1,-1,-1,-1,-1,-1,-1,-1],"loss_changes":[1.0695045E2,9.638847E0,9.052494E0,9.674279E0,7.558445E0,4.2833085E0,4.269516E0,0E0,0E0,0E0,0E0,0E0,0E0,0E0,0E0],"parents":[2147483647,0,0,1,1,2,2,3,3,4,4,5,5,6,6],"right_children":[2,4,6,8,10,12,14,-1,-1,-1,-1,-1,-1,-1,-1],"split_conditions":[6.873449E-2,-3.0967955E-2,9.370118E-2,-1.1142094E-2,7.978736E-3,-1.1266021E-2,2.109045E-1,-2.0869786E-2,7.09189E-2,-4.9880143E-2,-1.6812716E-2,5.07428E-2,8.137678E-3,5.0408147E-2,1.1767084E-1],"split_indices":[9,1,9,15,0,0,9,0,0,0,0,0,0,0,0],"split_type":[0,0,0,0,0,0,0,0,0,0,0,0,0,0,0],"sum_hessian":[7.48474E2,4.223626E2,3.2611142E2,5.187477E1,3.7048782E2,1.4394774E2,1.8216368E2,3.6070305E1,1.5804467E1,2.4200916E2,1.2847867E2,3.849185E1,1.0545588E2,1.65763E2,1.6400677E1],"tree_param":{"num_deleted":"0","num_feature":"16","num_nodes":"15","size_leaf_vector":"1"}},{"base_weights":[1.2868594E-2,-3.1837946E-1,4.6926674E-1,3.2812038E-1,-3.9651164E-1,3.3154207E-1,1.0435594E-1,-1.4089614E-2,6.897244E-2,-6.2456917E-2,-1.302016E-2,6.061525E-3,4.3166734E-2],"categories":[],"categories_nodes":[],"categories_segments":[],"categories_sizes":[],"default_left":[0,0,0,0,0,0,0,0,0,0,0,0,0],"id":1,"left_children":[1,3,5,7,9,11,-1,-1,-1,-1,-1,-1,-1],"loss_changes":[1.1465956E2,2.21525E1,2.2604927E1,8.827528E0,2.2485706E1,6.241886E0,0E0,0E0,0E0,0E0,0E0,0E0,0E0],"parents":[2147483647,0,0,1,1,2,2,3,3,4,4,5,5],"right_children":[2,4,6,8,10,12,-1,-1,-1,-1,-1,-1,-1],"split_conditions":[6.962954E-2,-9.552539E-2,4.030459E-1,-8.33329E-3,5.462596E-2,8.3906166E-2,1.0435594E-1,-1.4089614E-2,6.897244E-2,-6.2456917E-2,-1.302016E-2,6.061525E-3,4.3166734E-2],"split_indices":[9,3,3,8,3,9,0,0,0,0,0,0,0],"split_type":[0,0,0,0,0,0,0,0,0,0,0,0,0],"sum_hessian":[7.5602075E2,4.3522424E2,3.207965E2,4.3789192E1,3.9143506E2,2.626983E2,5.8098213E1,1.6530083E1,2.725911E1,2.0376903E2,1.8766602E2,7.882638E1,1.838719E2],"tree_param":{"num_deleted":"0","num_feature":"16","num_nodes":"13","size_leaf_vector":"1"}},{"base_weights":[7.1381354E-3,-7.077004E-2,8.233295E-2,6.800303E-1,-1.448537E-1,-0E0,8.8564314E-2,1.1492724E-1,-1.7230941E-2],"categories":[],"categories_nodes":[],"categories_segments":[],"categories_sizes":[],"default_left":[0,0,0,0,0,0,0,0,0],"id":2,"left_children":[1,3,-1,5,7,-1,-1,-1,-1],"loss_changes":[4.9790913E1,3.6770855E1,0E0,6.7206955E0,2.1260532E1,0E0,0E0,0E0,0E0],"parents":[2147483647,0,0,1,1,3,3,4,4],"right_children":[2,4,-1,6,8,-1,-1,-1,-1],"split_conditions":[1.563492E-1,-1.0732023E-1,8.233295E-2,-2.6666563E-2,-4.824668E-2,-0E0,8.8564314E-2,1.1492724E-1,-1.7230941E-2],"split_indices":[2,2,0,8,0,0,0,0,0],"split_type":[0,0,0,0,0,0,0,0,0],"sum_hessian":[7.4985614E2,6.825605E2,6.729565E1,5.85111E1,6.240494E2,1.6165073E1,4.2346027E1,1.17534275E1,6.1229596E2],"tree_param":{"num_deleted":"0","num_feature":"16","num_nodes":"9","size_leaf_vector":"1"}},{"base_weights":[-1.3549914E-2,-3.4337813E-1,3.679926E-1,2.5287074E-1,-4.1871867E-1,2.520531E-1,8.7633364E-2,6.938439E-2,-0E0,-5.696396E-2,-0E0,5.394072E-2,1.1537972E-2],"categories":[],"categories_nodes":[],"categories_segments":[],"categories_sizes":[],"default_left":[0,0,0,0,0,0,0,0,0,0,0,0,0],"id":3,"left_children":[1,3,5,7,9,11,-1,-1,-1,-1,-1,-1,-1],"loss_changes":[9.514929E1,1.8752125E1,1.8194023E1,3.839576E0,2.3676529E1,9.888935E0,0E0,0E0,0E0,0E0,0E0,0E0,0E0],"parents":[2147483647,0,0,1,1,2,2,3,3,4,4,5,5],"right_children":[2,4,6,8,10,12,-1,-1,-1,-1,-1,-1,-1],"split_conditions":[6.492204E-2,-9.383201E-2,3.8987672E-1,7.692192E-2,1.7295031E-1,-6.435344E-2,8.7633364E-2,6.938439E-2,-0E0,-5.696396E-2,-0E0,5.394072E-2,1.1537972E-2],"split_indices":[9,3,3,12,3,2,0,0,0,0,0,0,0],"split_type":[0,0,0,0,0,0,0,0,0,0,0,0,0],"sum_hessian":[7.563772E2,4.0885507E2,3.475221E2,4.2488808E1,3.6636627E2,2.8736942E2,6.015267E1,1.3334278E1,2.9154531E1,2.6656363E2,9.9802635E1,8.591025E1,2.0145918E2],"tree_param":{"num_deleted":"0","num_feature":"16","num_nodes":"13","size_leaf_vector":"1"}},{"base_weights":[-2.1666566E-2,-2.752955E-1,3.5098657E-1,2.7533665E-2,-3.0341336E-1,6.996608E-1,2.650527E-1,-3.5161622E-2,1.0848017E-3,-0E0,8.411201E-2,1.522573E-2,7.107713E-2],"categories":[],"categories_nodes":[],"categories_segments":[],"categories_sizes":[],"default_left":[0,0,0,0,0,0,0,0,0,0,0,0,0],"id":4,"left_children":[1,3,5,-1,7,9,11,-1,-1,-1,-1,-1,-1],"loss_changes":[7.156835E1,7.1414223E0,6.9129105E0,0E0,7.7877884E0,4.637127E0,1.0573088E1,0E0,0E0,0E0,0E0,0E0,0E0],"parents":[2147483647,0,0,1,1,2,2,4,4,5,5,6,6],"right_children":[2,4,6,-1,8,10,12,-1,-1,-1,-1,-1,-1],"split_conditions":[7.21051E-2,-3.8515117E-2,-2.2172889E-2,2.7533665E-2,1.7759485E-2,-4.1392022E-1,1.353088E-1,-3.5161622E-2,1.0848017E-3,-0E0,8.411201E-2,1.522573E-2,7.107713E-2],"split_indices":[9,15,0,0,8,4,9,0,0,0,0,0,0],"split_type":[0,0,0,0,0,0,0,0,0,0,0,0,0],"sum_hessian":[7.5885986E2,4.551521E2,3.037078E2,1.8114468E1,4.3703763E2,5.475387E1,2.4895392E2,3.8215244E2,5.4885185E1,1.1046953E1,4.3706913E1,2.0370929E2,4.5244633E1],"tree_param":{"num_deleted":"0","num_feature":"16","num_nodes":"13","size_leaf_vector":"1"}},{"base_weights":[-8.554352E-3,6.247469E-1,-5.498155E-2,8.146895E-2,-0E0,-1.9523652E-1,2.1439865E-1,4.062423E-2,-2.6884094E-2,9.431349E-3,5.565411E-2],"categories":[],"categories_nodes":[],"categories_segments":[],"categories_sizes":[],"default_left":[0,0,0,0,0,0,0,0,0,0,0],"id":5,"left_children":[1,3,5,-1,-1,7,9,-1,-1,-1,-1],"loss_changes":[2.0969555E1,6.250412E0,2.6728043E1,0E0,0E0,2.1300106E1,8.323987E0,0E0,0E0,0E0,0E0],"parents":[2147483647,0,0,1,1,2,2,5,5,6,6],"right_children":[2,4,6,-1,-1,8,10,-1,-1,-1,-1],"split_conditions":[-2.2130579E-1,4.3576542E-1,1.3906698E-1,8.146895E-2,-0E0,-2.4846919E0,4.7651437E-1,4.062423E-2,-2.6884094E-2,9.431349E-3,5.565411E-2],"split_indices":[3,7,3,0,0,5,3,0,0,0,0],"split_type":[0,0,0,0,0,0,0,0,0,0,0],"sum_hessian":[7.5671106E2,4.830226E1,7.084088E2,3.7186493E1,1.1115769E1,4.713745E2,2.3703429E2,4.9133526E1,4.22241E2,1.8124544E2,5.578885E1],"tree_param":{"num_deleted":"0","num_feature":"16","num_nodes":"11","size_leaf_vector":"1"}},{"base_weights":[2.1390308E-4,-2.1520998E-1,3.3679256E-1,1.2228169E-1,-2.9728016E-1,2.9019517E-1,1.20705865E-1,-1.2138002E-2,3.9927766E-2,-3.2877002E-2,4.386716E-2,5.5763166E-2,1.8731432E-2],"categories":[],"categories_nodes":[],"categories_segments":[],"categories_sizes":[],"default_left":[0,0,0,0,0,0,0,0,0,0,0,0,0],"id":6,"left_children":[1,3,5,7,9,11,-1,-1,-1,-1,-1,-1,-1],"loss_changes":[5.4975147E1,1.3025406E1,8.815384E0,6.3844466E0,9.156918E0,6.183359E0,0E0,0E0,0E0,0E0,0E0,0E0,0E0],"parents":[2147483647,0,0,1,1,2,2,3,3,4,4,5,5],"right_children":[2,4,6,8,10,12,-1,-1,-1,-1,-1,-1,-1],"split_conditions":[7.21051E-2,-2.423103E-2,2.258591E-1,-2.2722043E-1,1.2568296E-1,-5.333315E-1,1.20705865E-1,-1.2138002E-2,3.9927766E-2,-3.2877002E-2,4.386716E-2,5.5763166E-2,1.8731432E-2],"split_indices":[9,1,9,4,2,13,0,0,0,0,0,0,0],"split_type":[0,0,0,0,0,0,0,0,0,0,0,0,0],"sum_hessian":[7.5426764E2,4.558409E2,2.9842673E2,8.378577E1,3.7205515E2,2.859507E2,1.2476014E1,4.04604E1,4.3325367E1,3.585912E2,1.3463957E1,7.151417E1,2.1443654E2],"tree_param":{"num_deleted":"0","num_feature":"16","num_nodes":"13","size_leaf_vector":"1"}},{"base_weights":[4.1518677E-2,-1.0158112E-2,6.366878E-2,4.949667E-1,-8.418239E-2,8.499753E-3,6.5512285E-2,8.991397E-2,-1.2149748E-2],"categories":[],"categories_nodes":[],"categories_segments":[],"categories_sizes":[],"default_left":[0,0,0,0,0,0,0,0,0],"id":7,"left_children":[1,3,-1,5,7,-1,-1,-1,-1],"loss_changes":[2.441428E1,2.4464535E1,0E0,3.926859E0,2.0855215E1,0E0,0E0,0E0,0E0],"parents":[2147483647,0,0,1,1,3,3,4,4],"right_children":[2,4,-1,6,8,-1,-1,-1,-1],"split_conditions":[1.6452834E-1,-8.485413E-2,6.366878E-2,-1.7985703E-2,-3.6746338E-2,8.499753E-3,6.5512285E-2,8.991397E-2,-1.2149748E-2],"split_indices":[2,2,0,8,0,0,0,0,0],"split_type":[0,0,0,0,0,0,0,0,0],"sum_hessian":[7.4100433E2,6.7888403E2,6.212035E1,8.282255E1,5.9606146E2,2.7798033E1,5.5024517E1,1.9928692E1,5.7613275E2],"tree_param":{"num_deleted":"0","num_feature":"16","num_nodes":"9","size_leaf_vector":"1"}},{"base_weights":[-1.2324301E-2,-2.3558654E-1,2.672054E-1,-0E0,-3.7590314E-2,3.3245984E-1,-0E0,-1.9905336E-2,1.38996765E-2,3.9434664E-2,-0E0,-4.7312632E-2,1.0235993E-2],"categories":[],"categories_nodes":[],"categories_segments":[],"categories_sizes":[],"default_left":[0,0,0,0,0,0,0,0,0,0,0,0,0],"id":8,"left_children":[1,3,5,7,-1,9,11,-1,-1,-1,-1,-1,-1],"loss_changes":[4.7210175E1,1.4054256E1,6.169075E0,4.6461825E0,0E0,6.4890804E0,3.472917E0,0E0,0E0,0E0,0E0,0E0,0E0],"parents":[2147483647,0,0,1,1,2,2,3,3,5,5,6,6],"right_children":[2,4,6,8,-1,10,12,-1,-1,-1,-1,-1,-1],"split_conditions":[6.873449E-2,1.3793148E-1,4.6153846E-1,4.1189548E-2,-3.7590314E-2,7.440929E-1,-2.7272695E-1,-1.9905336E-2,1.38996765E-2,3.9434664E-2,-0E0,-4.7312632E-2,1.0235993E-2],"split_indices":[9,12,12,9,0,7,13,0,0,0,0,0,0],"split_type":[0,0,0,0,0,0,0,0,0,0,0,0,0],"sum_hessian":[7.57457E2,4.2560278E2,3.3185422E2,1.6326967E2,2.623331E2,2.701539E2,6.170032E1,6.960661E1,9.3663055E1,2.2999382E2,4.0160084E1,1.2901708E1,4.8798615E1],"tree_param":{"num_deleted":"0","num_feature":"16","num_nodes":"13","size_leaf_vector":"1"}},{"base_weights":[-0E0,-2.4747431E-1,2.2470815E-1,2.3517181E-1,-3.0833253E-1,1.4538063E-1,5.3619426E-2,-0E0,6.833674E-2,-4.2880233E-2,2.8688589E-3,-5.7314043E-3,2.3554489E-2],"categories":[],"categories_nodes":[],"categories_segments":[],"categories_sizes":[],"default_left":[0,0,0,0,0,0,0,0,0,0,0,0,0],"id":9,"left_children":[1,3,5,7,9,11,-1,-1,-1,-1,-1,-1,-1],"loss_changes":[4.1186646E1,1.0497335E1,8.199371E0,4.5205703E0,1.4133726E1,6.3336596E0,0E0,0E0,0E0,0E0,0E0,0E0,0E0],"parents":[2147483647,0,0,1,1,2,2,3,3,4,4,5,5],"right_children":[2,4,6,8,10,12,-1,-1,-1,-1,-1,-1,-1],"split_conditions":[6.038119E-2,-9.552539E-2,3.347525E-1,3.333344E-1,1.7295031E-1,-2.2167016E-2,5.3619426E-2,-0E0,6.833674E-2,-4.2880233E-2,2.8688589E-3,-5.7314043E-3,2.3554489E-2],"split_indices":[9,3,3,11,3,15,0,0,0,0,0,0,0],"split_type":[0,0,0,0,0,0,0,0,0,0,0,0,0],"sum_hessian":[7.406747E2,3.5149506E2,3.8917966E2,3.518515E1,3.163099E2,3.168448E2,7.2334854E1,2.162745E1,1.3557698E1,2.3618394E2,8.0125946E1,9.117962E1,2.2566518E2],"tree_param":{"num_deleted":"0","num_feature":"16","num_nodes":"13","size_leaf_vector":"1"}},{"base_weights":[7.4336687E-3,-3.206763E-2,5.649314E-2,4.990004E-1,-7.908521E-2,9.89074E-3,9.275243E-2,-1.0996321E-2,7.53498E-2],"categories":[],"categories_nodes":[],"categories_segments":[],"categories_sizes":[],"default_left":[0,0,0,0,0,0,0,0,0],"id":10,"left_children":[1,3,-1,5,7,-1,-1,-1,-1],"loss_changes":[1.769864E1,1.6287857E1,0E0,6.754467E0,1.5538625E1,0E0,0E0,0E0,0E0],"parents":[2147483647,0,0,1,1,3,3,4,4],"right_children":[2,4,-1,6,8,-1,-1,-1,-1],"split_conditions":[3.651304E0,-6.2500104E-2,5.649314E-2,-5.485214E-1,9.913949E-2,9.89074E-3,9.275243E-2,-1.0996321E-2,7.53498E-2],"split_indices":[6,10,0,6,10,0,0,0,0],"split_type":[0,0,0,0,0,0,0,0,0],"sum_hessian":[7.424551E2,6.900224E2,5.2432713E1,5.2160908E1,6.378615E2,2.9975594E1,2.2185314E1,6.1723895E2,2.0622517E1],"tree_param":{"num_deleted":"0","num_feature":"16","num_nodes":"9","size_leaf_vector":"1"}},{"base_weights":[1.4226436E-2,-8.871748E-2,2.4732912E-1,2.7087562E-2,-1.7226802E-1,3.0654304E-2,-8.033059E-3,7.90664E-2,-2.114987E-2],"categories":[],"categories_nodes":[],"categories_segments":[],"categories_sizes":[],"default_left":[0,0,0,0,0,0,0,0,0],"id":11,"left_children":[1,3,5,-1,7,-1,-1,-1,-1],"loss_changes":[1.8133602E1,1.5105795E1,5.2476406E0,0E0,1.52477865E1,0E0,0E0,0E0,0E0],"parents":[2147483647,0,0,1,1,2,2,4,4],"right_children":[2,4,6,-1,8,-1,-1,-1,-1],"split_conditions":[1.4829385E-1,-2.024741E0,8.666674E-1,2.7087562E-2,-2.3473553E-1,3.0654304E-2,-8.033059E-3,7.90664E-2,-2.114987E-2],"split_indices":[3,6,14,0,3,0,0,0,0],"split_type":[0,0,0,0,0,0,0,0,0],"sum_hessian":[7.406259E2,5.0706845E2,2.3355745E2,9.0038284E1,4.1703018E2,2.0239993E2,3.1157524E1,1.4608614E1,4.0242157E2],"tree_param":{"num_deleted":"0","num_feature":"16","num_nodes":"9","size_leaf_vector":"1"}},{"base_weights":[5.864836E-2,-1.2176982E-1,2.5678763E-1,4.6531305E-2,-1.6270162E-1,6.5287596E-1,1.5201391E-1,-3.6619764E-2,-7.70497E-3,1.11041395E-2,8.7231964E-2,6.753188E-3,4.3328144E-2],"categories":[],"categories_nodes":[],"categories_segments":[],"categories_sizes":[],"default_left":[0,0,0,0,0,0,0,0,0,0,0,0,0],"id":12,"left_children":[1,3,5,-1,7,9,11,-1,-1,-1,-1,-1,-1],"loss_changes":[2.6879124E1,8.581515E0,1.3127653E1,0E0,5.3444204E0,6.4353466E0,5.778899E0,0E0,0E0,0E0,0E0,0E0,0E0],"parents":[2147483647,0,0,1,1,2,2,4,4,5,5,6,6],"right_children":[2,4,6,-1,8,10,12,-1,-1,-1,-1,-1,-1],"split_conditions":[6.394826E-2,-1.8167186E0,-1.8838298E-2,4.6531305E-2,-4.2649734E-1,-1.0009778E-1,1.563492E-1,-3.6619764E-2,-7.70497E-3,1.11041395E-2,8.7231964E-2,6.753188E-3,4.3328144E-2],"split_indices":[9,5,0,0,5,2,2,0,0,0,0,0,0],"split_type":[0,0,0,0,0,0,0,0,0,0,0,0,0],"sum_hessian":[7.4324603E2,3.830797E2,3.6016632E2,2.1198141E1,3.6188156E2,7.075555E1,2.8941077E2,9.7757576E1,2.64124E2,2.385334E1,4.6902206E1,2.2971329E2,5.9697475E1],"tree_param":{"num_deleted":"0","num_feature":"16","num_nodes":"13","size_leaf_vector":"1"}},{"base_weights":[-3.0581374E-2,-1.3624987E-1,1.9319613E-1,2.3915595E-1,-2.1931008E-1,3.6939427E-1,-8.04802E-2,9.3713626E-2,8.6021505E-4,-6.095798E-2,-7.5334166E-3,2.1240791E-2,8.094145E-2,-2.7985021E-2,3.612809E-2],"categories":[],"categories_nodes":[],"categories_segments":[],"categories_sizes":[],"default_left":[0,0,0,0,0,0,0,0,0,0,0,0,0,0,0],"id":13,"left_children":[1,3,5,7,9,11,13,-1,-1,-1,-1,-1,-1,-1,-1],"loss_changes":[1.7409203E1,1.5880792E1,1.1795062E1,1.2099463E1,2.2409151E1,7.7582226E0,7.492732E0,0E0,0E0,0E0,0E0,0E0,0E0,0E0,0E0],"parents":[2147483647,0,0,1,1,2,2,3,3,4,4,5,5,6,6],"right_children":[2,4,6,8,10,12,14,-1,-1,-1,-1,-1,-1,-1,-1],"split_conditions":[8.278305E-2,-1.303178E0,2.1585643E-1,4.6585824E-2,-2.2404522E-1,1.3032017E0,4.35993E0,9.3713626E-2,8.6021505E-4,-6.095798E-2,-7.5334166E-3,2.1240791E-2,8.094145E-2,-2.7985021E-2,3.612809E-2],"split_indices":[9,6,4,9,6,5,6,0,0,0,0,0,0,0,0],"split_type":[0,0,0,0,0,0,0,0,0,0,0,0,0,0,0],"sum_hessian":[7.4150055E2,5.105312E2,2.3096935E2,8.7548836E1,4.2298233E2,1.4550256E2,8.546679E1,1.9089828E1,6.845901E1,1.083477E2,3.1463464E2,1.1179369E2,3.370887E1,6.2311596E1,2.3155191E1],"tree_param":{"num_deleted":"0","num_feature":"16","num_nodes":"15","size_leaf_vector":"1"}},{"base_weights":[2.1761123E-2,3.6095458E-1,-2.1052485E-2,-9.782037E-3,4.8758674E-1,-1.4802621E-1,8.416287E-2,6.001136E-2,-0E0,1.038576E-2,-3.0453105E-2,1.4905735E-2,-1.2331843E-2],"categories":[],"categories_nodes":[],"categories_segments":[],"categories_sizes":[],"default_left":[0,0,0,0,0,0,0,0,0,0,0,0,0],"id":14,"left_children":[1,3,5,-1,7,9,11,-1,-1,-1,-1,-1,-1],"loss_changes":[1.1480423E1,6.036152E0,8.818378E0,0E0,4.159872E0,1.2668394E1,4.8190413E0,0E0,0E0,0E0,0E0,0E0,0E0],"parents":[2147483647,0,0,1,1,2,2,4,4,5,5,6,6],"right_children":[2,4,6,-1,8,10,12,-1,-1,-1,-1,-1,-1],"split_conditions":[-4.560094E-2,-3.9766407E-1,8.254768E-3,-9.782037E-3,4.9999842E-1,-2.3818843E-2,8.666674E-1,6.001136E-2,-0E0,1.038576E-2,-3.0453105E-2,1.4905735E-2,-1.2331843E-2],"split_indices":[10,4,1,0,11,1,14,0,0,0,0,0,0],"split_type":[0,0,0,0,0,0,0,0,0,0,0,0,0],"sum_hessian":[7.3766144E2,8.8510574E1,6.491509E2,1.5278112E1,7.323246E1,3.0385495E2,3.452959E2,5.891282E1,1.4319643E1,1.1185992E2,1.9199504E2,2.7040186E2,7.489404E1],"tree_param":{"num_deleted":"0","num_feature":"16","num_nodes":"13","size_leaf_vector":"1"}},{"base_weights":[2.0805302E-3,-3.8588226E-2,6.1605282E-2,3.881469E-2,-8.8026345E-2,4.4243433E-2,-1.2104066E-2],"categories":[],"categories_nodes":[],"categories_segments":[],"categories_sizes":[],"default_left":[0,0,0,0,0,0,0],"id":15,"left_children":[1,3,-1,-1,5,-1,-1],"loss_changes":[1.9837763E1,1.3922092E1,0E0,0E0,1.0546835E1,0E0,0E0],"parents":[2147483647,0,0,1,1,4,4],"right_children":[2,4,-1,-1,6,-1,-1],"split_conditions":[3.7884977E0,-2.6953871E0,6.1605282E-2,3.881469E-2,-6.4394E-2,4.4243433E-2,-1.2104066E-2],"split_indices":[6,6,0,0,10,0,0],"split_type":[0,0,0,0,0,0,0],"sum_hessian":[7.3578503E2,6.870702E2,4.8714836E1,6.610912E1,6.2096106E2,3.3132946E1,5.878281E2],"tree_param":{"num_deleted":"0","num_feature":"16","num_nodes":"7","size_leaf_vector":"1"}},{"base_weights":[2.0665029E-2,5.821394E-2,-1.9029748E-2,-8.383038E-2,2.0253697E-1,3.2233246E-2,-1.1665602E-2,5.172146E-2,8.687652E-3],"categories":[],"categories_nodes":[],"categories_segments":[],"categories_sizes":[],"default_left":[0,0,0,0,0,0,0,0,0],"id":16,"left_children":[1,-1,3,5,7,-1,-1,-1,-1],"loss_changes":[1.7649601E1,0E0,9.453443E0,6.8744574E0,3.9508982E0,0E0,0E0,0E0,0E0],"parents":[2147483647,0,0,2,2,3,3,4,4],"right_children":[2,-1,4,6,8,-1,-1,-1,-1],"split_conditions":[-6.2500104E-2,5.821394E-2,2.234273E-1,-2.1644269E-1,2.5919977E-1,3.2233246E-2,-1.1665602E-2,5.172146E-2,8.687652E-3],"split_indices":[10,0,3,3,3,0,0,0,0],"split_type":[0,0,0,0,0,0,0,0,0],"sum_hessian":[7.282592E2,5.1364616E1,6.768946E2,5.316337E2,1.4526086E2,3.5419586E1,4.9621414E2,3.3224346E1,1.1203652E2],"tree_param":{"num_deleted":"0","num_feature":"16","num_nodes":"9","size_leaf_vector":"1"}},{"base_weights":[-5.524751E-3,-2.4963167E-2,5.738902E-2,3.1365877E-1,-5.190682E-2,-8.237292E-3,9.785479E-2,1.021085E-2,-9.937434E-3],"categories":[],"categories_nodes":[],"categories_segments":[],"categories_sizes":[],"default_left":[0,0,0,0,0,0,0,0,0],"id":17,"left_children":[1,3,-1,5,7,-1,-1,-1,-1],"loss_changes":[6.926971E0,5.803214E0,0E0,1.4181465E1,4.8914614E0,0E0,0E0,0E0,0E0],"parents":[2147483647,0,0,1,1,3,3,4,4],"right_children":[2,4,-1,6,8,-1,-1,-1,-1],"split_conditions":[7.764744E-2,-3.404254E-2,5.738902E-2,-1.1860701E-1,-1.2483878E0,-8.237292E-3,9.785479E-2,1.021085E-2,-9.937434E-3],"split_indices":[15,0,0,6,6,0,0,0,0],"split_type":[0,0,0,0,0,0,0,0,0],"sum_hessian":[7.199017E2,7.005213E2,1.9380373E1,4.5402985E1,6.5511835E2,2.6496784E1,1.8906202E1,1.4456912E2,5.1054922E2],"tree_param":{"num_deleted":"0","num_feature":"16","num_nodes":"9","size_leaf_vector":"1"}},{"base_weights":[-0E0,3.5243973E-2,-2.8746193E-2,-7.770621E-2,2.1491726E-1,5.4539805E-3,-1.33326175E-2,5.245326E-2,-1.4062064E-2],"categories":[],"categories_nodes":[],"categories_segments":[],"categories_sizes":[],"default_left":[0,0,0,0,0,0,0,0,0],"id":18,"left_children":[1,-1,3,5,7,-1,-1,-1,-1],"loss_changes":[6.774043E0,0E0,7.683257E0,4.434037E0,1.256415E1,0E0,0E0,0E0,0E0],"parents":[2147483647,0,0,2,2,3,3,4,4],"right_children":[2,-1,4,6,8,-1,-1,-1,-1],"split_conditions":[-6.2500104E-2,3.5243973E-2,1.1165E-1,-5.824251E-2,1.1030566E-1,5.4539805E-3,-1.33326175E-2,5.245326E-2,-1.4062064E-2],"split_indices":[10,0,2,3,9,0,0,0,0],"split_type":[0,0,0,0,0,0,0,0,0],"sum_hessian":[7.1898724E2,4.9203087E1,6.697841E2,5.6546844E2,1.0431568E2,1.5738095E2,4.080875E2,5.8831543E1,4.548414E1],"tree_param":{"num_deleted":"0","num_feature":"16","num_nodes":"9","size_leaf_vector":"1"}},{"base_weights":[2.7277464E-2,-2.367009E-1,6.9712065E-2,-4.1112444E-1,2.773314E-2,1.1929413E-1,-7.494869E-2,-0E0,-5.6503072E-2,1.7953776E-2,-5.1473454E-3,-4.3623812E-2,7.068106E-3],"categories":[],"categories_nodes":[],"categories_segments":[],"categories_sizes":[],"default_left":[0,0,0,0,0,0,0,0,0,0,0,0,0],"id":19,"left_children":[1,3,5,7,-1,9,11,-1,-1,-1,-1,-1,-1],"loss_changes":[7.8139224E0,8.761385E0,4.671241E0,4.011485E0,0E0,5.426378E0,8.892058E0,0E0,0E0,0E0,0E0,0E0,0E0],"parents":[2147483647,0,0,1,1,2,2,3,3,5,5,6,6],"right_children":[2,4,6,8,-1,10,12,-1,-1,-1,-1,-1,-1],"split_conditions":[3.186333E-2,1.18174115E-2,4.3576542E-1,-1.2237447E-2,2.773314E-2,4.254838E-2,-1.5552417E-2,-0E0,-5.6503072E-2,1.7953776E-2,-5.1473454E-3,-4.3623812E-2,7.068106E-3],"split_indices":[9,1,7,15,0,1,15,0,0,0,0,0,0],"split_type":[0,0,0,0,0,0,0,0,0,0,0,0,0],"sum_hessian":[7.3097437E2,9.3824265E1,6.371501E2,7.340639E1,2.0417875E1,4.8612912E2,1.5102097E2,2.2835299E1,5.057109E1,3.670249E2,1.1910422E2,4.7574398E1,1.0344657E2],"tree_param":{"num_deleted":"0","num_feature":"16","num_nodes":"13","size_leaf_vector":"1"}},{"base_weights":[6.4697396E-3,5.1102668E-2,-2.4387749E-2,-5.932251E-2,3.4205785E-1,1.4475568E-2,-9.97935E-3,5.123269E-2,-4.2497236E-3],"categories":[],"categories_nodes":[],"categories_segments":[],"categories_sizes":[],"default_left":[0,0,0,0,0,0,0,0,0],"id":20,"left_children":[1,-1,3,5,7,-1,-1,-1,-1],"loss_changes":[1.2414753E1,0E0,8.006173E0,5.1683044E0,4.6372876E0,0E0,0E0,0E0,0E0],"parents":[2147483647,0,0,2,2,3,3,4,4],"right_children":[2,-1,4,6,8,-1,-1,-1,-1],"split_conditions":[-6.563252E-2,5.1102668E-2,7.605622E-2,-1.6355776E0,4.2105332E-1,1.4475568E-2,-9.97935E-3,5.123269E-2,-4.2497236E-3],"split_indices":[10,0,10,6,12,0,0,0,0],"split_type":[0,0,0,0,0,0,0,0,0],"sum_hessian":[7.2029504E2,4.5304276E1,6.749908E2,6.219184E2,5.3072395E1,9.495123E1,5.2696716E2,4.0535954E1,1.253644E1],"tree_param":{"num_deleted":"0","num_feature":"16","num_nodes":"9","size_leaf_vector":"1"}},{"base_weights":[1.2307356E-2,-9.52376E-2,1.3966456E-1,4.242719E-2,-2.1044582E-1,1.8482038E-1,-2.5020873E-2,-1.7042335E-2,3.0273672E-2,-1.0805155E-2,-4.6589132E-2,7.9960935E-3,3.5078347E-2],"categories":[],"categories_nodes":[],"categories_segments":[],"categories_sizes":[],"default_left":[0,0,0,0,0,0,0,0,0,0,0,0,0],"id":21,"left_children":[1,3,5,7,9,11,-1,-1,-1,-1,-1,-1,-1],"loss_changes":[1.0007032E1,6.447008E0,5.8815556E0,9.617296E0,4.4071846E0,4.484989E0,0E0,0E0,0E0,0E0,0E0,0E0,0E0],"parents":[2147483647,0,0,1,1,2,2,3,3,4,4,5,5],"right_children":[2,4,6,8,10,12,-1,-1,-1,-1,-1,-1,-1],"split_conditions":[3.9553955E-1,-1.250614E0,6.250006E-1,-2.436724E-2,1.48216635E-2,8.278305E-2,-2.5020873E-2,-1.7042335E-2,3.0273672E-2,-1.0805155E-2,-4.6589132E-2,7.9960935E-3,3.5078347E-2],"split_indices":[6,5,12,15,15,9,0,0,0,0,0,0,0],"split_type":[0,0,0,0,0,0,0,0,0,0,0,0,0],"sum_hessian":[7.2315405E2,3.824864E2,3.4066766E2,1.653666E2,2.1711981E2,3.1066516E2,3.0002502E1,8.638344E1,7.8983154E1,1.6234283E2,5.4776974E1,2.0040437E2,1.1026078E2],"tree_param":{"num_deleted":"0","num_feature":"16","num_nodes":"13","size_leaf_vector":"1"}},{"base_weights":[8.881343E-3,-1.1691535E-1,1.1079171E-1,-3.7229158E-2,-3.9586924E-2,2.1843937E-1,-3.0647038E-2,1.62764E-3,-4.377532E-2,1.0701833E-2,5.4852083E-2,-2.0895692E-2,2.5360215E-2],"categories":[],"categories_nodes":[],"categories_segments":[],"categories_sizes":[],"default_left":[0,0,0,0,0,0,0,0,0,0,0,0,0],"id":22,"left_children":[1,3,5,7,-1,9,11,-1,-1,-1,-1,-1,-1],"loss_changes":[9.18933E0,6.016181E0,6.612883E0,6.3575683E0,0E0,7.376664E0,8.492452E0,0E0,0E0,0E0,0E0,0E0,0E0],"parents":[2147483647,0,0,1,1,2,2,3,3,5,5,6,6],"right_children":[2,4,6,8,-1,10,12,-1,-1,-1,-1,-1,-1],"split_conditions":[5.6526817E-2,4.8946526E-2,1.2728956E-1,8.7500185E-1,-3.9586924E-2,2.3577197E-1,1.5326336E-1,1.62764E-3,-4.377532E-2,1.0701833E-2,5.4852083E-2,-2.0895692E-2,2.5360215E-2],"split_indices":[9,9,4,14,0,5,7,0,0,0,0,0,0],"split_type":[0,0,0,0,0,0,0,0,0,0,0,0,0],"sum_hessian":[7.177174E2,3.1130865E2,4.0640878E2,2.4904886E2,6.2259804E1,2.3979811E2,1.6661067E2,2.1500299E2,3.4045868E1,1.8537292E2,5.442519E1,1.0714396E2,5.946671E1],"tree_param":{"num_deleted":"0","num_feature":"16","num_nodes":"13","size_leaf_vector":"1"}},{"base_weights":[-3.0724711E-3,5.221908E-2,-2.1541713E-1,-6.910441E-2,1.4649807E-1,-3.1507707E-1,-0E0,9.480073E-3,-2.7755419E-2,5.847725E-2,1.0296491E-2,-0E0,-4.69046E-2],"categories":[],"categories_nodes":[],"categories_segments":[],"categories_sizes":[],"default_left":[0,0,0,0,0,0,0,0,0,0,0,0,0],"id":23,"left_children":[1,3,5,7,9,11,-1,-1,-1,-1,-1,-1,-1],"loss_changes":[8.784938E0,6.584959E0,3.5168505E0,8.557898E0,4.5956197E0,5.4591045E0,0E0,0E0,0E0,0E0,0E0,0E0,0E0],"parents":[2147483647,0,0,1,1,2,2,3,3,4,4,5,5],"right_children":[2,4,6,8,10,12,-1,-1,-1,-1,-1,-1,-1],"split_conditions":[4.3478203E-1,-1.4115876E-1,3.4011103E-2,-1.2483878E0,-2.874566E-2,-1.7449971E-2,-0E0,9.480073E-3,-2.7755419E-2,5.847725E-2,1.0296491E-2,-0E0,-4.69046E-2],"split_indices":[12,6,1,6,0,1,0,0,0,0,0,0,0],"split_type":[0,0,0,0,0,0,0,0,0,0,0,0,0],"sum_hessian":[7.167459E2,5.602947E2,1.5645125E2,2.3455888E2,3.2573578E2,1.0851612E2,4.7935127E1,1.25675385E2,1.0888349E2,2.3909616E1,3.0182617E2,3.5955284E1,7.256084E1],"tree_param":{"num_deleted":"0","num_feature":"16","num_nodes":"13","size_leaf_vector":"1"}},{"base_weights":[-9.347999E-3,-3.867282E-2,3.8434383E-2,2.1585556E-2,-2.094378E-2,5.303714E-2,-0E0],"categories":[],"categories_nodes":[],"categories_segments":[],"categories_sizes":[],"default_left":[0,0,0,0,0,0,0],"id":24,"left_children":[1,3,-1,5,-1,-1,-1],"loss_changes":[7.796841E0,7.620376E0,0E0,6.1681185E0,0E0,0E0,0E0],"parents":[2147483647,0,0,1,1,3,3],"right_children":[2,4,-1,6,-1,-1,-1],"split_conditions":[3.684894E0,3.750019E-1,3.8434383E-2,-3.859654E-2,-2.094378E-2,5.303714E-2,-0E0],"split_indices":[6,12,0,8,0,0,0],"split_type":[0,0,0,0,0,0,0],"sum_hessian":[7.374693E2,6.920738E2,4.5395496E1,5.0323126E2,1.8884251E2,2.2320726E1,4.8091052E2],"tree_param":{"num_deleted":"0","num_feature":"16","num_nodes":"7","size_leaf_vector":"1"}},{"base_weights":[1.8198984E-2,-7.7614165E-3,4.2765015E-1,-2.7973376E-2,5.127246E-2,9.101753E-2,1.6688211E-1,-6.737503E-4,-5.9814684E-2,-1.3695229E-2,4.3282744E-2],"categories":[],"categories_nodes":[],"categories_segments":[],"categories_sizes":[],"default_left":[0,0,0,0,0,0,0,0,0,0,0],"id":25,"left_children":[1,3,5,7,-1,-1,9,-1,-1,-1,-1],"loss_changes":[8.549286E0,5.976534E0,3.652172E0,6.504032E0,0E0,0E0,3.4958868E0,0E0,0E0,0E0,0E0],"parents":[2147483647,0,0,1,1,2,2,3,3,6,6],"right_children":[2,4,6,8,-1,-1,10,-1,-1,-1,-1],"split_conditions":[3.684894E0,9.913949E-2,2.5393066E-1,3.2033749E0,5.127246E-2,9.101753E-2,8.559855E-3,-6.737503E-4,-5.9814684E-2,-1.3695229E-2,4.3282744E-2],"split_indices":[6,10,4,5,0,0,0,0,0,0,0],"split_type":[0,0,0,0,0,0,0,0,0,0,0],"sum_hessian":[7.15137E2,6.6739264E2,4.7744373E1,6.46843E2,2.0549652E1,1.351465E1,3.422972E1,6.2771906E2,1.9123978E1,1.2149645E1,2.2080076E1],"tree_param":{"num_deleted":"0","num_feature":"16","num_nodes":"11","size_leaf_vector":"1"}},{"base_weights":[-0E0,-1.2291411E-2,6.05786E-2,-1.1299144E-1,4.580282E-2,9.8580755E-3,-2.293214E-2,4.3239854E-2,-0E0],"categories":[],"categories_nodes":[],"categories_segments":[],"categories_sizes":[],"default_left":[0,0,0,0,0,0,0,0,0],"id":26,"left_children":[1,3,-1,5,7,-1,-1,-1,-1],"loss_changes":[4.9713273E0,4.2846966E0,0E0,7.142313E0,6.8250527E0,0E0,0E0,0E0,0E0],"parents":[2147483647,0,0,1,1,3,3,4,4],"right_children":[2,4,-1,6,8,-1,-1,-1,-1],"split_conditions":[2.109045E-1,-2.2404522E-1,6.05786E-2,-1.9477026E0,-4.4642873E-2,9.8580755E-3,-2.293214E-2,4.3239854E-2,-0E0],"split_indices":[9,6,0,6,10,0,0,0,0],"split_type":[0,0,0,0,0,0,0,0,0],"sum_hessian":[7.193422E2,7.063755E2,1.2966732E1,2.7259528E2,4.337802E2,9.06441E1,1.8195119E2,4.0634705E1,3.931455E2],"tree_param":{"num_deleted":"0","num_feature":"16","num_nodes":"9","size_leaf_vector":"1"}},{"base_weights":[-1.2185132E-2,-7.46072E-2,1.9115934E-1,-3.9112687E-2,-3.8009277E-1,-8.302465E-3,3.8707048E-2,-9.431576E-3,3.5431076E-2,-0E0,-6.096259E-2],"categories":[],"categories_nodes":[],"categories_segments":[],"categories_sizes":[],"default_left":[0,0,0,0,0,0,0,0,0,0,0],"id":27,"left_children":[1,3,5,7,9,-1,-1,-1,-1,-1,-1],"loss_changes":[8.715482E0,5.013809E0,9.317896E0,1.0481511E1,5.3936048E0,0E0,0E0,0E0,0E0,0E0,0E0],"parents":[2147483647,0,0,1,1,2,2,3,3,4,4],"right_children":[2,4,6,8,10,-1,-1,-1,-1,-1,-1],"split_conditions":[7.939414E-2,1.4628516E0,1.3157885E-1,4.0901106E-2,1.0710236E-1,-8.302465E-3,3.8707048E-2,-9.431576E-3,3.5431076E-2,-0E0,-6.096259E-2],"split_indices":[2,5,11,2,4,0,0,0,0,0,0],"split_type":[0,0,0,0,0,0,0,0,0,0,0],"sum_hessian":[7.0716296E2,5.495884E2,1.5757457E2,4.990692E2,5.0519165E1,6.1442963E1,9.61316E1,4.4234814E2,5.6721073E1,1.6960157E1,3.355901E1],"tree_param":{"num_deleted":"0","num_feature":"16","num_nodes":"11","size_leaf_vector":"1"}},{"base_weights":[-1.0962185E-2,-7.370835E-2,1.2350727E-1,1.2824348E-1,-1.3504808E-1,3.4136422E-2,-3.8287837E-2,-0E0,3.8601495E-2,-4.2821266E-2,-7.706993E-3,-5.147854E-2,1.1779315E-2],"categories":[],"categories_nodes":[],"categories_segments":[],"categories_sizes":[],"default_left":[0,0,0,0,0,0,0,0,0,0,0,0,0],"id":28,"left_children":[1,3,5,7,9,-1,11,-1,-1,-1,-1,-1,-1],"loss_changes":[5.9796753E0,6.2566137E0,8.481955E0,4.2992926E0,5.568634E0,0E0,9.972123E0,0E0,0E0,0E0,0E0,0E0,0E0],"parents":[2147483647,0,0,1,1,2,2,3,3,4,4,6,6],"right_children":[2,4,6,8,10,-1,12,-1,-1,-1,-1,-1,-1],"split_conditions":[1.5183939E-1,-1.1001783E-1,1.0000149E-2,-7.5994665E-3,-2.8363794E-2,3.4136422E-2,2.3999989E-2,-0E0,3.8601495E-2,-4.2821266E-2,-7.706993E-3,-5.147854E-2,1.1779315E-2],"split_indices":[3,3,10,1,15,0,10,0,0,0,0,0,0],"split_type":[0,0,0,0,0,0,0,0,0,0,0,0,0],"sum_hessian":[7.218515E2,5.0364273E2,2.1820877E2,1.08752426E2,3.948903E2,9.818233E1,1.20026436E2,6.861677E1,4.0135654E1,5.753497E1,3.3735532E2,3.3048195E1,8.697825E1],"tree_param":{"num_deleted":"0","num_feature":"16","num_nodes":"13","size_leaf_vector":"1"}},{"base_weights":[-1.3610513E-2,1.350977E-1,-5.6650866E-2,-0E0,5.745843E-1,-2.7620038E-1,9.92525E-3,7.8788094E-2,-0E0,2.3688855E-2,-3.5967756E-2,2.8977575E-2,-2.745504E-3],"categories":[],"categories_nodes":[],"categories_segments":[],"categories_sizes":[],"default_left":[0,0,0,0,0,0,0,0,0,0,0,0,0],"id":29,"left_children":[1,3,5,-1,7,9,11,-1,-1,-1,-1,-1,-1],"loss_changes":[4.4403343E0,1.0191375E1,8.949643E0,0E0,4.34196E0,6.5487823E0,5.1646056E0,0E0,0E0,0E0,0E0,0E0,0E0],"parents":[2147483647,0,0,1,1,2,2,4,4,5,5,6,6],"right_children":[2,4,6,-1,8,10,12,-1,-1,-1,-1,-1,-1],"split_conditions":[-1.416427E0,-7.05445E-3,-2.2404522E-1,-0E0,3.0576876E-1,-1.0820855E-1,-3.3834606E-2,7.8788094E-2,-0E0,2.3688855E-2,-3.5967756E-2,2.8977575E-2,-2.745504E-3],"split_indices":[6,3,6,0,7,3,10,0,0,0,0,0,0],"split_type":[0,0,0,0,0,0,0,0,0,0,0,0,0],"sum_hessian":[7.212142E2,1.5009052E2,5.7112366E2,1.1099753E2,3.9092987E1,1.4071219E2,4.3041147E2,2.7306173E1,1.1786816E1,1.6442322E1,1.2426987E2,5.759695E1,3.728145E2],"tree_param":{"num_deleted":"0","num_feature":"16","num_nodes":"13","size_leaf_vector":"1"}},{"base_weights":[-1.0353341E-4,1.0929016E-2,-7.331011E-2,3.758196E-2,-1.02761045E-1,-2.3740616E-2,-8.620683E-4],"categories":[],"categories_nodes":[],"categories_segments":[],"categories_sizes":[],"default_left":[0,0,0,0,0,0,0],"id":30,"left_children":[1,-1,3,-1,5,-1,-1],"loss_changes":[5.649565E0,0E0,5.227582E0,0E0,4.797209E0,0E0,0E0],"parents":[2147483647,0,0,2,2,4,4],"right_children":[2,-1,4,-1,6,-1,-1],"split_conditions":[1.3793148E-1,1.0929016E-2,-6.8455875E-2,3.758196E-2,-1.836749E-2,-2.3740616E-2,-8.620683E-4],"split_indices":[12,0,1,0,5,0,0],"split_type":[0,0,0,0,0,0,0],"sum_hessian":[7.099604E2,2.7096112E2,4.389993E2,2.2107492E1,4.1689178E2,1.6021968E2,2.5667212E2],"tree_param":{"num_deleted":"0","num_feature":"16","num_nodes":"7","size_leaf_vector":"1"}},{"base_weights":[1.2278932E-2,-5.396525E-3,3.1406245E-1,1.1863849E-1,-5.1140536E-2,5.8933426E-2,-1.1538931E-3,-3.6736212E-3,4.9423974E-2,-2.305815E-2,8.8854454E-4],"categories":[],"categories_nodes":[],"categories_segments":[],"categories_sizes":[],"default_left":[0,0,0,0,0,0,0,0,0,0,0],"id":31,"left_children":[1,3,5,7,9,-1,-1,-1,-1,-1,-1],"loss_changes":[4.5177145E0,3.6488464E0,5.5728025E0,1.0922326E1,5.9812126E0,0E0,0E0,0E0,0E0,0E0,0E0],"parents":[2147483647,0,0,1,1,2,2,3,3,4,4],"right_children":[2,4,6,8,10,-1,-1,-1,-1,-1,-1],"split_conditions":[4.7651437E-1,-4.3971613E-2,7.287584E-1,-4.4056337E-2,-1.4115876E-1,5.8933426E-2,-1.1538931E-3,-3.6736212E-3,4.9423974E-2,-2.305815E-2,8.8854454E-4],"split_indices":[3,2,3,3,6,0,0,0,0,0,0],"split_type":[0,0,0,0,0,0,0,0,0,0,0],"sum_hessian":[7.1637854E2,6.6975684E2,4.6621727E1,1.6714188E2,5.0261496E2,2.875596E1,1.7865768E1,1.14369286E2,5.277259E1,1.34413E2,3.6820197E2],"tree_param":{"num_deleted":"0","num_feature":"16","num_nodes":"11","size_leaf_vector":"1"}},{"base_weights":[-1.3791806E-2,-6.5380596E-2,2.608593E-1,3.0643716E-1,-9.407901E-2,-1.3838386E-2,3.5983898E-2,-0E0,5.654463E-2,1.8307643E-2,-1.1792158E-2],"categories":[],"categories_nodes":[],"categories_segments":[],"categories_sizes":[],"default_left":[0,0,0,0,0,0,0,0,0,0,0],"id":32,"left_children":[1,3,5,7,9,-1,-1,-1,-1,-1,-1],"loss_changes":[9.693993E0,6.0225396E0,4.8389726E0,4.2518435E0,3.7990155E0,0E0,0E0,0E0,0E0,0E0,0E0],"parents":[2147483647,0,0,1,1,2,2,3,3,4,4],"right_children":[2,4,6,8,10,-1,-1,-1,-1,-1,-1],"split_conditions":[2.2790475E-2,-6.946977E-2,-1.5552417E-2,7.578814E-2,-2.6222663E0,-1.3838386E-2,3.5983898E-2,-0E0,5.654463E-2,1.8307643E-2,-1.1792158E-2],"split_indices":[0,10,15,9,6,0,0,0,0,0,0],"split_type":[0,0,0,0,0,0,0,0,0,0,0],"sum_hessian":[7.1510516E2,6.0898505E2,1.06120094E2,3.795295E1,5.710321E2,1.7032177E1,8.908791E1,1.3952953E1,2.3999998E1,3.9189087E1,5.31843E2],"tree_param":{"num_deleted":"0","num_feature":"16","num_nodes":"11","size_leaf_vector":"1"}},{"base_weights":[1.2377921E-2,-3.718014E-2,3.196476E-2,7.1387626E-2,1.0873561E-2,4.564382E-3,-1.8230673E-2],"categories":[],"categories_nodes":[],"categories_segments":[],"categories_sizes":[],"default_left":[0,0,0,0,0,0,0],"id":33,"left_children":[1,-1,3,-1,5,-1,-1],"loss_changes":[4.570264E0,0E0,8.159064E0,0E0,4.199356E0,0E0,0E0],"parents":[2147483647,0,0,2,2,4,4],"right_children":[2,-1,4,-1,6,-1,-1],"split_conditions":[-3.6540878E-1,-3.718014E-2,-7.704447E-2,7.1387626E-2,8.9655066E-1,4.564382E-3,-1.8230673E-2],"split_indices":[4,0,1,0,14,0,0],"split_type":[0,0,0,0,0,0,0],"sum_hessian":[7.0437134E2,2.8306887E1,6.7606445E2,1.6860573E1,6.5920386E2,5.6826276E2,9.094113E1],"tree_param":{"num_deleted":"0","num_feature":"16","num_nodes":"7","size_leaf_vector":"1"}},{"base_weights":[-4.5557497E-3,-9.989852E-2,6.789602E-2,-2.9431362E-2,-3.4659114E-2,-7.2673997E-3,1.4383855E-1,-1.356018E-2,3.4466892E-2,2.4982303E-2,-6.1661047E-3],"categories":[],"categories_nodes":[],"categories_segments":[],"categories_sizes":[],"default_left":[0,0,0,0,0,0,0,0,0,0,0],"id":34,"left_children":[1,3,5,7,-1,-1,9,-1,-1,-1,-1],"loss_changes":[4.989271E0,4.7849193E0,4.351736E0,9.928973E0,0E0,0E0,6.3168564E0,0E0,0E0,0E0,0E0],"parents":[2147483647,0,0,1,1,2,2,3,3,6,6],"right_children":[2,4,6,8,-1,-1,10,-1,-1,-1,-1],"split_conditions":[-9.1302864E-2,2.5393066E-1,9.5238335E-2,1.6366541E-2,-3.4659114E-2,-7.2673997E-3,1.48216635E-2,-1.356018E-2,3.4466892E-2,2.4982303E-2,-6.1661047E-3],"split_indices":[7,4,11,15,0,0,15,0,0,0,0],"split_type":[0,0,0,0,0,0,0,0,0,0,0],"sum_hessian":[7.116722E2,3.2071527E2,3.9095688E2,2.5719485E2,6.3520416E1,1.2637558E2,2.645813E2,2.0490764E2,5.2287224E1,1.8074702E2,8.383429E1],"tree_param":{"num_deleted":"0","num_feature":"16","num_nodes":"11","size_leaf_vector":"1"}},{"base_weights":[-2.2426134E-2,4.436756E-1,-5.4992482E-2,-6.2751663E-3,1.031877E-1,-1.0153204E-1,2.0343654E-1,-2.2273462E-2,-0E0,-1.9888613E-2,2.8738506E-2],"categories":[],"categories_nodes":[],"categories_segments":[],"categories_sizes":[],"default_left":[0,0,0,0,0,0,0,0,0,0,0],"id":35,"left_children":[1,3,5,-1,-1,7,9,-1,-1,-1,-1],"loss_changes":[9.826101E0,1.4764687E1,7.7518406E0,0E0,0E0,7.4800878E0,3.477121E0,0E0,0E0,0E0,0E0],"parents":[2147483647,0,0,1,1,2,2,5,5,6,6],"right_children":[2,4,6,-1,-1,8,10,-1,-1,-1,-1],"split_conditions":[-2.2130579E-1,-2.5850361E-2,2.0725379E-2,-6.2751663E-3,1.031877E-1,2.3734253E-2,-3.309178E-2,-2.2273462E-2,-0E0,-1.9888613E-2,2.8738506E-2],"split_indices":[3,15,8,0,0,3,15,0,0,0,0],"split_type":[0,0,0,0,0,0,0,0,0,0,0],"sum_hessian":[7.048647E2,4.1447094E1,6.634176E2,2.0400614E1,2.1046482E1,5.6960974E2,9.380783E1,2.6478564E2,3.0482413E2,1.1891326E1,8.1916504E1],"tree_param":{"num_deleted":"0","num_feature":"16","num_nodes":"11","size_leaf_vector":"1"}},{"base_weights":[3.7921526E-2,1.9811504E-1,-5.629481E-3,3.222185E-1,-4.2979433E-3,2.0302182E-1,-4.444544E-2,1.1592891E-2,5.6450047E-2,4.510535E-2,-1.5826548E-2,-1.3564187E-2,8.117473E-3],"categories":[],"categories_nodes":[],"categories_segments":[],"categories_sizes":[],"default_left":[0,0,0,0,0,0,0,0,0,0,0,0,0],"id":36,"left_children":[1,3,5,7,-1,9,11,-1,-1,-1,-1,-1,-1],"loss_changes":[5.4052944E0,5.5253057E0,4.091648E0,4.231408E0,0E0,7.7021866E0,5.6285925E0,0E0,0E0,0E0,0E0,0E0,0E0],"parents":[2147483647,0,0,1,1,2,2,3,3,5,5,6,6],"right_children":[2,4,6,8,-1,10,12,-1,-1,-1,-1,-1,-1],"split_conditions":[-1.1448052E-2,3.440579E-1,-1.6992921E0,-9.969191E-2,-4.2979433E-3,1.0274223E-1,2.3172753E-2,1.1592891E-2,5.6450047E-2,4.510535E-2,-1.5826548E-2,-1.3564187E-2,8.117473E-3],"split_indices":[0,7,5,7,0,9,10,0,0,0,0,0,0],"split_type":[0,0,0,0,0,0,0,0,0,0,0,0,0],"sum_hessian":[7.1248364E2,1.6330176E2,5.491819E2,1.1401062E2,4.929114E1,7.697879E1,4.722031E2,6.728286E1,4.6727764E1,4.9097073E1,2.788172E1,2.8312405E2,1.8907904E2],"tree_param":{"num_deleted":"0","num_feature":"16","num_nodes":"13","size_leaf_vector":"1"}},{"base_weights":[-4.509131E-3,-3.7171003E-1,7.9597095E-3,-0E0,-7.39646E-2,-6.909213E-2,7.79364E-2,1.6035597E-3,-2.131059E-2,2.309342E-2,-9.208697E-3],"categories":[],"categories_nodes":[],"categories_segments":[],"categories_sizes":[],"default_left":[0,0,0,0,0,0,0,0,0,0,0],"id":37,"left_children":[1,3,5,-1,-1,7,9,-1,-1,-1,-1],"loss_changes":[4.0766006E0,3.6808033E0,3.6975079E0,0E0,0E0,4.291001E0,1.017513E1,0E0,0E0,0E0,0E0],"parents":[2147483647,0,0,1,1,2,2,5,5,6,6],"right_children":[2,4,6,-1,-1,8,10,-1,-1,-1,-1],"split_conditions":[-3.6540878E-1,-8.723381E-2,5.6526817E-2,-0E0,-7.39646E-2,4.3174427E-2,1.2728956E-1,1.6035597E-3,-2.131059E-2,2.309342E-2,-9.208697E-3],"split_indices":[4,1,9,0,0,9,4,0,0,0,0],"split_type":[0,0,0,0,0,0,0,0,0,0,0],"sum_hessian":[7.111257E2,2.9218624E1,6.8190704E2,1.5394453E1,1.3824171E1,3.0921326E2,3.7269382E2,1.8536768E2,1.2384557E2,2.0235814E2,1.7033568E2],"tree_param":{"num_deleted":"0","num_feature":"16","num_nodes":"11","size_leaf_vector":"1"}},{"base_weights":[1.0830233E-2,-9.751179E-2,8.774166E-2,2.737516E-2,-2.6330107E-1,3.723315E-2,3.0129736E-2,-6.06854E-3,2.6440049E-2,-4.8270814E-2,-3.3240896E-4,3.5841245E-2,-9.435636E-4],"categories":[],"categories_nodes":[],"categories_segments":[],"categories_sizes":[],"default_left":[0,0,0,0,0,0,0,0,0,0,0,0,0],"id":38,"left_children":[1,3,5,7,9,11,-1,-1,-1,-1,-1,-1,-1],"loss_changes":[5.9532757E0,6.444665E0,3.9381313E0,3.7505105E0,6.467266E0,6.2211E0,0E0,0E0,0E0,0E0,0E0,0E0,0E0],"parents":[2147483647,0,0,1,1,2,2,3,3,4,4,5,5],"right_children":[2,4,6,8,10,12,-1,-1,-1,-1,-1,-1,-1],"split_conditions":[-2.2404522E-1,-1.3642037E0,2.1305425E-2,-2.5906691E-2,7.852163E-3,-2.4651745E-2,3.0129736E-2,-6.06854E-3,2.6440049E-2,-4.8270814E-2,-3.3240896E-4,3.5841245E-2,-9.435636E-4],"split_indices":[6,5,0,1,1,1,0,0,0,0,0,0,0],"split_type":[0,0,0,0,0,0,0,0,0,0,0,0,0],"sum_hessian":[7.169295E2,2.854682E2,4.314613E2,1.5509987E2,1.3036832E2,3.582205E2,7.324082E1,1.0635299E2,4.8746883E1,6.542599E1,6.494233E1,5.1171047E1,3.0704944E2],"tree_param":{"num_deleted":"0","num_feature":"16","num_nodes":"13","size_leaf_vector":"1"}},{"base_weights":[-1.0646567E-2,3.84172E-3,-1.2416503E-1,3.361927E-2,-1.8041205E-1,-3.184837E-2,8.173739E-3],"categories":[],"categories_nodes":[],"categories_segments":[],"categories_sizes":[],"default_left":[0,0,0,0,0,0,0],"id":39,"left_children":[1,-1,3,-1,5,-1,-1],"loss_changes":[4.2150116E0,0E0,5.6737156E0,0E0,8.327909E0,0E0,0E0],"parents":[2147483647,0,0,2,2,4,4],"right_children":[2,-1,4,-1,6,-1,-1],"split_conditions":[6.666667E-1,3.84172E-3,-8.3484285E-2,3.361927E-2,2.1644965E-2,-3.184837E-2,8.173739E-3],"split_indices":[14,0,2,0,8,0,0],"split_type":[0,0,0,0,0,0,0],"sum_hessian":[7.1752264E2,4.862324E2,2.3129022E2,2.066732E1,2.106229E2,1.427777E2,6.78452E1],"tree_param":{"num_deleted":"0","num_feature":"16","num_nodes":"7","size_leaf_vector":"1"}},{"base_weights":[-4.4252262E-3,-6.4131595E-2,1.2251684E-1,8.155621E-4,-1.6402595E-2,5.2449215E-2,6.3976017E-3],"categories":[],"categories_nodes":[],"categories_segments":[],"categories_sizes":[],"default_left":[0,0,0,0,0,0,0],"id":40,"left_children":[1,3,5,-1,-1,-1,-1],"loss_changes":[5.142198E0,3.9084835E0,3.6215973E0,0E0,0E0,0E0,0E0],"parents":[2147483647,0,0,1,1,2,2],"right_children":[2,4,6,-1,-1,-1,-1],"split_conditions":[2.3172753E-2,-7.48497E-3,2.7287273E-2,8.155621E-4,-1.6402595E-2,5.2449215E-2,6.3976017E-3],"split_indices":[10,10,10,0,0,0,0],"split_type":[0,0,0,0,0,0,0],"sum_hessian":[6.956659E2,4.8523663E2,2.1042924E2,2.700177E2,2.1521892E2,2.1366493E1,1.8906274E2],"tree_param":{"num_deleted":"0","num_feature":"16","num_nodes":"7","size_leaf_vector":"1"}},{"base_weights":[-9.690395E-4,8.729799E-3,-5.1137604E-2,-9.504766E-3,6.812939E-3],"categories":[],"categories_nodes":[],"categories_segments":[],"categories_sizes":[],"default_left":[0,0,0,0,0],"id":41,"left_children":[1,3,-1,-1,-1],"loss_changes":[4.671763E0,4.2627583E0,0E0,0E0,0E0],"parents":[2147483647,0,0,1,1],"right_children":[2,4,-1,-1,-1],"split_conditions":[8.181793E-1,1.0000257E-1,-5.1137604E-2,-9.504766E-3,6.812939E-3],"split_indices":[11,11,0,0,0],"split_type":[0,0,0,0,0],"sum_hessian":[7.070663E2,6.8975934E2,1.7306952E1,2.3765817E2,4.5210117E2],"tree_param":{"num_deleted":"0","num_feature":"16","num_nodes":"5","size_leaf_vector":"1"}},{"base_weights":[-3.518744E-2,-1.5205237E-3,-4.0426318E-2],"categories":[],"categories_nodes":[],"categories_segments":[],"categories_sizes":[],"default_left":[0,0,0],"id":42,"left_children":[1,-1,-1],"loss_changes":[4.31384E0,0E0,0E0],"parents":[2147483647,0,0],"right_children":[2,-1,-1],"split_conditions":[7.499986E-1,-1.5205237E-3,-4.0426318E-2],"split_indices":[11,0,0],"split_type":[0,0,0],"sum_hessian":[7.1230164E2,6.820582E2,3.024337E1],"tree_param":{"num_deleted":"0","num_feature":"16","num_nodes":"3","size_leaf_vector":"1"}},{"base_weights":[3.1811383E-2,7.497915E-2,-1.1120296E-1,-0E0,2.241263E-1,2.3924097E-1,-2.242179E-2,-8.207107E-3,1.7644415E-2,4.25703E-2,7.3323427E-3,-0E0,5.3303406E-2],"categories":[],"categories_nodes":[],"categories_segments":[],"categories_sizes":[],"default_left":[0,0,0,0,0,0,0,0,0,0,0,0,0],"id":43,"left_children":[1,3,5,7,9,11,-1,-1,-1,-1,-1,-1,-1],"loss_changes":[4.234366E0,6.2330112E0,6.0099554E0,5.3128843E0,4.5769367E0,3.487315E0,0E0,0E0,0E0,0E0,0E0,0E0,0E0],"parents":[2147483647,0,0,1,1,2,2,3,3,4,4,5,5],"right_children":[2,4,6,8,10,12,-1,-1,-1,-1,-1,-1,-1],"split_conditions":[4.3478203E-1,1.7857198E-2,-5.824251E-2,9.7296596E-2,3.673452E-2,-2.0281944E-1,-2.242179E-2,-8.207107E-3,1.7644415E-2,4.25703E-2,7.3323427E-3,-0E0,5.3303406E-2],"split_indices":[12,10,3,3,10,4,0,0,0,0,0,0,0],"split_type":[0,0,0,0,0,0,0,0,0,0,0,0,0],"sum_hessian":[6.989269E2,5.490129E2,1.4991405E2,3.6355524E2,1.854576E2,3.2130814E1,1.1778323E2,2.4975037E2,1.13804886E2,7.201608E1,1.1344152E2,1.374549E1,1.8385323E1],"tree_param":{"num_deleted":"0","num_feature":"16","num_nodes":"13","size_leaf_vector":"1"}},{"base_weights":[-0E0],"categories":[],"categories_nodes":[],"categories_segments":[],"categories_sizes":[],"default_left":[0],"id":44,"left_children":[-1],"loss_changes":[0E0],"parents":[2147483647],"right_children":[-1],"split_conditions":[-0E0],"split_indices":[0],"split_type":[0],"sum_hessian":[6.914285E2],"tree_param":{"num_deleted":"0","num_feature":"16","num_nodes":"1","size_leaf_vector":"1"}},{"base_weights":[1.1390118E-2,-8.778563E-5,5.5714153E-2],"categories":[],"categories_nodes":[],"categories_segments":[],"categories_sizes":[],"default_left":[0,0,0],"id":45,"left_children":[1,-1,-1],"loss_changes":[6.016922E0,0E0,0E0],"parents":[2147483647,0,0],"right_children":[2,-1,-1],"split_conditions":[1.1029434E-1,-8.778563E-5,5.5714153E-2],"split_indices":[10,0,0],"split_type":[0,0,0],"sum_hessian":[7.035756E2,6.842907E2,1.9284899E1],"tree_param":{"num_deleted":"0","num_feature":"16","num_nodes":"3","size_leaf_vector":"1"}},{"base_weights":[3.0208973E-3,-8.184546E-2,9.14579E-2,-2.0922456E-2,4.3259345E-2,4.5295075E-2,2.003962E-2,1.8831894E-2,-2.767021E-2,-3.533366E-2,6.8691755E-3],"categories":[],"categories_nodes":[],"categories_segments":[],"categories_sizes":[],"default_left":[0,0,0,0,0,0,0,0,0,0,0],"id":46,"left_children":[1,3,5,-1,7,-1,9,-1,-1,-1,-1],"loss_changes":[5.2981915E0,5.961502E0,8.241962E0,0E0,7.6790195E0,0E0,4.9843364E0,0E0,0E0,0E0,0E0],"parents":[2147483647,0,0,1,1,2,2,4,4,6,6],"right_children":[2,4,6,-1,8,-1,10,-1,-1,-1,-1],"split_conditions":[3.2101642E-2,-5.3308174E-2,-8.472109E-2,-2.0922456E-2,-8.582251E-3,4.5295075E-2,-3.0085675E-2,1.8831894E-2,-2.767021E-2,-3.533366E-2,6.8691755E-3],"split_indices":[3,4,4,0,3,0,4,0,0,0,0],"split_type":[0,0,0,0,0,0,0,0,0,0,0],"sum_hessian":[7.028811E2,3.456754E2,3.572057E2,1.7898752E2,1.666879E2,5.3202995E1,3.040027E2,1.1939827E2,4.728963E1,2.9805887E1,2.7419678E2],"tree_param":{"num_deleted":"0","num_feature":"16","num_nodes":"11","size_leaf_vector":"1"}},{"base_weights":[-1.2490554E-2,-5.0046444E-3,1.2735032E-1,2.553635E-1,-2.5615692E-2,5.6309074E-2,4.0022717E-3],"categories":[],"categories_nodes":[],"categories_segments":[],"categories_sizes":[],"default_left":[0,0,0,0,0,0,0],"id":47,"left_children":[1,-1,3,5,-1,-1,-1],"loss_changes":[3.596761E0,0E0,6.857225E0,5.929223E0,0E0,0E0,0E0],"parents":[2147483647,0,0,2,2,3,3],"right_children":[2,-1,4,6,-1,-1,-1],"split_conditions":[9.428422E-2,-5.0046444E-3,8.6363524E-1,2.897889E0,-2.5615692E-2,5.6309074E-2,4.0022717E-3],"split_indices":[2,0,14,5,0,0,0],"split_type":[0,0,0,0,0,0,0],"sum_hessian":[7.10063E2,5.7118726E2,1.3887578E2,1.0866997E2,3.0205807E1,3.9985928E1,6.8684044E1],"tree_param":{"num_deleted":"0","num_feature":"16","num_nodes":"7","size_leaf_vector":"1"}},{"base_weights":[-2.1511551E-2,-5.2948922E-2,1.683928E-2,9.200549E-2,-9.994324E-2,-7.324837E-4,5.2020546E-2,9.136826E-3,-1.4526554E-2],"categories":[],"categories_nodes":[],"categories_segments":[],"categories_sizes":[],"default_left":[0,0,0,0,0,0,0,0,0],"id":48,"left_children":[1,3,-1,5,7,-1,-1,-1,-1],"loss_changes":[3.9843462E0,4.2202673E0,0E0,7.1525984E0,4.3878107E0,0E0,0E0,0E0,0E0],"parents":[2147483647,0,0,1,1,3,3,4,4],"right_children":[2,4,-1,6,8,-1,-1,-1,-1],"split_conditions":[2.1644965E-2,3.948005E-2,1.683928E-2,1.2658245E-2,-1.785533E0,-7.324837E-4,5.2020546E-2,9.136826E-3,-1.4526554E-2],"split_indices":[8,9,0,1,6,0,0,0,0],"split_type":[0,0,0,0,0,0,0,0,0],"sum_hessian":[7.062463E2,6.16721E2,8.952526E1,1.3922664E2,4.774944E2,1.09028244E2,3.0198402E1,8.360146E1,3.938929E2],"tree_param":{"num_deleted":"0","num_feature":"16","num_nodes":"9","size_leaf_vector":"1"}},{"base_weights":[-3.123661E-4,2.717413E-1,-2.3765825E-2,-0E0,5.7622854E-2,-1.9801097E-1,1.1261609E-2,-2.6930414E-2,2.6383417E-2,5.896888E-2,-3.8221775E-4],"categories":[],"categories_nodes":[],"categories_segments":[],"categories_sizes":[],"default_left":[0,0,0,0,0,0,0,0,0,0,0],"id":49,"left_children":[1,3,5,-1,-1,7,9,-1,-1,-1,-1],"loss_changes":[4.0296903E0,3.9967778E0,4.508756E0,0E0,0E0,4.206288E0,6.1525965E0,0E0,0E0,0E0,0E0],"parents":[2147483647,0,0,1,1,2,2,5,5,6,6],"right_children":[2,4,6,-1,-1,8,10,-1,-1,-1,-1],"split_conditions":[-6.2500104E-2,-8.0496025E-1,-2.2618337E-2,-0E0,5.7622854E-2,4.0901106E-2,-2.2130579E-1,-2.6930414E-2,2.6383417E-2,5.896888E-2,-3.8221775E-4],"split_indices":[10,6,15,0,0,2,3,0,0,0,0],"split_type":[0,0,0,0,0,0,0,0,0,0,0],"sum_hessian":[7.190156E2,4.937127E1,6.6964435E2,2.6782013E1,2.2589256E1,1.2279549E2,5.468489E2,1.1023278E2,1.2562705E1,1.7507645E1,5.293412E2],"tree_param":{"num_deleted":"0","num_feature":"16","num_nodes":"11","size_leaf_vector":"1"}},{"base_weights":[2.8842885E-2],"categories":[],"categories_nodes":[],"categories_segments":[],"categories_sizes":[],"default_left":[0],"id":50,"left_children":[-1],"loss_changes":[0E0],"parents":[2147483647],"right_children":[-1],"split_conditions":[2.8612143E-3],"split_indices":[0],"split_type":[0],"sum_hessian":[7.082199E2],"tree_param":{"num_deleted":"0","num_feature":"16","num_nodes":"1","size_leaf_vector":"1"}},{"base_weights":[-2.6573936E-2,3.5605628E-2,-4.2633038E-2,-2.9142016E-1,-8.3799185E-3,-4.3046847E-2,1.937158E-3,1.5405718E-2,-8.037889E-3],"categories":[],"categories_nodes":[],"categories_segments":[],"categories_sizes":[],"default_left":[0,0,0,0,0,0,0,0,0],"id":51,"left_children":[1,-1,3,5,7,-1,-1,-1,-1],"loss_changes":[3.6387873E0,0E0,5.121619E0,4.2306013E0,7.0400434E0,0E0,0E0,0E0,0E0],"parents":[2147483647,0,0,2,2,3,3,4,4],"right_children":[2,-1,4,6,8,-1,-1,-1,-1],"split_conditions":[-4.027751E-2,3.5605628E-2,-1.8891662E-2,1.0482193E-2,-4.0279094E-2,-4.3046847E-2,1.937158E-3,1.5405718E-2,-8.037889E-3],"split_indices":[8,0,8,1,3,0,0,0,0],"split_type":[0,0,0,0,0,0,0,0,0],"sum_hessian":[7.026865E2,2.2420784E1,6.8026575E2,7.42887E1,6.0597705E2,5.589115E1,1.8397543E1,1.7671127E2,4.2926575E2],"tree_param":{"num_deleted":"0","num_feature":"16","num_nodes":"9","size_leaf_vector":"1"}},{"base_weights":[-1.6288599E-2,4.248759E-2,-1.2928621E-1,-0E0,2.6777634E-1,2.8976139E-2,-1.7918979E-1,5.859466E-2,5.424013E-3,-2.2081679E-2,2.5185168E-2],"categories":[],"categories_nodes":[],"categories_segments":[],"categories_sizes":[],"default_left":[0,0,0,0,0,0,0,0,0,0,0],"id":52,"left_children":[1,3,5,-1,7,-1,9,-1,-1,-1,-1],"loss_changes":[4.9377694E0,4.443286E0,5.162976E0,0E0,3.5973372E0,0E0,4.351679E0,0E0,0E0,0E0,0E0],"parents":[2147483647,0,0,1,1,2,2,4,4,6,6],"right_children":[2,4,6,-1,8,-1,10,-1,-1,-1,-1],"split_conditions":[6.000017E-1,2.3261983E0,2.7774347E-2,-0E0,2.277011E-1,2.8976139E-2,1.3737856E-1,5.859466E-2,5.424013E-3,-2.2081679E-2,2.5185168E-2],"split_indices":[14,5,9,0,4,0,9,0,0,0,0],"split_type":[0,0,0,0,0,0,0,0,0,0,0],"sum_hessian":[7.138579E2,4.5650287E2,2.5735504E2,3.8311917E2,7.338369E1,2.2426983E1,2.3492805E2,2.4914558E1,4.8469135E1,2.1829189E2,1.663617E1],"tree_param":{"num_deleted":"0","num_feature":"16","num_nodes":"11","size_leaf_vector":"1"}},{"base_weights":[-1.3287702E-3],"categories":[],"categories_nodes":[],"categories_segments":[],"categories_sizes":[],"default_left":[0],"id":53,"left_children":[-1],"loss_changes":[0E0],"parents":[2147483647],"right_children":[-1],"split_conditions":[-1.3181401E-4],"split_indices":[0],"split_type":[0],"sum_hessian":[6.9589026E2],"tree_param":{"num_deleted":"0","num_feature":"16","num_nodes":"1","size_leaf_vector":"1"}},{"base_weights":[1.2913012E-2,-3.1140987E-3,1.2365501E-1,2.0404685E-1,-3.0474639E-2,3.935867E-2,-0E0],"categories":[],"categories_nodes":[],"categories_segments":[],"categories_sizes":[],"default_left":[0,0,0,0,0,0,0],"id":54,"left_children":[1,-1,3,5,-1,-1,-1],"loss_changes":[3.70896E0,0E0,7.3383904E0,7.0897636E0,0E0,0E0,0E0],"parents":[2147483647,0,0,2,2,3,3],"right_children":[2,-1,4,6,-1,-1,-1],"split_conditions":[1.4829385E-1,-3.1140987E-3,8.749997E-1,2.694004E-1,-3.0474639E-2,3.935867E-2,-0E0],"split_indices":[3,0,14,3,0,0,0],"split_type":[0,0,0,0,0,0,0],"sum_hessian":[7.134031E2,4.9504535E2,2.1835773E2,1.8846631E2,2.9891417E1,9.482686E1,9.363946E1],"tree_param":{"num_deleted":"0","num_feature":"16","num_nodes":"7","size_leaf_vector":"1"}},{"base_weights":[-2.3332857E-2],"categories":[],"categories_nodes":[],"categories_segments":[],"categories_sizes":[],"default_left":[0],"id":55,"left_children":[-1],"loss_changes":[0E0],"parents":[2147483647],"right_children":[-1],"split_conditions":[-2.3146195E-3],"split_indices":[0],"split_type":[0],"sum_hessian":[6.986834E2],"tree_param":{"num_deleted":"0","num_feature":"16","num_nodes":"1","size_leaf_vector":"1"}},{"base_weights":[-1.07572405E-2,2.7086122E-2,-1.5609334E-1,6.645009E-2,-2.4655095E-1,-3.0876542E-2,-0E0,-0E0,2.2125974E-2,-4.3067448E-2,3.6788203E-2,-2.7822694E-2,1.9641787E-2],"categories":[],"categories_nodes":[],"categories_segments":[],"categories_sizes":[],"default_left":[0,0,0,0,0,0,0,0,0,0,0,0,0],"id":56,"left_children":[1,3,5,7,9,-1,11,-1,-1,-1,-1,-1,-1],"loss_changes":[4.129508E0,5.4275513E0,3.9279642E0,5.4961443E0,7.2099133E0,0E0,4.2256103E0,0E0,0E0,0E0,0E0,0E0,0E0],"parents":[2147483647,0,0,1,1,2,2,3,3,4,4,6,6],"right_children":[2,4,6,8,10,-1,12,-1,-1,-1,-1,-1,-1],"split_conditions":[4.3576542E-1,6.2264808E-2,1.0965191E-2,1.4975079E-2,1.1029434E-1,-3.0876542E-2,8.308902E-1,-0E0,2.2125974E-2,-4.3067448E-2,3.6788203E-2,-2.7822694E-2,1.9641787E-2],"split_indices":[7,1,1,1,10,0,7,0,0,0,0,0,0],"split_type":[0,0,0,0,0,0,0,0,0,0,0,0,0],"sum_hessian":[6.9779974E2,5.4138275E2,1.5641696E2,4.8055124E2,6.0831543E1,7.982492E1,7.659203E1,3.27491E2,1.5306021E2,4.94737E1,1.1357841E1,3.0757372E1,4.5834663E1],"tree_param":{"num_deleted":"0","num_feature":"16","num_nodes":"13","size_leaf_vector":"1"}},{"base_weights":[1.5578765E-2,-0E0,4.379757E-2,4.0959887E-2,-1.4986846E-1,2.738641E-2,-1.8810763E-3,-4.3185864E-2,1.1008615E-2],"categories":[],"categories_nodes":[],"categories_segments":[],"categories_sizes":[],"default_left":[0,0,0,0,0,0,0,0,0],"id":57,"left_children":[1,3,-1,5,7,-1,-1,-1,-1],"loss_changes":[4.4071836E0,4.122213E0,0E0,8.179928E0,1.1401004E1,0E0,0E0,0E0,0E0],"parents":[2147483647,0,0,1,1,3,3,4,4],"right_children":[2,4,-1,6,8,-1,-1,-1,-1],"split_conditions":[2.0241182E0,4.3576542E-1,4.379757E-2,-6.0000455E-1,9.999871E-2,2.738641E-2,-1.8810763E-3,-4.3185864E-2,1.1008615E-2],"split_indices":[7,7,0,13,13,0,0,0,0],"split_type":[0,0,0,0,0,0,0,0,0],"sum_hessian":[7.05929E2,6.8251874E2,2.3410282E1,5.3935913E2,1.4315956E2,1.1712953E2,4.222296E2,7.2454475E1,7.070509E1],"tree_param":{"num_deleted":"0","num_feature":"16","num_nodes":"9","size_leaf_vector":"1"}},{"base_weights":[2.1757398E-2],"categories":[],"categories_nodes":[],"categories_segments":[],"categories_sizes":[],"default_left":[0],"id":58,"left_children":[-1],"loss_changes":[0E0],"parents":[2147483647],"right_children":[-1],"split_conditions":[2.158334E-3],"split_indices":[0],"split_type":[0],"sum_hessian":[7.07227E2],"tree_param":{"num_deleted":"0","num_feature":"16","num_nodes":"1","size_leaf_vector":"1"}},{"base_weights":[-7.131847E-3],"categories":[],"categories_nodes":[],"categories_segments":[],"categories_sizes":[],"default_left":[0],"id":59,"left_children":[-1],"loss_changes":[0E0],"parents":[2147483647],"right_children":[-1],"split_conditions":[-7.0747925E-4],"split_indices":[0],"split_type":[0],"sum_hessian":[6.9041943E2],"tree_param":{"num_deleted":"0","num_feature":"16","num_nodes":"1","size_leaf_vector":"1"}},{"base_weights":[-1.993955E-3],"categories":[],"categories_nodes":[],"categories_segments":[],"categories_sizes":[],"default_left":[0],"id":60,"left_children":[-1],"loss_changes":[0E0],"parents":[2147483647],"right_children":[-1],"split_conditions":[-1.9780036E-4],"split_indices":[0],"split_type":[0],"sum_hessian":[7.007816E2],"tree_param":{"num_deleted":"0","num_feature":"16","num_nodes":"1","size_leaf_vector":"1"}},{"base_weights":[-3.0945418E-2,3.8804486E-2,-1.1041046E-2,-3.8861206E-3,3.4412563E-1,5.6828637E-2,4.75959E-3],"categories":[],"categories_nodes":[],"categories_segments":[],"categories_sizes":[],"default_left":[0,0,0,0,0,0,0],"id":61,"left_children":[1,3,-1,-1,5,-1,-1],"loss_changes":[4.189207E0,9.486268E0,0E0,0E0,4.0896063E0,0E0,0E0],"parents":[2147483647,0,0,1,1,4,4],"right_children":[2,4,-1,-1,6,-1,-1],"split_conditions":[4.484244E-3,1.7295031E-1,-1.1041046E-2,-3.8861206E-3,2.730241E-1,5.6828637E-2,4.75959E-3],"split_indices":[10,3,0,0,3,0,0],"split_type":[0,0,0,0,0,0,0],"sum_hessian":[7.181348E2,3.694391E2,3.4869577E2,2.884522E2,8.0986885E1,4.135703E1,3.9629852E1],"tree_param":{"num_deleted":"0","num_feature":"16","num_nodes":"7","size_leaf_vector":"1"}},{"base_weights":[-1.0123179E-2,2.7907211E-2,-1.8953146E-1,2.553354E-1,-0E0,6.062816E-3,-3.432869E-1,-0E0,4.1466005E-2,-1.1746845E-1,-1.7890012E-2],"categories":[],"categories_nodes":[],"categories_segments":[],"categories_sizes":[],"default_left":[0,0,0,0,0,0,0,0,0,0,0],"id":62,"left_children":[1,3,5,7,-1,-1,9,-1,-1,-1,-1],"loss_changes":[5.1284657E0,3.7211912E0,5.7438245E0,3.4600372E0,0E0,0E0,8.923937E0,0E0,0E0,0E0,0E0],"parents":[2147483647,0,0,1,1,2,2,3,3,6,6],"right_children":[2,4,6,8,-1,-1,10,-1,-1,-1,-1],"split_conditions":[2.0261984E0,-7.8571147E-1,2.1585643E-1,-2.0794606E-2,-0E0,6.062816E-3,1.0431637E-1,-0E0,4.1466005E-2,-1.1746845E-1,-1.7890012E-2],"split_indices":[6,13,4,0,0,0,2,0,0,0,0],"split_type":[0,0,0,0,0,0,0,0,0,0,0],"sum_hessian":[6.9810394E2,5.6569025E2,1.3241373E2,6.3757435E1,5.019328E2,4.4787014E1,8.762671E1,2.021392E1,4.3543514E1,1.1898807E1,7.5727905E1],"tree_param":{"num_deleted":"0","num_feature":"16","num_nodes":"11","size_leaf_vector":"1"}},{"base_weights":[-3.1489327E-3,4.059514E-2,-2.2173545E-3],"categories":[],"categories_nodes":[],"categories_segments":[],"categories_sizes":[],"default_left":[0,0,0],"id":63,"left_children":[1,-1,-1],"loss_changes":[4.6331415E0,0E0,0E0],"parents":[2147483647,0,0],"right_children":[2,-1,-1],"split_conditions":[-8.094192E-2,4.059514E-2,-2.2173545E-3],"split_indices":[1,0,0],"split_type":[0,0,0],"sum_hessian":[6.950396E2,2.5632156E1,6.694075E2],"tree_param":{"num_deleted":"0","num_feature":"16","num_nodes":"3","size_leaf_vector":"1"}},{"base_weights":[-2.6907974E-3],"categories":[],"categories_nodes":[],"categories_segments":[],"categories_sizes":[],"default_left":[0],"id":64,"left_children":[-1],"loss_changes":[0E0],"parents":[2147483647],"right_children":[-1],"split_conditions":[-2.6692712E-4],"split_indices":[0],"split_type":[0],"sum_hessian":[7.021352E2],"tree_param":{"num_deleted":"0","num_feature":"16","num_nodes":"1","size_leaf_vector":"1"}},{"base_weights":[1.9841664E-2,5.7441823E-2,-1.21376514E-1,2.0059308E-3,3.0507928E-2,7.8541964E-2,-2.5954314E-2,-3.2134786E-2,2.637656E-2],"categories":[],"categories_nodes":[],"categories_segments":[],"categories_sizes":[],"default_left":[0,0,0,0,0,0,0,0,0],"id":65,"left_children":[1,3,5,-1,-1,7,-1,-1,-1],"loss_changes":[3.5968068E0,4.557027E0,4.214942E0,0E0,0E0,3.594565E0,0E0,0E0,0E0],"parents":[2147483647,0,0,1,1,2,2,5,5],"right_children":[2,4,6,-1,-1,8,-1,-1,-1],"split_conditions":[4.6153846E-1,3.7037328E-1,-1.2123309E-2,2.0059308E-3,3.0507928E-2,-1.3900973E-1,-2.5954314E-2,-3.2134786E-2,2.637656E-2],"split_indices":[12,12,3,0,0,3,0,0,0],"split_type":[0,0,0,0,0,0,0,0,0],"sum_hessian":[7.043528E2,5.688927E2,1.3546011E2,5.0311533E2,6.577736E1,4.923862E1,8.622149E1,1.1799549E1,3.743907E1],"tree_param":{"num_deleted":"0","num_feature":"16","num_nodes":"9","size_leaf_vector":"1"}},{"base_weights":[1.915214E-3,-5.5464312E-2,1.1432604E-1,5.0241195E-2,-1.2927099E-1,1.7681977E-1,-1.7156385E-2,-0E0,8.186342E-2,-1.9247552E-2,1.963997E-2,2.7463501E-2,-8.706697E-3],"categories":[],"categories_nodes":[],"categories_segments":[],"categories_sizes":[],"default_left":[0,0,0,0,0,0,0,0,0,0,0,0,0],"id":66,"left_children":[1,3,5,7,9,11,-1,-1,-1,-1,-1,-1,-1],"loss_changes":[4.756428E0,3.7777712E0,4.5986185E0,7.7035556E0,6.017394E0,6.154525E0,0E0,0E0,0E0,0E0,0E0,0E0,0E0],"parents":[2147483647,0,0,1,1,2,2,3,3,4,4,5,5],"right_children":[2,4,6,8,10,12,-1,-1,-1,-1,-1,-1,-1],"split_conditions":[7.6392083E-3,-1.1623941E-2,1.1529933E-1,1.6128702E-2,1.0423557E-1,8.8889074E-1,-1.7156385E-2,-0E0,8.186342E-2,-1.9247552E-2,1.963997E-2,2.7463501E-2,-8.706697E-3],"split_indices":[0,15,9,8,9,14,0,0,0,0,0,0,0],"split_type":[0,0,0,0,0,0,0,0,0,0,0,0,0],"sum_hessian":[7.166932E2,4.6123944E2,2.5545372E2,1.7709041E2,2.8414902E2,2.1628151E2,3.917221E1,1.6519975E2,1.1890655E1,2.4298775E2,4.1161278E1,1.631271E2,5.3154408E1],"tree_param":{"num_deleted":"0","num_feature":"16","num_nodes":"13","size_leaf_vector":"1"}},{"base_weights":[-1.9182837E-2],"categories":[],"categories_nodes":[],"categories_segments":[],"categories_sizes":[],"default_left":[0],"id":67,"left_children":[-1],"loss_changes":[0E0],"parents":[2147483647],"right_children":[-1],"split_conditions":[-1.9029374E-3],"split_indices":[0],"split_type":[0],"sum_hessian":[7.123167E2],"tree_param":{"num_deleted":"0","num_feature":"16","num_nodes":"1","size_leaf_vector":"1"}},{"base_weights":[-1.1084414E-2],"categories":[],"categories_nodes":[],"categories_segments":[],"categories_sizes":[],"default_left":[0],"id":68,"left_children":[-1],"loss_changes":[0E0],"parents":[2147483647],"right_children":[-1],"split_conditions":[-1.0995739E-3],"split_indices":[0],"split_type":[0],"sum_hessian":[7.075337E2],"tree_param":{"num_deleted":"0","num_feature":"16","num_nodes":"1","size_leaf_vector":"1"}},{"base_weights":[4.394331E-3,-7.8968085E-2,7.482863E-2,1.6941287E-1,-1.3279065E-1,1.401371E-1,-6.1101127E-2,-1.7346583E-2,4.7444265E-2,-4.292265E-2,-3.9265645E-3,5.756965E-3,4.4370864E-2,-2.5683831E-2,8.718861E-3],"categories":[],"categories_nodes":[],"categories_segments":[],"categories_sizes":[],"default_left":[0,0,0,0,0,0,0,0,0,0,0,0,0,0,0],"id":69,"left_children":[1,3,5,7,9,11,13,-1,-1,-1,-1,-1,-1,-1,-1],"loss_changes":[4.1601515E0,4.0708275E0,3.7258873E0,5.7821264E0,6.2785106E0,5.947905E0,3.8803985E0,0E0,0E0,0E0,0E0,0E0,0E0,0E0,0E0],"parents":[2147483647,0,0,1,1,2,2,3,3,4,4,5,5,6,6],"right_children":[2,4,6,8,10,12,14,-1,-1,-1,-1,-1,-1,-1,-1],"split_conditions":[5.6526817E-2,-2.3818843E-2,2.277011E-1,-7.0477337E-1,-8.431099E-3,1.4246395E0,1.3347433E-2,-1.7346583E-2,4.7444265E-2,-4.292265E-2,-3.9265645E-3,5.756965E-3,4.4370864E-2,-2.5683831E-2,8.718861E-3],"split_indices":[9,1,4,6,1,6,0,0,0,0,0,0,0,0,0],"split_type":[0,0,0,0,0,0,0,0,0,0,0,0,0,0,0],"sum_hessian":[7.099573E2,3.1047595E2,3.9948132E2,4.780589E1,2.6267004E2,2.810379E2,1.1844341E2,1.9170765E1,2.8635124E1,5.64787E1,2.0619136E2,2.2762494E2,5.3412975E1,5.736184E1,6.1081573E1],"tree_param":{"num_deleted":"0","num_feature":"16","num_nodes":"15","size_leaf_vector":"1"}},{"base_weights":[-0E0],"categories":[],"categories_nodes":[],"categories_segments":[],"categories_sizes":[],"default_left":[0],"id":70,"left_children":[-1],"loss_changes":[0E0],"parents":[2147483647],"right_children":[-1],"split_conditions":[-0E0],"split_indices":[0],"split_type":[0],"sum_hessian":[6.977238E2],"tree_param":{"num_deleted":"0","num_feature":"16","num_nodes":"1","size_leaf_vector":"1"}},{"base_weights":[1.3403345E-2,-4.935447E-2,3.109931E-3],"categories":[],"categories_nodes":[],"categories_segments":[],"categories_sizes":[],"default_left":[0,0,0],"id":71,"left_children":[1,-1,-1],"loss_changes":[5.4923086E0,0E0,0E0],"parents":[2147483647,0,0],"right_children":[2,-1,-1],"split_conditions":[-3.9766407E-1,-4.935447E-2,3.109931E-3],"split_indices":[4,0,0],"split_type":[0,0,0],"sum_hessian":[7.133829E2,1.9874367E1,6.935085E2],"tree_param":{"num_deleted":"0","num_feature":"16","num_nodes":"3","size_leaf_vector":"1"}},{"base_weights":[3.4076902E-3,-1.4584054E-1,4.8619643E-2,-2.4851365E-2,1.939891E-1,3.299259E-2,-2.6406271E-2,-0E0,7.198813E-2,-2.5006883E-2,7.2422167E-3],"categories":[],"categories_nodes":[],"categories_segments":[],"categories_sizes":[],"default_left":[0,0,0,0,0,0,0,0,0,0,0],"id":72,"left_children":[1,3,5,-1,7,-1,9,-1,-1,-1,-1],"loss_changes":[4.502476E0,5.5060315E0,1.2379559E1,0E0,4.7664595E0,0E0,1.0002274E1,0E0,0E0,0E0,0E0],"parents":[2147483647,0,0,1,1,2,2,4,4,6,6],"right_children":[2,4,6,-1,8,-1,10,-1,-1,-1,-1],"split_conditions":[-2.1830946E-2,-6.84387E-2,-5.824251E-2,-2.4851365E-2,1.6528374E-1,3.299259E-2,3.2101642E-2,-0E0,7.198813E-2,-2.5006883E-2,7.2422167E-3],"split_indices":[15,5,3,0,3,0,3,0,0,0,0],"split_type":[0,0,0,0,0,0,0,0,0,0,0],"sum_hessian":[6.9957324E2,1.510167E2,5.485566E2,1.2054122E2,3.0475464E1,1.20867004E2,4.2768954E2,1.9319033E1,1.115643E1,1.376851E2,2.9000446E2],"tree_param":{"num_deleted":"0","num_feature":"16","num_nodes":"11","size_leaf_vector":"1"}},{"base_weights":[7.6740435E-3],"categories":[],"categories_nodes":[],"categories_segments":[],"categories_sizes":[],"default_left":[0],"id":73,"left_children":[-1],"loss_changes":[0E0],"parents":[2147483647],"right_children":[-1],"split_conditions":[7.6126517E-4],"split_indices":[0],"split_type":[0],"sum_hessian":[7.03149E2],"tree_param":{"num_deleted":"0","num_feature":"16","num_nodes":"1","size_leaf_vector":"1"}},{"base_weights":[-2.8157735E-2,-1.1094108E-1,8.410494E-3,-1.8577434E-1,-0E0,-5.9649E-3,-3.4269385E-2,1.1248861E-2,-3.022836E-2],"categories":[],"categories_nodes":[],"categories_segments":[],"categories_sizes":[],"default_left":[0,0,0,0,0,0,0,0,0],"id":74,"left_children":[1,3,-1,5,7,-1,-1,-1,-1],"loss_changes":[6.5860662E0,3.8013844E0,0E0,4.2585726E0,5.03856E0,0E0,0E0,0E0,0E0],"parents":[2147483647,0,0,1,1,3,3,4,4],"right_children":[2,4,-1,6,8,-1,-1,-1,-1],"split_conditions":[3.5782233E-3,2.694195E-2,8.410494E-3,-8.472109E-2,3.2467708E-1,-5.9649E-3,-3.4269385E-2,1.1248861E-2,-3.022836E-2],"split_indices":[8,2,0,4,4,0,0,0,0],"split_type":[0,0,0,0,0,0,0,0,0],"sum_hessian":[6.979563E2,4.1426895E2,2.8368735E2,2.5783548E2,1.5643347E2,1.5225876E2,1.0557672E2,1.186967E2,3.7736767E1],"tree_param":{"num_deleted":"0","num_feature":"16","num_nodes":"9","size_leaf_vector":"1"}},{"base_weights":[2.3944376E-2,-6.3674234E-2,8.556868E-3,-1.3786708E-3,-4.9716704E-2],"categories":[],"categories_nodes":[],"categories_segments":[],"categories_sizes":[],"default_left":[0,0,0,0,0],"id":75,"left_children":[1,3,-1,-1,-1],"loss_changes":[3.9274652E0,4.9372406E0,0E0,0E0,0E0],"parents":[2147483647,0,0,1,1],"right_children":[2,4,-1,-1,-1],"split_conditions":[-2.2404522E-1,3.756812E-3,8.556868E-3,-1.3786708E-3,-4.9716704E-2],"split_indices":[6,2,0,0,0],"split_type":[0,0,0,0,0],"sum_hessian":[7.098475E2,2.799857E2,4.2986176E2,2.5608356E2,2.3902143E1],"tree_param":{"num_deleted":"0","num_feature":"16","num_nodes":"5","size_leaf_vector":"1"}},{"base_weights":[1.0292293E-2],"categories":[],"categories_nodes":[],"categories_segments":[],"categories_sizes":[],"default_left":[0],"id":76,"left_children":[-1],"loss_changes":[0E0],"parents":[2147483647],"right_children":[-1],"split_conditions":[1.0209954E-3],"split_indices":[0],"split_type":[0],"sum_hessian":[7.0227203E2],"tree_param":{"num_deleted":"0","num_feature":"16","num_nodes":"1","size_leaf_vector":"1"}},{"base_weights":[2.6656376E-2,1.2568654E-1,-5.464303E-2,5.466852E-3,3.964498E-1,-1.6829595E-2,4.2789828E-2,5.5598132E-2,-0E0,2.7751798E-2,-1.2717639E-2],"categories":[],"categories_nodes":[],"categories_segments":[],"categories_sizes":[],"default_left":[0,0,0,0,0,0,0,0,0,0,0],"id":77,"left_children":[1,3,5,-1,7,-1,9,-1,-1,-1,-1],"loss_changes":[5.803324E0,5.257721E0,4.45998E0,0E0,5.0534067E0,0E0,8.086652E0,0E0,0E0,0E0,0E0],"parents":[2147483647,0,0,1,1,2,2,4,4,6,6],"right_children":[2,4,6,-1,8,-1,10,-1,-1,-1,-1],"split_conditions":[4.054061E-1,3.07695E-1,1.4588356E-2,5.466852E-3,2.7932895E-2,-1.6829595E-2,4.3397885E-2,5.5598132E-2,-0E0,2.7751798E-2,-1.2717639E-2],"split_indices":[14,14,1,0,10,0,1,0,0,0,0],"split_type":[0,0,0,0,0,0,0,0,0,0,0],"sum_hessian":[7.007737E2,3.2841827E2,3.723554E2,2.671922E2,6.122609E1,1.8135934E2,1.9099606E2,4.668338E1,1.4542707E1,8.555977E1,1.0543629E2],"tree_param":{"num_deleted":"0","num_feature":"16","num_nodes":"11","size_leaf_vector":"1"}},{"base_weights":[5.7273423E-3,-1.478285E-1,4.1320477E-2,1.7510102E-3,-4.426005E-2,2.6079816E-1,8.2720176E-4,-1.3404221E-2,3.9376855E-2],"categories":[],"categories_nodes":[],"categories_segments":[],"categories_sizes":[],"default_left":[0,0,0,0,0,0,0,0,0],"id":78,"left_children":[1,3,5,-1,-1,7,-1,-1,-1],"loss_changes":[3.5827055E0,6.876195E0,3.5896187E0,0E0,0E0,4.195438E0,0E0,0E0,0E0],"parents":[2147483647,0,0,1,1,2,2,5,5],"right_children":[2,4,6,-1,-1,8,-1,-1,-1],"split_conditions":[-2.8363794E-2,4.573339E-3,-1.7496718E-2,1.7510102E-3,-4.426005E-2,-2.586674E-1,8.2720176E-4,-1.3404221E-2,3.9376855E-2],"split_indices":[15,8,15,0,0,4,0,0,0],"split_type":[0,0,0,0,0,0,0,0,0],"sum_hessian":[6.992778E2,1.1962129E2,5.796565E2,7.212984E1,4.749146E1,6.672691E1,5.1292957E2,1.2837057E1,5.3889854E1],"tree_param":{"num_deleted":"0","num_feature":"16","num_nodes":"9","size_leaf_vector":"1"}},{"base_weights":[2.3220224E-2,1.07096415E-2,5.6034744E-2,-3.7230138E-2,1.1033E-2,-1.2844755E-2,4.900899E-3],"categories":[],"categories_nodes":[],"categories_segments":[],"categories_sizes":[],"default_left":[0,0,0,0,0,0,0],"id":79,"left_children":[1,3,-1,5,-1,-1,-1],"loss_changes":[3.4554663E0,3.4909344E0,0E0,3.7928941E0,0E0,0E0,0E0],"parents":[2147483647,0,0,1,1,3,3],"right_children":[2,4,-1,6,-1,-1,-1],"split_conditions":[2.109045E-1,3.3333334E-1,5.6034744E-2,7.852163E-3,1.1033E-2,-1.2844755E-2,4.900899E-3],"split_indices":[9,11,0,1,0,0,0],"split_type":[0,0,0,0,0,0,0],"sum_hessian":[7.014211E2,6.897319E2,1.1689217E1,4.5183905E2,2.378928E2,2.3140755E2,2.2043152E2],"tree_param":{"num_deleted":"0","num_feature":"16","num_nodes":"7","size_leaf_vector":"1"}},{"base_weights":[3.6926776E-2,3.4329695E-1,9.72221E-4,1.8060038E-5,6.7497484E-2,-3.2435898E-2,3.980714E-2],"categories":[],"categories_nodes":[],"categories_segments":[],"categories_sizes":[],"default_left":[0,0,0,0,0,0,0],"id":80,"left_children":[1,3,-1,5,-1,-1,-1],"loss_changes":[5.036839E0,4.290282E0,0E0,3.8946486E0,0E0,0E0,0E0],"parents":[2147483647,0,0,1,1,3,3],"right_children":[2,4,-1,6,-1,-1,-1],"split_conditions":[-1.0732023E-1,-4.2013866E-3,9.72221E-4,-4.349694E0,6.7497484E-2,-3.2435898E-2,3.980714E-2],"split_indices":[2,8,0,5,0,0,0],"split_type":[0,0,0,0,0,0,0],"sum_hessian":[7.0181213E2,5.025044E1,6.5156165E2,2.8249924E1,2.2000517E1,1.2477684E1,1.577224E1],"tree_param":{"num_deleted":"0","num_feature":"16","num_nodes":"7","size_leaf_vector":"1"}},{"base_weights":[-2.1183843E-2,1.5360585E-2,-1.8022116E-1,7.0668953E-3,-1.5718849E-1,-2.5698972E-1,2.8521296E-2,-3.6772605E-2,-0E0,-5.6265615E-2,-6.698574E-3],"categories":[],"categories_nodes":[],"categories_segments":[],"categories_sizes":[],"default_left":[0,0,0,0,0,0,0,0,0,0,0],"id":81,"left_children":[1,3,5,-1,7,9,-1,-1,-1,-1,-1],"loss_changes":[4.440611E0,5.185275E0,5.0479846E0,0E0,4.23726E0,5.9980097E0,0E0,0E0,0E0,0E0,0E0],"parents":[2147483647,0,0,1,1,2,2,4,4,5,5],"right_children":[2,4,6,-1,8,10,-1,-1,-1,-1,-1],"split_conditions":[2.4873008E-1,4.3576542E-1,1.0433294E0,7.0668953E-3,3.07695E-1,1.1111111E-1,2.8521296E-2,-3.6772605E-2,-0E0,-5.6265615E-2,-6.698574E-3],"split_indices":[4,7,7,0,14,11,0,0,0,0,0],"split_type":[0,0,0,0,0,0,0,0,0,0,0],"sum_hessian":[6.9998535E2,5.5772327E2,1.4226213E2,4.3119626E2,1.2652698E2,1.2637545E2,1.588668E1,5.352315E1,7.300382E1,4.334809E1,8.302736E1],"tree_param":{"num_deleted":"0","num_feature":"16","num_nodes":"11","size_leaf_vector":"1"}},{"base_weights":[-1.7882928E-2,1.3817395E-1,-6.475087E-2,5.965796E-5,4.5208573E-1,-2.2308238E-1,-0E0,1.0491068E-2,-5.1291738E-2,7.150554E-2,-0E0,-3.8361398E-3,-4.4919934E-2,2.4701297E-2,-3.800974E-3],"categories":[],"categories_nodes":[],"categories_segments":[],"categories_sizes":[],"default_left":[0,0,0,0,0,0,0,0,0,0,0,0,0,0,0],"id":82,"left_children":[1,3,5,7,9,11,13,-1,-1,-1,-1,-1,-1,-1,-1],"loss_changes":[4.914743E0,5.4543686E0,5.58578E0,5.021484E0,5.6387033E0,5.592046E0,3.6905675E0,0E0,0E0,0E0,0E0,0E0,0E0,0E0,0E0],"parents":[2147483647,0,0,1,1,2,2,3,3,4,4,5,5,6,6],"right_children":[2,4,6,8,10,12,14,-1,-1,-1,-1,-1,-1,-1,-1],"split_conditions":[3.9768744E-2,1.2658245E-2,5.6526817E-2,3.806733E-2,1.7493851E-2,4.8946526E-2,-7.499951E-1,1.0491068E-2,-5.1291738E-2,7.150554E-2,-0E0,-3.8361398E-3,-4.4919934E-2,2.4701297E-2,-3.800974E-3],"split_indices":[9,1,9,2,0,9,13,0,0,0,0,0,0,0,0],"split_type":[0,0,0,0,0,0,0,0,0,0,0,0,0,0,0],"sum_hessian":[6.9441656E2,1.4923885E2,5.4517773E2,1.0868132E2,4.0557526E1,1.5810037E2,3.8707736E2,9.390836E1,1.4772956E1,2.6758625E1,1.3798901E1,9.3196205E1,6.490417E1,5.1496197E1,3.3558115E2],"tree_param":{"num_deleted":"0","num_feature":"16","num_nodes":"15","size_leaf_vector":"1"}},{"base_weights":[-0E0],"categories":[],"categories_nodes":[],"categories_segments":[],"categories_sizes":[],"default_left":[0],"id":83,"left_children":[-1],"loss_changes":[0E0],"parents":[2147483647],"right_children":[-1],"split_conditions":[-0E0],"split_indices":[0],"split_type":[0],"sum_hessian":[6.937501E2],"tree_param":{"num_deleted":"0","num_feature":"16","num_nodes":"1","size_leaf_vector":"1"}},{"base_weights":[-6.837674E-4,1.3163863E-1,-4.7822542E-2,-2.0815774E-4,4.088103E-2,-1.3415585E-1,3.49168E-2,8.7793E-3,-2.2964865E-2,1.8087128E-2,-7.024737E-3],"categories":[],"categories_nodes":[],"categories_segments":[],"categories_sizes":[],"default_left":[0,0,0,0,0,0,0,0,0,0,0],"id":84,"left_children":[1,3,5,-1,-1,7,9,-1,-1,-1,-1],"loss_changes":[4.182137E0,7.357572E0,4.004732E0,0E0,0E0,6.227215E0,4.257819E0,0E0,0E0,0E0,0E0],"parents":[2147483647,0,0,1,1,2,2,5,5,6,6],"right_children":[2,4,6,-1,-1,8,10,-1,-1,-1,-1],"split_conditions":[-4.2357195E-2,-4.8930496E-2,4.018496E-2,-2.0815774E-4,4.088103E-2,-4.8930496E-2,1.6528374E-1,8.7793E-3,-2.2964865E-2,1.8087128E-2,-7.024737E-3],"split_indices":[2,3,2,0,0,3,3,0,0,0,0],"split_type":[0,0,0,0,0,0,0,0,0,0,0],"sum_hessian":[7.0061945E2,1.7143127E2,5.291881E2,1.10689644E2,6.0741634E1,2.722804E2,2.5690775E2,7.578481E1,1.9649559E2,1.16185196E2,1.4072253E2],"tree_param":{"num_deleted":"0","num_feature":"16","num_nodes":"11","size_leaf_vector":"1"}},{"base_weights":[1.0514423E-3],"categories":[],"categories_nodes":[],"categories_segments":[],"categories_sizes":[],"default_left":[0],"id":85,"left_children":[-1],"loss_changes":[0E0],"parents":[2147483647],"right_children":[-1],"split_conditions":[1.04303086E-4],"split_indices":[0],"split_type":[0],"sum_hessian":[6.928244E2],"tree_param":{"num_deleted":"0","num_feature":"16","num_nodes":"1","size_leaf_vector":"1"}},{"base_weights":[-2.5137395E-2],"categories":[],"categories_nodes":[],"categories_segments":[],"categories_sizes":[],"default_left":[0],"id":86,"left_children":[-1],"loss_changes":[0E0],"parents":[2147483647],"right_children":[-1],"split_conditions":[-2.4936297E-3],"split_indices":[0],"split_type":[0],"sum_hessian":[6.927248E2],"tree_param":{"num_deleted":"0","num_feature":"16","num_nodes":"1","size_leaf_vector":"1"}},{"base_weights":[6.6491337E-3,3.5051167E-1,-6.9381143E-3,9.126934E-2,-0E0,4.584586E-2,-2.273101E-3],"categories":[],"categories_nodes":[],"categories_segments":[],"categories_sizes":[],"default_left":[0,0,0,0,0,0,0],"id":87,"left_children":[1,3,5,-1,-1,-1,-1],"loss_changes":[3.9834163E0,7.7180367E0,3.9150312E0,0E0,0E0,0E0,0E0],"parents":[2147483647,0,0,1,1,2,2],"right_children":[2,4,6,-1,-1,-1,-1],"split_conditions":[-2.3473553E-1,1.03614934E-1,1.9509468E-2,9.126934E-2,-0E0,4.584586E-2,-2.273101E-3],"split_indices":[3,9,9,0,0,0,0],"split_type":[0,0,0,0,0,0,0],"sum_hessian":[6.8668164E2,3.233564E1,6.54346E2,1.3744104E1,1.8591534E1,1.683202E1,6.37514E2],"tree_param":{"num_deleted":"0","num_feature":"16","num_nodes":"7","size_leaf_vector":"1"}},{"base_weights":[-2.4429753E-2,-6.0792286E-2,-6.8083714E-4],"categories":[],"categories_nodes":[],"categories_segments":[],"categories_sizes":[],"default_left":[0,0,0],"id":88,"left_children":[1,-1,-1],"loss_changes":[5.7424035E0,0E0,0E0],"parents":[2147483647,0,0],"right_children":[2,-1,-1],"split_conditions":[-4.1392022E-1,-6.0792286E-2,-6.8083714E-4],"split_indices":[4,0,0],"split_type":[0,0,0],"sum_hessian":[6.906915E2,1.6225674E1,6.744658E2],"tree_param":{"num_deleted":"0","num_feature":"16","num_nodes":"3","size_leaf_vector":"1"}},{"base_weights":[3.8687874E-2,1.04546264E-1,-3.582449E-3,6.270308E-2,4.972359E-2,8.972011E-3,-5.179786E-2],"categories":[],"categories_nodes":[],"categories_segments":[],"categories_sizes":[],"default_left":[0,0,0,0,0,0,0],"id":89,"left_children":[1,3,-1,5,-1,-1,-1],"loss_changes":[3.6027222E0,5.1711307E0,0E0,4.8136344E0,0E0,0E0,0E0],"parents":[2147483647,0,0,1,1,3,3],"right_children":[2,4,-1,6,-1,-1,-1],"split_conditions":[7.287712E-2,4.34771E-2,-3.582449E-3,3.5012066E-2,4.972359E-2,8.972011E-3,-5.179786E-2],"split_indices":[4,4,0,4,0,0,0],"split_type":[0,0,0,0,0,0,0],"sum_hessian":[6.998696E2,3.881946E2,3.1167505E2,3.5637784E2,3.1816763E1,3.4398294E2,1.2394898E1],"tree_param":{"num_deleted":"0","num_feature":"16","num_nodes":"7","size_leaf_vector":"1"}},{"base_weights":[-1.9214423E-2],"categories":[],"categories_nodes":[],"categories_segments":[],"categories_sizes":[],"default_left":[0],"id":90,"left_children":[-1],"loss_changes":[0E0],"parents":[2147483647],"right_children":[-1],"split_conditions":[-1.9060709E-3],"split_indices":[0],"split_type":[0],"sum_hessian":[7.08634E2],"tree_param":{"num_deleted":"0","num_feature":"16","num_nodes":"1","size_leaf_vector":"1"}},{"base_weights":[4.3974295E-3],"categories":[],"categories_nodes":[],"categories_segments":[],"categories_sizes":[],"default_left":[0],"id":91,"left_children":[-1],"loss_changes":[0E0],"parents":[2147483647],"right_children":[-1],"split_conditions":[4.3622503E-4],"split_indices":[0],"split_type":[0],"sum_hessian":[6.986607E2],"tree_param":{"num_deleted":"0","num_feature":"16","num_nodes":"1","size_leaf_vector":"1"}},{"base_weights":[1.2588516E-2,-1.7408589E-2,2.2287948E-2,2.0639198E-1,-4.5965888E-2,-0E0,8.785662E-2,9.6103195E-3,-1.0571429E-2],"categories":[],"categories_nodes":[],"categories_segments":[],"categories_sizes":[],"default_left":[0,0,0,0,0,0,0,0,0],"id":92,"left_children":[1,3,-1,5,7,-1,-1,-1,-1],"loss_changes":[4.8828044E0,3.465814E0,0E0,7.191446E0,4.697151E0,0E0,0E0,0E0,0E0],"parents":[2147483647,0,0,1,1,3,3,4,4],"right_children":[2,4,-1,6,8,-1,-1,-1,-1],"split_conditions":[2.0725379E-2,2.7774347E-2,2.2287948E-2,1.1402177E-2,-4.2357195E-2,-0E0,8.785662E-2,9.6103195E-3,-1.0571429E-2],"split_indices":[8,9,0,1,2,0,0,0,0],"split_type":[0,0,0,0,0,0,0,0,0],"sum_hessian":[6.939158E2,5.9868164E2,9.523412E1,5.8759323E1,5.399223E2,4.6473583E1,1.2285741E1,1.4973315E2,3.9018915E2],"tree_param":{"num_deleted":"0","num_feature":"16","num_nodes":"9","size_leaf_vector":"1"}},{"base_weights":[2.8917747E-2,5.351928E-2,-3.0305666E-1,-1.4660679E-2,1.2854365E-1,-0E0,-5.0831594E-2,9.380985E-3,-1.5461934E-2,-0E0,2.2044789E-2],"categories":[],"categories_nodes":[],"categories_segments":[],"categories_sizes":[],"default_left":[0,0,0,0,0,0,0,0,0,0,0],"id":93,"left_children":[1,3,5,7,9,-1,-1,-1,-1,-1,-1],"loss_changes":[5.122831E0,3.6040168E0,3.6337004E0,5.184994E0,3.8407793E0,0E0,0E0,0E0,0E0,0E0,0E0],"parents":[2147483647,0,0,1,1,2,2,3,3,4,4],"right_children":[2,4,6,8,10,-1,-1,-1,-1,-1,-1],"split_conditions":[1.3262317E0,3.0313255E-2,-3.766656E-2,-5.824251E-2,-1.5923904E-3,-0E0,-5.0831594E-2,9.380985E-3,-1.5461934E-2,-0E0,2.2044789E-2],"split_indices":[7,3,3,3,8,0,0,0,0,0,0],"split_type":[0,0,0,0,0,0,0,0,0,0,0],"sum_hessian":[6.9590515E2,6.542755E2,4.162968E1,3.270628E2,3.2721268E2,1.3279803E1,2.8349878E1,1.7542532E2,1.5163748E2,1.4000916E2,1.8720354E2],"tree_param":{"num_deleted":"0","num_feature":"16","num_nodes":"11","size_leaf_vector":"1"}},{"base_weights":[-0E0],"categories":[],"categories_nodes":[],"categories_segments":[],"categories_sizes":[],"default_left":[0],"id":94,"left_children":[-1],"loss_changes":[0E0],"parents":[2147483647],"right_children":[-1],"split_conditions":[-0E0],"split_indices":[0],"split_type":[0],"sum_hessian":[6.867443E2],"tree_param":{"num_deleted":"0","num_feature":"16","num_nodes":"1","size_leaf_vector":"1"}},{"base_weights":[1.7073622E-2,-3.1083727E-3,2.8149614E-2,2.2533242E-2,-2.2440213E-1,-0E0,3.7174843E-2,-0E0,-5.6101203E-2],"categories":[],"categories_nodes":[],"categories_segments":[],"categories_sizes":[],"default_left":[0,0,0,0,0,0,0,0,0],"id":95,"left_children":[1,3,-1,5,7,-1,-1,-1,-1],"loss_changes":[4.350985E0,4.0554304E0,0E0,4.8331933E0,5.5684023E0,0E0,0E0,0E0,0E0],"parents":[2147483647,0,0,1,1,3,3,4,4],"right_children":[2,4,-1,6,8,-1,-1,-1,-1],"split_conditions":[1.563492E-1,2.0261984E0,2.8149614E-2,8.075982E-2,2.5393066E-1,-0E0,3.7174843E-2,-0E0,-5.6101203E-2],"split_indices":[2,6,0,2,4,0,0,0,0],"split_type":[0,0,0,0,0,0,0,0,0],"sum_hessian":[6.9072546E2,6.343448E2,5.6380665E1,5.594076E2,7.493718E1,5.2304675E2,3.6360847E1,4.5793785E1,2.9143393E1],"tree_param":{"num_deleted":"0","num_feature":"16","num_nodes":"9","size_leaf_vector":"1"}},{"base_weights":[-0E0,-1.6356084E-2,4.7974207E-2,-2.3600252E-3,-5.6934908E-2,1.1854341E-2,-4.9946215E-3],"categories":[],"categories_nodes":[],"categories_segments":[],"categories_sizes":[],"default_left":[0,0,0,0,0,0,0],"id":96,"left_children":[1,3,-1,5,-1,-1,-1],"loss_changes":[5.0075545E0,3.9311783E0,0E0,3.6916277E0,0E0,0E0,0E0],"parents":[2147483647,0,0,1,1,3,3],"right_children":[2,4,-1,6,-1,-1,-1],"split_conditions":[2.451966E-1,7.287584E-1,4.7974207E-2,-1.0656817E0,-5.6934908E-2,1.1854341E-2,-4.9946215E-3],"split_indices":[2,3,0,6,0,0,0],"split_type":[0,0,0,0,0,0,0],"sum_hessian":[6.907297E2,6.701634E2,2.0566277E1,6.5777405E2,1.2389378E1,1.725411E2,4.852329E2],"tree_param":{"num_deleted":"0","num_feature":"16","num_nodes":"7","size_leaf_vector":"1"}},{"base_weights":[-2.5469318E-2,-1.4432243E-1,3.5668828E-2,-1.99015E-2,-3.55159E-1,-2.3317816E-2,1.626787E-1,-1.5959565E-2,1.5077294E-2,-5.1444713E-2,-0E0,2.8651368E-2,-7.0510725E-3,4.61676E-2,4.3216543E-3],"categories":[],"categories_nodes":[],"categories_segments":[],"categories_sizes":[],"default_left":[0,0,0,0,0,0,0,0,0,0,0,0,0,0,0],"id":97,"left_children":[1,3,5,7,9,11,13,-1,-1,-1,-1,-1,-1,-1,-1],"loss_changes":[5.3180494E0,5.7032213E0,3.6746624E0,3.991777E0,5.507226E0,3.8969858E0,4.4172688E0,0E0,0E0,0E0,0E0,0E0,0E0,0E0,0E0],"parents":[2147483647,0,0,1,1,2,2,3,3,4,4,5,5,6,6],"right_children":[2,4,6,8,10,12,14,-1,-1,-1,-1,-1,-1,-1,-1],"split_conditions":[-4.2649734E-1,-1.250614E0,1.800719E-1,-1.9205214E-2,3.7500012E-1,-2.0414764E-2,3.440579E-1,-1.5959565E-2,1.5077294E-2,-5.1444713E-2,-0E0,2.8651368E-2,-7.0510725E-3,4.61676E-2,4.3216543E-3],"split_indices":[5,5,7,15,11,15,7,0,0,0,0,0,0,0,0],"split_type":[0,0,0,0,0,0,0,0,0,0,0,0,0,0,0],"sum_hessian":[6.980185E2,2.4958754E2,4.4843094E2,1.637388E2,8.5848755E1,2.941385E2,1.5429243E2,9.716599E1,6.65728E1,6.0700474E1,2.514828E1,3.2717735E1,2.6142078E2,3.8159214E1,1.16133224E2],"tree_param":{"num_deleted":"0","num_feature":"16","num_nodes":"15","size_leaf_vector":"1"}},{"base_weights":[-2.6855364E-3,5.9152376E-3,-5.4441184E-2,-1.3599103E-2,5.2754737E-2,5.521297E-3,-9.993788E-3],"categories":[],"categories_nodes":[],"categories_segments":[],"categories_sizes":[],"default_left":[0,0,0,0,0,0,0],"id":98,"left_children":[1,3,-1,5,-1,-1,-1],"loss_changes":[4.538882E0,8.257769E0,0E0,4.09751E0,0E0,0E0,0E0],"parents":[2147483647,0,0,1,1,3,3],"right_children":[2,4,-1,6,-1,-1,-1],"split_conditions":[7.287584E-1,4.7651437E-1,-5.4441184E-2,3.0931863E-1,5.2754737E-2,5.521297E-3,-9.993788E-3],"split_indices":[3,3,0,6,0,0,0],"split_type":[0,0,0,0,0,0,0],"sum_hessian":[7.056218E2,6.9069293E2,1.4928882E1,6.619196E2,2.8773352E1,3.5441193E2,3.075077E2],"tree_param":{"num_deleted":"0","num_feature":"16","num_nodes":"7","size_leaf_vector":"1"}},{"base_weights":[4.6084043E-2],"categories":[],"categories_nodes":[],"categories_segments":[],"categories_sizes":[],"default_left":[0],"id":99,"left_children":[-1],"loss_changes":[0E0],"parents":[2147483647],"right_children":[-1],"split_conditions":[4.571537E-3],"split_indices":[0],"split_type":[0],"sum_hessian":[6.84521E2],"tree_param":{"num_deleted":"0","num_feature":"16","num_nodes":"1","size_leaf_vector":"1"}}]},"name":"gbtree"},"learner_model_param":{"base_score":"5E-1","boost_from_average":"1","num_class":"0","num_feature":"16","num_target":"1"},"objective":{"name":"binary:logistic","reg_loss_param":{"scale_pos_weight":"0.853167355"}}},"version":[2,1,0]}