{"learner":{"attributes":{"scikit_learn":"{\"_estimator_type\": \"classifier\"}"},"feature_names":["bias_week","bias_month","bias_quarter","bias_year","rsi","macd","macd_signal","vol_change","close_change","bb_width","return_5d","k_upper","k_lower","k_body","buy_power","rs_5d"],"feature_types":["float","float","float","float","float","float","float","float","float","float","float","float","float","float","float","float"],"gradient_booster":{"model":{"cats":{"enc":[],"feature_segments":[],"sorted_idx":[]},"gbtree_model_param":{"num_parallel_tree":"1","num_trees":"23"},"iteration_indptr":[0,1,2,3,4,5,6,7,8,9,10,11,12,13,14,15,16,17,18,19,20,21,22,23],"tree_info":[0,0,0,0,0,0,0,0,0,0,0,0,0,0,0,0,0,0,0,0,0,0,0],"trees":[{"base_weights":[1.4880883E-2,1.0020975E0,-6.905993E-2,1.2431997E0,3.232537E-1,-2.7264357E-1,3.801702E-1,1.323893E0,-1.7624954E-2,9.520507E-1,-4.771057E-1,3.6836088E-1,-4.2565843E-1,1.0842835E0,2.7042526E-1,7.476454E-2,2.2790188E-2,1.9581577E-2,6.994719E-2,-4.86294E-2,1.5290934E-2,7.459759E-2,1.206974E-2,-3.0764243E-2,-8.27125E-3,-6.161673E-3,6.1168104E-2,4.580652E-3,3.8819697E-2],"categories":[],"categories_nodes":[],"categories_segments":[],"categories_sizes":[],"default_left":[0,0,0,0,0,0,0,0,0,0,0,0,0,0,0,0,0,0,0,0,0,0,0,0,0,0,0,0,0],"id":0,"left_children":[1,3,5,7,9,11,13,15,-1,17,19,21,23,25,27,-1,-1,-1,-1,-1,-1,-1,-1,-1,-1,-1,-1,-1,-1],"loss_changes":[4.026914E1,5.8306923E0,4.1078598E1,4.0396156E0,6.156945E0,3.0453852E1,1.0535662E1,3.2796402E0,0E0,1.1250467E0,2.4898944E0,8.208214E0,1.2226566E1,3.2685146E0,1.1018511E1,0E0,0E0,0E0,0E0,0E0,0E0,0E0,0E0,0E0,0E0,0E0,0E0,0E0,0E0],"parents":[2147483647,0,0,1,1,2,2,3,3,4,4,5,5,6,6,7,7,9,9,10,10,11,11,12,12,13,13,14,14],"right_children":[2,4,6,8,10,12,14,16,-1,18,20,22,24,26,28,-1,-1,-1,-1,-1,-1,-1,-1,-1,-1,-1,-1,-1,-1],"split_conditions":[-2.7097437E0,1.1236056E-2,1.4829385E-1,1E0,-3.3943133E0,-8.104078E-2,-2.1047566E-2,5.9974706E-1,-1.7624954E-2,-1.8020973E-1,-3.0849483E0,-2.6867273E-1,5.3362828E-2,-2.2039614E0,4.0304604E-1,7.476454E-2,2.2790188E-2,1.9581577E-2,6.994719E-2,-4.86294E-2,1.5290934E-2,7.459759E-2,1.206974E-2,-3.0764243E-2,-8.27125E-3,-6.161673E-3,6.1168104E-2,4.580652E-3,3.8819697E-2],"split_indices":[5,0,3,11,6,3,1,7,0,3,5,3,4,5,3,0,0,0,0,0,0,0,0,0,0,0,0,0,0],"split_type":[0,0,0,0,0,0,0,0,0,0,0,0,0,0,0,0,0,0,0,0,0,0,0,0,0,0,0,0,0],"sum_hessian":[4.8410944E2,3.7079872E1,4.4702954E2,2.6748404E1,1.033147E1,3.078914E2,1.3913818E2,2.5623003E1,1.1253994E0,5.6797123E0,4.6517572E0,5.90623E1,2.4882907E2,1.7564697E1,1.2157349E2,2.079473E1,4.8282747E0,3.3522365E0,2.327476E0,2.7004793E0,1.951278E0,4.904952E0,5.415735E1,1.4315256E2,1.0567652E2,1.8258786E0,1.5738818E1,9.070048E1,3.0873003E1],"tree_param":{"num_deleted":"0","num_feature":"16","num_nodes":"29","size_leaf_vector":"1"}},{"base_weights":[1.7318677E-2,-2.0898157E-1,6.098405E-1,1.3503193E0,-2.5266653E-1,1.3186543E0,5.022531E-1,8.292144E-2,5.434998E-1,6.169951E-1,-2.8429E-1,1.4606655E0,-2.1651788E-2,3.4699747E-1,1.1213415E0,5.606213E-2,-6.4791576E-3,1.900187E-3,5.467251E-2,-2.0803316E-2,-2.3725713E-3,4.001511E-2,8.811908E-2,4.6922922E-2,1.1390287E-2,6.0836293E-2,9.640027E-3],"categories":[],"categories_nodes":[],"categories_segments":[],"categories_sizes":[],"default_left":[0,0,0,0,0,0,0,0,0,0,0,0,0,0,0,0,0,0,0,0,0,0,0,0,0,0,0],"id":1,"left_children":[1,3,5,7,9,11,13,-1,15,17,19,21,-1,23,25,-1,-1,-1,-1,-1,-1,-1,-1,-1,-1,-1,-1],"loss_changes":[6.504995E1,2.4258076E1,9.561741E0,1.5164566E0,9.591536E0,4.874563E0,1.0954271E1,0E0,1.7689332E0,3.3594718E0,1.0312384E1,1.7779617E0,0E0,6.5400105E0,1.8214512E0,0E0,0E0,0E0,0E0,0E0,0E0,0E0,0E0,0E0,0E0,0E0,0E0],"parents":[2147483647,0,0,1,1,2,2,3,3,4,4,5,5,6,6,8,8,9,9,10,10,11,11,13,13,14,14],"right_children":[2,4,6,8,10,12,14,-1,16,18,20,22,-1,24,26,-1,-1,-1,-1,-1,-1,-1,-1,-1,-1,-1,-1],"split_conditions":[8.253555E-2,-2.4047494E0,-6.108574E-2,6.5358896E-3,-6.584362E-2,8.181793E-1,5.648578E-2,8.292144E-2,-3.100478E0,4.4854157E-2,1.2110682E-2,2.9411286E-2,-2.1651788E-2,-3.2601595E0,8.958958E-1,5.606213E-2,-6.4791576E-3,1.900187E-3,5.467251E-2,-2.0803316E-2,-2.3725713E-3,4.001511E-2,8.811908E-2,4.6922922E-2,1.1390287E-2,6.0836293E-2,9.640027E-3],"split_indices":[9,5,10,8,10,11,15,0,6,6,10,12,0,5,7,0,0,0,0,0,0,0,0,0,0,0,0],"split_type":[0,0,0,0,0,0,0,0,0,0,0,0,0,0,0,0,0,0,0,0,0,0,0,0,0,0,0],"sum_hessian":[4.8317892E2,3.5010977E2,1.3306917E2,8.726151E0,3.413836E2,1.6052769E1,1.17016396E2,5.5508637E0,3.1752875E0,1.1328665E1,3.3005493E2,1.5002629E1,1.050139E0,9.480228E1,2.2214123E1,1.3503659E0,1.8249216E0,5.6014767E0,5.7271876E0,2.1157722E2,1.1847772E2,5.8504033E0,9.152226E0,1.4747541E1,8.005473E1,1.98633E1,2.350822E0],"tree_param":{"num_deleted":"0","num_feature":"16","num_nodes":"27","size_leaf_vector":"1"}},{"base_weights":[-1.9649316E-2,8.987214E-1,-9.708379E-2,3.7066975E-1,1.1042205E0,-1.6832426E-1,1.0519083E0,7.2165854E-2,-1.696035E-1,1.1963302E0,-2.3776332E-3,7.401576E-2,-1.9432005E-1,1.2776048E0,6.3865626E-1,-3.1352602E-2,5.8820307E-2,6.483262E-2,6.3906754E-3,-1.7196616E-2,7.1547604E-3,6.760405E-2,1.410684E-2,-1.1258331E-2,4.9322236E-2],"categories":[],"categories_nodes":[],"categories_segments":[],"categories_sizes":[],"default_left":[0,0,0,0,0,0,0,0,0,0,0,0,0,0,0,0,0,0,0,0,0,0,0,0,0],"id":2,"left_children":[1,3,5,7,9,11,13,-1,15,17,-1,-1,19,21,23,-1,-1,-1,-1,-1,-1,-1,-1,-1,-1],"loss_changes":[3.5156178E1,3.762455E0,3.7477886E1,7.358564E0,2.939251E0,1.871444E1,1.6783276E0,0E0,6.315132E0,2.5351257E0,0E0,0E0,2.1461552E1,8.267479E-1,3.6607747E0,0E0,0E0,0E0,0E0,0E0,0E0,0E0,0E0,0E0,0E0],"parents":[2147483647,0,0,1,1,2,2,3,3,4,4,5,5,6,6,8,8,9,9,12,12,13,13,14,14],"right_children":[2,4,6,8,10,12,14,-1,16,18,-1,-1,20,22,24,-1,-1,-1,-1,-1,-1,-1,-1,-1,-1],"split_conditions":[-2.7097437E0,-2.4432872E-1,3.7646136E0,-4.040336E-1,1.1863691E0,-2.5895154E-1,4.96124E-2,7.2165854E-2,-3.789505E0,7.1428484E-1,-2.3776332E-3,7.401576E-2,1.261135E-1,1.0121986E-1,6.858064E-2,-3.1352602E-2,5.8820307E-2,6.483262E-2,6.3906754E-3,-1.7196616E-2,7.1547604E-3,6.760405E-2,1.410684E-2,-1.1258331E-2,4.9322236E-2],"split_indices":[5,3,6,3,7,3,10,0,5,11,0,0,3,15,10,0,0,0,0,0,0,0,0,0,0],"split_type":[0,0,0,0,0,0,0,0,0,0,0,0,0,0,0,0,0,0,0,0,0,0,0,0,0],"sum_hessian":[4.921398E2,3.744437E1,4.546954E2,1.1275228E1,2.6169144E1,4.2895276E2,2.574267E1,3.2169347E0,8.058293E0,2.4195494E1,1.9736508E0,5.7903047E0,4.2316245E2,1.5296784E1,1.0445886E1,6.4129558E0,1.6453372E0,2.1923597E1,2.2718968E0,2.931558E2,1.3000664E2,1.3898713E1,1.3980713E0,3.0996575E0,7.3462286E0],"tree_param":{"num_deleted":"0","num_feature":"16","num_nodes":"25","size_leaf_vector":"1"}},{"base_weights":[-7.377272E-3,-2.0032246E-1,4.6306935E-1,6.6001207E-1,-2.6725528E-1,7.535677E-1,1.9826688E-1,7.086823E-2,2.9919517E-1,-4.3227628E-1,1.5268214E-1,8.490848E-1,-4.2190737E-1,-1.9430341E-2,7.6322055E-1,7.031414E-2,2.7515627E-3,5.677424E-3,-2.6734462E-2,3.9911624E-2,-1.6007627E-3,3.5560485E-2,6.535452E-2,2.0194868E-2,-4.0906977E-2,4.169542E-2,-8.29473E-3,-1.7770644E-2,4.2149138E-2],"categories":[],"categories_nodes":[],"categories_segments":[],"categories_sizes":[],"default_left":[0,0,0,0,0,0,0,0,0,0,0,0,0,0,0,0,0,0,0,0,0,0,0,0,0,0,0,0,0],"id":3,"left_children":[1,3,5,7,9,11,13,-1,15,17,19,21,23,25,27,-1,-1,-1,-1,-1,-1,-1,-1,-1,-1,-1,-1,-1,-1],"loss_changes":[4.4901955E1,2.0375608E1,1.0918482E1,6.5737524E0,2.2668848E1,8.021637E0,9.438942E0,0E0,4.9537277E0,1.3164314E1,1.108462E1,3.0774994E0,2.2274246E0,7.173318E0,2.2035313E0,0E0,0E0,0E0,0E0,0E0,0E0,0E0,0E0,0E0,0E0,0E0,0E0,0E0,0E0],"parents":[2147483647,0,0,1,1,2,2,3,3,4,4,5,5,6,6,8,8,9,9,10,10,11,11,12,12,13,13,14,14],"right_children":[2,4,6,8,10,12,14,-1,16,18,20,22,24,26,28,-1,-1,-1,-1,-1,-1,-1,-1,-1,-1,-1,-1,-1,-1],"split_conditions":[8.094695E-2,-1.7892361E0,4.1666526E-1,-1.0921111E-1,1.4829385E-1,8.5713965E-1,2.7397588E-2,7.086823E-2,-7.499989E-1,-7.704889E-2,-1.1499909E-2,3.745851E-1,1.097691E-1,-3.7634414E-2,8.333177E-2,7.031414E-2,2.7515627E-3,5.677424E-3,-2.6734462E-2,3.9911624E-2,-1.6007627E-3,3.5560485E-2,6.535452E-2,2.0194868E-2,-4.0906977E-2,4.169542E-2,-8.29473E-3,-1.7770644E-2,4.2149138E-2],"split_indices":[9,5,14,3,3,11,8,0,13,3,1,3,9,10,9,0,0,0,0,0,0,0,0,0,0,0,0,0,0],"split_type":[0,0,0,0,0,0,0,0,0,0,0,0,0,0,0,0,0,0,0,0,0,0,0,0,0,0,0,0,0],"sum_hessian":[4.9265417E2,3.4977463E2,1.4287956E2,2.4608131E1,3.2516647E2,6.725381E1,7.5625755E1,6.995793E0,1.7612339E1,2.3341356E2,9.175292E1,6.245637E1,4.797433E0,5.5287193E1,2.0338562E1,2.3224242E0,1.5289915E1,3.685907E1,1.9655449E2,1.9672432E1,7.208049E1,4.9967354E1,1.2489019E1,1.5492427E0,3.24819E0,7.4116144E0,4.787558E1,1.1236668E0,1.9214895E1],"tree_param":{"num_deleted":"0","num_feature":"16","num_nodes":"29","size_leaf_vector":"1"}},{"base_weights":[-1.3275748E-2,-1.9885558E-1,4.5037964E-1,1.2393565E0,-2.3909639E-1,1.1808362E0,3.4238607E-1,7.960518E-2,-1.4373756E-2,-3.497827E-1,6.584851E-2,1.4505328E0,4.422566E-1,1.744296E-1,9.3783885E-1,1.0502864E-2,-2.3414554E-2,5.2534916E-2,-3.6689208E-3,1.3547847E-2,7.868011E-2,-1.4810449E-2,3.4650467E-2,4.5823663E-2,3.6617524E-3,8.1082456E-2,3.3807244E-2],"categories":[],"categories_nodes":[],"categories_segments":[],"categories_sizes":[],"default_left":[0,0,0,0,0,0,0,0,0,0,0,0,0,0,0,0,0,0,0,0,0,0,0,0,0,0,0],"id":4,"left_children":[1,3,5,7,9,11,13,-1,-1,15,17,19,21,23,25,-1,-1,-1,-1,-1,-1,-1,-1,-1,-1,-1,-1],"loss_changes":[4.22878E1,2.0606346E1,1.0678177E1,5.689185E0,1.1573957E1,2.8815956E0,1.2217954E1,0E0,0E0,1.6767057E1,1.2688763E1,1.3907623E0,1.3477099E0,7.2762847E0,3.7367992E0,0E0,0E0,0E0,0E0,0E0,0E0,0E0,0E0,0E0,0E0,0E0,0E0],"parents":[2147483647,0,0,1,1,2,2,3,3,4,4,5,5,6,6,9,9,10,10,11,11,12,12,13,13,14,14],"right_children":[2,4,6,8,10,12,14,-1,-1,16,18,20,22,24,26,-1,-1,-1,-1,-1,-1,-1,-1,-1,-1,-1,-1],"split_conditions":[8.157374E-2,-2.4047494E0,-6.108574E-2,4.72648E-2,1.4829385E-1,5.109667E-1,5.4921594E-2,7.960518E-2,-1.4373756E-2,-7.704889E-2,-7.032455E-2,-6.4327285E-2,6.241779E-1,-3.3943133E0,1.149082E-1,1.0502864E-2,-2.3414554E-2,5.2534916E-2,-3.6689208E-3,1.3547847E-2,7.868011E-2,-1.4810449E-2,3.4650467E-2,4.5823663E-2,3.6617524E-3,8.1082456E-2,3.3807244E-2],"split_indices":[9,5,10,3,3,7,15,0,0,3,4,8,7,6,9,0,0,0,0,0,0,0,0,0,0,0,0],"split_type":[0,0,0,0,0,0,0,0,0,0,0,0,0,0,0,0,0,0,0,0,0,0,0,0,0,0,0],"sum_hessian":[4.8942E2,3.4993024E2,1.3948979E2,8.713404E0,3.4121683E2,1.6686932E1,1.22802864E2,7.0434027E0,1.6700011E0,2.5023984E2,9.097699E1,1.1517354E1,5.1695766E0,9.679368E1,2.6009186E1,4.358227E1,2.0665756E2,1.0457449E1,8.051954E1,1.3906016E0,1.0126753E1,1.2644621E0,3.9051144E0,1.0649083E1,8.614459E1,5.76041E0,2.0248775E1],"tree_param":{"num_deleted":"0","num_feature":"16","num_nodes":"27","size_leaf_vector":"1"}},{"base_weights":[-3.6150876E-2,-2.1747935E-1,4.2741486E-1,3.321229E-1,-3.105803E-1,9.7298944E-1,2.7193683E-1,1.4161705E0,9.219449E-2,-5.150809E-1,4.882316E-2,4.1097745E-1,1.3088835E0,1.2229104E-1,9.028135E-1,8.0025084E-2,-2.2665602E-3,-3.0527685E-2,2.3720255E-2,5.583417E-2,-2.781993E-2,3.362259E-2,-5.6648273E-3,-7.001992E-3,3.830605E-2,7.384101E-2,3.208575E-3,-1.4280617E-4,3.75302E-2,7.329949E-2,1.685238E-2],"categories":[],"categories_nodes":[],"categories_segments":[],"categories_sizes":[],"default_left":[0,0,0,0,0,0,0,0,0,0,0,0,0,0,0,0,0,0,0,0,0,0,0,0,0,0,0,0,0,0,0],"id":5,"left_children":[1,3,5,7,9,11,13,15,17,19,21,23,25,27,29,-1,-1,-1,-1,-1,-1,-1,-1,-1,-1,-1,-1,-1,-1,-1,-1],"loss_changes":[4.1483284E1,1.8248255E1,1.1508183E1,1.3355867E1,2.235117E1,5.1994667E0,1.021752E1,2.585226E0,1.1980438E1,1.3679977E1,1.1305981E1,2.6174278E0,3.786003E0,7.0459046E0,6.1388607E0,0E0,0E0,0E0,0E0,0E0,0E0,0E0,0E0,0E0,0E0,0E0,0E0,0E0,0E0,0E0,0E0],"parents":[2147483647,0,0,1,1,2,2,3,3,4,4,5,5,6,6,7,7,8,8,9,9,10,10,11,11,12,12,13,13,14,14],"right_children":[2,4,6,8,10,12,14,16,18,20,22,24,26,28,30,-1,-1,-1,-1,-1,-1,-1,-1,-1,-1,-1,-1,-1,-1,-1,-1],"split_conditions":[8.253555E-2,-7.497808E-2,-1.5195917E-2,-8.243325E-2,1.1318039E-1,3.44823E-2,4.1779378E-1,1.2773147E0,-1.4386049E-1,1.6009748E-2,-1.2906905E-2,6.249916E-2,3.0000305E-1,2.7397588E-2,7.085602E-1,8.0025084E-2,-2.2665602E-3,-3.0527685E-2,2.3720255E-2,5.583417E-2,-2.781993E-2,3.362259E-2,-5.6648273E-3,-7.001992E-3,3.830605E-2,7.384101E-2,3.208575E-3,-1.4280617E-4,3.75302E-2,7.329949E-2,1.685238E-2],"split_indices":[9,3,0,2,3,12,3,7,3,9,1,11,13,8,3,0,0,0,0,0,0,0,0,0,0,0,0,0,0,0,0],"split_type":[0,0,0,0,0,0,0,0,0,0,0,0,0,0,0,0,0,0,0,0,0,0,0,0,0,0,0,0,0,0,0],"sum_hessian":[4.91404E2,3.536148E2,1.3778918E2,5.0852177E1,3.0276263E2,2.9392488E1,1.0839669E2,8.326918E0,4.2525257E1,1.9268925E2,1.10073364E2,1.1827111E1,1.7565376E1,8.857928E1,1.9817417E1,7.3098583E0,1.0170598E0,1.4770389E1,2.7754871E1,4.115818E0,1.8857344E2,2.2061426E1,8.801194E1,4.8726735E0,6.9544377E0,1.5312885E1,2.252491E0,7.469667E1,1.3882605E1,9.134034E0,1.0683383E1],"tree_param":{"num_deleted":"0","num_feature":"16","num_nodes":"31","size_leaf_vector":"1"}},{"base_weights":[7.449344E-3,-4.859518E-2,9.965609E-1,8.649796E-1,-1.0954126E-1,-5.1296386E-3,1.0449616E0,3.0262983E-1,1.1827726E0,-2.1903165E-1,1.5199749E-1,6.1537164E-1,1.3234372E0,6.646048E-2,-1.2063981E-2,7.4870445E-2,3.298014E-2,3.3764668E-2,-1.36427125E-2,6.288908E-2,5.4248166E-3,-4.468414E-3,7.50239E-2,1.9815216E-2,7.077509E-2],"categories":[],"categories_nodes":[],"categories_segments":[],"categories_sizes":[],"default_left":[0,0,0,0,0,0,0,0,0,0,0,0,0,0,0,0,0,0,0,0,0,0,0,0,0],"id":6,"left_children":[1,3,5,7,9,-1,11,13,15,17,19,21,23,-1,-1,-1,-1,-1,-1,-1,-1,-1,-1,-1,-1],"loss_changes":[2.6874603E1,2.5647497E1,1.4901962E0,4.7913876E0,1.2378767E1,0E0,2.1750565E0,6.880187E0,1.9861393E0,1.4831933E1,6.0116987E0,7.4303865E0,6.589432E-1,0E0,0E0,0E0,0E0,0E0,0E0,0E0,0E0,0E0,0E0,0E0,0E0],"parents":[2147483647,0,0,1,1,2,2,3,3,4,4,6,6,7,7,8,8,9,9,10,10,11,11,12,12],"right_children":[2,4,6,8,10,-1,12,14,16,18,20,22,24,-1,-1,-1,-1,-1,-1,-1,-1,-1,-1,-1,-1],"split_conditions":[3.7646136E0,-1.0502655E-1,-5.505106E-2,-2.4432872E-1,2.34375E-2,-5.1296386E-3,4.0304604E-1,-4.040336E-1,-2.210923E-2,-6.303738E-2,-2.245421E-1,4.520939E0,-5.035193E-1,6.646048E-2,-1.2063981E-2,7.4870445E-2,3.298014E-2,3.3764668E-2,-1.36427125E-2,6.288908E-2,5.4248166E-3,-4.468414E-3,7.50239E-2,1.9815216E-2,7.077509E-2],"split_indices":[6,2,0,3,10,0,3,3,15,10,3,6,7,0,0,0,0,0,0,0,0,0,0,0,0],"split_type":[0,0,0,0,0,0,0,0,0,0,0,0,0,0,0,0,0,0,0,0,0,0,0,0,0],"sum_hessian":[4.829275E2,4.579313E2,2.4996195E1,2.7813753E1,4.3011755E2,1.0070472E0,2.398915E1,1.0747619E1,1.7066135E1,3.0330478E2,1.26812775E2,1.069709E1,1.3292058E1,3.2222004E0,7.525418E0,9.494142E0,7.5719934E0,1.6561956E1,2.8674283E2,3.7433891E0,1.2306938E2,6.4558444E0,4.2412457E0,1.6798478E0,1.161221E1],"tree_param":{"num_deleted":"0","num_feature":"16","num_nodes":"25","size_leaf_vector":"1"}},{"base_weights":[-7.257187E-3,-1.7746362E-1,4.0048096E-1,7.3245406E-2,-2.0238481E-1,2.6919425E-1,1.0506363E0,-3.2812226E-1,1.2160013E-1,4.417519E-1,-1.6187225E-1,7.814509E-2,7.6260424E-1,7.3595694E-3,-2.1543708E-2,1.4013943E-2,-1.2784871E-2,1.8500224E-2,6.359828E-2,-1.8076224E-2,4.359546E-2,-3.4660187E-2,4.612744E-2],"categories":[],"categories_nodes":[],"categories_segments":[],"categories_sizes":[],"default_left":[0,0,0,0,0,0,0,0,0,0,0,0,0,0,0,0,0,0,0,0,0,0,0],"id":7,"left_children":[1,3,5,-1,7,9,11,13,15,17,19,-1,21,-1,-1,-1,-1,-1,-1,-1,-1,-1,-1],"loss_changes":[3.4289932E1,1.4562667E1,1.2138081E1,0E0,1.4062435E1,9.177149E0,2.3645363E0,1.2187838E1,5.8771715E0,4.7525578E0,7.689014E0,0E0,4.686719E0,0E0,0E0,0E0,0E0,0E0,0E0,0E0,0E0,0E0,0E0],"parents":[2147483647,0,0,1,1,2,2,4,4,5,5,6,6,7,7,8,8,9,9,10,10,12,12],"right_children":[2,4,6,-1,8,10,12,14,16,18,20,-1,22,-1,-1,-1,-1,-1,-1,-1,-1,-1,-1],"split_conditions":[8.046508E-2,-2.245421E-1,3.7646136E0,7.3245406E-2,1.3630855E-1,1.9013224E0,3.4890372E-2,-7.704889E-2,6.432882E-2,5.648578E-2,4.1779378E-1,7.814509E-2,3.6670953E-2,7.3595694E-3,-2.1543708E-2,1.4013943E-2,-1.2784871E-2,1.8500224E-2,6.359828E-2,-1.8076224E-2,4.359546E-2,-3.4660187E-2,4.612744E-2],"split_indices":[9,3,6,0,3,6,15,3,9,15,3,0,15,0,0,0,0,0,0,0,0,0,0],"split_type":[0,0,0,0,0,0,0,0,0,0,0,0,0,0,0,0,0,0,0,0,0,0,0],"sum_hessian":[4.920696E2,3.4755203E2,1.4451755E2,4.331229E0,3.4322083E2,1.2141426E2,2.3103294E1,2.4725085E2,9.596997E1,8.6687935E1,3.472632E1,6.7220235E0,1.6381271E1,4.3872276E1,2.0337857E2,6.773854E1,2.8231424E1,8.112293E1,5.565003E0,2.9650303E1,5.0760174E0,1.2915566E0,1.5089715E1],"tree_param":{"num_deleted":"0","num_feature":"16","num_nodes":"23","size_leaf_vector":"1"}},{"base_weights":[1.0707141E-2,-1.2839635E-1,3.126659E-1,4.4943398E-1,-2.8434703E-1,1.9775374E-1,7.4322903E-1,6.0041314E-1,-3.1197137E-1,2.949126E-1,-4.2116037E-1,1.1657667E0,1.22139305E-1,9.8089826E-1,5.1680807E-2,1.6206557E-2,4.894961E-2,3.8950965E-2,-3.615907E-2,7.104489E-2,8.27562E-3,-3.458906E-2,-1.0831217E-2,-6.700082E-3,7.6235846E-2,3.918559E-3,4.6464115E-2,-1.645734E-2,5.3422835E-2,3.404075E-2,-2.7387185E-2],"categories":[],"categories_nodes":[],"categories_segments":[],"categories_sizes":[],"default_left":[0,0,0,0,0,0,0,0,0,0,0,0,0,0,0,0,0,0,0,0,0,0,0,0,0,0,0,0,0,0,0],"id":8,"left_children":[1,3,5,7,9,11,13,15,17,19,21,23,25,27,29,-1,-1,-1,-1,-1,-1,-1,-1,-1,-1,-1,-1,-1,-1,-1,-1],"loss_changes":[2.0489254E1,3.0226433E1,7.4642105E0,8.392287E0,2.1017403E1,8.845202E0,5.2161446E0,5.948492E0,6.1572847E0,7.189605E0,1.16775055E1,4.3003683E0,3.990109E0,3.0808449E0,3.8619273E0,0E0,0E0,0E0,0E0,0E0,0E0,0E0,0E0,0E0,0E0,0E0,0E0,0E0,0E0,0E0,0E0],"parents":[2147483647,0,0,1,1,2,2,3,3,4,4,5,5,6,6,7,7,8,8,9,9,10,10,11,11,12,12,13,13,14,14],"right_children":[2,4,6,8,10,12,14,16,18,20,22,24,26,28,30,-1,-1,-1,-1,-1,-1,-1,-1,-1,-1,-1,-1,-1,-1,-1,-1],"split_conditions":[1.261135E-1,-1.6595047E0,3.6068503E-2,5.1724136E-1,-7.497808E-2,-1.4226301E-1,4.4444302E-1,-2.3681154E-2,-3.2601595E0,-2.5895154E-1,-1.1229847E-2,1.5830547E-1,4.4202814E0,-4.6090066E-2,-4.347754E-2,1.6206557E-2,4.894961E-2,3.8950965E-2,-3.615907E-2,7.104489E-2,8.27562E-3,-3.458906E-2,-1.0831217E-2,-6.700082E-3,7.6235846E-2,3.918559E-3,4.6464115E-2,-1.645734E-2,5.3422835E-2,3.404075E-2,-2.7387185E-2],"split_indices":[3,5,15,12,3,4,12,15,5,3,5,3,6,0,13,0,0,0,0,0,0,0,0,0,0,0,0,0,0,0,0],"split_type":[0,0,0,0,0,0,0,0,0,0,0,0,0,0,0,0,0,0,0,0,0,0,0,0,0,0,0,0,0,0,0],"sum_hessian":[4.8584274E2,3.3300977E2,1.5283298E2,7.037471E1,2.6263507E2,1.2178838E2,3.1044584E1,5.8905724E1,1.1468983E1,4.9958427E1,2.1267664E2,7.7794127E0,1.1400897E2,2.2792809E1,8.251776E0,3.5126816E1,2.377891E1,2.8946538E0,8.574329E0,4.1207533E0,4.5837673E1,9.052336E1,1.2215328E2,1.8190973E0,5.9603157E0,1.0918539E2,4.823589E0,1.2550864E0,2.1537722E1,3.9598646E0,4.291911E0],"tree_param":{"num_deleted":"0","num_feature":"16","num_nodes":"31","size_leaf_vector":"1"}},{"base_weights":[-1.1479642E-3,-1.481859E-1,3.8061193E-1,7.08297E-2,-1.7268322E-1,1.6992803E-1,6.9323367E-1,-2.9001608E-1,7.932897E-2,3.5423678E-1,-3.7825307E-1,1.0607177E0,2.1778564E-1,1.5722187E-2,-1.8595362E-2,3.079459E-2,-2.5617192E-3,9.31146E-3,4.725879E-2,4.504427E-2,-4.137551E-2,6.1708163E-2,-1.8999396E-2,-3.4524713E-2,2.6924534E-2],"categories":[],"categories_nodes":[],"categories_segments":[],"categories_sizes":[],"default_left":[0,0,0,0,0,0,0,0,0,0,0,0,0,0,0,0,0,0,0,0,0,0,0,0,0],"id":9,"left_children":[1,3,5,-1,7,9,11,13,15,17,19,21,23,-1,-1,-1,-1,-1,-1,-1,-1,-1,-1,-1,-1],"loss_changes":[2.7468838E1,1.3786726E1,8.8443775E0,0E0,1.0334477E1,8.480739E0,9.283768E0,1.1905619E1,7.847403E0,6.0134516E0,1.2968897E1,8.079891E0,7.65395E0,0E0,0E0,0E0,0E0,0E0,0E0,0E0,0E0,0E0,0E0,0E0,0E0],"parents":[2147483647,0,0,1,1,2,2,4,4,5,5,6,6,7,7,8,8,9,9,10,10,11,11,12,12],"right_children":[2,4,6,-1,8,10,12,14,16,18,20,22,24,-1,-1,-1,-1,-1,-1,-1,-1,-1,-1,-1,-1],"split_conditions":[8.253555E-2,-2.245421E-1,9.677677E-2,7.08297E-2,1.1318039E-1,2.844651E-3,3.7013686E-1,-1.6976223E0,-1.4618314E-2,2.1634568E-2,-1.6043916E-2,8.920256E-1,8.406447E-2,1.5722187E-2,-1.8595362E-2,3.079459E-2,-2.5617192E-3,9.31146E-3,4.725879E-2,4.504427E-2,-4.137551E-2,6.1708163E-2,-1.8999396E-2,-3.4524713E-2,2.6924534E-2],"split_indices":[9,3,3,0,3,3,4,5,1,2,2,3,1,0,0,0,0,0,0,0,0,0,0,0,0],"split_type":[0,0,0,0,0,0,0,0,0,0,0,0,0,0,0,0,0,0,0,0,0,0,0,0,0],"sum_hessian":[4.8734634E2,3.5227615E2,1.3507019E2,4.554099E0,3.4772205E2,8.1612785E1,5.345741E1,2.3715544E2,1.10566605E2,6.134219E1,2.0270596E1,2.9457829E1,2.3999582E1,2.7957092E1,2.0919835E2,2.0911514E1,8.965509E1,4.8786915E1,1.2555278E1,5.0075808E0,1.5263015E1,2.6420452E1,3.0373776E0,5.961828E0,1.8037754E1],"tree_param":{"num_deleted":"0","num_feature":"16","num_nodes":"25","size_leaf_vector":"1"}},{"base_weights":[-4.6485234E-3,-1.519529E-1,3.6687502E-1,9.8443776E-1,-1.8235148E-1,3.0175492E-1,9.2475855E-1,-2.8308698E-3,1.13518E0,9.224719E-1,-2.0436159E-1,6.0356337E-1,1.09177805E-1,1.0548059E0,8.0967223E-4,6.5023206E-2,7.6526254E-3,-1.2933274E-2,6.106904E-2,4.4782493E-2,-1.1285479E-2,-2.796202E-3,3.342561E-2,-2.8861398E-2,1.4801956E-2,5.7018813E-2,1.2644882E-2],"categories":[],"categories_nodes":[],"categories_segments":[],"categories_sizes":[],"default_left":[0,0,0,0,0,0,0,0,0,0,0,0,0,0,0,0,0,0,0,0,0,0,0,0,0,0,0],"id":10,"left_children":[1,3,5,7,9,11,13,-1,15,17,19,21,23,25,-1,-1,-1,-1,-1,-1,-1,-1,-1,-1,-1,-1,-1],"loss_changes":[2.646078E1,1.2139112E1,4.7082214E0,1.504282E0,8.408509E0,7.1652346E0,1.6211433E0,0E0,1.1098232E0,2.711043E0,8.004312E0,2.1037312E0,1.0069198E1,5.428066E-1,0E0,0E0,0E0,0E0,0E0,0E0,0E0,0E0,0E0,0E0,0E0,0E0,0E0],"parents":[2147483647,0,0,1,1,2,2,3,3,4,4,5,5,6,6,8,8,9,9,10,10,11,11,12,12,13,13],"right_children":[2,4,6,8,10,12,14,-1,16,18,20,22,24,26,-1,-1,-1,-1,-1,-1,-1,-1,-1,-1,-1,-1,-1],"split_conditions":[8.253555E-2,-2.4047494E0,1.0111109E-1,5.0123177E-2,-6.4201996E-2,-2.5390338E-3,1.0213083E-1,-2.8308698E-3,7.873306E-2,-9.8884806E-2,1.749403E-2,-5.2950436E-1,2.1552313E-3,5.384595E-1,8.0967223E-4,6.5023206E-2,7.6526254E-3,-1.2933274E-2,6.106904E-2,4.4782493E-2,-1.1285479E-2,-2.796202E-3,3.342561E-2,-2.8861398E-2,1.4801956E-2,5.7018813E-2,1.2644882E-2],"split_indices":[9,5,10,9,1,0,0,0,9,2,9,7,0,12,0,0,0,0,0,0,0,0,0,0,0,0,0],"split_type":[0,0,0,0,0,0,0,0,0,0,0,0,0,0,0,0,0,0,0,0,0,0,0,0,0,0,0],"sum_hessian":[4.81486E2,3.4520685E2,1.3627914E2,8.176078E0,3.3703076E2,1.2341425E2,1.2864884E1,1.113113E0,7.0629654E0,5.784015E0,3.3124673E2,4.7242027E1,7.6172226E1,1.1113236E1,1.7516487E0,5.768109E0,1.2948562E0,1.1953254E0,4.58869E0,5.526457E0,3.2572028E2,4.2479086E0,4.299412E1,1.585228E1,6.0319946E1,9.660321E0,1.4529148E0],"tree_param":{"num_deleted":"0","num_feature":"16","num_nodes":"27","size_leaf_vector":"1"}},{"base_weights":[2.5745815E-2,4.8611268E-1,-5.414474E-2,6.3716257E-1,-1.8078782E-2,-2.4802153E-1,2.4168384E-1,8.162546E-1,8.722686E-3,-1.8393214E-1,6.0654616E-1,1.5901598E-1,-3.9358932E-1,1.22812614E-1,6.7569256E-1,5.0338596E-2,3.955978E-3,2.051369E-2,-4.2737093E-2,7.027296E-3,-2.50748E-2,-5.2222027E-3,4.461734E-2,-5.430503E-2,1.2403455E-2,-2.2575814E-2,3.725596E-2,1.1307749E-2,-2.7527798E-2,4.6100523E-2,4.494462E-3],"categories":[],"categories_nodes":[],"categories_segments":[],"categories_sizes":[],"default_left":[0,0,0,0,0,0,0,0,0,0,0,0,0,0,0,0,0,0,0,0,0,0,0,0,0,0,0,0,0,0,0],"id":11,"left_children":[1,3,5,7,9,11,13,15,17,19,21,23,25,27,29,-1,-1,-1,-1,-1,-1,-1,-1,-1,-1,-1,-1,-1,-1,-1,-1],"loss_changes":[1.7634474E1,5.410843E0,2.3509813E1,6.1358337E0,1.9054147E0,1.4726384E1,8.2941885E0,5.883995E0,4.89815E0,1.5594506E0,8.7873304E-1,7.577033E0,1.23797E1,9.079501E0,4.922579E0,0E0,0E0,0E0,0E0,0E0,0E0,0E0,0E0,0E0,0E0,0E0,0E0,0E0,0E0,0E0,0E0],"parents":[2147483647,0,0,1,1,2,2,3,3,4,4,5,5,6,6,7,7,8,8,9,9,10,10,11,11,12,12,13,13,14,14],"right_children":[2,4,6,8,10,12,14,16,18,20,22,24,26,28,30,-1,-1,-1,-1,-1,-1,-1,-1,-1,-1,-1,-1,-1,-1,-1,-1],"split_conditions":[-6.1471824E-2,5.109667E-1,1.0631226E-1,-1.4575353E0,1.7788737E0,-5.7891756E-2,4.0304604E-1,1.3764955E-2,-2.6143821E-2,3.333274E-1,-4.7713766E0,-4.7168043E-2,2.9032119E-2,3.1777108E-1,7.4285334E-1,5.0338596E-2,3.955978E-3,2.051369E-2,-4.2737093E-2,7.027296E-3,-2.50748E-2,-5.2222027E-3,4.461734E-2,-5.430503E-2,1.2403455E-2,-2.2575814E-2,3.725596E-2,1.1307749E-2,-2.7527798E-2,4.6100523E-2,4.494462E-3],"split_indices":[2,7,3,6,7,3,3,0,10,14,5,15,8,3,3,0,0,0,0,0,0,0,0,0,0,0,0,0,0,0,0],"split_type":[0,0,0,0,0,0,0,0,0,0,0,0,0,0,0,0,0,0,0,0,0,0,0,0,0,0,0,0,0,0,0],"sum_hessian":[4.7775616E2,6.989628E1,4.078599E2,5.3580463E1,1.6315813E1,2.4648375E2,1.6137613E2,4.1464966E1,1.2115495E1,1.3450029E1,2.8657835E0,6.490464E1,1.8157912E2,1.2768679E2,3.3689335E1,3.2658405E1,8.806563E0,8.62795E0,3.4875455E0,6.9283037E0,6.5217257E0,1.0036201E0,1.8621633E0,3.5849357E0,6.1319706E1,1.7336346E2,8.215643E0,1.1127368E2,1.6413107E1,2.331285E1,1.0376485E1],"tree_param":{"num_deleted":"0","num_feature":"16","num_nodes":"31","size_leaf_vector":"1"}},{"base_weights":[5.8867754E-3,-1.1904735E-1,3.2477033E-1,3.48493E-1,-2.0471394E-1,7.737297E-1,2.053145E-1,5.147024E-1,-6.010847E-1,-6.912737E-1,-9.875544E-2,2.0816223E-1,1.0888499E0,1.1518372E-1,8.254119E-1,3.1852033E-2,-1.9290706E-2,-4.6283487E-2,2.4246793E-2,1.0550906E-2,-4.2249124E-2,-1.5840037E-2,4.963667E-3,-1.31183965E-2,4.251386E-2,-5.688457E-3,5.8342006E-2,1.3809559E-2,-1.1124334E-2,6.322055E-2,1.7697735E-2],"categories":[],"categories_nodes":[],"categories_segments":[],"categories_sizes":[],"default_left":[0,0,0,0,0,0,0,0,0,0,0,0,0,0,0,0,0,0,0,0,0,0,0,0,0,0,0,0,0,0,0],"id":12,"left_children":[1,3,5,7,9,11,13,15,17,19,21,23,25,27,29,-1,-1,-1,-1,-1,-1,-1,-1,-1,-1,-1,-1,-1,-1,-1,-1],"loss_changes":[1.9274673E1,1.3995693E1,7.144943E0,8.86456E0,1.511195E1,4.8097515E0,5.992863E0,5.387267E0,3.4578197E0,7.4579334E0,1.0522186E1,3.651659E0,1.8127022E0,5.2952E0,2.3798923E0,0E0,0E0,0E0,0E0,0E0,0E0,0E0,0E0,0E0,0E0,0E0,0E0,0E0,0E0,0E0,0E0],"parents":[2147483647,0,0,1,1,2,2,3,3,4,4,5,5,6,6,7,7,8,8,9,9,10,10,11,11,12,12,13,13,14,14],"right_children":[2,4,6,8,10,12,14,16,18,20,22,24,26,28,30,-1,-1,-1,-1,-1,-1,-1,-1,-1,-1,-1,-1,-1,-1,-1,-1],"split_conditions":[8.253555E-2,-1.262291E0,-1.55353695E-2,7.40908E-2,-5.989568E-1,4.8779756E-2,4.251866E0,9.4117963E-1,6.519149E-2,-8.2333885E-2,5.1978536E-2,-7.982128E-2,8.519599E-2,2.727498E-1,4.96124E-2,3.1852033E-2,-1.9290706E-2,-4.6283487E-2,2.4246793E-2,1.0550906E-2,-4.2249124E-2,-1.5840037E-2,4.963667E-3,-1.31183965E-2,4.251386E-2,-5.688457E-3,5.8342006E-2,1.3809559E-2,-1.1124334E-2,6.322055E-2,1.7697735E-2],"split_indices":[9,6,0,4,6,14,6,14,9,3,3,2,9,4,10,0,0,0,0,0,0,0,0,0,0,0,0,0,0,0,0],"split_type":[0,0,0,0,0,0,0,0,0,0,0,0,0,0,0,0,0,0,0,0,0,0,0,0,0,0,0,0,0,0,0],"sum_hessian":[4.8183838E2,3.4665173E2,1.3518663E2,5.320549E1,2.9344626E2,2.7259228E1,1.0792741E2,4.5669666E1,7.535824E0,5.1488388E1,2.4195787E2,1.0347841E1,1.6911386E1,9.5266266E1,1.2661141E1,4.0464947E1,5.204721E0,5.915481E0,1.620343E0,7.4402537E0,4.4048134E1,1.1487342E2,1.2708445E2,6.31311E0,4.034732E0,1.0019788E0,1.5909409E1,6.463106E1,3.0635206E1,5.6853175E0,6.9758234E0],"tree_param":{"num_deleted":"0","num_feature":"16","num_nodes":"31","size_leaf_vector":"1"}},{"base_weights":[1.02806585E-2,-1.3529256E-1,3.886835E-1,4.4614458E-1,-1.9882277E-1,8.1444496E-1,2.732683E-1,9.9398136E-1,2.281168E-1,-5.108933E-1,-8.59212E-2,1.0216961E0,1.9798002E-1,1.9496997E-1,9.2863244E-1,1.9325623E-3,6.442697E-2,-1.5127936E-2,2.7104026E-2,-2.9801175E-2,3.2042634E-2,1.6257485E-2,-7.414594E-3,7.517975E-3,5.5361737E-2,-1.9010989E-2,2.6611809E-2,-1.5877808E-3,2.3841737E-2,6.110716E-2,1.5895687E-2],"categories":[],"categories_nodes":[],"categories_segments":[],"categories_sizes":[],"default_left":[0,0,0,0,0,0,0,0,0,0,0,0,0,0,0,0,0,0,0,0,0,0,0,0,0,0,0,0,0,0,0],"id":13,"left_children":[1,3,5,7,9,11,13,15,17,19,21,23,25,27,29,-1,-1,-1,-1,-1,-1,-1,-1,-1,-1,-1,-1,-1,-1,-1,-1],"loss_changes":[2.6565876E1,1.2955769E1,6.361061E0,3.9083605E0,1.1044528E1,3.3838139E0,5.304935E0,2.6397486E0,4.506269E0,8.559937E0,6.004289E0,1.3812561E0,1.8069599E0,6.199088E0,1.6090536E0,0E0,0E0,0E0,0E0,0E0,0E0,0E0,0E0,0E0,0E0,0E0,0E0,0E0,0E0,0E0,0E0],"parents":[2147483647,0,0,1,1,2,2,3,3,4,4,5,5,6,6,7,7,8,8,9,9,10,10,11,11,12,12,13,13,14,14],"right_children":[2,4,6,8,10,12,14,16,18,20,22,24,26,28,30,-1,-1,-1,-1,-1,-1,-1,-1,-1,-1,-1,-1,-1,-1,-1,-1],"split_conditions":[8.253555E-2,-1.6323214E0,-1.6143009E-2,-9.354763E-2,-4.2728767E-1,4.8780778E-1,1.7766616E-1,-3.2147065E-2,-2.8255517E-2,1.875007E-1,-1.9058393E-2,-8.113574E0,6.5752655E-1,8.243653E-2,7.823293E-2,1.9325623E-3,6.442697E-2,-1.5127936E-2,2.7104026E-2,-2.9801175E-2,3.2042634E-2,1.6257485E-2,-7.414594E-3,7.517975E-3,5.5361737E-2,-1.9010989E-2,2.6611809E-2,-1.5877808E-3,2.3841737E-2,6.110716E-2,1.5895687E-2],"split_indices":[9,5,0,2,5,7,9,8,15,3,15,5,7,3,3,0,0,0,0,0,0,0,0,0,0,0,0,0,0,0,0],"split_type":[0,0,0,0,0,0,0,0,0,0,0,0,0,0,0,0,0,0,0,0,0,0,0,0,0,0,0,0,0,0,0],"sum_hessian":[4.8031314E2,3.473345E2,1.3297864E2,3.3619713E1,3.137148E2,2.706829E1,1.0591035E2,8.55775E0,2.5061962E1,8.240753E1,2.3130727E2,1.9765816E1,7.3024745E0,9.576635E1,1.0143998E1,2.283375E0,6.2743754E0,9.32937E0,1.5732593E1,7.718498E1,5.2225513E0,2.9917124E1,2.0139015E2,2.013469E0,1.7752346E1,2.6247113E0,4.6777635E0,5.356623E1,4.2200115E1,6.1750975E0,3.968901E0],"tree_param":{"num_deleted":"0","num_feature":"16","num_nodes":"31","size_leaf_vector":"1"}},{"base_weights":[4.7626356E-3,-1.2576227E-1,3.3946332E-1,3.97902E-1,-1.8152578E-1,2.2021487E-1,9.174937E-1,1.0688274E0,2.3482598E-1,-4.7105137E-1,-1.0032482E-1,6.587792E-1,6.9834545E-2,1.0332417E0,-6.789473E-3,6.37543E-2,1.0795172E-3,-9.674076E-3,2.5453493E-2,2.2192101E-3,-3.480025E-2,4.7058318E-2,-6.1066863E-3,3.6003403E-2,-2.5201866E-2,-1.6745685E-3,4.655175E-2,3.4353517E-2,6.656037E-2],"categories":[],"categories_nodes":[],"categories_segments":[],"categories_sizes":[],"default_left":[0,0,0,0,0,0,0,0,0,0,0,0,0,0,0,0,0,0,0,0,0,0,0,0,0,0,0,0,0],"id":14,"left_children":[1,3,5,7,9,11,13,15,17,19,21,23,25,27,-1,-1,-1,-1,-1,-1,-1,-1,-1,-1,-1,-1,-1,-1,-1],"loss_changes":[2.123346E1,1.0283972E1,9.197169E0,3.465527E0,7.3990545E0,7.495933E0,2.94491E0,1.3463211E0,3.4587822E0,8.043436E0,5.7622504E0,2.4354687E0,7.7083035E0,1.2352581E0,0E0,0E0,0E0,0E0,0E0,0E0,0E0,0E0,0E0,0E0,0E0,0E0,0E0,0E0,0E0],"parents":[2147483647,0,0,1,1,2,2,3,3,4,4,5,5,6,6,7,7,8,8,9,9,10,10,11,11,12,12,13,13],"right_children":[2,4,6,8,10,12,14,16,18,20,22,24,26,28,-1,-1,-1,-1,-1,-1,-1,-1,-1,-1,-1,-1,-1,-1,-1],"split_conditions":[8.253555E-2,-1.6323214E0,3.7646136E0,-7.499989E-1,-6.44817E-1,-8.572397E-2,8.870509E0,7.728524E-2,-2.3077103E-1,-1.3262228E0,1.6009748E-2,1E0,9.866957E-2,4.7171526E0,-6.789473E-3,6.37543E-2,1.0795172E-3,-9.674076E-3,2.5453493E-2,2.2192101E-3,-3.480025E-2,4.7058318E-2,-6.1066863E-3,3.6003403E-2,-2.5201866E-2,-1.6745685E-3,4.655175E-2,3.4353517E-2,6.656037E-2],"split_indices":[9,5,6,13,6,2,6,9,13,6,9,11,10,6,0,0,0,0,0,0,0,0,0,0,0,0,0,0,0],"split_type":[0,0,0,0,0,0,0,0,0,0,0,0,0,0,0,0,0,0,0,0,0,0,0,0,0,0,0,0,0],"sum_hessian":[4.840613E2,3.4870093E2,1.353604E2,3.296813E1,3.157328E2,1.133559E2,2.20045E1,5.3603745E0,2.7607754E1,6.8104E1,2.476288E2,2.8080904E1,8.5274994E1,1.9842934E1,2.1615646E0,4.296572E0,1.0638022E0,1.0891758E1,1.6715996E1,2.0936031E1,4.716797E1,4.2143865E0,2.4341441E2,2.7036633E1,1.04427E0,7.699797E1,8.277024E0,1.07081995E1,9.134734E0],"tree_param":{"num_deleted":"0","num_feature":"16","num_nodes":"29","size_leaf_vector":"1"}},{"base_weights":[-9.57634E-3,-1.2692079E-1,2.9500538E-1,3.1987602E-1,-2.0339757E-1,5.6537944E-1,6.5399356E-2,4.9090582E-1,-1.744073E-1,-7.1574444E-1,-9.264496E-2,6.0923415E-1,-2.945526E-2,-1.3295975E-1,6.5273273E-1,5.5164076E-2,1.702462E-2,-2.5376588E-2,3.7994146E-2,2.2122284E-2,-4.0668342E-2,-1.460814E-2,5.055934E-3,3.8660105E-2,1.581089E-2,-2.9810889E-2,1.6889134E-3,5.6697495E-2,1.41450185E-2],"categories":[],"categories_nodes":[],"categories_segments":[],"categories_sizes":[],"default_left":[0,0,0,0,0,0,0,0,0,0,0,0,0,0,0,0,0,0,0,0,0,0,0,0,0,0,0,0,0],"id":15,"left_children":[1,3,5,7,9,11,13,15,17,19,21,23,-1,25,27,-1,-1,-1,-1,-1,-1,-1,-1,-1,-1,-1,-1,-1,-1],"loss_changes":[1.7254978E1,1.1971554E1,8.298934E0,4.4236717E0,1.6851143E1,3.474331E0,8.678208E0,3.160058E0,4.720955E0,6.334654E0,9.551099E0,2.6273289E0,0E0,4.3424296E0,3.0227203E0,0E0,0E0,0E0,0E0,0E0,0E0,0E0,0E0,0E0,0E0,0E0,0E0,0E0,0E0],"parents":[2147483647,0,0,1,1,2,2,3,3,4,4,5,5,6,6,7,7,8,8,9,9,10,10,11,11,13,13,14,14],"right_children":[2,4,6,8,10,12,14,16,18,20,22,24,-1,26,28,-1,-1,-1,-1,-1,-1,-1,-1,-1,-1,-1,-1,-1,-1],"split_conditions":[8.253555E-2,-1.3262228E0,4.1666526E-1,-1.6474893E-2,-6.44817E-1,1E0,2.8138636E-2,-2.6835802E0,6.61736E-2,-2.7453774E-1,5.755671E-2,4.3108903E-2,-2.945526E-2,5.8821503E-2,1.1151527E-1,5.5164076E-2,1.702462E-2,-2.5376588E-2,3.7994146E-2,2.2122284E-2,-4.0668342E-2,-1.460814E-2,5.055934E-3,3.8660105E-2,1.581089E-2,-2.9810889E-2,1.6889134E-3,5.6697495E-2,1.41450185E-2],"split_indices":[9,6,14,4,6,11,8,6,9,4,3,1,0,11,9,0,0,0,0,0,0,0,0,0,0,0,0,0,0],"split_type":[0,0,0,0,0,0,0,0,0,0,0,0,0,0,0,0,0,0,0,0,0,0,0,0,0,0,0,0,0],"sum_hessian":[4.80731E2,3.4745303E2,1.3327794E2,5.031534E1,2.971377E2,6.05337E1,7.274425E1,3.7386017E1,1.2929317E1,5.1843697E1,2.4529399E2,5.87734E1,1.7602996E0,5.495725E1,1.7786997E1,6.1229124E0,3.1263105E1,9.867721E0,3.0615976E0,3.7555609E0,4.808814E1,1.2060232E2,1.2469168E2,3.6634483E1,2.2138916E1,1.3863552E1,4.1093693E1,6.8316703E0,1.0955327E1],"tree_param":{"num_deleted":"0","num_feature":"16","num_nodes":"29","size_leaf_vector":"1"}},{"base_weights":[-3.1412665E-3,6.22043E-1,-4.1864846E-2,7.1095634E-1,-3.6547225E-2,-1.792872E-1,1.612515E-1,9.9558944E-1,4.4954923E-1,-3.0878407E-1,1.4627138E-1,1.0364605E0,1.2412245E-1,6.944319E-2,2.4953332E-2,-7.555285E-3,3.3748012E-2,1.5038626E-3,-2.759394E-2,2.5600072E-3,5.0541665E-2,7.3485605E-2,-2.4694232E-2,-6.415177E-3,1.282163E-2],"categories":[],"categories_nodes":[],"categories_segments":[],"categories_sizes":[],"default_left":[0,0,0,0,0,0,0,0,0,0,0,0,0,0,0,0,0,0,0,0,0,0,0,0,0],"id":16,"left_children":[1,3,5,7,-1,9,11,13,15,17,19,21,23,-1,-1,-1,-1,-1,-1,-1,-1,-1,-1,-1,-1],"loss_changes":[1.1645613E1,3.8949652E0,1.2670694E1,1.5490522E0,0E0,1.1453798E1,5.827587E0,1.6546354E0,2.2427385E0,1.5991127E1,6.3337526E0,5.5814333E0,5.9434304E0,0E0,0E0,0E0,0E0,0E0,0E0,0E0,0E0,0E0,0E0,0E0,0E0],"parents":[2147483647,0,0,1,1,2,2,3,3,5,5,6,6,7,7,8,8,9,9,10,10,11,11,12,12],"right_children":[2,4,6,8,-1,10,12,14,16,18,20,22,24,-1,-1,-1,-1,-1,-1,-1,-1,-1,-1,-1,-1],"split_conditions":[-6.584362E-2,9.0476364E-1,1.2110682E-2,-9.057195E-2,-3.6547225E-2,1.0086111E-1,-5.948783E-1,1.097691E-1,6.211132E-2,-3.8150694E-2,3.3321552E-2,3.1413596E-2,1.02040716E-1,6.944319E-2,2.4953332E-2,-7.555285E-3,3.3748012E-2,1.5038626E-3,-2.759394E-2,2.5600072E-3,5.0541665E-2,7.3485605E-2,-2.4694232E-2,-6.415177E-3,1.282163E-2],"split_indices":[10,11,10,3,0,3,7,9,9,3,15,0,11,0,0,0,0,0,0,0,0,0,0,0,0],"split_type":[0,0,0,0,0,0,0,0,0,0,0,0,0,0,0,0,0,0,0,0,0,0,0,0,0],"sum_hessian":[4.7896164E2,2.7057653E1,4.51904E2,2.583444E1,1.2232139E0,2.696108E2,1.8229317E2,1.1023223E1,1.4811217E1,1.929235E2,7.6687325E1,6.323357E0,1.7596982E2,5.1482973E0,5.874925E0,4.1315312E0,1.0679687E1,8.0954056E1,1.1196944E2,7.004417E1,6.64316E0,4.9590387E0,1.3643186E0,6.052615E1,1.15443665E2],"tree_param":{"num_deleted":"0","num_feature":"16","num_nodes":"25","size_leaf_vector":"1"}},{"base_weights":[1.9558845E-2,5.8590466E-1,-3.8180213E-2,7.931418E-1,-1.14122644E-1,-1.602067E-1,1.6768846E-1,1.1239837E0,4.817625E-1,4.0727398E-1,-3.9820945E-1,-2.0651524E-1,7.5652444E-1,8.739012E-1,1.0927899E-1,6.058544E-2,-8.7440545E-5,-2.519474E-3,4.1957133E-2,3.588003E-2,-3.8609558E-3,-3.32328E-2,1.8848216E-2,3.6838476E-2,-1.2055031E-2,-2.3855336E-2,4.8840344E-2,6.797746E-2,1.6607543E-3,5.4488856E-2,3.3122227E-3],"categories":[],"categories_nodes":[],"categories_segments":[],"categories_sizes":[],"default_left":[0,0,0,0,0,0,0,0,0,0,0,0,0,0,0,0,0,0,0,0,0,0,0,0,0,0,0,0,0,0,0],"id":17,"left_children":[1,3,5,7,9,11,13,15,17,19,21,23,25,27,29,-1,-1,-1,-1,-1,-1,-1,-1,-1,-1,-1,-1,-1,-1,-1,-1],"loss_changes":[1.5541168E1,6.469035E0,1.08695E1,2.9663181E0,1.7792851E0,1.168194E1,6.5503035E0,1.5584202E0,3.7111425E0,7.086638E-1,1.8146044E0,8.634622E0,4.0720115E0,4.9213095E0,6.254899E0,0E0,0E0,0E0,0E0,0E0,0E0,0E0,0E0,0E0,0E0,0E0,0E0,0E0,0E0,0E0,0E0],"parents":[2147483647,0,0,1,1,2,2,3,3,4,4,5,5,6,6,7,7,8,8,9,9,10,10,11,11,12,12,13,13,14,14],"right_children":[2,4,6,8,10,12,14,16,18,20,22,24,26,28,30,-1,-1,-1,-1,-1,-1,-1,-1,-1,-1,-1,-1,-1,-1,-1,-1],"split_conditions":[-8.4033035E-2,5.9974706E-1,1.0631226E-1,-2.7453774E-1,1.304342E-1,2.9900333E-2,-1.09303854E-1,1.0971665E-2,-4.473683E-2,1.12862304E-1,3.5714343E-1,-2.245421E-1,3.73301E-2,7.610813E-2,-5.948783E-1,6.058544E-2,-8.7440545E-5,-2.519474E-3,4.1957133E-2,3.588003E-2,-3.8609558E-3,-3.32328E-2,1.8848216E-2,3.6838476E-2,-1.2055031E-2,-2.3855336E-2,4.8840344E-2,6.797746E-2,1.6607543E-3,5.4488856E-2,3.3122227E-3],"split_indices":[2,7,3,4,14,8,4,0,1,9,12,3,9,9,7,0,0,0,0,0,0,0,0,0,0,0,0,0,0,0,0],"split_type":[0,0,0,0,0,0,0,0,0,0,0,0,0,0,0,0,0,0,0,0,0,0,0,0,0,0,0,0,0,0,0],"sum_hessian":[4.73577E2,4.2968075E1,4.3060892E2,3.3050686E1,9.917391E0,2.7049667E2,1.6011226E2,1.4759235E1,1.829145E1,3.3448393E0,6.5725513E0,2.5822708E2,1.2269574E1,1.1164442E1,1.4894781E2,1.3621386E1,1.1378491E0,7.6939225E0,1.05975275E1,1.7456086E0,1.5992308E0,4.997394E0,1.5751573E0,8.414918E0,2.4981218E2,1.6823196E0,1.0587255E1,6.6852903E0,4.4791512E0,5.23985E0,1.4370796E2],"tree_param":{"num_deleted":"0","num_feature":"16","num_nodes":"31","size_leaf_vector":"1"}},{"base_weights":[-1.3477456E-2,5.063588E-1,-6.3626476E-2,5.830423E-1,-3.501634E-2,-8.984375E-2,7.4624556E-1,9.5203376E-1,3.361507E-1,4.7766653E-1,-1.1509457E-1,-2.6614755E-2,9.409959E-1,5.4458436E-2,3.760788E-3,3.219194E-3,3.9137214E-2,-8.1010285E-4,4.3646354E-2,-1.19715575E-2,2.0813073E-3,5.9221834E-2,1.3307686E-2],"categories":[],"categories_nodes":[],"categories_segments":[],"categories_sizes":[],"default_left":[0,0,0,0,0,0,0,0,0,0,0,0,0,0,0,0,0,0,0,0,0,0,0],"id":18,"left_children":[1,3,5,7,-1,9,11,13,15,17,19,-1,21,-1,-1,-1,-1,-1,-1,-1,-1,-1,-1],"loss_changes":[1.2668303E1,4.3648453E0,9.472118E0,3.392229E0,0E0,6.2162952E0,3.9861274E0,1.8166256E0,3.1002896E0,3.6273685E0,8.046952E0,0E0,1.7396593E0,0E0,0E0,0E0,0E0,0E0,0E0,0E0,0E0,0E0,0E0],"parents":[2147483647,0,0,1,1,2,2,3,3,5,5,6,6,7,7,8,8,9,9,10,10,12,12],"right_children":[2,4,6,8,-1,10,12,14,16,18,20,-1,22,-1,-1,-1,-1,-1,-1,-1,-1,-1,-1],"split_conditions":[-8.572397E-2,9.0476364E-1,1.0111109E-1,2.6086968E-1,-3.501634E-2,-6.303738E-2,-8.2489544E-1,-1.8086802E0,-4.6333745E-2,-8.943882E-2,1.4672505E-2,-2.6614755E-2,4.743829E-2,5.4458436E-2,3.760788E-3,3.219194E-3,3.9137214E-2,-8.1010285E-4,4.3646354E-2,-1.19715575E-2,2.0813073E-3,5.9221834E-2,1.3307686E-2],"split_indices":[2,11,10,14,0,10,5,5,1,5,1,0,8,0,0,0,0,0,0,0,0,0,0],"split_type":[0,0,0,0,0,0,0,0,0,0,0,0,0,0,0,0,0,0,0,0,0,0,0],"sum_hessian":[4.837117E2,4.1758026E1,4.4195367E2,3.974885E1,2.0091727E0,4.289565E2,1.2997165E1,1.4789361E1,2.4959492E1,1.7509733E1,4.1144678E2,1.48895E0,1.1508215E1,1.2579704E1,2.209657E0,1.6228241E1,8.73125E0,8.210241E0,9.299491E0,2.2913309E2,1.8231369E2,7.9023943E0,3.6058204E0],"tree_param":{"num_deleted":"0","num_feature":"16","num_nodes":"23","size_leaf_vector":"1"}},{"base_weights":[7.2165616E-3,-2.8797831E-2,6.5429014E-1,5.3578275E-1,-7.56222E-2,9.7292894E-1,1.911067E-1,1.172344E0,2.0610096E-1,1.1261177E0,-9.050167E-2,-1.2393653E-2,1.1070285E0,-4.6245947E-1,6.554781E-1,6.7726135E-2,1.879306E-2,3.3974603E-2,-7.542049E-3,8.0515094E-2,-2.0104142E-2,-3.058148E-2,-2.568186E-3,6.2164336E-2,2.3951942E-2,1.2283153E-2,-5.344511E-2,5.8682162E-2,1.052129E-3],"categories":[],"categories_nodes":[],"categories_segments":[],"categories_sizes":[],"default_left":[0,0,0,0,0,0,0,0,0,0,0,0,0,0,0,0,0,0,0,0,0,0,0,0,0,0,0,0,0],"id":19,"left_children":[1,3,5,7,9,11,13,15,17,19,21,-1,23,25,27,-1,-1,-1,-1,-1,-1,-1,-1,-1,-1,-1,-1,-1,-1],"loss_changes":[1.1113266E1,1.1987861E1,3.5247583E0,7.04793E0,7.579811E0,2.6728754E0,3.7907336E0,1.1796198E0,4.174181E0,4.4869857E0,8.412653E0,0E0,5.496464E-1,2.5642107E0,2.3198054E0,0E0,0E0,0E0,0E0,0E0,0E0,0E0,0E0,0E0,0E0,0E0,0E0,0E0,0E0],"parents":[2147483647,0,0,1,1,2,2,3,3,4,4,5,5,6,6,7,7,8,8,9,9,10,10,12,12,13,13,14,14],"right_children":[2,4,6,8,10,12,14,16,18,20,22,-1,24,26,28,-1,-1,-1,-1,-1,-1,-1,-1,-1,-1,-1,-1,-1,-1],"split_conditions":[3.7646136E0,-2.7097437E0,4.066507E-1,1.0084987E-1,1.6009748E-2,6.858317E-2,5.4921594E-2,1.1236056E-2,-4.2207643E-2,1.0280184E-2,2.4782412E-2,-1.2393653E-2,3.4910685E-1,5.1049185E-1,1.8307167E-1,6.7726135E-2,1.879306E-2,3.3974603E-2,-7.542049E-3,8.0515094E-2,-2.0104142E-2,-3.058148E-2,-2.568186E-3,6.2164336E-2,2.3951942E-2,1.2283153E-2,-5.344511E-2,5.8682162E-2,1.052129E-3],"split_indices":[6,5,4,9,9,9,15,0,15,1,9,0,4,4,9,0,0,0,0,0,0,0,0,0,0,0,0,0,0],"split_type":[0,0,0,0,0,0,0,0,0,0,0,0,0,0,0,0,0,0,0,0,0,0,0,0,0,0,0,0,0],"sum_hessian":[4.7507455E2,4.5093234E2,2.4142199E1,3.3734867E1,4.1719748E2,1.3650828E1,1.049137E1,1.0638224E1,2.3096643E1,4.189017E0,4.1300845E2,1.2671006E0,1.2383728E1,4.359639E0,6.131731E0,8.087702E0,2.5505219E0,9.540281E0,1.3556363E1,3.1403322E0,1.0486847E0,2.7829315E1,3.8517914E2,9.370724E0,3.0130045E0,2.2856612E0,2.0739777E0,2.9073215E0,3.2244096E0],"tree_param":{"num_deleted":"0","num_feature":"16","num_nodes":"29","size_leaf_vector":"1"}},{"base_weights":[6.058913E-3,-3.204817E-2,6.849799E-1,2.3571323E-1,-1.1758129E-1,1.0184357E0,3.8352108E-1,1.9242866E-1,1.1904037E0,-2.8938404E-1,1.2337879E-1,3.908349E-1,1.2354712E0,-2.1844116E-1,8.2279295E-1,2.8421378E-2,3.7531834E-3,6.664963E-3,7.395872E-2,-1.2127879E-2,-5.6287196E-2,4.639224E-2,1.5294064E-3,5.382498E-2,-3.660744E-2,1.6319066E-2,6.598578E-2,2.5260432E-2,-3.061539E-2,-7.0588394E-5,5.2820157E-2],"categories":[],"categories_nodes":[],"categories_segments":[],"categories_sizes":[],"default_left":[0,0,0,0,0,0,0,0,0,0,0,0,0,0,0,0,0,0,0,0,0,0,0,0,0,0,0,0,0,0,0],"id":20,"left_children":[1,3,5,7,9,11,13,15,17,19,21,23,25,27,29,-1,-1,-1,-1,-1,-1,-1,-1,-1,-1,-1,-1,-1,-1,-1,-1],"loss_changes":[1.2387993E1,1.0414637E1,2.1674347E0,4.321988E0,1.4292865E1,1.0806131E0,4.137866E0,4.6592364E0,1.2021117E0,7.6124916E0,1.0724336E1,4.1854773E0,1.8701935E-1,2.3344784E0,1.7081175E0,0E0,0E0,0E0,0E0,0E0,0E0,0E0,0E0,0E0,0E0,0E0,0E0,0E0,0E0,0E0,0E0],"parents":[2147483647,0,0,1,1,2,2,3,3,4,4,5,5,6,6,7,7,8,8,9,9,10,10,11,11,12,12,13,13,14,14],"right_children":[2,4,6,8,10,12,14,16,18,20,22,24,26,28,30,-1,-1,-1,-1,-1,-1,-1,-1,-1,-1,-1,-1,-1,-1,-1,-1],"split_conditions":[3.7646136E0,-5.7891756E-2,3.4910685E-1,-6.273349E-2,1.0086111E-1,1.36347925E-2,5.4921594E-2,-2.5348122E0,-7.692324E-1,2.600406E0,-1.09303854E-1,1.2203859E-1,-4.603155E-1,3.277999E-2,-4.9999848E-1,2.8421378E-2,3.7531834E-3,6.664963E-3,7.395872E-2,-1.2127879E-2,-5.6287196E-2,4.639224E-2,1.5294064E-3,5.382498E-2,-3.660744E-2,1.6319066E-2,6.598578E-2,2.5260432E-2,-3.061539E-2,-7.0588394E-5,5.2820157E-2],"split_indices":[6,3,4,3,3,1,15,6,13,6,4,4,7,15,13,0,0,0,0,0,0,0,0,0,0,0,0,0,0,0,0],"split_type":[0,0,0,0,0,0,0,0,0,0,0,0,0,0,0,0,0,0,0,0,0,0,0,0,0,0,0,0,0,0,0],"sum_hessian":[4.7697562E2,4.5252847E2,2.4447128E1,1.0913273E2,3.4339575E2,1.0478298E1,1.3968829E1,1.0554882E2,3.583901E0,2.0034808E2,1.4304767E2,3.412159E0,7.066139E0,6.1052017E0,7.8636274E0,2.4194462E1,8.135436E1,1.0825634E0,2.5013378E0,1.9094727E2,9.400819E0,1.3862738E1,1.2918492E2,2.1442993E0,1.2678599E0,1.0126574E0,6.0534816E0,2.0521338E0,4.053068E0,1.9561291E0,5.9074984E0],"tree_param":{"num_deleted":"0","num_feature":"16","num_nodes":"31","size_leaf_vector":"1"}},{"base_weights":[9.220931E-3,5.9517723E-1,-3.7137687E-2,-3.696119E-2,6.897935E-1,-6.729706E-2,9.050028E-1,8.0837476E-1,-2.5657907E-1,8.936812E-1,-8.9896E-2,5.0940723E-3,9.895653E-1,4.889063E-2,1.8131852E-2,7.7090636E-3,-3.470107E-2,-4.5125004E-2,6.565097E-2,-9.4009815E-3,6.7507178E-3,1.2701391E-2,5.1621586E-2],"categories":[],"categories_nodes":[],"categories_segments":[],"categories_sizes":[],"default_left":[0,0,0,0,0,0,0,0,0,0,0,0,0,0,0,0,0,0,0,0,0,0,0],"id":21,"left_children":[1,3,5,-1,7,9,11,13,15,17,19,-1,21,-1,-1,-1,-1,-1,-1,-1,-1,-1,-1],"loss_changes":[1.2868655E1,4.89497E0,1.2540266E1,0E0,3.9050312E0,9.342672E0,8.2908154E-1,1.8749943E0,9.026305E-1,8.634802E0,9.241604E0,0E0,1.2470627E-1,0E0,0E0,0E0,0E0,0E0,0E0,0E0,0E0,0E0,0E0],"parents":[2147483647,0,0,1,1,2,2,4,4,5,5,6,6,7,7,8,8,9,9,10,10,12,12],"right_children":[2,4,6,-1,8,10,12,14,16,18,20,-1,22,-1,-1,-1,-1,-1,-1,-1,-1,-1,-1],"split_conditions":[-2.7097437E0,-6.280121E-1,4.4202814E0,-3.696119E-2,1.1863691E0,-2.3157182E-1,-5.035193E-1,1.1774405E-2,2.9999846E-1,-6.899799E-2,1.4829385E-1,5.0940723E-3,-4.446717E-2,4.889063E-2,1.8131852E-2,7.7090636E-3,-3.470107E-2,-4.5125004E-2,6.565097E-2,-9.4009815E-3,6.7507178E-3,1.2701391E-2,5.1621586E-2],"split_indices":[5,7,6,0,7,3,7,0,11,15,3,0,0,0,0,0,0,0,0,0,0,0,0],"split_type":[0,0,0,0,0,0,0,0,0,0,0,0,0,0,0,0,0,0,0,0,0,0,0],"sum_hessian":[4.7192346E2,3.3731453E1,4.3819202E2,1.7823008E0,3.1949154E1,4.254997E2,1.2692331E1,2.8521238E1,3.4279153E0,8.890773E0,4.1660892E2,1.4191315E0,1.12732E1,1.9800718E1,8.720521E0,2.101828E0,1.326087E0,1.4647032E0,7.4260693E0,2.901755E2,1.264334E2,1.002225E0,1.0270975E1],"tree_param":{"num_deleted":"0","num_feature":"16","num_nodes":"23","size_leaf_vector":"1"}},{"base_weights":[2.3383174E-2,-8.8832535E-2,2.241336E-1,1.2243739E0,-1.0993129E-1,1.405291E-1,7.099147E-1,2.8118915E-3,7.6033436E-2,-6.4301693E-1,-6.1039437E-2,2.563566E-1,-4.6945837E-1,-3.315106E-2,8.0990684E-1,-4.6180483E-2,-2.1156326E-3,3.2659676E-2,-4.164898E-3,9.656499E-3,5.5239856E-2,-2.9780531E-2,3.553471E-2,1.6395535E-2,5.3418547E-2],"categories":[],"categories_nodes":[],"categories_segments":[],"categories_sizes":[],"default_left":[0,0,0,0,0,0,0,0,0,0,0,0,0,0,0,0,0,0,0,0,0,0,0,0,0],"id":22,"left_children":[1,3,5,7,9,11,13,-1,-1,15,17,19,21,-1,23,-1,-1,-1,-1,-1,-1,-1,-1,-1,-1],"loss_changes":[1.0631159E1,8.525978E0,6.7711143E0,1.6005325E0,7.7534857E0,1.0406292E1,3.9133167E0,0E0,0E0,4.176978E0,4.4259233E0,6.3847113E0,3.9347205E0,0E0,2.561634E0,0E0,0E0,0E0,0E0,0E0,0E0,0E0,0E0,0E0,0E0],"parents":[2147483647,0,0,1,1,2,2,3,3,4,4,5,5,6,6,9,9,10,10,11,11,12,12,14,14],"right_children":[2,4,6,8,10,12,14,-1,-1,16,18,20,22,-1,24,-1,-1,-1,-1,-1,-1,-1,-1,-1,-1],"split_conditions":[7.2392814E-2,1.6009748E-2,5.648578E-2,-1.2560615E-1,2.423542E-2,3.4910685E-1,7.8345776E-2,2.8118915E-3,7.6033436E-2,6.493407E-3,-2.1083996E0,3.7646136E0,1.1047614E-1,-3.315106E-2,1.2500069E-1,-4.6180483E-2,-2.1156326E-3,3.2659676E-2,-4.164898E-3,9.656499E-3,5.5239856E-2,-2.9780531E-2,3.553471E-2,1.6395535E-2,5.3418547E-2],"split_indices":[9,9,15,5,9,4,9,0,0,10,5,6,10,0,12,0,0,0,0,0,0,0,0,0,0],"split_type":[0,0,0,0,0,0,0,0,0,0,0,0,0,0,0,0,0,0,0,0,0,0,0,0,0],"sum_hessian":[4.7003845E2,3.018612E2,1.6817725E2,3.8713934E0,2.979898E2,1.4458328E2,2.359397E1,1.0240202E0,2.847373E0,2.4013214E1,2.739766E2,1.21997505E2,2.258577E1,1.2194649E0,2.2374504E1,1.6001343E1,8.011871E0,7.423547E0,2.6655307E2,1.1467914E2,7.3183703E0,2.0852097E1,1.7336715E0,8.601921E0,1.3772584E1],"tree_param":{"num_deleted":"0","num_feature":"16","num_nodes":"25","size_leaf_vector":"1"}}]},"name":"gbtree"},"learner_model_param":{"base_score":"[5E-1]","boost_from_average":"1","num_class":"0","num_feature":"16","num_target":"1"},"objective":{"name":"binary:logistic","reg_loss_param":{"scale_pos_weight":"0.300319493"}}},"version":[3,2,0]}