{"learner":{"attributes":{"scikit_learn":"{\"_estimator_type\": \"classifier\"}"},"feature_names":["bias_week","bias_month","bias_quarter","bias_year","rsi","macd","macd_signal","vol_change","close_change","bb_width","return_5d","return_10d","k_upper","k_lower","k_body","buy_power","rs_5d","rs_10d","dist_to_20d_high","dist_to_20d_low","kd_k","kd_d","kd_cross","gap_ratio","obv","atr_ratio","trend_strength"],"feature_types":["float","float","float","float","float","float","float","float","float","float","float","float","float","float","float","float","float","float","float","float","float","float","float","float","float","float","float"],"gradient_booster":{"model":{"gbtree_model_param":{"num_parallel_tree":"1","num_trees":"21"},"iteration_indptr":[0,1,2,3,4,5,6,7,8,9,10,11,12,13,14,15,16,17,18,19,20,21],"tree_info":[0,0,0,0,0,0,0,0,0,0,0,0,0,0,0,0,0,0,0,0,0],"trees":[{"base_weights":[-1.7998183E-2,-3.9660946E-1,2.3263721E-1,2.6620865E-1,-5.6008357E-1,7.9134125E-1,8.69707E-2,4.6658743E-2,-5.768745E-2,-9.421931E-2,-3.2368936E-2,1.01403095E-1,-2.5166536E-4,-2.6072483E-3,7.7345654E-2],"categories":[],"categories_nodes":[],"categories_segments":[],"categories_sizes":[],"default_left":[0,0,0,0,0,0,0,0,0,0,0,0,0,0,0],"id":0,"left_children":[1,3,5,7,9,11,13,-1,-1,-1,-1,-1,-1,-1,-1],"loss_changes":[1.2710573E2,5.881839E1,6.3072166E1,1.7949879E1,3.6268036E1,3.2019325E1,5.182961E1,0E0,0E0,0E0,0E0,0E0,0E0,0E0,0E0],"parents":[2147483647,0,0,1,1,2,2,3,3,4,4,5,5,6,6],"right_children":[2,4,6,8,10,12,14,-1,-1,-1,-1,-1,-1,-1,-1],"split_conditions":[-1.206824E-3,-1.4782149E-1,2.4609176E-2,3.3333334E-1,2.9138771E1,7.6E-2,4.3590608E-1,4.6658743E-2,-5.768745E-2,-9.421931E-2,-3.2368936E-2,1.01403095E-1,-2.5166536E-4,-2.6072483E-3,7.7345654E-2],"split_indices":[1,3,25,13,21,19,4,0,0,0,0,0,0,0,0],"split_type":[0,0,0,0,0,0,0,0,0,0,0,0,0,0,0],"sum_hessian":[1.3338615E3,5.3467346E2,7.99188E2,1.029444E2,4.3172903E2,1.6128377E2,6.3790424E2,8.541836E1,1.7526037E1,1.5727428E2,2.7445477E2,1.2695565E2,3.432811E1,5.4618384E2,9.1720436E1],"tree_param":{"num_deleted":"0","num_feature":"27","num_nodes":"15","size_leaf_vector":"1"}},{"base_weights":[5.9715714E-2,-3.0428493E-1,2.670135E-1,-0E0,-6.008698E-1,-2.6008588E-1,4.1303512E-1,-3.3985987E-2,3.0771995E-2,-8.66516E-2,7.497723E-3,6.262018E-2,-6.974154E-2,9.768021E-2,2.6119975E-2],"categories":[],"categories_nodes":[],"categories_segments":[],"categories_sizes":[],"default_left":[0,0,0,0,0,0,0,0,0,0,0,0,0,0,0],"id":1,"left_children":[1,3,5,7,9,11,13,-1,-1,-1,-1,-1,-1,-1,-1],"loss_changes":[1.0397036E2,4.4261513E1,6.835684E1,2.6417679E1,4.794674E1,7.50115E1,5.6422546E1,0E0,0E0,0E0,0E0,0E0,0E0,0E0,0E0],"parents":[2147483647,0,0,1,1,2,2,3,3,4,4,5,5,6,6],"right_children":[2,4,6,8,10,12,14,-1,-1,-1,-1,-1,-1,-1,-1],"split_conditions":[4.336441E1,-3.630283E-2,-2.5065708E-1,-1.8075962E-2,4.5454204E-1,-1.0902556E-1,3.76264E-2,-3.3985987E-2,3.0771995E-2,-8.66516E-2,7.497723E-3,6.262018E-2,-6.974154E-2,9.768021E-2,2.6119975E-2],"split_indices":[21,3,6,16,12,3,9,0,0,0,0,0,0,0,0],"split_type":[0,0,0,0,0,0,0,0,0,0,0,0,0,0,0],"sum_hessian":[1.3772068E3,4.9563193E2,8.815748E2,2.4657622E2,2.4905573E2,1.877465E2,6.938283E2,1.1851653E2,1.280597E2,1.7970839E2,6.934733E1,6.051611E1,1.2723041E2,1.3988806E2,5.5394025E2],"tree_param":{"num_deleted":"0","num_feature":"27","num_nodes":"15","size_leaf_vector":"1"}},{"base_weights":[-7.2622956E-3,-4.4031218E-1,1.2311133E-1,9.778761E-2,-7.2865784E-1,4.6936235E-1,2.0635647E-3,5.6204118E-2,-6.2024504E-2,5.0656628E-2,-7.94665E-2,-4.8026938E-2,6.87133E-2,-1.3898344E-2,5.7670597E-2],"categories":[],"categories_nodes":[],"categories_segments":[],"categories_sizes":[],"default_left":[0,0,0,0,0,0,0,0,0,0,0,0,0,0,0],"id":2,"left_children":[1,3,5,7,9,11,13,-1,-1,-1,-1,-1,-1,-1,-1],"loss_changes":[7.658566E1,5.03518E1,4.206106E1,3.675257E1,1.9665459E1,5.648255E1,6.4321465E1,0E0,0E0,0E0,0E0,0E0,0E0,0E0,0E0],"parents":[2147483647,0,0,1,1,2,2,3,3,4,4,5,5,6,6],"right_children":[2,4,6,8,10,12,14,-1,-1,-1,-1,-1,-1,-1,-1],"split_conditions":[3.4635857E1,-1.0708596E-1,4.0815897E-2,1.00795835E-1,7.685505E-3,-8.021566E-3,1.5464075E-1,5.6204118E-2,-6.2024504E-2,5.0656628E-2,-7.94665E-2,-4.8026938E-2,6.87133E-2,-1.3898344E-2,5.7670597E-2],"split_indices":[21,3,9,9,26,8,2,0,0,0,0,0,0,0,0],"split_type":[0,0,0,0,0,0,0,0,0,0,0,0,0,0,0],"sum_hessian":[1.342143E3,3.140927E2,1.0280502E3,1.07057434E2,2.0703528E2,2.6083582E2,7.6721436E2,6.695275E1,4.0104683E1,9.422804E0,1.9761247E2,4.7389107E1,2.134467E2,6.134307E2,1.5378363E2],"tree_param":{"num_deleted":"0","num_feature":"27","num_nodes":"15","size_leaf_vector":"1"}},{"base_weights":[-2.6489405E-2,2.586541E-1,-2.0736258E-1,-6.084347E-1,3.9785355E-1,-2.4514209E-1,1.175109E0,1.0225223E-1,-1.1883585E-1,8.53228E-2,2.2703027E-2,-2.855388E-2,6.830677E-2,1.349868E-1,-0E0],"categories":[],"categories_nodes":[],"categories_segments":[],"categories_sizes":[],"default_left":[0,0,0,0,0,0,0,0,0,0,0,0,0,0,0],"id":3,"left_children":[1,3,5,7,9,11,13,-1,-1,-1,-1,-1,-1,-1,-1],"loss_changes":[6.938893E1,6.2286423E1,4.1468414E1,6.888203E1,3.247544E1,3.1545528E1,3.532135E0,0E0,0E0,0E0,0E0,0E0,0E0,0E0,0E0],"parents":[2147483647,0,0,1,1,2,2,3,3,4,4,5,5,6,6],"right_children":[2,4,6,8,10,12,14,-1,-1,-1,-1,-1,-1,-1,-1],"split_conditions":[2.0100515E-2,-3.1428927E-1,2.5039423E-1,2.2040926E-2,3.76264E-2,1.874916E0,1.4111596E1,1.0225223E-1,-1.1883585E-1,8.53228E-2,2.2703027E-2,-2.855388E-2,6.830677E-2,1.349868E-1,-0E0],"split_indices":[18,6,9,9,9,7,22,0,0,0,0,0,0,0,0],"split_type":[0,0,0,0,0,0,0,0,0,0,0,0,0,0,0],"sum_hessian":[1.3458864E3,5.1739166E2,8.284946E2,6.8928E1,4.4846368E2,8.0873425E2,1.9760357E1,1.7049536E1,5.1878468E1,1.1554318E2,3.329205E2,7.762472E2,3.248707E1,1.6424688E1,3.3356678E0],"tree_param":{"num_deleted":"0","num_feature":"27","num_nodes":"15","size_leaf_vector":"1"}},{"base_weights":[-1.8461723E-2,4.655551E-1,-1.2615907E-1,6.0195076E-1,-1.2014436E0,-4.0733746E-1,5.3222314E-2,6.591991E-2,-5.313151E-2,-1.7240812E-1,-0E0,2.192838E-2,-5.4026328E-2,-3.3861436E-3,5.995649E-2],"categories":[],"categories_nodes":[],"categories_segments":[],"categories_sizes":[],"default_left":[0,0,0,0,0,0,0,0,0,0,0,0,0,0,0],"id":4,"left_children":[1,3,5,7,9,11,13,-1,-1,-1,-1,-1,-1,-1,-1],"loss_changes":[6.952778E1,5.4212753E1,5.663913E1,1.6623955E1,1.0670982E1,3.845051E1,3.3638023E1,0E0,0E0,0E0,0E0,0E0,0E0,0E0,0E0],"parents":[2147483647,0,0,1,1,2,2,3,3,4,4,5,5,6,6],"right_children":[2,4,6,8,10,12,14,-1,-1,-1,-1,-1,-1,-1,-1],"split_conditions":[2.5074797E-2,1.782486E-2,4.3903606E1,5.4304894E-2,9.135682E1,-1.8884373E-1,8.752556E-3,6.591991E-2,-5.313151E-2,-1.7240812E-1,-0E0,2.192838E-2,-5.4026328E-2,-3.3861436E-3,5.995649E-2],"split_indices":[25,17,21,26,20,3,24,0,0,0,0,0,0,0,0],"split_type":[0,0,0,0,0,0,0,0,0,0,0,0,0,0,0],"sum_hessian":[1.3466512E3,2.4077101E2,1.1058802E3,2.2432036E2,1.6450655E1,4.3519263E2,6.706876E2,2.1484459E2,9.4757595E0,1.0943776E1,5.506879E0,7.498988E1,3.6020273E2,5.760997E2,9.458797E1],"tree_param":{"num_deleted":"0","num_feature":"27","num_nodes":"15","size_leaf_vector":"1"}},{"base_weights":[1.6264418E-2,-3.3116388E-1,1.4483747E-1,1.4163201E-2,-5.6576383E-1,4.9492067E-1,-1.7405421E-3,1.1313149E-2,-1.3917483E-1,-3.330531E-2,-1.1719669E-1,1.30037E-1,3.6940273E-2,-5.746838E-3,1.2421595E-1],"categories":[],"categories_nodes":[],"categories_segments":[],"categories_sizes":[],"default_left":[0,0,0,0,0,0,0,0,0,0,0,0,0,0,0],"id":5,"left_children":[1,3,5,7,9,11,13,-1,-1,-1,-1,-1,-1,-1,-1],"loss_changes":[6.0407593E1,3.0665718E1,5.235328E1,1.7591255E1,2.7409393E1,2.5703743E1,4.6704227E1,0E0,0E0,0E0,0E0,0E0,0E0,0E0,0E0],"parents":[2147483647,0,0,1,1,2,2,3,3,4,4,5,5,6,6],"right_children":[2,4,6,8,10,12,14,-1,-1,-1,-1,-1,-1,-1,-1],"split_conditions":[3.7086716E1,-2.4585877E-1,4.3072797E-2,7.1794873E-1,7.6799E-2,-7.385815E-2,6.2363353E0,1.1313149E-2,-1.3917483E-1,-3.330531E-2,-1.1719669E-1,1.30037E-1,3.6940273E-2,-5.746838E-3,1.2421595E-1],"split_indices":[21,4,9,12,9,3,6,0,0,0,0,0,0,0,0],"split_type":[0,0,0,0,0,0,0,0,0,0,0,0,0,0,0],"sum_hessian":[1.3599255E3,3.62227E2,9.9769855E2,1.4297325E2,2.1925374E2,2.9838193E2,6.9931665E2,1.3578688E2,7.1863737E0,1.6325293E2,5.600081E1,3.5466003E1,2.6291592E2,6.718308E2,2.7485863E1],"tree_param":{"num_deleted":"0","num_feature":"27","num_nodes":"15","size_leaf_vector":"1"}},{"base_weights":[2.4552012E-3,-2.892339E-1,1.767895E-1,-1.671214E-1,-8.740734E-1,1.0122115E-1,6.8249613E-1,3.0764693E-2,-2.626485E-2,-0E0,-1.23041674E-1,2.1614203E-2,-4.6652626E-2,1.10653885E-1,2.2102093E-2],"categories":[],"categories_nodes":[],"categories_segments":[],"categories_sizes":[],"default_left":[0,0,0,0,0,0,0,0,0,0,0,0,0,0,0],"id":6,"left_children":[1,3,5,7,9,11,13,-1,-1,-1,-1,-1,-1,-1,-1],"loss_changes":[6.855136E1,3.332966E1,3.0722486E1,1.9493933E1,2.6993893E1,4.925101E1,1.8005001E1,0E0,0E0,0E0,0E0,0E0,0E0,0E0,0E0],"parents":[2147483647,0,0,1,1,2,2,3,3,4,4,5,5,6,6],"right_children":[2,4,6,8,10,12,14,-1,-1,-1,-1,-1,-1,-1,-1],"split_conditions":[-3.7747913E-3,3.5627533E-3,1.9225256E-1,2.5320563E-2,-1.00659564E-1,2.4250267E-1,6.351945E-2,3.0764693E-2,-2.626485E-2,-0E0,-1.23041674E-1,2.1614203E-2,-4.6652626E-2,1.10653885E-1,2.2102093E-2],"split_indices":[1,10,2,25,3,3,25,0,0,0,0,0,0,0,0],"split_type":[0,0,0,0,0,0,0,0,0,0,0,0,0,0,0],"sum_hessian":[1.3513273E3,5.004665E2,8.508607E2,4.1812686E2,8.23396E1,7.450241E2,1.0583661E2,6.677804E1,3.5134885E2,2.433692E1,5.800268E1,6.224418E2,1.2258237E2,5.1343475E1,5.4493137E1],"tree_param":{"num_deleted":"0","num_feature":"27","num_nodes":"15","size_leaf_vector":"1"}},{"base_weights":[2.5332022E-2,-1.8326063E-1,1.4374049E-1,-1.6082874E-2,-9.0592915E-1,5.196714E-1,4.2335764E-2,6.668397E-3,-7.164926E-2,-1.3018763E-1,3.7981202E-3,6.56848E-2,-1.0778527E-1,-4.2168368E-2,1.821021E-2],"categories":[],"categories_nodes":[],"categories_segments":[],"categories_sizes":[],"default_left":[0,0,0,0,0,0,0,0,0,0,0,0,0,0,0],"id":7,"left_children":[1,3,5,7,9,11,13,-1,-1,-1,-1,-1,-1,-1,-1],"loss_changes":[3.301367E1,5.5713234E1,3.1563925E1,2.4578398E1,3.6434525E1,4.0458412E1,4.469908E1,0E0,0E0,0E0,0E0,0E0,0E0,0E0,0E0],"parents":[2147483647,0,0,1,1,2,2,3,3,4,4,5,5,6,6],"right_children":[2,4,6,8,10,12,14,-1,-1,-1,-1,-1,-1,-1,-1],"split_conditions":[-2.275076E-1,7.930833E-3,3.0174306E-1,1.2773752E-2,3.540373E-2,4.723716E-2,-1.5770736E-3,6.668397E-3,-7.164926E-2,-1.3018763E-1,3.7981202E-3,6.56848E-2,-1.0778527E-1,-4.2168368E-2,1.821021E-2],"split_indices":[6,16,6,23,16,26,17,0,0,0,0,0,0,0,0],"split_type":[0,0,0,0,0,0,0,0,0,0,0,0,0,0,0],"sum_hessian":[1.3384576E3,4.7759555E2,8.6086206E2,3.9111804E2,8.64775E1,1.7740187E2,6.834602E2,3.47691E2,4.342705E1,6.1888474E1,2.4589027E1,1.6470302E2,1.2698853E1,1.5448672E2,5.289735E2],"tree_param":{"num_deleted":"0","num_feature":"27","num_nodes":"15","size_leaf_vector":"1"}},{"base_weights":[2.1238158E-2,4.44317E-1,-5.007479E-2,6.869492E-1,-0E0,1.10272095E-1,-3.078305E-1,1.480285E-3,8.526212E-2,-3.734657E-2,8.282145E-2,-5.668144E-2,2.1721598E-2,-3.6426656E-2,1.3158928E-1],"categories":[],"categories_nodes":[],"categories_segments":[],"categories_sizes":[],"default_left":[0,0,0,0,0,0,0,0,0,0,0,0,0,0,0],"id":8,"left_children":[1,3,5,7,9,11,13,-1,-1,-1,-1,-1,-1,-1,-1],"loss_changes":[4.2107853E1,2.291167E1,4.861575E1,1.342807E1,2.1357433E1,5.2165688E1,4.2149773E1,0E0,0E0,0E0,0E0,0E0,0E0,0E0,0E0],"parents":[2147483647,0,0,1,1,2,2,3,3,4,4,5,5,6,6],"right_children":[2,4,6,8,10,12,14,-1,-1,-1,-1,-1,-1,-1,-1],"split_conditions":[-1.2649696E-1,1.0360538E-1,4.140779E-2,4.7601044E-2,2.2140072E-1,-3.6488017E-1,3.0445447E0,1.480285E-3,8.526212E-2,-3.734657E-2,8.282145E-2,-5.668144E-2,2.1721598E-2,-3.6426656E-2,1.3158928E-1],"split_indices":[3,9,18,25,9,6,7,0,0,0,0,0,0,0,0],"split_type":[0,0,0,0,0,0,0,0,0,0,0,0,0,0,0],"sum_hessian":[1.3646819E3,2.0075632E2,1.1639257E3,1.3203616E2,6.872014E1,7.1245953E2,4.5146606E2,2.9836033E1,1.0220014E2,4.91025E1,1.961764E1,9.462562E1,6.178339E2,4.3761612E2,1.3849963E1],"tree_param":{"num_deleted":"0","num_feature":"27","num_nodes":"15","size_leaf_vector":"1"}},{"base_weights":[-1.087705E-2,2.6950407E-1,-1.4920872E-1,3.0334756E-1,-1.4819665E-1,-2.3955584E-1,5.1132905E-1,-2.8238405E-2,3.8271733E-2,-1.332142E-2,-7.857633E-2,-4.3693423E-2,7.24829E-2],"categories":[],"categories_nodes":[],"categories_segments":[],"categories_sizes":[],"default_left":[0,0,0,0,0,0,0,0,0,0,0,0,0],"id":9,"left_children":[1,3,5,7,-1,9,11,-1,-1,-1,-1,-1,-1],"loss_changes":[5.0853405E1,2.3375526E1,5.24866E1,2.0879238E1,0E0,4.3464188E1,2.2668472E1,0E0,0E0,0E0,0E0,0E0,0E0],"parents":[2147483647,0,0,1,1,2,2,3,3,5,5,6,6],"right_children":[2,4,6,8,-1,10,12,-1,-1,-1,-1,-1,-1],"split_conditions":[3.2373983E-2,1.6182085E1,7.048684E-3,2.8895552E1,-1.4819665E-1,1.1147261E-1,1.0755654E-2,-2.8238405E-2,3.8271733E-2,-1.332142E-2,-7.857633E-2,-4.3693423E-2,7.24829E-2],"split_indices":[25,22,24,21,0,9,17,0,0,0,0,0,0],"split_type":[0,0,0,0,0,0,0,0,0,0,0,0,0],"sum_hessian":[1.3163774E3,4.2924188E2,8.8713556E2,4.231141E2,6.127776E0,7.838807E2,1.03254906E2,4.8413364E1,3.7470074E2,6.627667E2,1.2111392E2,1.7251062E1,8.6003845E1],"tree_param":{"num_deleted":"0","num_feature":"27","num_nodes":"13","size_leaf_vector":"1"}},{"base_weights":[9.121166E-3,-5.6776E-1,4.6625838E-2,3.777399E-1,-8.286308E-1,9.969727E-3,6.0246176E-1,-6.1799632E-3,1.01586945E-1,6.458921E-2,-9.779267E-2,3.070958E-2,-6.5831365E-3,4.479929E-3,9.5290676E-2],"categories":[],"categories_nodes":[],"categories_segments":[],"categories_sizes":[],"default_left":[0,0,0,0,0,0,0,0,0,0,0,0,0,0,0],"id":10,"left_children":[1,3,5,7,9,11,13,-1,-1,-1,-1,-1,-1,-1,-1],"loss_changes":[2.795046E1,2.0650581E1,2.4438496E1,6.6885996E0,1.6116943E1,2.7865892E1,1.2583387E1,0E0,0E0,0E0,0E0,0E0,0E0,0E0,0E0],"parents":[2147483647,0,0,1,1,2,2,3,3,4,4,5,5,6,6],"right_children":[2,4,6,8,10,12,14,-1,-1,-1,-1,-1,-1,-1,-1],"split_conditions":[-4.2883813E-2,-3.963479E-1,1.484863E-1,-6.967214E-2,1.6808568E-2,2.5074797E-2,1.4329277E-1,-6.1799632E-3,1.01586945E-1,6.458921E-2,-9.779267E-2,3.070958E-2,-6.5831365E-3,4.479929E-3,9.5290676E-2],"split_indices":[16,4,26,10,26,25,11,0,0,0,0,0,0,0,0],"split_type":[0,0,0,0,0,0,0,0,0,0,0,0,0,0,0],"sum_hessian":[1.344251E3,7.764477E1,1.2666062E3,1.4837855E1,6.2806915E1,1.192873E3,7.373323E1,7.2160735E0,7.621782E0,4.3934116E0,5.8413506E1,2.4766992E2,9.4520306E2,3.1688242E1,4.2044987E1],"tree_param":{"num_deleted":"0","num_feature":"27","num_nodes":"15","size_leaf_vector":"1"}},{"base_weights":[2.3182293E-2,-1.3741527E-1,2.2254059E-1,-5.052777E-2,-7.082417E-1,-3.2146528E-1,3.2864586E-1,8.577768E-3,-3.5932124E-2,-1.5950218E-1,-3.744479E-2,-5.978056E-3,-1.5129602E-1,1.1647386E-1,2.7078552E-2],"categories":[],"categories_nodes":[],"categories_segments":[],"categories_sizes":[],"default_left":[0,0,0,0,0,0,0,0,0,0,0,0,0,0,0],"id":11,"left_children":[1,3,5,7,9,11,13,-1,-1,-1,-1,-1,-1,-1,-1],"loss_changes":[4.319109E1,3.4843754E1,3.5053955E1,2.8171549E1,2.2958714E1,2.6460823E1,2.049284E1,0E0,0E0,0E0,0E0,0E0,0E0,0E0,0E0],"parents":[2147483647,0,0,1,1,2,2,3,3,4,4,5,5,6,6],"right_children":[2,4,6,8,10,12,14,-1,-1,-1,-1,-1,-1,-1,-1],"split_conditions":[8.616218E-4,5.514158E-2,-2.103302E-1,7.072837E-2,4.4825214E1,1.1582965E-2,2.7774857E-2,8.577768E-3,-3.5932124E-2,-1.5950218E-1,-3.744479E-2,-5.978056E-3,-1.5129602E-1,1.1647386E-1,2.7078552E-2],"split_indices":[24,2,6,9,21,23,9,0,0,0,0,0,0,0,0],"split_type":[0,0,0,0,0,0,0,0,0,0,0,0,0,0,0],"sum_hessian":[1.3413472E3,7.3677814E2,6.0456903E2,6.436885E2,9.30897E1,9.49187E1,5.096503E2,4.4256055E2,2.0112791E2,2.2297848E1,7.0791855E1,8.0277176E1,1.4641522E1,2.7915525E1,4.817348E2],"tree_param":{"num_deleted":"0","num_feature":"27","num_nodes":"15","size_leaf_vector":"1"}},{"base_weights":[1.733507E-2,-2.1245888E-1,1.4716217E-1,5.900172E-1,-3.1555206E-1,4.4791946E-1,3.982528E-2,9.7591594E-2,-0E0,-2.086681E-2,-9.3682304E-2,5.7691164E-2,-4.8881594E-2,-8.593232E-3,3.0930655E-2],"categories":[],"categories_nodes":[],"categories_segments":[],"categories_sizes":[],"default_left":[0,0,0,0,0,0,0,0,0,0,0,0,0,0,0],"id":12,"left_children":[1,3,5,7,9,11,13,-1,-1,-1,-1,-1,-1,-1,-1],"loss_changes":[4.0033855E1,3.92507E1,2.6867985E1,1.117868E1,2.556482E1,2.8404518E1,2.2723791E1,0E0,0E0,0E0,0E0,0E0,0E0,0E0,0E0],"parents":[2147483647,0,0,1,1,2,2,3,3,4,4,5,5,6,6],"right_children":[2,4,6,8,10,12,14,-1,-1,-1,-1,-1,-1,-1,-1],"split_conditions":[4.336441E1,-8.4592365E-2,4.3072797E-2,1.0155132E-1,1.015869E0,2.1054012E-1,2.5716357E0,9.7591594E-2,-0E0,-2.086681E-2,-9.3682304E-2,5.7691164E-2,-4.8881594E-2,-8.593232E-3,3.0930655E-2],"split_indices":[21,10,9,9,6,3,6,0,0,0,0,0,0,0,0],"split_type":[0,0,0,0,0,0,0,0,0,0,0,0,0,0,0],"sum_hessian":[1.3450782E3,4.7912054E2,8.6595764E2,5.15914E1,4.2752914E2,2.2151984E2,6.444378E2,2.9554811E1,2.2036587E1,3.7031293E2,5.7216236E1,1.9634981E2,2.5170025E1,4.3465198E2,2.0978583E2],"tree_param":{"num_deleted":"0","num_feature":"27","num_nodes":"15","size_leaf_vector":"1"}},{"base_weights":[-2.7693773E-2,3.785979E-1,-9.5005475E-2,6.3847125E-1,-1.3471825E-1,-4.5921686E-1,3.849821E-2,8.236888E-2,-1.9833755E-2,5.8548853E-2,-7.823833E-2,-1.9911066E-2,-1.4114034E-1,-2.1623982E-2,2.3572603E-2],"categories":[],"categories_nodes":[],"categories_segments":[],"categories_sizes":[],"default_left":[0,0,0,0,0,0,0,0,0,0,0,0,0,0,0],"id":13,"left_children":[1,3,5,7,9,11,13,-1,-1,-1,-1,-1,-1,-1,-1],"loss_changes":[3.5510487E1,2.5637571E1,5.6319027E1,2.1613388E1,2.8983059E1,7.330056E1,4.244593E1,0E0,0E0,0E0,0E0,0E0,0E0,0E0,0E0],"parents":[2147483647,0,0,1,1,2,2,3,3,4,4,5,5,6,6],"right_children":[2,4,6,8,10,12,14,-1,-1,-1,-1,-1,-1,-1,-1],"split_conditions":[-1.2649696E-1,1.06460184E-1,-3.350361E-1,6.5101975E-1,8.842678E-2,8.978329E-4,8.616218E-4,8.236888E-2,-1.9833755E-2,5.8548853E-2,-7.823833E-2,-1.9911066E-2,-1.4114034E-1,-2.1623982E-2,2.3572603E-2],"split_indices":[3,9,6,5,25,17,24,0,0,0,0,0,0,0,0],"split_type":[0,0,0,0,0,0,0,0,0,0,0,0,0,0,0],"sum_hessian":[1.3198402E3,1.8225737E2,1.1375829E3,1.2377587E2,5.8481503E1,3.091027E2,8.2848016E2,1.0292092E2,2.0854948E1,2.6141008E1,3.2340496E1,2.463857E2,6.2716984E1,3.5711084E2,4.7136932E2],"tree_param":{"num_deleted":"0","num_feature":"27","num_nodes":"15","size_leaf_vector":"1"}},{"base_weights":[2.8486747E-2,4.7610915E-1,-3.162371E-2,6.374856E-1,-1.8038651E-1,-5.623679E-1,4.822037E-2,8.3730616E-2,-8.09578E-3,-6.240663E-2,3.6072604E-2,-8.682911E-2,-0E0,7.652498E-3,-1.0754426E-1],"categories":[],"categories_nodes":[],"categories_segments":[],"categories_sizes":[],"default_left":[0,0,0,0,0,0,0,0,0,0,0,0,0,0,0],"id":14,"left_children":[1,3,5,7,9,11,13,-1,-1,-1,-1,-1,-1,-1,-1],"loss_changes":[3.697511E1,1.8368576E1,5.0958786E1,2.1617947E1,8.124472E0,2.7157429E1,3.1144262E1,0E0,0E0,0E0,0E0,0E0,0E0,0E0,0E0],"parents":[2147483647,0,0,1,1,2,2,3,3,4,4,5,5,6,6],"right_children":[2,4,6,8,10,12,14,-1,-1,-1,-1,-1,-1,-1,-1],"split_conditions":[-1.4782149E-1,1.11788064E-1,2.9138771E1,1.7429426E-3,4.4184485E-3,1.8131779E-1,1.6830156E1,8.3730616E-2,-8.09578E-3,-6.240663E-2,3.6072604E-2,-8.682911E-2,-0E0,7.652498E-3,-1.0754426E-1],"split_indices":[3,25,21,24,24,7,22,0,0,0,0,0,0,0,0],"split_type":[0,0,0,0,0,0,0,0,0,0,0,0,0,0,0],"sum_hessian":[1.3356046E3,1.618558E2,1.1737489E3,1.326962E2,2.9159605E1,1.5649698E2,1.0172519E3,1.05402725E2,2.7293474E1,1.8176643E1,1.098296E1,9.954175E1,5.6955235E1,9.9464185E2,2.2610048E1],"tree_param":{"num_deleted":"0","num_feature":"27","num_nodes":"15","size_leaf_vector":"1"}},{"base_weights":[3.4564428E-2,-5.774043E-1,7.354131E-2,-0E0,-1.1388047E0,3.822591E-2,5.634378E-1,3.314136E-2,-1.2126851E-1,-1.264899E-1,-0E0,9.403627E-3,-3.2751758E-2,9.0480156E-2,-4.0547766E-2],"categories":[],"categories_nodes":[],"categories_segments":[],"categories_sizes":[],"default_left":[0,0,0,0,0,0,0,0,0,0,0,0,0,0,0],"id":15,"left_children":[1,3,5,7,9,11,13,-1,-1,-1,-1,-1,-1,-1,-1],"loss_changes":[3.0760933E1,2.4454185E1,2.0423443E1,1.654575E1,4.4986877E0,2.4096031E1,2.8697063E1,0E0,0E0,0E0,0E0,0E0,0E0,0E0,0E0],"parents":[2147483647,0,0,1,1,2,2,3,3,4,4,5,5,6,6],"right_children":[2,4,6,8,10,12,14,-1,-1,-1,-1,-1,-1,-1,-1],"split_conditions":[-4.2883813E-2,-3.7634414E-2,1.484863E-1,1.1904763E-2,1.2881189E1,8.750018E-1,8.733349E-2,3.314136E-2,-1.2126851E-1,-1.264899E-1,-0E0,9.403627E-3,-3.2751758E-2,9.0480156E-2,-4.0547766E-2],"split_indices":[16,10,26,19,22,15,25,0,0,0,0,0,0,0,0],"split_type":[0,0,0,0,0,0,0,0,0,0,0,0,0,0,0],"sum_hessian":[1.3348501E3,7.575042E1,1.2590997E3,3.8061356E1,3.7689068E1,1.1795973E3,7.95024E1,3.0169884E1,7.8914704E0,3.265493E1,5.0341396E0,1.0284329E3,1.5116441E2,6.0262447E1,1.9239958E1],"tree_param":{"num_deleted":"0","num_feature":"27","num_nodes":"15","size_leaf_vector":"1"}},{"base_weights":[2.7581953E-2,2.3345393E-1,-7.9547495E-2,-3.6927497E-1,4.0122637E-1,-2.990365E-1,3.9297223E-2,3.0007614E-3,-1.186317E-1,4.490287E-2,-6.5813065E-2,-1.6132096E-2,-1.5210314E-1,4.113546E-2,-1.45035535E-2],"categories":[],"categories_nodes":[],"categories_segments":[],"categories_sizes":[],"default_left":[0,0,0,0,0,0,0,0,0,0,0,0,0,0,0],"id":16,"left_children":[1,3,5,7,9,11,13,-1,-1,-1,-1,-1,-1,-1,-1],"loss_changes":[2.9538284E1,4.6734398E1,2.3120783E1,3.493321E1,1.9675251E1,4.817147E1,3.9254784E1,0E0,0E0,0E0,0E0,0E0,0E0,0E0,0E0],"parents":[2147483647,0,0,1,1,2,2,3,3,4,4,5,5,6,6],"right_children":[2,4,6,8,10,12,14,-1,-1,-1,-1,-1,-1,-1,-1],"split_conditions":[-2.9832864E-2,-2.2902101E-2,8.4041305E-2,-1.1937718E-1,3.4483083E-2,2.2058474E-2,3.294874E-2,3.0007614E-3,-1.186317E-1,4.490287E-2,-6.5813065E-2,-1.6132096E-2,-1.5210314E-1,4.113546E-2,-1.45035535E-2],"split_indices":[3,16,3,3,8,17,25,0,0,0,0,0,0,0,0],"split_type":[0,0,0,0,0,0,0,0,0,0,0,0,0,0,0],"sum_hessian":[1.3219827E3,4.593232E2,8.626594E2,9.686353E1,3.6245966E2,3.0922607E2,5.5343335E2,6.4022896E1,3.2840633E1,3.4825238E2,1.4207286E1,2.8097458E2,2.8251482E1,1.8670767E2,3.667257E2],"tree_param":{"num_deleted":"0","num_feature":"27","num_nodes":"15","size_leaf_vector":"1"}},{"base_weights":[-0E0,6.3572145E-1,-2.8341133E-2,9.1853464E-1,-1.9030966E-1,-8.387428E-2,3.2233143E-1,1.08048394E-1,2.3524717E-3,-1.2169463E-1,1.0372736E-1,-4.878831E-3,-1.0166841E-1,7.762977E-2,1.45109715E-2],"categories":[],"categories_nodes":[],"categories_segments":[],"categories_sizes":[],"default_left":[0,0,0,0,0,0,0,0,0,0,0,0,0,0,0],"id":17,"left_children":[1,3,5,7,9,11,13,-1,-1,-1,-1,-1,-1,-1,-1],"loss_changes":[2.3563036E1,1.4837179E1,2.364002E1,4.1541443E0,1.8069153E1,3.2694904E1,1.1111036E1,0E0,0E0,0E0,0E0,0E0,0E0,0E0,0E0],"parents":[2147483647,0,0,1,1,2,2,3,3,4,4,5,5,6,6],"right_children":[2,4,6,8,10,12,14,-1,-1,-1,-1,-1,-1,-1,-1],"split_conditions":[2.1031577E-2,2.4188478E-2,8.15383E1,2.0100515E-2,5.7283363E1,8.2644574E-2,5.2166685E-2,1.08048394E-1,2.3524717E-3,-1.2169463E-1,1.0372736E-1,-4.878831E-3,-1.0166841E-1,7.762977E-2,1.45109715E-2],"split_indices":[9,25,20,18,20,10,9,0,0,0,0,0,0,0,0],"split_type":[0,0,0,0,0,0,0,0,0,0,0,0,0,0,0],"sum_hessian":[1.294453E3,5.4976246E1,1.2394767E3,4.291568E1,1.2060568E1,1.0761422E3,1.6333455E2,3.3768406E1,9.147272E0,7.5553026E0,4.5052648E0,1.0410643E3,3.507788E1,4.082755E1,1.22507E2],"tree_param":{"num_deleted":"0","num_feature":"27","num_nodes":"15","size_leaf_vector":"1"}},{"base_weights":[1.7737594E-2,-0E0,8.417326E-1,-9.990003E-3,1.265365E-1,1.2811454E-1,-2.2011084E-2,7.183043E-3,-1.7608374E-2],"categories":[],"categories_nodes":[],"categories_segments":[],"categories_sizes":[],"default_left":[0,0,0,0,0,0,0,0,0],"id":18,"left_children":[1,3,5,7,-1,-1,-1,-1,-1],"loss_changes":[1.9092045E1,1.6135998E1,1.58250065E1,1.7714705E1,0E0,0E0,0E0,0E0,0E0],"parents":[2147483647,0,0,1,1,2,2,3,3],"right_children":[2,4,6,8,-1,-1,-1,-1,-1],"split_conditions":[2.0299141E-1,2.0623204E2,3.8889003E-1,5.4145467E-2,1.265365E-1,1.2811454E-1,-2.2011084E-2,7.183043E-3,-1.7608374E-2],"split_indices":[24,7,15,18,0,0,0,0,0],"split_type":[0,0,0,0,0,0,0,0,0],"sum_hessian":[1.3001953E3,1.2735334E3,2.6661856E1,1.2645564E3,8.977046E0,2.0098297E1,6.5635605E0,8.3892285E2,4.2563354E2],"tree_param":{"num_deleted":"0","num_feature":"27","num_nodes":"9","size_leaf_vector":"1"}},{"base_weights":[6.508263E-3,2.2938916E-1,-1.2805024E-1,-6.425836E-1,2.9374546E-1,1.0627129E-1,-3.0262527E-1,-1.1186447E-1,8.947141E-3,4.0073637E-2,-1.941418E-2,-4.9932506E-2,3.2301396E-2,-5.5738278E-2,9.182999E-3],"categories":[],"categories_nodes":[],"categories_segments":[],"categories_sizes":[],"default_left":[0,0,0,0,0,0,0,0,0,0,0,0,0,0,0],"id":19,"left_children":[1,3,5,7,9,11,13,-1,-1,-1,-1,-1,-1,-1,-1],"loss_changes":[3.9783348E1,2.7592213E1,3.3855423E1,1.3951277E1,2.5960827E1,4.568169E1,4.9607964E1,0E0,0E0,0E0,0E0,0E0,0E0,0E0,0E0],"parents":[2147483647,0,0,1,1,2,2,3,3,4,4,5,5,6,6],"right_children":[2,4,6,8,10,12,14,-1,-1,-1,-1,-1,-1,-1,-1],"split_conditions":[-1.8186009E-2,-1.2799199E1,3.60205E-2,3.3112047E-3,1.06460184E-1,3.9324816E-2,2.5716357E0,-1.1186447E-1,8.947141E-3,4.0073637E-2,-1.941418E-2,-4.9932506E-2,3.2301396E-2,-5.5738278E-2,9.182999E-3],"split_indices":[3,22,25,23,9,3,6,0,0,0,0,0,0,0,0],"split_type":[0,0,0,0,0,0,0,0,0,0,0,0,0,0,0],"sum_hessian":[1.3172056E3,5.019422E2,8.1526337E2,3.1559338E1,4.7038287E2,3.4270047E2,4.7256293E2,2.056055E1,1.0998789E1,3.878072E2,8.257567E1,8.7664215E1,2.5503625E2,2.8858752E2,1.839754E2],"tree_param":{"num_deleted":"0","num_feature":"27","num_nodes":"15","size_leaf_vector":"1"}},{"base_weights":[1.7597135E-2,8.717848E-2,-3.9675486E-1,3.3242857E-1,-7.567874E-3,-1.6070567E-1,-1.2071699E0,-2.5935568E-2,4.7473595E-2,2.8899152E-2,-1.2703524E-2,-4.1859526E-2,3.523869E-2,-1.403833E-1,1.9099949E-2],"categories":[],"categories_nodes":[],"categories_segments":[],"categories_sizes":[],"default_left":[0,0,0,0,0,0,0,0,0,0,0,0,0,0,0],"id":20,"left_children":[1,3,5,7,9,11,13,-1,-1,-1,-1,-1,-1,-1,-1],"loss_changes":[3.6957203E1,2.6823359E1,3.1782427E1,2.8327866E1,2.8622278E1,1.982192E1,1.4351662E1,0E0,0E0,0E0,0E0,0E0,0E0,0E0,0E0],"parents":[2147483647,0,0,1,1,2,2,3,3,4,4,5,5,6,6],"right_children":[2,4,6,8,10,12,14,-1,-1,-1,-1,-1,-1,-1,-1],"split_conditions":[1.0972715E-1,-4.9084533E-2,3.5483795E-1,-2.2902101E-2,2.5613807E-2,4.4724865E0,4.1913602E-1,-2.5935568E-2,4.7473595E-2,2.8899152E-2,-1.2703524E-2,-4.1859526E-2,3.523869E-2,-1.403833E-1,1.9099949E-2],"split_indices":[9,3,13,16,25,5,2,0,0,0,0,0,0,0,0],"split_type":[0,0,0,0,0,0,0,0,0,0,0,0,0,0,0],"sum_hessian":[1.3041594E3,1.1218854E3,1.8227405E2,3.1866232E2,8.032231E2,1.4411359E2,3.8160454E1,5.9747753E1,2.5891458E2,2.250455E2,5.781776E2,9.867309E1,4.54405E1,3.461774E1,3.542713E0],"tree_param":{"num_deleted":"0","num_feature":"27","num_nodes":"15","size_leaf_vector":"1"}}]},"name":"gbtree"},"learner_model_param":{"base_score":"5E-1","boost_from_average":"1","num_class":"0","num_feature":"27","num_target":"1"},"objective":{"name":"binary:logistic","reg_loss_param":{"scale_pos_weight":"3.68402481"}}},"version":[2,1,0]}