{"learner":{"attributes":{"scikit_learn":"{\"_estimator_type\": \"classifier\"}"},"feature_names":["bias_week","bias_month","bias_quarter","bias_year","rsi","macd","macd_signal","vol_change","close_change","bb_width","return_5d","k_upper","k_lower","k_body","buy_power","rs_5d","obv","atr_ratio","trend_strength"],"feature_types":["float","float","float","float","float","float","float","float","float","float","float","float","float","float","float","float","float","float","float"],"gradient_booster":{"model":{"cats":{"enc":[],"feature_segments":[],"sorted_idx":[]},"gbtree_model_param":{"num_parallel_tree":"1","num_trees":"16"},"iteration_indptr":[0,1,2,3,4,5,6,7,8,9,10,11,12,13,14,15,16],"tree_info":[0,0,0,0,0,0,0,0,0,0,0,0,0,0,0,0],"trees":[{"base_weights":[-0E0,-3.8385296E-1,3.360836E-1,-6.288216E-2,-7.198077E-2,7.278592E-1,1.5665214E-1,-3.0753577E-2,2.3007682E-2,2.189838E-2,1.09250784E-1,-2.6490454E-2,4.720061E-2],"categories":[],"categories_nodes":[],"categories_segments":[],"categories_sizes":[],"default_left":[0,0,0,0,0,0,0,0,0,0,0,0,0],"id":0,"left_children":[1,3,5,-1,7,9,11,-1,-1,-1,-1,-1,-1],"loss_changes":[3.5925365E1,8.673376E0,8.280544E0,0E0,4.7170672E0,4.9516964E0,1.4595589E1,0E0,0E0,0E0,0E0,0E0,0E0],"parents":[2147483647,0,0,1,1,2,2,4,4,5,5,6,6],"right_children":[2,4,6,-1,8,10,12,-1,-1,-1,-1,-1,-1],"split_conditions":[3.740508E-2,-2.8598151E-8,-2.428847E-1,-6.288216E-2,4.6752274E-2,7.021869E-2,2.4454267E-1,-3.0753577E-2,2.3007682E-2,2.189838E-2,1.09250784E-1,-2.6490454E-2,4.720061E-2],"split_indices":[17,0,5,0,18,18,3,0,0,0,0,0,0],"split_type":[0,0,0,0,0,0,0,0,0,0,0,0,0],"sum_hessian":[2.778099E2,1.3160023E2,1.4620967E2,6.898387E1,6.261636E1,4.190668E1,1.0430299E2,3.927304E1,2.3343319E1,2.0385944E1,2.1520737E1,4.178341E1,6.2519585E1],"tree_param":{"num_deleted":"0","num_feature":"19","num_nodes":"13","size_leaf_vector":"1"}},{"base_weights":[-9.324592E-3,-9.710297E-2,8.550179E-2,-1.2620053E-1,4.883679E-1,9.757847E-2,-2.4049016E-2,-0E0,5.7092596E-2],"categories":[],"categories_nodes":[],"categories_segments":[],"categories_sizes":[],"default_left":[0,0,0,0,0,0,0,0,0],"id":1,"left_children":[1,-1,3,5,7,-1,-1,-1,-1],"loss_changes":[2.747066E1,0E0,2.2152609E1,1.9031857E1,4.2625427E0,0E0,0E0,0E0,0E0],"parents":[2147483647,0,0,2,2,3,3,4,4],"right_children":[2,-1,4,6,8,-1,-1,-1,-1],"split_conditions":[3.0087106E-2,-9.710297E-2,1.5175089E-1,-3.6618164E0,-4.7535382E-2,9.757847E-2,-2.4049016E-2,-0E0,5.7092596E-2],"split_indices":[9,0,3,5,10,0,0,0,0],"split_type":[0,0,0,0,0,0,0,0,0],"sum_hessian":[2.76741E2,2.6708933E1,2.5003207E2,1.6026938E2,8.9762695E1,1.3299166E1,1.4697021E2,1.2282921E1,7.7479774E1],"tree_param":{"num_deleted":"0","num_feature":"19","num_nodes":"9","size_leaf_vector":"1"}},{"base_weights":[1.505113E-2,-3.5261756E-1,3.1919628E-1,-5.1124793E-1,-0E0,5.069546E-2,5.195434E-1,-0E0,-5.9500866E-2,-1.3471632E-3,5.5248894E-2,1.127137E-1,3.5132673E-2],"categories":[],"categories_nodes":[],"categories_segments":[],"categories_sizes":[],"default_left":[0,0,0,0,0,0,0,0,0,0,0,0,0],"id":2,"left_children":[1,3,5,7,-1,9,11,-1,-1,-1,-1,-1,-1],"loss_changes":[3.0846155E1,6.6820526E0,7.033415E0,3.8256092E0,0E0,3.5357454E0,5.1520863E0,0E0,0E0,0E0,0E0,0E0,0E0],"parents":[2147483647,0,0,1,1,2,2,3,3,5,5,6,6],"right_children":[2,4,6,8,-1,10,12,-1,-1,-1,-1,-1,-1],"split_conditions":[3.5908833E-2,1.578586E-2,1.4285715E-1,-2.2346244E0,-0E0,2.6152926E-2,-4.4430118E-2,-0E0,-5.9500866E-2,-1.3471632E-3,5.5248894E-2,1.127137E-1,3.5132673E-2],"split_indices":[17,1,11,5,0,0,2,0,0,0,0,0,0],"split_type":[0,0,0,0,0,0,0,0,0,0,0,0,0],"sum_hessian":[2.7636148E2,1.2175357E2,1.5460791E2,8.3443924E1,3.8309643E1,7.091703E1,8.369088E1,1.2209093E1,7.123483E1,5.9043114E1,1.187392E1,1.4718634E1,6.897225E1],"tree_param":{"num_deleted":"0","num_feature":"19","num_nodes":"13","size_leaf_vector":"1"}},{"base_weights":[-0E0,-3.1740332E-1,2.9112655E-1,-4.4198656E-1,4.6545938E-2,1.5845081E-1,5.9297744E-2,-0E0,-5.1536042E-2,4.996513E-2,-2.7136682E-2,6.0867976E-2,-0E0],"categories":[],"categories_nodes":[],"categories_segments":[],"categories_sizes":[],"default_left":[0,0,0,0,0,0,0,0,0,0,0,0,0],"id":3,"left_children":[1,3,5,7,9,11,-1,-1,-1,-1,-1,-1,-1],"loss_changes":[2.5817604E1,7.003443E0,4.1635723E0,4.1345673E0,4.89334E0,7.254176E0,0E0,0E0,0E0,0E0,0E0,0E0,0E0],"parents":[2147483647,0,0,1,1,2,2,3,3,4,4,5,5],"right_children":[2,4,6,8,10,12,-1,-1,-1,-1,-1,-1,-1],"split_conditions":[3.757051E-2,9.972973E-2,4.9156094E-1,-2.109735E0,2.5932357E-1,-1.7486166E0,5.9297744E-2,-0E0,-5.1536042E-2,4.996513E-2,-2.7136682E-2,6.0867976E-2,-0E0],"split_indices":[17,3,3,6,3,6,0,0,0,0,0,0,0],"split_type":[0,0,0,0,0,0,0,0,0,0,0,0,0],"sum_hessian":[2.7903537E2,1.3468285E2,1.4435252E2,1.04939064E2,2.9743786E1,1.0597098E2,3.8381546E1,1.3686527E1,9.125254E1,1.5132111E1,1.4611675E1,2.6261946E1,7.970904E1],"tree_param":{"num_deleted":"0","num_feature":"19","num_nodes":"13","size_leaf_vector":"1"}},{"base_weights":[-0E0,-3.1854185E-1,1.9716391E-1,-5.0621234E-2,-3.7178587E-2,5.6024473E-2,1.8927125E-2,4.6965797E-2,-5.46017E-2,-3.2594666E-2,3.162346E-2],"categories":[],"categories_nodes":[],"categories_segments":[],"categories_sizes":[],"default_left":[0,0,0,0,0,0,0,0,0,0,0],"id":4,"left_children":[1,3,5,-1,7,-1,9,-1,-1,-1,-1],"loss_changes":[1.7299658E1,4.377858E0,1.0046616E1,0E0,1.2516436E1,0E0,1.2595735E1,0E0,0E0,0E0,0E0],"parents":[2147483647,0,0,1,1,2,2,4,4,6,6],"right_children":[2,4,6,-1,8,-1,10,-1,-1,-1,-1],"split_conditions":[3.360149E-2,7.4931595E-4,-2.638919E-1,-5.0621234E-2,4.6964926E-3,5.6024473E-2,2.4454267E-1,4.6965797E-2,-5.46017E-2,-3.2594666E-2,3.162346E-2],"split_indices":[17,16,5,0,16,0,3,0,0,0,0],"split_type":[0,0,0,0,0,0,0,0,0,0,0],"sum_hessian":[2.7732675E2,1.0397E2,1.7335677E2,5.7028297E1,4.69417E1,5.242226E1,1.2093451E2,2.1331938E1,2.5609762E1,5.2530903E1,6.84036E1],"tree_param":{"num_deleted":"0","num_feature":"19","num_nodes":"11","size_leaf_vector":"1"}},{"base_weights":[-0E0,-9.236317E-2,6.5519714E-1,-3.494118E-2,7.378097E-2,1.0280132E-1,1.1059769E-2,4.406176E-2,-2.878497E-3],"categories":[],"categories_nodes":[],"categories_segments":[],"categories_sizes":[],"default_left":[0,0,0,0,0,0,0,0,0],"id":5,"left_children":[1,3,5,-1,7,-1,-1,-1,-1],"loss_changes":[1.589527E1,1.1269832E1,4.0609922E0,0E0,6.461692E0,0E0,0E0,0E0,0E0],"parents":[2147483647,0,0,1,1,2,2,4,4],"right_children":[2,4,6,-1,8,-1,-1,-1,-1],"split_conditions":[6.666663E-2,3.3514436E-2,6.2424775E-2,-3.494118E-2,-4.98042E-2,1.0280132E-1,1.1059769E-2,4.406176E-2,-2.878497E-3],"split_indices":[10,17,15,0,2,0,0,0,0],"split_type":[0,0,0,0,0,0,0,0,0],"sum_hessian":[2.7841257E2,2.4636037E2,3.20522E1,1.0133863E2,1.4502173E2,1.6364534E1,1.5687667E1,3.621364E1,1.0880809E2],"tree_param":{"num_deleted":"0","num_feature":"19","num_nodes":"9","size_leaf_vector":"1"}},{"base_weights":[-0E0,-4.614449E-1,7.5932756E-2,-7.0923746E-2,-0E0,5.595028E-2,9.426597E-3,-1.9685328E-2,1.1369097E-2],"categories":[],"categories_nodes":[],"categories_segments":[],"categories_sizes":[],"default_left":[0,0,0,0,0,0,0,0,0],"id":6,"left_children":[1,3,5,-1,-1,-1,7,-1,-1],"loss_changes":[1.0343985E1,4.5586424E0,6.271907E0,0E0,0E0,0E0,4.387834E0,0E0,0E0],"parents":[2147483647,0,0,1,1,2,2,6,6],"right_children":[2,4,6,-1,-1,-1,8,-1,-1],"split_conditions":[3.649298E-2,7.4931595E-4,-2.681449E0,-7.0923746E-2,-0E0,5.595028E-2,-1.6695686E-2,-1.9685328E-2,1.1369097E-2],"split_indices":[9,16,6,0,0,0,15,0,0],"split_type":[0,0,0,0,0,0,0,0,0],"sum_hessian":[2.751696E2,4.2190304E1,2.3297928E2,2.6447601E1,1.5742701E1,2.3803783E1,2.0917549E2,6.3055927E1,1.4611957E2],"tree_param":{"num_deleted":"0","num_feature":"19","num_nodes":"9","size_leaf_vector":"1"}},{"base_weights":[-0E0,-1.5212245E-1,3.147509E-1,5.1316895E-2,-2.7050743E-1,-0E0,5.605563E-1,-4.121931E-2,2.0650746E-3,5.235169E-2,-1.2159111E-2,9.994623E-2,8.48679E-3],"categories":[],"categories_nodes":[],"categories_segments":[],"categories_sizes":[],"default_left":[0,0,0,0,0,0,0,0,0,0,0,0,0],"id":7,"left_children":[1,3,5,-1,7,9,11,-1,-1,-1,-1,-1,-1],"loss_changes":[1.3475391E1,1.4142766E1,6.06026E0,0E0,7.666688E0,3.6747038E0,7.8306274E0,0E0,0E0,0E0,0E0,0E0,0E0],"parents":[2147483647,0,0,1,1,2,2,4,4,5,5,6,6],"right_children":[2,4,6,-1,8,10,12,-1,-1,-1,-1,-1,-1],"split_conditions":[1.6460769E-1,-2.681449E0,8.00273E-2,5.1316895E-2,1.4705703E-2,2.8973582E-1,3.7018337E0,-4.121931E-2,2.0650746E-3,5.235169E-2,-1.2159111E-2,9.994623E-2,8.48679E-3],"split_indices":[3,6,9,0,10,3,6,0,0,0,0,0,0],"split_type":[0,0,0,0,0,0,0,0,0,0,0,0,0],"sum_hessian":[2.779122E2,1.8526207E2,9.265014E1,2.4938185E1,1.6032388E2,4.420633E1,4.844381E1,1.1218718E2,4.8136703E1,1.1339149E1,3.286718E1,2.246821E1,2.59756E1],"tree_param":{"num_deleted":"0","num_feature":"19","num_nodes":"13","size_leaf_vector":"1"}},{"base_weights":[2.8468013E-2,-6.2116325E-2,1.07052654E-1,3.6309853E-3,6.7195855E-2],"categories":[],"categories_nodes":[],"categories_segments":[],"categories_sizes":[],"default_left":[0,0,0,0,0],"id":8,"left_children":[1,-1,3,-1,-1],"loss_changes":[1.271052E1,0E0,8.190297E0,0E0,0E0],"parents":[2147483647,0,0,2,2],"right_children":[2,-1,4,-1,-1],"split_conditions":[3.0087106E-2,-6.2116325E-2,1.0037081E-1,3.6309853E-3,6.7195855E-2],"split_indices":[9,0,1,0,0],"split_type":[0,0,0,0,0],"sum_hessian":[2.696419E2,2.5766373E1,2.4387553E2,2.2065482E2,2.322071E1],"tree_param":{"num_deleted":"0","num_feature":"19","num_nodes":"5","size_leaf_vector":"1"}},{"base_weights":[-1.5169136E-3,-2.4980813E-1,1.471847E-1,-4.3534833E-1,-0E0,-0E0,3.585912E-2,-6.448758E-2,-0E0,4.8936617E-2,-7.909176E-3],"categories":[],"categories_nodes":[],"categories_segments":[],"categories_sizes":[],"default_left":[0,0,0,0,0,0,0,0,0,0,0],"id":9,"left_children":[1,3,5,7,-1,9,-1,-1,-1,-1,-1],"loss_changes":[1.03146515E1,4.479889E0,5.036351E0,4.4418974E0,0E0,4.105001E0,0E0,0E0,0E0,0E0,0E0],"parents":[2147483647,0,0,1,1,2,2,3,3,5,5],"right_children":[2,4,6,8,-1,10,-1,-1,-1,-1,-1],"split_conditions":[3.396523E-2,6.9137063E-4,4.5259353E-3,5.0978612E-2,-0E0,-4.4965085E-2,3.585912E-2,-6.448758E-2,-0E0,4.8936617E-2,-7.909176E-3],"split_indices":[17,0,0,6,0,15,0,0,0,0,0],"split_type":[0,0,0,0,0,0,0,0,0,0,0],"sum_hessian":[2.7294666E2,1.0789674E2,1.6504991E2,5.9110916E1,4.8785828E1,9.920931E1,6.584061E1,3.6978115E1,2.2132803E1,1.4577576E1,8.463174E1],"tree_param":{"num_deleted":"0","num_feature":"19","num_nodes":"11","size_leaf_vector":"1"}},{"base_weights":[1.5593882E-2,-1.5792748E-1,1.6766591E-1,6.678915E-2,-3.0790603E-2,-8.0451414E-2,3.2496926E-1,-1.0737325E-2,4.4568375E-2,3.6518387E-2,-2.5333308E-2,1.9038348E-3,5.3644244E-2],"categories":[],"categories_nodes":[],"categories_segments":[],"categories_sizes":[],"default_left":[0,0,0,0,0,0,0,0,0,0,0,0,0],"id":10,"left_children":[1,3,5,7,-1,9,11,-1,-1,-1,-1,-1,-1],"loss_changes":[7.095247E0,4.6030293E0,6.399006E0,3.5774426E0,0E0,3.8816726E0,5.1532326E0,0E0,0E0,0E0,0E0,0E0,0E0],"parents":[2147483647,0,0,1,1,2,2,3,3,5,5,6,6],"right_children":[2,4,6,8,-1,10,12,-1,-1,-1,-1,-1,-1],"split_conditions":[3.6913544E-2,8.3333336E-2,6.451613E-2,2.0663354E-3,-3.0790603E-2,6.7826435E-2,8.4789254E-2,-1.0737325E-2,4.4568375E-2,3.6518387E-2,-2.5333308E-2,1.9038348E-3,5.3644244E-2],"split_indices":[17,12,11,0,0,9,9,0,0,0,0,0,0],"split_type":[0,0,0,0,0,0,0,0,0,0,0,0,0],"sum_hessian":[2.678961E2,1.1819818E2,1.496979E2,4.1818058E1,7.638012E1,5.2536713E1,9.71612E1,2.4684093E1,1.7133966E1,1.1099215E1,4.14375E1,4.4557446E1,5.2603756E1],"tree_param":{"num_deleted":"0","num_feature":"19","num_nodes":"13","size_leaf_vector":"1"}},{"base_weights":[2.9762366E-3,-3.4318905E-2,5.5581365E-2,-4.9892813E-2,4.2047123E-3,1.3274215E-2,-1.2486051E-2],"categories":[],"categories_nodes":[],"categories_segments":[],"categories_sizes":[],"default_left":[0,0,0,0,0,0,0],"id":11,"left_children":[1,3,-1,-1,5,-1,-1],"loss_changes":[6.8671117E0,5.6813254E0,0E0,0E0,3.877469E0,0E0,0E0],"parents":[2147483647,0,0,1,1,4,4],"right_children":[2,4,-1,-1,6,-1,-1],"split_conditions":[1.6234353E-1,2.9572342E-2,5.5581365E-2,-4.9892813E-2,7.6116234E-2,1.3274215E-2,-1.2486051E-2],"split_indices":[18,9,0,0,9,0,0],"split_type":[0,0,0,0,0,0,0],"sum_hessian":[2.7318222E2,2.523248E2,2.085741E1,2.3540636E1,2.2878416E2,1.2327729E2,1.05506874E2],"tree_param":{"num_deleted":"0","num_feature":"19","num_nodes":"7","size_leaf_vector":"1"}},{"base_weights":[5.926959E-3,-2.4334423E-1,1.7336652E-1,-4.3317866E-2,-0E0,2.6294845E-1,-4.7399726E-2,1.3754012E-2,7.179887E-2],"categories":[],"categories_nodes":[],"categories_segments":[],"categories_sizes":[],"default_left":[0,0,0,0,0,0,0,0,0],"id":12,"left_children":[1,3,5,-1,-1,7,-1,-1,-1],"loss_changes":[1.1284915E1,4.9087014E0,9.407534E0,0E0,0E0,6.755246E0,0E0,0E0,0E0],"parents":[2147483647,0,0,1,1,2,2,5,5],"right_children":[2,4,6,-1,-1,8,-1,-1,-1],"split_conditions":[3.3514436E-2,-2.8598151E-8,9.791078E-2,-4.3317866E-2,-0E0,5.140213E-1,-4.7399726E-2,1.3754012E-2,7.179887E-2],"split_indices":[17,0,16,0,0,3,0,0,0],"split_type":[0,0,0,0,0,0,0,0,0],"sum_hessian":[2.7399924E2,1.0467189E2,1.6932736E2,5.819494E1,4.647695E1,1.5193471E2,1.7392654E1,1.23592E2,2.83427E1],"tree_param":{"num_deleted":"0","num_feature":"19","num_nodes":"9","size_leaf_vector":"1"}},{"base_weights":[-1.356668E-2,-9.985636E-2,3.965451E-1,5.2454628E-2,-1.5741085E-1,-0E0,5.920954E-1,-2.5267465E-2,5.5820164E-3,9.897404E-2,6.1286986E-3],"categories":[],"categories_nodes":[],"categories_segments":[],"categories_sizes":[],"default_left":[0,0,0,0,0,0,0,0,0,0,0],"id":13,"left_children":[1,3,5,-1,7,-1,9,-1,-1,-1,-1],"loss_changes":[9.031929E0,7.527144E0,4.019184E0,0E0,4.91815E0,0E0,4.232148E0,0E0,0E0,0E0,0E0],"parents":[2147483647,0,0,1,1,2,2,4,4,6,6],"right_children":[2,4,6,-1,8,-1,10,-1,-1,-1,-1],"split_conditions":[4.4515622E-1,-3.239935E0,7.14356E-2,5.2454628E-2,1.8518358E-2,-0E0,5.9671033E-2,-2.5267465E-2,5.5820164E-3,9.897404E-2,6.1286986E-3],"split_indices":[3,6,9,0,10,0,15,0,0,0,0],"split_type":[0,0,0,0,0,0,0,0,0,0,0],"sum_hessian":[2.7395895E2,2.3092693E2,4.303203E1,1.6030134E1,2.148968E2,1.2308887E1,3.072314E1,1.5489835E2,5.9998447E1,1.4960351E1,1.576279E1],"tree_param":{"num_deleted":"0","num_feature":"19","num_nodes":"11","size_leaf_vector":"1"}},{"base_weights":[-0E0,-1.1003969E-1,2.903832E-1,2.765525E-2,-1.7932154E-2,-0E0,5.4319084E-1,7.738065E-2,-0E0],"categories":[],"categories_nodes":[],"categories_segments":[],"categories_sizes":[],"default_left":[0,0,0,0,0,0,0,0,0],"id":14,"left_children":[1,3,5,-1,-1,-1,7,-1,-1],"loss_changes":[8.846597E0,4.9874E0,5.2842054E0,0E0,0E0,0E0,3.9171734E0,0E0,0E0],"parents":[2147483647,0,0,1,1,2,2,6,6],"right_children":[2,4,6,-1,-1,-1,8,-1,-1],"split_conditions":[2.2884332E-1,-9.676188E-2,8.00273E-2,2.765525E-2,-1.7932154E-2,-0E0,1.6723613E-1,7.738065E-2,-0E0],"split_indices":[3,2,9,0,0,0,9,0,0],"split_type":[0,0,0,0,0,0,0,0,0],"sum_hessian":[2.668304E2,1.891705E2,7.765992E1,2.4173494E1,1.6499701E2,3.7612442E1,4.0047474E1,2.5817112E1,1.4230362E1],"tree_param":{"num_deleted":"0","num_feature":"19","num_nodes":"9","size_leaf_vector":"1"}},{"base_weights":[-6.8523344E-3,-1.641479E-2,1.219386E-1,2.1445161E-1,-4.1437868E-2,7.457075E-2,1.2622175E-2],"categories":[],"categories_nodes":[],"categories_segments":[],"categories_sizes":[],"default_left":[0,0,0,0,0,0,0],"id":15,"left_children":[1,-1,3,5,-1,-1,-1],"loss_changes":[5.5957456E0,0E0,6.572148E0,3.8074856E0,0E0,0E0,0E0],"parents":[2147483647,0,0,2,2,3,3],"right_children":[2,-1,4,6,-1,-1,-1],"split_conditions":[3.740508E-2,-1.641479E-2,9.791078E-2,-9.558188E-2,-4.1437868E-2,7.457075E-2,1.2622175E-2],"split_indices":[17,0,16,2,0,0,0],"split_type":[0,0,0,0,0,0,0],"sum_hessian":[2.689564E2,1.2835585E2,1.4060054E2,1.2363119E2,1.6969345E1,1.3572621E1,1.1005857E2],"tree_param":{"num_deleted":"0","num_feature":"19","num_nodes":"7","size_leaf_vector":"1"}}]},"name":"gbtree"},"learner_model_param":{"base_score":"[5E-1]","boost_from_average":"1","num_class":"0","num_feature":"19","num_target":"1"},"objective":{"name":"binary:logistic","reg_loss_param":{"scale_pos_weight":"0.262672812"}}},"version":[3,2,0]}