{"learner":{"attributes":{"scikit_learn":"{\"_estimator_type\": \"classifier\"}"},"feature_names":["bias_week","bias_month","bias_quarter","bias_year","rsi","macd","macd_signal","vol_change","close_change","bb_width","return_5d","k_upper","k_lower","k_body","buy_power","rs_5d","obv","atr_ratio","trend_strength"],"feature_types":["float","float","float","float","float","float","float","float","float","float","float","float","float","float","float","float","float","float","float"],"gradient_booster":{"model":{"gbtree_model_param":{"num_parallel_tree":"1","num_trees":"100"},"iteration_indptr":[0,1,2,3,4,5,6,7,8,9,10,11,12,13,14,15,16,17,18,19,20,21,22,23,24,25,26,27,28,29,30,31,32,33,34,35,36,37,38,39,40,41,42,43,44,45,46,47,48,49,50,51,52,53,54,55,56,57,58,59,60,61,62,63,64,65,66,67,68,69,70,71,72,73,74,75,76,77,78,79,80,81,82,83,84,85,86,87,88,89,90,91,92,93,94,95,96,97,98,99,100],"tree_info":[0,0,0,0,0,0,0,0,0,0,0,0,0,0,0,0,0,0,0,0,0,0,0,0,0,0,0,0,0,0,0,0,0,0,0,0,0,0,0,0,0,0,0,0,0,0,0,0,0,0,0,0,0,0,0,0,0,0,0,0,0,0,0,0,0,0,0,0,0,0,0,0,0,0,0,0,0,0,0,0,0,0,0,0,0,0,0,0,0,0,0,0,0,0,0,0,0,0,0,0],"trees":[{"base_weights":[9.898536E-3,1.3085212E-1,-4.9689186E-1,2.4464417E-1,-2.1207415E-1,-3.6347502E-1,-1.3870348E0,-6.4287774E-2,3.0811103E-2,-4.7846142E-2,2.5575645E-2,8.867545E-3,-5.6173317E-2,-0E0,-1.6646743E-1],"categories":[],"categories_nodes":[],"categories_segments":[],"categories_sizes":[],"default_left":[0,0,0,0,0,0,0,0,0,0,0,0,0,0,0],"id":0,"left_children":[1,3,5,7,9,11,13,-1,-1,-1,-1,-1,-1,-1,-1],"loss_changes":[4.497044E1,2.3792316E1,1.2288124E1,2.654633E1,1.9239988E1,1.2638506E1,4.441292E0,0E0,0E0,0E0,0E0,0E0,0E0,0E0,0E0],"parents":[2147483647,0,0,1,1,2,2,3,3,4,4,5,5,6,6],"right_children":[2,4,6,8,10,12,14,-1,-1,-1,-1,-1,-1,-1,-1],"split_conditions":[9.597626E-2,1.3978678E-1,6.5156883E-1,-2.980288E-1,1.7858514E-1,-2.0522427E-2,5.882247E-2,-6.4287774E-2,3.0811103E-2,-4.7846142E-2,2.5575645E-2,8.867545E-3,-5.6173317E-2,-0E0,-1.6646743E-1],"split_indices":[18,3,7,4,4,8,14,0,0,0,0,0,0,0,0],"split_type":[0,0,0,0,0,0,0,0,0,0,0,0,0,0,0],"sum_hessian":[7.453203E2,6.058201E2,1.3950021E2,4.6000104E2,1.4581906E2,1.2457589E2,1.4924317E1,2.8770678E1,4.3123035E2,9.560794E1,5.0211124E1,3.5240902E1,8.933499E1,3.4243176E0,1.15E1],"tree_param":{"num_deleted":"0","num_feature":"19","num_nodes":"15","size_leaf_vector":"1"}},{"base_weights":[4.024571E-3,9.5737584E-2,-7.9872274E-1,7.4004495E-1,3.6151E-2,-9.592239E-1,3.303071E-1,-0E0,9.019755E-2,-6.2444467E-2,1.0423485E-2,2.0468332E-2,-1.0657447E-1,1.0299369E-1,-3.9692484E-3],"categories":[],"categories_nodes":[],"categories_segments":[],"categories_sizes":[],"default_left":[0,0,0,0,0,0,0,0,0,0,0,0,0,0,0],"id":1,"left_children":[1,3,5,7,9,11,13,-1,-1,-1,-1,-1,-1,-1,-1],"loss_changes":[5.332101E1,2.4018637E1,1.5091301E1,8.505659E0,2.7275108E1,1.1099266E1,4.409114E0,0E0,0E0,0E0,0E0,0E0,0E0,0E0,0E0],"parents":[2147483647,0,0,1,1,2,2,3,3,4,4,5,5,6,6],"right_children":[2,4,6,8,10,12,14,-1,-1,-1,-1,-1,-1,-1,-1],"split_conditions":[1.5508397E-1,-3.5132408E0,3.149403E-1,-6.0170903E0,-2.2879013E-1,-2.907429E-1,6.2240543E0,-0E0,9.019755E-2,-6.2444467E-2,1.0423485E-2,2.0468332E-2,-1.0657447E-1,1.0299369E-1,-3.9692484E-3],"split_indices":[9,6,9,6,4,2,6,0,0,0,0,0,0,0,0],"split_type":[0,0,0,0,0,0,0,0,0,0,0,0,0,0,0],"sum_hessian":[7.44019E2,6.7093365E2,7.308533E1,5.2759724E1,6.1817395E2,6.585066E1,7.2346654E0,7.812166E0,4.4947556E1,5.4276768E1,5.6389716E2,4.0972624E0,6.17534E1,4.0413013E0,3.193364E0],"tree_param":{"num_deleted":"0","num_feature":"19","num_nodes":"15","size_leaf_vector":"1"}},{"base_weights":[1.2556522E-2,7.600119E-2,-6.362235E-1,5.0613153E-1,5.724243E-3,-1.0342835E0,5.1525313E-2,-1.748125E-2,8.650203E-2,-9.35237E-3,3.061936E-2,-5.3560182E-2,-1.644898E-1,-5.4315303E-2,6.6995986E-2],"categories":[],"categories_nodes":[],"categories_segments":[],"categories_sizes":[],"default_left":[0,0,0,0,0,0,0,0,0,0,0,0,0,0,0],"id":2,"left_children":[1,3,5,7,9,11,13,-1,-1,-1,-1,-1,-1,-1,-1],"loss_changes":[2.9145285E1,1.9276567E1,1.9411398E1,2.4273472E1,1.827329E1,7.163067E0,8.720765E0,0E0,0E0,0E0,0E0,0E0,0E0,0E0,0E0],"parents":[2147483647,0,0,1,1,2,2,3,3,4,4,5,5,6,6],"right_children":[2,4,6,8,10,12,14,-1,-1,-1,-1,-1,-1,-1,-1],"split_conditions":[4.9284767E-2,-2.0762073E-1,1.1210898E-1,-6.405566E-2,6.444813E-2,7.461945E-2,4.1371286E-1,-1.748125E-2,8.650203E-2,-9.35237E-3,3.061936E-2,-5.3560182E-2,-1.644898E-1,-5.4315303E-2,6.6995986E-2],"split_indices":[15,3,16,1,2,15,4,0,0,0,0,0,0,0,0],"split_type":[0,0,0,0,0,0,0,0,0,0,0,0,0,0,0],"sum_hessian":[7.368779E2,6.7509625E2,6.17817E1,8.9553604E1,5.855426E2,4.0933453E1,2.0848246E1,2.9262579E1,6.0291027E1,4.3507373E2,1.5046889E2,2.5750984E1,1.518247E1,8.845583E0,1.2002662E1],"tree_param":{"num_deleted":"0","num_feature":"19","num_nodes":"15","size_leaf_vector":"1"}},{"base_weights":[-3.978001E-2,8.512438E-2,-2.0315456E-1,2.1166103E-1,-3.765476E-1,1.682997E-1,-3.279038E-1,1.1477866E-2,8.144071E-2,1.08189225E-1,-5.999421E-2,-8.328492E-3,1.2627287E-1,-7.916811E-2,-2.3503298E-2],"categories":[],"categories_nodes":[],"categories_segments":[],"categories_sizes":[],"default_left":[0,0,0,0,0,0,0,0,0,0,0,0,0,0,0],"id":3,"left_children":[1,3,5,7,9,11,13,-1,-1,-1,-1,-1,-1,-1,-1],"loss_changes":[1.5365622E1,2.3748987E1,1.562319E1,1.6956524E1,2.7952118E1,2.4668251E1,8.224361E0,0E0,0E0,0E0,0E0,0E0,0E0,0E0,0E0],"parents":[2147483647,0,0,1,1,2,2,3,3,4,4,5,5,6,6],"right_children":[2,4,6,8,10,12,14,-1,-1,-1,-1,-1,-1,-1,-1],"split_conditions":[5.546352E-2,1.4331365E-1,-3.2859292E0,6.145951E-2,-1.9089712E-2,-9.954398E-2,-1.8570008E0,1.1477866E-2,8.144071E-2,1.08189225E-1,-5.999421E-2,-8.328492E-3,1.2627287E-1,-7.916811E-2,-2.3503298E-2],"split_indices":[18,3,6,2,2,4,6,0,0,0,0,0,0,0,0],"split_type":[0,0,0,0,0,0,0,0,0,0,0,0,0,0,0],"sum_hessian":[7.383544E2,4.108566E2,3.2749774E2,3.266717E2,8.41849E1,7.7716156E1,2.497816E2,2.8630914E2,4.0362556E1,9.564389E0,7.462051E1,6.2255135E1,1.546102E1,3.5391727E1,2.1438988E2],"tree_param":{"num_deleted":"0","num_feature":"19","num_nodes":"15","size_leaf_vector":"1"}},{"base_weights":[6.374215E-2,1.3201106E-1,-6.179544E-1,2.3311998E-1,-1.6802762E-1,-7.807395E-1,4.312666E-2,3.4205522E-2,-1.3307234E-2,-9.8200835E-2,1.30038075E-2,-4.551901E-2,-1.5535043E-1],"categories":[],"categories_nodes":[],"categories_segments":[],"categories_sizes":[],"default_left":[0,0,0,0,0,0,0,0,0,0,0,0,0],"id":4,"left_children":[1,3,5,7,9,11,-1,-1,-1,-1,-1,-1,-1],"loss_changes":[3.4371002E1,2.1266228E1,1.2448004E1,2.2085903E1,4.385854E1,9.893696E0,0E0,0E0,0E0,0E0,0E0,0E0,0E0],"parents":[2147483647,0,0,1,1,2,2,3,3,4,4,5,5],"right_children":[2,4,6,8,10,12,-1,-1,-1,-1,-1,-1,-1],"split_conditions":[1.5705541E-1,1.3978678E-1,3.149403E-1,4.706278E-2,5.500517E-2,7.813519E-2,4.312666E-2,3.4205522E-2,-1.3307234E-2,-9.8200835E-2,1.30038075E-2,-4.551901E-2,-1.5535043E-1],"split_indices":[9,3,9,17,9,17,0,0,0,0,0,0,0],"split_type":[0,0,0,0,0,0,0,0,0,0,0,0,0],"sum_hessian":[7.5971356E2,6.941956E2,6.551797E1,5.2498816E2,1.6920743E2,5.879119E1,6.7267747E0,4.0730792E2,1.1768022E2,4.6628345E1,1.2257909E2,4.470481E1,1.4086381E1],"tree_param":{"num_deleted":"0","num_feature":"19","num_nodes":"13","size_leaf_vector":"1"}},{"base_weights":[-1.890751E-2,-5.1670307E-1,3.036326E-2,-7.0706934E-1,1.509074E-2,1.4774145E-1,-2.6595828E-1,-9.36398E-2,-0E0,2.4790328E-2,-2.7560484E-2,-4.0704552E-2,4.017738E-3],"categories":[],"categories_nodes":[],"categories_segments":[],"categories_sizes":[],"default_left":[0,0,0,0,0,0,0,0,0,0,0,0,0],"id":5,"left_children":[1,3,5,7,-1,9,11,-1,-1,-1,-1,-1,-1],"loss_changes":[1.935371E1,1.0404257E1,2.3193907E1,9.999062E0,0E0,2.1232416E1,9.075543E0,0E0,0E0,0E0,0E0,0E0,0E0],"parents":[2147483647,0,0,1,1,2,2,3,3,5,5,6,6],"right_children":[2,4,6,8,-1,10,12,-1,-1,-1,-1,-1,-1],"split_conditions":[-2.7845418E-1,1.8274894E-1,1.62609E-2,-2.1123372E-3,1.509074E-2,1.3978678E-1,2.7578013E-2,-9.36398E-2,-0E0,2.4790328E-2,-2.7560484E-2,-4.0704552E-2,4.017738E-3],"split_indices":[4,18,16,16,0,3,0,0,0,0,0,0,0],"split_type":[0,0,0,0,0,0,0,0,0,0,0,0,0],"sum_hessian":[7.429667E2,7.029839E1,6.726683E2,5.7308388E1,1.2990001E1,4.8757285E2,1.8509544E2,4.299793E1,1.4310462E1,3.977448E2,8.982802E1,1.3062411E2,5.4471333E1],"tree_param":{"num_deleted":"0","num_feature":"19","num_nodes":"13","size_leaf_vector":"1"}},{"base_weights":[-0E0,-2.7112576E-1,9.1624245E-2,-8.652934E-1,-1.6573104E-1,1.5218017E-1,-4.650673E-1,-1.2383374E-1,1.017649E-2,1.1377961E-3,-4.6112254E-2,1.0678984E-2,8.947896E-2,-7.980991E-2,2.2632644E-2],"categories":[],"categories_nodes":[],"categories_segments":[],"categories_sizes":[],"default_left":[0,0,0,0,0,0,0,0,0,0,0,0,0,0,0],"id":6,"left_children":[1,3,5,7,9,11,13,-1,-1,-1,-1,-1,-1,-1,-1],"loss_changes":[1.886379E1,9.619165E0,1.822316E1,1.2185911E1,9.928926E0,1.4637642E1,1.3569708E1,0E0,0E0,0E0,0E0,0E0,0E0,0E0,0E0],"parents":[2147483647,0,0,1,1,2,2,3,3,4,4,5,5,6,6],"right_children":[2,4,6,8,10,12,14,-1,-1,-1,-1,-1,-1,-1,-1],"split_conditions":[-3.2575035E-1,-3.5619587E-2,1.5705541E-1,1.4482583E-1,4.0000156E-1,3.2547915E0,7.431568E-2,-1.2383374E-1,1.017649E-2,1.1377961E-3,-4.6112254E-2,1.0678984E-2,8.947896E-2,-7.980991E-2,2.2632644E-2],"split_indices":[7,15,9,18,14,6,16,0,0,0,0,0,0,0,0],"split_type":[0,0,0,0,0,0,0,0,0,0,0,0,0,0,0],"sum_hessian":[7.506601E2,1.9183772E2,5.588223E2,2.4742287E1,1.6709543E2,5.0821603E2,5.0606308E1,1.9216797E1,5.52549E0,1.00718956E2,6.637648E1,4.834962E2,2.4719868E1,3.6061012E1,1.4545294E1],"tree_param":{"num_deleted":"0","num_feature":"19","num_nodes":"15","size_leaf_vector":"1"}},{"base_weights":[-2.3472378E-2,1.984853E-2,-6.570619E-1,-1.3701281E-1,3.5020463E-2,-1.1803939E0,-2.8286057E-2,-1.418614E-2,1.2625534E-2,-0E0,-1.325994E-1,9.801758E-3,-1.01924695E-1],"categories":[],"categories_nodes":[],"categories_segments":[],"categories_sizes":[],"default_left":[0,0,0,0,0,0,0,0,0,0,0,0,0],"id":7,"left_children":[1,3,5,-1,7,9,11,-1,-1,-1,-1,-1,-1],"loss_changes":[2.1813429E1,1.1716149E1,1.3975895E1,0E0,1.1263453E1,3.733101E0,5.474642E0,0E0,0E0,0E0,0E0,0E0,0E0],"parents":[2147483647,0,0,1,1,2,2,4,4,5,5,6,6],"right_children":[2,4,6,-1,8,10,12,-1,-1,-1,-1,-1,-1],"split_conditions":[5.4949716E-2,1.8508505E-2,6.296936E-2,-1.3701281E-1,-1.8442797E-2,4.047406E-2,7.6851934E-2,-1.418614E-2,1.2625534E-2,-0E0,-1.325994E-1,9.801758E-3,-1.01924695E-1],"split_indices":[15,17,16,0,15,17,17,0,0,0,0,0,0],"split_type":[0,0,0,0,0,0,0,0,0,0,0,0,0],"sum_hessian":[7.4111597E2,6.9113745E2,4.9978497E1,4.9803867E0,6.861571E2,2.4906523E1,2.5071976E1,2.2569948E2,4.604576E2,3.584491E0,2.1322033E1,2.093051E1,4.141466E0],"tree_param":{"num_deleted":"0","num_feature":"19","num_nodes":"13","size_leaf_vector":"1"}},{"base_weights":[2.196991E-3,1.8307701E-1,-2.107154E-1,3.049053E-1,-2.697481E-1,-2.6128057E-1,3.8331375E-1,-7.7754095E-2,3.5065424E-2,-8.669552E-2,4.1387863E-2,-1.8584095E-2,-8.894048E-2,7.472663E-2,-0E0],"categories":[],"categories_nodes":[],"categories_segments":[],"categories_sizes":[],"default_left":[0,0,0,0,0,0,0,0,0,0,0,0,0,0,0],"id":8,"left_children":[1,3,5,7,9,11,13,-1,-1,-1,-1,-1,-1,-1,-1],"loss_changes":[2.9023027E1,2.2992283E1,1.0059355E1,1.6753094E1,3.6340286E1,1.2369356E1,4.3319707E0,0E0,0E0,0E0,0E0,0E0,0E0,0E0,0E0],"parents":[2147483647,0,0,1,1,2,2,3,3,4,4,5,5,6,6],"right_children":[2,4,6,8,10,12,14,-1,-1,-1,-1,-1,-1,-1,-1],"split_conditions":[5.2513022E-2,1.4331365E-1,4.7858838E-2,-3.4188084E-2,6.1121225E-2,6.766621E-2,1.2315129E-1,-7.7754095E-2,3.5065424E-2,-8.669552E-2,4.1387863E-2,-1.8584095E-2,-8.894048E-2,7.472663E-2,-0E0],"split_indices":[18,3,8,8,9,15,9,0,0,0,0,0,0,0,0],"split_type":[0,0,0,0,0,0,0,0,0,0,0,0,0,0,0],"sum_hessian":[7.535094E2,4.131916E2,3.4031778E2,3.2973895E2,8.345264E1,3.1756433E2,2.2753435E1,1.1544088E1,3.181949E2,4.6022243E1,3.7430393E1,2.8863614E2,2.8928204E1,1.2886467E1,9.866968E0],"tree_param":{"num_deleted":"0","num_feature":"19","num_nodes":"15","size_leaf_vector":"1"}},{"base_weights":[-2.1330833E-2,4.2918834E-1,-8.664664E-2,-5.914888E-1,6.2791073E-1,-4.533436E-1,-3.2117475E-2,8.6076325E-3,-1.1211725E-1,8.69503E-2,-2.7826216E-2,-1.3061781E-1,-2.1205012E-2,3.0309139E-2,-1.154939E-2],"categories":[],"categories_nodes":[],"categories_segments":[],"categories_sizes":[],"default_left":[0,0,0,0,0,0,0,0,0,0,0,0,0,0,0],"id":9,"left_children":[1,3,5,7,9,11,13,-1,-1,-1,-1,-1,-1,-1,-1],"loss_changes":[2.0698492E1,1.8256866E1,1.1718169E1,7.165476E0,1.8707539E1,1.2360988E1,1.5678049E1,0E0,0E0,0E0,0E0,0E0,0E0,0E0,0E0],"parents":[2147483647,0,0,1,1,2,2,3,3,4,4,5,5,6,6],"right_children":[2,4,6,8,10,12,14,-1,-1,-1,-1,-1,-1,-1,-1],"split_conditions":[-2.2852203E-1,-9.801497E-2,-3.6562078E-2,-5.2252734E-1,1.5508397E-1,5.3133875E-2,-1.8810785E-3,8.6076325E-3,-1.1211725E-1,8.69503E-2,-2.7826216E-2,-1.3061781E-1,-2.1205012E-2,3.0309139E-2,-1.154939E-2],"split_indices":[3,10,15,4,9,9,16,0,0,0,0,0,0,0,0],"split_type":[0,0,0,0,0,0,0,0,0,0,0,0,0,0,0],"sum_hessian":[7.2769946E2,8.716341E1,6.405361E2,1.2078127E1,7.508528E1,7.675074E1,5.637853E2,3.814432E0,8.263695E0,6.0924335E1,1.4160946E1,1.3785446E1,6.2965294E1,1.0684923E2,4.5693607E2],"tree_param":{"num_deleted":"0","num_feature":"19","num_nodes":"15","size_leaf_vector":"1"}},{"base_weights":[-1.2811837E-2,7.425305E-2,-3.3781907E-1,8.634963E-1,1.1852274E-2,-4.4225585E-1,2.7825153E-1,1.0811872E-1,-4.9319044E-2,-5.422793E-2,8.086275E-3,5.3960968E-2,-5.291489E-2,8.321643E-2,-7.9203516E-2],"categories":[],"categories_nodes":[],"categories_segments":[],"categories_sizes":[],"default_left":[0,0,0,0,0,0,0,0,0,0,0,0,0,0,0],"id":10,"left_children":[1,3,5,7,9,11,13,-1,-1,-1,-1,-1,-1,-1,-1],"loss_changes":[2.1288755E1,2.6161362E1,1.0769501E1,1.3883537E1,1.9731157E1,1.2836317E1,1.309736E1,0E0,0E0,0E0,0E0,0E0,0E0,0E0,0E0],"parents":[2147483647,0,0,1,1,2,2,3,3,4,4,5,5,6,6],"right_children":[2,4,6,8,10,12,14,-1,-1,-1,-1,-1,-1,-1,-1],"split_conditions":[1.086234E-1,-2.6663318E-1,1.03669584E-1,6.592803E-2,1.632046E-2,5.4354187E-2,7.6851934E-2,1.0811872E-1,-4.9319044E-2,-5.422793E-2,8.086275E-3,5.3960968E-2,-5.291489E-2,8.321643E-2,-7.9203516E-2],"split_indices":[9,3,16,17,18,18,17,0,0,0,0,0,0,0,0],"split_type":[0,0,0,0,0,0,0,0,0,0,0,0,0,0,0],"sum_hessian":[7.2971375E2,5.705895E2,1.5912425E2,3.8349102E1,5.3224036E2,1.3939647E2,1.972778E1,3.4445946E1,3.9031563E0,5.4780533E1,4.7745984E2,9.339706E0,1.3005676E2,1.4475064E1,5.2527156E0],"tree_param":{"num_deleted":"0","num_feature":"19","num_nodes":"15","size_leaf_vector":"1"}},{"base_weights":[-1.9297108E-2,5.5477493E-2,-2.4701369E-1,2.0672129E-1,-1.844624E-1,-6.534566E-1,5.2566394E-2,3.3844225E-2,-3.0307744E-2,-1.230495E-2,-1.323402E-1,-8.495918E-2,8.020265E-2,3.0025944E-2,-5.184519E-2],"categories":[],"categories_nodes":[],"categories_segments":[],"categories_sizes":[],"default_left":[0,0,0,0,0,0,0,0,0,0,0,0,0,0,0],"id":11,"left_children":[1,3,5,7,9,11,13,-1,-1,-1,-1,-1,-1,-1,-1],"loss_changes":[1.2918448E1,1.9852776E1,2.436265E1,2.3608551E1,1.0831587E1,2.5434937E1,1.4925455E1,0E0,0E0,0E0,0E0,0E0,0E0,0E0,0E0],"parents":[2147483647,0,0,1,1,2,2,3,3,4,4,5,5,6,6],"right_children":[2,4,6,8,10,12,14,-1,-1,-1,-1,-1,-1,-1,-1],"split_conditions":[1.3978678E-1,1.9395417E-3,1.0356866E-2,8.637933E-2,7.50885E-2,1.4351727E-1,6.299184E-2,3.3844225E-2,-3.0307744E-2,-1.230495E-2,-1.323402E-1,-8.495918E-2,8.020265E-2,3.0025944E-2,-5.184519E-2],"split_indices":[3,15,15,18,17,2,17,0,0,0,0,0,0,0,0],"split_type":[0,0,0,0,0,0,0,0,0,0,0,0,0,0,0],"sum_hessian":[7.317684E2,5.439162E2,1.8785219E2,3.3945776E2,2.0445842E2,8.247048E1,1.0538171E2,2.7259738E2,6.686039E1,1.970202E2,7.438203E0,7.408358E1,8.386898E0,7.646187E1,2.8919842E1],"tree_param":{"num_deleted":"0","num_feature":"19","num_nodes":"15","size_leaf_vector":"1"}},{"base_weights":[-1.4810129E-2,1.846719E-2,-3.9722323E-1,4.5920733E-1,-1.5631095E-2,-6.648296E-1,3.007915E-1,-0E0,8.812872E-2,-2.406308E-2,5.888861E-3,-3.3210018E-3,-1.2997131E-1,1.194751E-1,-0E0],"categories":[],"categories_nodes":[],"categories_segments":[],"categories_sizes":[],"default_left":[0,0,0,0,0,0,0,0,0,0,0,0,0,0,0],"id":12,"left_children":[1,3,5,7,9,11,13,-1,-1,-1,-1,-1,-1,-1,-1],"loss_changes":[1.0259448E1,1.1148584E1,1.3058032E1,1.2453585E1,1.1019948E1,1.7017323E1,4.7741356E0,0E0,0E0,0E0,0E0,0E0,0E0,0E0,0E0],"parents":[2147483647,0,0,1,1,2,2,3,3,4,4,5,5,6,6],"right_children":[2,4,6,8,10,12,14,-1,-1,-1,-1,-1,-1,-1,-1],"split_conditions":[1.5705541E-1,-1.19895674E-1,9.5947556E-2,-3.5001219E-3,-1.8683849E-2,-4.804062E-2,2.4467625E-1,-0E0,8.812872E-2,-2.406308E-2,5.888861E-3,-3.3210018E-3,-1.2997131E-1,1.194751E-1,-0E0],"split_indices":[9,2,16,16,15,2,4,0,0,0,0,0,0,0,0],"split_type":[0,0,0,0,0,0,0,0,0,0,0,0,0,0,0],"sum_hessian":[7.377395E2,6.7401276E2,6.3726727E1,5.2376812E1,6.21636E2,4.8430294E1,1.5296432E1,2.3235645E1,2.9141169E1,1.6139015E2,4.6024582E2,2.6705387E1,2.1724905E1,3.4366567E0,1.1859775E1],"tree_param":{"num_deleted":"0","num_feature":"19","num_nodes":"15","size_leaf_vector":"1"}},{"base_weights":[-2.0021131E-2,2.6991976E-2,-3.7015033E-1,-1.8752691E-1,1.4684558E-1,-0E0,-8.285114E-1,2.7674476E-2,-3.2848943E-2,-1.7040878E-3,3.1453196E-2,-1.983291E-2,6.810009E-2,-9.653047E-2,1.8226422E-2],"categories":[],"categories_nodes":[],"categories_segments":[],"categories_sizes":[],"default_left":[0,0,0,0,0,0,0,0,0,0,0,0,0,0,0],"id":13,"left_children":[1,3,5,7,9,11,13,-1,-1,-1,-1,-1,-1,-1,-1],"loss_changes":[1.2990554E1,1.6618237E1,1.6718208E1,1.5355907E1,1.2507778E1,7.6677275E0,8.230349E0,0E0,0E0,0E0,0E0,0E0,0E0,0E0,0E0],"parents":[2147483647,0,0,1,1,2,2,3,3,4,4,5,5,6,6],"right_children":[2,4,6,8,10,12,14,-1,-1,-1,-1,-1,-1,-1,-1],"split_conditions":[3.74763E-2,-1.805908E-2,5.4240666E-2,-2.2852203E-1,3.9343357E-2,2.773198E-1,6.2232137E-1,2.7674476E-2,-3.2848943E-2,-1.7040878E-3,3.1453196E-2,-1.983291E-2,6.810009E-2,-9.653047E-2,1.8226422E-2],"split_indices":[15,15,17,3,17,3,4,0,0,0,0,0,0,0,0],"split_type":[0,0,0,0,0,0,0,0,0,0,0,0,0,0,0],"sum_hessian":[7.408019E2,6.4813184E2,9.2670044E1,2.254015E2,4.2273032E2,5.0508236E1,4.2161804E1,4.9169453E1,1.7623206E2,2.0893512E2,2.137952E2,3.8433388E1,1.2074848E1,3.8870556E1,3.291251E0],"tree_param":{"num_deleted":"0","num_feature":"19","num_nodes":"15","size_leaf_vector":"1"}},{"base_weights":[7.5189727E-3,-1.3483292E-1,2.5371764E-2,2.1925928E-1,-6.890955E-2,4.0126223E-2,-2.052164E-2,-4.856959E-2,-4.406668E-4],"categories":[],"categories_nodes":[],"categories_segments":[],"categories_sizes":[],"default_left":[0,0,0,0,0,0,0,0,0],"id":14,"left_children":[1,-1,3,5,7,-1,-1,-1,-1],"loss_changes":[1.49621315E1,0E0,1.3663959E1,1.9958595E1,1.1978669E1,0E0,0E0,0E0,0E0],"parents":[2147483647,0,0,2,2,3,3,4,4],"right_children":[2,-1,4,6,8,-1,-1,-1,-1],"split_conditions":[-9.860182E-2,-1.3483292E-1,8.450682E-2,2.4452545E-2,-3.7571948E-2,4.0126223E-2,-2.052164E-2,-4.856959E-2,-4.406668E-4],"split_indices":[16,0,12,1,15,0,0,0,0],"split_type":[0,0,0,0,0,0,0,0,0],"sum_hessian":[7.3436945E2,7.005133E0,7.273643E2,2.4542407E2,4.8194022E2,1.7478114E2,7.064293E1,5.8635494E1,4.2330475E2],"tree_param":{"num_deleted":"0","num_feature":"19","num_nodes":"9","size_leaf_vector":"1"}},{"base_weights":[1.9301288E-2,-1.0517074E-1,3.507561E-2,1.3457842E-1,-7.4771956E-2,3.8865946E-2,-1.5538262E-3,2.4858931E-2,-1.6809015E-2],"categories":[],"categories_nodes":[],"categories_segments":[],"categories_sizes":[],"default_left":[0,0,0,0,0,0,0,0,0],"id":15,"left_children":[1,-1,3,5,7,-1,-1,-1,-1],"loss_changes":[1.0162729E1,0E0,8.046291E0,1.594219E1,1.0124673E1,0E0,0E0,0E0,0E0],"parents":[2147483647,0,0,2,2,3,3,4,4],"right_children":[2,-1,4,6,8,-1,-1,-1,-1],"split_conditions":[2.0054E-2,-1.0517074E-1,5.40205E-2,-1.3762037E-2,-3.5132408E0,3.8865946E-2,-1.5538262E-3,2.4858931E-2,-1.6809015E-2],"split_indices":[17,0,18,2,6,0,0,0,0],"split_type":[0,0,0,0,0,0,0,0,0],"sum_hessian":[7.297935E2,7.629837E0,7.2216364E2,3.8959134E2,3.3257233E2,1.4867603E2,2.4091531E2,6.927174E1,2.6330057E2],"tree_param":{"num_deleted":"0","num_feature":"19","num_nodes":"9","size_leaf_vector":"1"}},{"base_weights":[-3.9681764E-3,-1.3427423E-1,9.848678E-2,-2.090323E-1,3.9725354E-1,4.8428938E-1,-1.1608712E-1,1.8348276E-3,-3.770436E-2,7.724765E-2,-7.30185E-2,-1.2031548E-1,5.7865586E-2,-3.40867E-2,2.9977046E-2],"categories":[],"categories_nodes":[],"categories_segments":[],"categories_sizes":[],"default_left":[0,0,0,0,0,0,0,0,0,0,0,0,0,0,0],"id":16,"left_children":[1,3,5,7,9,11,13,-1,-1,-1,-1,-1,-1,-1,-1],"loss_changes":[9.759844E0,1.2712521E1,3.3678158E1,1.2206773E1,1.6638577E1,2.3650192E1,2.4122484E1,0E0,0E0,0E0,0E0,0E0,0E0,0E0,0E0],"parents":[2147483647,0,0,1,1,2,2,3,3,4,4,5,5,6,6],"right_children":[2,4,6,8,10,12,14,-1,-1,-1,-1,-1,-1,-1,-1],"split_conditions":[4.311391E-3,7.412636E-2,1.7165285E-2,-1.6912621E-1,1.18778095E-1,-2.1213565E-2,2.8243414E-1,1.8348276E-3,-3.770436E-2,7.724765E-2,-7.30185E-2,-1.2031548E-1,5.7865586E-2,-3.40867E-2,2.9977046E-2],"split_indices":[3,2,2,3,18,16,3,0,0,0,0,0,0,0,0],"split_type":[0,0,0,0,0,0,0,0,0,0,0,0,0,0,0],"sum_hessian":[7.232868E2,3.279388E2,3.9534796E2,2.9167966E2,3.6259167E1,1.446646E2,2.5068336E2,1.1984896E2,1.7183069E2,2.8818617E1,7.44055E0,6.1861305E0,1.3847847E2,1.6595363E2,8.472974E1],"tree_param":{"num_deleted":"0","num_feature":"19","num_nodes":"15","size_leaf_vector":"1"}},{"base_weights":[-1.7724236E-2,-9.496957E-2,1.7699978E-1,-1.7702946E-2,-5.3604925E-1,7.576786E-1,6.6667594E-2,-1.4949915E-2,2.3235694E-2,2.9398581E-2,-8.976225E-2,1.0275333E-1,-0E0,5.0732274E-2,-1.0930991E-2],"categories":[],"categories_nodes":[],"categories_segments":[],"categories_sizes":[],"default_left":[0,0,0,0,0,0,0,0,0,0,0,0,0,0,0],"id":17,"left_children":[1,3,5,7,9,11,13,-1,-1,-1,-1,-1,-1,-1,-1],"loss_changes":[1.0553861E1,1.6442478E1,1.0559965E1,1.482531E1,2.4024752E1,8.085526E0,1.4141216E1,0E0,0E0,0E0,0E0,0E0,0E0,0E0,0E0],"parents":[2147483647,0,0,1,1,2,2,3,3,4,4,5,5,6,6],"right_children":[2,4,6,8,10,12,14,-1,-1,-1,-1,-1,-1,-1,-1],"split_conditions":[6.903408E-2,1.5362757E-1,-1.8074442E-2,1.4302273E-2,-1.3168739E-2,-1.13253E-3,5.0657723E-2,-1.4949915E-2,2.3235694E-2,2.9398581E-2,-8.976225E-2,1.0275333E-1,-0E0,5.0732274E-2,-1.0930991E-2],"split_indices":[2,3,0,3,2,10,18,0,0,0,0,0,0,0,0],"split_type":[0,0,0,0,0,0,0,0,0,0,0,0,0,0,0],"sum_hessian":[7.121172E2,5.18466E2,1.9365121E2,4.4629434E2,7.217167E1,2.6849247E1,1.6680196E2,2.9817563E2,1.4811871E2,2.0334175E1,5.1837494E1,2.1500902E1,5.348345E0,5.0621143E1,1.1618082E2],"tree_param":{"num_deleted":"0","num_feature":"19","num_nodes":"15","size_leaf_vector":"1"}},{"base_weights":[-9.138501E-3,1.6996963E-1,-1.08374014E-1,-7.189682E-2,2.2035247E-1,-2.6772282E-1,4.58636E-2,-9.592449E-3,2.8705457E-2,-1.6903916E-2,-5.8916386E-2,-1.8400772E-2,1.4606001E-2],"categories":[],"categories_nodes":[],"categories_segments":[],"categories_sizes":[],"default_left":[0,0,0,0,0,0,0,0,0,0,0,0,0],"id":18,"left_children":[1,3,5,-1,7,9,11,-1,-1,-1,-1,-1,-1],"loss_changes":[1.2668456E1,1.0217005E1,1.2104561E1,0E0,5.679508E0,5.7872066E0,5.4078927E0,0E0,0E0,0E0,0E0,0E0,0E0],"parents":[2147483647,0,0,1,1,2,2,4,4,5,5,6,6],"right_children":[2,4,6,-1,8,10,12,-1,-1,-1,-1,-1,-1],"split_conditions":[8.333324E-2,1.2024565E-2,2.2222422E-1,-7.189682E-2,-2.3316176E-1,1.11266464E-1,-1.732076E-2,-9.592449E-3,2.8705457E-2,-1.6903916E-2,-5.8916386E-2,-1.8400772E-2,1.4606001E-2],"split_indices":[12,18,11,0,4,9,15,0,0,0,0,0,0],"split_type":[0,0,0,0,0,0,0,0,0,0,0,0,0],"sum_hessian":[7.188133E2,2.4795355E2,4.708597E2,1.0217179E1,2.3773637E2,2.3846983E2,2.323899E2,3.6598488E1,2.0113788E2,1.900057E2,4.8464127E1,6.3809525E1,1.6858037E2],"tree_param":{"num_deleted":"0","num_feature":"19","num_nodes":"13","size_leaf_vector":"1"}},{"base_weights":[1.9654538E-2,4.5437533E-1,-2.0201998E-2,9.511007E-1,1.7760297E-2,-7.181683E-1,1.3066776E-2,1.1251775E-1,-0E0,4.237745E-2,-3.0621193E-2,-8.579006E-2,-0E0,8.26326E-2,-8.8540284E-4],"categories":[],"categories_nodes":[],"categories_segments":[],"categories_sizes":[],"default_left":[0,0,0,0,0,0,0,0,0,0,0,0,0,0,0],"id":19,"left_children":[1,3,5,7,9,11,13,-1,-1,-1,-1,-1,-1,-1,-1],"loss_changes":[1.3638621E1,1.2139395E1,1.7038317E1,6.448656E0,5.5239086E0,5.1900463E0,1.3268832E1,0E0,0E0,0E0,0E0,0E0,0E0,0E0,0E0],"parents":[2147483647,0,0,1,1,2,2,3,3,4,4,5,5,6,6],"right_children":[2,4,6,8,10,12,14,-1,-1,-1,-1,-1,-1,-1,-1],"split_conditions":[-3.6054976E0,1.02381885E-1,-3.03008E0,2.887473E-3,1.470592E-1,1.3679746E-1,-5.2107807E-2,1.1251775E-1,-0E0,4.237745E-2,-3.0621193E-2,-8.579006E-2,-0E0,8.26326E-2,-8.8540284E-4],"split_indices":[6,18,5,15,12,18,15,0,0,0,0,0,0,0,0],"split_type":[0,0,0,0,0,0,0,0,0,0,0,0,0,0,0],"sum_hessian":[7.293419E2,6.524968E1,6.640922E2,2.7632734E1,3.7616943E1,3.248929E1,6.316029E2,2.418575E1,3.446987E0,1.9632917E1,1.7984028E1,2.9076525E1,3.4127638E0,1.8345499E1,6.1325745E2],"tree_param":{"num_deleted":"0","num_feature":"19","num_nodes":"15","size_leaf_vector":"1"}},{"base_weights":[1.6421333E-2,-2.6113632E-1,6.721813E-2,-8.3078E-2,-8.355514E-1,1.2718919E-1,-3.0764073E-1,3.363964E-2,-2.5370501E-2,-1.1050664E-1,-0E0,5.7519674E-2,8.304662E-3,3.868207E-2,-6.426518E-2],"categories":[],"categories_nodes":[],"categories_segments":[],"categories_sizes":[],"default_left":[0,0,0,0,0,0,0,0,0,0,0,0,0,0,0],"id":20,"left_children":[1,3,5,7,9,11,13,-1,-1,-1,-1,-1,-1,-1,-1],"loss_changes":[9.723656E0,8.570961E0,1.3471225E1,5.997968E0,7.0821304E0,9.023079E0,1.9784779E1,0E0,0E0,0E0,0E0,0E0,0E0,0E0,0E0],"parents":[2147483647,0,0,1,1,2,2,3,3,4,4,5,5,6,6],"right_children":[2,4,6,8,10,12,14,-1,-1,-1,-1,-1,-1,-1,-1],"split_conditions":[-3.6562078E-2,-1.3562106E-1,6.1422125E-2,3.6971666E-2,7.741935E-1,-7.772831E-3,-8.005204E-3,3.363964E-2,-2.5370501E-2,-1.1050664E-1,-0E0,5.7519674E-2,8.304662E-3,3.868207E-2,-6.426518E-2],"split_indices":[15,4,17,17,13,16,15,0,0,0,0,0,0,0,0],"split_type":[0,0,0,0,0,0,0,0,0,0,0,0,0,0,0],"sum_hessian":[7.1874E2,1.03771324E2,6.149687E2,8.296559E1,2.0805733E1,5.358292E2,7.913946E1,2.0051544E1,6.2914047E1,1.7034895E1,3.7708383E0,4.147574E1,4.943535E2,2.3728987E1,5.5410473E1],"tree_param":{"num_deleted":"0","num_feature":"19","num_nodes":"15","size_leaf_vector":"1"}},{"base_weights":[1.4226316E-2,-4.316586E-2,3.805244E-2,-4.623521E-1,5.8653105E-2,-6.688497E-2,2.5252398E-4,2.332803E-2,-0E0],"categories":[],"categories_nodes":[],"categories_segments":[],"categories_sizes":[],"default_left":[0,0,0,0,0,0,0,0,0],"id":21,"left_children":[1,-1,3,5,7,-1,-1,-1,-1],"loss_changes":[6.9370894E0,0E0,6.3189526E0,3.8217244E0,7.007904E0,0E0,0E0,0E0,0E0],"parents":[2147483647,0,0,2,2,3,3,4,4],"right_children":[2,-1,4,6,8,-1,-1,-1,-1],"split_conditions":[-6.144764E-1,-4.316586E-2,-4.638494E-2,-5.714275E-1,-1.781365E-3,-6.688497E-2,2.5252398E-4,2.332803E-2,-0E0],"split_indices":[7,0,8,13,16,0,0,0,0],"split_type":[0,0,0,0,0,0,0,0,0],"sum_hessian":[7.293417E2,3.1209583E1,6.9813214E2,2.2545792E1,6.755863E2,1.8551456E1,3.9943352E0,1.679413E2,5.0764502E2],"tree_param":{"num_deleted":"0","num_feature":"19","num_nodes":"9","size_leaf_vector":"1"}},{"base_weights":[4.1871127E-2,-5.652105E-1,7.205114E-2,-6.901388E-1,-0E0,1.6805187E-1,-9.87633E-2,-1.726483E-2,-1.1811039E-1,-1.4646773E-2,2.2636857E-2,-0E0,-4.3275703E-2],"categories":[],"categories_nodes":[],"categories_segments":[],"categories_sizes":[],"default_left":[0,0,0,0,0,0,0,0,0,0,0,0,0],"id":22,"left_children":[1,3,5,7,-1,9,11,-1,-1,-1,-1,-1,-1],"loss_changes":[1.2409976E1,3.4450474E0,1.1740266E1,4.056613E0,0E0,8.953323E0,8.292855E0,0E0,0E0,0E0,0E0,0E0,0E0],"parents":[2147483647,0,0,1,1,2,2,3,3,5,5,6,6],"right_children":[2,4,6,8,-1,10,12,-1,-1,-1,-1,-1,-1],"split_conditions":[-6.144764E-1,6.0000974E-1,2.4999921E-1,4.6684124E-2,-0E0,-2.1978603E-1,3.5916388E-1,-1.726483E-2,-1.1811039E-1,-1.4646773E-2,2.2636857E-2,-0E0,-4.3275703E-2],"split_indices":[7,12,12,18,0,4,7,0,0,0,0,0,0],"split_type":[0,0,0,0,0,0,0,0,0,0,0,0,0],"sum_hessian":[7.352403E2,3.0558247E1,7.0468207E2,2.7445395E1,3.1128526E0,4.595944E2,2.4508768E2,1.6302008E1,1.1143387E1,6.734478E1,3.922496E2,1.897691E2,5.5318573E1],"tree_param":{"num_deleted":"0","num_feature":"19","num_nodes":"13","size_leaf_vector":"1"}},{"base_weights":[4.3251187E-2,3.7583634E-1,2.3166419E-3,1.5242584E-1,9.636658E-2,1.1303085E-1,-1.381856E-1,5.5352338E-2,-4.0045087E-3,3.5344448E-2,-6.47725E-5,-2.8307773E-2,2.0411717E-2],"categories":[],"categories_nodes":[],"categories_segments":[],"categories_sizes":[],"default_left":[0,0,0,0,0,0,0,0,0,0,0,0,0],"id":23,"left_children":[1,3,5,7,-1,9,11,-1,-1,-1,-1,-1,-1],"loss_changes":[9.067359E0,7.161004E0,1.0157228E1,5.6789885E0,0E0,1.1205801E1,1.4424522E1,0E0,0E0,0E0,0E0,0E0,0E0],"parents":[2147483647,0,0,1,1,2,2,3,3,5,5,6,6],"right_children":[2,4,6,8,-1,10,12,-1,-1,-1,-1,-1,-1],"split_conditions":[-3.5132408E0,-7.509485E-2,5.1143162E-2,9.597626E-2,9.636658E-2,-2.2951983E-2,2.3737244E-1,5.5352338E-2,-4.0045087E-3,3.5344448E-2,-6.47725E-5,-2.8307773E-2,2.0411717E-2],"split_indices":[6,3,18,18,0,2,3,0,0,0,0,0,0],"split_type":[0,0,0,0,0,0,0,0,0,0,0,0,0],"sum_hessian":[7.278356E2,7.295536E1,6.548802E2,5.6595E1,1.6360357E1,3.7533502E2,2.795452E2,2.1476688E1,3.5118317E1,1.2526976E2,2.5006526E2,2.0046732E2,7.907787E1],"tree_param":{"num_deleted":"0","num_feature":"19","num_nodes":"13","size_leaf_vector":"1"}},{"base_weights":[-4.1911095E-2,2.5108794E-2,-2.5306618E-1,6.9092536E-1,-3.795289E-3,2.2359316E-1,-3.4664747E-1,1.0020105E-1,-7.239062E-2,-9.257929E-3,2.4207186E-2,5.8940683E-2,-7.092254E-2,-8.335301E-2,-3.7661658E-3],"categories":[],"categories_nodes":[],"categories_segments":[],"categories_sizes":[],"default_left":[0,0,0,0,0,0,0,0,0,0,0,0,0,0,0],"id":24,"left_children":[1,3,5,7,9,11,13,-1,-1,-1,-1,-1,-1,-1,-1],"loss_changes":[1.0887232E1,1.2112886E1,8.582717E0,1.3094482E1,1.1296699E1,9.442774E0,2.2169245E1,0E0,0E0,0E0,0E0,0E0,0E0,0E0,0E0],"parents":[2147483647,0,0,1,1,2,2,3,3,4,4,5,5,6,6],"right_children":[2,4,6,8,10,12,14,-1,-1,-1,-1,-1,-1,-1,-1],"split_conditions":[9.931554E-2,-2.8546578E-1,4.2225916E-2,6.592803E-2,6.049036E-2,1.5508397E-1,5.9435364E-2,1.0020105E-1,-7.239062E-2,-9.257929E-3,2.4207186E-2,5.8940683E-2,-7.092254E-2,-8.335301E-2,-3.7661658E-3],"split_indices":[9,3,17,17,2,9,17,0,0,0,0,0,0,0,0],"split_type":[0,0,0,0,0,0,0,0,0,0,0,0,0,0,0],"sum_hessian":[7.317635E2,5.479341E2,1.8382942E2,2.5220264E1,5.227138E2,2.6017717E1,1.578117E2,2.209306E1,3.1272054E0,3.9106674E2,1.3164708E2,2.0601973E1,5.415745E0,5.7336945E1,1.0047476E2],"tree_param":{"num_deleted":"0","num_feature":"19","num_nodes":"15","size_leaf_vector":"1"}},{"base_weights":[-3.0122658E-2,-1.1667169E-1,-1.4635245E-2,1.2903747E-1,-1.0624191E-1,-6.77276E-2,1.8255996E-2,-6.0669787E-2,-2.5935096E-3],"categories":[],"categories_nodes":[],"categories_segments":[],"categories_sizes":[],"default_left":[0,0,0,0,0,0,0,0,0],"id":25,"left_children":[1,-1,3,5,7,-1,-1,-1,-1],"loss_changes":[9.93223E0,0E0,9.23949E0,1.0828344E1,1.6381695E1,0E0,0E0,0E0,0E0],"parents":[2147483647,0,0,2,2,3,3,4,4],"right_children":[2,-1,4,6,8,-1,-1,-1,-1],"split_conditions":[-9.860182E-2,-1.1667169E-1,-4.6075624E-1,2.4584528E-2,-1.2478037E-1,-6.77276E-2,1.8255996E-2,-6.0669787E-2,-2.5935096E-3],"split_indices":[16,0,6,17,5,0,0,0,0],"split_type":[0,0,0,0,0,0,0,0,0],"sum_hessian":[7.1083466E2,6.6754217E0,7.0415924E2,2.6444687E2,4.3971237E2,1.3552908E1,2.5089397E2,5.55252E1,3.841872E2],"tree_param":{"num_deleted":"0","num_feature":"19","num_nodes":"9","size_leaf_vector":"1"}},{"base_weights":[-1.8520748E-2,1.0822332E-2,-3.8501552E-1,5.222608E-1,-1.7872468E-2,3.5855907E-1,-5.914098E-1,-3.8328726E-2,7.858876E-2,-4.9167154E-3,5.172814E-2,1.12140834E-1,-0E0,-8.2057275E-2,-0E0],"categories":[],"categories_nodes":[],"categories_segments":[],"categories_sizes":[],"default_left":[0,0,0,0,0,0,0,0,0,0,0,0,0,0,0],"id":26,"left_children":[1,3,5,7,9,11,13,-1,-1,-1,-1,-1,-1,-1,-1],"loss_changes":[8.655656E0,1.0939851E1,9.845974E0,1.0907343E1,9.702595E0,4.121642E0,7.462141E0,0E0,0E0,0E0,0E0,0E0,0E0,0E0,0E0],"parents":[2147483647,0,0,1,1,2,2,3,3,4,4,5,5,6,6],"right_children":[2,4,6,8,10,12,14,-1,-1,-1,-1,-1,-1,-1,-1],"split_conditions":[1.5705541E-1,-4.047571E0,-7.2727275E-1,-4.2800826E-1,3.3366416E0,-6.0170903E0,4.463318E-1,-3.8328726E-2,7.858876E-2,-4.9167154E-3,5.172814E-2,1.12140834E-1,-0E0,-8.2057275E-2,-0E0],"split_indices":[9,5,13,4,6,6,4,0,0,0,0,0,0,0,0],"split_type":[0,0,0,0,0,0,0,0,0,0,0,0,0,0,0],"sum_hessian":[7.252284E2,6.6654736E2,5.8681015E1,3.8796432E1,6.277509E2,1.0237896E1,4.844312E1,6.888454E0,3.190798E1,5.97599E2,3.0151936E1,3.4795196E0,6.7583766E0,3.5246784E1,1.3196337E1],"tree_param":{"num_deleted":"0","num_feature":"19","num_nodes":"15","size_leaf_vector":"1"}},{"base_weights":[1.2684999E-2,1.4884193E-1,-6.1721634E-2,4.8028266E-1,-0E0,-4.4988042E-1,-0E0,-8.764592E-3,7.008146E-2,6.3143983E-3,-1.2275495E-1,-0E0,-8.650376E-2,2.7960414E-2,-5.942922E-3],"categories":[],"categories_nodes":[],"categories_segments":[],"categories_sizes":[],"default_left":[0,0,0,0,0,0,0,0,0,0,0,0,0,0,0],"id":27,"left_children":[1,3,5,7,9,11,13,-1,-1,-1,-1,-1,-1,-1,-1],"loss_changes":[7.468755E0,1.20775E1,1.1032017E1,1.1446732E1,1.2479803E1,1.1004954E1,6.705064E0,0E0,0E0,0E0,0E0,0E0,0E0,0E0,0E0],"parents":[2147483647,0,0,1,1,2,2,3,3,4,4,5,5,6,6],"right_children":[2,4,6,8,10,12,14,-1,-1,-1,-1,-1,-1,-1,-1],"split_conditions":[-9.431978E-5,3.278529E-2,-1.8683849E-2,-1.3056833E-2,2.201888E-2,-2.8063715E-1,4.30427E-2,-8.764592E-3,7.008146E-2,6.3143983E-3,-1.2275495E-1,-0E0,-8.650376E-2,2.7960414E-2,-5.942922E-3],"split_indices":[16,17,15,0,15,6,9,0,0,0,0,0,0,0,0],"split_type":[0,0,0,0,0,0,0,0,0,0,0,0,0,0,0],"sum_hessian":[7.1618744E2,2.634805E2,4.5270694E2,7.68833E1,1.865972E2,6.2182938E1,3.9052402E2,1.9191946E1,5.7691357E1,1.7978778E2,6.8094177E0,3.1792643E1,3.0390295E1,6.897125E1,3.2155276E2],"tree_param":{"num_deleted":"0","num_feature":"19","num_nodes":"15","size_leaf_vector":"1"}},{"base_weights":[2.4675205E-2,6.1159603E-2,-3.4394124E-1,-3.3113214E-1,9.507725E-2,-8.3491486E-1,7.7176444E-2,4.3437924E-2,-6.892408E-2,5.9320472E-2,6.189824E-3,-1.09106466E-1,-0E0,9.512744E-2,-2.5162289E-2],"categories":[],"categories_nodes":[],"categories_segments":[],"categories_sizes":[],"default_left":[0,0,0,0,0,0,0,0,0,0,0,0,0,0,0],"id":28,"left_children":[1,3,5,7,9,11,13,-1,-1,-1,-1,-1,-1,-1,-1],"loss_changes":[9.22406E0,8.440353E0,1.4269375E1,1.4378639E1,8.746939E0,7.79982E0,1.0806794E1,0E0,0E0,0E0,0E0,0E0,0E0,0E0,0E0],"parents":[2147483647,0,0,1,1,2,2,3,3,4,4,5,5,6,6],"right_children":[2,4,6,8,10,12,14,-1,-1,-1,-1,-1,-1,-1,-1],"split_conditions":[1.5705541E-1,1.311576E-2,1.8274894E-1,-7.4601953E-4,3.33562E-2,5.3605475E-2,-1.781365E-3,4.3437924E-2,-6.892408E-2,5.9320472E-2,6.189824E-3,-1.09106466E-1,-0E0,9.512744E-2,-2.5162289E-2],"split_indices":[9,18,18,16,9,16,16,0,0,0,0,0,0,0,0],"split_type":[0,0,0,0,0,0,0,0,0,0,0,0,0,0,0],"sum_hessian":[7.310604E2,6.714392E2,5.962125E1,4.754186E1,6.2389734E2,2.9607958E1,3.001329E1,1.3217215E1,3.4324642E1,3.294822E1,5.909491E2,2.3143661E1,6.4642973E0,9.600875E0,2.0412415E1],"tree_param":{"num_deleted":"0","num_feature":"19","num_nodes":"15","size_leaf_vector":"1"}},{"base_weights":[3.822814E-2,-9.2549145E-2,5.2238725E-2,4.75753E-1,2.881411E-2,9.411239E-2,-0E0,-6.3690804E-2,4.8019732E-3],"categories":[],"categories_nodes":[],"categories_segments":[],"categories_sizes":[],"default_left":[0,0,0,0,0,0,0,0,0],"id":29,"left_children":[1,-1,3,5,7,-1,-1,-1,-1],"loss_changes":[8.013501E0,0E0,6.0378065E0,5.4252076E0,7.790151E0,0E0,0E0,0E0,0E0],"parents":[2147483647,0,0,2,2,3,3,4,4],"right_children":[2,-1,4,6,8,-1,-1,-1,-1],"split_conditions":[2.0054E-2,-9.2549145E-2,-3.1567684E-1,5.8638655E-2,-5.854721E-2,9.411239E-2,-0E0,-6.3690804E-2,4.8019732E-3],"split_indices":[17,0,3,17,0,0,0,0,0],"split_type":[0,0,0,0,0,0,0,0,0],"sum_hessian":[7.3090454E2,7.301417E0,7.2360315E2,3.200771E1,6.915954E2,1.3431125E1,1.8576586E1,1.5582532E1,6.760129E2],"tree_param":{"num_deleted":"0","num_feature":"19","num_nodes":"9","size_leaf_vector":"1"}},{"base_weights":[1.5653739E-2,-1.4879106E-1,8.6465836E-2,-5.0106996E-1,-0E0,7.986215E-1,5.4196138E-2,-0E0,-7.2949864E-2,2.4118422E-2,-2.6631583E-2,-0E0,1.0028747E-1,-3.161417E-2,1.1426391E-2],"categories":[],"categories_nodes":[],"categories_segments":[],"categories_sizes":[],"default_left":[0,0,0,0,0,0,0,0,0,0,0,0,0,0,0],"id":30,"left_children":[1,3,5,7,9,11,13,-1,-1,-1,-1,-1,-1,-1,-1],"loss_changes":[8.287468E0,1.0168557E1,9.883804E0,7.7380085E0,9.904043E0,4.2068806E0,1.0875378E1,0E0,0E0,0E0,0E0,0E0,0E0,0E0,0E0],"parents":[2147483647,0,0,1,1,2,2,3,3,4,4,5,5,6,6],"right_children":[2,4,6,8,10,12,14,-1,-1,-1,-1,-1,-1,-1,-1],"split_conditions":[-9.7026214E-2,5.6822903E-2,-8.1037655E-2,-7.283979E-2,7.656396E-2,3.9111737E-2,-1.8683849E-2,-0E0,-7.2949864E-2,2.4118422E-2,-2.6631583E-2,-0E0,1.0028747E-1,-3.161417E-2,1.1426391E-2],"split_indices":[4,9,4,2,18,9,15,0,0,0,0,0,0,0,0],"split_type":[0,0,0,0,0,0,0,0,0,0,0,0,0,0,0],"sum_hessian":[7.219467E2,2.0743625E2,5.145105E2,5.800543E1,1.4943082E2,1.8386826E1,4.961237E2,1.7228468E1,4.077696E1,7.553378E1,7.389703E1,3.1208472E0,1.5265978E1,6.4030754E1,4.3209293E2],"tree_param":{"num_deleted":"0","num_feature":"19","num_nodes":"15","size_leaf_vector":"1"}},{"base_weights":[-1.4367767E-3,1.9904082E-1,-8.772595E-2,2.9005542E-1,-4.1014397E-1,-3.7341285E-1,-2.4040867E-2,1.461116E-2,1.1418731E-1,-1.2439667E-1,4.3321613E-2,-4.882126E-3,-9.208773E-2,-7.9754675E-3,2.5381869E-2],"categories":[],"categories_nodes":[],"categories_segments":[],"categories_sizes":[],"default_left":[0,0,0,0,0,0,0,0,0,0,0,0,0,0,0],"id":31,"left_children":[1,3,5,7,9,11,13,-1,-1,-1,-1,-1,-1,-1,-1],"loss_changes":[1.2391028E1,1.15882435E1,8.534244E0,2.0061214E1,1.9965338E1,1.3595915E1,6.4298882E0,0E0,0E0,0E0,0E0,0E0,0E0,0E0,0E0],"parents":[2147483647,0,0,1,1,2,2,3,3,4,4,5,5,6,6],"right_children":[2,4,6,8,10,12,14,-1,-1,-1,-1,-1,-1,-1,-1],"split_conditions":[-1.4263719E-3,-2.3253546E-5,-1.8683849E-2,-1.1512483E-2,1.3449492E-1,-3.3556975E-3,2.8243414E-1,1.461116E-2,1.1418731E-1,-1.2439667E-1,4.3321613E-2,-4.882126E-3,-9.208773E-2,-7.9754675E-3,2.5381869E-2],"split_indices":[16,15,15,1,3,2,3,0,0,0,0,0,0,0,0],"split_type":[0,0,0,0,0,0,0,0,0,0,0,0,0,0,0],"sum_hessian":[7.29058E2,2.1117532E2,5.178827E2,1.8733885E2,2.3836485E1,8.7184326E1,4.3069833E2,1.6380672E2,2.3532122E1,1.3065146E1,1.07713375E1,5.8189037E1,2.899529E1,3.657306E2,6.4967766E1],"tree_param":{"num_deleted":"0","num_feature":"19","num_nodes":"15","size_leaf_vector":"1"}},{"base_weights":[-3.8128413E-2,-2.6118714E-1,1.5754713E-2,2.0766571E-2,-4.30685E-1,5.051513E-1,-3.2698624E-2,6.827671E-2,-1.1905583E-2,-7.631579E-2,-0E0,6.375027E-2,-3.8885873E-2,2.4686716E-2,-1.0326961E-2],"categories":[],"categories_nodes":[],"categories_segments":[],"categories_sizes":[],"default_left":[0,0,0,0,0,0,0,0,0,0,0,0,0,0,0],"id":32,"left_children":[1,3,5,7,9,11,13,-1,-1,-1,-1,-1,-1,-1,-1],"loss_changes":[9.246863E0,8.046118E0,1.4714642E1,6.212647E0,1.3386837E1,7.6956196E0,1.014679E1,0E0,0E0,0E0,0E0,0E0,0E0,0E0,0E0],"parents":[2147483647,0,0,1,1,2,2,3,3,4,4,5,5,6,6],"right_children":[2,4,6,8,10,12,14,-1,-1,-1,-1,-1,-1,-1,-1],"split_conditions":[-1.7098656E0,-4.1067123E0,-7.772831E-3,8.099049E-2,-8.330842E-2,8.201524E-3,-6.065242E-1,6.827671E-2,-1.1905583E-2,-7.631579E-2,-0E0,6.375027E-2,-3.8885873E-2,2.4686716E-2,-1.0326961E-2],"split_indices":[5,6,16,18,3,1,6,0,0,0,0,0,0,0,0],"split_type":[0,0,0,0,0,0,0,0,0,0,0,0,0,0,0],"sum_hessian":[7.2215204E2,1.4800043E2,5.741516E2,5.0857143E1,9.714328E1,5.518298E1,5.189687E2,1.1062977E1,3.9794167E1,5.2472534E1,4.4670742E1,5.024093E1,4.942053E0,9.816618E1,4.208025E2],"tree_param":{"num_deleted":"0","num_feature":"19","num_nodes":"15","size_leaf_vector":"1"}},{"base_weights":[2.1635413E-2,5.425035E-2,-3.238486E-1,-0E0,3.166093E-1,-0E0,-4.8072326E-1,7.0465864E-3,-4.4115484E-2,7.731022E-2,5.1004873E-3,-2.1598555E-2,8.39528E-2,-0E0,-7.404396E-2],"categories":[],"categories_nodes":[],"categories_segments":[],"categories_sizes":[],"default_left":[0,0,0,0,0,0,0,0,0,0,0,0,0,0,0],"id":33,"left_children":[1,3,5,7,9,11,13,-1,-1,-1,-1,-1,-1,-1,-1],"loss_changes":[7.4992023E0,8.9862175E0,3.7347918E0,1.7018654E1,1.1481401E1,4.1428013E0,4.123912E0,0E0,0E0,0E0,0E0,0E0,0E0,0E0,0E0],"parents":[2147483647,0,0,1,1,2,2,3,3,4,4,5,5,6,6],"right_children":[2,4,6,8,10,12,14,-1,-1,-1,-1,-1,-1,-1,-1],"split_conditions":[1.5705541E-1,9.5369056E-2,1.4999771E-1,1.667191E-1,2.8085008E-2,1.05259694E-1,-2.0964746E-1,7.0465864E-3,-4.4115484E-2,7.731022E-2,5.1004873E-3,-2.1598555E-2,8.39528E-2,-0E0,-7.404396E-2],"split_indices":[9,2,14,3,1,14,7,0,0,0,0,0,0,0,0],"split_type":[0,0,0,0,0,0,0,0,0,0,0,0,0,0,0],"sum_hessian":[7.172687E2,6.620239E2,5.524475E1,5.537783E2,1.08245636E2,1.4482771E1,4.0761982E1,4.8087875E2,7.289954E1,3.5729233E1,7.25164E1,1.0299832E1,4.1829386E0,1.6956745E1,2.3805237E1],"tree_param":{"num_deleted":"0","num_feature":"19","num_nodes":"15","size_leaf_vector":"1"}},{"base_weights":[1.693428E-2,-5.355003E-1,3.9187565E-2,-3.232738E-2,-1.0198355E-1,-8.453523E-2,1.322843E-1,-6.387816E-2,2.9853288E-2,2.657368E-3,-9.3041465E-2,2.396507E-2,-6.879639E-3],"categories":[],"categories_nodes":[],"categories_segments":[],"categories_sizes":[],"default_left":[0,0,0,0,0,0,0,0,0,0,0,0,0],"id":34,"left_children":[1,3,5,7,-1,9,11,-1,-1,-1,-1,-1,-1],"loss_changes":[7.767986E0,3.5465398E0,8.159481E0,4.0104675E0,0E0,2.9619E1,9.419926E0,0E0,0E0,0E0,0E0,0E0,0E0],"parents":[2147483647,0,0,1,1,2,2,3,3,5,5,6,6],"right_children":[2,4,6,8,-1,10,12,-1,-1,-1,-1,-1,-1],"split_conditions":[-1.0326082E-1,1.6666554E-1,6.039485E-2,-3.9179195E-2,-1.0198355E-1,1.7194322E-1,1.7763583E-2,-6.387816E-2,2.9853288E-2,2.657368E-3,-9.3041465E-2,2.396507E-2,-6.879639E-3],"split_indices":[10,12,9,8,0,3,16,0,0,0,0,0,0],"split_type":[0,0,0,0,0,0,0,0,0,0,0,0,0],"sum_hessian":[7.2056226E2,2.3208603E1,6.9735364E2,1.4199432E1,9.009171E0,2.8906174E2,4.082919E2,7.110756E0,7.088677E0,2.5410721E2,3.4954533E1,2.719099E2,1.3638199E2],"tree_param":{"num_deleted":"0","num_feature":"19","num_nodes":"13","size_leaf_vector":"1"}},{"base_weights":[-2.9799897E-2,-1.01365134E-1,1.4675571E-1,-2.0752775E-2,-4.6438378E-1,4.1534173E-1,-7.27948E-2,-1.5284388E-2,2.6757244E-2,-1.5525278E-3,-6.209389E-2,4.977231E-2,-6.8619534E-2,-3.2851763E-2,1.828111E-2],"categories":[],"categories_nodes":[],"categories_segments":[],"categories_sizes":[],"default_left":[0,0,0,0,0,0,0,0,0,0,0,0,0,0,0],"id":35,"left_children":[1,3,5,7,9,11,13,-1,-1,-1,-1,-1,-1,-1,-1],"loss_changes":[8.93033E0,1.4043734E1,1.2424803E1,1.640887E1,4.9919224E0,8.806852E0,7.3316092E0,0E0,0E0,0E0,0E0,0E0,0E0,0E0,0E0],"parents":[2147483647,0,0,1,1,2,2,3,3,4,4,5,5,6,6],"right_children":[2,4,6,8,10,12,14,-1,-1,-1,-1,-1,-1,-1,-1],"split_conditions":[6.7899995E-2,3.168715E-2,1.9935817E-2,-1.2478037E-1,4.7203004E-2,1.5705541E-1,1.5721606E-1,-1.5284388E-2,2.6757244E-2,-1.5525278E-3,-6.209389E-2,4.977231E-2,-6.8619534E-2,-3.2851763E-2,1.828111E-2],"split_indices":[2,2,16,5,9,9,2,0,0,0,0,0,0,0,0],"split_type":[0,0,0,0,0,0,0,0,0,0,0,0,0,0,0],"sum_hessian":[7.130005E2,5.166982E2,1.963023E2,4.2863678E2,8.806136E1,9.2564064E1,1.03738235E2,2.9939087E2,1.2924593E2,2.72569E1,6.0804466E1,8.8189835E1,4.37423E0,5.5988968E1,4.7749268E1],"tree_param":{"num_deleted":"0","num_feature":"19","num_nodes":"15","size_leaf_vector":"1"}},{"base_weights":[-1.3441693E-2,1.3560355E-1,-7.398967E-2,-5.8606666E-1,2.0355698E-1,-0E0,-2.1793427E-1,-1.0397773E-1,-0E0,3.3405505E-2,-9.21476E-3,1.4007684E-2,-1.2917849E-2,-4.7832146E-2,6.661386E-4],"categories":[],"categories_nodes":[],"categories_segments":[],"categories_sizes":[],"default_left":[0,0,0,0,0,0,0,0,0,0,0,0,0,0,0],"id":36,"left_children":[1,3,5,7,9,11,13,-1,-1,-1,-1,-1,-1,-1,-1],"loss_changes":[6.351612E0,8.903441E0,6.050357E0,5.3301263E0,7.8253126E0,6.2074947E0,1.2209051E1,0E0,0E0,0E0,0E0,0E0,0E0,0E0,0E0],"parents":[2147483647,0,0,1,1,2,2,3,3,4,4,5,5,6,6],"right_children":[2,4,6,8,10,12,14,-1,-1,-1,-1,-1,-1,-1,-1],"split_conditions":[4.5455046E-2,1.3408466E-2,1.1764846E-1,2.936399E-1,2.4000049E-2,-3.8241185E-3,1.9726839E-2,-1.0397773E-1,-0E0,3.3405505E-2,-9.21476E-3,1.4007684E-2,-1.2917849E-2,-4.7832146E-2,6.661386E-4],"split_indices":[12,18,13,6,10,10,10,0,0,0,0,0,0,0,0],"split_type":[0,0,0,0,0,0,0,0,0,0,0,0,0,0,0],"sum_hessian":[7.173987E2,1.9617908E2,5.212196E2,1.3461695E1,1.8271738E2,3.3451678E2,1.8670284E2,8.467281E0,4.994413E0,1.3123993E2,5.147745E1,1.6873657E2,1.6578023E2,8.994804E1,9.675479E1],"tree_param":{"num_deleted":"0","num_feature":"19","num_nodes":"15","size_leaf_vector":"1"}},{"base_weights":[-1.9810941E-2,-4.1825306E-1,7.112886E-3,-0E0,-1.0607618E0,-2.0383225E-1,5.222989E-2,-3.8086805E-2,4.3045145E-2,-1.2635252E-1,-0E0,-3.6854427E-2,1.8059455E-2,2.7027076E-2,-2.3825674E-3],"categories":[],"categories_nodes":[],"categories_segments":[],"categories_sizes":[],"default_left":[0,0,0,0,0,0,0,0,0,0,0,0,0,0,0],"id":37,"left_children":[1,3,5,7,9,11,13,-1,-1,-1,-1,-1,-1,-1,-1],"loss_changes":[8.584745E0,1.3493754E1,5.986683E0,5.388943E0,3.524128E0,7.497252E0,9.909845E0,0E0,0E0,0E0,0E0,0E0,0E0,0E0,0E0],"parents":[2147483647,0,0,1,1,2,2,3,3,4,4,5,5,6,6],"right_children":[2,4,6,8,10,12,14,-1,-1,-1,-1,-1,-1,-1,-1],"split_conditions":[-7.1504734E-2,-3.721676E-2,-7.1428573E-1,-1.0326082E-1,1.3679746E-1,-1.1331075E-3,-6.514592E-3,-3.8086805E-2,4.3045145E-2,-1.2635252E-1,-0E0,-3.6854427E-2,1.8059455E-2,2.7027076E-2,-2.3825674E-3],"split_indices":[10,0,13,10,18,0,0,0,0,0,0,0,0,0,0],"split_type":[0,0,0,0,0,0,0,0,0,0,0,0,0,0,0],"sum_hessian":[7.127429E2,4.9620205E1,6.6312274E2,3.0642086E1,1.8978119E1,1.0750015E2,5.5562256E2,1.6393694E1,1.4248392E1,1.5070631E1,3.907488E0,7.9031746E1,2.8468403E1,1.4993253E2,4.0569003E2],"tree_param":{"num_deleted":"0","num_feature":"19","num_nodes":"15","size_leaf_vector":"1"}},{"base_weights":[-2.0480743E-2,9.77322E-2,-1.0966382E-1,-9.582371E-2,3.2097194E-1,-2.680579E-1,1.04079545E-1,6.4997043E-4,-7.389034E-2,3.722058E-2,-9.12858E-2,4.1920844E-2,-3.4935106E-2,7.2646216E-2,-0E0],"categories":[],"categories_nodes":[],"categories_segments":[],"categories_sizes":[],"default_left":[0,0,0,0,0,0,0,0,0,0,0,0,0,0,0],"id":38,"left_children":[1,3,5,7,9,11,13,-1,-1,-1,-1,-1,-1,-1,-1],"loss_changes":[7.6746197E0,1.3546418E1,1.4757095E1,1.207092E1,8.86071E0,1.449085E1,1.2788528E1,0E0,0E0,0E0,0E0,0E0,0E0,0E0,0E0],"parents":[2147483647,0,0,1,1,2,2,3,3,4,4,5,5,6,6],"right_children":[2,4,6,8,10,12,14,-1,-1,-1,-1,-1,-1,-1,-1],"split_conditions":[-1.3762037E-2,-1.4235468E-1,7.569022E-2,-1.01245735E-2,1.3128841E-1,3.1957656E-2,1.1114551E-1,6.4997043E-4,-7.389034E-2,3.722058E-2,-9.12858E-2,4.1920844E-2,-3.4935106E-2,7.2646216E-2,-0E0],"split_indices":[2,4,2,15,4,9,4,0,0,0,0,0,0,0,0],"split_type":[0,0,0,0,0,0,0,0,0,0,0,0,0,0,0],"sum_hessian":[7.236722E2,3.002827E2,4.233895E2,1.5568883E2,1.4459389E2,2.4911317E2,1.742763E2,1.3221426E2,2.3474567E1,1.4085712E2,3.736772E0,2.3757875E1,2.253553E2,2.652125E1,1.4775505E2],"tree_param":{"num_deleted":"0","num_feature":"19","num_nodes":"15","size_leaf_vector":"1"}},{"base_weights":[2.8087882E-2,-3.1115797E-1,5.6953765E-2,-6.4773375E-1,-0E0,-1.6231662E-1,9.7765476E-2,1.3594924E-2,-1.0038065E-1,-4.366143E-2,4.700043E-2,-6.032909E-2,-0E0,2.737273E-2,-0E0],"categories":[],"categories_nodes":[],"categories_segments":[],"categories_sizes":[],"default_left":[0,0,0,0,0,0,0,0,0,0,0,0,0,0,0],"id":39,"left_children":[1,3,5,7,9,11,13,-1,-1,-1,-1,-1,-1,-1,-1],"loss_changes":[6.5845456E0,5.6193233E0,5.9445786E0,9.296532E0,5.7935877E0,7.836258E0,9.655657E0,0E0,0E0,0E0,0E0,0E0,0E0,0E0,0E0],"parents":[2147483647,0,0,1,1,2,2,3,3,4,4,5,5,6,6],"right_children":[2,4,6,8,10,12,14,-1,-1,-1,-1,-1,-1,-1,-1],"split_conditions":[1.4077104E-2,-1.2411331E-2,-2.2879013E-1,-2.1123372E-3,-2.363654E-3,-2.3328292E-1,-2.0541819E-2,1.3594924E-2,-1.0038065E-1,-4.366143E-2,4.700043E-2,-6.032909E-2,-0E0,2.737273E-2,-0E0],"split_indices":[18,4,4,16,15,7,4,0,0,0,0,0,0,0,0],"split_type":[0,0,0,0,0,0,0,0,0,0,0,0,0,0,0],"sum_hessian":[7.284986E2,5.0340096E1,6.781585E2,2.4346642E1,2.5993454E1,9.734431E1,5.808142E2,5.92513E0,1.8421513E1,1.3073072E1,1.2920381E1,2.7320738E1,7.002357E1,1.9897166E2,3.8184256E2],"tree_param":{"num_deleted":"0","num_feature":"19","num_nodes":"15","size_leaf_vector":"1"}},{"base_weights":[8.455151E-3,-4.8947254E-1,4.5704607E-2,1.8650687E-1,-7.406189E-1,1.716643E-1,-7.5501874E-2,8.760901E-2,-2.0720284E-2,-9.274807E-2,-0E0,-3.450184E-3,3.5389036E-2,-7.099448E-2,-1.812032E-3],"categories":[],"categories_nodes":[],"categories_segments":[],"categories_sizes":[],"default_left":[0,0,0,0,0,0,0,0,0,0,0,0,0,0,0],"id":40,"left_children":[1,3,5,7,9,11,13,-1,-1,-1,-1,-1,-1,-1,-1],"loss_changes":[1.2010236E1,8.942332E0,1.0253724E1,4.527991E0,5.386774E0,1.3399503E1,1.0283791E1,0E0,0E0,0E0,0E0,0E0,0E0,0E0,0E0],"parents":[2147483647,0,0,1,1,2,2,3,3,4,4,5,5,6,6],"right_children":[2,4,6,8,10,12,14,-1,-1,-1,-1,-1,-1,-1,-1],"split_conditions":[1.311576E-2,-7.4601953E-4,5.221822E-2,2.8254252E-2,4.3486543E-2,1.64147E-2,5.6822903E-2,8.760901E-2,-2.0720284E-2,-9.274807E-2,-0E0,-3.450184E-3,3.5389036E-2,-7.099448E-2,-1.812032E-3],"split_indices":[18,16,18,17,17,3,9,0,0,0,0,0,0,0,0],"split_type":[0,0,0,0,0,0,0,0,0,0,0,0,0,0,0],"sum_hessian":[6.9957635E2,4.3750557E1,6.558258E2,9.479883E0,3.427067E1,3.305522E2,3.2527362E2,5.111546E0,4.368337E0,2.7345327E1,6.9253445E0,1.5083028E2,1.7972191E2,2.264796E1,3.0262564E2],"tree_param":{"num_deleted":"0","num_feature":"19","num_nodes":"15","size_leaf_vector":"1"}},{"base_weights":[-5.236972E-2,2.2550952E-1,-8.939494E-2,6.502553E-1,-0E0,1.4895811E-2,-2.653207E-1,8.406521E-2,-0E0,-3.6361102E-2,2.8184105E-2,-1.42196305E-2,1.6766636E-2,-8.358549E-2,-1.2031661E-2],"categories":[],"categories_nodes":[],"categories_segments":[],"categories_sizes":[],"default_left":[0,0,0,0,0,0,0,0,0,0,0,0,0,0,0],"id":41,"left_children":[1,3,5,7,9,11,13,-1,-1,-1,-1,-1,-1,-1,-1],"loss_changes":[6.983004E0,6.804717E0,1.21547785E1,5.0864553E0,5.4216976E0,9.571965E0,1.795437E1,0E0,0E0,0E0,0E0,0E0,0E0,0E0,0E0],"parents":[2147483647,0,0,1,1,2,2,3,3,4,4,5,5,6,6],"right_children":[2,4,6,8,10,12,14,-1,-1,-1,-1,-1,-1,-1,-1],"split_conditions":[-3.2859292E0,8.311319E-2,5.362802E-2,-2.5720332E-2,5.7653587E-2,1.4552422E-1,-1.4630959E0,8.406521E-2,-0E0,-3.6361102E-2,2.8184105E-2,-1.42196305E-2,1.6766636E-2,-8.358549E-2,-1.2031661E-2],"split_indices":[6,18,18,4,17,6,6,0,0,0,0,0,0,0,0],"split_type":[0,0,0,0,0,0,0,0,0,0,0,0,0,0,0],"sum_hessian":[7.059906E2,7.533202E1,6.3065857E2,2.4394707E1,5.0937317E1,3.8839062E2,2.4226793E2,2.1091446E1,3.3032615E0,2.0966413E1,2.9970905E1,1.8444846E2,2.0394217E2,4.441615E1,1.9785178E2],"tree_param":{"num_deleted":"0","num_feature":"19","num_nodes":"15","size_leaf_vector":"1"}},{"base_weights":[-1.3432913E-2,-1.2685153E-1,6.583784E-2,-2.43815E-1,1.3574381E-1,4.3498412E-1,-3.0211797E-2,1.9108E-2,-4.5072235E-2,7.638428E-2,-3.931242E-2,5.8378365E-2,-1.03802904E-1,-3.0302728E-2,7.4686958E-3],"categories":[],"categories_nodes":[],"categories_segments":[],"categories_sizes":[],"default_left":[0,0,0,0,0,0,0,0,0,0,0,0,0,0,0],"id":42,"left_children":[1,3,5,7,9,11,13,-1,-1,-1,-1,-1,-1,-1,-1],"loss_changes":[6.475806E0,9.538161E0,1.5225177E1,2.0418495E1,3.0659725E1,1.9551746E1,9.716309E0,0E0,0E0,0E0,0E0,0E0,0E0,0E0,0E0],"parents":[2147483647,0,0,1,1,2,2,3,3,4,4,5,5,6,6],"right_children":[2,4,6,8,10,12,14,-1,-1,-1,-1,-1,-1,-1,-1],"split_conditions":[-1.3039911E-2,1.5335802E-2,-2.2951983E-2,-2.3220302E-1,4.606538E-3,2.0584848E-2,-3.585408E-3,1.9108E-2,-4.5072235E-2,7.638428E-2,-3.931242E-2,5.8378365E-2,-1.03802904E-1,-3.0302728E-2,7.4686958E-3],"split_indices":[3,2,2,3,16,16,15,0,0,0,0,0,0,0,0],"split_type":[0,0,0,0,0,0,0,0,0,0,0,0,0,0,0],"sum_hessian":[7.033087E2,3.008224E2,4.0248636E2,2.141045E2,8.671787E1,8.731985E1,3.151665E2,6.621397E1,1.4789053E2,4.1315784E1,4.540209E1,8.097103E1,6.3488164E0,9.279441E1,2.223721E2],"tree_param":{"num_deleted":"0","num_feature":"19","num_nodes":"15","size_leaf_vector":"1"}},{"base_weights":[3.527206E-2,-7.132306E-2,1.2249907E-1,-0E0,-5.365244E-1,2.3602974E-1,-1.8307881E-2,3.7838835E-2,-1.0311625E-2,6.0615703E-3,-8.130159E-2,-1.8678298E-2,2.9441578E-2,6.8400507E-3,-2.628456E-2],"categories":[],"categories_nodes":[],"categories_segments":[],"categories_sizes":[],"default_left":[0,0,0,0,0,0,0,0,0,0,0,0,0,0,0],"id":43,"left_children":[1,3,5,7,9,11,13,-1,-1,-1,-1,-1,-1,-1,-1],"loss_changes":[6.699212E0,1.0477742E1,6.9037976E0,1.0738114E1,8.828692E0,6.245556E0,4.1360517E0,0E0,0E0,0E0,0E0,0E0,0E0,0E0,0E0],"parents":[2147483647,0,0,1,1,2,2,3,3,4,4,5,5,6,6],"right_children":[2,4,6,8,10,12,14,-1,-1,-1,-1,-1,-1,-1,-1],"split_conditions":[3.9343357E-2,3.7186332E-2,1.8181951E-1,-1.5062166E-3,-1.07357144E-1,2.7495362E-2,1.1727369E-1,3.7838835E-2,-1.0311625E-2,6.0615703E-3,-8.130159E-2,-1.8678298E-2,2.9441578E-2,6.8400507E-3,-2.628456E-2],"split_indices":[17,17,12,16,3,18,9,0,0,0,0,0,0,0,0],"split_type":[0,0,0,0,0,0,0,0,0,0,0,0,0,0,0],"sum_hessian":[7.0642065E2,3.0635394E2,4.0006668E2,2.6538843E2,4.096551E1,2.3002707E2,1.7003961E2,5.7433155E1,2.0795528E2,1.08236475E1,3.0141865E1,2.3938408E1,2.0608867E2,1.19311844E2,5.0727764E1],"tree_param":{"num_deleted":"0","num_feature":"19","num_nodes":"15","size_leaf_vector":"1"}},{"base_weights":[7.065199E-3,-5.895517E-1,4.415323E-2,-1.0929004E0,-0E0,4.307572E-1,1.6680073E-2,-0E0,-1.2601398E-1,8.464118E-2,-3.183949E-2,7.895311E-2,-5.4405816E-3,-8.0074035E-2,2.9141426E-3],"categories":[],"categories_nodes":[],"categories_segments":[],"categories_sizes":[],"default_left":[0,0,0,0,0,0,0,0,0,0,0,0,0,0,0],"id":44,"left_children":[1,3,5,7,9,11,13,-1,-1,-1,-1,-1,-1,-1,-1],"loss_changes":[1.42558775E1,1.1187228E1,6.019294E0,3.5079155E0,5.2125554E0,8.528097E0,4.8011847E0,0E0,0E0,0E0,0E0,0E0,0E0,0E0,0E0],"parents":[2147483647,0,0,1,1,2,2,3,3,4,4,5,5,6,6],"right_children":[2,4,6,8,10,12,14,-1,-1,-1,-1,-1,-1,-1,-1],"split_conditions":[2.4584528E-2,-7.836831E-2,2.6873495E-2,-1.0749053E-2,2.2126075E-2,2.5000054E-1,-9.860182E-2,-0E0,-1.2601398E-1,8.464118E-2,-3.183949E-2,7.895311E-2,-5.4405816E-3,-8.0074035E-2,2.9141426E-3],"split_indices":[17,6,17,0,17,12,16,0,0,0,0,0,0,0,0],"split_type":[0,0,0,0,0,0,0,0,0,0,0,0,0,0,0],"sum_hessian":[6.979573E2,3.6538864E1,6.614184E2,1.9387194E1,1.7151672E1,3.759908E1,6.2381934E2,3.0870643E0,1.6300129E1,4.3662205E0,1.2785451E1,2.3796907E1,1.3802171E1,5.9534206E0,6.178659E2],"tree_param":{"num_deleted":"0","num_feature":"19","num_nodes":"15","size_leaf_vector":"1"}},{"base_weights":[2.8500594E-2,3.4390384E-1,-4.751435E-3,-4.0312327E-2,4.3119568E-1,-1.704334E-1,8.32494E-2,7.663161E-2,3.3335818E-3,-3.51307E-2,2.2997972E-2,1.9491415E-2,-7.714858E-3],"categories":[],"categories_nodes":[],"categories_segments":[],"categories_sizes":[],"default_left":[0,0,0,0,0,0,0,0,0,0,0,0,0],"id":45,"left_children":[1,3,5,-1,7,9,11,-1,-1,-1,-1,-1,-1],"loss_changes":[8.176125E0,5.0445976E0,9.445964E0,0E0,7.5607243E0,1.7265226E1,7.673811E0,0E0,0E0,0E0,0E0,0E0,0E0],"parents":[2147483647,0,0,1,1,2,2,4,4,5,5,6,6],"right_children":[2,4,6,-1,8,10,12,-1,-1,-1,-1,-1,-1],"split_conditions":[-2.3220302E-1,2.8851282E-2,-1.0780191E-2,-4.0312327E-2,1.0167153E-1,4.643762E-1,1.3894372E0,7.663161E-2,3.3335818E-3,-3.51307E-2,2.2997972E-2,1.9491415E-2,-7.714858E-3],"split_indices":[3,17,3,0,9,6,6,0,0,0,0,0,0],"split_type":[0,0,0,0,0,0,0,0,0,0,0,0,0],"sum_hessian":[7.0568195E2,7.3000244E1,6.326817E2,4.5878177E0,6.841243E1,2.280798E2,4.0460193E2,3.3323315E1,3.5089115E1,1.604936E2,6.758619E1,2.4565651E2,1.589454E2],"tree_param":{"num_deleted":"0","num_feature":"19","num_nodes":"13","size_leaf_vector":"1"}},{"base_weights":[7.496829E-3,-8.5804606E-4,1.0728644E-1,-2.975554E-1,4.6076816E-2,-2.566469E-3,-8.256609E-2,2.0307207E-3,5.163022E-2],"categories":[],"categories_nodes":[],"categories_segments":[],"categories_sizes":[],"default_left":[0,0,0,0,0,0,0,0,0],"id":46,"left_children":[1,3,-1,5,7,-1,-1,-1,-1],"loss_changes":[8.801036E0,1.0361518E1,0E0,1.2957141E1,6.0685606E0,0E0,0E0,0E0,0E0],"parents":[2147483647,0,0,1,1,3,3,4,4],"right_children":[2,4,-1,6,8,-1,-1,-1,-1],"split_conditions":[3.149403E-1,-4.4783244E-1,1.0728644E-1,1.6666454E-1,8.888919E-1,-2.566469E-3,-8.256609E-2,2.0307207E-3,5.163022E-2],"split_indices":[9,7,0,13,13,0,0,0,0],"split_type":[0,0,0,0,0,0,0,0,0],"sum_hessian":[7.083406E2,7.016451E2,6.69546E0,1.01765656E2,5.9987946E2,7.087708E1,3.0888577E1,5.74521E2,2.5358461E1],"tree_param":{"num_deleted":"0","num_feature":"19","num_nodes":"9","size_leaf_vector":"1"}},{"base_weights":[9.903152E-3,4.892987E-2,-3.3182305E-1,7.516695E-2,-4.4937754E-1,-7.6536626E-1,-0E0,4.5508776E-2,3.5830222E-3,-0E0,-9.8130025E-2,-3.460253E-3,-1.2592845E-1,5.032272E-2,-4.42891E-2],"categories":[],"categories_nodes":[],"categories_segments":[],"categories_sizes":[],"default_left":[0,0,0,0,0,0,0,0,0,0,0,0,0,0,0],"id":47,"left_children":[1,3,5,7,9,11,13,-1,-1,-1,-1,-1,-1,-1,-1],"loss_changes":[8.917788E0,7.667843E0,9.815624E0,8.177197E0,7.780549E0,7.8645496E0,9.022006E0,0E0,0E0,0E0,0E0,0E0,0E0,0E0,0E0],"parents":[2147483647,0,0,1,1,2,2,3,3,4,4,5,5,6,6],"right_children":[2,4,6,8,10,12,14,-1,-1,-1,-1,-1,-1,-1,-1],"split_conditions":[4.9008705E-2,1.7357667E-1,1.3042384E-1,-2.2852203E-1,-4.9661617E0,8.735202E-2,2.2241087E-1,4.5508776E-2,3.5830222E-3,-0E0,-9.8130025E-2,-3.460253E-3,-1.2592845E-1,5.032272E-2,-4.42891E-2],"split_indices":[16,9,2,3,6,3,2,0,0,0,0,0,0,0,0],"split_type":[0,0,0,0,0,0,0,0,0,0,0,0,0,0,0],"sum_hessian":[7.145875E2,6.479276E2,6.665995E1,6.205128E2,2.7414772E1,2.858563E1,3.807432E1,5.113859E1,5.693742E2,1.44906025E1,1.292417E1,1.3874283E1,1.4711347E1,1.7907665E1,2.0166656E1],"tree_param":{"num_deleted":"0","num_feature":"19","num_nodes":"15","size_leaf_vector":"1"}},{"base_weights":[-1.0148438E-2,6.557995E-2,-1.8135223E-1,-7.362369E-2,1.9878018E-1,3.8039222E-2,-2.2675619E-1,1.4135079E-2,-4.5720343E-2,5.869912E-2,5.7992544E-3,-5.010413E-2,-1.4102329E-2],"categories":[],"categories_nodes":[],"categories_segments":[],"categories_sizes":[],"default_left":[0,0,0,0,0,0,0,0,0,0,0,0,0],"id":48,"left_children":[1,3,5,7,9,-1,11,-1,-1,-1,-1,-1,-1],"loss_changes":[9.383233E0,9.172309E0,5.489093E0,1.9728418E1,1.2463903E1,0E0,3.4798174E0,0E0,0E0,0E0,0E0,0E0,0E0],"parents":[2147483647,0,0,1,1,2,2,3,3,4,4,6,6],"right_children":[2,4,6,8,10,-1,12,-1,-1,-1,-1,-1,-1],"split_conditions":[8.5253835E-2,1.4302273E-2,-3.5278445E-1,-3.3136207E-4,-1.8026318E-2,3.8039222E-2,2.941208E-2,1.4135079E-2,-4.5720343E-2,5.869912E-2,5.7992544E-3,-5.010413E-2,-1.4102329E-2],"split_indices":[9,3,3,15,2,0,11,0,0,0,0,0,0],"split_type":[0,0,0,0,0,0,0,0,0,0,0,0,0],"sum_hessian":[7.019509E2,4.779177E2,2.2403322E2,2.2560483E2,2.5231285E2,1.2497086E1,2.1153613E2,1.414129E2,8.419193E1,6.1434193E1,1.9087866E2,4.2096886E1,1.6943924E2],"tree_param":{"num_deleted":"0","num_feature":"19","num_nodes":"13","size_leaf_vector":"1"}},{"base_weights":[2.7335988E-2,-8.977807E-2,3.955911E-2,8.648824E-2,-1.5687074E-1,1.961595E-2,-4.7172066E-3,-5.2099388E-2,-0E0],"categories":[],"categories_nodes":[],"categories_segments":[],"categories_sizes":[],"default_left":[0,0,0,0,0,0,0,0,0],"id":49,"left_children":[1,-1,3,5,7,-1,-1,-1,-1],"loss_changes":[6.2295685E0,0E0,6.38963E0,9.028315E0,6.691453E0,0E0,0E0,0E0,0E0],"parents":[2147483647,0,0,2,2,3,3,4,4],"right_children":[2,-1,4,6,8,-1,-1,-1,-1],"split_conditions":[2.0054E-2,-8.977807E-2,9.597626E-2,8.8643195E-4,8.333201E-2,1.961595E-2,-4.7172066E-3,-5.2099388E-2,-0E0],"split_indices":[17,0,18,15,11,0,0,0,0],"split_type":[0,0,0,0,0,0,0,0,0],"sum_hessian":[7.1426996E2,6.040856E0,7.0822906E2,5.813086E2,1.2692052E2,3.2662277E2,2.546858E2,3.479709E1,9.212343E1],"tree_param":{"num_deleted":"0","num_feature":"19","num_nodes":"9","size_leaf_vector":"1"}},{"base_weights":[4.775325E-2,-2.4543323E-2,2.243632E-1,8.121195E-2,-1.8782023E-1,4.9648958E-1,3.524762E-2,-9.280388E-3,3.3403695E-2,-2.4803134E-2,7.665571E-2,1.0989141E-1,9.396374E-3,-2.4269193E-2,3.3872947E-2],"categories":[],"categories_nodes":[],"categories_segments":[],"categories_sizes":[],"default_left":[0,0,0,0,0,0,0,0,0,0,0,0,0,0,0],"id":50,"left_children":[1,3,5,7,9,11,13,-1,-1,-1,-1,-1,-1,-1,-1],"loss_changes":[9.686747E0,8.968721E0,1.0063961E1,1.3906874E1,1.1360662E1,1.8049046E1,1.1870166E1,0E0,0E0,0E0,0E0,0E0,0E0,0E0,0E0],"parents":[2147483647,0,0,1,1,2,2,3,3,4,4,5,5,6,6],"right_children":[2,4,6,8,10,12,14,-1,-1,-1,-1,-1,-1,-1,-1],"split_conditions":[5.821713E-2,-1.3762037E-2,9.286735E-2,-3.8584113E-2,7.1772434E-2,7.6754712E-3,2.8879973E-1,-9.280388E-3,3.3403695E-2,-2.4803134E-2,7.665571E-2,1.0989141E-1,9.396374E-3,-2.4269193E-2,3.3872947E-2],"split_indices":[2,2,3,3,1,16,3,0,0,0,0,0,0,0,0],"split_type":[0,0,0,0,0,0,0,0,0,0,0,0,0,0,0],"sum_hessian":[7.221396E2,5.0385858E2,2.1828098E2,2.9767722E2,2.0618137E2,8.403555E1,1.3424542E2,1.718574E2,1.2581983E2,1.964436E2,9.737758E0,3.0501183E1,5.353437E1,6.638062E1,6.78648E1],"tree_param":{"num_deleted":"0","num_feature":"19","num_nodes":"15","size_leaf_vector":"1"}},{"base_weights":[-3.8685396E-3,-3.145244E-2,4.843211E-1,3.2347348E-1,-6.2741876E-2,8.526658E-1,-0E0,-7.381757E-2,6.449157E-2,-8.125225E-2,-3.6372214E-3,-0E0,1.0905276E-1],"categories":[],"categories_nodes":[],"categories_segments":[],"categories_sizes":[],"default_left":[0,0,0,0,0,0,0,0,0,0,0,0,0],"id":51,"left_children":[1,3,5,7,9,11,-1,-1,-1,-1,-1,-1,-1],"loss_changes":[8.485634E0,6.8977056E0,7.6876445E0,1.7217098E1,1.0362361E1,6.217103E0,0E0,0E0,0E0,0E0,0E0,0E0,0E0],"parents":[2147483647,0,0,1,1,2,2,3,3,4,4,5,5],"right_children":[2,4,6,8,10,12,-1,-1,-1,-1,-1,-1,-1],"split_conditions":[1.8274894E-1,3.33562E-2,2.4467625E-1,9.757296E-3,2.4785269E-2,-1.03179805E-1,-0E0,-7.381757E-2,6.449157E-2,-8.125225E-2,-3.6372214E-3,-0E0,1.0905276E-1],"split_indices":[18,9,4,18,17,15,0,0,0,0,0,0,0],"split_type":[0,0,0,0,0,0,0,0,0,0,0,0,0],"sum_hessian":[7.041253E2,6.716031E2,3.252219E1,4.7920345E1,6.2368274E2,2.0482422E1,1.203977E1,9.35149E0,3.8568855E1,1.7030596E1,6.0665216E2,3.3593826E0,1.712304E1],"tree_param":{"num_deleted":"0","num_feature":"19","num_nodes":"13","size_leaf_vector":"1"}},{"base_weights":[-5.6696753E-3,7.0902675E-2,-1.5950742E-1,1.9738574E-1,-3.150415E-2,-3.2718924E-1,5.1048156E-2,-1.087455E-2,2.9849779E-2,-1.5874948E-2,1.4048865E-2,5.556454E-3,-4.6141934E-2,-9.297431E-2,1.3337798E-2],"categories":[],"categories_nodes":[],"categories_segments":[],"categories_sizes":[],"default_left":[0,0,0,0,0,0,0,0,0,0,0,0,0,0,0],"id":52,"left_children":[1,3,5,7,9,11,13,-1,-1,-1,-1,-1,-1,-1,-1],"loss_changes":[8.573138E0,6.4005356E0,9.322526E0,7.386404E0,5.5742474E0,8.505461E0,6.858681E0,0E0,0E0,0E0,0E0,0E0,0E0,0E0,0E0],"parents":[2147483647,0,0,1,1,2,2,3,3,4,4,5,5,6,6],"right_children":[2,4,6,8,10,12,14,-1,-1,-1,-1,-1,-1,-1,-1],"split_conditions":[2.5E-1,-3.4722462E-3,1.4705895E-2,-8.3333147E-1,1.3888696E-2,2.4033843E-2,2.4393208E-2,-1.087455E-2,2.9849779E-2,-1.5874948E-2,1.4048865E-2,5.556454E-3,-4.6141934E-2,-9.297431E-2,1.3337798E-2],"split_indices":[12,10,10,13,8,18,17,0,0,0,0,0,0,0,0],"split_type":[0,0,0,0,0,0,0,0,0,0,0,0,0,0,0],"sum_hessian":[7.0913965E2,4.639965E2,2.4514316E2,2.1708685E2,2.4690964E2,1.4215982E2,1.0298334E2,4.923644E1,1.6785042E2,1.4921935E2,9.7690285E1,3.343986E1,1.08719955E2,5.223912E0,9.775942E1],"tree_param":{"num_deleted":"0","num_feature":"19","num_nodes":"15","size_leaf_vector":"1"}},{"base_weights":[1.3045505E-2,3.8822022E-1,-2.5328567E-2,-1.2651531E-1,4.869065E-1,-4.314121E-1,2.7345184E-2,2.6619509E-2,-9.869115E-2,6.2507216E-4,7.8596376E-2,4.578279E-2,-5.654941E-2,-7.082281E-3,1.6146505E-2],"categories":[],"categories_nodes":[],"categories_segments":[],"categories_sizes":[],"default_left":[0,0,0,0,0,0,0,0,0,0,0,0,0,0,0],"id":53,"left_children":[1,3,5,7,9,11,13,-1,-1,-1,-1,-1,-1,-1,-1],"loss_changes":[1.0937599E1,4.455592E0,1.4450045E1,4.74116E0,7.4649143E0,1.0076757E1,7.647399E0,0E0,0E0,0E0,0E0,0E0,0E0,0E0,0E0],"parents":[2147483647,0,0,1,1,2,2,3,3,4,4,5,5,6,6],"right_children":[2,4,6,8,10,12,14,-1,-1,-1,-1,-1,-1,-1,-1],"split_conditions":[-3.5132408E0,3.3330627E-2,-1.7455289E0,-2.3894815E-2,-4.4104706E-2,4.6318043E-2,6.628538E-2,2.6619509E-2,-9.869115E-2,6.2507216E-4,7.8596376E-2,4.578279E-2,-5.654941E-2,-7.082281E-3,1.6146505E-2],"split_indices":[6,17,5,1,15,9,9,0,0,0,0,0,0,0,0],"split_type":[0,0,0,0,0,0,0,0,0,0,0,0,0,0,0],"sum_hessian":[7.0143604E2,6.98097E1,6.3162634E2,7.516453E0,6.2293243E1,7.6724594E1,5.5490173E2,3.7918901E0,3.724563E0,2.741399E1,3.4879253E1,7.856248E0,6.886835E1,3.115232E2,2.4337856E2],"tree_param":{"num_deleted":"0","num_feature":"19","num_nodes":"15","size_leaf_vector":"1"}},{"base_weights":[-0E0,-3.2157913E-1,2.2626992E-2,-0E0,-9.170378E-1,2.2555265E-1,-4.4376414E-2,3.1089153E-2,-3.6763214E-2,-0E0,-1.1189383E-1,-1.0554568E-2,5.975315E-2,-3.863336E-2,3.0041067E-3],"categories":[],"categories_nodes":[],"categories_segments":[],"categories_sizes":[],"default_left":[0,0,0,0,0,0,0,0,0,0,0,0,0,0,0],"id":54,"left_children":[1,3,5,7,9,11,13,-1,-1,-1,-1,-1,-1,-1,-1],"loss_changes":[5.450923E0,1.0072052E1,9.429983E0,3.806316E0,3.6054554E0,2.2816387E1,1.3461814E1,0E0,0E0,0E0,0E0,0E0,0E0,0E0,0E0],"parents":[2147483647,0,0,1,1,2,2,3,3,4,4,5,5,6,6],"right_children":[2,4,6,8,10,12,14,-1,-1,-1,-1,-1,-1,-1,-1],"split_conditions":[-3.0219293E-1,-4.047571E0,-3.69132E-2,1.4285734E-1,-5.8830734E-2,-7.32338E-2,-1.2478037E-1,3.1089153E-2,-3.6763214E-2,-0E0,-1.1189383E-1,-1.0554568E-2,5.975315E-2,-3.863336E-2,3.0041067E-3],"split_indices":[4,5,2,12,15,3,5,0,0,0,0,0,0,0,0],"split_type":[0,0,0,0,0,0,0,0,0,0,0,0,0,0,0],"sum_hessian":[7.105761E2,4.8565887E1,6.620102E2,3.1373276E1,1.7192612E1,1.7217372E2,4.898365E2,1.80385E1,1.3334776E1,3.2873056E0,1.3905307E1,8.868236E1,8.3491356E1,9.1853874E1,3.979826E2],"tree_param":{"num_deleted":"0","num_feature":"19","num_nodes":"15","size_leaf_vector":"1"}},{"base_weights":[6.5446645E-2,3.50221E-2,3.0708686E-1,6.449568E-2,-3.108962E-1,5.7276124E-1,-0E0,9.024794E-3,-3.0067857E-2,-5.360241E-2,2.5373561E-2,6.942385E-2,-1.3283237E-2,-4.871044E-2,4.2094074E-2],"categories":[],"categories_nodes":[],"categories_segments":[],"categories_sizes":[],"default_left":[0,0,0,0,0,0,0,0,0,0,0,0,0,0,0],"id":55,"left_children":[1,3,5,7,9,11,13,-1,-1,-1,-1,-1,-1,-1,-1],"loss_changes":[4.471178E0,6.024838E0,6.986246E0,5.3850183E0,6.570768E0,5.114444E0,6.66994E0,0E0,0E0,0E0,0E0,0E0,0E0,0E0,0E0],"parents":[2147483647,0,0,1,1,2,2,3,3,4,4,5,5,6,6],"right_children":[2,4,6,8,10,12,14,-1,-1,-1,-1,-1,-1,-1,-1],"split_conditions":[7.305749E-2,3.9389666E-2,1.09999694E-1,1.5265754E-1,8.802607E-2,5.18518E-1,1.03669584E-1,9.024794E-3,-3.0067857E-2,-5.360241E-2,2.5373561E-2,6.942385E-2,-1.3283237E-2,-4.871044E-2,4.2094074E-2],"split_indices":[1,16,18,9,18,11,16,0,0,0,0,0,0,0,0],"split_type":[0,0,0,0,0,0,0,0,0,0,0,0,0,0,0],"sum_hessian":[7.134854E2,6.4286127E2,7.0624176E1,5.9903986E2,4.3821396E1,4.098289E1,2.9641281E1,5.651139E2,3.3926E1,3.405207E1,9.769323E0,3.744756E1,3.5353317E0,1.5878988E1,1.3762293E1],"tree_param":{"num_deleted":"0","num_feature":"19","num_nodes":"15","size_leaf_vector":"1"}},{"base_weights":[-2.4698224E-2,2.1983969E-1,-7.740065E-2,-1.3042489E-1,4.7187182E-1,8.808283E-2,-9.7327985E-2,-0E0,-6.047659E-2,-3.6082275E-2,7.2813526E-2,-3.0406514E-2,-0E0],"categories":[],"categories_nodes":[],"categories_segments":[],"categories_sizes":[],"default_left":[0,0,0,0,0,0,0,0,0,0,0,0,0],"id":56,"left_children":[1,3,5,7,9,-1,11,-1,-1,-1,-1,-1,-1],"loss_changes":[8.641908E0,1.1040932E1,9.438614E0,4.122072E0,1.6670326E1,0E0,1.1744141E1,0E0,0E0,0E0,0E0,0E0,0E0],"parents":[2147483647,0,0,1,1,2,2,3,3,4,4,6,6],"right_children":[2,4,6,8,10,-1,12,-1,-1,-1,-1,-1,-1],"split_conditions":[-1.6912621E-1,-1.6566382E-1,-4.9661617E0,-4.047571E0,3.196091E-2,8.808283E-2,-2.061662E-1,-0E0,-6.047659E-2,-3.6082275E-2,7.2813526E-2,-3.0406514E-2,-0E0],"split_indices":[3,4,6,5,17,0,5,0,0,0,0,0,0],"split_type":[0,0,0,0,0,0,0,0,0,0,0,0,0],"sum_hessian":[6.9346875E2,1.14886246E2,5.7858246E2,4.4505325E1,7.038092E1,8.654016E0,5.6992847E2,3.2200558E1,1.2304769E1,1.4673064E1,5.570786E1,1.816875E2,3.8824097E2],"tree_param":{"num_deleted":"0","num_feature":"19","num_nodes":"13","size_leaf_vector":"1"}},{"base_weights":[-4.5811804E-3,1.01154245E-1,-8.434867E-2,-5.927952E-2,1.3825883E-1,6.669313E-1,-1.3015185E-1,-5.8092074E-3,2.7933257E-2,-0E0,1.1014837E-1,-2.9568546E-2,-0E0],"categories":[],"categories_nodes":[],"categories_segments":[],"categories_sizes":[],"default_left":[0,0,0,0,0,0,0,0,0,0,0,0,0],"id":57,"left_children":[1,3,5,-1,7,9,11,-1,-1,-1,-1,-1,-1],"loss_changes":[5.8442845E0,6.496135E0,1.2961114E1,0E0,8.331345E0,4.6230106E0,7.8440537E0,0E0,0E0,0E0,0E0,0E0,0E0],"parents":[2147483647,0,0,1,1,2,2,4,4,5,5,6,6],"right_children":[2,4,6,-1,8,10,12,-1,-1,-1,-1,-1,-1],"split_conditions":[-1.3762037E-2,2.3440769E-2,3.1957656E-2,-5.927952E-2,-1.9602692E-1,2.8352581E-2,5.135976E-2,-5.8092074E-3,2.7933257E-2,-0E0,1.1014837E-1,-2.9568546E-2,-0E0],"split_indices":[2,17,9,0,4,9,2,0,0,0,0,0,0],"split_type":[0,0,0,0,0,0,0,0,0,0,0,0,0],"sum_hessian":[6.956801E2,2.868942E2,4.0878592E2,1.0745869E1,2.7614835E2,1.9989725E1,3.8879617E2,1.0994685E2,1.6620148E2,9.579721E0,1.0410003E1,1.6171906E2,2.2707712E2],"tree_param":{"num_deleted":"0","num_feature":"19","num_nodes":"13","size_leaf_vector":"1"}},{"base_weights":[2.438533E-2,-8.03881E-2,1.1228667E-1,-1.7985159E-1,1.7779231E-1,3.734528E-1,-4.5543697E-2,-5.779641E-2,-8.056038E-3,-4.1101677E-3,5.6631707E-2,-4.4668123E-2,4.2576566E-2,-1.992963E-2,2.6716836E-2],"categories":[],"categories_nodes":[],"categories_segments":[],"categories_sizes":[],"default_left":[0,0,0,0,0,0,0,0,0,0,0,0,0,0,0],"id":58,"left_children":[1,3,5,7,9,11,13,-1,-1,-1,-1,-1,-1,-1,-1],"loss_changes":[6.5309467E0,7.951087E0,1.6952213E1,7.574474E0,8.098695E0,7.168005E0,1.1648914E1,0E0,0E0,0E0,0E0,0E0,0E0,0E0,0E0],"parents":[2147483647,0,0,1,1,2,2,3,3,4,4,5,5,6,6],"right_children":[2,4,6,8,10,12,14,-1,-1,-1,-1,-1,-1,-1,-1],"split_conditions":[-2.7615686E-3,5.264043E-2,1.7858138E-2,-1.636015E-2,-1.4980456E-1,-2.2768138E-2,2.8879973E-1,-5.779641E-2,-8.056038E-3,-4.1101677E-3,5.6631707E-2,-4.4668123E-2,4.2576566E-2,-1.992963E-2,2.6716836E-2],"split_indices":[3,17,2,8,3,16,3,0,0,0,0,0,0,0,0],"split_type":[0,0,0,0,0,0,0,0,0,0,0,0,0,0,0],"sum_hessian":[6.996194E2,3.0751022E2,3.9210913E2,2.2848195E2,7.902828E1,1.5263913E2,2.3947002E2,3.9619617E1,1.8886234E2,4.7547535E1,3.1480745E1,6.7247486E0,1.4591437E2,1.6535417E2,7.4115845E1],"tree_param":{"num_deleted":"0","num_feature":"19","num_nodes":"15","size_leaf_vector":"1"}},{"base_weights":[-4.3721255E-2,3.1678963E-3,-2.3271804E-1,-5.6608224E-1,2.647414E-2,-3.2862607E-1,1.9485375E-1,3.0062558E-2,-9.157221E-2,1.7318908E-2,-8.142883E-3,-4.6886217E-2,-0E0,5.8124144E-2,-1.3124734E-2],"categories":[],"categories_nodes":[],"categories_segments":[],"categories_sizes":[],"default_left":[0,0,0,0,0,0,0,0,0,0,0,0,0,0,0],"id":59,"left_children":[1,3,5,7,9,11,13,-1,-1,-1,-1,-1,-1,-1,-1],"loss_changes":[6.5809145E0,5.9531584E0,6.3259325E0,7.0542355E0,8.627787E0,6.634386E0,4.0198994E0,0E0,0E0,0E0,0E0,0E0,0E0,0E0,0E0],"parents":[2147483647,0,0,1,1,2,2,3,3,4,4,5,5,6,6],"right_children":[2,4,6,8,10,12,14,-1,-1,-1,-1,-1,-1,-1,-1],"split_conditions":[1.6051453E-2,-5.2434437E-2,8.888919E-1,-3.5132408E0,-6.774868E-3,2.0487848E-1,5.4312993E-2,3.0062558E-2,-9.157221E-2,1.7318908E-2,-8.142883E-3,-4.6886217E-2,-0E0,5.8124144E-2,-1.3124734E-2],"split_indices":[8,8,13,6,0,3,10,0,0,0,0,0,0,0,0],"split_type":[0,0,0,0,0,0,0,0,0,0,0,0,0,0,0],"sum_hessian":[6.832751E2,5.385763E2,1.4469879E2,1.6588371E1,5.219879E2,1.2265795E2,2.2040836E1,3.0293934E0,1.3558978E1,2.2933762E2,2.926503E2,8.8549904E1,3.410805E1,1.2867914E1,9.172923E0],"tree_param":{"num_deleted":"0","num_feature":"19","num_nodes":"15","size_leaf_vector":"1"}},{"base_weights":[-3.055127E-2,-1.8785842E-1,2.9222082E-2,-4.6997416E-1,-4.4521388E-2,3.6221856E-1,-1.8688085E-2,1.1729065E-3,-7.346853E-2,3.3590257E-2,-2.3854561E-2,7.103089E-2,-1.1383494E-3,-3.27397E-2,4.817439E-3],"categories":[],"categories_nodes":[],"categories_segments":[],"categories_sizes":[],"default_left":[0,0,0,0,0,0,0,0,0,0,0,0,0,0,0],"id":60,"left_children":[1,3,5,7,9,11,13,-1,-1,-1,-1,-1,-1,-1,-1],"loss_changes":[6.8305697E0,6.906164E0,8.579374E0,9.730122E0,1.0270406E1,1.0513497E1,9.489973E0,0E0,0E0,0E0,0E0,0E0,0E0,0E0,0E0],"parents":[2147483647,0,0,1,1,2,2,3,3,4,4,5,5,6,6],"right_children":[2,4,6,8,10,12,14,-1,-1,-1,-1,-1,-1,-1,-1],"split_conditions":[-9.954398E-2,5.7829093E-2,-8.482728E-4,-1.6988977E0,5.5902306E-2,1.0699607E0,3.0068925E-3,1.1729065E-3,-7.346853E-2,3.3590257E-2,-2.3854561E-2,7.103089E-2,-1.1383494E-3,-3.27397E-2,4.817439E-3],"split_indices":[4,9,16,6,18,6,16,0,0,0,0,0,0,0,0],"split_type":[0,0,0,0,0,0,0,0,0,0,0,0,0,0,0],"sum_hessian":[6.870397E2,1.9905376E2,4.879859E2,6.1100906E1,1.3795285E2,6.6585594E1,4.214003E2,1.9277218E1,4.182369E1,4.2574425E1,9.5378426E1,3.6895386E1,2.9690207E1,8.0209755E1,3.4119055E2],"tree_param":{"num_deleted":"0","num_feature":"19","num_nodes":"15","size_leaf_vector":"1"}},{"base_weights":[1.812414E-2,-1.5713507E-1,6.30278E-2,-0E0,-3.8497385E-1,1.3720414E-1,-6.1135355E-2,3.2785144E-2,-1.1688331E-2,-5.7748884E-2,3.2599212E-3,-8.019516E-2,1.5920825E-2,-1.3516811E-2,4.4761967E-2],"categories":[],"categories_nodes":[],"categories_segments":[],"categories_sizes":[],"default_left":[0,0,0,0,0,0,0,0,0,0,0,0,0,0,0],"id":61,"left_children":[1,3,5,7,9,11,13,-1,-1,-1,-1,-1,-1,-1,-1],"loss_changes":[5.409226E0,5.6445913E0,5.507677E0,3.4194539E0,6.25208E0,6.883924E0,7.257332E0,0E0,0E0,0E0,0E0,0E0,0E0,0E0,0E0],"parents":[2147483647,0,0,1,1,2,2,3,3,4,4,5,5,6,6],"right_children":[2,4,6,8,10,12,14,-1,-1,-1,-1,-1,-1,-1,-1],"split_conditions":[-3.8367978E-1,5.0657723E-2,3.4841013E-1,-2.7151925E-2,6.0559455E-2,-4.2800826E-1,8.499982E-1,3.2785144E-2,-1.1688331E-2,-5.7748884E-2,3.2599212E-3,-8.019516E-2,1.5920825E-2,-1.3516811E-2,4.4761967E-2],"split_indices":[7,18,7,2,1,4,13,0,0,0,0,0,0,0,0],"split_type":[0,0,0,0,0,0,0,0,0,0,0,0,0,0,0],"sum_hessian":[7.1235297E2,1.3460922E2,5.777437E2,7.481527E1,5.9793957E1,3.7298538E2,2.0475833E2,2.3856865E1,5.0958405E1,4.4059334E1,1.5734622E1,5.9390635E0,3.6704633E2,1.8296532E2,2.1793022E1],"tree_param":{"num_deleted":"0","num_feature":"19","num_nodes":"15","size_leaf_vector":"1"}},{"base_weights":[4.587616E-3,9.047278E-2,-1.00946285E-1,2.5863634E-2,5.2098006E-1,-5.305629E-1,-3.1688657E-2,9.839565E-3,-8.4025376E-2,-2.6870878E-2,6.596911E-2,-0E0,-1.026569E-1,5.2748237E-2,-7.5847744E-3],"categories":[],"categories_nodes":[],"categories_segments":[],"categories_sizes":[],"default_left":[0,0,0,0,0,0,0,0,0,0,0,0,0,0,0],"id":62,"left_children":[1,3,5,7,9,11,13,-1,-1,-1,-1,-1,-1,-1,-1],"loss_changes":[6.2624774E0,9.717788E0,7.626733E0,2.066988E1,6.38511E0,9.257196E0,5.6499596E0,0E0,0E0,0E0,0E0,0E0,0E0,0E0,0E0],"parents":[2147483647,0,0,1,1,2,2,3,3,4,4,5,5,6,6],"right_children":[2,4,6,8,10,12,14,-1,-1,-1,-1,-1,-1,-1,-1],"split_conditions":[5.4942753E-2,7.86724E-2,6.3470654E-2,5.343516E-2,-1.5413703E-2,2.0840606E-3,6.760341E-2,9.839565E-3,-8.4025376E-2,-2.6870878E-2,6.596911E-2,-0E0,-1.026569E-1,5.2748237E-2,-7.5847744E-3],"split_indices":[18,2,9,10,15,16,9,0,0,0,0,0,0,0,0],"split_type":[0,0,0,0,0,0,0,0,0,0,0,0,0,0,0],"sum_hessian":[6.918067E2,3.9325522E2,2.9855148E2,3.472867E2,4.5968513E1,3.613053E1,2.6242093E2,3.2346225E2,2.3824461E1,4.5486174E0,4.1419895E1,1.8624893E1,1.7505638E1,1.4919997E1,2.4750095E2],"tree_param":{"num_deleted":"0","num_feature":"19","num_nodes":"15","size_leaf_vector":"1"}},{"base_weights":[-1.5644522E-3,4.7071867E-2,-1.4827973E-1,-5.6297474E-2,1.9371481E-1,-4.329425E-1,5.5889547E-2,5.359875E-4,-5.6791633E-2,4.673573E-2,-2.7143024E-4,-9.878862E-2,1.1528631E-3,3.2922976E-2,-2.8530791E-2],"categories":[],"categories_nodes":[],"categories_segments":[],"categories_sizes":[],"default_left":[0,0,0,0,0,0,0,0,0,0,0,0,0,0,0],"id":63,"left_children":[1,3,5,7,9,11,13,-1,-1,-1,-1,-1,-1,-1,-1],"loss_changes":[5.2347403E0,8.132175E0,1.1693949E1,1.0643984E1,1.3172853E1,2.2871746E1,1.0098071E1,0E0,0E0,0E0,0E0,0E0,0E0,0E0,0E0],"parents":[2147483647,0,0,1,1,2,2,3,3,4,4,5,5,6,6],"right_children":[2,4,6,8,10,12,14,-1,-1,-1,-1,-1,-1,-1,-1],"split_conditions":[1.3978678E-1,1.037355E-3,1.0356866E-2,-1.3762037E-2,1.5348323E-2,4.7812816E-2,5.479627E-2,5.359875E-4,-5.6791633E-2,4.673573E-2,-2.7143024E-4,-9.878862E-2,1.1528631E-3,3.2922976E-2,-2.8530791E-2],"split_indices":[3,2,15,2,1,17,17,0,0,0,0,0,0,0,0],"split_type":[0,0,0,0,0,0,0,0,0,0,0,0,0,0,0],"sum_hessian":[6.999172E2,5.145593E2,1.8535785E2,2.9310526E2,2.2145406E2,8.162632E1,1.0373153E2,2.5867245E2,3.443281E1,9.6066826E1,1.2538723E2,3.7784718E1,4.38416E1,6.117274E1,4.255879E1],"tree_param":{"num_deleted":"0","num_feature":"19","num_nodes":"15","size_leaf_vector":"1"}},{"base_weights":[-8.697184E-3,-2.7053673E-2,4.4148672E-2,5.293955E-2,-1.24244824E-1,-3.254288E-2,1.4443317E-2,2.1641897E-2,-2.1696748E-2],"categories":[],"categories_nodes":[],"categories_segments":[],"categories_sizes":[],"default_left":[0,0,0,0,0,0,0,0,0],"id":64,"left_children":[1,3,-1,5,7,-1,-1,-1,-1],"loss_changes":[4.8691278E0,5.4142313E0,0E0,1.22727585E1,1.0320034E1,0E0,0E0,0E0,0E0],"parents":[2147483647,0,0,1,1,3,3,4,4],"right_children":[2,4,-1,6,8,-1,-1,-1,-1],"split_conditions":[9.1176605E-1,5.221822E-2,4.4148672E-2,-1.5873017E-2,-1.1720194E-1,-3.254288E-2,1.4443317E-2,2.1641897E-2,-2.1696748E-2],"split_indices":[13,18,0,8,2,0,0,0,0],"split_type":[0,0,0,0,0,0,0,0,0],"sum_hessian":[6.956201E2,6.741276E2,2.1492493E1,3.572714E2,3.1685623E2,6.4703026E1,2.9256836E2,6.3113186E1,2.5374304E2],"tree_param":{"num_deleted":"0","num_feature":"19","num_nodes":"9","size_leaf_vector":"1"}},{"base_weights":[1.9446032E-2,-1.1904354E-1,8.296133E-2,-2.2780186E-1,2.1273822E-1,2.3610148E-1,-6.86024E-2,-0E0,-5.7060555E-2,8.8424556E-2,-6.8713026E-3,-0E0,3.4589957E-2,-5.9027746E-2,8.974116E-3],"categories":[],"categories_nodes":[],"categories_segments":[],"categories_sizes":[],"default_left":[0,0,0,0,0,0,0,0,0,0,0,0,0,0,0],"id":65,"left_children":[1,3,5,7,9,11,13,-1,-1,-1,-1,-1,-1,-1,-1],"loss_changes":[6.094394E0,7.6405582E0,1.181909E1,1.3911044E1,1.0917668E1,6.7055407E0,2.1341032E1,0E0,0E0,0E0,0E0,0E0,0E0,0E0,0E0],"parents":[2147483647,0,0,1,1,2,2,3,3,4,4,5,5,6,6],"right_children":[2,4,6,8,10,12,14,-1,-1,-1,-1,-1,-1,-1,-1],"split_conditions":[-7.6513E-2,5.018417E-1,3.168715E-2,-1.7280152E-1,-6.6073462E-3,4.311391E-3,6.145951E-2,-0E0,-5.7060555E-2,8.8424556E-2,-6.8713026E-3,-0E0,3.4589957E-2,-5.9027746E-2,8.974116E-3],"split_indices":[3,6,2,3,15,3,2,0,0,0,0,0,0,0,0],"split_type":[0,0,0,0,0,0,0,0,0,0,0,0,0,0,0],"sum_hessian":[7.002606E2,2.0878145E2,4.914792E2,1.625597E2,4.6221764E1,2.5162791E2,2.3985126E2,9.5745834E1,6.681386E1,1.5368552E1,3.085321E1,8.1577034E1,1.7005089E2,5.8396507E1,1.8145476E2],"tree_param":{"num_deleted":"0","num_feature":"19","num_nodes":"15","size_leaf_vector":"1"}},{"base_weights":[7.853918E-3,4.0300544E-2,-2.6815373E-1,-3.745434E-2,1.3645796E-1,7.912969E-3,-5.0232166E-1,2.069192E-3,-4.6148922E-2,5.1944893E-2,2.7211858E-3,-0E0,-7.969759E-2],"categories":[],"categories_nodes":[],"categories_segments":[],"categories_sizes":[],"default_left":[0,0,0,0,0,0,0,0,0,0,0,0,0],"id":66,"left_children":[1,3,5,7,9,-1,11,-1,-1,-1,-1,-1,-1],"loss_changes":[5.8025727E0,4.9994755E0,6.436445E0,9.505921E0,1.1345673E1,0E0,6.1907806E0,0E0,0E0,0E0,0E0,0E0,0E0],"parents":[2147483647,0,0,1,1,2,2,3,3,4,4,6,6],"right_children":[2,4,6,8,10,-1,12,-1,-1,-1,-1,-1,-1],"split_conditions":[9.2000073E-1,4.839466E-1,8.333324E-2,5.3657543E-2,7.0941657E-1,7.912969E-3,3.7044026E-2,2.069192E-3,-4.6148922E-2,5.1944893E-2,2.7211858E-3,-0E0,-7.969759E-2],"split_indices":[14,5,12,4,6,0,18,0,0,0,0,0,0],"split_type":[0,0,0,0,0,0,0,0,0,0,0,0,0],"sum_hessian":[7.033902E2,6.37368E2,6.602225E1,3.3973325E2,2.9763474E2,2.2915657E1,4.3106586E1,2.950597E2,4.467355E1,6.0132236E1,2.3750249E2,1.7189022E1,2.5917566E1],"tree_param":{"num_deleted":"0","num_feature":"19","num_nodes":"13","size_leaf_vector":"1"}},{"base_weights":[4.6941848E-3,-4.0873564E-3,6.5666306E-1,-3.359225E-2,2.3624036E-1,9.949413E-2,-0E0,-1.1562606E-3,-6.454978E-2,4.356513E-2,-2.6422098E-2],"categories":[],"categories_nodes":[],"categories_segments":[],"categories_sizes":[],"default_left":[0,0,0,0,0,0,0,0,0,0,0],"id":67,"left_children":[1,3,5,7,9,-1,-1,-1,-1,-1,-1],"loss_changes":[5.4755754E0,4.4225454E0,4.2701926E0,6.908611E0,7.3125067E0,0E0,0E0,0E0,0E0,0E0,0E0],"parents":[2147483647,0,0,1,1,2,2,3,3,4,4],"right_children":[2,4,6,8,10,-1,-1,-1,-1,-1,-1],"split_conditions":[8.5185254E-1,7.305749E-2,1.1332697E-2,7.058968E-2,3.770492E-1,9.949413E-2,-0E0,-1.1562606E-3,-6.454978E-2,4.356513E-2,-2.6422098E-2],"split_indices":[11,1,2,16,11,0,0,0,0,0,0],"split_type":[0,0,0,0,0,0,0,0,0,0,0],"sum_hessian":[6.981462E2,6.863013E2,1.1844867E1,6.2027356E2,6.602774E1,8.829633E0,3.0152345E0,6.0335815E2,1.6915415E1,5.0309574E1,1.5718167E1],"tree_param":{"num_deleted":"0","num_feature":"19","num_nodes":"11","size_leaf_vector":"1"}},{"base_weights":[3.6451537E-2,-5.0797564E-1,5.7590403E-2,-0E0,-1.1696559E-1,8.4325224E-2,-2.0288168E-1,4.5902855E-3,6.0110744E-2,-3.698521E-2,3.2532625E-2],"categories":[],"categories_nodes":[],"categories_segments":[],"categories_sizes":[],"default_left":[0,0,0,0,0,0,0,0,0,0,0],"id":68,"left_children":[1,3,5,-1,-1,7,9,-1,-1,-1,-1],"loss_changes":[7.0919137E0,7.1116023E0,4.488189E0,0E0,0E0,1.0928293E1,5.238397E0,0E0,0E0,0E0,0E0],"parents":[2147483647,0,0,1,1,2,2,5,5,6,6],"right_children":[2,4,6,-1,-1,8,10,-1,-1,-1,-1],"split_conditions":[-6.447129E-1,2.7083316E-1,1.5705541E-1,-0E0,-1.1696559E-1,3.0739563E0,3.913039E-1,4.5902855E-3,6.0110744E-2,-3.698521E-2,3.2532625E-2],"split_indices":[7,14,9,0,0,6,12,0,0,0,0],"split_type":[0,0,0,0,0,0,0,0,0,0,0],"sum_hessian":[7.014032E2,2.1487268E1,6.799159E2,1.3086167E1,8.401101E0,6.250043E2,5.491164E1,5.8741425E2,3.7590023E1,4.5006126E1,9.905512E0],"tree_param":{"num_deleted":"0","num_feature":"19","num_nodes":"11","size_leaf_vector":"1"}},{"base_weights":[-4.8868746E-2,6.7395315E-2,-9.902964E-2,1.4047667E-1,-9.566065E-1,-3.0729032E-1,-3.321996E-2,-2.609339E-3,6.0612477E-2,-1.3863505E-1,-0E0,2.557041E-2,-6.121071E-2,1.3339819E-2,-1.2776222E-2],"categories":[],"categories_nodes":[],"categories_segments":[],"categories_sizes":[],"default_left":[0,0,0,0,0,0,0,0,0,0,0,0,0,0,0],"id":69,"left_children":[1,3,5,7,9,11,13,-1,-1,-1,-1,-1,-1,-1,-1],"loss_changes":[4.1384015E0,1.3008228E1,6.0817466E0,1.5972279E1,5.7191706E0,2.051963E1,6.243584E0,0E0,0E0,0E0,0E0,0E0,0E0,0E0,0E0],"parents":[2147483647,0,0,1,1,2,2,3,3,4,4,5,5,6,6],"right_children":[2,4,6,8,10,12,14,-1,-1,-1,-1,-1,-1,-1,-1],"split_conditions":[3.278529E-2,1.83047E0,3.9343357E-2,7.833721E-2,3.1022947E-2,-6.6034086E-2,5.1143162E-2,-2.609339E-3,6.0612477E-2,-1.3863505E-1,-0E0,2.557041E-2,-6.121071E-2,1.3339819E-2,-1.2776222E-2],"split_indices":[17,6,17,3,17,3,18,0,0,0,0,0,0,0,0],"split_type":[0,0,0,0,0,0,0,0,0,0,0,0,0,0,0],"sum_hessian":[6.955348E2,1.9599995E2,4.9953482E2,1.8569316E2,1.03067875E1,1.10962204E2,3.8857263E2,1.341625E2,5.153066E1,7.2989893E0,3.0077987E0,3.6763687E1,7.419852E1,1.3237094E2,2.562017E2],"tree_param":{"num_deleted":"0","num_feature":"19","num_nodes":"15","size_leaf_vector":"1"}},{"base_weights":[-2.590967E-3,-6.846218E-2,1.4649715E-1,-0E0,-4.0794617E-1,2.1017575E-1,-2.4444091E-1,-1.328596E-2,1.3858198E-2,-8.0953486E-2,-0E0,6.8041305E-3,4.9809434E-2,3.5986565E-2,-6.4382106E-2],"categories":[],"categories_nodes":[],"categories_segments":[],"categories_sizes":[],"default_left":[0,0,0,0,0,0,0,0,0,0,0,0,0,0,0],"id":70,"left_children":[1,3,5,7,9,11,13,-1,-1,-1,-1,-1,-1,-1,-1],"loss_changes":[6.6690125E0,1.0614653E1,5.0231514E0,7.8069353E0,1.1340868E1,6.126886E0,6.716794E0,0E0,0E0,0E0,0E0,0E0,0E0,0E0,0E0],"parents":[2147483647,0,0,1,1,2,2,3,3,4,4,5,5,6,6],"right_children":[2,4,6,8,10,12,14,-1,-1,-1,-1,-1,-1,-1,-1],"split_conditions":[6.145951E-2,3.168715E-2,2.3888355E-1,4.0627733E-2,3.7044026E-2,1.3797142E-1,6.191993E-2,-1.328596E-2,1.3858198E-2,-8.0953486E-2,-0E0,6.8041305E-3,4.9809434E-2,3.5986565E-2,-6.4382106E-2],"split_indices":[2,2,2,17,18,2,17,0,0,0,0,0,0,0,0],"split_type":[0,0,0,0,0,0,0,0,0,0,0,0,0,0,0],"sum_hessian":[6.95254E2,4.930149E2,2.0223912E2,4.161855E2,7.682939E1,1.7921335E2,2.3025768E1,2.202375E2,1.95948E2,3.55817E1,4.1247692E1,1.2660093E2,5.2612423E1,7.0145054E0,1.6011263E1],"tree_param":{"num_deleted":"0","num_feature":"19","num_nodes":"15","size_leaf_vector":"1"}},{"base_weights":[1.2439656E-3,6.560323E-2,-1.430529E-1,-9.961064E-3,1.8135026E-1,-4.3312892E-1,-0E0,-5.2110157E-3,4.2462602E-2,2.4459125E-2,-2.9052671E-2,-1.8310048E-2,-9.9516325E-2,5.631802E-2,-1.3418117E-2],"categories":[],"categories_nodes":[],"categories_segments":[],"categories_sizes":[],"default_left":[0,0,0,0,0,0,0,0,0,0,0,0,0,0,0],"id":71,"left_children":[1,3,5,7,9,11,13,-1,-1,-1,-1,-1,-1,-1,-1],"loss_changes":[6.372837E0,4.7467422E0,7.692619E0,4.590296E0,6.411123E0,6.1666183E0,1.0240645E1,0E0,0E0,0E0,0E0,0E0,0E0,0E0,0E0],"parents":[2147483647,0,0,1,1,2,2,3,3,4,4,5,5,6,6],"right_children":[2,4,6,8,10,12,14,-1,-1,-1,-1,-1,-1,-1,-1],"split_conditions":[1.294365E0,2.7450868E-1,8.424544E-2,4.6296187E-2,5.4312993E-2,9.4954535E-2,1.1114551E-1,-5.2110157E-3,4.2462602E-2,2.4459125E-2,-2.9052671E-2,-1.8310048E-2,-9.9516325E-2,5.631802E-2,-1.3418117E-2],"split_indices":[6,11,2,8,10,9,4,0,0,0,0,0,0,0,0],"split_type":[0,0,0,0,0,0,0,0,0,0,0,0,0,0,0],"sum_hessian":[7.0329016E2,4.974929E2,2.0579726E2,2.8968527E2,2.0780763E2,6.268595E1,1.4311131E2,2.6940826E2,2.0276985E1,1.8722862E2,2.0579018E1,4.720201E1,1.5483939E1,2.4105911E1,1.190054E2],"tree_param":{"num_deleted":"0","num_feature":"19","num_nodes":"15","size_leaf_vector":"1"}},{"base_weights":[4.661743E-2,-1.1345731E-1,8.352153E-2,-2.2292598E-1,5.287795E-1,3.79342E-1,4.0358588E-2,1.48279965E-2,-4.0615216E-2,9.098145E-2,-1.0946828E-2,1.1298441E-1,1.6935464E-2,3.3282816E-2,-2.3368888E-3],"categories":[],"categories_nodes":[],"categories_segments":[],"categories_sizes":[],"default_left":[0,0,0,0,0,0,0,0,0,0,0,0,0,0,0],"id":72,"left_children":[1,3,5,7,9,11,13,-1,-1,-1,-1,-1,-1,-1,-1],"loss_changes":[4.112048E0,7.933983E0,6.520014E0,8.081973E0,5.606821E0,7.629307E0,1.0497336E1,0E0,0E0,0E0,0E0,0E0,0E0,0E0,0E0],"parents":[2147483647,0,0,1,1,2,2,3,3,4,4,5,5,6,6],"right_children":[2,4,6,8,10,12,14,-1,-1,-1,-1,-1,-1,-1,-1],"split_conditions":[2.9790664E-2,6.369314E-2,3.278529E-2,-8.482728E-4,1.9932119E0,-1.6125153E-1,-1.6632922E-1,1.48279965E-2,-4.0615216E-2,9.098145E-2,-1.0946828E-2,1.1298441E-1,1.6935464E-2,3.3282816E-2,-2.3368888E-3],"split_indices":[17,2,17,16,5,4,3,0,0,0,0,0,0,0,0],"split_type":[0,0,0,0,0,0,0,0,0,0,0,0,0,0,0],"sum_hessian":[7.052612E2,1.20350525E2,5.849107E2,1.0630452E2,1.4046002E1,6.697087E1,5.179398E2,3.1496319E1,7.48082E1,1.069772E1,3.3482833E0,1.127273E1,5.569814E1,9.782186E1,4.2011795E2],"tree_param":{"num_deleted":"0","num_feature":"19","num_nodes":"15","size_leaf_vector":"1"}},{"base_weights":[-1.53266005E-2,3.9549258E-1,-4.343404E-2,-0E0,8.054304E-2,-2.0324346E-1,3.251929E-2,-3.8064484E-2,6.414435E-2,3.554674E-3,-3.5108637E-2,9.829974E-3,-4.3165248E-2],"categories":[],"categories_nodes":[],"categories_segments":[],"categories_sizes":[],"default_left":[0,0,0,0,0,0,0,0,0,0,0,0,0],"id":73,"left_children":[1,3,5,7,-1,9,11,-1,-1,-1,-1,-1,-1],"loss_changes":[7.118404E0,5.7341557E0,8.232266E0,5.811644E0,0E0,8.574159E0,1.2638585E1,0E0,0E0,0E0,0E0,0E0,0E0],"parents":[2147483647,0,0,1,1,2,2,3,3,5,5,6,6],"right_children":[2,4,6,8,-1,10,12,-1,-1,-1,-1,-1,-1],"split_conditions":[-5.79673E-2,-1.272888E-1,-1.2054582E-2,7.151289E-2,8.054304E-2,-2.2430593E-2,6.1422125E-2,-3.8064484E-2,6.414435E-2,3.554674E-3,-3.5108637E-2,9.829974E-3,-4.3165248E-2],"split_indices":[15,3,1,17,0,0,17,0,0,0,0,0,0],"split_type":[0,0,0,0,0,0,0,0,0,0,0,0,0],"sum_hessian":[6.8306E2,3.7882633E1,6.4517737E2,2.0853699E1,1.7028934E1,2.1694724E2,4.282301E2,1.253403E1,8.319668E0,7.83395E1,1.3860773E2,3.7968088E2,4.854923E1],"tree_param":{"num_deleted":"0","num_feature":"19","num_nodes":"13","size_leaf_vector":"1"}},{"base_weights":[4.5855325E-2,2.2845913E-1,-0E0,-1.6203022E-2,3.5056135E-1,4.884403E-2,-2.1518996E-1,7.952108E-2,1.4886672E-2,2.3978427E-3,1.15937E-1,-3.0784046E-2,5.5059243E-2],"categories":[],"categories_nodes":[],"categories_segments":[],"categories_sizes":[],"default_left":[0,0,0,0,0,0,0,0,0,0,0,0,0],"id":74,"left_children":[1,3,5,-1,7,9,11,-1,-1,-1,-1,-1,-1],"loss_changes":[5.3569474E0,6.7147727E0,5.600399E0,0E0,7.1702976E0,1.016375E1,6.699213E0,0E0,0E0,0E0,0E0,0E0,0E0],"parents":[2147483647,0,0,1,1,2,2,4,4,5,5,6,6],"right_children":[2,4,6,-1,8,10,12,-1,-1,-1,-1,-1,-1],"split_conditions":[-2.0217704E-2,-5.042566E-2,5.676257E-2,-1.6203022E-2,-1.4099367E-1,5.031831E-1,3.149403E-1,7.952108E-2,1.4886672E-2,2.3978427E-3,1.15937E-1,-3.0784046E-2,5.5059243E-2],"split_indices":[0,0,17,0,3,3,9,0,0,0,0,0,0],"split_type":[0,0,0,0,0,0,0,0,0,0,0,0,0],"sum_hessian":[6.909195E2,1.2964331E2,5.612762E2,2.6346983E1,1.03296326E2,4.652095E2,9.606669E1,2.752996E1,7.5766365E1,4.580132E2,7.1963034E0,8.8569244E1,7.4974427E0],"tree_param":{"num_deleted":"0","num_feature":"19","num_nodes":"13","size_leaf_vector":"1"}},{"base_weights":[-0E0,-1.6667014E-1,4.154633E-2,-6.1244674E-2,-6.2323105E-2,-6.962259E-2,9.711923E-2,-2.4063343E-2,1.2392519E-2,2.9300414E-3,-4.6026662E-2,-1.1284651E-4,2.108039E-2],"categories":[],"categories_nodes":[],"categories_segments":[],"categories_sizes":[],"default_left":[0,0,0,0,0,0,0,0,0,0,0,0,0],"id":75,"left_children":[1,3,5,7,-1,9,11,-1,-1,-1,-1,-1,-1],"loss_changes":[4.8861685E0,5.2579794E0,3.569602E0,4.3237805E0,0E0,7.8694377E0,4.9185276E0,0E0,0E0,0E0,0E0,0E0,0E0],"parents":[2147483647,0,0,1,1,2,2,3,3,5,5,6,6],"right_children":[2,4,6,8,-1,10,12,-1,-1,-1,-1,-1,-1],"split_conditions":[-3.8367978E-1,4.0000647E-1,-9.954398E-2,-2.4331943E-3,-6.2323105E-2,-9.420638E-1,4.6153966E-1,-2.4063343E-2,1.2392519E-2,2.9300414E-3,-4.6026662E-2,-1.1284651E-4,2.108039E-2],"split_indices":[7,13,4,8,0,5,14,0,0,0,0,0,0],"split_type":[0,0,0,0,0,0,0,0,0,0,0,0,0],"sum_hessian":[7.0576587E2,1.3981203E2,5.6595386E2,1.1858797E2,2.1224062E1,1.7503154E2,3.909223E2,6.607722E1,5.2510754E1,1.3593274E2,3.9098797E1,2.0104002E2,1.8988228E2],"tree_param":{"num_deleted":"0","num_feature":"19","num_nodes":"13","size_leaf_vector":"1"}},{"base_weights":[-1.0886612E-2],"categories":[],"categories_nodes":[],"categories_segments":[],"categories_sizes":[],"default_left":[0],"id":76,"left_children":[-1],"loss_changes":[0E0],"parents":[2147483647],"right_children":[-1],"split_conditions":[-1.079952E-3],"split_indices":[0],"split_type":[0],"sum_hessian":[6.9407184E2],"tree_param":{"num_deleted":"0","num_feature":"19","num_nodes":"1","size_leaf_vector":"1"}},{"base_weights":[-5.098101E-2,1.17821E-1,-1.0530878E-1,-5.315822E-2,1.9126122E-1,2.6835817E-1,-1.3742857E-1,2.4927234E-2,-5.572501E-2,-1.1677659E-2,4.914109E-2,-3.7001923E-2,-5.235656E-3],"categories":[],"categories_nodes":[],"categories_segments":[],"categories_sizes":[],"default_left":[0,0,0,0,0,0,0,0,0,0,0,0,0],"id":77,"left_children":[1,3,5,-1,7,9,11,-1,-1,-1,-1,-1,-1],"loss_changes":[6.213027E0,6.7873383E0,6.0322003E0,0E0,5.9179826E0,4.079375E0,8.777319E0,0E0,0E0,0E0,0E0,0E0,0E0],"parents":[2147483647,0,0,1,1,2,2,4,4,5,5,6,6],"right_children":[2,4,6,-1,8,10,12,-1,-1,-1,-1,-1,-1],"split_conditions":[-3.1840805E-2,2.9680995E-2,-1.1035483E-1,-5.315822E-2,2.681976E-2,-6.6485376E0,-6.255222E-3,2.4927234E-2,-5.572501E-2,-1.1677659E-2,4.914109E-2,-3.7001923E-2,-5.235656E-3],"split_indices":[10,17,2,0,8,6,1,0,0,0,0,0,0],"split_type":[0,0,0,0,0,0,0,0,0,0,0,0,0],"sum_hessian":[6.7853796E2,1.5486139E2,5.236766E2,1.1991947E1,1.4286945E2,3.5393284E1,4.8828326E2,1.356274E2,7.2420588E0,9.581921E0,2.5811365E1,1.2125827E2,3.67025E2],"tree_param":{"num_deleted":"0","num_feature":"19","num_nodes":"13","size_leaf_vector":"1"}},{"base_weights":[-3.683089E-3,4.232318E-1,-2.6157994E-2,-0E0,1.2679064E-1,-1.8053108E-1,2.7845286E-2,-4.196158E-2,5.698954E-2,-3.0876288E-2,1.1712255E-2,6.105012E-3,-7.361595E-2],"categories":[],"categories_nodes":[],"categories_segments":[],"categories_sizes":[],"default_left":[0,0,0,0,0,0,0,0,0,0,0,0,0],"id":78,"left_children":[1,3,5,7,-1,9,11,-1,-1,-1,-1,-1,-1],"loss_changes":[5.6989584E0,7.8295403E0,5.832178E0,5.936722E0,0E0,7.548034E0,1.088674E1,0E0,0E0,0E0,0E0,0E0,0E0],"parents":[2147483647,0,0,1,1,2,2,3,3,5,5,6,6],"right_children":[2,4,6,8,-1,10,12,-1,-1,-1,-1,-1,-1],"split_conditions":[-6.640332E-2,-3.5368211E0,-1.732076E-2,1.7482874E-1,1.2679064E-1,5.3479854E-2,7.813519E-2,-4.196158E-2,5.698954E-2,-3.0876288E-2,1.1712255E-2,6.105012E-3,-7.361595E-2],"split_indices":[15,5,15,18,0,17,17,0,0,0,0,0,0],"split_type":[0,0,0,0,0,0,0,0,0,0,0,0,0],"sum_hessian":[6.854013E2,2.8492361E1,6.5690894E2,2.1343369E1,7.148991E0,1.8054161E2,4.763673E2,1.0233747E1,1.1109623E1,1.3079517E2,4.9746445E1,4.5995853E2,1.6408787E1],"tree_param":{"num_deleted":"0","num_feature":"19","num_nodes":"13","size_leaf_vector":"1"}},{"base_weights":[1.8570755E-2,-6.442563E-2,8.907154E-2,-1.252613E-1,3.4906563E-1,1.4287412E-1,-2.0668007E-1,1.1165161E-2,-3.1132873E-2,-4.1314837E-2,5.805331E-2,-2.3548657E-2,1.99267E-2,-4.4675015E-2,2.7364776E-2],"categories":[],"categories_nodes":[],"categories_segments":[],"categories_sizes":[],"default_left":[0,0,0,0,0,0,0,0,0,0,0,0,0,0,0],"id":79,"left_children":[1,3,5,7,9,11,13,-1,-1,-1,-1,-1,-1,-1,-1],"loss_changes":[4.0939336E0,7.1404033E0,6.0518365E0,1.254867E1,6.7845316E0,7.348168E0,6.801352E0,0E0,0E0,0E0,0E0,0E0,0E0,0E0,0E0],"parents":[2147483647,0,0,1,1,2,2,3,3,4,4,5,5,6,6],"right_children":[2,4,6,8,10,12,14,-1,-1,-1,-1,-1,-1,-1,-1],"split_conditions":[3.9343357E-2,2.786178E-1,2.6235694E-1,-9.431978E-5,7.170421E-2,-3.0219293E-1,1.4671808E-1,1.1165161E-2,-3.1132873E-2,-4.1314837E-2,5.805331E-2,-2.3548657E-2,1.99267E-2,-4.4675015E-2,2.7364776E-2],"split_indices":[17,4,4,16,2,4,10,0,0,0,0,0,0,0,0],"split_type":[0,0,0,0,0,0,0,0,0,0,0,0,0,0,0],"sum_hessian":[6.884566E2,3.0155258E2,3.86904E2,2.6815356E2,3.3399025E1,3.3417947E2,5.2724518E1,1.134614E2,1.5469215E2,5.4678493E0,2.7931175E1,3.872851E1,2.9545096E2,3.8175953E1,1.4548567E1],"tree_param":{"num_deleted":"0","num_feature":"19","num_nodes":"15","size_leaf_vector":"1"}},{"base_weights":[-1.1015579E-2,-9.97933E-2,-0E0,-2.2178274E-2,4.1297266E-1,8.127431E-3,-1.01987105E-2,6.975838E-2,-1.5619022E-2],"categories":[],"categories_nodes":[],"categories_segments":[],"categories_sizes":[],"default_left":[0,0,0,0,0,0,0,0,0],"id":80,"left_children":[1,-1,3,5,7,-1,-1,-1,-1],"loss_changes":[6.459736E0,0E0,5.805115E0,5.4632106E0,6.6535473E0,0E0,0E0,0E0,0E0],"parents":[2147483647,0,0,2,2,3,3,4,4],"right_children":[2,-1,4,6,8,-1,-1,-1,-1],"split_conditions":[-9.860182E-2,-9.97933E-2,6.428588E-1,-4.601443E-3,6.711327E-3,8.127431E-3,-1.01987105E-2,6.975838E-2,-1.5619022E-2],"split_indices":[16,0,12,8,8,0,0,0,0],"split_type":[0,0,0,0,0,0,0,0,0],"sum_hessian":[6.8040283E2,5.6023407E0,6.748005E2,6.4348303E2,3.1317463E1,2.6864478E2,3.7483826E2,2.324283E1,8.074635E0],"tree_param":{"num_deleted":"0","num_feature":"19","num_nodes":"9","size_leaf_vector":"1"}},{"base_weights":[1.9368555E-2,7.047062E-2,-1.1473327E-1,-1.5646094E-1,1.2831604E-1,3.980251E-1,-1.895654E-1,-6.8487406E-2,-0E0,8.040529E-3,5.0696846E-2,-0E0,7.853147E-2,1.586276E-2,-2.5504293E-2],"categories":[],"categories_nodes":[],"categories_segments":[],"categories_sizes":[],"default_left":[0,0,0,0,0,0,0,0,0,0,0,0,0,0,0],"id":81,"left_children":[1,3,5,7,9,11,13,-1,-1,-1,-1,-1,-1,-1,-1],"loss_changes":[4.618531E0,6.6552935E0,6.419431E0,6.5583444E0,6.140053E0,4.4596996E0,4.0219007E0,0E0,0E0,0E0,0E0,0E0,0E0,0E0,0E0],"parents":[2147483647,0,0,1,1,2,2,3,3,4,4,5,5,6,6],"right_children":[2,4,6,8,10,12,14,-1,-1,-1,-1,-1,-1,-1,-1],"split_conditions":[4.285706E-1,-3.9687023E-1,-1.3793105E-2,-1.6129022E-2,1.4771925E-1,-3.234848E-2,2.6873495E-2,-6.8487406E-2,-0E0,8.040529E-3,5.0696846E-2,-0E0,7.853147E-2,1.586276E-2,-2.5504293E-2],"split_indices":[11,7,8,8,2,5,17,0,0,0,0,0,0,0,0],"split_type":[0,0,0,0,0,0,0,0,0,0,0,0,0,0,0],"sum_hessian":[6.866364E2,5.0964685E2,1.7698956E2,9.530678E1,4.1434006E2,1.822911E1,1.5876045E2,1.7835922E1,7.7470856E1,3.7497256E2,3.9367504E1,7.149385E0,1.1079726E1,2.0113853E1,1.386466E2],"tree_param":{"num_deleted":"0","num_feature":"19","num_nodes":"15","size_leaf_vector":"1"}},{"base_weights":[2.2809798E-2,-2.484866E-1,5.3009737E-2,1.0592688E-2,-5.8035684E-1,4.224378E-1,6.848302E-3,-7.721438E-2,3.551136E-2,5.323903E-2,-2.4389526E-2,4.41269E-3,-2.479335E-2],"categories":[],"categories_nodes":[],"categories_segments":[],"categories_sizes":[],"default_left":[0,0,0,0,0,0,0,0,0,0,0,0,0],"id":82,"left_children":[1,3,5,-1,7,9,11,-1,-1,-1,-1,-1,-1],"loss_changes":[5.2073507E0,8.382344E0,9.726439E0,0E0,7.7389317E0,5.673683E0,4.9956684E0,0E0,0E0,0E0,0E0,0E0,0E0],"parents":[2147483647,0,0,1,1,2,2,4,4,5,5,6,6],"right_children":[2,4,6,-1,8,10,12,-1,-1,-1,-1,-1,-1],"split_conditions":[-2.7845418E-1,-4.1067123E0,-4.6858292E-2,1.0592688E-2,1.0066003E-1,4.5454678E-1,6.1422125E-2,-7.721438E-2,3.551136E-2,5.323903E-2,-2.4389526E-2,4.41269E-3,-2.479335E-2],"split_indices":[4,6,10,0,3,12,17,0,0,0,0,0,0],"split_type":[0,0,0,0,0,0,0,0,0,0,0,0,0],"sum_hessian":[6.87115E2,6.0723984E1,6.26391E2,2.632968E1,3.4394306E1,6.3370396E1,5.6302057E2,3.050634E1,3.887966E0,5.7144825E1,6.2255697E0,4.9933047E2,6.369011E1],"tree_param":{"num_deleted":"0","num_feature":"19","num_nodes":"13","size_leaf_vector":"1"}},{"base_weights":[-6.510188E-3,3.59155E-1,-3.5528418E-2,-2.1378954E-1,8.212225E-1,-4.5249295E-1,-1.7626658E-3,-1.0378162E-1,1.3541171E-2,1.07721016E-1,-5.0849584E-3,-8.9727364E-2,-0E0,5.566044E-2,-1.9964266E-3],"categories":[],"categories_nodes":[],"categories_segments":[],"categories_sizes":[],"default_left":[0,0,0,0,0,0,0,0,0,0,0,0,0,0,0],"id":83,"left_children":[1,3,5,7,9,11,13,-1,-1,-1,-1,-1,-1,-1,-1],"loss_changes":[6.565228E0,1.3390415E1,8.020643E0,7.5747538E0,8.656029E0,9.679115E0,4.993603E0,0E0,0E0,0E0,0E0,0E0,0E0,0E0,0E0],"parents":[2147483647,0,0,1,1,2,2,3,3,4,4,5,5,6,6],"right_children":[2,4,6,8,10,12,14,-1,-1,-1,-1,-1,-1,-1,-1],"split_conditions":[3.264671E-2,-9.183706E-3,3.957029E-2,2.0093173E-2,1.4331365E-1,1.0684371E-2,-1.4017016E-1,-1.0378162E-1,1.3541171E-2,1.07721016E-1,-5.0849584E-3,-8.9727364E-2,-0E0,5.566044E-2,-1.9964266E-3],"split_indices":[9,2,9,18,3,3,1,0,0,0,0,0,0,0,0],"split_type":[0,0,0,0,0,0,0,0,0,0,0,0,0,0,0],"sum_hessian":[6.855825E2,4.3972332E1,6.416102E2,1.7659529E1,2.6312801E1,4.226208E1,5.9934814E2,6.629219E0,1.103031E1,2.2009169E1,4.3036327E0,2.1760666E1,2.0501415E1,1.4251073E1,5.8509705E2],"tree_param":{"num_deleted":"0","num_feature":"19","num_nodes":"15","size_leaf_vector":"1"}},{"base_weights":[5.303915E-3,3.4247887E-1,-1.0230285E-2,-4.20046E-3,6.946191E-1,-1.3672084E-1,5.0853983E-2,2.8172914E-2,-5.673888E-2,9.5415086E-2,-0E0,-1.7071741E-3,-8.779944E-2,9.741602E-3,-2.158157E-2],"categories":[],"categories_nodes":[],"categories_segments":[],"categories_sizes":[],"default_left":[0,0,0,0,0,0,0,0,0,0,0,0,0,0,0],"id":84,"left_children":[1,3,5,7,9,11,13,-1,-1,-1,-1,-1,-1,-1,-1],"loss_changes":[4.3558016E0,6.04178E0,5.238654E0,3.4293985E0,4.2347946E0,1.804332E1,5.193709E0,0E0,0E0,0E0,0E0,0E0,0E0,0E0,0E0],"parents":[2147483647,0,0,1,1,2,2,3,3,4,4,5,5,6,6],"right_children":[2,4,6,8,10,12,14,-1,-1,-1,-1,-1,-1,-1,-1],"split_conditions":[3.264671E-2,-2.9629532E-2,5.8955725E-2,-5.2664764E-2,4.1570116E-2,1.7687035E-1,1.5705541E-1,2.8172914E-2,-5.673888E-2,9.5415086E-2,-0E0,-1.7071741E-3,-8.779944E-2,9.741602E-3,-2.158157E-2],"split_indices":[9,4,9,3,2,3,9,0,0,0,0,0,0,0,0],"split_type":[0,0,0,0,0,0,0,0,0,0,0,0,0,0,0],"sum_hessian":[6.871678E2,3.5857056E1,6.513107E2,1.5271913E1,2.0585144E1,2.237726E2,4.2753815E2,7.7819576E0,7.489955E0,1.490061E1,5.6845345E0,1.9631606E2,2.7456537E1,3.71034E2,5.6504135E1],"tree_param":{"num_deleted":"0","num_feature":"19","num_nodes":"15","size_leaf_vector":"1"}},{"base_weights":[-1.685736E-2,-4.8300788E-2,-0E0,1.7470707E-1,-4.582576E-2,-3.466362E-2,2.8181659E-2,1.4068247E-2,-1.1006761E-2],"categories":[],"categories_nodes":[],"categories_segments":[],"categories_sizes":[],"default_left":[0,0,0,0,0,0,0,0,0],"id":85,"left_children":[1,-1,3,5,7,-1,-1,-1,-1],"loss_changes":[4.649604E0,0E0,5.0730996E0,7.3886137E0,6.384193E0,0E0,0E0,0E0,0E0],"parents":[2147483647,0,0,2,2,3,3,4,4],"right_children":[2,-1,4,6,8,-1,-1,-1,-1],"split_conditions":[-1.0326082E-1,-4.8300788E-2,-3.444272E-2,5.5208202E-2,4.3939263E-2,-3.466362E-2,