{"learner":{"attributes":{"scikit_learn":"{\"_estimator_type\": \"classifier\"}"},"feature_names":["bias_week","bias_month","bias_quarter","bias_year","rsi","macd","macd_signal","vol_change","close_change","bb_width"],"feature_types":["float","float","float","float","float","float","float","float","float","float"],"gradient_booster":{"model":{"gbtree_model_param":{"num_parallel_tree":"1","num_trees":"9"},"iteration_indptr":[0,1,2,3,4,5,6,7,8,9],"tree_info":[0,0,0,0,0,0,0,0,0],"trees":[{"base_weights":[9.907217E-4,-1.13048404E-1,5.856541E-1,1.1919066E0,-1.6417104E-1,8.530132E-2,5.0016433E-1,1.3600234E-3,1.254213E0,-2.4908806E-1,3.0651578E-1,1.012263E0,3.4983057E-1,1.4154012E0,6.858345E-1,7.117758E-1,-2.8654376E-1,3.684604E-1,-7.054301E-1,-9.765846E-3,1.0992409E0,2.64091E-1,1.0241302E0,7.7126786E-2,3.3418324E-2,4.6019247E-4,5.7998866E-2,-6.9461144E-3,5.2956104E-2,-1.5636371E-2,2.4322486E-2,2.0609349E-2,-3.3014473E-2,-4.9779672E-2,6.239332E-3,6.118337E-2,-1.7074684E-3,2.6484093E-2,-7.7262097E-3,6.438169E-2,1.626489E-2],"categories":[],"categories_nodes":[],"categories_segments":[],"categories_sizes":[],"default_left":[0,0,0,0,0,0,0,0,0,0,0,0,0,0,0,0,0,0,0,0,0,0,0,0,0,0,0,0,0,0,0,0,0,0,0,0,0,0,0,0,0],"id":0,"left_children":[1,3,5,7,9,-1,11,-1,13,15,17,19,21,23,25,27,29,31,33,-1,35,37,39,-1,-1,-1,-1,-1,-1,-1,-1,-1,-1,-1,-1,-1,-1,-1,-1,-1,-1],"loss_changes":[4.1591652E1,3.5019367E1,8.898476E0,1.4027252E0,2.0188711E1,0E0,7.037319E0,0E0,7.490921E-1,1.5565836E1,5.108908E0,2.447771E0,4.108947E0,2.6870155E-1,1.9423175E0,4.964017E0,8.481583E0,3.5807238E0,1.2817903E0,0E0,2.859888E0,7.703483E0,1.0907192E0,0E0,0E0,0E0,0E0,0E0,0E0,0E0,0E0,0E0,0E0,0E0,0E0,0E0,0E0,0E0,0E0,0E0,0E0],"parents":[2147483647,0,0,1,1,2,2,3,3,4,4,6,6,8,8,9,9,10,10,11,11,12,12,13,13,14,14,15,15,16,16,17,17,18,18,20,20,21,21,22,22],"right_children":[2,4,6,8,10,-1,12,-1,14,16,18,20,22,24,26,28,30,32,34,-1,36,38,40,-1,-1,-1,-1,-1,-1,-1,-1,-1,-1,-1,-1,-1,-1,-1,-1,-1,-1],"split_conditions":[2.2802017E0,-9.066087E-2,-4.0009547E-2,-7.763263E-1,4.2989317E-2,8.530132E-2,-1.5125925E-2,1.3600234E-3,-1.3542676E-1,-4.046335E0,2.2064855E0,2.3617363E0,5.041333E0,-8.1151305E-4,-1.1080549E-1,-1.3002513E-2,4.1664714E-1,5.2332026E-1,1.9537306E-1,-9.765846E-3,6.11763E-1,1.7457977E-1,1.14313774E-1,7.7126786E-2,3.3418324E-2,4.6019247E-4,5.7998866E-2,-6.9461144E-3,5.2956104E-2,-1.5636371E-2,2.4322486E-2,2.0609349E-2,-3.3014473E-2,-4.9779672E-2,6.239332E-3,6.118337E-2,-1.7074684E-3,2.6484093E-2,-7.7262097E-3,6.438169E-2,1.626489E-2],"split_indices":[6,1,3,7,1,0,0,0,2,6,6,6,6,0,2,8,3,3,7,0,3,2,7,0,0,0,0,0,0,0,0,0,0,0,0,0,0,0,0,0,0],"split_type":[0,0,0,0,0,0,0,0,0,0,0,0,0,0,0,0,0,0,0,0,0,0,0,0,0,0,0,0,0,0,0,0,0,0,0,0,0,0,0,0,0],"sum_hessian":[6.2180853E2,5.209947E2,1.0081385E2,1.879969E1,5.0219498E2,5.8033304E0,9.501051E1,1.0275755E0,1.7772114E1,4.2583966E2,7.635531E1,2.026072E1,7.4749794E1,1.2684601E1,5.0875134E0,1.530151E1,4.1053815E2,7.255016E1,3.805151E0,1.2775755E0,1.8983145E1,6.755198E1,7.1978154E0,9.929813E0,2.754787E0,2.5161812E0,2.5713322E0,4.610302E0,1.0691208E1,3.9766348E2,1.2874662E1,7.016707E1,2.3830905E0,2.6720605E0,1.1330906E0,1.7033508E1,1.9496359E0,4.1167744E1,2.6384237E1,4.615089E0,2.5827265E0],"tree_param":{"num_deleted":"0","num_feature":"10","num_nodes":"41","size_leaf_vector":"1"}},{"base_weights":[-4.84756E-3,-1.3066234E-1,4.3932027E-1,9.1058683E-1,-2.0116103E-1,1.338634E0,3.6778796E-1,1.1409503E0,4.6673638E-1,7.0280826E-1,-2.330405E-1,8.037495E-2,-1.7363781E-2,4.9564365E-1,-1.28239915E-2,5.91335E-1,1.4017745E0,-1.777185E-1,7.0478684E-1,8.8096243E-1,-4.388902E-2,-4.8386168E-1,-1.049696E-1,6.0130745E-1,-1.0908747E-1,-1.4618212E-1,6.686978E-2,4.7694262E-2,-1.520018E-2,7.719648E-2,3.3823088E-2,1.4199587E-2,-3.525633E-2,-2.1013698E-2,5.2594043E-2,-3.7147537E-2,5.4064926E-2,-7.208236E-2,-2.230702E-2,1.7377904E-2,-1.1521462E-2,1.7214846E-2,6.2199075E-2,-3.8766887E-2,1.5216321E-2,4.5529597E-2,-1.805179E-2],"categories":[],"categories_nodes":[],"categories_segments":[],"categories_sizes":[],"default_left":[0,0,0,0,0,0,0,0,0,0,0,0,0,0,0,0,0,0,0,0,0,0,0,0,0,0,0,0,0,0,0,0,0,0,0,0,0,0,0,0,0,0,0,0,0,0,0],"id":1,"left_children":[1,3,5,7,9,11,13,15,17,19,21,-1,-1,23,25,27,29,31,33,35,-1,37,39,41,43,45,-1,-1,-1,-1,-1,-1,-1,-1,-1,-1,-1,-1,-1,-1,-1,-1,-1,-1,-1,-1,-1],"loss_changes":[3.4967888E1,3.597512E1,8.393169E0,2.6473408E0,1.3347595E1,4.999584E0,6.2997837E0,2.0068188E0,2.0150504E0,5.2317133E0,1.41684475E1,0E0,0E0,6.2529507E0,6.2265415E0,2.9179664E0,2.6355553E-1,1.2038579E0,4.033504E0,5.594906E0,0E0,4.75251E0,1.6789E1,1.3212172E1,4.4361286E0,7.4547286E0,0E0,0E0,0E0,0E0,0E0,0E0,0E0,0E0,0E0,0E0,0E0,0E0,0E0,0E0,0E0,0E0,0E0,0E0,0E0,0E0,0E0],"parents":[2147483647,0,0,1,1,2,2,3,3,4,4,5,5,6,6,7,7,8,8,9,9,10,10,13,13,14,14,15,15,16,16,17,17,18,18,19,19,21,21,22,22,23,23,24,24,25,25],"right_children":[2,4,6,8,10,12,14,16,18,20,22,-1,-1,24,26,28,30,32,34,36,-1,38,40,42,44,46,-1,-1,-1,-1,-1,-1,-1,-1,-1,-1,-1,-1,-1,-1,-1,-1,-1,-1,-1,-1,-1],"split_conditions":[8.212386E-2,-7.825172E-2,-3.519297E-2,-9.066087E-2,-4.046335E0,4.500159E0,7.473672E1,-4.3554034E-2,-2.0885074E-1,9.111471E-2,4.0993816E1,8.037495E-2,-1.7363781E-2,5.330324E-1,3.5979223E-1,-5.3708646E-2,-1.1932693E-1,-1.1932693E-1,-8.808702E-2,-8.537966E0,-4.388902E-2,1.304316E1,-6.819985E-1,2.9941434E-1,3.5130181E0,7.023413E-2,6.686978E-2,4.7694262E-2,-1.520018E-2,7.719648E-2,3.3823088E-2,1.4199587E-2,-3.525633E-2,-2.1013698E-2,5.2594043E-2,-3.7147537E-2,5.4064926E-2,-7.208236E-2,-2.230702E-2,1.7377904E-2,-1.1521462E-2,1.7214846E-2,6.2199075E-2,-3.8766887E-2,1.5216321E-2,4.5529597E-2,-1.805179E-2],"split_indices":[2,1,3,1,6,6,4,8,3,3,4,0,0,3,2,8,2,2,1,5,0,4,5,3,5,1,0,0,0,0,0,0,0,0,0,0,0,0,0,0,0,0,0,0,0,0,0],"split_type":[0,0,0,0,0,0,0,0,0,0,0,0,0,0,0,0,0,0,0,0,0,0,0,0,0,0,0,0,0,0,0,0,0,0,0,0,0,0,0,0,0,0,0,0,0,0,0],"sum_hessian":[6.2370807E2,4.8658426E2,1.3712381E2,3.0099863E1,4.5648438E2,8.798183E0,1.2832564E2,1.8781485E1,1.1318378E1,1.4833114E1,4.4165128E2,7.62817E0,1.1700134E0,9.5831535E1,3.249409E1,7.0959344E0,1.168555E1,3.121428E0,8.19695E0,1.3728374E1,1.1047404E0,1.4834537E2,2.933059E2,8.158242E1,1.4249118E1,3.038479E1,2.1093023E0,5.0041924E0,2.091742E0,8.826912E0,2.8586385E0,1.9104718E0,1.2109562E0,1.8829081E0,6.314042E0,1.2101816E0,1.2518192E1,4.210773E0,1.4413458E2,6.3281597E1,2.3002432E2,5.9374004E1,2.2208418E1,5.1209064E0,9.128212E0,4.586677E0,2.5798113E1],"tree_param":{"num_deleted":"0","num_feature":"10","num_nodes":"47","size_leaf_vector":"1"}},{"base_weights":[-6.7235334E-3,-1.14696436E-1,4.7662053E-1,8.208502E-1,-1.6872616E-1,9.8635435E-1,3.279027E-1,8.978371E-1,-1.092899E-2,-4.1755006E-1,-4.4768117E-2,1.1107529E0,3.64619E-1,4.8709482E-1,6.4532325E-2,1.1116031E0,4.1231996E-1,-5.0038837E-2,-6.064969E-1,5.5172926E-1,-1.1656555E-1,5.103901E-5,1.1690565E0,-2.6125968E-2,7.8133374E-1,3.4182754E-1,7.478307E-2,-1.5145057E-1,7.102492E-1,6.337853E-2,1.8262474E-2,-3.4186117E-2,4.736278E-2,-6.090964E-2,1.9347819E-3,-3.2239657E-2,2.6467184E-2,3.8572773E-2,-5.380598E-3,-1.083784E-2,1.311371E-2,6.2373634E-2,1.7834453E-2,5.865699E-2,5.8544283E-3,5.8916282E-2,1.2092703E-2,5.7568576E-2,-1.3298995E-2,4.7720667E-2,-7.4575804E-3],"categories":[],"categories_nodes":[],"categories_segments":[],"categories_sizes":[],"default_left":[0,0,0,0,0,0,0,0,0,0,0,0,0,0,0,0,0,0,0,0,0,0,0,0,0,0,0,0,0,0,0,0,0,0,0,0,0,0,0,0,0,0,0,0,0,0,0,0,0,0,0],"id":2,"left_children":[1,3,5,7,9,11,13,15,-1,17,19,21,23,25,27,29,31,33,35,37,39,-1,41,-1,43,45,-1,47,49,-1,-1,-1,-1,-1,-1,-1,-1,-1,-1,-1,-1,-1,-1,-1,-1,-1,-1,-1,-1,-1,-1],"loss_changes":[3.2569294E1,2.5921215E1,8.315269E0,2.438465E0,1.4880402E1,1.5471668E0,3.7300787E0,2.269537E0,0E0,1.1115114E1,1.392082E1,1.3280029E0,2.5142987E0,7.6589785E0,4.982075E0,1.5926571E0,6.290487E0,5.8093233E0,4.948456E0,5.1440973E0,1.1049487E1,0E0,7.98336E-1,0E0,9.757192E-1,3.8997874E0,0E0,4.337252E0,2.0175066E0,0E0,0E0,0E0,0E0,0E0,0E0,0E0,0E0,0E0,0E0,0E0,0E0,0E0,0E0,0E0,0E0,0E0,0E0,0E0,0E0,0E0,0E0],"parents":[2147483647,0,0,1,1,2,2,3,3,4,4,5,5,6,6,7,7,9,9,10,10,11,11,12,12,13,13,14,14,15,15,16,16,17,17,18,18,19,19,20,20,22,22,24,24,25,25,27,27,28,28],"right_children":[2,4,6,8,10,12,14,16,-1,18,20,22,24,26,28,30,32,34,36,38,40,-1,42,-1,44,46,-1,48,50,-1,-1,-1,-1,-1,-1,-1,-1,-1,-1,-1,-1,-1,-1,-1,-1,-1,-1,-1,-1,-1,-1],"split_conditions":[2.129278E0,-8.0437385E-2,-1.5125925E-2,3.80953E1,4.0993816E1,4.1668087E-2,1.79279E-1,-1.1932693E-1,-1.092899E-2,-2.0934374E0,-1.6153525E0,-1.0533907E-3,5.7658736E-2,3.9525986E0,5.041333E0,3.0460606E1,-1.1080549E-1,1.304316E1,2.4000194E-2,2.3102283E-2,4.6770606E-2,5.103901E-5,1.9032618E-1,-2.6125968E-2,2.1633866E-1,-5.844245E-1,7.478307E-2,-2.433093E-2,7.418324E0,6.337853E-2,1.8262474E-2,-3.4186117E-2,4.736278E-2,-6.090964E-2,1.9347819E-3,-3.2239657E-2,2.6467184E-2,3.8572773E-2,-5.380598E-3,-1.083784E-2,1.311371E-2,6.2373634E-2,1.7834453E-2,5.865699E-2,5.8544283E-3,5.8916282E-2,1.2092703E-2,5.7568576E-2,-1.3298995E-2,4.7720667E-2,-7.4575804E-3],"split_indices":[6,1,0,4,4,1,2,2,0,5,5,2,1,5,6,4,2,4,8,0,1,0,2,0,2,7,0,8,6,0,0,0,0,0,0,0,0,0,0,0,0,0,0,0,0,0,0,0,0,0,0],"split_type":[0,0,0,0,0,0,0,0,0,0,0,0,0,0,0,0,0,0,0,0,0,0,0,0,0,0,0,0,0,0,0,0,0,0,0,0,0,0,0,0,0,0,0,0,0,0,0,0,0,0,0],"sum_hessian":[6.220281E2,5.0907083E2,1.1295723E2,2.7019783E1,4.8205106E2,2.424038E1,8.871685E1,2.5283356E1,1.7364279E0,1.595048E2,3.2254623E2,1.9543518E1,4.6968613E0,5.476507E1,3.395178E1,1.6659082E1,8.624272E0,5.4589752E1,1.04915054E2,3.3934216E1,2.8861203E2,1.0263227E0,1.8517195E1,1.4199811E0,3.27688E0,4.904052E1,5.7245502E0,2.6015444E1,7.936334E0,1.3201899E1,3.4571838E0,2.737403E0,5.8868694E0,2.9553416E0,5.1634407E1,1.0191131E2,3.0037436E0,2.5324692E1,8.609524E0,2.2858603E2,6.0026E1,1.6398666E1,2.1185286E0,1.5792389E0,1.697641E0,4.0838385E0,4.495668E1,1.3706475E0,2.4644796E1,6.0943213E0,1.842013E0],"tree_param":{"num_deleted":"0","num_feature":"10","num_nodes":"51","size_leaf_vector":"1"}},{"base_weights":[-1.4619431E-2,-2.8135705E-1,3.3953515E-1,-3.493325E-1,8.6379683E-1,9.7559917E-1,2.557806E-1,-6.2340325E-1,-2.1669295E-1,1.0255653E0,-2.6679521E-2,1.0561231E0,1.487494E-1,8.5950536E-1,2.0014311E-1,-7.727558E-1,-1.9532056E-1,-2.674594E-1,4.9840385E-1,1.1214305E0,-2.4434256E-3,2.6299247E-1,1.1866978E0,-2.5938684E-2,3.6650542E-2,1.1668421E0,1.23919554E-1,1.6513835E-1,1.0745281E0,-4.062693E-2,5.3222686E-2,-2.1080261E-2,3.0186972E-2,-1.7585598E-2,7.6932195E-3,-1.12474235E-2,6.0753446E-2,2.288325E-2,6.825641E-2,-8.655741E-3,4.0504534E-2,1.3462258E-2,6.5863706E-2,6.263756E-2,5.0900406E-3,-2.884735E-2,4.5143373E-2,1.0117971E-2,-4.005709E-2,7.138866E-2,3.0078078E-2],"categories":[],"categories_nodes":[],"categories_segments":[],"categories_sizes":[],"default_left":[0,0,0,0,0,0,0,0,0,0,0,0,0,0,0,0,0,0,0,0,0,0,0,0,0,0,0,0,0,0,0,0,0,0,0,0,0,0,0,0,0,0,0,0,0,0,0,0,0,0,0],"id":3,"left_children":[1,3,5,7,9,11,13,15,17,19,-1,21,23,25,27,29,31,33,35,37,-1,39,41,-1,-1,43,45,47,49,-1,-1,-1,-1,-1,-1,-1,-1,-1,-1,-1,-1,-1,-1,-1,-1,-1,-1,-1,-1,-1,-1],"loss_changes":[5.9517914E1,2.827398E1,1.4170876E1,1.2221943E1,5.163953E0,1.9162769E0,7.907893E0,6.9027214E0,8.504622E0,1.975399E0,0E0,2.6097336E0,1.9120117E0,4.3755026E0,6.603777E0,6.8181305E0,5.6561375E0,7.7202387E0,8.378357E0,2.1511173E0,0E0,1.3983196E0,2.5133057E0,0E0,0E0,1.1518879E0,4.3483825E0,7.866272E0,5.35594E-1,0E0,0E0,0E0,0E0,0E0,0E0,0E0,0E0,0E0,0E0,0E0,0E0,0E0,0E0,0E0,0E0,0E0,0E0,0E0,0E0,0E0,0E0],"parents":[2147483647,0,0,1,1,2,2,3,3,4,4,5,5,6,6,7,7,8,8,9,9,11,11,12,12,13,13,14,14,15,15,16,16,17,17,18,18,19,19,21,21,22,22,25,25,26,26,27,27,28,28],"right_children":[2,4,6,8,10,12,14,16,18,20,-1,22,24,26,28,30,32,34,36,38,-1,40,42,-1,-1,44,46,48,50,-1,-1,-1,-1,-1,-1,-1,-1,-1,-1,-1,-1,-1,-1,-1,-1,-1,-1,-1,-1,-1,-1],"split_conditions":[7.1027994E-2,2.2420247E0,-7.441464E-2,-1.7132498E-2,7.023413E-2,1.4051175E0,-2.7322406E-2,5.7793435E-2,5.110241E-2,6.878844E-2,-2.6679521E-2,8.4454075E-2,1.9671624E0,2.8623682E-1,5.041333E0,4.0218654E-1,7.436285E-2,1.4894392E-1,2.4770437E-1,-9.19117E-3,-2.4434256E-3,-8.251631E-2,-6.798273E0,-2.5938684E-2,3.6650542E-2,5.402002E-1,-3.7433017E-2,5.534447E-1,6.11763E-1,-4.062693E-2,5.3222686E-2,-2.1080261E-2,3.0186972E-2,-1.7585598E-2,7.6932195E-3,-1.12474235E-2,6.0753446E-2,2.288325E-2,6.825641E-2,-8.655741E-3,4.0504534E-2,1.3462258E-2,6.5863706E-2,6.263756E-2,5.0900406E-3,-2.884735E-2,4.5143373E-2,1.0117971E-2,-4.005709E-2,7.138866E-2,3.0078078E-2],"split_indices":[9,5,1,1,1,7,8,9,1,9,0,9,7,7,6,3,6,3,6,8,0,1,6,0,0,3,8,3,3,0,0,0,0,0,0,0,0,0,0,0,0,0,0,0,0,0,0,0,0,0,0],"split_type":[0,0,0,0,0,0,0,0,0,0,0,0,0,0,0,0,0,0,0,0,0,0,0,0,0,0,0,0,0,0,0,0,0,0,0,0,0,0,0,0,0,0,0,0,0,0,0,0,0,0,0],"sum_hessian":[6.280323E2,3.583445E2,2.6968777E2,3.3892136E2,1.9423164E1,3.0140549E1,2.3954724E2,1.0932501E2,2.2959633E2,1.7646414E1,1.7767518E0,2.7213078E1,2.9274704E0,1.8994022E1,2.2055322E2,8.04514E1,2.8873617E1,2.1496167E2,1.4634664E1,1.6160746E1,1.4856675E0,4.2729053E0,2.2940172E1,1.4186913E0,1.5087792E0,1.2983205E1,6.010818E0,2.1320665E2,7.3465652E0,7.9292145E1,1.159251E0,2.2869587E1,6.004031E0,1.7927673E2,3.5684937E1,7.6248164E0,7.009847E0,5.1128216E0,1.1047924E1,2.7580016E0,1.5149039E0,3.2396665E0,1.9700506E1,1.1851024E1,1.1321805E0,3.3004916E0,2.7103267E0,2.0605981E2,7.1468377E0,3.0499117E0,4.2966537E0],"tree_param":{"num_deleted":"0","num_feature":"10","num_nodes":"51","size_leaf_vector":"1"}},{"base_weights":[1.1465613E-2,-9.715683E-2,5.009097E-1,9.649483E-1,-1.5289782E-1,7.2613895E-1,1.0293705E-1,1.172359E0,4.185537E-1,-2.1762876E-1,2.4999148E-1,8.3995444E-1,1.238689E-1,-1.7003404E-1,8.904737E-1,1.290164E0,4.9135602E-1,-2.5716949E-1,8.411893E-1,9.014881E-2,-3.023912E-1,7.8826976E-1,1.5259118E-1,8.8203007E-1,-3.0498102E-2,-6.912599E-1,7.514722E-1,-2.6948786E-1,7.9192066E-1,-2.285553E-3,9.898459E-1,3.9021764E-2,7.534761E-2,-2.5633892E-2,4.8857044E-2,1.4101798E-2,-3.2696243E-2,5.1948667E-2,-9.148687E-4,-1.952309E-2,1.3067737E-2,-1.6589137E-2,2.7311666E-2,-3.7390996E-2,5.3828318E-2,-1.286632E-2,1.9652275E-2,3.49805E-2,6.2135052E-2,-6.0296215E-2,6.087817E-3,5.6972712E-2,-3.214061E-2,2.8432686E-2,-1.7407723E-2,1.1670944E-2,5.074658E-2,6.8481125E-2,1.871944E-2],"categories":[],"categories_nodes":[],"categories_segments":[],"categories_sizes":[],"default_left":[0,0,0,0,0,0,0,0,0,0,0,0,0,0,0,0,0,0,0,0,0,0,0,0,0,0,0,0,0,0,0,0,0,0,0,0,0,0,0,0,0,0,0,0,0,0,0,0,0,0,0,0,0,0,0,0,0,0,0],"id":4,"left_children":[1,3,5,7,9,11,13,15,17,19,21,23,25,27,29,31,33,35,37,39,41,43,45,47,-1,49,51,53,55,-1,57,-1,-1,-1,-1,-1,-1,-1,-1,-1,-1,-1,-1,-1,-1,-1,-1,-1,-1,-1,-1,-1,-1,-1,-1,-1,-1,-1,-1],"loss_changes":[3.349754E1,3.067991E1,1.0182337E1,2.4392033E0,1.2856052E1,4.893772E0,9.292461E0,8.249264E-1,2.6920075E0,1.1074394E1,3.46661E0,4.2684517E0,7.047907E0,3.3146815E0,1.0783739E0,4.6903992E-1,2.596737E0,1.0618789E0,9.6541E-1,7.6892996E0,8.468296E0,5.3410406E0,5.933546E0,3.0672264E0,0E0,2.6876252E0,4.8919787E0,2.1842318E0,1.7303371E-1,0E0,1.8441563E0,0E0,0E0,0E0,0E0,0E0,0E0,0E0,0E0,0E0,0E0,0E0,0E0,0E0,0E0,0E0,0E0,0E0,0E0,0E0,0E0,0E0,0E0,0E0,0E0,0E0,0E0,0E0,0E0],"parents":[2147483647,0,0,1,1,2,2,3,3,4,4,5,5,6,6,7,7,8,8,9,9,10,10,11,11,12,12,13,13,14,14,15,15,16,16,17,17,18,18,19,19,20,20,21,21,22,22,23,23,25,25,26,26,27,27,28,28,30,30],"right_children":[2,4,6,8,10,12,14,16,18,20,22,24,26,28,30,32,34,36,38,40,42,44,46,48,-1,50,52,54,56,-1,58,-1,-1,-1,-1,-1,-1,-1,-1,-1,-1,-1,-1,-1,-1,-1,-1,-1,-1,-1,-1,-1,-1,-1,-1,-1,-1,-1,-1],"split_conditions":[2.129278E0,-8.251631E-2,1.7457977E-1,-1.5358716E0,4.3730557E-2,1.7820412E-2,5.041333E0,8.9821744E-1,-8.852574E-1,-1.795438E0,-7.911228E-3,5.534447E-1,1.3833003E-1,7.9136804E-2,-4.73147E-1,-2.320531E-1,1.2637671E0,-9.310035E-2,-2.4763921E-2,-1.071977E-2,2.9268172E-2,-2.3479557E-2,-1.6453733E-1,2.586955E-1,-3.0498102E-2,1.3274333E-2,3.464477E0,-2.7322406E-2,3.464477E0,-2.285553E-3,-2.8848605E-2,3.9021764E-2,7.534761E-2,-2.5633892E-2,4.8857044E-2,1.4101798E-2,-3.2696243E-2,5.1948667E-2,-9.148687E-4,-1.952309E-2,1.3067737E-2,-1.6589137E-2,2.7311666E-2,-3.7390996E-2,5.3828318E-2,-1.286632E-2,1.9652275E-2,3.49805E-2,6.2135052E-2,-6.0296215E-2,6.087817E-3,5.6972712E-2,-3.214061E-2,2.8432686E-2,-1.7407723E-2,1.1670944E-2,5.074658E-2,6.8481125E-2,1.871944E-2],"split_indices":[6,1,2,6,1,0,6,7,6,6,8,3,2,0,7,7,7,1,0,8,8,2,7,3,0,8,6,8,6,0,7,0,0,0,0,0,0,0,0,0,0,0,0,0,0,0,0,0,0,0,0,0,0,0,0,0,0,0,0],"split_type":[0,0,0,0,0,0,0,0,0,0,0,0,0,0,0,0,0,0,0,0,0,0,0,0,0,0,0,0,0,0,0,0,0,0,0,0,0,0,0,0,0,0,0,0,0,0,0,0,0,0,0,0,0,0,0,0,0,0,0],"sum_hessian":[6.281568E2,5.1472516E2,1.13431595E2,2.4853228E1,4.8987195E2,7.191009E1,4.1521507E1,1.7184418E1,7.66881E0,4.2245697E2,6.7414986E1,6.014869E1,1.1761397E1,3.1416285E1,1.0105225E1,1.388754E1,3.2968786E0,3.101517E0,4.567293E0,9.120878E1,3.312482E2,9.242674E0,5.8172314E1,5.883306E1,1.3156292E0,5.072206E0,6.689191E0,2.9124987E1,2.2912977E0,1.0215168E0,9.083708E0,5.516564E0,8.3709755E0,1.0569613E0,2.2399173E0,1.4373069E0,1.66421E0,3.5431237E0,1.0241693E0,2.3620495E1,6.758828E1,3.2074832E2,1.049987E1,1.2086849E0,8.033989E0,2.148142E1,3.6690895E1,4.1023792E1,1.7809269E1,2.8100722E0,2.262134E0,5.3760004E0,1.3131908E0,1.9646162E0,2.7160372E1,1.2378739E0,1.0534238E0,4.8596296E0,4.2240777E0],"tree_param":{"num_deleted":"0","num_feature":"10","num_nodes":"59","size_leaf_vector":"1"}},{"base_weights":[1.5278862E-2,-3.6287004E-1,2.470849E-1,-4.698453E-1,7.294271E-1,1.6289215E-1,6.250929E-1,-5.8573835E-2,-5.9389746E-1,1.439182E-1,1.2940052E0,-1.21764846E-1,2.731776E-1,8.406551E-1,3.1195952E-2,-5.789098E-1,3.4266064E-1,-6.118922E-1,5.3002078E-2,7.115687E-1,-4.887204E-1,1.4080397E0,1.8487882E-2,-5.34144E-1,4.58755E-2,3.8933212E-1,8.0714915E-3,9.0016705E-1,-2.3889426E-2,-1.3144115E-1,4.684413E-2,-3.89457E-2,2.7692819E-2,2.9741725E-2,-2.880368E-2,-3.69406E-2,-1.716088E-2,5.863861E-2,4.848179E-3,-5.5188585E-2,2.0515481E-2,7.7883825E-2,2.002424E-2,-3.386827E-2,3.0178308E-2,4.0798817E-2,-3.5335242E-3,2.1396395E-2,-2.3137845E-2,-4.795012E-3,4.187841E-2,5.1347908E-2,2.607858E-2,1.5946792E-2,-3.1136094E-2],"categories":[],"categories_nodes":[],"categories_segments":[],"categories_sizes":[],"default_left":[0,0,0,0,0,0,0,0,0,0,0,0,0,0,0,0,0,0,0,0,0,0,0,0,0,0,0,0,0,0,0,0,0,0,0,0,0,0,0,0,0,0,0,0,0,0,0,0,0,0,0,0,0,0,0],"id":5,"left_children":[1,3,5,7,9,11,13,15,17,19,21,23,25,27,29,31,33,35,-1,37,39,41,-1,43,45,47,49,51,-1,53,-1,-1,-1,-1,-1,-1,-1,-1,-1,-1,-1,-1,-1,-1,-1,-1,-1,-1,-1,-1,-1,-1,-1,-1,-1],"loss_changes":[5.481171E1,2.8112133E1,1.2234411E1,1.1039532E1,6.950817E0,1.0027882E1,8.967957E0,1.0931562E1,5.6085777E0,4.5580106E0,6.246586E-1,6.2182255E0,7.0722904E0,4.4715157E0,3.0319543E0,5.586671E0,7.2132034E0,5.3897552E0,0E0,1.7532797E0,3.846552E0,7.808628E-1,0E0,4.641136E0,5.8574147E0,5.4516945E0,6.2056723E0,1.8467102E0,0E0,4.0968833E0,0E0,0E0,0E0,0E0,0E0,0E0,0E0,0E0,0E0,0E0,0E0,0E0,0E0,0E0,0E0,0E0,0E0,0E0,0E0,0E0,0E0,0E0,0E0,0E0,0E0],"parents":[2147483647,0,0,1,1,2,2,3,3,4,4,5,5,6,6,7,7,8,8,9,9,10,10,11,11,12,12,13,13,14,14,15,15,16,16,17,17,19,19,20,20,21,21,23,23,24,24,25,25,26,26,27,27,29,29],"right_children":[2,4,6,8,10,12,14,16,18,20,22,24,26,28,30,32,34,36,-1,38,40,42,-1,44,46,48,50,52,-1,54,-1,-1,-1,-1,-1,-1,-1,-1,-1,-1,-1,-1,-1,-1,-1,-1,-1,-1,-1,-1,-1,-1,-1,-1,-1],"split_conditions":[5.414305E-2,7.669765E-2,1.2327561E-1,-7.255324E-1,4.440457E-2,3.684213E1,7.517254E1,4.272728E1,3.478264E-2,4.0218294E-2,3.095263E-2,6.8006404E-2,1.7378671E-2,3.5979223E-1,3.5979223E-1,2.661917E-3,6.3888878E1,6.9730425E-1,5.3002078E-2,1.9224983E0,4.0778693E-2,8.4843594E-1,1.8487882E-2,1.1419186E-2,-3.6789257E-2,1.79279E-1,5.9278425E-2,1.6853856E-2,-2.3889426E-2,2.1633866E-1,4.684413E-2,-3.89457E-2,2.7692819E-2,2.9741725E-2,-2.880368E-2,-3.69406E-2,-1.716088E-2,5.863861E-2,4.848179E-3,-5.5188585E-2,2.0515481E-2,7.7883825E-2,2.002424E-2,-3.386827E-2,3.0178308E-2,4.0798817E-2,-3.5335242E-3,2.1396395E-2,-2.3137845E-2,-4.795012E-3,4.187841E-2,5.1347908E-2,2.607858E-2,1.5946792E-2,-3.1136094E-2],"split_indices":[9,2,9,6,9,4,4,4,8,9,8,9,0,2,2,0,4,6,0,5,7,7,0,8,0,2,8,8,0,2,0,0,0,0,0,0,0,0,0,0,0,0,0,0,0,0,0,0,0,0,0,0,0,0,0],"split_type":[0,0,0,0,0,0,0,0,0,0,0,0,0,0,0,0,0,0,0,0,0,0,0,0,0,0,0,0,0,0,0,0,0,0,0,0,0,0,0,0,0,0,0,0,0,0,0,0,0,0,0,0,0,0,0],"sum_hessian":[6.232733E2,2.3665265E2,3.8662067E2,2.1606223E2,2.0590422E1,3.1736557E2,6.92551E1,5.040991E1,1.6565233E2,1.0723882E1,9.86654E0,8.859349E1,2.2877208E2,5.0507347E1,1.8747753E1,2.175473E1,2.8655178E1,1.6449269E2,1.1596317E0,5.5864973E0,5.137385E0,8.316943E0,1.5495974E0,2.4973886E1,6.3619606E1,1.5874876E2,7.002332E1,4.8629555E1,1.8777916E0,1.6618402E1,2.1293495E0,1.8755577E1,2.9991539E0,2.2760447E1,5.894731E0,1.1052956E2,5.396314E1,2.6727083E0,2.9137888E0,2.9152474E0,2.2221375E0,6.7660837E0,1.550859E0,2.254093E1,2.4329565E0,7.57368E0,5.6045925E1,1.5234596E2,6.4027934E0,6.3009853E1,7.0134664E0,3.51465E1,1.3483055E1,8.853159E0,7.7652435E0],"tree_param":{"num_deleted":"0","num_feature":"10","num_nodes":"55","size_leaf_vector":"1"}},{"base_weights":[-6.148028E-3,-2.3037057E-1,3.3585083E-1,-3.460568E-1,4.1610005E-1,6.6785145E-1,1.9081642E-1,-3.6814538E-1,6.8801814E-1,6.1718124E-1,-2.5035948E-1,3.7922662E-1,1.0667195E0,7.24925E-1,1.2440165E-1,2.6280645E-1,-4.0386513E-1,-2.2387851E-2,9.641195E-1,4.1839334E-1,1.2624571E0,-1.4136777E-2,-5.084261E-2,1.1341031E0,1.3198936E-1,5.345125E-1,1.3283798E0,8.887222E-1,-2.7884198E-2,5.571288E-1,7.881029E-2,-2.3510717E-2,3.135262E-2,-2.4472555E-2,-7.1295686E-3,5.8238156E-2,-2.458965E-4,4.384437E-2,-3.3770145E-3,6.9888905E-2,8.1505105E-3,-1.7749382E-2,4.9809143E-2,6.297273E-2,7.570347E-4,-3.3211522E-3,7.2143756E-2,-1.6499845E-2,6.168445E-2,8.477967E-2,3.719236E-2,3.41308E-3,5.0053168E-2,3.8577214E-2,-4.118556E-2,-2.4881584E-3,1.3307668E-2],"categories":[],"categories_nodes":[],"categories_segments":[],"categories_sizes":[],"default_left":[0,0,0,0,0,0,0,0,0,0,0,0,0,0,0,0,0,0,0,0,0,0,0,0,0,0,0,0,0,0,0,0,0,0,0,0,0,0,0,0,0,0,0,0,0,0,0,0,0,0,0,0,0,0,0,0,0],"id":6,"left_children":[1,3,5,7,9,11,13,15,17,19,21,23,25,27,29,31,33,-1,35,37,39,41,-1,43,45,47,49,51,-1,53,55,-1,-1,-1,-1,-1,-1,-1,-1,-1,-1,-1,-1,-1,-1,-1,-1,-1,-1,-1,-1,-1,-1,-1,-1,-1,-1],"loss_changes":[4.8021152E1,2.8430473E1,1.1813665E1,7.593544E0,7.908988E0,8.229397E0,6.0818176E0,7.2119675E0,2.6486025E0,5.210804E0,2.5428247E0,8.260639E0,3.5977364E0,4.4947643E0,3.032916E0,4.9670234E0,6.6115913E0,0E0,1.1731181E0,8.012937E0,1.2660732E0,4.4206777E0,0E0,1.521883E0,9.219279E0,7.5813694E0,3.0455933E0,1.5230494E0,0E0,4.987943E0,3.4398372E0,0E0,0E0,0E0,0E0,0E0,0E0,0E0,0E0,0E0,0E0,0E0,0E0,0E0,0E0,0E0,0E0,0E0,0E0,0E0,0E0,0E0,0E0,0E0,0E0,0E0,0E0],"parents":[2147483647,0,0,1,1,2,2,3,3,4,4,5,5,6,6,7,7,8,8,9,9,10,10,11,11,12,12,13,13,14,14,15,15,16,16,18,18,19,19,20,20,21,21,23,23,24,24,25,25,26,26,27,27,29,29,30,30],"right_children":[2,4,6,8,10,12,14,16,18,20,22,24,26,28,30,32,34,-1,36,38,40,42,-1,44,46,48,50,52,-1,54,56,-1,-1,-1,-1,-1,-1,-1,-1,-1,-1,-1,-1,-1,-1,-1,-1,-1,-1,-1,-1,-1,-1,-1,-1,-1,-1],"split_conditions":[7.4723266E-2,7.049514E-2,-3.519297E-2,3.3898305E-2,6.8447515E-2,-1.3013288E-1,-2.4918819E-2,-1.7371348E-1,-1.7174671E0,2.5470986E0,5.2332026E-1,-8.543927E-2,-3.5211942E0,1.5709664E0,7.8783914E-2,-9.575545E-2,5.813227E-2,-2.2387851E-2,5.3921513E-2,2.038913E0,2.6936075E-2,2.9941434E-1,-5.084261E-2,-1.6173203E0,1.7284522E-2,1.0577535E-1,1.5412578E-2,4.2616585E-3,-2.7884198E-2,4.6697634E-1,2.2802017E0,-2.3510717E-2,3.135262E-2,-2.4472555E-2,-7.1295686E-3,5.8238156E-2,-2.458965E-4,4.384437E-2,-3.3770145E-3,6.9888905E-2,8.1505105E-3,-1.7749382E-2,4.9809143E-2,6.297273E-2,7.570347E-4,-3.3211522E-3,7.2143756E-2,-1.6499845E-2,6.168445E-2,8.477967E-2,3.719236E-2,3.41308E-3,5.0053168E-2,3.8577214E-2,-4.118556E-2,-2.4881584E-3,1.3307668E-2],"split_indices":[9,2,3,8,9,3,8,3,5,5,3,1,5,7,9,2,9,0,2,6,8,3,0,6,2,9,1,3,0,3,6,0,0,0,0,0,0,0,0,0,0,0,0,0,0,0,0,0,0,0,0,0,0,0,0,0,0],"split_type":[0,0,0,0,0,0,0,0,0,0,0,0,0,0,0,0,0,0,0,0,0,0,0,0,0,0,0,0,0,0,0,0,0,0,0,0,0,0,0,0,0,0,0,0,0,0,0,0,0,0,0,0,0,0,0,0,0],"sum_hessian":[6.2421356E2,3.772234E2,2.4699016E2,3.203596E2,5.6863808E1,7.399721E1,1.7299295E2,3.142901E2,6.069477E0,4.3740547E1,1.3123261E1,4.4063316E1,2.9933886E1,1.8035564E1,1.549574E2,1.6498789E1,2.9779132E2,1.0653448E0,5.0041323E0,3.469926E1,9.0412855E0,1.081016E1,2.3131015E0,9.986119E0,3.4077198E1,1.0869171E1,1.9064714E1,1.6265461E1,1.7701035E0,1.3700454E1,1.4125694E2,5.3803225E0,1.1118466E1,2.2365488E2,7.413644E1,3.9784057E0,1.0257264E0,1.7439753E1,1.725951E1,7.8088217E0,1.2324635E0,8.568163E0,2.2419972E0,8.867216E0,1.1189032E0,3.042194E1,3.6552596E0,5.0960674E0,5.773104E0,1.0541557E1,8.523158E0,2.1525302E0,1.4112931E1,1.2240942E1,1.4595114E0,8.4202896E1,5.705404E1],"tree_param":{"num_deleted":"0","num_feature":"10","num_nodes":"57","size_leaf_vector":"1"}},{"base_weights":[7.2411075E-3,-8.398708E-2,4.3653265E-1,8.174176E-1,-1.3177216E-1,5.863918E-1,1.6299301E-1,9.934185E-1,1.309467E-1,-2.9688257E-1,6.4271025E-2,6.267981E-1,-3.5923928E-2,-7.7725455E-2,9.092752E-1,-5.4355926E-4,1.051784E0,7.9192334E-1,-6.212386E-1,-3.2581052E-1,6.0652614E-1,2.6509501E-2,1.0047385E0,4.2510787E-1,1.1247941E0,-6.388175E-1,1.2771827E-1,-3.5287093E-3,1.0305802E0,5.9098627E-2,2.4220524E-2,-5.218174E-3,5.723244E-2,-4.1658085E-2,-2.276062E-3,1.8738061E-3,-2.0031935E-2,6.9161505E-2,-6.018387E-2,4.3737236E-2,-7.283885E-4,6.303733E-2,-2.0776793E-2,5.3128637E-2,1.2543867E-2,6.9214605E-2,1.2121279E-2,1.3851953E-2,-5.526454E-2,-4.729471E-3,3.126105E-2,6.392988E-2,2.3597559E-2],"categories":[],"categories_nodes":[],"categories_segments":[],"categories_sizes":[],"default_left":[0,0,0,0,0,0,0,0,0,0,0,0,0,0,0,0,0,0,0,0,0,0,0,0,0,0,0,0,0,0,0,0,0,0,0,0,0,0,0,0,0,0,0,0,0,0,0,0,0,0,0,0,0],"id":7,"left_children":[1,3,5,7,9,11,13,15,17,19,21,23,-1,25,27,-1,29,31,33,35,37,39,41,43,45,47,49,-1,51,-1,-1,-1,-1,-1,-1,-1,-1,-1,-1,-1,-1,-1,-1,-1,-1,-1,-1,-1,-1,-1,-1,-1,-1],"loss_changes":[2.4305603E1,2.2157722E1,4.3631344E0,3.0003605E0,1.5782785E1,4.135084E0,7.2354302E0,1.2113533E0,3.6933897E0,7.1109257E0,7.909489E0,6.384079E0,0E0,3.6639578E0,1.2382545E0,0E0,8.572407E-1,1.3419867E0,3.979081E-1,7.0007286E0,1.3696463E1,7.5342956E0,3.650566E0,5.312771E0,4.03471E0,3.9358187E0,2.6672196E0,0E0,6.143694E-1,0E0,0E0,0E0,0E0,0E0,0E0,0E0,0E0,0E0,0E0,0E0,0E0,0E0,0E0,0E0,0E0,0E0,0E0,0E0,0E0,0E0,0E0,0E0,0E0],"parents":[2147483647,0,0,1,1,2,2,3,3,4,4,5,5,6,6,7,7,8,8,9,9,10,10,11,11,13,13,14,14,16,16,17,17,18,18,19,19,20,20,21,21,22,22,23,23,24,24,25,25,26,26,28,28],"right_children":[2,4,6,8,10,12,14,16,18,20,22,24,-1,26,28,-1,30,32,34,36,38,40,42,44,46,48,50,-1,52,-1,-1,-1,-1,-1,-1,-1,-1,-1,-1,-1,-1,-1,-1,-1,-1,-1,-1,-1,-1,-1,-1,-1,-1],"split_conditions":[2.129278E0,-8.0437385E-2,1.7457977E-1,7.1606934E-1,2.52202E-3,5.7478297E-1,5.041333E0,-7.239778E-1,-1.8834586E0,4.100747E-1,1.10576E-1,2.9941434E-1,-3.5923928E-2,3.7003292E-3,4.426576E0,-5.4355926E-4,7.57578E-3,1.0462086E0,-9.4846594E-1,-1.795438E0,1.8587731E0,-4.2853072E-2,4.3144804E-1,4.793588E-2,4.9849874E-1,-3.0034027E-1,4.158236E0,-3.5287093E-3,-6.284215E-2,5.9098627E-2,2.4220524E-2,-5.218174E-3,5.723244E-2,-4.1658085E-2,-2.276062E-3,1.8738061E-3,-2.0031935E-2,6.9161505E-2,-6.018387E-2,4.3737236E-2,-7.283885E-4,6.303733E-2,-2.0776793E-2,5.3128637E-2,1.2543867E-2,6.9214605E-2,1.2121279E-2,1.3851953E-2,-5.526454E-2,-4.729471E-3,3.126105E-2,6.392988E-2,2.3597559E-2],"split_indices":[6,1,2,7,0,3,6,7,6,3,1,3,0,0,5,0,8,7,6,6,6,1,3,3,3,7,6,0,7,0,0,0,0,0,0,0,0,0,0,0,0,0,0,0,0,0,0,0,0,0,0,0,0],"split_type":[0,0,0,0,0,0,0,0,0,0,0,0,0,0,0,0,0,0,0,0,0,0,0,0,0,0,0,0,0,0,0,0,0,0,0,0,0,0,0,0,0,0,0,0,0,0,0,0,0,0,0,0,0],"sum_hessian":[6.186828E2,5.1091357E2,1.07769226E2,2.49101E1,4.8600348E2,6.888612E1,3.8883102E1,1.9470911E1,5.43919E0,2.635356E2,2.2246786E2,6.732112E1,1.5650017E0,3.0077309E1,8.805794E0,1.1141182E0,1.8356792E1,2.867004E0,2.5721862E0,2.559783E2,7.557303E0,2.1486867E2,7.5991917E0,4.9234577E1,1.8086544E1,7.495828E0,2.258148E1,1.0161319E0,7.789662E0,1.4049731E1,4.307061E0,1.0084988E0,1.858505E0,1.5532568E0,1.0189296E0,4.3805264E1,2.1217305E2,5.4533186E0,2.1039846E0,8.987337E0,2.0588133E2,6.5337825E0,1.065409E0,9.47378E0,3.9760796E1,1.3536675E1,4.549869E0,2.66654E0,4.829288E0,1.616712E1,6.41436E0,4.502051E0,3.287611E0],"tree_param":{"num_deleted":"0","num_feature":"10","num_nodes":"53","size_leaf_vector":"1"}},{"base_weights":[4.3554936E-2,-1.4050831E-1,3.205901E-1,-2.3588893E-1,3.9257205E-1,4.972343E-1,1.38649E-1,-4.5372203E-1,-1.0391473E-1,5.13371E-1,-9.199155E-1,4.328671E-1,1.0217015E0,-1.0503599E-1,4.3672878E-1,2.7789232E-1,-5.5997616E-1,-1.6027327E-1,4.4649512E-1,-2.1348988E-1,7.3120797E-1,-1.2912488E-3,-5.6673855E-2,5.009871E-1,-3.8344884E-1,1.1943084E0,1.7075616E-1,-4.004558E-1,1.9324332E-1,8.774257E-1,1.6194685E-1,-2.923942E-2,3.3384264E-2,-3.6015913E-2,-1.3117412E-2,1.6680343E-2,-1.0091531E-2,4.9618356E-2,-1.8003244E-2,-2.352435E-2,5.4116573E-2,6.490596E-2,2.0861892E-2,1.2698314E-2,3.377254E-2,-3.6383342E-2,2.998434E-2,6.78782E-2,1.6454855E-2,-4.3766882E-2,5.3417142E-2,1.7982824E-2,-2.9576255E-2,1.4856941E-2,-4.9662016E-2,5.5885237E-2,-1.256046E-2,-8.0854E-3,3.4830324E-2],"categories":[],"categories_nodes":[],"categories_segments":[],"categories_sizes":[],"default_left":[0,0,0,0,0,0,0,0,0,0,0,0,0,0,0,0,0,0,0,0,0,0,0,0,0,0,0,0,0,0,0,0,0,0,0,0,0,0,0,0,0,0,0,0,0,0,0,0,0,0,0,0,0,0,0,0,0,0,0],"id":8,"left_children":[1,3,5,7,9,11,13,15,17,19,21,23,25,27,29,31,33,35,37,39,41,-1,-1,43,45,47,49,51,53,55,57,-1,-1,-1,-1,-1,-1,-1,-1,-1,-1,-1,-1,-1,-1,-1,-1,-1,-1,-1,-1,-1,-1,-1,-1,-1,-1,-1,-1],"loss_changes":[3.1838022E1,1.9174812E1,7.9398003E0,9.122538E0,9.562353E0,3.8129883E0,9.063257E0,9.487215E0,6.273239E0,8.57068E0,9.6178675E-1,6.5316925E0,1.7119188E0,6.167135E0,6.6432314E0,5.734159E0,4.828991E0,3.8046055E0,8.649362E0,4.847937E0,6.7765846E0,0E0,0E0,4.3819466E0,3.5996182E0,1.0614042E0,4.0961347E0,5.302704E0,4.617324E0,6.055235E0,6.297212E0,0E0,0E0,0E0,0E0,0E0,0E0,0E0,0E0,0E0,0E0,0E0,0E0,0E0,0E0,0E0,0E0,0E0,0E0,0E0,0E0,0E0,0E0,0E0,0E0,0E0,0E0,0E0,0E0],"parents":[2147483647,0,0,1,1,2,2,3,3,4,4,5,5,6,6,7,7,8,8,9,9,10,10,11,11,12,12,13,13,14,14,15,15,16,16,17,17,18,18,19,19,20,20,23,23,24,24,25,25,26,26,27,27,28,28,29,29,30,30],"right_children":[2,4,6,8,10,12,14,16,18,20,22,24,26,28,30,32,34,36,38,40,42,-1,-1,44,46,48,50,52,54,56,58,-1,-1,-1,-1,-1,-1,-1,-1,-1,-1,-1,-1,-1,-1,-1,-1,-1,-1,-1,-1,-1,-1,-1,-1,-1,-1,-1,-1],"split_conditions":[7.4723266E-2,7.049514E-2,7.00101E-2,4.272728E1,7.906311E-2,3.677731E-2,2.552423E-1,-1.1275095E-1,1.9787231E-1,4.404512E-2,7.1739105E1,2.1861292E-2,1.6103764E-1,2.2511637E-2,-1.0655519E-3,4.404512E-2,5.414305E-2,-6.380569E-2,4.160129E-2,1.302314E-1,5.6105126E-2,-1.2912488E-3,-5.6673855E-2,-1.377894E-1,5.7082318E-2,2.1037437E-2,9.492533E-3,-6.402933E-2,2.493011E-1,5.7478297E-1,2.1229938E-1,-2.923942E-2,3.3384264E-2,-3.6015913E-2,-1.3117412E-2,1.6680343E-2,-1.0091531E-2,4.9618356E-2,-1.8003244E-2,-2.352435E-2,5.4116573E-2,6.490596E-2,2.0861892E-2,1.2698314E-2,3.377254E-2,-3.6383342E-2,2.998434E-2,6.78782E-2,1.6454855E-2,-4.3766882E-2,5.3417142E-2,1.7982824E-2,-2.9576255E-2,1.4856941E-2,-4.9662016E-2,5.5885237E-2,-1.256046E-2,-8.0854E-3,3.4830324E-2],"split_indices":[9,2,3,4,1,3,3,3,3,9,4,3,9,1,0,9,9,2,2,2,9,0,0,3,1,0,0,1,2,3,7,0,0,0,0,0,0,0,0,0,0,0,0,0,0,0,0,0,0,0,0,0,0,0,0,0,0,0,0],"split_type":[0,0,0,0,0,0,0,0,0,0,0,0,0,0,0,0,0,0,0,0,0,0,0,0,0,0,0,0,0,0,0,0,0,0,0,0,0,0,0,0,0,0,0,0,0,0,0,0,0,0,0,0,0,0,0,0,0,0,0],"sum_hessian":[6.224896E2,3.7429764E2,2.4819199E2,3.179639E2,5.6333725E1,1.2504982E2,1.23142166E2,1.19040634E2,1.9892326E2,5.2143402E1,4.190326E0,1.13006065E2,1.2043755E1,6.810932E1,5.5032845E1,1.4891261E1,1.04149376E2,1.8108963E2,1.783364E1,1.2028297E1,4.0115105E1,1.0240394E0,3.1662867E0,1.0465877E2,8.347294E0,9.677291E0,2.3664634E0,3.404658E1,3.406274E1,2.0293245E1,3.4739597E1,4.478748E0,1.0412514E1,6.676217E1,3.738721E1,1.3509622E1,1.6758E2,1.0498194E1,7.335445E0,1.05690775E1,1.4592199E0,1.3180885E1,2.6934217E1,4.4337536E1,6.032123E1,6.375084E0,1.97221E0,7.662423E0,2.0148675E0,1.1042736E0,1.2621899E0,6.6618915E0,2.7384691E1,3.2009377E1,2.0533657E0,1.673925E1,3.5539947E0,2.2074442E1,1.2665157E1],"tree_param":{"num_deleted":"0","num_feature":"10","num_nodes":"59","size_leaf_vector":"1"}}]},"name":"gbtree"},"learner_model_param":{"base_score":"5E-1","boost_from_average":"1","num_class":"0","num_feature":"10","num_target":"1"},"objective":{"name":"binary:logistic","reg_loss_param":{"scale_pos_weight":"0.4220604"}}},"version":[2,1,0]}